%YAML:1.0
opencv_ml_svm:
   format: 3
   svmType: EPS_SVR
   kernel:
      type: LINEAR
   C: 1.0000000000000000e-02
   p: 1.0000000000000001e-01
   term_criteria: { epsilon:1.0000000000000000e-03, iterations:1000 }
   var_count: 4356
   sv_total: 1
   support_vectors:
      - [ -2.25999169e-02, -7.98360538e-03, -6.94177020e-03,
          -1.45647777e-02, -3.27819325e-02, -2.03478672e-02,
          -1.74911544e-02, -1.33522190e-02, -2.02392898e-02,
          -1.21377576e-02, -4.53847228e-03, -8.22729804e-03,
          -1.70417819e-02, -1.62300281e-02, -2.19232142e-02,
          -1.90972500e-02, -1.38089256e-02, -1.55128390e-02,
          -1.69038307e-02, -1.00007076e-02, -8.86327121e-03,
          -1.13517232e-02, -2.24906206e-02, -2.13287231e-02,
          -2.02999618e-02, -1.41978571e-02, -1.71256568e-02,
          1.87094428e-03, -5.08804014e-03, -5.54751419e-03,
          -9.17554833e-03, 3.36079509e-03, -2.45306734e-02,
          -2.10103206e-02, -1.45947402e-02, -2.23174994e-03,
          -5.72116300e-03, -4.74305730e-03, -6.97268639e-03,
          -1.97504237e-02, -3.49130407e-02, -1.94562171e-02,
          -1.38214752e-02, -1.02878679e-02, -1.01879239e-02,
          -4.00630524e-03, -2.78276252e-03, -5.23502985e-03,
          -1.29387807e-02, -3.83148808e-03, -1.84611678e-02,
          -1.82947107e-02, -1.62448864e-02, -9.44814179e-03,
          -8.78909137e-03, -2.18149577e-03, -5.18688653e-03,
          -2.11600401e-02, -3.16752642e-02, -2.25710832e-02,
          -1.60284527e-02, -1.31116770e-02, -1.39081599e-02,
          6.22858945e-03, 5.79337263e-03, 9.03713517e-03, 3.62697415e-06,
          1.41650578e-02, -1.48819750e-02, -1.62414033e-02,
          -1.02764657e-02, 4.85613616e-03, -6.79118838e-03,
          -6.27267780e-03, -8.29453953e-03, -1.37715563e-02,
          -2.38049440e-02, -1.54764336e-02, -1.36091746e-02,
          -1.34142349e-02, -6.28902391e-03, 2.41370779e-03,
          6.47668785e-04, 8.57815053e-03, -8.50395393e-03,
          -2.00722851e-02, -1.12705454e-02, -6.54460490e-03,
          -5.35358815e-03, -1.74855744e-03, -1.10084014e-02,
          -8.17940198e-03, -5.62755065e-03, -5.90752717e-03,
          -1.20473607e-02, -1.49577186e-02, -1.56123480e-02,
          -9.20233596e-03, -4.79231821e-03, -4.69061080e-03,
          -1.45516347e-03, 6.32979022e-03, 4.72503994e-03,
          -4.13597329e-03, 4.16711089e-04, -7.83336756e-04,
          7.56062800e-05, 3.29883024e-03, 2.65680999e-03, 6.59485886e-05,
          4.25854977e-03, -9.04197618e-03, -2.34306622e-02,
          -1.02201076e-02, -1.81780790e-03, -3.70083377e-03,
          -2.43190397e-03, 4.92861634e-03, -2.94213556e-03,
          -3.93174402e-03, -1.05186086e-02, -2.24896111e-02,
          -4.84539336e-03, -4.98889806e-03, -7.29176076e-03,
          -1.67729775e-03, -2.37717014e-03, -1.91090023e-03,
          4.96438844e-03, -4.96643130e-03, -1.32962614e-02,
          -1.65040465e-03, 6.81293709e-03, 6.40002359e-03,
          6.33834023e-03, -2.19324790e-03, -4.23375750e-03,
          -2.27016653e-03, -1.01521211e-02, -4.44812886e-03,
          3.30112735e-03, 2.08046776e-03, -2.88147567e-04,
          2.58121896e-03, 2.75852246e-04, -4.83022816e-03,
          -8.08082148e-03, -1.20909810e-02, -1.50942300e-02,
          -2.02012202e-03, -9.07189155e-04, -6.72830874e-03,
          -3.54356435e-03, 2.56157626e-04, -4.65699378e-03,
          -7.78097566e-03, -8.49979836e-03, -1.34674609e-02,
          -8.51742737e-03, -4.92469594e-03, -9.31216031e-03,
          -3.44681973e-03, 5.13852481e-03, 5.45445946e-04,
          -1.18712871e-03, -7.33380904e-03, -5.46863815e-03,
          3.95114068e-03, 1.34871784e-03, -5.88668103e-04,
          4.26803483e-03, 1.95440021e-03, 2.17065332e-03,
          -4.09059692e-03, 1.46720720e-06, -7.64400174e-04,
          -1.03895913e-03, -1.25110219e-03, 1.55195978e-03,
          1.49985601e-03, 8.02115165e-03, -4.91797598e-03,
          -8.46910290e-03, -9.77669191e-03, -1.65161286e-02,
          -9.79616772e-03, -6.23692898e-03, -7.42511032e-03,
          6.76159281e-03, 6.70380332e-03, -5.70895663e-03,
          -9.40785557e-03, -1.27598885e-02, -2.13019177e-02,
          -1.41217597e-02, -1.46414740e-02, -1.45236114e-02,
          1.01670967e-02, 7.48423720e-03, -4.84698452e-04,
          -3.31532932e-03, -3.21631203e-03, -9.51848272e-03,
          -1.43457227e-03, -3.74570047e-03, 4.38788952e-03,
          8.41802452e-03, 1.89262461e-02, 4.29335609e-03, 1.12592279e-04,
          -2.15434493e-03, -6.04401249e-03, -8.73837154e-03,
          -3.23722442e-03, -5.99934137e-04, 1.35509660e-02,
          1.23160519e-02, -8.10631551e-03, -1.06918961e-02,
          -9.63312015e-03, -1.61303487e-02, -1.16680684e-02,
          -9.65246838e-03, -1.07685886e-02, 1.66001692e-02,
          1.27746714e-02, -1.43733090e-02, -1.01063959e-02,
          -1.30930487e-02, -2.35796515e-02, -1.93941463e-02,
          -1.20522501e-02, -9.22488794e-03, 1.79292411e-02,
          2.04680432e-02, 3.35682975e-03, -1.25198229e-03,
          -3.85017623e-03, -9.66435485e-03, -8.19080602e-03,
          -5.57835354e-03, -5.40827541e-03, 1.06746228e-02,
          1.75464600e-02, 6.86333457e-04, -1.15983433e-03,
          -5.78369340e-03, -1.34651382e-02, -1.01324273e-02,
          -1.51403516e-03, -1.87733641e-03, 1.52507694e-02,
          8.44122563e-03, -8.80790409e-03, -5.29536745e-03,
          -1.06773600e-02, -1.97284576e-02, -1.46514364e-02,
          -6.45434344e-03, -1.45196810e-03, 1.34893302e-02,
          8.77025945e-04, -5.89101249e-03, -3.31728021e-03,
          -6.08077645e-03, -1.51965711e-02, -1.12931132e-02,
          4.41051699e-04, 1.49916555e-03, 5.36444504e-03, 2.30287667e-02,
          -6.64061727e-03, -8.43963865e-03, -1.02208629e-02,
          -1.46029731e-02, -7.57514546e-03, 4.18554805e-03,
          3.33938771e-03, 2.08055675e-02, 1.42055023e-02,
          -3.69918183e-03, -6.44585025e-03, -7.68168364e-03,
          -1.39388153e-02, -1.75964064e-03, 7.73084396e-03,
          -4.01740923e-04, 1.31291524e-02, -8.15831032e-03,
          -7.81213632e-03, -1.09229644e-03, -4.40024724e-03,
          -1.08444653e-02, -9.25613381e-03, 2.00592750e-03,
          1.63657381e-03, -4.30780230e-03, -1.03013553e-02,
          -7.26104714e-03, 1.19095470e-03, -6.18177652e-03,
          -1.88861359e-02, -1.26912398e-02, -4.49776329e-04,
          -2.92830518e-03, -7.19531020e-03, 1.13326656e-02,
          -2.57323356e-03, 3.31582176e-03, 1.59259385e-03,
          -8.13001301e-04, 3.66799487e-03, 5.85121755e-03,
          2.32030638e-03, 9.45764314e-03, 4.93665366e-03, 1.37108774e-03,
          1.71275169e-03, -2.03339267e-03, -1.10885417e-02,
          -9.06210952e-03, 4.83725162e-04, -1.46028399e-03,
          5.57419844e-03, -1.00470334e-02, -1.24086691e-02,
          -3.01700528e-03, -5.37640974e-03, -1.53224217e-03,
          -3.94655345e-03, 5.77596482e-03, 4.07827459e-03,
          -3.80542316e-03, -1.84330419e-02, -1.86853036e-02,
          -1.14444159e-02, -7.07632815e-03, -1.16418740e-02,
          -7.71320052e-03, -7.54222798e-04, -1.38648390e-03,
          -9.17049311e-03, 1.66687649e-04, -3.11382115e-03,
          5.71443990e-04, -4.41098491e-05, -5.51879453e-03,
          -4.85556480e-03, 1.00969654e-02, 1.47615466e-02,
          7.53606251e-03, -6.61002891e-03, -1.14927683e-02,
          -7.91501626e-03, -1.02163423e-02, -9.12353490e-03,
          -9.18403547e-03, 5.66579029e-03, 6.47848938e-03,
          2.52386741e-03, -1.66008696e-02, -1.60388388e-02,
          -1.01831043e-02, -5.94363082e-03, -2.45064800e-03,
          6.54490897e-04, 3.58337723e-03, 1.30317628e-03,
          -5.22216503e-03, -2.53523830e-02, -1.97423492e-02,
          -1.84365381e-02, -2.03651134e-02, -2.75205914e-02,
          -2.03722864e-02, -9.09822714e-03, -7.97403604e-03,
          -1.95268765e-02, 1.72338786e-03, -9.73842014e-03,
          -7.49557652e-03, -3.83565156e-03, 1.03555061e-02,
          -2.78294599e-03, 1.48848007e-02, 1.89839415e-02,
          1.19319260e-02, -1.77269932e-02, -1.93857998e-02,
          -1.99362058e-02, -1.87537931e-02, -1.57216098e-02,
          -1.74494348e-02, -1.08111091e-02, -8.10044445e-03,
          -1.02910651e-02, -2.17314716e-02, -1.31692057e-02,
          -1.07849920e-02, -1.06945764e-02, -1.89176872e-02,
          -1.84781961e-02, -1.92438085e-02, -1.36851557e-02,
          -2.27560680e-02, -1.84355844e-02, -1.13065913e-02,
          -7.75892567e-03, -1.09899612e-02, -8.35411996e-03,
          -2.03256514e-02, -1.86775345e-02, -1.53850140e-02,
          -1.88149400e-02, -2.31234469e-02, -1.92686915e-02,
          -1.31756878e-02, -9.86111909e-03, -1.02453958e-02,
          -1.40405009e-02, -1.15245646e-02, -1.21622439e-02,
          -2.25798618e-02, -1.39777707e-02, -5.59508381e-03,
          1.32451979e-02, 1.04740150e-02, 2.23547425e-02,
          -1.23096500e-02, -9.31008719e-03, -1.04878955e-02,
          -1.35813039e-02, -1.46641824e-02, -4.99435281e-03,
          -3.42321070e-03, -1.61633138e-02, -2.85264496e-02,
          -1.54164536e-02, -1.54722119e-02, -1.43007655e-02,
          -1.30541967e-02, -1.04139661e-02, -2.20578234e-03,
          1.64966099e-03, -7.09227379e-03, -7.59346038e-03,
          -1.60749070e-02, -1.27369994e-02, -1.05088307e-02,
          -7.71868555e-03, -9.88794584e-03, -1.32761989e-03,
          4.13897028e-03, -9.59557015e-03, -2.31383555e-02,
          -1.21438187e-02, -7.57940812e-03, -9.41056479e-03,
          -1.13230255e-02, 1.33363868e-03, 3.80447437e-03,
          1.05740102e-02, 1.36730438e-02, -8.75848904e-03,
          -9.38697718e-03, -1.59817794e-03, -2.70488951e-03,
          3.18415323e-03, -1.25442334e-02, -1.48559064e-02,
          -6.09908579e-03, -7.80905876e-03, -1.27739273e-02,
          -1.32383555e-02, -7.96245877e-03, -5.47105074e-03,
          -5.43920649e-03, -1.09458556e-02, -1.06832143e-02,
          -3.02742166e-03, -5.55343879e-03, -2.19506631e-03,
          -9.86306928e-04, 3.06883128e-04, 9.53635725e-04,
          -4.22118139e-03, -3.51039460e-03, -6.68018777e-03,
          -1.74481270e-03, -6.30473858e-03, -9.87552572e-03,
          -8.63469578e-03, -3.71403876e-03, 2.35831481e-04,
          -2.46688956e-04, 4.26742341e-03, -4.56467690e-03,
          -3.94786708e-03, -5.93604194e-03, -4.64536803e-04,
          -3.09132127e-04, 1.16958888e-03, 1.10254134e-03,
          6.03847532e-03, -9.65072121e-03, -6.90347794e-03,
          -4.20956872e-03, -5.97405387e-03, -9.27568972e-03,
          -2.72483262e-03, 5.17695677e-03, 3.16998060e-03,
          -2.39495770e-03, -7.91021809e-03, -6.67192880e-03,
          -4.19323379e-03, -7.12339487e-03, -4.92897397e-03,
          -1.75206782e-03, 6.36574870e-04, -2.48388271e-03,
          -4.88922512e-03, 3.63339204e-03, 1.36586733e-03,
          8.63638241e-04, -4.53015184e-03, -6.40035793e-03,
          -5.19272545e-03, -1.62255601e-03, -4.26240964e-03,
          2.30188482e-03, 2.01860559e-04, 5.09144645e-03, 7.77481589e-03,
          6.64089760e-03, 3.05359229e-03, -5.43431053e-03,
          -3.96805303e-03, -5.32647269e-03, -1.72185828e-03,
          -4.77266405e-03, -7.06785638e-03, -4.92894603e-03,
          -4.10827249e-03, -1.35018828e-03, -1.47345208e-03,
          -3.47278058e-03, -2.36339821e-03, -1.96727389e-03,
          -7.26195239e-03, -7.58345472e-03, -2.93064793e-03,
          1.85507676e-03, 2.33691465e-03, -3.46565736e-03,
          -4.75104479e-03, -1.66209426e-03, -2.71232403e-03,
          -3.82002629e-03, 8.13887309e-05, -1.46463222e-04,
          4.64377226e-03, -7.77770940e-04, -2.59665819e-03,
          -5.63383894e-03, -4.65555163e-03, -5.54059306e-03,
          -5.66896889e-03, -6.48585614e-03, -3.28549906e-03,
          7.49950623e-03, 1.49562433e-02, 6.10804884e-04, 9.15663317e-04,
          8.05316318e-04, -2.86423624e-03, -5.79767511e-04,
          -4.15593572e-03, -2.18524341e-03, -1.25219033e-03,
          -3.68238543e-03, -1.14102988e-03, 5.00847585e-04,
          1.75068853e-03, 4.08240547e-03, 5.44886990e-03, 2.99165212e-03,
          -1.33724697e-03, -8.12845863e-03, -1.62258781e-02,
          -1.01658590e-02, -1.34776591e-03, -8.54993181e-04,
          3.40064056e-03, -3.90598061e-03, -3.47766257e-03,
          -1.59433181e-03, 4.88257268e-03, 1.14173372e-03,
          -2.12844741e-03, 2.05855770e-03, 6.11445680e-03,
          1.32606609e-03, 4.74109501e-03, 1.21791789e-03, 1.00904878e-03,
          -1.03174348e-03, -1.19969361e-02, -8.74357764e-03,
          -4.09160834e-03, 1.22413586e-03, 4.69038729e-03,
          7.75721250e-03, 3.68742412e-03, -3.77247634e-04,
          -5.16213151e-03, -1.15009677e-02, -7.63253681e-03,
          -3.78218899e-03, -8.97339731e-03, 3.73079150e-04,
          8.96725990e-03, 3.43049108e-03, -7.33302382e-04,
          -7.84533657e-03, -9.08912905e-03, -9.02722124e-03,
          -3.65359150e-03, -7.62465736e-03, 7.29867537e-03,
          1.09136188e-02, 4.69474075e-03, -4.62504104e-04,
          -7.71692768e-03, -1.13870129e-02, -2.57279282e-03,
          5.27571130e-04, -4.65400779e-04, 8.38872977e-03,
          1.15972813e-02, 6.15430577e-03, 2.79293722e-03,
          -1.88304088e-03, -3.06505943e-03, -2.72656861e-03,
          2.37345276e-03, -3.57526238e-04, 8.55748355e-03,
          1.35036940e-02, -4.66230139e-03, -6.83080498e-03,
          -8.45240057e-03, -1.02932546e-02, -6.90609682e-03,
          -2.17907573e-03, -2.01732432e-03, 1.39656467e-02,
          1.13104060e-02, -5.36961295e-03, -1.24465842e-02,
          -1.06480811e-02, -1.28617259e-02, -8.34058970e-03,
          -6.33507269e-03, -9.22072213e-03, 7.91882724e-03,
          1.12766773e-02, -6.31022500e-04, 1.30664383e-03,
          2.07866146e-03, 6.16629981e-03, -3.31635005e-04,
          4.43298230e-03, -1.08953194e-04, 9.09557007e-03,
          6.40090555e-03, -4.62090177e-03, -9.68905725e-03,
          -5.57347806e-03, -3.17550497e-03, -5.31095429e-04,
          -1.06211856e-03, -8.34354479e-03, 6.81525213e-04,
          1.15707600e-02, -6.76780764e-04, -1.52409473e-03,
          2.46928958e-03, -8.06236349e-05, 1.07344449e-03,
          4.27419320e-03, -5.61901927e-03, 9.18312836e-03,
          6.06473396e-03, -2.58042640e-03, -4.92740143e-03,
          -7.42648402e-03, -1.21224811e-02, -6.65004645e-03,
          -1.62306649e-03, -5.42716682e-03, 7.05832569e-03,
          1.06523111e-02, -8.86116992e-04, -2.29590340e-03,
          -3.23529792e-04, 2.57017580e-03, 4.18761792e-03,
          1.03021029e-03, -6.48468081e-03, 7.25369016e-03,
          6.69768685e-03, -7.93488417e-03, -9.14555602e-03,
          -1.29905902e-02, -1.22268051e-02, -4.57042921e-03,
          -6.51509594e-03, -1.21860337e-02, 6.56174915e-03,
          6.21074066e-03, -2.79026828e-03, -2.03370093e-03,
          -4.78337239e-03, -4.45553288e-03, -8.98308426e-05,
          2.86600599e-03, 6.33885851e-03, 9.70517471e-03, 5.76100610e-05,
          -9.01740417e-03, -1.03859175e-02, -1.04790842e-02,
          -8.55251029e-03, -2.73836218e-03, 8.10267497e-03,
          8.02039634e-03, 4.83219465e-03, 3.90050071e-03,
          -7.61572598e-03, -7.56108668e-03, -9.03345458e-03,
          5.52642858e-03, -5.15911030e-03, -5.03583066e-03,
          -2.90575880e-03, 7.12177390e-03, 1.45922543e-03,
          -8.22043885e-03, -1.27145387e-02, -1.06709618e-02,
          -8.14457797e-03, -4.50213766e-03, 3.65309371e-03,
          8.59195367e-04, 4.90856182e-04, -5.95541531e-03,
          -9.70211998e-03, -1.15129603e-02, -8.25767592e-03,
          8.15331098e-03, -1.46263279e-04, 1.44752180e-02,
          9.02874488e-03, -1.06491798e-05, -2.22212318e-02,
          -1.34418970e-02, -1.24324309e-02, -1.47990128e-02,
          -1.67594627e-02, -1.53674232e-02, -3.40681127e-03,
          -9.83050931e-03, -1.87103804e-02, -4.58135689e-03,
          -1.02254115e-02, -1.23709161e-02, -5.28858788e-03,
          2.89351912e-03, 6.08099252e-03, 1.76997297e-02, 8.85450188e-03,
          -1.58058421e-03, -2.27631275e-02, -1.51551245e-02,
          -1.30991172e-02, -1.83303002e-02, -4.58764052e-03,
          1.37744099e-03, 5.87614812e-03, -2.43054377e-03,
          -1.67530347e-02, -1.96491331e-02, -2.11843550e-02,
          -1.67519562e-02, -1.40207466e-02, -1.77951101e-02,
          -1.24942586e-02, -3.30801285e-03, -5.82134956e-03,
          -2.06184182e-02, -1.79840364e-02, -9.44036618e-03,
          1.86828210e-03, 3.58416350e-03, 1.11563569e-02,
          -1.19320750e-02, -8.51999689e-03, -9.25596990e-03,
          -1.90558508e-02, -2.67496072e-02, -2.05202270e-02,
          -1.75106954e-02, -1.18508749e-02, -1.78656094e-02,
          -1.55172963e-02, -8.11275002e-03, -7.57926144e-03,
          -2.58694962e-02, -1.81981716e-02, -1.24624763e-02,
          -1.18920568e-03, 5.33071300e-03, 2.64925230e-02,
          -8.65042582e-03, -8.57621338e-03, -6.68043736e-03,
          -1.30632808e-02, -1.34727266e-02, -4.71164938e-03,
          -1.87030772e-03, -6.84528286e-03, -2.15712190e-02,
          -1.16734290e-02, -4.43182327e-03, -7.39090284e-03,
          -1.35765783e-02, -3.94744845e-03, 3.08063091e-03,
          5.54627506e-03, 5.96059253e-03, -9.95774567e-03,
          -1.10959047e-02, -5.63494395e-03, -3.59066250e-03,
          -4.15093359e-03, -1.34011963e-02, -7.34412111e-03,
          -3.50399222e-03, -1.50477252e-04, -1.46223092e-02,
          -1.43482788e-02, -1.07776485e-02, -7.59197772e-03,
          -9.93403420e-03, 2.04728241e-03, 1.35779269e-02,
          1.42666427e-02, 7.75736058e-03, 1.08871926e-02,
          -6.55493932e-03, -9.76705644e-03, -5.45392325e-03,
          2.26989825e-04, -6.15859637e-03, 9.57104261e-04,
          1.43604376e-03, -9.34937270e-04, -7.84012768e-03,
          -8.32589157e-03, -8.11597891e-03, -6.13991776e-03,
          -5.09881228e-03, -4.92039835e-04, 5.68051776e-03,
          2.25726908e-04, -1.48968410e-03, 1.72799313e-03,
          -4.20712959e-03, -6.29041111e-03, -3.73319979e-03,
          -5.42679615e-03, 8.56162515e-05, 6.93274383e-03,
          7.68269738e-03, 1.81889639e-03, -5.91690792e-03,
          -8.76767281e-03, -1.31077059e-02, -1.20462123e-02,
          -3.32661951e-03, -1.82366333e-04, 2.20264355e-03,
          9.14208964e-03, 1.86658592e-03, -7.08216859e-04,
          -2.21667322e-03, -7.16684200e-03, -9.32573713e-03,
          -4.03935695e-03, 5.20594942e-04, 1.05958385e-02,
          8.21226276e-03, -1.36355098e-04, -5.46605233e-03,
          -4.31042956e-03, -3.84077476e-03, -4.00171475e-03,
          -2.15452444e-03, 2.63131587e-05, 9.55397449e-03,
          1.26882168e-02, 8.20379704e-03, -9.43194391e-05,
          -6.98514096e-03, -5.91086224e-03, -6.44455431e-03,
          -4.17075166e-03, -1.98843237e-03, 9.42683406e-03,
          8.73548258e-03, 1.41734490e-03, -1.27317738e-02,
          -4.30769986e-03, -3.70772253e-03, -7.52234319e-03,
          -8.40236619e-03, 1.37335723e-04, 6.36104681e-03,
          9.21067689e-03, 6.45309314e-03, -1.07504416e-03,
          -7.56668393e-03, -3.43747647e-03, -3.21638957e-03,
          -3.11972178e-03, -3.00447270e-03, 5.70109580e-03,
          1.07342564e-02, 8.51919781e-03, 2.08231286e-04, 8.22891074e-04,
          -2.82630045e-03, -1.96041213e-03, -3.92844202e-03,
          -1.02576111e-02, -2.27155467e-03, -8.86391266e-04,
          6.35742955e-03, -1.44203368e-03, 6.46146853e-03,
          1.99508131e-03, -4.73618507e-03, -7.37319980e-03,
          -4.98955371e-03, 5.47226565e-03, 7.31230807e-03,
          3.81992571e-03, -3.44626559e-03, -2.29429104e-03,
          -1.16029917e-03, -1.01616629e-03, -4.58486658e-03,
          -5.46699017e-03, -4.04032646e-03, -5.30103134e-05,
          -4.21490433e-04, -9.94805060e-03, 5.39920293e-03,
          -2.90627801e-03, -7.23158149e-03, -3.07003618e-03,
          -3.47867492e-03, -1.32786215e-03, -6.53909810e-04,
          7.00143259e-03, 4.31475579e-04, 4.16010153e-03,
          -2.61353189e-03, -1.94886466e-03, -1.13502366e-03,
          -9.05678200e-04, -1.87173326e-04, 6.50331436e-04,
          4.92986641e-04, -8.77203979e-03, -3.85155948e-03,
          -7.28941942e-03, -2.65478244e-04, 1.35564466e-03,
          2.62348470e-03, 3.95698531e-04, 4.78754239e-03, 7.31839740e-04,
          -8.70602019e-03, 4.12023539e-04, -4.90503851e-03,
          -7.53189949e-03, 3.33303213e-03, -3.14460415e-03,
          -2.83094472e-04, -9.58403281e-04, 1.43727032e-03,
          -1.26521140e-02, -5.74366981e-03, -9.95262340e-03,
          -5.22007421e-03, -1.87964784e-03, 4.04307805e-03,
          -7.00947421e-04, -2.38311733e-03, -8.33524577e-03,
          -1.06528560e-02, 2.41098998e-04, 2.81410920e-03,
          2.01796694e-03, 4.92151594e-03, 7.11831171e-03, 5.56203362e-04,
          -2.21774867e-03, -3.94364912e-03, -1.85586658e-04,
          5.09032561e-03, 8.94504413e-03, 6.54989295e-03, 7.68637192e-03,
          -4.50305175e-03, -4.93872771e-03, -6.48448011e-03,
          -2.75372155e-03, -9.56750195e-03, -4.14959621e-03,
          -4.81700012e-03, 9.32584051e-04, -5.63570247e-05,
          -1.07001083e-03, -4.39102622e-03, -8.75676330e-03,
          -2.43397849e-03, -2.84876581e-03, 2.23443261e-03,
          1.75525469e-03, 4.90955776e-03, 3.34489439e-03, 6.97386404e-03,
          -3.75948148e-03, 5.52341749e-04, 8.18559958e-04,
          5.73402364e-03, 6.67494256e-03, 5.88078890e-03, 7.57063739e-04,
          4.69688326e-03, 6.56492542e-04, -7.73109961e-03,
          -1.64181192e-03, -3.54984170e-03, -1.19108090e-03,
          4.23750654e-03, 1.91600155e-03, -5.76215703e-03,
          -2.49435217e-03, -3.56730947e-04, -4.60410351e-03,
          -5.23517048e-03, -3.71794333e-03, -4.88176337e-03,
          5.77485748e-03, 3.71345459e-03, -5.33795916e-04,
          3.04841949e-03, -7.12418929e-03, -1.10873049e-02,
          -4.33830544e-03, -4.75712866e-03, -1.01964492e-02,
          1.22255762e-04, 1.67909986e-03, -7.56569672e-03,
          -5.98226534e-03, 5.91107598e-03, -2.00175284e-03,
          1.91707548e-03, -5.26987598e-04, 4.55025630e-03,
          8.58645700e-03, 5.90113690e-03, -5.28198108e-03,
          5.77172125e-03, 4.05410212e-03, -8.03606864e-03,
          -7.64443073e-03, -8.47831648e-03, -1.45425564e-02,
          -7.03899888e-03, -7.92329758e-03, -7.97239412e-03,
          8.26099701e-03, 5.68238180e-03, -4.94343601e-03,
          1.37052021e-03, 1.04034622e-03, 4.93300380e-03, 5.85610559e-03,
          8.11279658e-03, -3.52165755e-03, 6.37981156e-03,
          7.42460368e-03, -1.00053521e-02, -4.00329055e-03,
          -7.44595099e-03, -1.55971516e-02, -8.86794087e-03,
          -1.04522733e-02, -1.08001418e-02, 6.95032300e-03,
          9.34267789e-03, -2.65285606e-03, -3.44715826e-03,
          -4.54936083e-03, -5.00029698e-03, -5.39224129e-03,
          -1.86101405e-03, 1.23756693e-03, 9.91607085e-03,
          4.18777158e-03, -6.54063514e-03, -1.17533263e-02,
          -8.64098314e-03, -9.32155736e-03, -5.87041164e-03,
          1.16955047e-03, 1.07877527e-03, 4.79372777e-03, 1.34445475e-02,
          -9.35887219e-04, -2.96901038e-04, -5.76021941e-03,
          -2.69272435e-03, -7.56884739e-03, -2.23263190e-03,
          -1.98203558e-03, 1.89515725e-02, 3.81147815e-03,
          -5.22376271e-03, -1.14317052e-02, -9.28573962e-03,
          -1.34588834e-02, -1.20600183e-02, -7.82259367e-03,
          -2.49911821e-03, 4.04015556e-03, -5.07120416e-03,
          -7.81050976e-03, -1.03047937e-02, -4.94391378e-03,
          1.04992194e-02, 5.66661451e-03, 1.16562266e-02, 1.95755716e-03,
          -3.86208366e-03, -2.07834747e-02, -1.33828018e-02,
          -1.40943471e-02, -1.36889173e-02, 3.87793151e-03,
          6.62103947e-03, 9.31215286e-03, -7.44060497e-04,
          -1.56579595e-02, -5.37776621e-03, -6.48934394e-03,
          -8.41947272e-03, -9.08459187e-04, 4.80274670e-03,
          2.93394178e-03, -5.60973771e-03, -7.81101780e-03,
          -5.18465973e-03, -1.75537225e-02, -1.55347046e-02,
          -1.39071941e-02, -1.19426185e-02, 3.68008390e-03,
          2.68468331e-03, -2.96247937e-03, -9.41236317e-03,
          -2.08988413e-02, -2.64462642e-02, -1.64115056e-02,
          -1.16036292e-02, -3.89138819e-03, -9.43971612e-03,
          -1.36235030e-02, -8.51721969e-03, -1.14305764e-02,
          -2.58763600e-02, -1.97785273e-02, -1.17817735e-02,
          -1.52690033e-03, 5.06323949e-03, 1.48880212e-02,
          -3.99320014e-03, -8.04134272e-03, -7.73256132e-03,
          -1.51212029e-02, -3.24518457e-02, -1.94941089e-02,
          -9.83296148e-03, -5.13624912e-03, -1.28623014e-02,
          -1.74168069e-02, -1.58085879e-02, -2.18345709e-02,
          -2.86300629e-02, -2.05224119e-02, -1.25524849e-02,
          -5.75433136e-04, 1.09556988e-02, 9.73551348e-03,
          -1.02680288e-02, -1.14652021e-02, -1.24427648e-02,
          -1.36672202e-02, -1.54574430e-02, -8.19226820e-03,
          -2.12336006e-03, 3.47512797e-03, -7.64844194e-03,
          -1.05263060e-02, -1.14681479e-02, -1.06131174e-02,
          -1.25998957e-02, -2.80415500e-03, 4.19299025e-03,
          1.24733727e-02, 1.12920329e-02, 1.73388440e-02,
          -2.97645526e-03, -5.77449892e-03, -1.35846790e-02,
          -5.27541852e-03, -2.36012749e-02, -9.69265774e-03,
          -1.24303531e-03, 3.15705943e-03, -1.71117000e-02,
          -1.39921336e-02, -9.92822275e-03, -9.60178580e-03,
          -1.92374326e-02, -8.06295499e-03, -6.37997175e-03,
          3.23311053e-03, 4.55912948e-03, 6.64011808e-03, 1.41814095e-03,
          -5.26171716e-05, -9.27275605e-03, -9.05771274e-03,
          -4.81629628e-04, 3.58526059e-03, 1.12826088e-02,
          7.50759104e-03, -2.14338955e-03, -2.50036269e-03,
          -7.47249974e-03, -1.29166273e-02, -5.46866842e-03,
          -3.94389173e-03, 2.47567520e-03, 1.20869055e-02,
          6.12070737e-03, 6.17300393e-04, 1.44870649e-03,
          -5.71621815e-03, -4.94688423e-03, -6.23027934e-03,
          -8.99198372e-03, -5.77621162e-03, 3.10040405e-03,
          3.46348039e-03, -5.11623221e-03, -5.18715824e-04,
          -2.72682728e-03, -1.08446246e-02, -1.24242408e-02,
          -7.80022377e-03, -7.94586027e-04, 5.67325810e-03,
          -8.64699614e-05, 5.79164410e-03, -6.24511950e-03,
          -9.01618786e-03, -9.91789717e-03, -8.10788479e-03,
          2.16959394e-03, 8.09686724e-03, 1.46386605e-02, 5.13768569e-03,
          -9.44092777e-03, -5.59136365e-03, -3.35274916e-03,
          -1.20212883e-03, -1.20835099e-03, 5.18621504e-03,
          7.52222538e-03, 1.13775628e-02, 9.01739765e-03,
          -4.29769838e-03, -5.10796066e-03, 2.00872673e-04,
          3.44980555e-03, 3.77081195e-03, 1.79802626e-03,
          -2.46822438e-03, 5.93334809e-03, 1.16111361e-04,
          -9.56442766e-03, -7.38520222e-03, -6.06665621e-03,
          -3.01402039e-03, 3.18498560e-03, 7.55823823e-03,
          1.90027442e-03, 1.02345217e-02, 5.15552144e-03,
          -3.93949915e-03, -2.97712698e-03, -2.37423903e-03,
          -3.34823853e-03, 1.02005769e-02, 2.73360056e-03,
          4.66393074e-03, 4.92098508e-03, 7.47042126e-04,
          -3.04325344e-03, -3.37089179e-03, 1.22131628e-03,
          7.44346762e-04, 3.50683136e-03, 3.15256463e-03,
          -1.81418494e-03, -6.26285153e-04, -1.38169283e-03,
          -9.45726410e-03, -3.29993456e-03, -1.50325592e-03,
          -7.72301061e-03, 2.70952913e-03, 6.34971913e-03,
          4.50421969e-04, 4.96039912e-03, 4.38575255e-04,
          -9.13626049e-03, -4.04810673e-03, 4.30618325e-04,
          -6.86673401e-03, 7.56958500e-03, 2.67739850e-03,
          1.76229537e-03, -3.17230751e-03, -7.34145695e-04,
          -1.05228126e-02, -8.27022642e-03, -1.87336851e-03,
          -1.00730443e-02, -2.27161939e-03, 1.00785727e-02,
          5.44445124e-03, 7.52464402e-03, 1.04282098e-03,
          -6.62401272e-03, -3.36945290e-03, -3.90063412e-03,
          -7.49703683e-03, 7.17808260e-03, 3.65392421e-03,
          4.26663179e-03, 3.62858921e-03, -9.11999959e-04,
          -1.05024893e-02, -4.40366659e-03, -1.23007409e-02,
          -4.69085667e-03, 2.66844174e-04, 6.40762877e-03,
          9.57980286e-04, 7.49704079e-04, -1.45532133e-04,
          -5.40527841e-03, -4.24310006e-03, -2.04571825e-03,
          -8.02263245e-03, 2.44707940e-03, 6.03368273e-03,
          2.93837773e-04, -3.35658086e-03, -3.70197860e-03,
          -9.92608070e-03, -1.02935301e-03, -8.56991857e-03,
          -6.04017172e-03, 1.50344800e-03, 1.38033333e-03,
          1.15738530e-03, -1.04044424e-03, 2.58922647e-03,
          -1.57784612e-03, -1.04165997e-03, -5.66524174e-03,
          1.50247081e-03, 3.55620659e-03, 4.16839682e-03,
          -1.84739567e-03, -6.19859947e-03, 9.21040191e-04,
          4.73558903e-03, 3.49032297e-03, -6.02661690e-04,
          3.22087575e-03, 9.94144659e-03, 2.04819650e-03,
          -1.87381066e-03, -3.73295695e-03, -6.61295722e-04,
          -7.42221158e-03, -7.91564351e-04, -6.19947258e-03,
          -5.18672587e-03, 2.55182851e-03, 7.52182910e-04,
          -6.88432856e-03, -6.84108725e-03, -3.42063396e-03,
          3.16711143e-03, 2.08701880e-04, -8.87762383e-03,
          -5.24401711e-03, 6.46845438e-03, 5.39860502e-03,
          -2.06672074e-03, -3.17181367e-03, -1.54459244e-03,
          -1.50660321e-03, 5.68391848e-03, 1.05585190e-04,
          3.31855332e-03, 9.71024483e-03, 2.57487083e-03,
          -6.49610767e-03, -2.30865576e-03, -2.73212302e-03,
          -8.86737648e-03, 2.46091071e-03, 3.75999347e-03,
          -2.72222864e-03, 5.49191795e-03, 7.50488183e-03,
          -6.43314468e-03, -8.42308532e-03, -1.11895353e-02,
          -5.08945901e-03, -3.06219002e-03, -8.57920665e-03,
          -3.00330552e-03, 1.21920258e-02, 7.52694299e-03,
          -1.15923844e-02, -1.11596771e-02, -1.37611106e-02,
          -1.72200687e-02, -1.50133646e-03, -2.13158224e-03,
          -6.33276626e-03, 1.22387121e-02, 1.06266020e-02,
          -8.93530995e-03, -5.49892010e-03, -3.15881264e-03,
          -7.03130790e-04, 5.64090721e-03, 3.11147049e-03,
          -1.62343727e-03, 1.14992857e-02, 1.00564240e-02,
          -8.76959879e-03, -5.55145508e-03, -8.29702243e-03,
          -1.33061241e-02, -9.64085851e-03, -1.09026590e-02,
          -4.75029694e-03, 1.11680366e-02, 1.00476434e-02,
          -1.08239967e-02, -1.01348208e-02, -8.02984275e-03,
          -8.45370442e-03, 4.25258465e-03, -2.59643910e-03,
          -5.97722875e-03, 1.46053433e-02, 1.03415633e-02,
          -1.43270865e-02, -9.64549650e-03, -9.35812108e-03,
          -2.04785392e-02, -1.28974188e-02, -5.65403514e-03,
          -1.02627827e-02, 1.07510872e-02, 1.41555984e-02,
          -4.03991947e-03, -6.72622235e-04, -7.57411588e-03,
          -5.17297629e-03, -8.87612067e-03, -3.53762088e-03,
          1.70251052e-03, 1.88626219e-02, 5.25227282e-03,
          -5.00805723e-03, -7.17942091e-03, -7.74990581e-03,
          -1.67922918e-02, -1.63647216e-02, -8.47330783e-03,
          -2.28777155e-03, 8.64628889e-03, 1.26182409e-02,
          -1.19379265e-02, -7.36287795e-03, -4.44393279e-03,
          -2.61519151e-03, -9.14558116e-03, 1.81144080e-03,
          1.38140691e-03, 1.93335842e-02, 3.25881573e-03,
          -1.18896291e-02, -7.16132810e-03, -9.34753940e-03,
          -1.89153068e-02, -1.40366899e-02, -5.07379696e-03,
          -5.40316250e-05, 1.07445568e-02, -1.89426367e-03,
          -2.52968981e-03, 2.05790019e-03, -2.75028334e-03,
          5.26453252e-04, -4.97956853e-03, -6.87076012e-03,
          -5.39253419e-03, -1.20179757e-04, -1.09418835e-02,
          -9.58136190e-03, -8.71193036e-03, -1.07525978e-02,
          5.49834687e-03, -1.71126996e-03, -9.27268434e-03,
          -1.21592712e-02, -1.16809690e-02, -3.39617394e-03,
          -8.43204185e-03, 2.70694174e-04, -8.13987292e-03,
          -5.28536330e-04, -7.72049325e-03, -5.85563295e-03,
          2.29412178e-03, 2.66191969e-03, -6.70001935e-03,
          -9.64349043e-03, -3.99956573e-03, -7.25453719e-03,
          2.43388256e-03, -5.89595595e-03, -1.09322928e-02,
          -1.07110050e-02, -4.38964134e-03, -3.05790454e-02,
          -1.82620995e-02, -6.32410031e-03, -2.30110600e-03,
          -8.18239525e-03, -9.76168457e-03, -1.14518525e-02,
          -1.68936588e-02, -2.34265048e-02, -2.25092322e-02,
          -8.65447987e-03, 2.29248265e-03, 6.76823966e-03,
          5.24307434e-05, -6.76962268e-03, -5.33659803e-03,
          -5.81088988e-03, -1.53109180e-02, -2.69856658e-02,
          -1.74346417e-02, -1.00766951e-02, -6.16564974e-03,
          -4.91486210e-03, -7.92181958e-03, -1.96982753e-02,
          -2.26346403e-02, -2.37881672e-02, -1.73225235e-02,
          -1.00482199e-02, 4.34437953e-03, 9.90425237e-03,
          3.13665681e-02, -1.23811260e-04, -1.20130675e-02,
          -1.83848254e-02, -1.77494511e-02, -1.61402747e-02,
          -7.33182812e-03, -9.53541370e-04, 5.72489668e-03,
          -1.48810083e-02, -1.16318511e-02, -2.43464042e-03,
          -3.99076194e-03, -1.17442803e-02, -7.05429679e-03,
          -6.91149756e-03, -1.17156608e-03, 1.06276153e-02,
          3.64400540e-03, 1.94253167e-03, 4.60069301e-03,
          -5.24437567e-03, -4.31511132e-03, -1.78756081e-02,
          -1.21365963e-02, -3.66965425e-03, 5.78924315e-03,
          -3.85476765e-03, -6.84800697e-03, -6.11540675e-03,
          -1.36284996e-02, -1.67169068e-02, -1.03815366e-02,
          -6.51639840e-03, -6.73081772e-03, 1.17406463e-02,
          1.43690044e-02, 9.82496640e-05, 5.63007966e-03,
          -3.57574807e-03, -2.05937377e-03, -4.59703896e-03,
          -3.89922387e-03, 1.51700329e-03, 5.30758174e-03,
          -4.20158310e-03, 3.98017280e-03, 4.31814324e-03,
          -5.41222002e-03, -4.52770060e-03, -1.77521294e-03,
          4.10874700e-03, 3.60905472e-03, -4.52091917e-03,
          -7.36695062e-03, -9.55501664e-03, -3.62753775e-03,
          -3.16264667e-03, -1.38952071e-03, -6.80521782e-03,
          -6.15014974e-03, -1.65264832e-03, 4.93225176e-03,
          -5.66193555e-03, -1.52758183e-03, 1.33151805e-03,
          -1.38586236e-03, -3.27346753e-03, -2.50026537e-03,
          -2.49380292e-03, -4.33632173e-03, -7.08772615e-03,
          -5.76538127e-03, -7.76983984e-03, -2.87171849e-03,
          -2.81878561e-03, -1.75531325e-03, 4.50435746e-03,
          3.97446041e-04, 3.17790383e-03, -6.52237143e-03,
          -1.54412994e-02, -1.17799761e-02, -8.12710356e-03,
          8.45201794e-05, 6.76821312e-03, 8.06454942e-03, 1.71047461e-03,
          8.61146301e-03, 4.70190775e-03, -5.71777346e-03,
          -3.90381389e-03, -7.34944502e-03, -4.85405326e-03,
          7.68216373e-03, 4.45077848e-03, -5.06702717e-03,
          -1.09934539e-03, -5.64758200e-03, -1.43840658e-02,
          -1.00892093e-02, -3.47536243e-03, -2.23874580e-03,
          5.78073831e-03, 8.71253759e-03, 3.56850610e-03, 8.80776066e-03,
          1.09657589e-02, 5.77366725e-03, -3.00758425e-03,
          -6.29029330e-03, -4.56709648e-03, 7.77846156e-03,
          4.38240124e-03, -1.24492636e-03, 3.12998029e-03,
          1.29215373e-03, -6.27986528e-03, -5.10451384e-03,
          -1.98372826e-03, -8.04781355e-03, 2.71816319e-03,
          -4.57125680e-05, -7.90995453e-03, -2.64574843e-03,
          3.28269118e-04, -5.94111998e-03, -4.53345431e-03,
          1.44452380e-03, -8.02285038e-03, -2.35345936e-03,
          6.91485172e-03, 2.00787676e-03, 6.56486023e-03, 9.44431406e-03,
          1.60179671e-03, -4.10289690e-03, -4.22285125e-03,
          -7.12572504e-03, 9.87167819e-04, -4.75881621e-04,
          -7.64686428e-03, -1.01095602e-05, 8.81767645e-03,
          1.67737284e-03, -2.25684629e-03, -2.06425996e-03,
          -8.38061329e-03, -2.66128709e-03, 2.38792785e-03,
          -2.04820442e-03, -3.42147052e-03, -2.43122992e-03,
          -1.64590892e-03, -1.23787834e-03, 2.36463291e-03,
          -6.20901259e-03, 1.98978139e-03, 3.74489976e-03,
          -2.23402539e-03, -7.00917514e-03, -9.36044287e-03,
          -4.86500701e-03, -3.76962335e-03, -8.65342747e-03,
          -7.21923215e-03, 2.55026622e-03, 4.41643037e-03,
          -4.07445291e-03, -1.06715993e-03, 3.86627298e-03,
          5.80918463e-03, 2.68182438e-03, 1.23933866e-03,
          -5.71832852e-03, 6.01957086e-03, 1.60462072e-03,
          -2.73478939e-03, -5.61122783e-03, -6.68468140e-03,
          -1.30034075e-03, -5.39632421e-03, -2.91919243e-03,
          -8.09176359e-03, 4.45688842e-03, 3.87359434e-03,
          -1.11095724e-03, -3.02232150e-03, -5.78069827e-03,
          -3.33502912e-03, -7.43625918e-03, -8.33789352e-03,
          -5.17094415e-03, 6.33449666e-03, 8.33753590e-03,
          -2.66046519e-03, -1.63951155e-03, -1.16787292e-03,
          -8.75043857e-04, -3.54977418e-03, -8.99558980e-03,
          -2.63293297e-03, 1.13565540e-02, 8.15958902e-03,
          -2.71478808e-03, -4.64947568e-03, -1.35992083e-03,
          7.12285517e-04, -1.05776694e-02, -8.89658462e-03,
          -7.51973363e-03, 8.98415409e-03, 1.15729393e-02,
          -1.63859979e-03, -5.51077421e-04, 5.32946130e-03,
          -1.31703692e-03, -4.53436421e-03, -7.13319518e-03,
          -3.71383829e-03, 9.61518474e-03, 1.25094634e-02,
          -3.27361957e-03, -3.37359426e-03, -6.27599936e-03,
          -9.68943001e-04, 6.65699190e-04, -5.41255670e-03,
          -1.33499538e-03, 1.45173669e-02, 1.59262680e-02,
          -1.13134952e-02, -7.84159265e-03, -1.42142223e-02,
          -1.10346647e-02, 7.47355632e-04, -6.53266674e-03,
          -7.95070454e-03, 1.37365749e-02, 1.24041010e-02,
          -3.36195226e-03, -1.53910788e-03, 1.06205256e-03,
          -3.81960999e-03, 1.94616173e-03, -3.79927037e-03,
          -5.31987660e-03, 8.43202323e-03, 1.12481993e-02,
          -1.21909166e-02, -8.70165229e-03, -7.77390786e-03,
          -1.24111352e-02, -1.26789045e-03, -9.01230797e-03,
          -1.21785449e-02, 1.05412435e-02, 1.98397636e-02,
          -6.34859642e-03, -5.60246827e-03, -6.55864552e-03,
          -5.43837342e-03, 1.42095867e-03, -5.26128011e-03,
          -7.14017870e-03, 1.82204116e-02, 1.43384011e-02,
          -8.33074842e-03, -7.40913162e-03, -6.33071689e-03,
          -1.84058864e-02, -1.07280146e-02, -7.73674203e-03,
          -1.08731426e-02, 1.16730593e-02, 1.33474730e-02,
          -5.21432888e-03, -8.64091981e-03, -6.63237600e-03,
          -1.12366928e-02, -1.46049948e-03, -9.21136606e-03,
          -7.98423961e-03, 1.70076899e-02, 8.41677468e-03,
          -8.67050793e-03, -1.45697379e-02, -1.51217068e-02,
          -2.24341024e-02, -8.61987472e-03, -1.14559364e-02,
          -1.29637616e-02, 8.06065928e-03, 1.20501686e-02,
          -6.93409098e-03, -3.78439948e-03, -7.17158488e-04,
          -2.47211847e-03, -7.81888328e-03, -2.25636968e-03,
          -3.62113118e-03, 1.48197096e-02, 6.67735795e-03,
          -6.80428278e-03, -6.27119280e-03, -6.42587431e-03,
          -1.49022844e-02, -8.30074120e-03, -4.59542638e-03,
          -2.68458505e-03, 9.97048803e-03, 8.27038474e-03,
          -5.79948816e-03, -3.81014519e-03, -3.95184802e-03,
          1.00167328e-03, -7.15156645e-03, -5.30622900e-03,
          -9.50466283e-03, 9.17584170e-03, -1.89740749e-05,
          -3.03362240e-03, -5.23461075e-03, -5.41536417e-03,
          -1.29095633e-02, -1.03729684e-02, -7.20070070e-03,
          -1.24887405e-02, -2.15236400e-03, 4.57257545e-03,
          -6.06553955e-03, -4.00980050e-03, -5.29912580e-03,
          4.10866132e-03, -1.72176608e-03, -6.03057630e-03,
          -2.00792821e-03, 7.20076263e-03, -6.65467745e-03,
          -8.92596599e-03, 1.98405655e-03, 1.79624720e-03,
          3.81431193e-03, -4.50145733e-03, -1.52996900e-02,
          -1.07669868e-02, -4.03008703e-03, -2.86460225e-03,
          -3.51643399e-03, -1.26765505e-03, -6.75487332e-03,
          4.78000427e-03, -5.49660902e-03, -6.48496998e-03,
          -1.06400680e-02, -1.01712625e-02, -1.48381572e-02,
          -1.40820127e-02, 1.55117930e-04, 1.06196792e-03,
          -1.39378986e-04, -6.35152450e-03, -1.74264628e-02,
          -1.02658039e-02, -2.09744647e-02, -2.04585269e-02,
          -1.34567870e-02, -7.73938280e-03, -6.54739048e-03,
          -8.89233686e-03, -4.24066698e-03, -1.71957873e-02,
          -1.98838748e-02, -2.20796652e-02, -1.68957580e-02,
          -1.08284494e-02, -1.04390737e-03, 7.34965364e-03,
          1.68081317e-02, 2.21280218e-03, -1.43939210e-02,
          -2.33204123e-02, -2.19572410e-02, -1.86650362e-02,
          -9.75073688e-03, -4.79715737e-03, -7.39534339e-03,
          -1.15693230e-02, -7.15790642e-03, -1.56091666e-02,
          -1.39147229e-02, -1.92743428e-02, -8.11419263e-03,
          -6.30347105e-03, 3.79597070e-03, 1.47988461e-02,
          1.82993915e-02, -3.96872027e-04, -2.66097207e-03,
          -1.15064150e-02, -8.99085216e-03, -1.18993307e-02,
          -7.38807116e-03, -1.40020100e-03, 9.15154349e-03,
          2.79092207e-03, -1.48149079e-03, -4.03739419e-03,
          -1.19915642e-02, -1.60685647e-02, -4.15159063e-03,
          -5.09246346e-03, -3.37150274e-03, 7.93408602e-03,
          9.52720642e-03, -1.42479513e-03, 7.71829812e-03,
          2.71135219e-03, -4.53969277e-03, -9.98541806e-03,
          -5.43564186e-03, -1.64298355e-04, 9.97716654e-03,
          3.85974371e-03, -4.77578072e-03, -2.68692942e-03,
          -1.04321213e-02, -1.17073227e-02, 1.66268292e-04,
          -2.91275617e-04, -6.62011607e-03, 2.86718807e-03,
          -5.76924020e-03, -4.91732545e-03, -1.97901716e-03,
          -8.70917749e-04, -4.15615598e-03, -1.47153856e-03,
          -2.64771818e-03, -7.97878078e-04, 6.02766778e-03,
          -6.26059948e-03, -2.22987728e-03, 4.58044140e-03,
          4.91409237e-03, -3.07291979e-03, 1.30749401e-03,
          -5.54894842e-03, -2.29569431e-03, -2.46535172e-03,
          -1.02069660e-03, 6.40171464e-04, 2.93452584e-04,
          -2.57864501e-03, 8.31955345e-04, -3.64437141e-03,
          -4.01282543e-03, -6.06101379e-03, 3.33721028e-03,
          -7.74989743e-03, -1.98865565e-03, -4.88069956e-04,
          2.25628098e-03, -4.53679776e-03, 3.20703932e-03,
          -5.68350544e-03, -3.59853823e-03, -3.42924264e-03,
          4.51959949e-03, 6.20657019e-03, -1.84039923e-03,
          -2.23989773e-04, 2.13621627e-03, 4.01880685e-03,
          -7.29469256e-03, -6.35294337e-03, -1.79331284e-03,
          -1.02437520e-02, -4.57284087e-03, -1.75866380e-03,
          -5.19022020e-03, 5.23799984e-03, 3.92915821e-03,
          1.21196359e-03, 5.14033390e-03, 1.33872181e-02, 2.08686059e-03,
          6.98321150e-04, -1.23400619e-04, -2.36385991e-03,
          5.39611699e-03, 3.87419038e-03, -7.70982413e-04,
          -1.58369995e-03, -2.43593197e-04, -6.44026045e-03,
          1.86299940e-03, -1.53630704e-03, -3.85811110e-03,
          -1.20481360e-03, -1.67620671e-03, 4.54439782e-03,
          6.94192806e-03, 8.40730965e-03, -3.03089875e-03,
          2.93326122e-03, -4.88379563e-04, 7.51966320e-04,
          -2.11602193e-04, 6.10333961e-03, 4.21038829e-03,
          5.77655761e-03, 9.64267273e-03, 3.11324466e-03, 7.42425036e-05,
          -1.01531006e-03, -2.38473760e-03, 4.85409936e-03,
          3.14569077e-03, 2.97599030e-03, 3.88206658e-03, 7.08037056e-03,
          2.58403225e-03, 2.74546980e-03, -3.12278769e-03,
          -4.87852888e-03, 3.26925842e-03, -9.71363101e-04,
          3.95562779e-03, 3.66205955e-03, 5.05091716e-03,
          -2.43673287e-03, -5.22020506e-04, -2.27118353e-03,
          -2.01515667e-03, -1.19917328e-03, -1.86653866e-03,
          1.48316356e-03, 3.41699040e-03, -3.71813105e-04,
          -4.29650274e-04, 2.28624535e-03, -7.61415204e-03,
          -3.88749246e-03, -2.37616920e-03, 4.81999572e-03,
          -9.20378021e-04, 4.46683913e-03, 3.82222631e-03,
          6.54253503e-03, 1.59826200e-03, -2.24914844e-03,
          -3.98082845e-03, 3.13980458e-03, 5.79816813e-04,
          -6.51639048e-03, -1.78831711e-03, 9.15680837e-04,
          -1.54132675e-03, -1.38983270e-03, -2.39710254e-03,
          -6.22254703e-03, 9.38262441e-04, -2.30672723e-03,
          -2.65159947e-03, 3.03792232e-03, 2.43736058e-03,
          1.30630424e-05, 2.23374623e-03, -1.29210157e-03,
          1.07689167e-03, -1.45410467e-03, -2.89999112e-03,
          -1.72429171e-03, -1.80297473e-03, 3.16694169e-03,
          -3.26993829e-03, 4.48918995e-03, -2.57196429e-04,
          8.34510953e-04, -1.86658930e-03, 7.26841856e-03,
          -3.92086059e-03, -1.14033790e-03, 3.92539985e-03,
          -4.98479698e-03, -4.53301938e-03, -3.53186950e-03,
          -3.29619157e-03, 6.07032189e-03, 5.07082883e-03,
          -4.74855117e-03, -1.51624414e-03, 7.74013065e-03,
          -1.95455807e-03, -2.25403369e-03, -7.19978334e-03,
          -3.42118274e-03, 7.77055277e-03, 2.91415420e-03,
          3.08198901e-03, 2.06893077e-03, 5.64946514e-03, 3.24141904e-04,
          1.25702820e-03, -1.98149428e-04, 7.23653997e-04,
          2.91096093e-03, 8.29627644e-03, -3.35494825e-03,
          -2.87581398e-03, 6.09684037e-03, -2.32532551e-03,
          -2.82431091e-03, -7.28151621e-03, -3.89651558e-03,
          6.38955319e-03, 1.21739395e-02, -5.30848559e-03,
          -5.13473293e-03, 1.05012197e-03, -7.47140311e-03,
          9.31459654e-04, -1.71643507e-03, -3.22398671e-04,
          1.38642834e-02, 1.11701498e-02, -9.83581878e-03,
          -4.39557666e-03, -2.43112841e-03, -1.09813754e-02,
          -2.81614088e-03, -5.23428852e-03, -6.73045823e-03,
          1.14751514e-02, 8.31336807e-03, -3.35833640e-03,
          5.90165437e-04, 3.36398883e-03, -8.09369702e-03,
          -9.31773335e-04, -2.81178462e-03, -2.55707302e-03,
          1.04835965e-02, 1.34754169e-03, -8.98603629e-03,
          -2.97506340e-03, -5.05107502e-03, -1.34752626e-02,
          -5.27485181e-03, -5.46755129e-03, -9.66316741e-03,
          6.38768543e-03, 1.59471929e-02, -6.18613884e-03,
          -6.56962534e-03, -2.09887256e-03, -6.94095017e-03,
          -1.67928247e-05, -5.03701996e-03, -3.48057831e-03,
          1.87777001e-02, 1.09931231e-02, -4.95974999e-03,
          -1.07362345e-02, -7.99689628e-03, -1.72614437e-02,
          -6.11393247e-03, -1.03627658e-02, -6.92958198e-03,
          1.17411725e-02, 1.11523038e-02, -8.86282139e-03,
          -1.08676543e-03, 3.10794800e-03, -4.20435192e-03,
          -2.58881692e-03, -3.36934533e-03, -6.26597228e-03,
          1.06521947e-02, 1.13207335e-02, -5.67657733e-03,
          -1.03462413e-02, -5.65614225e-03, -1.13218920e-02,
          -7.82450940e-03, -1.13548534e-02, -7.61465542e-03,
          1.37979090e-02, 1.10855140e-02, -5.19751618e-03,
          -3.69300623e-03, -1.75764610e-03, 3.05320485e-03,
          4.67789156e-04, -4.43260884e-03, -6.87512336e-03,
          7.34699192e-03, 2.23412667e-03, -1.36371807e-03,
          1.12074986e-03, -5.60097862e-03, -9.53263417e-03,
          -9.83778853e-03, -3.01471632e-03, -1.16496654e-02,
          -1.99510180e-03, 1.09397061e-02, -5.14972955e-03,
          -7.22786319e-03, -5.01547661e-03, -1.63439987e-03,
          9.12426563e-04, -5.82773844e-03, -3.64877656e-03,
          1.00873765e-02, 4.48050164e-03, -7.17155356e-03,
          -4.14809771e-03, -7.09323119e-03, -1.37622822e-02,
          -4.41796053e-03, -3.05929827e-03, -2.84235179e-03,
          2.11926247e-03, -5.77135896e-03, -8.42773530e-04,
          6.18459890e-03, -3.67813418e-03, 9.17370617e-03,
          -3.75858136e-03, -5.80606889e-03, -1.10683059e-02,
          -7.04392977e-03, -1.49249397e-02, -1.03135007e-02,
          1.83844229e-03, 1.75890478e-03, -3.62396648e-04,
          -6.24788878e-03, -1.21619636e-02, -1.05531439e-02,
          -2.01482959e-02, -4.41133697e-03, -3.16591887e-03,
          3.19534261e-03, -3.01053771e-03, 5.18264063e-03,
          -3.32860253e-03, -3.31232045e-03, -4.14582575e-03,
          -6.78323302e-03, -2.05191877e-02, -9.08012781e-03,
          -1.73533615e-03, 2.05188268e-03, 1.05147017e-02,
          -7.10479030e-03, -1.22018354e-02, -9.08076111e-03,
          -2.16326732e-02, -1.48653155e-02, -1.00986818e-02,
          -8.40805005e-03, -7.49893999e-03, -7.62743829e-03,
          -5.62636927e-03, -1.04792742e-02, -1.32325459e-02,
          -1.70709789e-02, -1.09486179e-02, -5.48839243e-03,
          2.02898285e-03, 1.52149014e-02, 1.40443211e-02, 6.40098518e-03,
          4.52213734e-03, -9.16897599e-03, -1.02636842e-02,
          -2.25478001e-02, -1.54923853e-02, -1.44415619e-02,
          -1.18300505e-02, -1.76144317e-02, -8.84308573e-03,
          -1.10074589e-02, -1.30968746e-02, -2.36820392e-02,
          -1.65809896e-02, -1.04310056e-02, -5.09516289e-03,
          4.81356028e-03, 1.61728468e-02, 5.91314631e-03,
          -1.65352656e-04, -1.01891402e-02, -1.42112691e-02,
          -1.13417376e-02, -3.28944856e-03, 1.83763157e-03,
          9.95276496e-03, 8.61363020e-03, 2.10840744e-03, 9.46199929e-04,
          -8.75919126e-03, -1.22266123e-02, -2.87389103e-03,
          -4.39741276e-03, -5.14194369e-03, 1.44491275e-03,
          -4.03105561e-03, -5.34513732e-03, -5.92847122e-03,
          -5.08177327e-03, -7.81169999e-03, -1.65534988e-02,
          -4.90699708e-03, 3.91912588e-04, 5.75296395e-03,
          7.03953486e-03, 8.82674474e-04, -6.18527178e-03,
          -1.41716544e-02, -1.85243916e-02, -4.38186480e-03,
          -6.21512299e-03, 8.12036102e-04, 1.27601309e-03,
          -5.19845169e-04, -4.32106527e-03, -5.94540779e-03,
          -1.07487245e-02, -1.11724352e-02, -3.10151745e-03,
          -5.35361702e-03, -5.27632330e-03, -2.63935246e-04,
          -6.75662374e-03, -8.37709848e-03, -7.01593142e-03,
          -6.22271374e-03, -6.64291345e-03, -8.28255434e-04,
          -5.82653889e-03, 1.60009065e-03, 3.02473712e-03,
          1.53929787e-02, 5.49007440e-03, -4.93043289e-03,
          -3.86668765e-03, -2.49512191e-03, -5.16602630e-03,
          -6.38083229e-03, -3.32909054e-03, -1.79342795e-04,
          -8.74834880e-03, -8.18336476e-03, -6.45883055e-03,
          -7.40318559e-03, -1.11207813e-02, -3.24327289e-03,
          -4.63749003e-03, 5.77359926e-03, 3.05084651e-03,
          1.13243172e-02, 8.99805035e-03, 2.70909676e-03,
          -5.19499136e-03, -6.02161605e-03, 3.64760053e-03,
          -3.81045952e-03, 6.37264107e-04, 1.27306674e-04,
          -1.65608493e-04, 2.77972058e-03, 2.51103658e-03,
          4.79286042e-04, 2.28254450e-03, -1.01901509e-03,
          -2.17439374e-03, -4.87032626e-03, -1.36872823e-03,
          -3.05677298e-03, 2.33728928e-03, 5.40380180e-03,
          2.62364536e-03, 5.65510290e-03, -1.19686323e-04,
          -2.28644605e-03, 1.28136994e-03, 2.95587513e-03,
          -4.21415636e-04, 6.44994061e-03, 4.59034694e-03,
          -4.84386552e-03, -2.75694707e-04, -5.88340976e-04,
          -1.16489909e-03, -2.37594242e-03, -1.88351877e-03,
          -3.60540673e-03, 4.36469540e-03, 5.68247028e-03,
          -3.55604663e-03, 3.34764086e-03, 7.53287924e-03,
          2.09296565e-03, -2.36004870e-03, 2.27347351e-04,
          -1.40970782e-03, 1.57877628e-03, 8.26846168e-04,
          7.81648559e-04, 6.73897285e-03, 5.09231817e-03, 6.19126135e-04,
          2.69505149e-03, -1.23610569e-03, 4.84930679e-05,
          1.69069320e-03, -3.80537938e-04, -4.66360245e-03,
          9.98479081e-04, 8.37102067e-03, -1.25499757e-03,
          -3.94731062e-03, 6.31076458e-04, -4.82912874e-03,
          2.65801139e-03, 7.68512813e-03, -1.36537605e-03,
          7.56664108e-03, 5.35652647e-03, -3.51491035e-03,
          1.28338637e-03, 9.83605045e-04, -5.26173925e-03,
          1.58368691e-03, 5.64072607e-03, -2.57384754e-03,
          8.23674817e-03, 2.32690666e-03, -2.25016964e-03,
          -1.34036434e-03, 2.00478337e-03, -3.17606819e-03,
          3.84671614e-03, -2.06586192e-04, -2.86762742e-03,
          1.49464828e-03, 1.01612194e-03, -9.95416776e-04,
          -7.32044340e-04, 5.37354872e-03, 2.87601212e-03,
          5.11128362e-03, 1.05833879e-03, -1.82433391e-03,
          -6.68758643e-04, 1.28187926e-03, -3.00030410e-03,
          2.06732587e-03, 2.92459386e-03, -4.18248074e-03,
          2.49284925e-03, 2.92682598e-05, -7.82002788e-03,
          5.41786943e-03, -6.85655279e-04, -5.47862938e-03,
          -5.22858975e-03, 1.60735566e-03, 5.98374195e-03,
          3.63568979e-04, -2.11273576e-03, -5.88547252e-03,
          1.65207952e-03, 5.36709232e-03, 6.36452856e-03, 1.46781653e-03,
          2.27097911e-03, 4.22248058e-03, 4.33890102e-03,
          -1.11710117e-03, -2.35129544e-03, -1.32468282e-04,
          6.73263147e-03, 2.75650807e-03, -3.71168717e-03,
          8.90968484e-04, 2.17635580e-03, 1.11205142e-03,
          -7.14495964e-03, -2.25332100e-03, 2.55925045e-03,
          1.27757830e-03, -1.19820354e-03, -8.58716667e-03,
          -2.94131716e-03, 3.82033852e-03, 3.60378413e-03,
          -2.90350523e-03, -2.02817144e-03, -1.19499746e-03,
          5.90054691e-03, 3.62398615e-03, -2.54620379e-03,
          -2.70567555e-03, -2.73433654e-03, 4.06729523e-03,
          -3.42355552e-03, -2.57122982e-03, 1.45051873e-03,
          8.27175751e-03, -4.64787940e-03, -3.89695331e-03,
          -3.19765345e-03, -5.97130600e-03, 1.84753153e-04,
          -3.59022594e-03, -4.48587723e-03, 5.09344926e-03,
          4.12527751e-03, -1.39273563e-02, -5.35190990e-03,
          -3.38137010e-03, -8.17830954e-03, -3.71208624e-03,
          -5.34878671e-03, -1.24854222e-02, 6.27463078e-03,
          7.42874574e-03, -1.92002906e-03, 1.21997599e-03,
          -3.38746235e-03, -5.85798221e-03, 8.55950173e-04,
          -5.05400682e-03, -7.55969808e-03, 2.33400078e-03,
          1.13965776e-02, -7.02600274e-03, 2.15470092e-03,
          1.01643347e-03, -7.66496640e-03, -6.58800965e-03,
          -5.12619643e-03, -9.30568762e-03, 1.09771257e-02,
          8.31003115e-03, -1.12288324e-02, -8.76265927e-04,
          6.49952469e-03, -4.21098620e-03, -7.21102115e-03,
          -4.71305940e-03, -8.65826104e-03, 1.13703068e-02,
          8.94839689e-03, -9.54030082e-03, -8.25804286e-03,
          -3.59728187e-03, -1.26795033e-02, -1.07156346e-02,
          -1.05052246e-02, -6.36148266e-03, 1.41010610e-02,
          1.15998834e-02, -1.36868213e-03, 3.96122597e-03,
          9.86289326e-03, -5.64675545e-03, -6.80250023e-03,
          -5.35014132e-03, -4.44989558e-03, 1.62098650e-02,
          6.93396339e-03, -5.25256200e-03, 2.30248482e-03,
          -2.49033445e-03, -1.41257243e-02, -6.20704144e-03,
          -7.08366046e-03, -3.16915312e-03, 1.60025917e-02,
          1.40289180e-02, -2.63089011e-03, -2.00889399e-03,
          -5.70889050e-03, -7.62546435e-04, -2.78633251e-03,
          -2.75078905e-03, -2.38391967e-03, 1.49259977e-02,
          2.39829463e-03, -9.40670352e-03, -9.51821543e-03,
          -1.04111079e-02, -1.59092024e-02, -3.65729909e-03,
          -3.58431716e-03, -1.23205385e-03, 7.67801236e-03,
          7.55212316e-03, -3.89874727e-03, 9.86668514e-04,
          -5.04798908e-03, -1.64644944e-03, 2.96959421e-04,
          -5.43716415e-05, 4.75912209e-04, 1.39830802e-02,
          -1.21427746e-03, -9.31836758e-03, -4.16430179e-03,
          -2.82221334e-03, -1.25919040e-02, 1.25818397e-03,
          -4.10786783e-03, -4.35209693e-03, 2.35462934e-03,
          -3.00093973e-03, -6.36284146e-03, -2.01147655e-03,
          -1.05255458e-03, 1.57755357e-03, -6.08475180e-04,
          -2.78442912e-03, -8.47453135e-04, 1.65535684e-03,
          -2.27288846e-02, -1.44134965e-02, -4.75765578e-03,
          4.76273592e-04, 1.70754604e-02, -7.58514367e-03,
          -1.37257557e-02, -1.05084842e-02, -1.87446680e-02,
          -7.87833054e-03, -9.31626186e-03, -2.95416010e-03,
          3.22148250e-03, 5.65475225e-03, 7.15180812e-03,
          -4.11075633e-03, -6.17718929e-03, -4.34617233e-03,
          -2.32140217e-02, -1.97577830e-02, -8.42937827e-03,
          1.42525195e-03, 1.14829876e-02, -4.17662691e-03,
          -1.21315792e-02, -1.42429946e-02, -1.80150401e-02,
          -2.44881641e-02, -1.23862531e-02, -1.15746399e-02,
          -1.18933273e-02, -1.47843417e-02, -6.85970299e-03,
          -7.67248729e-03, -6.83661038e-03, -2.22573634e-02,
          -1.55580724e-02, -7.19097024e-03, -5.60946902e-03,
          4.82524838e-03, 2.30336245e-02, 9.72664915e-03, 8.47486593e-03,
          -2.32819910e-03, -1.17749320e-02, -2.29080226e-02,
          -1.54936062e-02, -1.29297683e-02, -1.51048098e-02,
          -2.03753691e-02, -1.36216208e-02, -1.24953520e-02,
          -1.24044865e-02, -2.09888183e-02, -1.10799624e-02,
          -1.15314005e-02, -7.10855518e-03, 8.00755341e-03,
          1.92562249e-02, 9.05191619e-03, 2.45524500e-03,
          -1.03086084e-02, -7.80051574e-03, -1.35870995e-02,
          -3.92210018e-03, -9.23947431e-04, 3.20712314e-03,
          1.32658929e-02, 3.14811780e-03, -1.56370853e-03,
          -8.74024630e-03, -1.51474979e-02, -6.60088100e-03,
          -4.00962401e-03, -1.44044496e-03, -3.34738201e-04,
          2.76867836e-03, -7.18515832e-03, -7.78559176e-03,
          -1.05024381e-02, -1.31537560e-02, -1.28739811e-02,
          -7.28875212e-03, -6.83110906e-03, 5.19985519e-03,
          1.40028093e-02, -2.74253194e-03, -4.59775003e-03,
          -1.44527070e-02, -1.68842487e-02, -6.79767597e-03,
          -2.29656324e-03, 8.10994592e-04, 2.75171781e-03,
          2.06886921e-02, -8.60534236e-03, -1.02238171e-02,
          -1.58177372e-02, -1.09176878e-02, -4.47503570e-03,
          -1.51744159e-03, -4.78314760e-04, 8.81315442e-04,
          -4.06083977e-03, -9.62333474e-03, -6.07320853e-03,
          -9.42556374e-03, -1.09030996e-02, -7.28466036e-03,
          7.38333445e-04, 7.15675764e-03, 3.17303254e-03, 4.89969971e-03,
          9.06214211e-03, 7.17660924e-03, -1.45823392e-03,
          -5.64157171e-03, -8.53025261e-03, -4.93867381e-04,
          2.22340669e-03, -1.09413732e-03, -7.31878914e-03,
          -1.07213017e-02, -4.93428158e-03, -1.10916160e-02,
          -7.56844552e-03, -5.72519237e-03, 7.79753784e-03,
          1.52465217e-02, 6.43517543e-03, 7.33496109e-03, 6.70741638e-03,
          6.40730513e-03, 1.74073176e-03, -4.77411272e-03,
          -3.66734411e-03, -1.46209227e-03, 5.74646331e-03,
          3.01675918e-03, 1.28212094e-03, 1.02410922e-02, 8.06046370e-03,
          -1.01632520e-03, -9.76348994e-04, -8.57906183e-04,
          -7.35977083e-04, 2.99701537e-03, 3.42356251e-03,
          -3.79182235e-03, -1.21882162e-03, 4.19692649e-03,
          -3.86282173e-03, -2.07544141e-03, -2.02857028e-03,
          4.20784578e-03, 8.94957595e-03, 2.43363297e-03, 2.41137948e-03,
          9.89044365e-03, 6.03929162e-03, 4.83902218e-03,
          -2.33729277e-03, 2.73059797e-03, 2.43120710e-03,
          1.50024099e-03, 1.75359880e-03, -3.65811196e-04,
          2.63029640e-03, 7.01250602e-03, 6.27178838e-03,
          -1.94209651e-03, 8.20174720e-03, 3.52831883e-03,
          3.49294883e-03, 9.83497314e-03, -2.98388628e-03,
          1.86315342e-03, 9.72438697e-03, -6.77718315e-04,
          4.63456847e-03, 3.77414655e-03, -2.97299353e-03,
          -1.40723903e-04, 7.02790264e-03, 3.87397688e-03,
          2.19632158e-04, 1.19780693e-02, 1.18985353e-03, 7.42692640e-03,
          4.56755888e-03, 3.15784011e-03, -1.38924981e-04,
          3.26178595e-03, -8.42117472e-04, 6.52390858e-03,
          4.76995250e-03, 1.94456967e-04, -1.20718917e-03,
          -1.71925232e-04, -5.24455635e-03, -7.34572904e-03,
          5.74346120e-03, 1.21659355e-03, 2.21785367e-03, 3.98170808e-03,
          -8.73587327e-04, 3.73439980e-03, -1.36795465e-03,
          -5.76020451e-03, -4.42740275e-03, 6.04789890e-03,
          6.29616855e-03, 3.49804829e-03, 3.71107971e-03,
          -3.37507552e-03, 2.36012111e-03, -4.39105788e-03,
          -4.88781324e-03, -1.23570091e-03, 3.99172865e-03,
          1.33355828e-02, 3.48332315e-03, 1.27103094e-05,
          -4.00892226e-03, 1.96359557e-04, -5.09795500e-03,
          -1.20637743e-02, -9.77801066e-03, 7.86193367e-03,
          7.20132235e-03, 7.94018619e-03, 1.99383288e-03,
          -1.59597443e-03, 1.92023304e-04, -8.46241787e-03,
          -6.64492138e-03, -6.05542772e-03, 4.74526873e-03,
          1.03854528e-02, 5.12844929e-03, -7.86638178e-04,
          -6.69942237e-03, -3.42845195e-03, -4.61646449e-03,
          -3.60998069e-03, -2.22185906e-03, 8.25321360e-04,
          7.80666992e-03, 6.98597496e-03, 2.42412370e-03,
          -1.32676796e-03, -1.69262325e-03, 5.58495708e-03,
          4.48950054e-03, 1.69294293e-03, 1.25062233e-03,
          -3.41981300e-03, 7.25687016e-03, 7.16514932e-03,
          3.03079234e-03, 4.80548711e-03, -8.10124725e-03,
          -3.06873675e-03, -5.14268083e-03, 2.93220440e-03,
          1.05123548e-02, 5.82659477e-03, -7.72512576e-04,
          -1.64473720e-03, -5.99217741e-03, -3.32284137e-03,
          3.04344017e-03, -3.01288627e-03, 6.32816181e-03,
          3.45248613e-03, 9.32695251e-03, 3.64667596e-03, 5.59567753e-03,
          -2.16919417e-03, -3.46985325e-04, -4.78627812e-03,
          2.93533481e-03, 2.70663528e-03, -3.72823304e-03,
          3.29567306e-03, 4.58989805e-03, -3.86545272e-03,
          -1.71009055e-03, 3.06181936e-03, -1.17726633e-02,
          1.82387209e-03, 7.06485379e-03, -1.97807865e-04,
          -3.08749406e-03, 8.88313807e-04, -3.83862853e-03,
          4.04394884e-03, -7.45138573e-03, -8.39809049e-03,
          -5.77828754e-03, 4.59260913e-03, 5.31913945e-03,
          5.82037447e-03, 1.08745415e-02, 2.59824470e-03,
          -3.17476899e-03, -9.56797414e-03, -7.28835538e-03,
          9.20578605e-04, 1.12009412e-02, 7.72782881e-03, 1.91172410e-03,
          3.90218152e-03, -1.03085977e-03, -3.51196807e-03,
          1.13905314e-02, -6.20756717e-03, 5.84553462e-03,
          1.12786610e-02, -3.79976281e-03, -3.49830487e-03,
          -4.71078977e-03, -2.12836685e-03, 1.23142367e-02,
          6.52747462e-03, -7.16222264e-03, 1.52935472e-03,
          -4.36198805e-03, -1.56201301e-02, -4.91688075e-03,
          -4.62003890e-03, -6.68006949e-03, 1.10330153e-02,
          1.89076283e-03, 3.89162975e-04, 9.53353848e-03, 1.62558984e-02,
          1.14799698e-03, 2.69700331e-03, -2.26881448e-03,
          1.64585683e-04, 1.65283785e-03, -1.42722507e-03,
          -3.66162742e-04, -3.21568362e-03, -7.55617442e-03,
          -1.49410423e-02, -3.00086453e-03, -6.27838820e-03,
          -6.35694899e-03, -2.52318569e-03, 8.33268464e-03,
          -1.11345027e-03, 3.48356529e-03, -8.32114369e-04,
          5.52905584e-03, 3.27094854e-03, -1.99035439e-03,
          -3.52797215e-03, 1.22321704e-02, 9.00669605e-04,
          -5.34321740e-03, 1.77152606e-03, 7.42145407e-04,
          -6.32335525e-03, -2.74335942e-03, -6.11861236e-03,
          -8.19101185e-03, 2.23529263e-04, 2.31449981e-03,
          2.77697179e-03, 3.67554021e-03, -1.96565315e-03,
          4.35841875e-03, -1.34068867e-03, -3.38288699e-03,
          -4.95864777e-03, 5.23054390e-04, -4.16055880e-03,
          -4.82154777e-03, 1.22238393e-03, -2.03450117e-03,
          -1.24499388e-02, -1.89272966e-03, -1.15785906e-02,
          -7.62976939e-03, -9.23191477e-03, -2.17151595e-03,
          -4.50309226e-03, 4.92112432e-03, 1.03123244e-02,
          1.44245112e-02, 2.52931961e-03, -6.33614277e-03,
          -8.46493337e-03, -1.48863392e-03, -1.89778060e-02,
          -1.61240753e-02, -4.79834108e-03, 3.71948117e-03,
          1.26319332e-02, -4.54788608e-03, -1.01735936e-02,
          -1.33397374e-02, -1.52797177e-02, -1.17985103e-02,
          -7.98340701e-03, -2.34917214e-04, 2.45423336e-03,
          -1.94676896e-03, -4.34504836e-05, -9.22573078e-03,
          -1.06734950e-02, -1.55311441e-02, -2.72556785e-02,
          -1.87928788e-02, -1.38195185e-02, -6.30153622e-03,
          1.68076472e-03, -1.17230555e-02, -1.59105137e-02,
          -1.72180235e-02, -2.76534352e-02, -1.95401814e-02,
          -1.53774656e-02, -1.47686899e-02, -1.63468923e-02,
          -1.32011632e-02, -1.36416582e-02, -1.30527830e-02,
          -1.49067184e-02, -1.75721701e-02, -1.43911326e-02,
          -1.16771711e-02, -7.70196598e-03, 5.23109874e-03,
          2.33688820e-02, 1.36377877e-02, 7.09452061e-03,
          -6.13632705e-03, -6.43261755e-03, -2.32911855e-02,
          -1.51564181e-02, -1.85472239e-02, -2.05999948e-02,
          -1.17952768e-02, -1.31593514e-02, -1.49176586e-02,
          -1.43924914e-02, -2.11317893e-02, -1.35247819e-02,
          -1.12013053e-02, -5.85240079e-03, -8.25357623e-03,
          2.62422804e-02, 1.67680737e-02, 3.28270718e-04,
          -6.67758798e-03, -1.10844905e-02, -1.55536095e-02,
          -8.98059830e-03, -6.45447569e-03, 1.92433374e-03,
          7.01311370e-03, 5.64051699e-03, 1.87841861e-03,
          -8.75649601e-03, -1.36034535e-02, -7.35581061e-03,
          -8.23058560e-03, -5.20352554e-03, -2.81343469e-03,
          9.22745839e-03, 1.03090913e-03, 2.63809855e-03,
          -6.88339444e-03, -6.26987219e-03, -1.30240461e-02,
          -9.71115101e-03, -8.11535958e-03, -7.64672412e-03,
          2.03618337e-03, 6.31818641e-03, 2.19557303e-04,
          -8.06158781e-03, -1.28835719e-02, -7.08024111e-03,
          -4.27172333e-03, -4.51287813e-03, -9.44310240e-03,
          1.08800724e-03, 3.94994998e-03, -1.68240478e-03,
          -3.62998503e-03, -9.53670777e-03, -6.74516056e-03,
          -1.88178185e-03, 1.19285611e-03, -1.48462655e-03,
          -7.33395386e-03, -1.68879249e-03, -2.58987799e-04,
          -4.48306976e-03, -3.45030217e-03, -1.54105609e-03,
          5.99324051e-03, 1.05570722e-02, 1.25623960e-02, 1.14409868e-02,
          1.18679963e-02, 9.12495051e-03, -1.26218423e-03,
          -4.82547068e-04, -7.61871459e-03, -4.89729457e-03,
          -5.16385306e-03, -8.16931576e-03, -7.97721837e-03,
          -3.62840760e-03, -1.98961236e-03, -4.08154353e-03,
          -8.36161245e-03, -5.32523124e-03, -3.28431302e-03,
          -1.34061673e-03, 5.07180393e-03, 8.91045015e-03,
          9.94950812e-03, 1.13438871e-02, -1.36372063e-03,
          -7.45395478e-03, 2.03939411e-03, 5.59220463e-03,
          6.72752364e-03, 3.18305986e-03, 5.28666540e-04, 8.45313072e-03,
          1.87019364e-03, 1.67163395e-04, 2.72163679e-03, 5.88131743e-03,
          -1.95834716e-03, -2.14981218e-03, -1.00403873e-03,
          8.15381645e-04, 3.61155020e-03, 3.56613938e-03, 7.31659774e-03,
          5.91471232e-03, -3.10842646e-03, -2.53391708e-03,
          -2.88923783e-03, 5.49010886e-03, 3.54176416e-04,
          6.41011074e-03, -3.45896173e-04, -2.30334932e-03,
          -5.87883964e-03, -3.35329701e-03, -2.67109647e-03,
          -6.52957289e-03, 9.41964972e-04, -9.12287447e-04,
          1.93077535e-03, 4.87565645e-04, -5.58458874e-03,
          -4.68932698e-03, -2.73874286e-03, -1.17286446e-03,
          -2.35537463e-03, -5.25261043e-03, -1.29209284e-03,
          5.46429446e-03, 3.07057565e-03, 4.94083203e-03,
          -4.25112387e-03, -4.15136851e-03, -2.66183703e-03,
          -2.28051655e-03, 6.27137814e-03, 1.11349355e-02,
          5.22434246e-03, -1.97135401e-03, -2.17301282e-03,
          -1.24414475e-03, 1.88664300e-03, -1.60380767e-03,
          -2.77049886e-03, -8.29217897e-04, 6.02884218e-04,
          3.81261390e-03, 2.13671755e-03, 6.68055436e-04,
          -3.35349818e-03, -9.02497675e-04, -3.67274228e-03,
          -2.23537907e-03, 5.37175592e-03, 1.58708207e-02,
          3.11065791e-03, -3.59530142e-03, -7.74141168e-03,
          -4.90281219e-03, -5.78870391e-03, -5.38605312e-03,
          -2.32422771e-03, 5.88415936e-03, 1.31226238e-02,
          7.54719647e-03, -1.08002673e-03, -1.96688133e-03,
          1.07339746e-03, -5.98732103e-03, -7.08633708e-03,
          -5.98653266e-03, 2.77059036e-03, 1.33019229e-02,
          6.58805249e-03, -3.55022936e-03, -4.97827888e-04,
          -5.19032357e-04, -6.90885494e-03, -9.01755691e-03,
          -3.95737495e-03, 3.72932549e-03, 1.37304347e-02,
          6.61399029e-03, -3.37726856e-03, -6.43183570e-03,
          -1.57941727e-03, -8.97273421e-03, -1.27468025e-02,
          -4.27627889e-03, 3.78472195e-03, 9.76481661e-03,
          6.65452611e-03, -5.32866456e-03, -3.51244747e-03,
          -5.15737385e-03, -5.43394685e-03, -3.30682518e-03,
          -3.81137710e-03, 4.83914628e-04, 6.68520667e-03,
          6.23403490e-03, -2.42532324e-03, -1.60156447e-03,
          -3.74570629e-03, 1.06394372e-03, 2.47630617e-03,
          -2.13068048e-03, 5.59999794e-03, 1.54887780e-03,
          8.44105892e-03, 3.60868894e-03, 6.33370504e-03, 3.63229285e-03,
          -5.94309019e-03, -1.10560898e-02, -1.50271889e-03,
          8.82430840e-03, 4.17043502e-03, 1.50934374e-03,
          -5.39574912e-03, -4.26093629e-03, -3.53091350e-03,
          -1.85885257e-03, -1.54460804e-03, 5.20597817e-03,
          8.80115200e-03, -1.43418519e-03, 6.11068448e-03,
          -1.65007915e-03, 1.29162881e-03, 1.78938790e-03,
          -2.22451566e-03, -5.44817606e-03, -7.61577254e-03,
          2.84423446e-03, 5.09778550e-03, 4.69994219e-03, 4.88499086e-03,
          2.28556385e-03, 6.39295671e-04, -6.13934360e-03,
          -4.44349088e-03, 1.17772189e-03, 3.56447045e-03,
          3.87123181e-03, 8.34581733e-04, -1.34486447e-06,
          -4.20697872e-03, -7.50948268e-04, -3.42973450e-04,
          3.94018134e-03, 3.57492710e-03, 4.24964679e-03, 1.90457888e-03,
          4.34919912e-03, -7.01405515e-04, -4.27641615e-04,
          1.89543795e-03, -3.32015078e-03, 6.74859039e-04,
          5.12116449e-03, 3.62162478e-03, 2.37007462e-03,
          -2.67231400e-04, -3.60140274e-03, -8.68051406e-03,
          -7.41496973e-04, 5.62474458e-03, 7.00462842e-03,
          1.46254255e-02, 1.18735228e-02, 1.17144100e-02, 5.38931834e-03,
          -1.36859436e-03, -5.88691153e-04, 5.50622866e-03,
          -1.74564146e-03, 7.52109045e-04, -2.12262874e-03,
          -6.82787597e-03, -1.18673062e-02, -4.34110733e-03,
          -1.12479436e-03, -1.79084099e-03, -2.22092448e-03,
          -3.57502699e-03, 1.47740473e-03, 9.60141513e-03,
          8.88835266e-03, 4.00762027e-03, 3.27291200e-03, 7.48428633e-04,
          -4.76180483e-03, 1.61390833e-03, -9.84814856e-03,
          -3.69837089e-03, -2.95439386e-03, -1.15300557e-02,
          -1.19297877e-02, -1.42297789e-03, -3.88578395e-04,
          -7.15452153e-03, -8.77499394e-03, 3.54409567e-03,
          5.84192714e-03, 6.15047244e-03, -5.47292177e-03,
          1.11981109e-02, 1.66415051e-03, 4.64976300e-03, 5.21123293e-04,
          1.48634159e-03, -2.61375797e-03, -3.99367465e-03,
          1.42965303e-03, -2.59657996e-03, -1.13304239e-02,
          -3.49384011e-03, -7.57990172e-03, -4.80641751e-03,
          -3.22570326e-03, -6.88889064e-03, 2.47512315e-03,
          6.06004614e-03, -1.24603529e-02, 4.14174376e-03,
          5.20108547e-03, 3.71625787e-03, -3.40095675e-03,
          -8.08876287e-03, -1.41870249e-02, -1.27529139e-02,
          -1.80180918e-03, -3.10235121e-03, -9.38001461e-03,
          -1.69545272e-03, -8.10575485e-03, -1.13583039e-02,
          -1.11499950e-02, 6.17670268e-03, -5.66627271e-03,
          -1.01740623e-03, 3.32099502e-03, 7.38020055e-03,
          1.64217094e-03, -4.41228971e-03, -6.27549132e-03,
          4.15885122e-03, -1.63064748e-02, -1.36961574e-02,
          -1.27891097e-02, -5.23112388e-03, 6.47445489e-03,
          -1.19390097e-02, -1.19882543e-02, -1.41386855e-02,
          -1.90320201e-02, -1.27038676e-02, -1.89683400e-02,
          -5.11615770e-03, 7.19029317e-03, 1.11318836e-02,
          -2.01575155e-03, -1.04356324e-02, -1.33977998e-02,
          -9.04223882e-03, -2.67548598e-02, -2.22961027e-02,
          -1.67447869e-02, -4.89541376e-03, 3.38289043e-04,
          -1.39941545e-02, -1.87210850e-02, -1.87331010e-02,
          -2.30819769e-02, -1.92146059e-02, -1.11865876e-02,
          -1.39133111e-02, -2.00277641e-02, -1.37764700e-02,
          -8.20686016e-03, -1.32570788e-02, -1.38956551e-02,
          -1.87384374e-02, -3.13305366e-03, -1.24154268e-02,
          -6.66662771e-03, -1.34578636e-02, 3.91343348e-02,
          2.36126427e-02, 9.45716724e-03, -2.89823790e-03,
          5.45172894e-04, -3.00542340e-02, -1.97795164e-02,
          -1.52091114e-02, -1.84773467e-02, -2.07996797e-02,
          -1.41765988e-02, -1.30149014e-02, -1.79882683e-02,
          -3.10107339e-02, -1.59696583e-02, -1.88955218e-02,
          -2.18232796e-02, -1.78169794e-02, 1.64999869e-02,
          1.01025868e-02, 7.40553485e-04, -8.22876114e-03,
          -1.49309160e-02, -2.18416820e-03, -1.05368374e-02,
          -7.75471376e-03, -1.19991023e-02, 2.84407428e-03,
          1.36163691e-03, -2.79087876e-03, -4.45643300e-03,
          -5.79269399e-05, 1.96873490e-03, -3.64002795e-03,
          -1.34241662e-03, -1.11877155e-02, -6.90197060e-03,
          -4.52755485e-03, -3.49963410e-03, -6.31126715e-03,
          -3.22568812e-04, -1.11215813e-02, -1.20896967e-02,
          -1.36379357e-02, -1.41589576e-02, -1.18107779e-03,
          1.45929784e-03, -2.84947641e-03, -3.17367353e-03,
          -8.90300330e-03, -9.23625287e-03, -9.38026933e-04,
          1.94436638e-03, -2.64639687e-03, -3.66536574e-03,
          1.12576724e-03, -1.94981601e-03, -1.53175066e-03,
          -8.54779314e-03, -8.69082811e-04, -1.41185219e-03,
          -9.40804428e-04, -6.54735323e-03, -1.28051564e-02,
          -3.91457137e-03, 1.00909070e-04, -1.61696214e-03,
          -3.43767041e-03, 1.33175857e-03, -4.06044582e-03,
          -6.65593147e-03, 9.31244751e-04, 1.28647117e-02,
          1.05544021e-02, 1.83890238e-02, 3.54530080e-03,
          -2.03514611e-03, -7.41148274e-03, 2.67119729e-03,
          4.40490711e-03, -4.94196638e-03, -1.05594397e-02,
          -3.52623919e-03, -5.14808903e-03, -8.40149936e-04,
          -8.56635068e-03, -8.05135164e-03, -5.77269762e-04,
          -4.17167135e-03, -3.66046489e-03, 3.15985898e-03,
          2.44783657e-03, 5.95542230e-03, 9.27169021e-05,
          -7.52493832e-03, -5.53732447e-04, -5.81129733e-03,
          -8.89346097e-03, 2.12247693e-03, -2.16244982e-04,
          8.46645981e-03, 4.47260821e-03, 6.50269270e-04,
          -3.87584046e-03, 3.65778687e-03, -5.13303280e-03,
          -9.88041144e-03, -2.50682759e-04, 4.28510830e-03,
          5.05241146e-03, 7.41246098e-04, -4.12480859e-03,
          3.11689102e-03, -6.28201803e-03, -7.56495167e-03,
          -1.49585968e-02, -2.19265837e-03, -4.33478365e-03,
          3.17833124e-04, 9.13631637e-03, 6.97827432e-04,
          -9.34614148e-03, -3.83783272e-03, -7.24958628e-03,
          -1.10941175e-02, -5.58374636e-03, 7.60979671e-03,
          4.42077871e-03, 9.18709207e-03, 1.70694024e-03,
          -2.64712982e-03, -2.60073273e-03, -4.09434410e-03,
          -5.94936451e-03, -1.55136629e-03, 8.79365107e-05,
          3.23360390e-03, -5.70617194e-05, -3.71905975e-03,
          -4.89563076e-03, -6.06059039e-04, -4.82971268e-03,
          -4.08261921e-03, 9.96913575e-03, 1.79621652e-02,
          3.14801210e-03, -3.67534603e-03, -6.39571529e-03,
          -3.19786690e-04, -1.58709672e-03, -5.64089883e-03,
          -4.11787210e-03, -1.56790891e-03, -5.81314438e-04,
          1.95309892e-03, 1.69488695e-03, 2.44778558e-03,
          -8.07059769e-05, -5.60636306e-03, -9.01978277e-03,
          -6.08622795e-03, 6.43746275e-03, 1.63218714e-02,
          2.59661744e-03, -5.05679660e-03, 4.32428380e-04,
          -2.09324458e-03, -3.05837812e-03, -7.10421009e-03,
          -3.84683395e-03, 1.71064900e-03, 1.02392603e-02,
          -2.06042593e-03, -6.15152298e-03, -7.39688333e-03,
          -5.06635406e-04, -6.71583274e-03, -1.04525564e-02,
          -4.61162161e-03, 3.64500168e-03, 1.17602078e-02,
          2.51238653e-03, -7.02087814e-03, -4.65017930e-03,
          -1.93285127e-03, -1.23175257e-03, -4.60889051e-03,
          -6.69263909e-03, -1.22840679e-03, 6.71131676e-03,
          -7.98158173e-04, -5.98129584e-03, -3.70122609e-03,
          -1.37949653e-03, -3.67856555e-04, -1.93332904e-03,
          -2.95984210e-03, 1.73867738e-03, 1.41820488e-02,
          3.51626449e-03, -6.68059848e-03, -4.64605400e-03,
          5.81572356e-04, -5.21337427e-03, -8.80245678e-03,
          -3.05320718e-03, 5.42369578e-03, 9.75251012e-03,
          -2.56139459e-03, -6.60626730e-03, -1.58797193e-03,
          -2.89019546e-03, 1.15097011e-03, -8.88102339e-04,
          5.78944432e-03, 4.96942503e-03, -4.16215230e-03,
          3.42751708e-04, -3.35203996e-03, 2.03308708e-04,
          2.80888897e-04, -6.80627767e-03, -5.47434809e-03,
          -3.56732809e-04, 7.87199067e-04, 1.21863196e-02,
          5.73400827e-03, -5.67435147e-03, -1.20149273e-03,
          -4.76347748e-03, -6.79062633e-03, -2.58545205e-03,
          2.69643543e-03, 9.96654155e-04, -2.35406023e-05,
          6.47841580e-03, -2.78165960e-03, -1.76318060e-03,
          -9.50633455e-03, 2.14659073e-03, 1.06651839e-02,
          1.16136437e-02, 1.99381448e-03, -1.56079233e-03,
          1.08661689e-03, -1.25308870e-03, -2.42544361e-03,
          -4.20705229e-03, -3.28127760e-03, 6.46789232e-03,
          8.66395794e-03, -3.51934141e-04, -5.92348538e-03,
          -1.41974632e-03, 9.30977287e-04, -4.15486190e-03,
          -5.98077476e-03, -6.96656061e-03, -6.67166372e-04,
          5.59200905e-03, 3.90739786e-03, 2.48386944e-03, 9.03718174e-04,
          -2.87017156e-03, -3.19847208e-03, -8.54844134e-03,
          -7.85794947e-03, -6.16204226e-03, -1.06943073e-03,
          -4.59934724e-03, -5.85015770e-03, -4.95881541e-03,
          -1.73476525e-03, -6.27932372e-03, -9.23496392e-03,
          2.01894436e-03, 6.01104274e-03, 1.03461882e-02, 8.54119286e-03,
          1.12877693e-02, 6.15069782e-03, 6.50347443e-03, 1.50768465e-04,
          -4.20429744e-04, -4.32634819e-03, -3.25400499e-03,
          -1.34357251e-03, -1.39578134e-02, -9.61160474e-03,
          5.33683226e-04, -2.26299465e-03, -1.06463432e-02,
          -7.61304516e-03, 3.05853202e-04, 8.49683245e-04,
          5.73294237e-03, 1.46250450e-03, 1.18350973e-02,
          -1.74650413e-04, 1.36110070e-03, 4.52063075e-04,
          -3.61460581e-04, -1.84691744e-03, -3.65814893e-03,
          -2.37603765e-03, -1.13207866e-02, -1.19719859e-02,
          -1.30119119e-02, -6.85297605e-03, -6.78524701e-03,
          -1.40267576e-03, 1.72058881e-05, 5.25572244e-03,
          6.33893069e-03, -7.05380517e-04, 1.14622498e-02,
          4.79680393e-03, -2.35285913e-03, -8.19030497e-03,
          -4.31021070e-03, -1.06332004e-02, -1.07717095e-02,
          -4.13355371e-03, -3.94543255e-04, -2.38605589e-03,
          -3.12069664e-04, -1.28303468e-02, -1.02037350e-02,
          -8.73820204e-03, -1.75938755e-03, -1.96860638e-03,
          -1.05865917e-03, 3.11141979e-04, -5.76782459e-03,
          -6.03534607e-03, -1.00841913e-02, -5.81858074e-03,
          5.36924973e-03, -5.42016840e-03, -9.88303032e-03,
          -6.99272752e-03, 7.18687254e-04, -7.33820628e-03,
          -6.01239083e-03, -1.71163715e-02, -1.23467613e-02,
          -3.88754322e-03, -1.16498582e-02, -1.42330546e-02,
          -1.69485202e-03, 1.08349640e-02, 2.51175389e-02,
          2.24211020e-03, -1.30038457e-02, -1.19444840e-02,
          -8.87565594e-03, -2.50007939e-02, -1.96779352e-02,
          -1.36198197e-02, -4.26248973e-03, -2.61517381e-03,
          -1.01705436e-02, -1.95889752e-02, -1.72502380e-02,
          -2.06421800e-02, -1.08123245e-02, -1.59089584e-02,
          -9.64878686e-03, 3.14923702e-03, 1.17727332e-02,
          1.65444717e-03, -1.55866127e-02, -1.24278897e-02,
          -7.55403098e-03, -2.00482812e-02, -1.96573548e-02,
          -1.34577788e-02, -9.23925452e-03, -6.01456361e-03,
          -1.40015231e-02, -2.31141150e-02, -1.87314674e-02,
          -1.60943791e-02, -2.23472547e-02, -1.39083024e-02,
          -1.56931709e-02, -1.90054756e-02, -2.19178386e-02,
          -1.18481386e-02, -7.16573605e-03, -1.35079622e-02,
          -2.54541971e-02, -2.34087906e-03, -1.21649569e-02,
          -1.86417270e-02, -1.46872774e-02, 2.86175665e-02,
          9.03361104e-03, 9.63565521e-03, 1.94990507e-03,
          -2.36280239e-03, -2.54853740e-02, -1.51174273e-02,
          -2.12515686e-02, -2.08164416e-02, -3.08892410e-02,
          -1.68400388e-02, -1.01495618e-02, -1.67564489e-02,
          -2.77247354e-02, -1.77433938e-02, -1.94039755e-02,
          -2.34847628e-02, -1.69778634e-02, 1.13992291e-02,
          -6.24021562e-03, -4.97436337e-03, -9.11439583e-03,
          -2.03419980e-02, -1.06722843e-02, -1.29351383e-02,
          -1.57520492e-02, -1.30567355e-02, -5.96615858e-03,
          1.00555771e-03, 9.33808682e-04, 6.76876167e-04,
          -7.23815896e-03, -1.55177910e-03, -1.08527078e-03,
          -2.30367389e-03, -5.18348766e-03, 8.75214674e-03,
          4.47799312e-03, 1.96829555e-03, 8.34303722e-03,
          -2.22756714e-03, -1.88989025e-02, -1.71861444e-02,
          -2.01993771e-02, -1.22603085e-02, -1.41083701e-02,
          -7.44016236e-03, -5.02389437e-03, -5.70654636e-03,
          -1.73895005e-02, -1.17791630e-02, -1.85078401e-02,
          -1.47305466e-02, -1.08669624e-02, -1.58651881e-02,
          -5.95336023e-04, 4.72440937e-04, 4.06704331e-03,
          -6.92006433e-03, 3.96683300e-03, 4.48706094e-03,
          3.13460524e-03, -5.91430627e-03, -4.83882148e-03,
          -3.29305115e-03, -3.17151914e-03, 5.18445799e-04,
          5.81953768e-03, -2.08958029e-03, -2.36749096e-04,
          -2.32189894e-03, -5.69365919e-03, 5.72076440e-03,
          -5.66299095e-05, 1.53557328e-03, -2.21869349e-03,
          -4.55514470e-04, 8.87021131e-04, -1.16630429e-02,
          -7.19487667e-03, -1.14676198e-02, -1.31716765e-02,
          -7.51185464e-03, -1.70631567e-03, 9.71819798e-04,
          3.76470527e-03, 2.00170302e-03, -1.07864710e-02,
          -7.58487871e-03, -1.28557263e-02, -1.03896977e-02,
          -5.35862055e-03, -1.58736622e-03, -3.95525992e-03,
          1.26662548e-03, -4.52163536e-03, -7.33152032e-03,
          -1.04097128e-02, -5.31527400e-03, -3.82649759e-03,
          9.45164124e-04, 4.80229873e-03, 3.27131548e-03,
          -3.33910994e-03, 2.57508364e-03, -9.16478597e-03,
          -5.55040408e-03, -2.24077119e-03, 1.92310233e-02,
          4.70647821e-03, 1.14421919e-02, 9.71576292e-03, 9.75891855e-03,
          2.65307515e-03, -7.11037125e-03, -9.97143518e-03,
          -1.57788154e-02, -1.74240060e-02, -5.39356750e-03,
          -5.30774379e-03, -4.15377319e-03, 2.19868998e-05,
          5.71322301e-03, -8.16177297e-03, -1.01858433e-02,
          -1.12205343e-02, 7.79084861e-03, 3.42098624e-03,
          5.43937227e-03, 1.33556756e-03, 5.11274021e-03, 6.00551395e-03,
          -2.94078561e-03, 1.50941277e-03, -1.43728370e-03,
          -3.41456238e-04, -2.30417401e-03, 2.72177812e-03,
          6.22878410e-03, 1.10092601e-02, -3.72703566e-04,
          -2.35484797e-03, 2.42898866e-04, 6.42216764e-03,
          5.20384312e-03, -1.57941878e-03, -5.47573902e-03,
          1.16801064e-03, 1.89716893e-03, 8.01399071e-03,
          -4.68906434e-03, -4.94944910e-03, -7.63656013e-03,
          -8.83598346e-03, -6.51969900e-03, 2.93788058e-03,
          5.89037139e-04, 6.04858017e-03, 6.12509483e-03,
          -4.37036483e-03, -4.02954221e-03, 1.51270162e-03,
          4.73636319e-04, -1.74706476e-03, 3.56031291e-04,
          2.55632563e-03, 6.48819329e-03, -1.39488629e-03,
          -2.16666493e-03, -1.94536569e-03, -4.18125605e-03,
          5.51285176e-03, 8.54994636e-04, -6.11944636e-03,
          -3.45558161e-03, -2.56813341e-03, -3.18777049e-03,
          -7.87036435e-04, -9.15382116e-04, -3.91300884e-04,
          1.86407231e-02, 7.67678022e-03, -5.13331126e-03,
          -4.71843500e-03, -4.27536853e-03, 1.01758232e-02,
          -2.98576592e-03, -5.47812507e-03, 4.05739469e-04,
          -3.32998973e-03, -4.45812987e-03, -2.21308321e-03,
          3.13468161e-03, 6.62625674e-03, 6.47788821e-03, 2.11931579e-03,
          9.60535661e-04, 3.48838442e-03, 8.40868894e-03,
          -2.30663060e-03, -4.45991289e-03, 2.61631072e-03,
          6.59231329e-03, -9.70646832e-03, -1.89647940e-03,
          2.61663483e-03, 6.40366634e-04, 1.08225783e-02, 6.85852906e-03,
          -3.99480527e-03, -6.94606686e-03, -9.48813651e-03,
          -7.17629353e-03, 3.32452217e-03, 4.04952746e-03,
          1.48717535e-03, 1.02970656e-03, 1.27692148e-03,
          -2.23944592e-03, -3.95138934e-03, -8.16433039e-03,
          3.31659592e-03, 2.10586702e-03, 4.97499248e-03, 1.01009628e-03,
          1.85978820e-03, -6.15329621e-03, -5.32514043e-03,
          2.42294900e-05, 4.96892305e-03, 8.09189212e-03, 6.65624999e-03,
          5.04206866e-03, -1.84806669e-03, -1.36862304e-02,
          -1.58457365e-02, -8.41411110e-03, 4.20923950e-03,
          7.33022485e-03, -4.18211007e-03, 1.14986731e-03,
          1.10998368e-02, 1.11536607e-02, 7.59366853e-03, 2.97213160e-03,
          2.41963961e-03, -6.82008686e-04, -2.56594713e-03,
          -1.00041581e-02, -1.20563731e-02, -8.42322013e-04,
          7.07220577e-04, -1.06358645e-03, -3.97269800e-03,
          -2.08783685e-03, -5.29863825e-03, -7.08097359e-03,
          1.43171046e-02, 3.76987131e-03, 4.30645607e-03, 1.24705862e-03,
          -1.06236991e-02, -1.60501804e-02, -5.94509812e-03,
          4.71394276e-03, 1.47111658e-02, 1.91073853e-03,
          -7.09225703e-03, -9.20177996e-03, -7.97641464e-03,
          -1.15021272e-02, -1.62432417e-02, -8.64568446e-03,
          -4.58524190e-03, 8.53983872e-03, 3.83565843e-04,
          -3.48924659e-03, 4.79781255e-03, 6.44742185e-03,
          1.82360969e-02, -1.88347214e-04, -3.02004599e-04,
          -1.85020990e-03, 2.51550740e-03, -1.85956876e-03,
          -4.34812531e-03, -4.17176029e-03, -5.01653133e-03,
          -1.60215590e-02, -1.49788978e-02, -6.18520845e-03,
          -6.71749935e-03, -1.23486458e-03, 6.50924165e-03,
          9.09502560e-04, 1.34132279e-03, 1.29338633e-03, 3.05530522e-03,
          -9.74991173e-03, -5.17437235e-03, -3.46702361e-03,
          1.08548943e-02, 9.59988567e-04, -3.30956886e-03,
          -1.66707078e-03, -6.96002925e-03, -1.96618065e-02,
          -1.81627981e-02, -9.25840624e-03, -1.39955590e-02,
          1.19574904e-03, -3.22866091e-03, -6.11133594e-03,
          -1.19447615e-03, 1.82411599e-03, -1.50560611e-03,
          -9.57589038e-03, -7.42386328e-03, -4.88365581e-03,
          7.99692469e-04, -4.55345202e-04, -7.80425780e-03,
          -6.62331376e-03, 4.76670219e-04, -8.52233078e-03,
          -9.43775196e-03, -1.77335087e-02, -1.40706794e-02,
          -2.99997302e-03, -2.02609168e-04, -1.94957282e-03,
          5.03965234e-03, -3.09781404e-03, 3.53348954e-03,
          -1.29762162e-02, -8.02744925e-03, -1.15634073e-02,
          -5.27809560e-03, -4.39261412e-03, -4.38932050e-03,
          -4.11538640e-03, -4.33163904e-03, -1.66326649e-02,
          -1.99089032e-02, -1.67748276e-02, -1.61045659e-02,
          -1.21460371e-02, -1.80573110e-03, -7.54178688e-03,
          -3.73928994e-03, 1.46300974e-03, 6.11785054e-03,
          -2.88879592e-03, -1.64739676e-02, -1.28229419e-02,
          -5.45105664e-03, -1.06614996e-02, -1.02428338e-02,
          -1.10318121e-02, -1.30900890e-02, -5.13439532e-03,
          -1.35921342e-02, -1.91274695e-02, -1.48082031e-02,
          -1.12368353e-02, -8.34231544e-03, -6.85952697e-03,
          -4.83524054e-03, 1.99765526e-03, 6.97593251e-03,
          -1.70121286e-02, -1.85106583e-02, -1.70966126e-02,
          -1.95568036e-02, -1.84947513e-02, -1.20708933e-02,
          -1.15458267e-02, -1.51043376e-02, -2.02177018e-02,
          -2.01347526e-02, -2.52754726e-02, -2.36639697e-02,
          -2.59859655e-02 ]
   decision_functions:
      -
         sv_count: 1
         rho: -9.3315418043257292e-01
         alpha: [ 1. ]
