%YAML:1.0
opencv_ml_svm:
   format: 3
   svmType: EPS_SVR
   kernel:
      type: LINEAR
   C: 1.0000000000000000e-02
   p: 1.0000000000000001e-01
   term_criteria: { epsilon:1.0000000000000000e-03, iterations:1000 }
   var_count: 4356
   sv_total: 1
   support_vectors:
      - [ -1.53988535e-02, -9.12501477e-03, -4.70792409e-03,
          -1.24891344e-02, -7.92696048e-03, -1.46762403e-02,
          -1.26052527e-02, -6.75149774e-03, -1.43279135e-02,
          -1.33222882e-02, -1.40960487e-02, -9.97933466e-03,
          -2.03489047e-02, 1.01603363e-02, -2.16246601e-02,
          -1.22955749e-02, -9.26750712e-03, -1.44201973e-02,
          3.52078979e-03, -7.47767882e-03, -2.93036946e-03,
          -1.43796932e-02, -3.38483392e-03, -2.29010545e-02,
          -1.36978850e-02, -9.05254576e-03, 6.58883364e-04,
          1.65290814e-02, -5.78778936e-03, -3.79722146e-03,
          -5.74114267e-03, 2.04300843e-02, -2.09063999e-02,
          -1.54128261e-02, -2.27805879e-03, 1.49451522e-02,
          -1.66523717e-02, -1.09521030e-02, -2.46733357e-03,
          -1.03590703e-02, 2.21423316e-03, -9.11311060e-03,
          -5.28240344e-03, -5.53724542e-03, -1.72290076e-02,
          -1.69808269e-02, -4.29449696e-03, 5.19065140e-03,
          -7.69172236e-03, 4.80327988e-03, -1.13059143e-02,
          -6.47864491e-03, -6.02780143e-03, -1.80859827e-02,
          5.85894566e-03, -5.34630287e-03, -1.81982628e-04,
          -2.93848221e-03, 4.46031289e-03, -1.18910950e-02,
          -5.10007702e-03, 4.03057493e-04, 6.37636427e-03,
          1.40316668e-03, -8.02989211e-03, 2.61677778e-03,
          -6.34369906e-03, 8.58061388e-03, -1.15403561e-02,
          -2.55272724e-03, -3.79454833e-03, 7.75137218e-04,
          -9.13869217e-03, 2.62593478e-03, 3.28628533e-03,
          -6.24532159e-03, -1.03450986e-02, -1.21454503e-02,
          -8.09708890e-03, -7.05055473e-03, -1.52144041e-02,
          -2.46448512e-03, 7.01732887e-03, 6.18579518e-03,
          5.62791852e-03, -4.18098737e-03, -4.60937014e-03,
          -7.14394636e-03, -9.94152017e-03, -6.91187102e-03,
          7.79130869e-03, -3.95134138e-03, -1.20946055e-03,
          -7.39474501e-03, -4.32153372e-03, -1.23350620e-02,
          -5.29993419e-03, -6.90734014e-03, 1.77022803e-03,
          8.88698455e-03, -4.44608601e-03, -2.62353802e-04,
          7.86873512e-03, -1.33063702e-03, -3.33856186e-03,
          -7.83390552e-03, -1.23921065e-02, -4.23320197e-03,
          -9.73317493e-03, -3.02278181e-03, -2.97217281e-03,
          -4.91426466e-03, -1.05927950e-02, -5.52790891e-03,
          -5.23848087e-03, -6.76770834e-03, -6.90974900e-03,
          -7.05009559e-04, -2.83359713e-03, -2.28947424e-03,
          -6.25427812e-03, -3.81124532e-03, -3.45212687e-03,
          -3.95106710e-03, -2.52954802e-03, -1.51567417e-03,
          5.78320865e-03, -7.36434339e-03, -4.21238830e-03,
          2.92986725e-03, -5.34065021e-03, -3.10285506e-03,
          -8.01379792e-03, -1.15541350e-02, 1.51435810e-03,
          6.74174633e-03, -9.63531435e-03, -5.06826397e-03,
          3.03172460e-03, 2.57608015e-03, 3.70246801e-03,
          -2.76715425e-03, -5.40347025e-03, 7.24352570e-03,
          3.11480369e-03, -2.68332637e-03, -4.11708700e-03,
          -5.93134388e-03, -5.05976379e-03, -5.47961844e-03,
          -9.80774313e-03, -7.15060625e-03, 2.52162060e-03,
          1.91270793e-03, -7.43428571e-03, -9.12898220e-03,
          -1.21055795e-02, -6.98696543e-03, -1.54903093e-02,
          -1.27171176e-02, -1.09227793e-02, 2.47095269e-03,
          1.30816381e-02, -3.13767022e-03, -5.32970112e-03,
          -2.87781446e-03, -7.96332024e-04, 2.41084327e-03,
          3.89477325e-04, -6.33698748e-03, 1.41689647e-02,
          1.82431247e-02, -4.55910200e-03, -6.94911461e-03,
          -1.03091458e-02, -6.39244821e-03, -9.81284678e-03,
          -9.96946730e-03, -8.69598985e-03, 1.78603828e-02,
          1.12794898e-03, -8.04321375e-03, -1.03458650e-02,
          -1.22412192e-02, -7.57568562e-03, -1.52942613e-02,
          -1.14873499e-02, -9.58194118e-03, 2.99630774e-04,
          -3.61462100e-03, -9.61216260e-03, -9.24771465e-03,
          -1.15439817e-02, -5.46592567e-03, -1.23243164e-02,
          -1.44262984e-02, -1.11659290e-02, -2.59327586e-03,
          1.80121288e-02, -4.95931273e-03, -5.40857902e-03,
          -1.19251665e-02, -4.81586810e-03, -1.05616953e-02,
          -1.46519719e-02, -5.96404634e-03, 1.78955551e-02,
          1.14498641e-02, -2.30118143e-03, -1.57575891e-03,
          -8.45058076e-03, 2.68126430e-04, -4.45276918e-03,
          -1.22862393e-02, -5.44114085e-03, 8.56906921e-03,
          -4.54599224e-03, -8.45117122e-03, -7.48141017e-03,
          -1.03874486e-02, -5.86094242e-03, -1.21056670e-02,
          -1.14026535e-02, -1.30726891e-02, -4.54089930e-03,
          -5.61848888e-03, -1.10333851e-02, -1.24375224e-02,
          -1.31087024e-02, -1.03942752e-02, -1.00212945e-02,
          -3.41154705e-03, -7.70102581e-03, -4.23753075e-03,
          8.68904963e-03, -2.18658918e-03, -3.15456325e-03,
          -6.00100029e-03, 1.34960946e-03, -1.77075074e-03,
          -5.47895813e-03, -7.96126947e-03, 4.56643011e-03,
          1.48014380e-02, -2.60675093e-03, -7.18460279e-03,
          -7.70432223e-03, -4.76410007e-03, -5.17510436e-03,
          3.03333905e-03, -1.93082541e-03, 9.24921408e-03,
          -1.76944153e-03, -8.68716091e-03, -1.14442836e-02,
          -1.47929620e-02, -1.28366798e-02, -6.58452976e-03,
          -4.13111877e-03, -7.12703634e-03, -1.40619115e-03,
          -2.58539431e-03, -9.40065924e-03, -9.67864692e-03,
          -9.13500041e-03, -1.04929684e-02, -9.58391931e-03,
          -9.82363522e-03, -8.53469502e-03, -4.27567633e-03,
          1.36628235e-02, -5.04246773e-03, -7.66463857e-03,
          -7.44822575e-03, -5.69672789e-03, -2.47488637e-03,
          4.77750041e-03, 3.35374917e-03, 9.33385547e-03, 1.26231099e-02,
          -1.00640189e-02, -9.27117094e-03, -6.53225975e-03,
          -6.55820034e-03, -2.21502176e-03, -4.32180132e-05,
          -9.76349227e-04, 4.33939742e-03, -6.15621358e-03,
          -7.19110994e-03, -6.01720950e-03, -8.95333104e-03,
          -1.16230058e-03, -5.40969986e-03, -2.51249247e-03,
          -5.14339772e-04, -3.39069380e-03, -1.55630466e-02,
          -8.81825108e-03, -7.97813293e-03, -1.41242733e-02,
          -9.73236747e-03, -9.98302363e-03, -4.85694315e-03,
          -2.17657536e-04, -8.70803930e-03, 1.13759385e-02,
          -5.35032712e-03, -3.89357796e-03, -5.70473168e-03,
          1.05088791e-02, 2.27889162e-03, -6.26590743e-04,
          -5.27715310e-03, 5.29895956e-03, 8.41823989e-04,
          -7.04321498e-03, -5.63574163e-03, -1.20054483e-02,
          -2.72590364e-03, -4.38044022e-04, -5.19839022e-03,
          -8.02858919e-03, 4.70301835e-03, -1.64830554e-02,
          -8.56259745e-03, -9.78714507e-03, -1.13698654e-02,
          -1.36129186e-03, 1.64057536e-03, 1.26089214e-03,
          6.57689452e-05, -1.34196719e-02, -2.05606911e-02,
          -1.23161161e-02, -1.54036945e-02, -1.47832138e-02,
          -2.05618492e-03, -6.65772706e-03, -9.44631267e-03,
          -1.26376478e-02, -2.09425688e-02, -5.95156197e-03,
          -5.27304085e-03, -5.77037688e-03, -8.85704998e-03,
          3.51476739e-03, 8.23653024e-03, -3.26125324e-03,
          -5.47259115e-03, -3.07635660e-03, 3.73891834e-03,
          -7.86829274e-03, -1.20340446e-02, -1.65741183e-02,
          1.75636134e-03, 6.10462530e-03, 1.62313820e-03,
          -6.84508821e-03, 2.07196525e-03, -1.96033791e-02,
          -1.24807768e-02, -1.37410043e-02, -9.51351319e-03,
          1.36517743e-02, -1.14153130e-02, -7.48489983e-03,
          -1.25046121e-02, -1.87504105e-02, -2.41392888e-02,
          -1.67164523e-02, -1.40958158e-02, -1.02131767e-02,
          4.66508418e-03, -1.53282639e-02, -6.75308658e-03,
          -1.44263944e-02, -2.42364164e-02, 2.83422088e-03,
          -7.73097621e-03, -1.05481511e-02, -9.78721119e-03,
          1.43742915e-02, 1.16213551e-02, 1.15173478e-02, 1.45201420e-03,
          6.13652216e-03, -5.77887194e-03, -1.38195744e-02,
          -1.31024914e-02, -1.39575694e-02, 2.62968335e-03,
          -1.09145474e-02, -7.09653657e-04, -8.39672983e-03,
          -1.66753214e-03, -6.23279531e-03, -7.83976540e-03,
          -6.87677320e-03, -1.22513361e-02, -8.08282290e-03,
          -2.16277111e-02, -1.59703828e-02, -1.01566818e-02,
          -8.38017743e-03, 1.25357031e-03, -5.84714627e-03,
          -5.90471039e-03, -7.43136043e-03, 6.31223107e-03,
          -2.12917458e-02, -2.32776366e-02, -1.07264956e-02,
          -3.95691302e-03, 1.81964447e-03, 3.15111363e-04,
          -2.42946297e-03, -3.26849008e-03, -3.29072960e-03,
          -1.41703198e-02, -1.10100284e-02, -7.65336491e-03,
          -2.74733594e-03, 3.75466864e-03, -2.91229505e-03,
          -2.39799311e-03, -1.99945644e-03, 8.10551737e-03,
          -7.55439512e-03, -1.14169177e-02, -3.83386342e-03,
          2.57758028e-03, -5.38984826e-03, -4.21064999e-03,
          -2.79092253e-03, -5.18333167e-03, -3.71784065e-03,
          -8.28834530e-03, -8.76572169e-03, -3.20640276e-03,
          -8.37557949e-03, -1.05960313e-02, -8.69593397e-03,
          -2.57698889e-03, -9.41467192e-03, 1.03318300e-02,
          -8.50758515e-03, -6.08911784e-03, -5.05075091e-03,
          -9.34520364e-03, 5.08214347e-03, -3.46407457e-03,
          -3.85408220e-03, -3.26005509e-03, -1.94912471e-04,
          -1.87119632e-03, -4.32655355e-03, -1.08953088e-03,
          1.87857484e-03, 4.27742081e-04, -8.90533905e-03,
          -9.18764807e-03, -4.83680982e-03, 9.56673699e-04,
          -3.69539112e-03, -6.95467601e-03, -2.20883475e-03,
          -4.73573396e-04, -6.90441672e-03, -6.51871972e-03,
          -2.99983053e-03, -1.23195667e-02, -8.57090857e-03,
          -1.04966909e-02, -1.08839050e-02, -9.76294931e-03,
          -9.69924033e-03, -3.15678562e-03, -6.30262261e-03,
          -3.12868203e-03, 3.17548343e-04, -1.63900026e-04,
          -2.75597558e-03, -1.07686594e-02, -1.26299635e-02,
          -9.73661244e-03, 3.71737056e-03, -6.18465105e-03,
          -2.62102718e-03, -3.21533042e-03, -4.13452694e-03,
          -8.55406839e-03, -1.10280477e-02, -6.49406621e-03,
          3.36258439e-03, 6.55905996e-03, -1.94051117e-03,
          5.98724582e-04, 4.09756601e-03, -1.76755816e-03,
          -3.38353752e-03, -9.52199381e-03, -6.83949562e-03,
          6.22668769e-03, -2.70366343e-03, -1.03077423e-02,
          -6.00216491e-03, -3.71741015e-03, -3.19623016e-03,
          -5.32384496e-04, -9.36143193e-03, -1.37055982e-02,
          -7.40708783e-03, -8.33097752e-03, -1.23581309e-02,
          -9.12216492e-03, -1.73888647e-03, 1.30928773e-03,
          5.51009085e-03, -1.82715594e-03, -1.21787684e-02,
          -1.42348390e-02, 9.23801586e-03, -6.13537012e-03,
          -3.01659829e-03, -4.01498331e-03, -6.31416822e-03,
          -2.51206639e-03, -9.91625246e-03, -6.61265012e-03,
          1.03482418e-02, 9.57919098e-03, -1.15280449e-02,
          -9.12755728e-03, -2.92127277e-03, -2.28467211e-03,
          2.52042781e-03, -2.01445026e-03, -6.87895669e-03,
          6.47473661e-03, -4.23678849e-03, -5.88248577e-03,
          -6.26123184e-03, -1.97443622e-03, -2.85478600e-04,
          3.88468243e-03, 3.58981633e-04, -1.14121037e-02,
          -9.77697317e-03, -4.60692076e-03, -2.29781168e-03,
          -6.86132303e-03, -7.40280328e-03, -5.18897409e-03,
          -2.24131322e-03, -2.63966131e-03, -1.02048051e-02,
          -6.79664128e-03, 1.24382228e-02, -6.38171053e-03,
          -3.31194000e-03, 2.15890075e-04, 8.03848554e-04,
          8.97259306e-05, 2.54747504e-03, -4.60293191e-03,
          9.37205274e-03, 1.20332334e-02, -1.52604945e-03,
          -2.55150092e-03, -4.27527726e-03, 2.38099881e-03,
          -2.05922220e-03, 1.50514898e-04, -6.49055652e-03,
          6.54378673e-03, -3.87239573e-03, 4.54233923e-05,
          -1.81526085e-03, -6.57412736e-03, -2.57097487e-03,
          -3.06072482e-03, -8.18392821e-03, -6.64559379e-03,
          -9.73062776e-03, -3.79369617e-03, 7.59031158e-04,
          3.63503536e-03, -3.71542783e-03, -2.79641710e-04,
          2.44524772e-03, -5.58275217e-03, -4.32130834e-03,
          -1.07090408e-02, 9.59362648e-03, 2.94548436e-03,
          2.59731954e-04, -4.00835881e-03, -1.38339328e-05,
          -2.47546798e-03, -4.40069428e-03, -4.47204337e-03,
          3.96429375e-03, 9.03139915e-03, 2.03668349e-03, 2.99572386e-03,
          -1.16798328e-03, -5.07618720e-03, -2.38117995e-03,
          -4.89479164e-04, -1.41526561e-03, 2.19593011e-03,
          -5.50097227e-03, -2.66117859e-03, -1.00280624e-04,
          -2.35296949e-03, 7.98631751e-04, 2.54068593e-03,
          -7.62753887e-04, -7.53441034e-03, -1.01720328e-02,
          -5.36672771e-03, -4.07448225e-03, -3.26005742e-03,
          -6.81682071e-03, -4.07593732e-04, 2.32402841e-03,
          8.86309077e-04, -5.86926239e-03, -1.09364046e-02,
          6.04092656e-03, -2.04663113e-04, 7.02258083e-04,
          -2.69772543e-04, -6.65122038e-03, -2.65725190e-03,
          -1.76094618e-04, -1.18079432e-03, 3.15615069e-03,
          4.79398109e-03, -4.48967610e-03, -3.18735885e-03,
          -3.62364296e-03, -2.12813518e-03, 6.03177166e-03,
          4.11362294e-03, -1.15556992e-03, 4.36741672e-03,
          -5.13416296e-03, -5.03993360e-03, -3.19587509e-03,
          -4.52773087e-03, -1.67283381e-03, 2.31309771e-03,
          2.17095390e-03, 1.10637979e-03, -7.95388781e-03,
          -6.99134963e-03, -7.62053439e-03, -6.33459957e-03,
          -6.41184626e-03, -7.47921597e-03, 1.62336882e-03,
          1.76165032e-03, 1.87277398e-03, -9.39357374e-03,
          7.59129273e-03, -3.75355431e-03, -1.64283230e-03,
          -3.69415502e-03, -4.45013604e-04, 8.55633151e-03,
          8.76544602e-03, 2.63403612e-03, 5.83088165e-03, 7.04504084e-03,
          -4.59645130e-03, -4.10125544e-03, -4.92933812e-03,
          -3.19997338e-03, 2.56846054e-03, 6.15551043e-03,
          8.75959266e-03, 1.05382046e-02, -7.71695003e-03,
          -5.59793320e-03, -5.37716132e-03, -8.72578193e-03,
          -1.50392065e-03, 4.98067588e-03, 2.62012967e-04,
          -1.77707383e-03, -8.43198970e-03, -1.43426210e-02,
          -7.39118317e-03, -7.35858642e-03, -1.08591085e-02,
          -5.39211044e-03, 1.44466304e-03, -4.85353783e-04,
          -4.09501186e-03, -1.20905899e-02, 9.13427770e-03,
          -6.04826119e-03, -5.72607433e-03, -7.04477122e-03,
          4.17447509e-03, 1.14799026e-04, 5.24278264e-03, 9.35338903e-03,
          8.82727653e-03, 8.34399089e-03, -7.02367770e-03,
          -7.42249982e-03, -1.08340727e-02, -2.53338064e-03,
          -1.15017896e-03, 4.43673274e-03, 4.47725598e-03,
          9.16543696e-03, -1.25278290e-02, -6.26052171e-03,
          -7.64880190e-03, -9.35607124e-03, 3.55733582e-03,
          2.98412144e-03, -2.21290230e-03, -6.24777284e-03,
          -1.32080503e-02, -1.34638967e-02, -1.16289947e-02,
          -1.05830980e-02, -1.32549731e-02, -5.50692575e-03,
          1.18848286e-03, -2.46167858e-03, -9.67569277e-03,
          -1.28891831e-02, 6.86003407e-03, -4.52239159e-03,
          -7.00775255e-03, -5.57816215e-03, -2.65615457e-03,
          1.43860653e-03, -5.13533503e-03, -1.97270093e-03,
          6.20968128e-03, 4.25267871e-03, -8.33866186e-03,
          -9.33907088e-03, -6.73026545e-03, -3.27848177e-03,
          5.58073120e-03, 1.86074863e-03, -7.48131936e-03,
          3.00106988e-03, -1.56325493e-02, -1.17113627e-02,
          -1.04407966e-02, -1.21238949e-02, -3.82713508e-04,
          3.28401034e-03, 2.68910639e-03, -5.53362304e-03,
          -1.19646806e-02, -1.93284657e-02, -1.36487791e-02,
          -1.38131632e-02, -1.64121985e-02, -9.26278904e-03,
          -1.20444633e-02, -3.00103263e-03, -9.37140454e-03,
          -1.78954527e-02, -2.70301243e-04, -9.90727637e-03,
          -7.09278136e-03, -6.37403969e-03, 2.65679159e-03,
          1.57301947e-02, 1.44611346e-02, 2.57451204e-03, 7.18195748e-04,
          -5.67002455e-03, -1.45184435e-02, -1.54295834e-02,
          -1.67908724e-02, -4.13809763e-03, -1.87567184e-05,
          1.43571487e-02, 1.06922267e-02, -4.24010912e-03,
          -1.70792500e-03, -4.49056388e-04, -1.56864652e-03,
          -4.05787257e-03, -4.24793223e-03, -1.49170160e-02,
          -8.89595039e-03, -6.86319172e-03, -6.63565611e-03,
          2.17589582e-06, -5.87367918e-03, -8.63180403e-03,
          -6.22676965e-03, 1.11431507e-02, -7.44336192e-03,
          -8.46563745e-03, -1.08491424e-02, -6.18308596e-03,
          -5.19812759e-03, -2.42505339e-03, -4.77272831e-03,
          -5.88328950e-03, -1.10102503e-03, -1.85928755e-02,
          -1.31579870e-02, -1.00588845e-02, -6.42247591e-03,
          -8.33781064e-03, -7.01961061e-03, -9.31194797e-03,
          -9.02570784e-03, 1.21745132e-02, -9.45664290e-03,
          -1.18991714e-02, -1.48937954e-02, -1.15124090e-02,
          2.78524007e-03, -4.58456157e-03, -3.37738637e-03,
          -5.18425414e-03, 3.51483206e-04, -1.34770072e-03,
          -3.17889359e-03, -4.43924963e-03, -9.27045417e-04,
          -4.34417976e-03, -7.30292266e-03, -2.28103413e-03,
          -4.69108112e-03, 6.30458584e-03, -3.43293417e-03,
          -9.27461591e-03, -7.25095253e-03, -3.85002489e-03,
          -4.69447440e-03, -4.58674971e-03, -2.28274916e-03,
          -6.84169447e-03, 3.50939995e-03, -2.42969138e-03,
          -3.25110951e-03, -7.56135629e-03, -7.18556577e-03,
          -8.64612311e-03, -4.74850740e-03, 1.52435026e-03,
          -5.11186849e-03, 9.92035028e-03, 1.93954620e-04,
          -5.56725124e-03, -6.71407441e-03, -1.09254709e-02,
          -1.77163235e-03, -7.43728410e-03, 1.09099783e-03,
          -4.01991466e-03, -5.49106253e-03, -5.83599834e-03,
          -8.95131472e-03, -5.51806111e-03, -2.06228276e-03,
          -1.28405483e-03, -2.86488072e-03, 4.49992064e-03,
          2.92928261e-03, 1.98313035e-03, -5.23140142e-03,
          -1.45612508e-02, -7.41465995e-03, -1.76512462e-03,
          -7.34694069e-03, -1.68387184e-03, 6.45203888e-03,
          -7.54759088e-03, -1.73961278e-03, -1.07778620e-03,
          -2.72591738e-03, -3.93195357e-03, -7.83726294e-03,
          -1.34537835e-03, 4.01821407e-03, 1.04618398e-02,
          5.44161210e-03, 9.99199599e-03, 5.27631864e-03,
          -3.58194695e-03, -1.36539876e-03, -4.12272150e-03,
          1.33363809e-03, -5.60625782e-03, -5.88977709e-03,
          -7.42998999e-03, -7.24557741e-03, -5.23513975e-03,
          -1.13771539e-02, -6.27664011e-03, 3.59177380e-03,
          1.12108397e-03, -9.71136335e-03, -1.04245599e-02,
          -3.94806359e-03, -1.01906648e-04, 4.87327669e-03,
          -3.31148808e-03, -4.60857106e-03, 4.50428855e-03,
          3.15924268e-03, 4.98190150e-03, 1.96027709e-03, 1.27537482e-04,
          1.05042034e-03, 3.37315886e-03, -3.64480959e-03,
          -2.84623326e-04, 3.19722923e-03, 5.91775915e-03,
          2.81485473e-03, -9.81400837e-04, 1.01603260e-02,
          3.87014658e-03, 8.76372494e-03, -1.67638646e-03,
          -8.07894219e-04, 8.81000049e-03, 1.77946303e-03,
          -1.20057156e-02, -8.66965577e-03, -3.80206690e-03,
          -6.85472216e-04, -4.84496763e-04, -6.74867118e-03,
          -6.74523367e-03, 4.53689229e-03, 1.98880420e-03,
          -8.17318540e-03, -1.58430077e-03, -5.95598295e-03,
          -2.55301385e-03, -6.86838524e-03, -1.06359394e-02,
          -1.04989875e-02, -9.20486404e-04, 6.02907874e-03,
          -1.30467163e-03, -5.27957873e-03, 5.71503956e-03,
          4.49035224e-03, 3.64106451e-03, -1.75625365e-03,
          -4.70503117e-04, 9.26653016e-03, 2.11583264e-03,
          -5.30017866e-03, -4.82268585e-03, 5.67081152e-04,
          3.24899307e-03, 2.43467302e-03, -4.29390743e-03,
          -1.07877562e-03, 3.28425574e-03, 4.15263698e-04,
          -3.79521982e-03, 2.39630579e-03, -4.49906016e-04,
          2.52163009e-04, -2.95294821e-03, -1.10310568e-02,
          -6.48050895e-03, 3.90030647e-04, 1.19763857e-03,
          -7.49375112e-03, 1.03495957e-03, -5.77003411e-05,
          -7.64038973e-03, -4.87608928e-03, -9.19543486e-03,
          -6.85263658e-03, 1.89865218e-03, 5.50152641e-03,
          -3.74290720e-03, 1.44552859e-03, 3.92884435e-03,
          4.99962969e-03, 2.60262331e-03, -5.11167478e-03,
          -2.19841837e-03, 3.52926715e-03, 4.50100936e-03,
          4.84870427e-04, 3.35352216e-03, 4.73661069e-03,
          -2.39847554e-03, -1.08510151e-03, -2.48990022e-03,
          -6.07528538e-03, 6.15669927e-03, 3.42369918e-03,
          -3.95618984e-03, -2.86090566e-04, -2.08126218e-03,
          -6.44865353e-03, -5.05102240e-03, -5.79564180e-03,
          -5.18985791e-03, 6.35147735e-04, 3.42290965e-03,
          -5.20555768e-03, -5.43089816e-04, -9.70164500e-03,
          -7.43918307e-03, 1.95372384e-03, -1.51758885e-03,
          -2.86731008e-03, 1.77730306e-03, 5.52044669e-03,
          3.59756732e-03, 4.86636115e-03, 4.84756008e-03, 7.40724208e-04,
          8.02909199e-04, -4.02109930e-03, -3.46842268e-03,
          5.46814920e-03, 9.74326767e-03, 3.57556832e-03, 6.36081398e-03,
          -2.43340852e-03, -8.25037423e-04, 2.21351720e-03,
          -5.99531503e-03, -5.77688636e-03, 5.78408781e-03,
          6.08931482e-03, -7.92580005e-03, -4.25083190e-03,
          -8.41470342e-03, -7.59802759e-03, 3.12489457e-03,
          3.77751538e-03, 2.06580036e-03, 3.66168865e-03, 5.03299758e-03,
          -7.43488967e-03, -1.02856606e-02, -5.87021839e-03,
          -8.19686055e-03, -8.96848214e-05, 2.14643497e-03,
          4.90332581e-03, 3.72149330e-03, 1.26865767e-02, 1.76662358e-03,
          1.05123722e-03, -2.32775579e-03, -5.53921750e-03,
          -5.92476681e-05, 1.76599075e-03, 3.78999289e-06,
          5.76563505e-03, 6.72772154e-03, -6.11383584e-04,
          -4.62238258e-03, -8.62897956e-04, -8.38529412e-03,
          2.15259870e-03, 3.34823877e-03, 4.77155019e-03, 2.12131976e-03,
          1.66941038e-03, -4.36155079e-03, -7.27816671e-03,
          -7.17464136e-03, -1.93804898e-03, -1.34798279e-03,
          2.34008743e-03, 5.40182972e-03, -2.25812965e-03,
          -9.66653402e-04, -6.94608362e-03, -6.95325620e-03,
          -1.07451696e-02, -5.82875591e-03, -2.53950246e-03,
          3.33896605e-03, 2.50356505e-03, -2.91732117e-03,
          5.14744082e-04, -3.95465083e-03, -3.00419517e-03,
          -4.71610017e-03, -1.76436966e-03, 2.06920411e-03,
          6.23265514e-03, 5.54385548e-03, -2.01735500e-04,
          -8.47910764e-04, -2.65565258e-03, -4.49186889e-03,
          -5.77381998e-03, -2.04935973e-03, -5.21356473e-04,
          4.94227558e-03, 4.84795636e-03, 1.81100593e-04,
          -1.60944578e-03, -7.88531918e-03, -8.36263504e-03,
          -7.14128138e-03, 3.69216083e-03, 1.96192344e-03,
          -1.83312583e-03, -3.20124323e-03, -2.34095403e-03,
          -3.79198650e-03, -1.03419432e-02, -1.00537920e-02,
          -9.24352650e-03, -4.50007152e-03, 2.30663060e-03,
          -2.58958619e-03, -8.16880818e-03, -4.90627671e-03,
          -8.74791702e-04, -7.25373812e-03, -1.05714416e-02,
          -4.86230198e-03, 3.91954696e-03, -2.26865843e-04,
          -1.65471656e-03, -3.41990986e-03, -1.32891489e-03,
          -2.34714546e-03, -1.17831612e-02, -1.49731748e-02,
          -9.79974028e-03, -1.68528664e-03, 5.05723932e-04,
          -5.03654592e-03, -6.53258013e-03, -1.30306743e-03,
          -2.63265194e-03, -1.01528056e-02, -7.64128333e-03,
          -7.12379673e-03, 3.88684333e-03, 1.45385796e-02,
          4.53904411e-03, -1.75532559e-03, -4.64707473e-03,
          -1.35675203e-02, -1.42915128e-02, -1.70290880e-02,
          -1.83076356e-02, -7.69777456e-03, 3.93787678e-03,
          9.54615232e-03, 6.49130205e-03, -9.32514574e-03,
          -5.27833472e-04, -6.76820800e-03, -9.80061758e-03,
          -7.37001933e-03, 3.58598400e-03, 9.77974012e-03,
          2.46789749e-03, -1.45183597e-03, -2.76492001e-03,
          -1.03840362e-02, -9.91298072e-03, -1.27393333e-02,
          -1.72625054e-02, -1.26066021e-04, 1.37910608e-03,
          5.83585864e-03, -3.64375114e-03, -8.96378886e-03,
          -8.38075671e-03, -3.32370028e-03, -5.66507922e-03,
          -3.59361875e-03, 4.64442419e-03, -1.62332319e-02,
          -1.50231440e-02, -1.11719063e-02, -7.05967098e-03,
          -1.52907670e-02, -4.68165474e-03, -6.74024969e-03,
          -6.36974769e-03, 1.10012572e-02, -7.27415690e-03,
          -1.41134690e-02, -1.60588417e-02, -1.56264789e-02,
          -6.45724032e-03, -5.43076592e-03, -6.38913829e-03,
          -3.88742401e-03, 1.40748452e-02, -1.17913708e-02,
          -1.20086307e-02, -1.15351938e-02, -8.50689411e-03,
          -9.17744637e-03, -3.68877593e-03, -1.78519695e-03,
          -1.54065702e-03, 2.12844443e-02, -2.94966903e-03,
          -1.01007707e-02, -1.08735878e-02, -1.22876344e-02,
          -9.29839909e-03, -1.57501572e-03, 1.41797552e-03,
          -2.18483550e-03, 6.16687583e-03, -1.21834851e-03,
          -6.43731328e-03, -8.27031583e-03, -1.30535914e-02,
          -1.20025948e-02, -2.83364346e-03, -1.08057028e-03,
          -4.17781621e-03, 6.69997605e-03, -2.72316480e-04,
          -7.39789614e-03, -8.16728361e-03, -1.52596096e-02,
          -8.26017186e-03, 2.90877605e-03, 6.90771965e-03,
          2.90093711e-03, 4.38863784e-03, -4.19291435e-03,
          -5.23696234e-03, -7.55742798e-03, -1.20404158e-02,
          -7.58548174e-03, 2.07353919e-03, 3.51362117e-03,
          8.27976316e-03, 9.16564278e-03, 1.31947512e-04,
          -4.37373063e-03, -3.89177282e-03, -7.94982817e-03,
          -1.32990144e-02, -6.29945472e-03, -3.11497855e-03,
          -1.07657211e-02, -3.14976391e-03, -2.03411141e-03,
          -4.84881550e-03, -5.88305620e-03, -1.30404914e-02,
          -8.16766266e-03, -1.71229651e-03, 7.19201006e-03,
          6.86735986e-03, 8.50259326e-03, 2.64197541e-03,
          -4.16769180e-03, -3.08939442e-03, -7.89661054e-03,
          -1.15832957e-02, -5.00226277e-04, 3.09271761e-03,
          2.36351672e-03, 2.80823349e-03, 4.70483297e-04,
          -2.25331821e-03, -2.20303959e-03, -8.63409974e-03,
          -6.62224693e-03, 5.91817021e-04, 4.88158967e-03,
          1.30496044e-02, 1.49615919e-02, 7.56686507e-03,
          -1.74528162e-03, 2.64773634e-03, -3.02504795e-03,
          -4.90579102e-03, 2.62052333e-03, -5.28402161e-04,
          -1.10738620e-03, -2.82397680e-03, -3.58347292e-03,
          -4.66011791e-03, -3.20014497e-03, -3.86249577e-03,
          2.02549319e-03, 2.47690710e-03, -1.20764505e-03,
          8.73564184e-03, 1.25418173e-03, 1.62948715e-03,
          -2.76926486e-03, -3.03823361e-03, 2.86043342e-03,
          -2.44883983e-03, 1.24998577e-03, 2.97931163e-03,
          4.71975654e-03, 9.30577226e-04, -5.81475766e-03,
          -6.35088701e-03, -1.87217223e-03, -2.77570589e-03,
          1.49492291e-03, 5.82626788e-03, 2.61325459e-03, 1.37900570e-02,
          4.73725889e-03, -5.56943414e-04, -4.01081285e-03,
          -5.69308363e-03, 7.06021165e-05, 1.69161987e-03,
          4.65275371e-04, -5.42470254e-03, 3.86523176e-03,
          4.47619054e-03, 2.05482380e-03, -3.14086094e-03,
          -3.64493276e-03, 4.43550153e-03, -8.28360615e-04,
          -6.65875152e-03, -9.99699626e-03, -5.00116358e-03,
          -2.06213631e-03, 3.43821151e-03, -5.99686755e-03,
          -6.69461116e-03, -1.92984263e-03, 5.29620680e-04,
          2.08919263e-03, -3.11064883e-03, 8.16377252e-03,
          9.94469691e-03, 4.37168963e-03, -1.90014881e-03,
          -4.21970617e-03, 1.56045367e-03, -2.50802282e-03,
          -1.68982393e-03, -3.79189639e-03, 7.61810399e-04,
          1.72296644e-03, 9.59086232e-04, -6.01380784e-03,
          -8.20063986e-03, -3.56488628e-03, 2.98178010e-03,
          -4.19007521e-03, -4.88408189e-03, -3.14249727e-03,
          3.96878738e-03, 5.33737428e-03, -3.47435917e-03,
          -4.43801936e-03, 2.45472812e-03, 6.46304246e-03,
          -9.79964534e-05, -4.24739718e-03, -1.61252753e-03,
          -5.16012684e-03, -3.39371595e-03, -6.29112474e-04,
          -9.37096681e-03, 3.55986226e-03, 1.65219244e-03,
          -9.62715305e-04, -1.00755726e-03, 3.56509729e-04,
          3.58242844e-03, 3.79689061e-03, -1.98762212e-03,
          -5.84090687e-03, -1.68771797e-03, 8.01294111e-03,
          3.27051035e-03, 1.38726644e-03, -1.49974809e-03,
          -6.72635809e-03, -2.16102693e-03, -2.75653531e-03,
          -5.82238520e-03, 4.13132459e-03, 5.86046651e-03,
          7.05272600e-04, -3.10684880e-03, 1.92768557e-03,
          -2.32189894e-03, -1.23580382e-03, -3.09319026e-03,
          -7.63448048e-03, 2.88041867e-03, 7.44763017e-03,
          4.47919406e-03, 4.12920071e-03, -4.80440503e-04,
          -1.08386890e-03, -3.52737098e-03, -6.47370843e-03,
          -2.91240821e-03, 4.89059743e-03, 9.85813141e-03,
          5.98159106e-03, 4.60540596e-03, 1.24522788e-03,
          -4.77520563e-03, -3.78934201e-03, -5.03222318e-03,
          -4.85729240e-03, 5.35848970e-03, 7.07304617e-03,
          3.20563233e-03, 3.87015333e-03, -1.74154542e-04,
          -6.25654962e-03, -3.43066943e-03, -6.45416370e-03,
          1.34392083e-03, 5.83785400e-03, 9.03292187e-03, 2.69295624e-03,
          1.74668641e-03, -2.78518698e-03, -3.98896495e-03,
          -5.03775245e-03, -3.37232416e-03, -2.09497195e-03,
          6.31943159e-03, 4.49259812e-03, -2.47558323e-03,
          -3.12308338e-03, -3.60038271e-03, -9.59867705e-03,
          -9.45246662e-04, 4.42754012e-04, -1.83701888e-03,
          6.40102895e-03, 9.41238832e-03, 1.31775555e-03,
          -8.34789244e-04, -4.21795016e-03, -6.01395406e-03,
          -9.44120530e-03, -1.16934278e-03, 5.43865422e-03,
          9.01406072e-03, 8.85828305e-03, -7.77239155e-04,
          -4.61414317e-03, -2.39988742e-03, -5.87949064e-03,
          -7.22195953e-03, -4.06887179e-04, 4.41315817e-03,
          1.05587421e-02, -3.20893154e-03, -3.09843547e-03,
          -1.35779555e-03, -3.97540629e-03, -3.80053185e-03,
          4.89839236e-04, 2.75799277e-04, -1.80032849e-03,
          -1.29807892e-03, -1.91739248e-03, -1.10216637e-03,
          -2.89933104e-03, 1.77053420e-03, -5.54742618e-03,
          -4.93817125e-03, 1.06703246e-03, 5.85023605e-04,
          -1.77395367e-03, 3.24225472e-03, 2.38755764e-03,
          8.58760613e-04, 1.79398281e-03, -6.95005991e-04,
          -4.70449077e-03, -2.84553622e-03, -1.57330849e-03,
          3.63620091e-03, -2.52841128e-04, 1.69059972e-03,
          -6.06343383e-04, 7.65470508e-03, -8.23032635e-04,
          -1.86883053e-03, 3.83236154e-04, -3.33216274e-03,
          -1.76232238e-03, -4.06082999e-03, -5.88435493e-03,
          -1.05006956e-02, -2.63972627e-03, 6.35170960e-04,
          1.82173750e-03, 1.87146955e-03, -3.46128712e-03,
          -3.00659984e-03, -6.39254600e-03, -1.20931622e-02,
          -1.43485535e-02, -7.57383136e-03, -1.74378953e-03,
          3.77374934e-03, -3.91453691e-03, -7.13454280e-03,
          -4.36883513e-03, -2.62991089e-04, -4.31708852e-03,
          -6.89732702e-03, 3.56479432e-03, 4.07880871e-03,
          5.14390692e-03, 6.51277835e-04, -2.73838220e-03,
          -2.97165453e-03, -6.09055348e-03, -1.19318459e-02,
          -9.41130891e-03, -2.41550361e-03, -5.35723800e-03,
          8.79085530e-03, 3.40289349e-04, -3.36664962e-03,
          -4.79028840e-03, -5.47606824e-03, -5.91208786e-03,
          -4.45614429e-03, -1.11113163e-03, 1.25300875e-02,
          1.20527595e-02, 1.39642318e-04, -1.92073011e-03,
          -2.84550525e-03, -1.13771502e-02, -7.49380607e-03,
          -7.60528166e-03, -1.39318854e-02, -3.44571774e-03,
          4.46646998e-04, 3.47793545e-03, -4.94125439e-03,
          -6.67983619e-03, -6.64086686e-03, -6.89865742e-03,
          -1.36392761e-03, 5.37360134e-03, 1.04517944e-03,
          1.81872882e-02, -2.18469177e-05, -2.36952864e-03,
          -5.26040234e-03, -1.08359810e-02, -8.93283729e-03,
          -1.01178642e-02, -1.66918281e-02, -2.70012673e-03,
          3.86865489e-04, -1.61306199e-03, -2.55408813e-03,
          -1.33005483e-02, -8.25713482e-03, -7.27718137e-03,
          -7.29261339e-03, -5.18884324e-03, 8.86078831e-03,
          -1.05623426e-02, -8.42337869e-03, -8.38775933e-03,
          -9.64565761e-03, -7.81425182e-03, -6.01586234e-03,
          -3.84883140e-03, 6.16666814e-03, 1.41878631e-02,
          -1.24848937e-03, -6.18893839e-03, -6.34662900e-03,
          -8.14340264e-03, -9.04392637e-03, -9.37226880e-03,
          -1.33112473e-02, -1.43664079e-02, 2.54437001e-03,
          -1.53674195e-02, -6.59817597e-03, -7.79753551e-03,
          -8.92357808e-03, -1.11916596e-02, -1.15701063e-02,
          -1.01461094e-02, -6.67022355e-03, 9.74720716e-03,
          -7.76763912e-03, -8.19237810e-03, -9.13710147e-03,
          -9.41451080e-03, -8.29001330e-03, -4.43936442e-04,
          1.88235764e-03, 5.40510193e-03, 6.80499710e-03,
          -5.36371069e-03, -4.95072780e-03, -5.62785473e-03,
          -8.56667105e-03, -9.22072120e-03, -4.19336517e-04,
          1.59102061e-03, 1.00428825e-02, 1.10819712e-02,
          -4.66775289e-03, -8.13276041e-03, -5.43766469e-03,
          -5.50200325e-03, -8.59832019e-03, -9.03980620e-03,
          -4.46119392e-03, -1.45860680e-03, 5.84772928e-03,
          -7.26292981e-03, -6.19559642e-03, -5.11721568e-03,
          -6.64823968e-03, -8.38625431e-03, -6.49744924e-03,
          -1.00547599e-03, -1.70591622e-04, 8.72697681e-03,
          -5.13386505e-04, -4.16780030e-03, -3.67739680e-03,
          -3.96613870e-03, -1.18297637e-02, -3.40392627e-03,
          1.50267803e-03, 4.78126854e-03, 1.14213815e-03,
          -1.84246933e-03, -7.87239149e-03, -6.15754910e-03,
          -7.25039374e-03, -1.24793528e-02, -3.54895019e-03,
          7.46429665e-04, 1.03154071e-02, 1.49807362e-02, 7.84555450e-03,
          -6.33903919e-03, -3.93630425e-03, -9.26170964e-03,
          -1.11924401e-02, -4.24912851e-03, -2.09367601e-03,
          -6.15750265e-04, 3.35314381e-03, -2.78872880e-03,
          -8.39398243e-03, -6.05610246e-03, -7.54980138e-03,
          -1.09830331e-02, 7.56972353e-04, 4.98488406e-03,
          1.26449196e-02, 1.67985521e-02, 7.31807016e-03,
          -6.32964121e-03, -6.88399374e-03, -1.02007808e-02,
          -5.28276712e-03, -8.11847392e-04, 5.62796509e-03,
          5.53382840e-03, 9.43408813e-03, 1.22847618e-03,
          -7.39772618e-03, -4.22747619e-03, -4.32183873e-03,
          3.36721214e-03, 6.47088746e-03, 4.23290487e-03, 1.13811884e-02,
          4.33479622e-03, 2.50747573e-04, -8.79960414e-03,
          -9.15292650e-03, -1.11398124e-03, -7.67329056e-03,
          6.62057311e-04, 2.25964352e-03, 1.10902838e-04, 1.25993192e-02,
          2.79799430e-03, -6.89649442e-03, -6.15707505e-03,
          -6.17095921e-03, 4.78284014e-03, 4.52522514e-03,
          2.05963431e-03, 1.89638021e-03, 4.81198821e-03, 2.04750872e-03,
          -1.15251802e-02, -2.38366495e-03, -6.16826932e-04,
          1.21588528e-03, 3.36195901e-03, 1.92127936e-03, 7.13767577e-03,
          5.61563205e-03, 5.99239534e-03, -6.50103996e-03,
          -7.80545548e-03, -1.45178626e-03, -7.98246474e-05,
          -4.37558163e-04, 1.84973702e-03, 5.91647159e-03,
          4.83355671e-03, 2.69707316e-03, -4.72741807e-03,
          -9.32056829e-03, -3.51997185e-03, 3.68082518e-04,
          3.19391256e-03, 1.01621728e-03, 5.75367315e-03, 2.31984840e-03,
          3.58160003e-03, -1.01696597e-02, -3.86762759e-03,
          -4.68587968e-03, -2.36003357e-03, 3.32973688e-03,
          6.11095922e-03, 5.48813306e-03, 4.01802408e-03, 3.90785979e-03,
          -4.08494053e-03, -7.08303181e-03, -6.10514684e-03,
          -1.63236260e-03, -4.28931293e-04, 1.61714666e-03,
          3.91503237e-03, -2.92243756e-04, 6.99208304e-03,
          1.56501692e-03, -3.08278087e-03, -5.37829101e-03,
          -1.24221423e-03, -1.12146232e-03, -1.14511035e-03,
          -4.42562043e-04, -4.80506569e-03, 1.94179476e-03,
          1.10492988e-06, 7.06893188e-05, 7.07485946e-04,
          -5.90039045e-03, 3.31569789e-03, 5.86207118e-03,
          2.12620175e-03, -1.32359553e-03, 6.41920371e-03,
          1.67854922e-03, -1.25816616e-03, -5.87694626e-03,
          -2.94425897e-03, 5.51982957e-04, -1.30859832e-03,
          -2.10483908e-04, -2.98002944e-03, 6.86282758e-03,
          4.44973959e-03, 3.67997447e-03, 2.40321760e-03, 9.94743779e-04,
          4.37740469e-04, 2.38979911e-03, 2.92077614e-03,
          -1.94312917e-04, 1.39474042e-03, -1.53042504e-03,
          9.13643627e-04, -7.79469614e-04, -1.11719326e-03,
          8.15954641e-04, 5.69289830e-03, 7.84254342e-04,
          -6.70992944e-04, -1.51884812e-03, -2.78709619e-03,
          1.12867518e-03, -2.32328870e-03, -3.81661754e-04,
          -8.62665765e-04, 2.29147379e-04, 2.31810589e-03,
          4.27078176e-03, 3.04681738e-03, 2.32645590e-03, 3.93217104e-03,
          3.15415463e-03, -4.87236120e-03, -9.59931873e-04,
          7.21241627e-03, 4.52817418e-03, 4.38411953e-03,
          -1.77377093e-04, 1.09043227e-04, -1.61533244e-03,
          -4.02131962e-04, 3.44191911e-04, 2.60585017e-04,
          9.87372128e-04, -3.17307888e-03, -4.25755233e-03,
          -7.08301784e-03, -5.26153995e-03, -4.11702029e-04,
          -1.75419415e-03, 5.84941264e-03, 2.81062908e-03,
          -3.45519325e-03, 1.78502838e-03, -3.40168551e-03,
          -7.14170164e-04, -5.47023630e-03, 1.05997745e-03,
          4.00185166e-03, 8.73011071e-04, 4.73543629e-03, 6.50521694e-03,
          1.84352417e-03, 1.80697348e-03, 1.83834368e-03,
          -4.24118573e-03, -7.66469864e-04, 2.97290133e-03,
          3.95347085e-03, 6.96022809e-03, 4.21091542e-03, 7.82228634e-03,
          4.52681538e-03, 1.14822369e-02, 2.32648803e-03, 3.91279627e-03,
          4.82411683e-03, 2.34433194e-03, 5.01062674e-03, 2.67348276e-03,
          1.96246454e-03, 4.12854971e-03, -1.68414181e-03,
          -4.55989782e-03, -1.61510578e-03, 5.71354249e-05,
          -6.11585099e-03, 7.80828821e-04, 3.50360526e-04,
          4.59286105e-03, 5.14808053e-04, -3.16708605e-03,
          -6.25612726e-03, -7.80570228e-03, -9.14816186e-03,
          1.73642948e-05, 7.28379330e-03, 6.73492556e-04, 5.70323644e-03,
          1.28085967e-02, 1.46273905e-02, 8.00709706e-04, 1.67214521e-03,
          1.83655915e-03, -4.56860429e-03, 3.31876823e-03,
          1.13563112e-03, 5.75640297e-04, 1.74624275e-03, 3.08539066e-03,
          -8.72394443e-03, -7.20313657e-03, -6.80236472e-03,
          -4.36575711e-03, -2.61369161e-04, -2.64537567e-03,
          1.37369428e-03, 6.94348803e-03, 3.95564316e-03,
          -1.99333951e-03, -4.36350191e-03, -6.59433380e-03,
          -7.58414064e-03, -8.44479911e-03, -4.74873465e-03,
          -2.70777568e-03, -5.73802134e-03, 6.07974455e-03,
          -1.36071153e-03, -5.77212637e-03, -7.70342164e-03,
          -1.93232077e-03, 9.05914349e-04, 1.26289355e-03,
          -4.99097689e-04, 1.00117894e-02, -1.17357553e-03,
          -6.64863456e-03, -5.57915773e-03, -3.04240314e-03,
          -4.84668976e-03, -6.34237286e-03, -6.57853438e-03,
          -1.00464337e-02, -3.15480889e-03, 1.26957521e-03,
          -6.35393988e-03, -5.73411398e-03, -3.00341612e-03,
          -5.62843308e-03, -6.03496237e-03, -1.75895845e-03,
          2.72159791e-03, 6.10700389e-03, 1.81359015e-02,
          -2.94000772e-03, -5.02096443e-03, -7.73119694e-03,
          -6.69742888e-03, -7.79813062e-03, -1.25715761e-02,
          -1.51134785e-02, -4.72109113e-03, -4.84731095e-03,
          -7.14434125e-03, -4.24449891e-03, -1.09011019e-02,
          -6.51473296e-04, -6.15614094e-03, -5.98273426e-03,
          -3.85967223e-03, 3.39798117e-03, 1.21860774e-02,
          -4.66789631e-03, -4.10254393e-03, -2.81171501e-03,
          -4.74601658e-03, -5.62804146e-03, -1.30669773e-02,
          -1.02189789e-02, -7.55190616e-03, -1.30211087e-02,
          -1.16823651e-02, -5.28280158e-03, -7.90085923e-03,
          -5.95365092e-03, -6.84389425e-03, -1.47352582e-02,
          -1.45261884e-02, 3.02595348e-04, -1.22354263e-02,
          -6.79097697e-03, -3.60454014e-03, -4.46687965e-03,
          -1.03054214e-02, -8.99798982e-03, -1.25920009e-02,
          -9.10050049e-03, 2.05061175e-02, -1.13052118e-03,
          -6.26196293e-03, -6.39150245e-03, -9.52395890e-03,
          -4.01908346e-03, -7.30572781e-03, -1.23656988e-02,
          -1.22736041e-02, -4.16879822e-03, -1.18343066e-02,
          -1.01323826e-02, -5.83264697e-03, -2.98997946e-03,
          -9.50074010e-03, -9.38046072e-03, -1.13832587e-02,
          -8.64070095e-03, 1.32153146e-02, 6.14430429e-03,
          -8.63023568e-03, -1.04340753e-02, -1.01781543e-02,
          -1.15289148e-02, -1.04634864e-02, -7.61648873e-03,
          -3.41799902e-03, 1.02876946e-02, 9.53917508e-04,
          -5.98097965e-03, -5.22227678e-03, -9.15317889e-03,
          -9.73052904e-03, -6.46385876e-03, -3.73228081e-03,
          -9.98576987e-04, 8.93158745e-03, 3.27059487e-03,
          -5.38331503e-03, -6.35818718e-03, -6.61547342e-03,
          -1.29351979e-02, -9.42606851e-03, -1.02523314e-02,
          -7.90813658e-03, 2.10848842e-02, 8.85195099e-03,
          -8.84555187e-03, -7.45480414e-03, -1.36374058e-02,
          -1.12834983e-02, -6.68087462e-03, -6.54416345e-03,
          -9.34328185e-04, 1.96033288e-02, 6.18467759e-03,
          -1.15086278e-02, -1.20968502e-02, -1.05704349e-02,
          -9.75619443e-03, -3.41464835e-03, -3.20389518e-03,
          -4.72482992e-03, 3.11801932e-03, 2.89921183e-04,
          -7.75495404e-03, -5.97513467e-03, -7.90183991e-03,
          -1.20451422e-02, -2.02693351e-04, 4.70700557e-04,
          7.58251548e-03, 1.90639347e-02, 1.29491901e-02,
          -1.81352999e-03, -5.62528847e-03, -1.12813804e-02,
          -1.20136179e-02, -6.52021309e-03, -8.93080514e-03,
          -8.34234711e-03, 9.14278626e-03, 3.79730435e-03,
          -1.15767699e-02, -1.18659558e-02, -1.24711841e-02,
          -1.44310789e-02, -8.03973246e-03, -1.19236866e-02,
          3.37878196e-03, 2.38712505e-02, 1.76242888e-02,
          -2.20848160e-04, -1.13995969e-02, -1.39709860e-02,
          -7.86703173e-03, -1.09613978e-03, -3.71555146e-03,
          -1.98675669e-03, 9.86600667e-03, 5.40293427e-03,
          -3.36284982e-03, -6.49809930e-03, -9.29664634e-03,
          1.79301493e-03, 4.08270443e-03, -1.30404020e-03,
          5.54922828e-03, 5.60968509e-03, 5.17953839e-03,
          -7.21174898e-03, 2.53299205e-03, -1.09558413e-03,
          -1.18938293e-02, -7.09135691e-03, -8.35813023e-03,
          -7.37479422e-04, 8.68435204e-03, 6.58159517e-03,
          -3.17466329e-04, -1.01057012e-02, -1.19398683e-02,
          -5.67859551e-03, 3.36502329e-03, 9.45948821e-04,
          5.87063096e-03, 1.02743534e-02, 7.95689318e-03, 3.04151652e-03,
          -3.35129414e-04, -5.53794764e-03, 7.72742322e-04,
          4.90166154e-03, 7.83416326e-04, 6.01752196e-03, 7.83639308e-03,
          2.34626210e-03, -8.06768984e-03, 3.43255140e-03,
          -2.34385766e-03, -3.98990605e-03, 3.10809328e-03,
          4.34193294e-03, -1.06858693e-04, 8.14352930e-03,
          1.54785381e-03, -5.68216573e-03, -2.01290264e-03,
          -5.24208741e-03, -4.53229077e-05, 2.06684461e-03,
          -2.28837249e-03, 4.13512066e-03, 8.90824106e-03,
          5.65725332e-03, -2.02646037e-03, -7.12308334e-04,
          -1.94006471e-03, -4.08586767e-03, -1.84458424e-03,
          -2.90479348e-03, -1.94827584e-03, 1.03626391e-02,
          8.42660014e-03, -3.00238770e-03, -2.49776582e-04,
          -2.77500553e-03, -3.56113585e-03, 2.58214097e-03,
          3.09340097e-03, -1.64028141e-03, 8.74716789e-04,
          6.54107612e-03, 6.89042325e-04, 1.58258108e-03,
          -3.41125811e-03, 1.38230540e-03, 5.94783167e-04,
          2.17656532e-04, -1.30118837e-03, -9.87482024e-04,
          6.72444142e-03, 5.12879109e-04, 2.96011218e-03, 2.27721501e-03,
          -3.34383710e-03, -1.57737362e-04, -4.07113275e-03,
          -2.51484406e-03, 8.20424687e-03, 1.14758406e-02,
          1.95896812e-03, 5.25670126e-03, -2.47338903e-03,
          1.83505914e-03, 3.05734482e-03, 3.94990930e-05,
          -1.73415861e-03, 2.02042446e-03, 7.25156115e-03,
          -1.96213601e-03, 3.61633557e-03, -6.55794225e-04,
          1.44363439e-03, 2.31940518e-04, 1.68463110e-03, 2.82307126e-04,
          5.36327763e-03, 5.75015275e-03, -2.37502693e-03,
          5.12572122e-04, 1.14739453e-03, -4.08150163e-03,
          -2.39455374e-03, 2.88227061e-03, 6.58192998e-03,
          5.26185986e-03, 1.71110907e-03, -4.55845427e-03,
          -3.62416147e-03, 1.47105870e-03, 1.93136788e-04,
          3.73854651e-03, 8.78765830e-04, 8.08863319e-04, 5.75462356e-03,
          3.74506786e-03, -2.54249270e-03, -1.92297576e-03,
          5.78622799e-04, -6.45367487e-04, -1.67082704e-03,
          -1.02013198e-03, 4.57794359e-03, 1.53496873e-03,
          4.09616390e-03, -4.22077160e-03, -3.33001139e-03,
          5.12846338e-04, -4.09487751e-04, 3.54652409e-04,
          2.04424234e-03, 2.10308214e-03, 1.91101769e-03, 1.29584179e-04,
          -1.63394283e-03, 3.32953967e-03, 5.89168817e-03,
          2.02298327e-03, 6.22331351e-03, 2.49546883e-03, 8.16946290e-03,
          2.51830043e-03, 9.03406646e-03, 4.50730883e-03, 4.51941462e-03,
          3.04013351e-03, 1.91293744e-04, -2.09772144e-03,
          -4.81121335e-03, -1.68294657e-03, -3.98181239e-03,
          2.44586408e-04, -2.99407262e-03, 2.38182198e-04,
          9.14912322e-04, 4.45335684e-03, 1.22382492e-03,
          -1.64447096e-03, 7.36536691e-03, -2.36265152e-03,
          3.13236006e-03, -2.02953047e-03, 5.62909408e-04,
          3.61884339e-03, 4.70587052e-04, 7.17624975e-03, 2.03391653e-03,
          9.67167970e-03, 8.12279433e-03, 1.54166669e-02, 2.30330304e-04,
          -1.93101552e-03, -1.28886924e-04, -1.83287438e-03,
          5.67706209e-03, 5.16306655e-03, 6.28869003e-03, 4.72692261e-03,
          3.13121732e-03, -5.94959268e-03, -4.00906894e-03,
          -4.34239907e-03, 3.31515702e-03, -5.68612595e-04,
          -4.15918976e-03, 8.76545720e-03, 2.27621058e-03,
          7.51660857e-03, -2.67106225e-03, -2.87198648e-03,
          -2.51400197e-04, -2.95045553e-03, -1.37438287e-03,
          -3.81608773e-03, 6.43145246e-03, 1.86257926e-03,
          9.65751649e-04, -1.09856427e-02, -6.45812089e-03,
          -9.03293304e-03, 2.45511252e-03, 5.86385978e-03,
          8.49713385e-03, 7.38887908e-03, 9.94733162e-03,
          -1.50234555e-03, -9.38122999e-03, -6.18360471e-03,
          -1.73868751e-03, -3.97739699e-03, -2.53772689e-03,
          -6.66672306e-04, -2.22399854e-03, 2.93200370e-03,
          1.16727606e-03, -7.16471346e-03, -5.97238448e-03,
          -2.63101584e-03, -2.83979368e-03, -8.26915959e-04,
          3.67241737e-04, 7.96745624e-03, 1.19483443e-02,
          -1.49818254e-03, -1.03297420e-02, -6.95589092e-03,
          -6.32236293e-03, -1.14268810e-02, -4.22552740e-03,
          -2.56650243e-03, 2.65955669e-03, -1.75813597e-03,
          -2.92207953e-03, -9.49937012e-03, -8.92147981e-03,
          -8.48058052e-03, -1.04170339e-03, -3.25008295e-03,
          -5.77252125e-03, -1.17780663e-04, 1.15121333e-02,
          1.07840784e-02, -2.86361622e-03, -2.39202427e-03,
          9.65187326e-04, -6.12895004e-03, -3.79465008e-03,
          -1.00033563e-02, -8.24224204e-03, -1.24465174e-03,
          -9.59881302e-03, -8.13098997e-03, -5.52395592e-03,
          -7.19152344e-03, -1.08450409e-02, -4.69073001e-03,
          -7.79609056e-03, 4.90994751e-03, 2.25556009e-02,
          6.64609717e-03, -8.10757559e-03, -6.30824687e-03,
          -6.87990803e-03, -1.82293206e-02, -1.35985482e-02,
          -1.68705266e-02, -1.07835578e-02, 8.40150472e-03,
          -7.11422460e-03, -1.46528864e-02, -1.22390725e-02,
          -1.79177858e-02, -6.87490590e-03, -7.45750638e-03,
          -9.16904490e-03, -1.09840883e-02, -6.63809988e-05,
          -1.08022047e-02, -1.04680788e-02, -9.51217022e-03,
          -5.99881029e-03, -8.00863560e-03, -8.04132223e-03,
          -7.54345721e-03, -7.70883495e-03, 1.84940789e-02,
          4.80713602e-03, -9.59020760e-03, -1.06738256e-02,
          -9.25529189e-03, -4.77611320e-03, -5.70338219e-03,
          -1.23112816e-02, -1.19020175e-02, 1.89458532e-03,
          -9.04810987e-03, -9.86250583e-03, -9.08441097e-03,
          -3.37609649e-03, -5.73391560e-03, -6.20469404e-03,
          -6.34723995e-03, -7.76613364e-03, 1.86114330e-02,
          2.04078644e-03, -1.04420641e-02, -7.29512284e-03,
          -7.29557546e-03, -1.43974023e-02, -7.57911615e-03,
          -1.00165680e-02, -8.48741177e-03, 1.97669044e-02,
          5.63243125e-03, -8.54729209e-03, -8.77545588e-03,
          -1.63822509e-02, -1.28447134e-02, -7.12140603e-03,
          -9.06003918e-03, -2.19585490e-03, 1.61671843e-02,
          9.42843128e-03, -4.77215368e-03, -7.81298988e-03,
          -1.35900611e-02, -1.01134209e-02, -4.82419645e-03,
          -4.52740677e-03, -2.89074564e-03, 1.52637428e-02,
          4.28604102e-03, -6.70051575e-03, -6.57800073e-03,
          -8.73450283e-03, -1.10668000e-02, -1.86906033e-03,
          -4.85921232e-03, 5.32061374e-03, 1.97004732e-02,
          1.14457766e-02, 3.83182662e-04, -3.99197266e-03,
          -1.12130241e-02, -1.17092291e-02, -6.64787460e-03,
          -1.28811784e-02, -6.58358214e-03, 7.60636479e-03,
          8.97333212e-03, -6.55683456e-03, -8.59305169e-03,
          -1.12222908e-02, -1.29550854e-02, -6.26206864e-03,
          -1.18359877e-02, 2.31973571e-03, 1.86113082e-02,
          1.99532285e-02, 1.64759695e-03, -5.87514648e-03,
          -1.32138450e-02, -1.13489050e-02, -1.66760036e-03,
          -7.02831987e-03, -3.48454079e-04, 2.90226936e-03,
          6.40297867e-03, -1.98244839e-03, -6.29200973e-03,
          -1.12056080e-02, -1.19180735e-02, -3.59006226e-04,
          2.58773624e-04, 1.08846659e-02, 7.83663336e-03, 1.82583164e-02,
          4.73161321e-03, -3.03707429e-06, -9.04072914e-03,
          -1.04361856e-02, -6.78988732e-03, -4.08928050e-03,
          -4.30325563e-05, 1.12392586e-02, 6.87783444e-03,
          8.33086378e-04, -3.85112432e-03, -7.77084660e-03,
          -5.11148339e-03, 1.33837410e-03, -1.07690488e-04,
          6.13365928e-03, 8.22306052e-03, 6.32155035e-03, 1.46509416e-03,
          -2.25527398e-03, -8.36115889e-03, -1.00515215e-02,
          -5.76025061e-03, -6.21821557e-04, 1.91584008e-03,
          2.31549027e-03, 2.06510327e-03, -7.78793648e-04,
          3.50448749e-06, -7.08239526e-03, -3.65938246e-03,
          -7.68292509e-03, -5.03680948e-03, 6.77622948e-03,
          2.05885284e-04, 2.35025259e-03, 8.59554857e-05,
          -1.06197421e-03, -7.36344466e-03, -5.47097903e-03,
          -1.03520812e-03, -2.28534860e-04, 4.04836191e-03,
          6.41309889e-03, 5.33088623e-03, 2.63311318e-03,
          -6.38250669e-04, -6.15510438e-03, -5.84837841e-03,
          -1.92342326e-03, -3.22480779e-03, 2.14099837e-03,
          1.11094741e-02, 9.49949026e-03, 1.77662482e-03, 8.18242668e-04,
          -1.51782215e-03, -3.44364787e-03, -1.90463010e-03,
          -7.07436306e-03, 3.21699493e-03, -3.99294455e-04,
          3.87416477e-03, 2.58017238e-03, 4.47947532e-04,
          -4.58236411e-03, -5.67603251e-03, -1.96104404e-03,
          -7.74323195e-03, 4.51703463e-03, 3.59023316e-03,
          8.71413201e-03, 3.51945451e-03, 1.43269252e-03,
          -2.13271636e-03, -6.66089030e-03, 6.72348309e-04,
          -3.85932182e-03, 1.67629821e-03, 1.37490397e-02,
          1.01060821e-02, 1.68590143e-03, 2.58968701e-03,
          -3.54419858e-03, -9.17957514e-04, 2.81366706e-03,
          -1.53310760e-03, 1.05399638e-03, 7.47187063e-03,
          4.75843111e-03, -2.42545793e-04, -3.00776970e-04,
          -1.77740015e-03, -7.27623980e-03, -3.80603567e-04,
          -7.43426790e-04, 7.47513585e-03, 7.78405787e-03,
          8.03949870e-03, -1.87518279e-04, 3.13522178e-04,
          -4.02634498e-03, 2.48141645e-04, 3.09352821e-04,
          4.79162816e-04, 5.57774864e-03, 6.59931777e-03, 4.73790243e-03,
          -7.03334296e-03, -2.10899021e-03, 2.24857335e-03,
          -3.93487098e-05, 4.42081131e-03, 7.32474902e-04,
          3.85134481e-03, 7.58275390e-03, 1.81339239e-03,
          -2.74216221e-03, -5.67548159e-05, 1.07209152e-03,
          1.29748276e-03, 4.13136464e-03, 2.28963676e-03, 2.96643679e-03,
          4.55551408e-03, 4.30498784e-03, -5.86050935e-03,
          -3.72896611e-04, 1.07289769e-03, 3.12808435e-03,
          3.52440961e-03, -5.17265464e-04, 3.55626782e-03,
          6.08487055e-03, 1.22528290e-03, -7.02918693e-03,
          -1.01202447e-03, 4.69073374e-03, 5.64911170e-04,
          6.03010063e-04, -1.28438126e-03, 2.45343847e-03,
          3.56952846e-03, 1.67175638e-03, -3.92512698e-03,
          -2.38876301e-03, -4.76646674e-04, 2.40361365e-03,
          1.63677812e-03, 7.99090951e-04, -2.03466672e-03,
          4.14590957e-03, 5.34278573e-03, -2.69605150e-03,
          -2.88336916e-04, -1.86845951e-04, 3.21664079e-03,
          3.19238706e-03, 1.13447802e-03, 2.68510985e-03, 6.81639463e-03,
          4.07427037e-03, -1.75283302e-03, 1.16077659e-03,
          1.70406385e-03, -6.76086405e-04, -2.64458684e-03,
          -2.47784366e-04, 2.08582310e-03, 5.74592035e-03,
          6.40106015e-03, 1.56280061e-03, -2.56865192e-03,
          -5.33094537e-03, 2.90186447e-03, 4.94233053e-03,
          1.14800036e-03, 1.56464987e-03, 2.12085410e-03, 4.67834249e-03,
          -2.94944411e-03, -7.29115738e-04, 2.54933373e-03,
          5.12242969e-03, 2.71372451e-03, -8.44078459e-05,
          8.37513991e-03, 6.38520438e-03, 6.16996363e-03,
          -2.91734375e-03, 8.11990350e-04, 1.13662449e-03,
          2.17856653e-03, -3.04513233e-04, -9.82352882e-04,
          4.15214477e-03, 5.40702976e-03, 1.62930205e-03,
          -6.56914944e-03, -2.88252020e-03, -4.57751658e-03,
          4.95659746e-03, 1.08119221e-02, 3.08396760e-03, 4.63343784e-03,
          2.43821414e-03, 3.18509447e-05, -6.00544224e-03,
          -2.12883204e-03, 2.51091621e-03, -2.96077528e-03,
          2.40535778e-03, 4.45870915e-04, 1.60723270e-04, 3.15205101e-03,
          -4.16717026e-03, -8.28269962e-03, -6.42274646e-03,
          -4.50596493e-03, -1.81224872e-03, -8.73361132e-04,
          -3.14470613e-04, 3.42043611e-04, 1.38163576e-02,
          -1.53825642e-03, -7.25359144e-03, -4.12551267e-03,
          -5.54210739e-03, -9.67058819e-03, -2.06145737e-03,
          -2.35255598e-03, 3.08754807e-03, 2.02688226e-03,
          -7.48831313e-03, -9.91921872e-03, -7.00396951e-03,
          -9.50974505e-03, -2.73045176e-03, -1.97038963e-03,
          6.99105090e-04, -9.57952230e-04, 1.83011666e-02,
          1.84429646e-03, -4.04821336e-03, -4.78027575e-03,
          -4.35388973e-03, -9.67871211e-03, -2.91250460e-03,
          -2.85400543e-03, 2.05798610e-03, 3.65553307e-03,
          -8.92774668e-03, -9.25883465e-03, -8.18230212e-03,
          -9.51831415e-03, -1.03533017e-02, -2.21091253e-03,
          -1.10729143e-03, 9.32118390e-03, 2.80425940e-02,
          -2.60229059e-03, -9.94159374e-03, -6.23801351e-03,
          -9.46459547e-03, -1.54373869e-02, -9.21276305e-03,
          -7.87824858e-03, -2.30462197e-03, 1.64682940e-02,
          -9.85234510e-03, -1.57352965e-02, -1.17533412e-02,
          -1.63123775e-02, -1.37171084e-02, -2.83999112e-03,
          -1.03687600e-03, 8.79169628e-03, 1.56962704e-02,
          -3.36609059e-03, -1.08287316e-02, -1.08966492e-02,
          -1.17318276e-02, -1.75711475e-02, -6.14642492e-03,
          -2.66989972e-03, -2.64405552e-03, 1.45165995e-02,
          -1.47555694e-02, -1.87453032e-02, -1.91924945e-02,
          -1.90479290e-02, -1.84866530e-03, -3.52174300e-03,
          -1.03249019e-02, -1.09584145e-02, 2.49277125e-03,
          -6.22006552e-03, -7.52279256e-03, -4.51932754e-03,
          4.37463634e-04, -4.36209934e-03, -5.37051819e-03,
          -5.13878139e-03, -5.73583134e-03, 1.26557704e-02,
          1.35675061e-03, -7.86118489e-03, -3.79951764e-03,
          -2.17274856e-03, -6.32643839e-03, -7.97900185e-03,
          -1.15052378e-02, -1.73074193e-02, 1.86942751e-03,
          1.09137583e-03, -7.07054278e-03, -5.81754092e-03,
          -5.19343931e-03, -2.41260137e-03, -8.21613334e-03,
          -7.60341901e-03, -5.40643279e-03, 8.53914209e-03,
          5.48308366e-04, -1.00667169e-02, -7.66879041e-03,
          -1.49291742e-03, -7.51655642e-03, -5.38119487e-03,
          -3.44249024e-03, -3.38604022e-03, 8.36117566e-03,
          2.90116365e-03, -6.86861388e-03, -6.60816161e-03,
          -5.78667736e-03, -6.73903897e-03, -6.15292403e-04,
          -1.65018847e-03, 1.45060927e-04, 1.22654913e-02,
          6.08676160e-03, 1.34848431e-03, -3.61101469e-03,
          -7.11459061e-03, -4.91025578e-03, -6.31486345e-03,
          -6.67650439e-03, -4.80078859e-03, 1.31428540e-02,
          -1.02367497e-03, -5.89001551e-03, -5.49626769e-03,
          -6.03171065e-03, -1.28837361e-03, -2.99027632e-03,
          -4.01375769e-03, -3.31478845e-03, 1.54327387e-02,
          2.37513776e-03, 5.88968908e-03, -6.79256860e-04,
          -9.20433726e-04, -6.09943457e-03, 1.47313962e-03,
          -2.71893828e-03, -1.43541617e-03, -1.27004611e-03,
          4.30686027e-03, 1.79285198e-05, -5.30597335e-03,
          -7.30056548e-03, -5.26862685e-03, 1.78912189e-03,
          8.14313302e-04, 9.94608551e-03, 6.92680478e-03, 1.25084305e-02,
          1.89771480e-03, 3.21291765e-04, -2.80241086e-03,
          -2.59857718e-03, -3.04781762e-03, -5.12889028e-03,
          -2.58351280e-03, -6.85273553e-05, -2.64604716e-03,
          4.63932613e-03, -9.94136324e-04, 1.04946981e-03,
          -5.43726562e-03, -4.57758177e-03, -5.48338983e-03,
          8.48965254e-03, 6.49457239e-03, 9.63714067e-03, 2.63010239e-04,
          -2.24716938e-03, -4.02945001e-03, -1.88509421e-03,
          -2.51460657e-03, -2.66028498e-03, 2.17648176e-03,
          9.85534047e-04, 4.55769524e-03, -1.00092191e-04,
          2.51261238e-03, -1.56841602e-03, 4.49327426e-03,
          -3.18992208e-03, -2.62797461e-03, 4.51086275e-03,
          5.74811827e-03, 8.14076886e-03, -1.76491088e-03,
          4.18749900e-04, 1.10128050e-04, -3.92560847e-03,
          -7.39359809e-03, -9.15744528e-03, -3.27596278e-03,
          1.15176954e-03, 5.74984401e-03, -3.80271277e-03,
          2.70666624e-03, -3.31401522e-03, 3.94855952e-03,
          -5.42945322e-03, -9.00878385e-03, 1.70468749e-03,
          4.12435085e-03, 3.45452782e-03, -6.48450514e-04,
          5.36909048e-03, 5.31603908e-03, 1.71582925e-03,
          -1.64079887e-03, -4.84300591e-03, 6.53601205e-03,
          4.11188556e-03, 4.52792738e-03, -2.76847649e-03,
          -1.33847282e-03, 1.92336520e-04, -4.99439938e-03,
          -8.51576275e-04, -6.32341299e-03, 7.35302735e-03,
          -1.50570821e-03, 5.19151986e-03, -1.18606386e-03,
          -5.58357788e-05, -3.44585720e-03, 5.56844892e-03,
          -6.19729515e-03, -9.92346555e-03, 8.69101612e-04,
          2.89705396e-03, 5.87788352e-04, -1.35892397e-03,
          2.09362386e-03, 4.27487958e-03, 2.52564810e-03,
          -4.48355265e-03, -6.18457049e-03, 7.81262480e-03,
          -1.54820387e-04, 4.94574488e-04, -2.34198480e-04,
          -1.36454182e-03, -3.87745647e-04, -3.25932587e-03,
          -6.98289252e-04, -1.17186538e-03, 6.74848491e-03,
          5.06351609e-03, 2.52118311e-03, 1.93594838e-04, 4.41781245e-03,
          -9.73017712e-04, -8.72314791e-04, -3.31880664e-03,
          -2.12597591e-03, 2.70586973e-03, 7.55086425e-04,
          -6.98291115e-05, -6.94511086e-03, 3.62251140e-03,
          4.21890942e-03, 4.87708166e-04, -8.45872331e-04,
          -2.81683262e-03, 6.57793414e-03, 1.59233692e-03,
          -4.03172662e-03, -1.35151728e-04, 4.17996105e-03,
          -5.34465478e-04, 1.39920181e-03, -4.09618253e-03,
          -2.55897595e-03, 5.84308757e-03, -1.47016405e-03,
          1.48740783e-03, 2.98129278e-03, 9.52440221e-03, 6.87208679e-03,
          1.88815975e-05, 7.60297931e-04, -5.82541758e-03,
          1.42270827e-03, 2.01393897e-03, 1.65304029e-03,
          -4.05307207e-03, 3.57421371e-03, 3.30920215e-03,
          1.07035018e-03, -3.47154011e-04, -5.08385478e-03,
          5.76800574e-03, 3.24637699e-03, 2.26116299e-06,
          -1.34442106e-03, -7.17825678e-05, -3.60178016e-03,
          3.18126893e-03, -1.66991749e-03, -1.42201479e-03,
          7.32440548e-03, 3.78160737e-03, 2.29411200e-03, 3.82507755e-03,
          7.32554588e-03, 2.90305167e-03, 5.48551232e-03, 2.87341955e-03,
          2.61826743e-03, 1.11832591e-02, -4.91377083e-04,
          1.24357454e-03, -2.65004043e-03, -1.11347192e-03,
          -1.32792944e-03, -3.45628452e-03, -3.31502524e-03,
          -1.21749903e-03, 7.99922738e-03, 6.98496448e-03,
          2.46570818e-03, 4.25592251e-03, 3.10669915e-04,
          -5.12982858e-03, -4.92582703e-03, -3.95490002e-04,
          -3.34127131e-03, 3.25629301e-03, 3.08146700e-03,
          2.93187960e-03, -2.66696187e-03, 4.25227918e-04,
          -4.00911347e-04, 2.57617491e-03, 4.37099719e-04,
          9.41209146e-04, 1.04150232e-02, 2.45719915e-03, 9.04838555e-04,
          5.46934549e-04, -3.54898861e-03, 2.08881870e-03,
          -1.56009523e-03, -4.36562346e-03, -4.92225867e-03,
          6.18431577e-03, -1.11843424e-03, 1.98901212e-03,
          -3.71873030e-03, -4.07110946e-03, 8.15788691e-04,
          2.81093508e-05, 6.79603079e-03, 1.09372125e-03, 6.04666071e-03,
          6.13137614e-03, -9.84734972e-04, -8.95042717e-03,
          -1.18195557e-03, -2.73752771e-03, -3.43294186e-03,
          4.50169249e-03, 2.37234635e-03, 6.16707746e-03, 3.22645460e-03,
          -5.43664815e-03, -1.20733669e-02, -4.54891054e-03,
          -8.63353722e-03, 2.83565233e-03, 1.55448099e-03,
          -3.41517571e-03, 1.04347868e-02, 6.25777338e-03,
          2.16391170e-03, -8.35034624e-03, -2.51719845e-03,
          -2.68980186e-03, 1.05760153e-03, 4.19080071e-03,
          -4.23109578e-03, 7.50315562e-03, -1.66433211e-03,
          -5.42131998e-03, -1.16129452e-02, -6.30868319e-03,
          -4.08243667e-03, -4.78045084e-03, 1.22473761e-03,
          1.71186996e-03, 6.51542842e-03, 1.41453855e-02, 7.55025423e-04,
          -6.16948167e-03, -5.40290028e-03, -6.65625324e-03,
          -8.41990206e-03, -2.03220360e-03, -1.04749633e-03,
          5.19074732e-03, 3.39171221e-03, -7.69550540e-03,
          -2.45832140e-03, -4.82986076e-03, -6.06095325e-03,
          1.80184713e-03, -2.55555758e-04, -3.48519627e-03,
          6.83088927e-03, 8.24217964e-03, -2.39555771e-03,
          -6.09842874e-03, -5.86140668e-03, -2.37499698e-04,
          -4.03852388e-03, -4.51750914e-03, -4.42806818e-03,
          3.76465544e-03, -5.60607389e-03, -9.74120293e-03,
          -2.81510712e-03, -7.04196747e-03, -4.05299990e-03,
          -1.24172308e-02, -3.36029101e-03, -2.13564374e-03,
          8.67216662e-03, 1.59186441e-02, -2.55105761e-03,
          -5.69861801e-03, -7.67383073e-03, -1.02028651e-02,
          -1.68884322e-02, -7.82986172e-03, -5.27525879e-03,
          -3.34096444e-03, 1.32549517e-02, -9.37746651e-03,
          -1.35118440e-02, -1.46584315e-02, -1.75284278e-02,
          -4.67016315e-03, -3.79190128e-03, -4.12851851e-03,
          1.21131931e-02, 1.37194600e-02, -2.62957183e-03,
          -1.54484168e-03, -3.67003493e-03, -3.77493491e-03,
          -1.28711723e-02, -1.01799751e-02, -9.64028761e-03,
          -2.91075464e-03, 1.02336220e-02, -1.07699987e-02,
          -9.73367877e-03, -1.01783192e-02, -9.81919840e-03,
          -4.95395577e-03, -7.64166843e-03, -8.92070215e-03,
          -1.41729964e-02, 1.11539348e-03, 3.02705378e-03,
          -7.46818865e-03, -6.86308509e-03, -2.36410508e-03,
          -4.68609942e-04, -6.85997633e-03, -5.93123958e-03,
          -8.21956620e-03, 6.87392941e-03, 1.80909177e-03,
          -8.03384744e-03, -6.17269939e-03, -1.15502963e-03,
          -4.42713965e-03, -8.95029120e-03, -6.78345701e-03,
          -1.06483996e-02, 3.08377028e-04, 5.95446385e-04,
          -8.56807549e-03, -5.65699209e-03, -2.32877396e-03,
          3.83834471e-03, -8.38339143e-03, -7.12800305e-03,
          -1.12435622e-02, 3.00317374e-03, -1.00841874e-03,
          -8.98843724e-03, -2.94977566e-03, 3.04119801e-03,
          -4.81861318e-03, -5.77188889e-03, -6.97779423e-03,
          -6.60822634e-03, 5.37986122e-03, 9.40636746e-05,
          -5.84377395e-03, -5.41872252e-03, -3.42037366e-03,
          -1.43547449e-03, -3.07058287e-03, -4.87941550e-03,
          -4.03241906e-03, 8.04340281e-03, 3.39877792e-03,
          3.63804889e-03, -8.77901854e-04, -8.73147976e-04,
          -5.61696594e-04, -6.60050102e-03, -8.73416569e-03,
          -1.09174699e-02, 2.58212298e-04, -2.06811260e-03,
          -5.57016348e-03, -6.19979110e-03, -1.10401306e-03,
          -2.94990285e-04, -1.46998756e-03, -2.61106319e-03,
          -4.63120814e-04, 1.25375192e-03, 8.91135819e-03,
          -1.47627399e-03, -8.27255566e-03, -2.76775355e-03,
          -2.09884439e-03, -2.29335576e-03, -3.48799303e-03,
          -2.62937602e-03, -4.38605249e-03, -8.32955935e-04,
          2.98432307e-03, -9.50591057e-04, 1.98579917e-04,
          -2.54348922e-03, -3.60143225e-04, -2.59371777e-03,
          6.18913770e-03, 4.55329800e-03, 3.35946144e-03,
          -5.76514052e-04, 3.90257192e-04, -3.19603994e-03,
          1.31010322e-03, 1.14201638e-03, -1.44410785e-03,
          -5.06609445e-04, -1.99883641e-03, 3.08312755e-03,
          -1.55434100e-04, -6.30903011e-03, -2.97814724e-03,
          2.08526454e-03, 2.80273403e-03, 1.99007176e-04, 5.51534398e-03,
          7.41860713e-04, 3.94299952e-03, -3.24143842e-03,
          -2.86025484e-03, -2.36400450e-03, -6.32496085e-04,
          -1.54192001e-03, -5.35070850e-03, 9.94829228e-04,
          6.14216924e-03, 1.97791914e-03, -2.60344287e-03,
          3.69653152e-03, -1.39436277e-03, 7.23347021e-03,
          -5.48233278e-03, -1.00566177e-02, 7.13014335e-04,
          4.08881903e-03, 5.46394056e-03, 3.71155282e-03, 1.03051933e-02,
          1.00171510e-02, 2.30322755e-03, -3.27863544e-03,
          -8.19948222e-03, -2.58193794e-03, 3.50748235e-03,
          -1.29458262e-03, -7.83681404e-03, -8.35919345e-04,
          -2.75866390e-04, 5.33305295e-03, -8.88382364e-03,
          -1.40535515e-02, -2.57220655e-03, 3.10345995e-03,
          5.15703438e-03, -5.16491523e-03, 2.68968730e-03,
          3.31464224e-03, 1.04762148e-02, -6.70316862e-03,
          -1.15908086e-02, -2.65609869e-03, 1.63431745e-03,
          8.36865394e-04, 1.01227743e-04, 3.76320467e-03, 1.09456535e-02,
          4.76468494e-03, -2.17347918e-03, -2.87053292e-03,
          9.75209568e-03, 3.21064680e-03, 1.17956706e-05,
          -5.23137674e-03, -3.77304433e-03, -7.44142686e-04,
          1.22620855e-02, -5.26103424e-03, -1.42875928e-02,
          -2.72550457e-03, -1.86654821e-03, -1.08397857e-03,
          -7.54706888e-03, -3.98375094e-03, 7.02107372e-03,
          5.29539213e-03, -5.45056211e-03, -6.79964945e-03,
          6.58140145e-03, 2.52936292e-03, -2.68721674e-03,
          -1.16632180e-02, -9.27980058e-03, -4.57119837e-04,
          3.37271555e-03, 3.07444693e-03, -4.73775755e-04,
          6.69192011e-03, 2.30186782e-03, -1.22280722e-03,
          -3.59085575e-03, -2.26689014e-03, -2.01272732e-03,
          -3.27228336e-04, 1.14704703e-03, -2.50869337e-03,
          5.45130065e-03, -3.24559491e-03, -1.65332563e-03,
          -1.76629590e-04, 3.50370258e-03, 3.12787335e-04,
          7.54848402e-03, 3.13754356e-03, -1.56046438e-03,
          2.24659010e-03, 1.40353339e-04, -2.00650608e-03,
          -8.57782923e-03, -5.12839528e-03, 4.67162899e-04,
          2.23664590e-03, 6.18345616e-03, -2.31997203e-03,
          -1.18675490e-03, -4.43833647e-03, -4.48551588e-03,
          -3.91499465e-03, -5.68406610e-03, -2.74947798e-03,
          3.57332174e-03, -5.44703798e-04, 2.56273104e-03,
          1.06627094e-02, 2.03484250e-03, -2.60223460e-04,
          2.24426924e-03, 2.96193571e-03, 2.99288798e-03, 4.69088368e-03,
          3.07976571e-03, 8.18326883e-03, 1.08297635e-02, 8.10348312e-04,
          1.11358892e-03, -2.38999981e-03, -2.25589750e-03,
          3.18725081e-03, 2.79207551e-03, 1.44241052e-03,
          -9.78104144e-05, 2.58354330e-03, -4.19812929e-03,
          -2.93992530e-03, -1.64864783e-03, -4.69139125e-03,
          -1.05899363e-03, 4.84638102e-03, -2.25082599e-03,
          2.69601727e-03, 3.24259838e-03, -8.12579319e-03,
          -6.43425295e-03, -4.86497534e-03, -1.75313919e-03,
          4.40309150e-03, 3.17576737e-03, 1.73510262e-03, 4.08297451e-03,
          6.62085367e-03, -2.00285413e-03, -1.55390403e-03,
          -1.06549379e-03, -2.07525073e-03, 3.71422083e-03,
          2.30370788e-03, -1.21794306e-04, 1.46191777e-03,
          5.81368059e-03, -2.87128263e-03, -2.97986227e-03,
          -2.89312890e-03, -3.12029989e-03, 3.43622058e-03,
          7.24523561e-03, -2.79016094e-03, 9.75162911e-05,
          -3.76839843e-03, -6.57052780e-03, -6.80422876e-03,
          -1.78037910e-03, 2.06131139e-03, 9.14744381e-03,
          6.25957875e-03, 7.69480306e-04, -7.74861473e-05,
          -5.98336279e-04, -2.15095445e-03, -4.74151317e-03,
          -4.01173579e-03, 1.78773212e-03, 6.65290235e-03,
          3.09140235e-03, 1.06567529e-03, -2.47444585e-03,
          8.23107176e-03, 4.93373442e-03, 1.81406003e-03,
          -1.68233528e-03, -2.01776624e-03, 2.03588675e-03,
          2.77238432e-03, 1.00426550e-03, -9.55052208e-03,
          2.08776281e-03, -1.51542819e-03, -6.51820563e-03,
          -3.63367749e-03, -5.74438227e-03, 1.13824871e-03,
          5.48397843e-03, -2.60623451e-03, -1.22297311e-03,
          7.75411492e-03, 3.86735890e-03, -1.30588398e-03,
          -2.18394375e-03, -5.17660927e-04, 4.99479845e-03,
          1.04532752e-03, -3.87065602e-03, -6.88306661e-03,
          1.18807249e-03, -5.50651876e-03, -8.56509153e-03,
          -4.97886818e-03, -9.50449053e-03, -9.12413059e-04,
          2.33466527e-03, -1.15462183e-03, -5.32402005e-03,
          2.49441597e-03, 6.73526758e-03, -2.56041321e-03,
          -1.16265891e-03, -4.57501691e-03, 2.08970252e-03,
          2.62561999e-03, -3.49140773e-03, -3.74843250e-03,
          4.88348957e-03, -5.25176246e-03, -3.37466015e-03,
          -1.21065660e-03, -4.66360804e-03, 3.14629986e-04,
          1.00324908e-03, -2.13709893e-03, -1.27892115e-03,
          1.60498184e-03, 3.46760382e-03, -6.09336421e-03,
          -4.21030587e-03, -8.60640593e-03, 5.54249971e-04,
          1.76656045e-04, -4.31600213e-03, -2.09375680e-03,
          -1.13727548e-03, -7.47340498e-03, -9.62343626e-03,
          -7.94328563e-03, -1.02128210e-02, -6.81406935e-04,
          -8.07856341e-05, -5.56685403e-03, -5.43498155e-03,
          8.16450268e-03, 2.11194158e-03, 1.33780355e-03,
          -2.78880092e-04, -1.22714730e-03, 2.25980853e-04,
          -9.23005771e-03, -1.14698084e-02, -6.68361085e-03,
          -4.16269898e-03, 2.66690436e-03, -8.46200436e-03,
          -4.02803486e-03, -2.91624176e-03, -2.77379109e-03,
          -1.83151089e-04, -6.05074596e-03, -2.99789157e-04,
          8.43376201e-03, 3.53256427e-03, -2.26589665e-03,
          -6.72131125e-03, -7.27196597e-03, -2.01496994e-03,
          -7.89229479e-03, -7.40179513e-03, 1.35534653e-03,
          -2.53913761e-03, -7.89094716e-03, -1.23026771e-02,
          -1.08107598e-02, -8.76914430e-03, -8.11734796e-03,
          -6.76603848e-03, -1.02959312e-02, -4.65273531e-03,
          -5.39503153e-03, 4.19108197e-03, 3.29116185e-04,
          -1.30060897e-03, -1.60291349e-03, -1.27513660e-03,
          1.15629612e-03, -7.47547857e-03, -5.33947116e-03,
          -8.27825814e-03, 6.50548795e-03, 1.45249139e-03,
          -5.28934365e-03, -1.16615393e-03, 5.22966450e-03,
          -1.15527762e-02, -1.31602036e-02, -1.14205526e-02,
          -1.01938117e-02, -6.02162536e-03, 7.41434109e-04,
          -5.00505045e-03, -3.20811314e-03, -4.24815761e-03,
          -1.98340439e-03, -1.20869568e-02, -9.00899339e-03,
          -1.51826134e-02, 1.25704578e-03, 3.51849641e-03,
          -4.19353414e-03, -2.53767148e-03, 2.09982530e-03,
          3.94153362e-03, -3.36503214e-03, -4.06347308e-03,
          -1.02421539e-02, 1.18815675e-04, -1.16609910e-03,
          -1.34288485e-03, -4.48031817e-03, 4.40890202e-03,
          5.39768441e-03, -8.97292630e-04, -3.46761080e-03,
          -5.42200124e-03, 2.34632520e-03, 9.93195456e-03,
          -1.98280253e-03, -7.44112907e-03, 8.05940072e-04,
          -4.42962861e-03, -8.92821047e-03, -6.32941769e-03,
          -1.56903341e-02, -5.03116334e-03, -1.74246915e-03,
          -1.73728680e-03, -5.35442820e-03, -3.33648361e-03,
          -5.36672771e-03, -6.50131842e-03, -5.79853961e-03,
          -1.15604745e-02, 7.74351042e-03, 2.44847289e-03,
          -3.10090114e-03, -9.20679886e-03, -7.90016167e-03,
          5.95593266e-03, 3.91605729e-03, -1.28649734e-03,
          -1.38585025e-03, 5.83468005e-03, 6.96546724e-03,
          2.63454369e-03, -3.36859399e-03, 3.35271982e-03,
          6.18090387e-03, 2.33084289e-03, -2.70091393e-03,
          1.61778461e-03, 3.28992656e-03, -2.77956860e-04,
          -7.20931822e-03, -5.03807981e-03, 4.79673408e-03,
          -9.60008614e-03, -3.90959624e-03, -5.50406566e-03,
          -5.53209987e-03, -1.59247266e-03, 6.75838150e-04,
          7.11886270e-04, -6.81725005e-03, -7.96797872e-03,
          -7.58998469e-03, -9.79450718e-03, -9.32819024e-03,
          -4.08455357e-03, 2.61765486e-03, -2.87096668e-03,
          -1.15452539e-02, -1.23744663e-02, -4.77786781e-03,
          1.12416446e-02, -2.78702471e-03, -7.75783928e-03,
          -3.73881171e-03, 5.40732173e-03, -1.63102592e-03,
          -8.95721652e-03, -5.88337425e-03, 9.14092641e-03,
          1.45056639e-02, -4.29337425e-03, -1.01016732e-02,
          2.46502319e-03, 6.81600114e-03, 4.45993850e-03,
          -7.04365736e-03, -3.35706933e-03, 7.48473778e-03,
          -3.63823352e-03, -1.03398645e-02, -1.14009231e-02,
          -7.53897708e-03, -1.83134561e-03, -4.60087135e-03,
          -1.09432479e-02, -1.38089852e-02, -1.41249166e-03,
          8.10275262e-04, -8.19877815e-03, -6.26329985e-03,
          3.49933538e-03, 5.88104408e-03, -6.56281644e-03,
          -8.17143638e-03, -1.17495880e-02, -1.07021688e-03,
          1.84099376e-02, -2.62904260e-03, -9.64424480e-03,
          4.68536746e-03, -1.68466533e-03, -6.26975531e-03,
          -7.97622185e-03, -4.17535938e-03, 1.23542147e-02,
          1.40998075e-02, -5.11831837e-03, -6.20611338e-03,
          5.12995292e-03, 1.92117004e-03, -7.99903646e-03,
          -1.05184587e-02, -3.52686364e-03, 1.37178330e-02,
          1.49014499e-03, -8.01848806e-03, -4.45504300e-03,
          2.89116870e-03, -5.87404938e-04, -1.20591912e-02,
          -1.05067277e-02, -9.14778840e-03, -3.86528758e-04,
          -1.25662843e-03, -8.69585201e-03, -4.90579149e-03,
          -1.75451208e-03, -2.07263045e-03, -1.31583903e-02,
          -1.26322098e-02, -8.41637421e-03, -3.13090248e-04,
          1.58124194e-02, -1.44238153e-03, -2.45151017e-03,
          6.29629358e-04, -4.29388136e-03, -3.45776975e-03,
          -5.94285084e-03, 1.20616390e-03, 1.57703906e-02,
          1.39131751e-02, 1.62825524e-03, -1.41306559e-03,
          -4.79638460e-04, -9.70724970e-03, -1.91003922e-03,
          3.44589382e-04, -1.34044676e-03, 7.86566362e-03,
          -5.07673140e-05, -9.60416906e-03, -3.20893200e-03,
          -7.40432879e-03, -7.83603638e-03, -1.31020611e-02,
          -9.59609821e-03, -4.05143853e-03, 5.66272810e-03,
          3.73175339e-04, -9.92755592e-03, -2.92032352e-03,
          -1.08346133e-03, -3.95648787e-03, -8.82377010e-03,
          -7.52522983e-03, -3.84921604e-03, 4.26667929e-03,
          1.12881716e-02, 8.20785528e-04, -1.11049936e-04,
          -7.39058305e-04, -8.49203300e-03, -6.56267861e-03,
          -3.56461410e-03, -4.37672855e-03, 9.83599015e-03,
          1.02573037e-02, -5.74533828e-03, -4.28003725e-04,
          -1.70081947e-03, -1.52195254e-02, -9.15733632e-03,
          -8.68373364e-03, -1.91033469e-03, 1.31554008e-02,
          2.20743008e-03, -6.41321577e-03, -9.54815885e-04,
          3.11664335e-04, -4.21661697e-03, -7.53940642e-03,
          -8.65911227e-03, -3.25294514e-03, 5.10277646e-03,
          7.68497121e-03, -6.15641801e-03, -4.82161110e-03,
          -4.85643512e-03, -1.19519671e-02, -4.43416135e-03,
          -8.00247211e-03, -3.17799742e-03, 7.86750112e-03,
          1.68425571e-02, -2.36017094e-03, -4.61355038e-03,
          -4.28967178e-04, -7.84213189e-03, -4.87926044e-03,
          -3.92859429e-03, 4.70254058e-03, 1.89310759e-02,
          1.45136779e-02, -1.57478629e-04, -4.63398034e-03,
          8.34104489e-04, -9.07054811e-04, -4.79837321e-03,
          -7.17493333e-03, 1.66488066e-03, 1.63021199e-02,
          1.07415393e-03, -1.00618117e-02, -8.84791184e-03,
          1.00821210e-03, -6.69603748e-03, -6.24163775e-03,
          -8.79751146e-03, -2.60227756e-03, 5.39532164e-03,
          7.17709423e-04, -8.44848156e-03, -7.89887272e-03,
          -1.19176460e-03, -2.51961150e-03, -1.18756797e-02,
          -1.18415281e-02, -3.42970784e-03, 3.54651362e-03,
          1.33367460e-02, -3.23390332e-03, -2.52810260e-03,
          7.38485903e-03, 1.65464554e-03, -2.79040379e-03,
          -4.78575611e-03, 2.77181040e-04, 1.46096749e-02,
          8.04149359e-03, -2.84232199e-03, -1.72988197e-03,
          4.03391570e-03, -3.53649445e-03, -8.25831201e-03,
          -7.12409616e-03, -7.36083882e-03, 6.95804553e-03,
          3.96376103e-03, -8.75544269e-03, -5.34483790e-03,
          1.22935628e-03, -3.48547078e-03, -1.08275963e-02,
          -1.06877172e-02, -3.36593995e-03, 4.58192034e-03,
          1.17365445e-03, -7.41928909e-03, -5.04813809e-03,
          8.91640957e-04, -6.54490897e-03, -1.17021268e-02,
          -1.15138218e-02, -1.11472849e-02, 4.94726293e-04,
          7.84076191e-03, -1.25494460e-03, -1.83841190e-03,
          -8.04132491e-04, 6.40165934e-04, -4.55656322e-03,
          -5.85223036e-03, -7.77831580e-03, 3.17519414e-03,
          3.19695659e-03, -1.39881705e-03, -7.40935560e-04,
          -5.44485229e-04, -1.06968256e-02, -8.70220270e-03,
          -1.11075258e-02, -6.42314460e-03, 2.64214445e-03,
          -1.45881239e-03, -5.65132918e-03, -2.63041607e-03,
          2.22322741e-03, 8.82588979e-03, -7.26230582e-03,
          -8.39723740e-03, -9.59300715e-03, -3.28406296e-03,
          -3.80975264e-03, -5.22226933e-03, -6.91241492e-03,
          -1.52385049e-03, -1.30568296e-02, -1.16834855e-02,
          -1.06252385e-02, -1.02157472e-02, -5.87735791e-03,
          2.42839474e-03, 2.86060676e-04, 6.72637485e-03, 9.32214130e-03,
          -2.42557377e-03, -4.92387079e-03, -1.10437172e-02,
          -6.47919020e-03, 6.86611165e-04, 5.56164770e-04,
          4.28650388e-03, 9.51302610e-03, -3.19964493e-05,
          -8.02421290e-03, -1.25901848e-02, -1.51779065e-02,
          -1.09688034e-02, -3.60954390e-03, -2.52989028e-03,
          1.01309083e-03, 2.30552955e-03, 4.25877143e-03,
          -3.44927888e-03, -1.17450738e-02, -1.06244180e-02,
          -1.05418451e-02, -4.43348521e-03, -4.48124763e-03,
          -1.44653826e-03, -9.30229551e-04, -7.68842362e-03,
          -9.23946779e-03, -1.74975768e-02, -1.62135586e-02,
          -1.62279680e-02, -9.26470663e-03, -7.43534241e-04,
          -9.20108240e-03, -9.51165799e-03, -1.39135467e-02,
          -8.39633495e-03, 4.21591802e-03, -2.60444358e-04,
          4.51371539e-04, 4.69962694e-03, 1.02840764e-02,
          -2.24526110e-03, -4.82829101e-03, -2.01474614e-02,
          5.68358880e-03, 1.71393286e-02, 3.23537318e-03, 2.94103660e-03,
          1.58697069e-02, -4.19431832e-03, -9.04391706e-03,
          -7.31478818e-03, -1.89157054e-02, -1.29080471e-02,
          -1.83001009e-03, -2.56157294e-03, -4.84150881e-03,
          -4.97884990e-04, -1.54116342e-03, -5.08950325e-03,
          -4.84390277e-03, -2.54711900e-02, -1.19203585e-03,
          -2.22428679e-03, -2.23118532e-03, -5.47253573e-03,
          1.39099255e-03, 7.41009321e-03, 1.05644157e-03, 6.69856032e-04,
          -1.62557289e-02, 2.21396564e-04, 3.45513783e-03,
          2.63655791e-04, -1.22540991e-03, 7.06692971e-03,
          2.34629307e-03, -3.43543733e-03, -4.51970287e-03,
          -1.65979974e-02, 2.79329647e-03, 3.65505717e-03,
          1.48115249e-03, -5.79403946e-03, 6.46711633e-05,
          -3.62273259e-03, -6.32857438e-03, -5.52524487e-03,
          -1.95782650e-02, -7.77670322e-03, -8.69753945e-04,
          -3.13235074e-03, -6.76225498e-03, -3.47055192e-03,
          -8.10610782e-03, -9.91581008e-03, -1.15575660e-02,
          -2.28819363e-02, 6.54286286e-03, 6.61540544e-03,
          4.69918689e-03, -9.62445140e-03, -7.70463608e-03,
          4.11051326e-03, 4.82770207e-04, -4.98399837e-03,
          -1.14257149e-02, 2.07874435e-03, 5.50667522e-03,
          3.64861963e-03, -4.00456507e-03, 1.88029883e-03,
          -7.81268999e-03, -7.27602374e-03, -8.23317748e-03,
          -6.36924850e-03, 9.62369330e-03, -1.30775152e-03,
          -8.06318223e-03, -1.18644023e-02, -7.56615167e-03,
          -8.27984046e-03, -6.51428103e-03, -1.33753913e-02,
          -1.76850595e-02, -3.28021497e-03, 9.23358183e-03,
          6.47068257e-03, -4.43627872e-03, -5.44461189e-03,
          -1.16895130e-02, -9.68877040e-03, -8.63879640e-03,
          -5.66898566e-03, 3.85357323e-03, 8.91842972e-03,
          1.97679992e-03, -3.14004323e-03, -9.62184370e-03,
          -2.59706541e-03, -1.03540542e-02, -9.60132759e-03,
          -3.04103876e-03, 1.09391438e-03, -1.94340118e-03,
          -7.57110119e-03, -1.03548141e-02, -1.65619305e-03,
          3.56361759e-03, -6.53729821e-03, 1.44743198e-03,
          2.60836026e-03, 5.30064246e-03, -1.77806721e-03,
          -2.85576330e-03, -7.75597338e-03, 4.79167467e-03,
          -7.63575966e-03, -3.70603893e-03, -5.33466693e-04,
          1.01848629e-04, -3.18354275e-03, 1.24307373e-03,
          -3.30800004e-03, -3.24518839e-03, -7.11417664e-03,
          4.48436040e-04, 6.09185430e-04, 9.00180731e-03, 3.07005062e-03,
          1.42089243e-03, -2.19743024e-03, -1.55038771e-03,
          -1.61288341e-03, 9.39374222e-05, 3.59822391e-03,
          -6.51758444e-03, 1.45850237e-03, 2.15616520e-03,
          2.35485728e-03, -5.39086433e-03, -6.14866987e-03,
          -4.53670975e-03, 4.93426714e-03, 8.41266103e-03,
          -5.41562540e-03, -1.90223800e-04, 1.68553065e-03,
          1.16585637e-03, -7.17786793e-03, -1.25194471e-02,
          -5.74499695e-03, 6.68009417e-03, 1.88049627e-03,
          -5.04447287e-03, -2.20868038e-03, -2.44860398e-03,
          -5.40102692e-03, -3.36093758e-03, -5.09367557e-03,
          -2.77764420e-03, 3.34223569e-03, 5.84463030e-03,
          -7.61724403e-03, -8.53318721e-03, -6.00595120e-03,
          -6.43428741e-03, -2.92568444e-03, -1.06598949e-02,
          -4.34636511e-03, 9.23767965e-03, 7.14087859e-03,
          -6.87785447e-03, -2.84255366e-03, -3.66760464e-03,
          -1.82221062e-03, -6.34514680e-03, -6.45388616e-03,
          9.06098052e-04, 1.08928746e-02, 6.75453944e-03,
          -5.05620940e-03, -1.26495247e-03, 1.16313540e-03,
          8.60538334e-03, -4.01233742e-03, -3.82936164e-03,
          3.52858403e-03, 1.16279125e-02, 5.77068841e-03,
          -9.35080647e-03, -7.84428511e-03, -8.20451975e-03,
          -8.11184291e-03, -2.98508862e-03, -8.77647940e-03,
          -1.55956135e-03, 1.09050348e-02, 5.95609471e-03,
          -6.89113140e-03, -5.91676077e-03, -8.62801168e-03,
          -8.34173057e-03, -2.19047745e-03, -9.74581018e-03,
          -4.94532178e-05, 1.03926761e-02, 4.24492033e-03,
          -2.52423529e-03, -1.62633683e-03, -2.03059847e-03,
          5.81558968e-04, -5.75785991e-03, -4.59676608e-03,
          7.30382628e-04, 9.05237813e-03, 1.40922079e-02,
          -2.57750112e-03, -3.03362845e-03, -4.25841659e-03,
          -1.11540621e-02, 8.58314277e-04, -6.99811289e-03,
          2.66879273e-04, 1.13231372e-02, 5.77910105e-03,
          -7.07297167e-03, -6.58360496e-03, -1.22898649e-02,
          -1.44202737e-02, -8.44650064e-03, -1.04842810e-02,
          -3.20310681e-03, 9.08188894e-03, 1.10481828e-02,
          -2.16763862e-03, -4.24941583e-03, -1.32122878e-02,
          -1.70436390e-02, -6.66556321e-03, -1.21480115e-02,
          -5.01490477e-03, 1.29080201e-02, 1.17897280e-02,
          -2.38635391e-03, -1.38740533e-03, 6.15262147e-03,
          -5.89979952e-03, -4.17312700e-03, -6.61349576e-03,
          -1.49473909e-03, 1.12605840e-02, 2.82620592e-03,
          -7.25249480e-03, -2.05697189e-03, 1.82535511e-03,
          -9.54331551e-03, -1.70775615e-02, -6.10087812e-03,
          -1.11599430e-03, 5.22400392e-03, 1.54227708e-02,
          3.68257239e-03, -4.43464029e-04, -3.82546033e-03,
          -1.71173122e-02, -7.92538188e-03, -8.74591526e-03,
          -6.57670479e-03, 1.07734092e-02, 1.93765818e-03,
          -1.85301155e-03, -2.94255442e-04, -1.81273103e-03,
          -1.59414411e-02, -1.47522278e-02, -5.49719855e-03,
          -3.82380770e-03, 9.27052344e-04, 3.02069983e-03,
          -6.52313931e-03, -1.16000907e-03, 3.68450489e-03,
          1.08785299e-03, -1.15048494e-02, -3.56540037e-03,
          5.06093667e-04, 7.09967315e-03, 1.17381038e-02,
          -5.00061736e-03, -2.46281590e-04, 8.03952664e-03,
          -1.28831354e-03, -1.28917778e-02, -1.05398940e-02,
          -5.10160625e-03, 1.35551263e-02, -3.16457683e-03,
          1.08428858e-03, 6.57330593e-03, 5.67411399e-03,
          -8.30709469e-03, -9.65339225e-03, -4.92388383e-03,
          -5.33876102e-03, -1.35227316e-03, -4.87901503e-03,
          -2.95853522e-03, 9.87150474e-04, 4.73323464e-03,
          -8.54170322e-03, -1.35192806e-02, -1.57176554e-02,
          -5.71987592e-03, -1.46320253e-03, 7.07795611e-04,
          -8.72878358e-03, -2.82267574e-03, 8.52979906e-03,
          1.12363771e-02, -8.21448490e-03, -1.10097351e-02,
          -5.04212501e-03, 2.39036651e-03, 4.43146704e-03,
          -6.94781449e-03, -2.07546866e-04, 6.23104628e-03,
          -5.29368129e-03, -1.05517376e-02, -1.02722356e-02,
          -1.00100581e-02, 4.13555000e-03, -1.10484650e-02,
          -7.65406713e-03, 3.26003763e-04, 1.16417492e-02,
          5.43817971e-03, -1.02412524e-02, -1.14113484e-02,
          -3.17504979e-03, -7.75146158e-03, -1.02864699e-02,
          -1.64356232e-02, -6.09727809e-03, 4.60517034e-03,
          -7.24356901e-03, -1.65428370e-02, -1.58270616e-02,
          -1.27036264e-02, -6.56564208e-03, 1.15113640e-02,
          1.80354656e-03, 9.77491587e-03, 1.31587600e-02, 6.28401712e-03,
          -1.00390036e-02, -8.27298034e-03, -9.05480795e-03,
          8.61934945e-03, 4.86075645e-03, 1.55294299e-04,
          -9.34996933e-04, -3.25736473e-03, 2.83801230e-03,
          -1.50963673e-02, -1.42985620e-02, -1.33846840e-02,
          2.48517655e-03, -2.42509134e-03, -8.15919507e-03,
          -1.45890471e-03, 2.22851173e-03, 6.59277849e-03,
          -1.45391468e-02, -1.38315121e-02, -1.13126934e-02,
          -4.18382324e-03, -1.25166727e-02, -1.04182521e-02,
          -1.42462924e-02, -1.15926201e-02, -4.99546342e-03,
          -2.27785297e-02, -2.04503071e-02, -1.34894950e-02,
          -1.11461943e-02 ]
   decision_functions:
      -
         sv_count: 1
         rho: -3.6706762833879930e-01
         alpha: [ 1. ]
