%YAML:1.0
opencv_ml_svm:
   format: 3
   svmType: EPS_SVR
   kernel:
      type: LINEAR
   C: 1.0000000000000000e-02
   p: 1.0000000000000001e-01
   term_criteria: { epsilon:1.0000000000000000e-03, iterations:1000 }
   var_count: 4356
   sv_total: 1
   support_vectors:
      - [ -9.82889440e-03, -4.31348709e-03, -4.04916937e-03,
          -5.47026424e-03, -1.25256581e-02, -7.81970005e-03,
          -6.19901251e-03, -5.77068143e-03, -9.55954473e-03,
          -1.31689105e-02, -7.76407123e-03, -7.27979327e-03,
          -6.86883833e-03, -1.55460620e-02, -1.06737074e-02,
          -7.93979131e-03, -9.71358921e-03, -1.31553700e-02,
          -4.17104689e-03, -5.97733725e-03, -5.04491385e-03,
          -6.89460197e-03, -1.17518501e-02, -6.76433044e-03,
          -5.65948337e-03, -4.96937847e-03, -3.92546505e-03,
          -6.51160767e-03, -1.05712507e-02, -1.01485429e-02,
          -1.34501960e-02, -1.91656929e-02, -1.45249339e-02,
          -7.95000419e-03, -7.83762429e-03, -6.44613989e-03,
          -9.97222587e-03, -6.19443972e-03, -5.70624322e-03,
          -6.06146688e-03, -1.15332892e-02, -6.48970902e-03,
          -6.41958928e-03, -8.90862476e-03, -1.10213719e-02,
          -1.07958047e-02, -7.37463683e-03, -7.42519181e-03,
          -8.78345966e-03, -1.41828666e-02, -6.11543981e-03,
          -9.24242660e-03, -9.26022697e-03, -1.17507437e-02,
          -4.05467302e-03, -9.79159959e-03, -8.14060681e-03,
          -1.04572587e-02, -1.66892204e-02, -1.06305396e-02,
          -6.68956572e-03, -7.75538618e-03, -3.92530533e-03,
          -2.42134114e-03, -1.10918256e-02, -1.00219520e-02,
          -1.17799891e-02, -1.60584617e-02, -7.94334710e-03,
          -1.12711024e-02, -9.26509313e-03, -4.33866587e-03,
          -9.98665858e-03, -7.16932584e-03, -6.64145034e-03,
          -7.72639737e-03, -1.26622207e-02, -6.06863899e-03,
          -7.08569586e-03, -7.88414571e-03, -9.08281747e-03,
          -1.17156710e-02, -1.03986310e-02, -9.88640636e-03,
          -9.10790823e-03, -1.43855661e-02, -9.96570010e-03,
          -9.96128656e-03, -1.16430037e-02, -1.16932746e-02,
          -2.79401802e-03, -8.52804817e-03, -8.56915023e-03,
          -9.79363732e-03, -1.26819527e-02, -5.75463660e-03,
          -8.29153880e-03, -9.42060072e-03, -3.51335621e-03,
          -1.92060143e-05, -1.08203273e-02, -1.12792775e-02,
          -1.15230931e-02, -1.48922736e-02, -1.07943499e-02,
          -1.06003713e-02, -1.17144762e-02, -7.27937208e-04,
          -1.12470584e-02, -1.03687048e-02, -9.14543122e-03,
          -5.76553866e-03, -1.22707998e-02, -9.37884953e-03,
          -9.18501522e-03, -1.02806818e-02, -1.13261277e-02,
          -1.25523275e-02, -1.17177805e-02, -8.64487235e-03,
          -5.71449660e-03, -1.36484448e-02, -9.72850248e-03,
          -1.24957925e-02, -1.11753307e-02, -1.39453635e-02,
          -8.75928381e-04, -1.00331670e-02, -9.86007508e-03,
          -7.54519273e-03, -1.04729552e-02, -9.53350868e-03,
          -9.59187187e-03, -1.14595788e-02, -2.19020806e-03,
          7.53309717e-03, -1.07512139e-02, -7.96807464e-03,
          -7.07979128e-03, -1.17095755e-02, -1.03970515e-02,
          -1.26271667e-02, -1.30222095e-02, 5.50442748e-03,
          -1.23642338e-02, -8.73380434e-03, -7.10722245e-03,
          -5.47887478e-03, -1.11227194e-02, -9.06143989e-03,
          -1.06192306e-02, -9.84967127e-03, -1.36659220e-02,
          -1.52471839e-02, -9.72659141e-03, -8.74322373e-03,
          -7.76656531e-03, -7.32555753e-03, -1.23407096e-02,
          -1.06605608e-02, -1.10249612e-02, -1.42247602e-02,
          7.05285463e-03, -9.04092193e-03, -7.73793366e-03,
          -6.59001432e-03, -1.06078759e-02, -1.08576296e-02,
          -1.18816905e-02, -1.22411670e-02, 6.31591212e-03,
          8.22882354e-03, -1.07252384e-02, -1.12301111e-02,
          -9.49619804e-03, 4.03497368e-03, -1.32071692e-02,
          -1.17831668e-02, -1.16960397e-02, 7.66733941e-03,
          -1.06161479e-02, -7.69335544e-03, -6.10687817e-03,
          -5.70893520e-03, -1.14629110e-02, -1.21728117e-02,
          -9.07164626e-03, -8.72601382e-03, -1.06574902e-02,
          -7.83069991e-03, -9.04789101e-03, -4.69964044e-03,
          -5.59164817e-03, -1.03873564e-02, -9.63958167e-03,
          -7.64251361e-03, -9.66818817e-03, -1.05513781e-02,
          6.09453907e-03, -8.50400887e-03, -6.46929163e-03,
          -6.80273119e-03, -9.97146871e-03, -1.18575376e-02,
          -7.30990805e-03, -8.55364278e-03, 6.80794287e-03,
          1.14836171e-02, -5.85592759e-04, 2.36970419e-03,
          3.74339754e-03, -4.77021839e-03, -9.27781407e-03,
          -5.79866255e-03, -9.58251767e-03, 8.69509112e-03,
          -6.35926798e-03, -7.80217024e-03, -3.76689574e-03,
          -5.75335231e-03, -1.13149611e-02, -5.45647321e-03,
          -6.18476328e-03, -9.76127665e-03, -1.00175729e-02,
          -7.00215530e-03, -7.97557924e-03, -3.89321870e-03,
          -7.08386395e-03, -1.20397434e-02, -4.76055080e-03,
          -4.08404740e-03, -8.70849378e-03, -8.11473466e-03,
          4.09920374e-03, -3.73045285e-03, -1.60266517e-03,
          -2.07685260e-03, -9.09426529e-03, -7.84355588e-03,
          -8.27894546e-03, -1.08029181e-02, -4.34036367e-04,
          1.69935205e-03, -4.58016712e-03, -4.33917070e-04,
          -3.99222178e-03, -9.69428662e-03, -5.96983638e-03,
          -5.60002495e-03, -6.53694849e-03, 3.82688595e-05,
          -8.01818073e-03, -8.05754401e-03, -6.64114067e-03,
          -7.89615698e-03, -9.81735718e-03, -5.15008066e-03,
          -1.31300814e-03, -5.17544989e-03, -6.63478347e-03,
          -8.89619347e-03, -9.21995100e-03, -7.89720565e-03,
          -7.94869009e-03, -1.27742346e-02, -7.59493001e-03,
          -3.76162142e-03, -5.86624956e-03, -9.39567946e-03,
          -1.36349088e-04, -6.16038730e-03, -4.64620488e-03,
          -6.92210486e-03, -8.82536452e-03, -4.63335821e-03,
          -1.21503114e-03, -3.45330266e-03, -8.86675378e-04,
          3.65229062e-04, -7.34290481e-03, -6.95372745e-03,
          -7.87766930e-03, -1.02062225e-02, -4.37952112e-03,
          -3.17042903e-03, -4.90446808e-03, 1.08631840e-03,
          -7.04339938e-03, -8.07084236e-03, -6.37661899e-03,
          -7.17965653e-03, -1.32091297e-02, -5.65969571e-03,
          -5.13721537e-03, -7.89670926e-03, -9.88864340e-03,
          -8.84038396e-03, -8.80353805e-03, -7.64270220e-03,
          -8.78944434e-03, -1.39079634e-02, -5.82841178e-03,
          -6.73416257e-03, -9.19583440e-03, -1.09593114e-02,
          2.59254943e-03, -7.31101725e-03, -5.44580305e-03,
          -5.91544621e-03, -8.72200076e-03, 1.22273457e-03,
          -5.41673857e-04, -2.22001574e-03, 3.62013723e-03,
          -1.96613299e-04, -1.01992982e-02, -9.36033297e-03,
          -7.87123479e-03, -8.88902135e-03, -3.73304985e-03,
          -2.47074786e-04, -5.11383452e-03, 5.88052731e-04,
          -7.61469919e-03, -7.02137314e-03, -7.49008777e-03,
          -8.58878437e-03, -1.12904636e-02, -5.22653945e-03,
          -5.16984332e-03, -8.58427025e-03, -9.65678785e-03,
          -1.01230470e-02, -7.17730215e-03, -8.14739056e-03,
          -8.81103519e-03, -1.34447748e-02, -5.99091128e-03,
          -8.65291059e-03, -1.13812359e-02, -1.18253045e-02,
          4.99955844e-03, -6.51600305e-03, -8.39394145e-03,
          -6.43466320e-03, -1.89818896e-03, -3.20247118e-03,
          3.15553648e-03, -2.04100227e-03, 7.76015874e-03,
          1.76299806e-03, -1.19487392e-02, -1.01737194e-02,
          -1.11306449e-02, -9.29390453e-03, -7.87974987e-03,
          -7.32212048e-03, -1.10264840e-02, 2.56557181e-03,
          -8.50983988e-03, -5.03038475e-03, -4.93916962e-03,
          -5.86698111e-03, -9.22638644e-03, -5.31556737e-03,
          -6.71972288e-03, -9.06341523e-03, -1.03550022e-02,
          -1.21406736e-02, -9.19052400e-03, -1.05551165e-02,
          -8.95943493e-03, -1.43384133e-02, -1.01851495e-02,
          -9.49356519e-03, -1.22752441e-02, -1.48224775e-02,
          1.20642651e-02, -1.02831786e-02, -8.24940298e-03,
          -8.33258219e-03, -4.27000719e-04, -7.72470795e-03,
          -5.23446826e-03, -7.37263355e-03, 1.34153804e-02,
          3.43364617e-03, -1.04192616e-02, -1.03063136e-02,
          -1.24853319e-02, -1.66779626e-02, -1.23515530e-02,
          -6.63696323e-03, -9.22009628e-03, 4.79704514e-03,
          -7.16685178e-03, -5.49243065e-03, -4.66420548e-03,
          -4.84306086e-03, -8.66848789e-03, -3.76134063e-03,
          -3.44474125e-03, -3.79931973e-03, -6.81080157e-03,
          -6.55295746e-03, -8.09023157e-03, -7.97528494e-03,
          -1.07139740e-02, -1.62449721e-02, -1.09244892e-02,
          -5.30404085e-03, -5.62378252e-03, -6.95467973e-03,
          -6.40945463e-03, -6.35658810e-03, -6.18220959e-03,
          -4.83014202e-03, -1.13714589e-02, -4.43161139e-03,
          -4.17645555e-03, -4.98742191e-03, -7.25608831e-03,
          -5.90601889e-03, -7.20647536e-03, -6.32620975e-03,
          -1.07408846e-02, -1.02857966e-02, -7.35247741e-03,
          -5.88337472e-03, -5.44665288e-03, -3.92432511e-03,
          -4.08270489e-03, -6.77217403e-03, -6.33125287e-03,
          -8.98267422e-03, -1.48406951e-02, -6.98563084e-03,
          -4.86448454e-03, -5.50940493e-03, -4.42009093e-03,
          -4.68633417e-03, -7.72964722e-03, -5.61695546e-03,
          -9.70758218e-03, -1.26749882e-02, -6.85507897e-03,
          -9.22363438e-03, -8.63886159e-03, -6.64891629e-03,
          -2.26917909e-03, -6.72575878e-03, -5.51580917e-03,
          -8.53438489e-03, -1.17243677e-02, -5.27508510e-03,
          -4.92624240e-03, -3.26450053e-03, -1.59474160e-03,
          1.74043677e-03, -1.13038048e-02, -4.13678633e-03,
          -9.60196462e-03, -7.85485003e-03, -7.17746280e-03,
          -7.32591655e-03, -6.82422239e-03, 1.02672377e-03,
          -3.15788388e-03, -5.38533879e-03, -4.25418047e-03,
          -7.99745973e-03, -1.12553481e-02, -5.57043310e-03,
          -6.74128346e-03, -7.20105693e-03, -3.70349921e-03,
          -5.26712323e-03, -7.48565840e-03, -5.76376449e-03,
          -8.43913108e-03, -9.13655292e-03, -8.34829733e-03,
          -7.35280057e-03, -7.65291089e-03, -4.92455810e-03,
          -8.00699578e-04, -8.56043305e-03, -3.58471670e-03,
          -7.60047790e-03, -1.11898910e-02, -6.60296902e-03,
          -6.31530723e-03, -7.11270375e-03, -8.78228282e-04,
          -4.44767345e-03, -4.35467251e-03, -1.24209397e-03,
          -6.86534634e-03, -1.75721513e-03, -7.96795636e-03,
          -6.51898421e-03, -6.87965192e-03, -6.40993286e-03,
          -9.67105757e-03, -9.94915422e-03, -6.88619912e-03,
          -7.93151557e-03, -9.60350037e-03, -7.61867315e-03,
          -6.75640441e-03, -8.90415069e-03, -9.99286957e-03,
          -7.43768783e-03, -9.19063110e-03, -5.27112931e-03,
          -6.33245846e-03, -4.52393992e-03, -7.95072969e-03,
          -9.65411123e-03, -1.07340254e-02, -6.81783399e-03,
          -7.82081112e-03, -8.06249678e-03, -3.56013305e-03,
          -5.43422299e-03, -6.28339918e-03, -7.98626617e-03,
          -6.69335853e-03, -6.14212314e-03, -6.26204023e-03,
          1.09128107e-03, -8.03080481e-03, -3.50691029e-03,
          -2.47440347e-03, 1.75755117e-02, -6.49720477e-03,
          -3.78556363e-03, -2.94640800e-03, 3.27558606e-03,
          -5.10374038e-03, -6.08321931e-03, -4.90575330e-03,
          -6.72079949e-03, -7.47796753e-03, -7.83255789e-03,
          -9.87638161e-03, -9.20906756e-03, -3.83987674e-03,
          -3.48820351e-03, -6.74381107e-03, -8.84695165e-03,
          -1.01154363e-02, -9.79703665e-03, -1.18140392e-02,
          -9.84103791e-03, -9.03548114e-03, -2.50872644e-03,
          4.96208481e-03, -6.09930698e-03, -4.21773363e-03,
          -4.65066405e-03, -3.01934523e-03, -5.16886823e-03,
          -1.28493877e-03, -1.06860272e-04, 7.67248170e-03,
          7.26221874e-03, -3.64302541e-05, 2.77088583e-03,
          3.75713396e-04, 5.72691020e-03, -9.38012265e-03,
          -3.39293759e-03, -4.08924324e-03, 9.60491784e-03,
          1.84025080e-03, -5.55776199e-03, -6.00453746e-03,
          -7.20312865e-03, -8.59119184e-03, -1.02068000e-02,
          -6.70039700e-03, -7.74901034e-03, 7.83532101e-04,
          -1.27786203e-04, -2.89233588e-03, -1.03401439e-03,
          -1.15910626e-03, -5.30891819e-03, -8.85450188e-03,
          -7.32141687e-03, -8.00484885e-03, -1.11462269e-03,
          8.49803258e-03, 3.55303241e-03, 4.45980486e-03,
          -2.63120793e-03, -1.65031152e-03, -1.02806613e-02,
          -2.35129986e-03, -3.62851634e-03, 5.92053169e-03,
          9.69825499e-03, 8.94969236e-03, 8.00074916e-03, 3.58772208e-03,
          3.78625770e-03, -7.13502569e-03, -2.68893735e-03,
          -4.20466810e-03, 4.73592104e-03, -4.18746611e-03,
          -4.96386411e-03, -1.82434148e-03, -3.72826797e-03,
          -4.68746293e-03, -5.80773782e-03, -5.80127258e-03,
          -8.40796623e-03, -6.22552820e-03, -6.25069439e-03,
          -6.55859662e-03, -1.39191526e-03, -5.85592585e-03,
          -8.69041402e-03, -4.88586118e-03, -4.82689263e-03,
          -6.16484554e-03, -5.84446639e-03, 1.18590370e-02,
          2.89887679e-03, 6.51544798e-03, -6.14007760e-04,
          2.09995173e-03, -4.44196584e-03, -4.05931333e-03,
          -6.66488847e-03, 7.32225226e-03, 7.88856111e-03,
          -1.35859032e-03, 1.14610360e-03, -1.60926487e-03,
          -6.82083657e-03, -3.89862107e-03, -4.01552627e-03,
          -5.30302245e-03, 6.01128070e-03, -6.56740321e-03,
          -6.90043019e-03, -3.07959109e-03, -5.48092695e-03,
          -7.11920159e-03, -5.68718929e-03, -2.17102375e-03,
          -3.99751216e-03, -4.88930335e-03, -5.48858382e-03,
          -6.99110748e-03, -4.41385666e-03, -5.00367768e-03,
          -7.91042577e-03, -5.82556892e-03, -4.07708529e-03,
          -5.20236837e-03, -5.17997006e-03, 7.85704423e-03,
          -1.75555912e-03, 1.95808563e-04, -1.96871976e-03,
          -3.47283529e-03, -4.43956768e-03, -2.92926910e-03,
          -3.81527795e-03, 6.12622686e-03, 1.72329543e-03,
          -3.49985529e-03, -1.68911344e-03, -3.24026239e-03,
          -5.72520215e-03, -4.67880350e-03, -4.85026697e-03,
          -6.24920661e-03, 5.67357965e-05, -5.59862750e-03,
          -4.33844049e-03, -2.78398022e-03, -3.95611813e-03,
          -7.65576633e-03, -2.55237170e-03, -1.83888839e-03,
          -4.71543940e-03, -5.01424633e-03, -6.81978092e-03,
          -5.01865242e-03, -5.34951594e-03, -5.89182973e-03,
          -8.30204412e-03, -2.88706250e-03, -7.46128673e-04,
          -4.95990738e-03, -5.49569307e-03, 1.63802702e-03,
          -4.17203968e-03, -3.05578765e-03, -4.72560758e-03,
          -6.44231495e-03, -2.53954460e-03, -2.55205599e-03,
          -4.28736769e-03, 1.12572697e-03, 5.71296550e-04,
          -4.34811087e-03, -5.71926404e-03, -7.12039554e-03,
          -5.72296930e-03, -2.63251853e-03, -2.68613407e-03,
          -4.11976641e-03, 2.21649927e-04, -6.13658549e-03,
          -6.26641139e-03, -6.57587266e-03, -6.92424830e-03,
          -7.53033767e-03, -3.96910682e-03, -3.24447174e-04,
          -4.10875538e-03, -5.53388242e-03, -7.89738074e-03,
          -8.50675255e-03, -6.08012034e-03, -9.45047010e-03,
          -9.31507163e-03, -6.97775045e-03, -5.59654227e-03,
          -9.85463616e-03, -6.26593269e-03, 1.96656538e-03,
          -3.95107130e-03, -5.10992622e-03, -7.75374845e-03,
          -4.98505170e-03, -1.63523050e-03, -5.75856597e-04,
          -3.13268276e-03, 2.37447047e-03, -6.63718238e-05,
          -4.11320478e-03, -4.14778106e-03, -7.39942258e-03,
          -1.85551669e-03, -3.08946148e-03, -6.23979358e-05,
          -2.05531670e-03, -1.61968230e-03, -5.61782904e-03,
          -6.07518759e-03, -4.59992653e-03, -7.06014223e-03,
          -8.15973524e-03, -6.78317202e-03, -3.76521912e-03,
          -7.25570228e-03, -3.84440995e-03, -7.75514869e-03,
          -7.16692256e-03, -6.51284168e-03, -9.90454108e-03,
          -1.45655703e-02, -1.17671443e-02, -6.22089999e-03,
          -8.58562626e-03, -7.15207588e-03, 3.30889132e-03,
          -1.31052325e-03, -2.82685435e-03, -3.91088054e-03,
          4.34141606e-03, -6.43937034e-04, 5.72904805e-03,
          1.96785131e-03, 1.29534851e-03, -3.26092029e-03,
          -4.90245689e-03, -5.67184575e-03, -8.29554256e-03,
          -1.07045826e-02, -9.70427692e-03, -6.69672294e-03,
          -4.87327250e-03, -3.74738104e-03, -9.10493452e-03,
          -5.83226001e-03, -6.00299006e-03, -2.84290011e-03,
          -9.49077494e-03, -4.16280329e-03, -5.13836602e-03,
          -5.67728467e-03, -8.60048085e-03, -8.38774163e-03,
          -6.94056973e-03, -7.15403026e-03, -1.12771578e-02,
          -1.37627516e-02, -5.84498048e-03, -6.14926545e-03,
          -5.90180466e-03, -7.12569710e-03, -2.82349624e-03,
          -2.88251182e-03, -2.43021618e-03, -1.31754228e-03,
          -9.03028809e-03, -3.89990886e-03, -4.47128527e-03,
          -3.64529109e-03, -3.04209488e-03, 7.48047652e-03,
          -1.09174417e-03, -4.13268572e-03, -6.31668000e-03,
          -1.28990971e-02, -4.35840152e-03, -4.59866738e-03,
          -3.34603596e-03, 4.04890254e-03, -6.00099424e-03,
          -6.75707823e-03, -4.95904172e-03, -7.24675693e-03,
          -1.22740641e-02, -4.63315146e-03, -4.51635430e-03,
          -3.79218860e-03, -4.18361509e-03, -8.59424658e-03,
          -9.63333901e-03, -6.38053706e-03, -1.08272210e-02,
          -1.38111459e-02, -5.24841761e-03, -5.01660910e-03,
          -5.64684905e-03, -7.38933496e-03, 1.60297286e-03,
          -4.22093133e-03, -4.94475290e-03, -8.26192647e-03,
          -1.18225189e-02, -4.78426041e-03, -4.26218286e-03,
          -2.47584027e-03, 2.64860690e-03, -6.32084964e-04,
          -6.20262558e-03, -1.18969532e-03, -7.66423158e-03,
          -1.30356420e-02, -5.52138872e-03, -4.79054125e-03,
          -4.11931239e-03, -2.76158244e-04, -7.63774198e-03,
          -7.96853099e-03, -5.37184300e-03, -8.39756522e-03,
          -1.27137033e-02, -5.33548370e-03, -5.14455000e-03,
          -6.15769904e-03, -6.81994529e-03, -8.25550500e-03,
          -6.47863513e-03, -2.45196582e-03, -7.80078210e-03,
          -1.75717124e-03, -7.61950621e-03, -6.51349174e-03,
          -6.78034220e-03, -8.85167066e-03, 1.23777764e-03,
          -4.03555483e-03, -4.52856906e-03, -9.53530427e-03,
          -1.05708130e-02, -5.89204160e-03, -5.73193841e-03,
          -4.69960598e-03, 2.08833115e-03, -3.42386280e-04,
          -3.52770230e-03, -3.78437736e-03, -7.26024248e-03,
          5.24960924e-03, -8.05268716e-03, -6.68973709e-03,
          -4.79067909e-03, -7.09047832e-04, -1.22300358e-02,
          -9.82642081e-03, -5.86478692e-03, -7.48775201e-03,
          -9.87258367e-03, -8.56547989e-03, -8.38629063e-03,
          -8.71986244e-03, -9.51380655e-03, -5.97471837e-03,
          -9.17805731e-03, -6.40937313e-03, -4.36655432e-03,
          2.53861677e-03, -6.20096968e-03, -5.20764571e-03,
          -3.79504100e-03, -1.26201741e-03, -1.64286233e-03,
          -9.01497528e-03, -6.68624043e-03, -8.83309636e-03,
          -7.22644478e-03, -9.89123806e-03, -9.58636869e-03,
          -7.64012896e-03, 9.13039257e-04, 7.30684306e-03,
          -7.57228816e-03, -4.64420253e-03, -2.92764069e-03,
          5.40904095e-03, -8.58796481e-03, -5.58606768e-03,
          -1.47053064e-03, 1.13620590e-02, -4.07417212e-03,
          -6.69934880e-03, -7.11507630e-03, -7.53435306e-03,
          -9.82478634e-03, -7.96083361e-03, -4.73422743e-03,
          -2.03774171e-03, -9.47914436e-04, -4.66903485e-03,
          -8.96301470e-04, 5.78762905e-04, -5.42989047e-03,
          -9.51429922e-03, -1.28573216e-02, -6.85483776e-03,
          -5.43902814e-03, -4.32522688e-03, 5.29933115e-03,
          -5.65472897e-03, -3.53995548e-03, -4.72850073e-03,
          -8.36114772e-03, -9.77083016e-03, -4.61076340e-03,
          -1.18134791e-04, 9.20571759e-03, 7.64636509e-03,
          1.94562308e-03, 1.00141542e-03, -1.95400370e-03,
          1.66258903e-03, -1.13240574e-02, -7.28442660e-03,
          -3.34641401e-04, 9.09899920e-03, -3.57451476e-03,
          5.97239014e-05, -2.24705506e-03, -4.87267505e-03,
          -9.87016410e-03, -8.44399258e-03, -7.91328028e-03,
          -5.27273817e-03, -4.01104428e-03, 8.13795719e-04,
          3.66904261e-03, 3.88666755e-03, -7.82655959e-04,
          -5.15106833e-03, -5.43734897e-03, -4.89339279e-03,
          -4.09716973e-03, -2.45335442e-03, 9.64693446e-03,
          1.19009661e-03, -4.38159532e-06, -4.66785161e-03,
          -5.63599262e-03, -5.88158658e-03, -3.19645531e-03,
          6.78587181e-04, 1.10710477e-02, 1.45843364e-02, 4.58753202e-03,
          3.43184406e-03, -3.78896226e-03, -3.87737690e-03,
          -5.09658316e-03, -2.49730796e-03, 2.12351582e-03,
          1.10650631e-02, 5.94035140e-04, -6.12703676e-04,
          1.88321501e-04, -2.13688752e-03, -6.65737363e-03,
          -4.37043421e-03, -4.13576514e-03, -7.02773454e-03,
          -2.96639535e-03, -3.89622524e-03, -2.89986935e-03,
          -1.39635475e-03, -2.80290516e-03, -8.07701237e-03,
          -6.34505041e-03, -5.42929489e-03, -7.93525856e-03,
          -7.28193810e-03, 1.48421386e-02, 1.18074392e-03,
          2.20348313e-03, -2.18584598e-03, -3.00995447e-03,
          -4.55012592e-03, -4.15016373e-04, 3.77898640e-03,
          1.50329741e-02, 5.94437355e-03, 7.09532120e-04, 6.39712147e-04,
          -3.03124264e-03, -6.07080013e-03, -3.95270251e-03,
          -2.10267818e-03, -3.43358796e-03, 4.68841707e-03,
          -4.27735969e-03, -2.30858987e-03, -1.26906799e-03,
          -2.76562595e-03, -2.81084399e-03, -4.61845426e-03,
          -5.01366099e-03, -6.43428694e-03, -6.31469581e-03,
          -6.26080949e-03, -4.71883547e-03, -3.03946924e-03,
          -3.49315256e-03, -6.77372143e-03, -5.63411461e-03,
          -6.72346773e-03, -7.19492510e-03, -7.72174448e-03,
          1.26621788e-02, 3.27236456e-04, 1.05678197e-03,
          -9.65277897e-04, 5.89365978e-03, -3.77636024e-04,
          6.97629061e-04, 1.59720017e-03, 1.13733551e-02, 6.74641365e-03,
          -3.77384038e-03, 7.38571282e-04, 9.81106714e-05,
          -4.57630631e-05, -1.54246297e-03, -3.40533373e-03,
          -4.67305165e-03, 6.53709192e-03, -4.27882560e-03,
          -4.66415659e-03, -2.05028104e-03, -2.75955489e-03,
          -6.24703709e-03, -2.57593277e-03, -4.97006672e-03,
          -5.71101904e-03, -4.48362250e-03, -6.45805662e-03,
          -4.82000085e-03, -4.50889487e-03, -5.21138217e-03,
          -5.74578438e-03, -3.25935241e-03, -4.35397867e-03,
          -5.56544680e-03, -7.52641680e-03, 1.05991391e-02,
          -1.80496811e-03, 4.04340622e-04, 9.78778233e-04,
          4.53014567e-04, 2.17045032e-04, -4.12185211e-03,
          -5.38026262e-03, 9.56703071e-03, 4.45349514e-03,
          -2.70577404e-03, 5.69368596e-04, 9.53651848e-04,
          -2.48338073e-03, -2.56721955e-03, -3.24407592e-03,
          -5.16248355e-03, 6.09513605e-03, -4.99864388e-03,
          -4.82742768e-03, -4.94869193e-03, -6.67209690e-03,
          -5.44552319e-03, -1.80817430e-03, -1.40320871e-03,
          -4.56410740e-03, -4.46728384e-03, -4.70680837e-03,
          -4.55390941e-03, -4.69598686e-03, -5.83456689e-03,
          -7.46799866e-04, -3.25156585e-03, -2.97091668e-03,
          -5.51849930e-03, -6.69865590e-03, 1.30276184e-03,
          -3.54315550e-03, -6.14620978e-04, 5.49502496e-04,
          -1.35861163e-03, -2.31216149e-03, -2.61509349e-03,
          -4.30994155e-03, 6.77638967e-03, -3.69674992e-03,
          -2.62086862e-03, -3.72908435e-05, 1.52518379e-03,
          4.57773349e-05, -3.43070272e-03, -3.98120005e-03,
          -5.09290677e-03, -3.85041838e-03, -3.89977824e-03,
          -2.49652215e-03, -3.06780473e-03, -2.77180527e-03,
          1.06843782e-03, -1.78897753e-03, 1.01955247e-03,
          -2.83448887e-03, -4.58131777e-03, -9.06626601e-03,
          -5.98319620e-03, -5.83383301e-03, -6.78430358e-03,
          -1.18009942e-02, -9.19402204e-03, -9.15208180e-03,
          -5.84243611e-03, -7.88366422e-03, 3.23890219e-03,
          -1.19569851e-03, 7.68582046e-04, 2.65233032e-03,
          2.64214096e-03, -1.76080805e-03, -9.18929640e-04,
          -2.94685713e-03, 2.91489507e-03, -4.33909474e-03,
          -7.26235099e-03, -6.26339950e-03, -6.81569008e-03,
          -8.01637210e-03, -4.47560241e-03, -5.22900559e-03,
          -8.49471800e-03, -2.75088521e-03, -3.32707493e-03,
          -3.52620869e-03, -3.96506861e-03, -5.02254057e-04,
          -1.00866603e-02, -4.45731310e-03, -5.03445789e-03,
          -5.14348038e-03, -5.06029511e-03, -1.71906780e-04,
          -3.84453707e-03, -4.23627952e-03, -4.08139685e-03,
          -1.59441661e-02, -7.82191381e-03, -8.58313031e-03,
          -7.05289096e-03, -2.41988990e-03, -3.54882656e-03,
          -3.23273824e-03, -2.11662427e-03, 2.18621106e-03,
          -8.28508008e-03, -5.07127168e-03, -6.61295280e-03,
          -5.49668865e-03, -5.49224066e-03, -3.54780117e-04,
          -2.93554645e-03, -4.35062964e-03, -4.11636225e-04,
          -9.81218088e-03, -8.84205848e-03, -8.79355613e-03,
          -9.70779546e-03, -1.88459351e-03, -4.88914957e-04,
          -4.82568331e-03, -4.88946028e-03, -5.61734056e-03,
          -1.30353738e-02, -6.63667079e-03, -5.45853004e-03,
          -4.73333383e-03, -5.12042374e-04, -1.78693957e-03,
          -6.42004050e-03, -3.88893322e-03, -5.98822068e-03,
          -1.25887832e-02, -7.71565503e-03, -6.31179288e-03,
          -5.08283079e-03, -9.66749736e-04, -3.55505414e-04,
          -3.24548734e-03, -3.46112181e-03, -2.86508258e-03,
          -9.70958918e-03, -7.76777137e-03, -7.12307869e-03,
          -7.23340316e-03, -2.45377142e-03, -2.84558069e-03,
          -3.52415047e-03, -4.38264804e-03, -2.83290446e-03,
          -1.30341789e-02, -1.00823129e-02, -1.06269382e-02,
          -9.12612490e-03, -3.57525959e-03, -1.23931991e-03,
          -4.36266977e-03, -4.54837969e-03, -8.10584519e-03,
          -1.28666116e-02, -6.77668722e-03, -7.04667764e-03,
          -4.86694556e-03, 5.04692725e-05, -1.19733205e-03,
          -3.77160870e-03, -2.00998131e-03, -7.18594808e-03,
          -2.72082468e-03, -7.89380632e-03, -9.02806129e-03,
          -4.91983257e-03, -7.17710878e-04, -4.82202944e-04,
          -4.50578751e-03, -4.06223768e-03, -4.61846916e-03,
          -1.18327616e-02, -7.85326771e-03, -9.32994485e-03,
          -7.25842500e-03, 3.54353484e-04, 5.71754575e-03,
          -5.68949059e-03, -2.55491608e-03, -3.40095023e-03,
          8.15502834e-03, -4.58105095e-03, -7.79235875e-03,
          -5.79837384e-03, 7.06356158e-03, -3.58670601e-03,
          -7.57699553e-03, -5.36618987e-03, -8.73261131e-03,
          -1.11079132e-02, -9.03808698e-03, -1.06672840e-02,
          -5.69486478e-03, -1.14855065e-03, 1.81725086e-03,
          -5.42964227e-03, -2.90523213e-03, -4.23004571e-03,
          -6.82617817e-03, -7.77788227e-03, -5.96926501e-03,
          -6.23266038e-04, 5.22088958e-03, -4.80896793e-03,
          -6.55683922e-03, -2.97369948e-03, -3.52086755e-03,
          -5.59195783e-03, -6.17523491e-03, -9.04529449e-03,
          -6.44573476e-03, -5.67968655e-03, 1.87262276e-03,
          6.17558043e-03, 6.94193598e-03, 8.26788135e-03, 3.01179127e-03,
          -6.17729360e-03, -8.15631077e-03, -3.00826761e-03,
          -1.04299234e-03, 1.09241100e-03, -4.79766540e-03,
          -1.81051728e-03, -4.04005731e-03, -8.03887658e-03,
          -9.11070965e-03, -6.09180704e-03, -5.94841433e-04,
          6.06687041e-03, 3.43752885e-03, -2.88074464e-03,
          -2.95460015e-03, -5.42680267e-03, -2.71104946e-04,
          -1.00817140e-02, -6.13899296e-03, 9.90694040e-04,
          8.92124325e-03, 5.63674315e-04, 1.06602733e-03, 2.14810972e-03,
          5.34395163e-04, -4.52267425e-03, -8.87663290e-03,
          -5.87466033e-03, -1.66550314e-03, 1.50902593e-03,
          3.08911945e-03, 4.77231282e-04, -1.20729581e-03,
          -9.29648895e-03, 1.28239999e-03, -8.33998155e-03,
          1.55252899e-04, 2.14004843e-03, 6.71566278e-03, 4.82370239e-03,
          -5.15152060e-04, -1.53766677e-03, -5.17408596e-03,
          -3.75306024e-03, -6.28293818e-03, -4.20291862e-03,
          2.51726946e-03, 7.18934275e-03, 8.50850809e-03, 2.65579857e-03,
          1.90408539e-03, -2.37522554e-03, -4.93864855e-03,
          -4.81227878e-03, -2.65784562e-03, 1.14339753e-03,
          5.81120001e-03, 3.63161368e-03, -4.87001409e-04,
          -4.60546464e-03, -7.89633300e-03, -4.55665356e-03,
          -5.44258254e-03, -9.48059955e-04, 3.24840820e-03,
          5.06083155e-03, 3.89313092e-03, 8.81398388e-04,
          -3.53080686e-04, -4.48627351e-03, -3.20229051e-03,
          -2.61513423e-03, 8.48891679e-04, 6.19947910e-03,
          4.21577273e-03, 6.75264746e-03, -4.37419018e-04,
          -6.97453157e-04, -2.85751722e-03, -6.32613152e-03,
          -5.12268068e-03, -2.50001997e-03, 1.16352329e-03,
          5.12320874e-03, 2.83657829e-03, -3.85578132e-05,
          -1.61262904e-03, -1.98404142e-03, -4.00712714e-03,
          -1.71458325e-03, -1.48988178e-03, -1.81049563e-03,
          -1.56415580e-03, 1.71423925e-03, -1.45526452e-03,
          -3.01183085e-03, -2.43903231e-03, -3.05359601e-03,
          -6.10511517e-04, 2.22753664e-03, 7.50780571e-03,
          4.48815804e-03, -5.59756532e-04, -2.51168531e-04,
          -2.17817212e-03, -3.84135870e-04, -2.64636660e-03,
          1.72838103e-03, 4.24154243e-03, 6.68561785e-03, 7.66606128e-04,
          -9.05405032e-05, -1.59121293e-03, -2.08295183e-04,
          1.58987299e-03, -1.57801330e-03, -8.59118009e-05,
          -1.03903993e-03, -2.33324524e-03, -1.04497967e-03,
          -2.46121269e-03, -4.12287982e-03, -1.00353395e-03,
          2.48416280e-03, 1.65614788e-03, 2.20245495e-03,
          -2.60534277e-03, -5.11393137e-03, -1.96477352e-03,
          -2.78808619e-03, -1.34521245e-03, -1.06687774e-04,
          3.81866936e-03, 2.12022476e-03, 3.06358514e-03, 6.39507500e-03,
          7.15791760e-03, 3.05151963e-03, -7.37782521e-03,
          -6.69722538e-03, -5.40141854e-03, 2.06221198e-03,
          3.08029982e-03, 5.69642894e-03, 1.62992300e-03, 1.48241967e-03,
          -9.38316924e-04, 3.59894428e-03, -3.50172253e-04,
          6.94096263e-04, 1.82438665e-03, 2.63767759e-03, 1.79035787e-03,
          -1.38694339e-03, -3.31422151e-03, 4.14465927e-03,
          -1.83795928e-03, -2.71561812e-03, -3.25694738e-04,
          -8.59491294e-04, -3.40578821e-03, -3.46356235e-03,
          -5.42149134e-03, -3.83485085e-03, -8.49311939e-04,
          1.52223953e-03, -3.24341888e-03, -1.60704262e-03,
          8.05087388e-04, 4.85219574e-03, 3.48109379e-03, 2.58354959e-03,
          2.66936421e-03, 8.04459769e-03, -6.08391408e-03,
          -3.65711958e-03, -2.50146841e-03, -1.79545942e-03,
          -2.11001863e-03, -4.38511092e-03, -3.15533648e-03,
          5.99182749e-05, -2.14621448e-03, -1.82825630e-03,
          -8.28522025e-04, 1.85201131e-03, 2.59203464e-03,
          -8.72795761e-04, -8.00972048e-04, -3.53205483e-03,
          -2.23343633e-03, 1.02288800e-03, -6.37106132e-03,
          -1.66183093e-03, -1.08909607e-03, 1.97342667e-03,
          -2.62265210e-03, -2.11919309e-03, -4.73342231e-03,
          -2.33822782e-03, -4.69952077e-03, -7.07334024e-04,
          -5.63073088e-04, 2.42915063e-04, 2.30890536e-03,
          1.61266362e-03, -2.78651621e-03, -2.54552858e-03,
          -1.16712647e-03, 5.05791162e-04, -7.00313225e-03,
          -3.87057685e-03, -5.73124387e-04, 1.48569746e-03,
          -2.31487141e-03, -3.36578302e-03, -3.14850942e-03,
          9.02130094e-04, -1.95425679e-03, -4.89971600e-03,
          2.79988872e-05, 3.94173525e-03, 5.67051908e-03, 4.05523786e-03,
          -4.31282751e-05, -2.80859764e-03, 1.90760111e-05,
          -4.01558029e-03, -1.00387502e-02, -7.12176645e-03,
          -5.33683086e-03, -5.35971392e-03, -5.28060738e-03,
          -2.26084958e-03, -4.87884507e-03, -8.13539326e-03,
          -8.41032807e-03, -4.98498604e-03, -6.61492813e-03,
          -1.55815575e-03, 5.57680498e-04, -1.47979602e-03,
          -5.24690666e-04, -2.10017315e-03, 1.87610462e-03,
          2.05669180e-03, -5.95684675e-03, -6.67207548e-03,
          -4.92195133e-03, -2.42608320e-03, -7.07113929e-03,
          -2.38340130e-04, 2.99094687e-03, -1.25895999e-03,
          -3.61869554e-03, -4.85666841e-03, -4.16896213e-03,
          -3.30322445e-03, 1.91636709e-03, -8.60820431e-03,
          -4.08111652e-03, -7.73745030e-03, -4.11605509e-03,
          -5.79450559e-03, -3.86124593e-03, -5.96603891e-03,
          -6.63239555e-03, 1.16243889e-03, -8.66066851e-03,
          -5.43554593e-03, -1.04646971e-02, -8.44392739e-03,
          -6.98343245e-03, 2.31820764e-03, -3.11760185e-03,
          -3.66037106e-03, 3.44317261e-04, -6.01131143e-03,
          -3.81291914e-03, -6.87388144e-03, -4.51945793e-03,
          9.14979435e-04, 2.73326482e-03, -3.38675035e-03,
          -4.22671484e-03, 2.72172940e-04, -8.25035106e-03,
          -4.34320047e-03, -1.06883096e-02, -8.80509708e-03,
          -1.18525245e-03, -2.76496494e-03, -4.58774948e-03,
          -3.55571532e-03, -2.28802208e-04, -5.67608885e-03,
          -3.93444113e-03, -7.33018806e-03, -7.39886612e-03,
          -5.78137347e-03, -4.61936789e-03, -5.03174402e-03,
          -3.32623953e-03, -2.19510891e-03, -2.85658916e-03,
          -5.34573244e-03, -9.57688037e-03, -8.97383969e-03,
          -6.63336366e-03, 4.65145893e-03, -3.10102897e-03,
          -2.48447992e-03, -2.07650685e-03, -5.40182600e-03,
          -2.98394752e-03, -6.79896725e-03, -8.05264711e-03,
          1.11198681e-03, 5.18040266e-03, -3.13468161e-03,
          -3.51201673e-03, -2.87618185e-03, 1.20811434e-02,
          -1.19755545e-03, -4.76872688e-03, -6.11279113e-03,
          3.78272403e-03, -4.26246691e-03, -3.57661420e-03,
          -2.22160993e-03, -3.10746860e-03, -5.13095781e-03,
          -5.05086035e-03, -7.59533560e-03, -6.84885215e-03,
          -3.87980440e-03, -1.78826111e-03, -4.19032667e-03,
          3.37228179e-04, -4.25804436e-04, -1.95702561e-03,
          -3.36020393e-03, -5.29042818e-03, -8.51134863e-03,
          -4.53804526e-03, 2.26854580e-03, -2.14802148e-03,
          -9.54256335e-04, -4.66943765e-03, -3.82894720e-03,
          -1.60299998e-03, -3.22946743e-03, -3.88060487e-03,
          1.39130151e-03, 5.47619397e-03, 4.07676492e-03, 7.50681292e-03,
          6.79334346e-03, 6.12084288e-03, -1.79683662e-03,
          -3.42593412e-03, -3.31767160e-03, 4.62389877e-03,
          -6.40421966e-03, -3.78082786e-03, 1.11185270e-03,
          1.49863120e-03, -7.62104639e-04, -3.56919062e-03,
          -6.03143033e-03, -9.30179842e-03, -8.66620149e-03,
          -2.30995775e-03, 4.59399913e-03, 7.84686022e-03,
          8.22528545e-03, 5.03664697e-03, -6.51493028e-04,
          -7.13947834e-03, -6.98037026e-03, -3.63558554e-03,
          -5.15160849e-03, -2.28254567e-03, 4.35344083e-03,
          2.92884326e-03, -1.76037173e-03, -2.54941825e-03,
          -6.42734859e-03, -8.83888546e-03, -7.34809972e-03,
          -5.91548160e-04, 1.28201663e-03, 6.09407341e-03,
          9.34563018e-03, 8.47748294e-03, 1.87524699e-03,
          -4.83931927e-03, -6.18541380e-03, -2.79408065e-03,
          -7.83424999e-04, 1.35489053e-03, 3.83977965e-03,
          2.92658946e-03, 1.22199289e-03, -3.31254280e-03,
          -4.81873937e-03, -2.02258979e-03, -4.17051488e-04,
          2.63628527e-03, 1.83339242e-03, 2.03779107e-03,
          -6.81958953e-03, 1.66979700e-03, -2.36620056e-03,
          -5.75289829e-04, -4.27249266e-04, 4.21235990e-03,
          -8.07875674e-03, -1.43679485e-04, 3.03724664e-03,
          3.28784785e-03, 1.41459843e-03, 1.90609077e-04,
          -3.42890294e-03, -3.72033846e-03, -6.22987002e-03,
          -3.43127316e-03, -2.23098061e-04, 3.00627993e-03,
          -2.06843973e-03, 6.20079925e-03, 2.72347126e-03,
          3.07537592e-03, 1.68389684e-04, -3.39349802e-03,
          2.52171769e-03, 9.58556193e-04, -2.29939120e-03,
          -6.79254672e-03, -3.93391261e-03, -1.91687362e-03,
          -8.29844852e-04, 1.86947430e-03, 4.93705785e-03,
          1.84913771e-03, 2.36913166e-03, 1.57449546e-03,
          -1.21185544e-03, 6.22665219e-04, 2.14682100e-03,
          1.50165963e-03, 3.84490006e-03, 3.11811757e-03,
          -1.17435143e-03, 1.05590059e-03, 6.01954351e-04,
          -3.35939322e-03, 2.31006008e-04, 2.87688849e-03,
          4.91735246e-03, 2.20278697e-03, -1.57615403e-03,
          2.58422690e-03, 4.29741433e-03, 3.75665724e-03, 3.91896954e-03,
          3.69363138e-03, 5.66195697e-03, 3.77591210e-03, 4.70463000e-03,
          1.87129690e-03, -8.31296085e-04, -3.44734552e-04,
          -5.73575730e-04, -1.12721487e-03, -1.52370008e-03,
          2.32523144e-03, 2.43438152e-03, 7.24802399e-03, 2.92946608e-03,
          -5.30431047e-04, 1.33113156e-03, 8.50297161e-04,
          5.76544662e-05, -2.62218551e-03, 1.69955788e-03,
          3.60223837e-03, 8.24434590e-03, 1.81913387e-03,
          -1.10135798e-03, 1.44401670e-03, 1.36796199e-03,
          1.02813391e-03, -1.43283920e-03, 2.87970033e-04,
          2.05707038e-03, 3.93892685e-03, 1.78678747e-05,
          -2.16374639e-03, -4.04028076e-04, -1.04617781e-03,
          -1.61257270e-03, -4.88124415e-03, -2.22353614e-03,
          1.23817532e-03, 6.71237288e-03, 7.58115901e-04,
          -2.67929980e-03, -5.16258471e-04, -4.87553363e-04,
          3.90184403e-04, -3.11136479e-04, 3.48344306e-03,
          4.65084845e-03, 7.29756849e-03, 9.64164617e-04,
          -5.78514207e-03, -5.74223977e-03, -6.34477101e-03,
          -9.74884082e-04, 2.20222259e-03, 4.46766661e-03,
          4.08448558e-03, 1.52472639e-03, -1.19677403e-04,
          -1.28373911e-03, -2.04512803e-03, -4.41678800e-03,
          -3.36100487e-03, -1.72737055e-03, -1.39864197e-03,
          2.13691359e-03, 6.48411689e-03, 1.94314134e-03,
          -4.43818746e-03, -5.18715801e-03, -5.98382205e-03,
          -2.40983767e-03, 9.09850525e-04, 2.68219830e-03,
          5.06280921e-03, 4.15171823e-03, -7.71058374e-04,
          -4.32674866e-03, -4.43786522e-03, -2.61001941e-03,
          1.58884027e-03, 1.52561872e-03, 4.10467386e-03, 3.26861977e-03,
          2.64624320e-03, 3.44197542e-06, -6.97222119e-03,
          -3.43582220e-03, -1.00620009e-03, -3.19986939e-05,
          -1.85404508e-03, -2.72086519e-03, -2.42123241e-03,
          -1.10832474e-03, -3.58672300e-03, -2.76620104e-03,
          -3.24259605e-03, -4.79165290e-04, 2.21904041e-03,
          1.43012078e-03, 4.22913162e-03, 8.79419781e-03, 8.38101003e-03,
          -2.99430307e-04, -5.27198333e-03, -3.25172767e-03,
          -4.52350883e-04, 5.10517624e-04, -4.88015078e-03,
          -1.66850316e-03, 4.45393031e-04, 1.81090750e-03,
          -3.72789125e-03, -6.16304670e-03, 2.40064948e-03,
          4.12628893e-03, 4.27565118e-03, 3.15827457e-03,
          -1.51071674e-03, -1.63691340e-03, -1.59781869e-03,
          -4.86130826e-03, -9.32293106e-03, -3.96076636e-03,
          -2.02735362e-04, 2.34429911e-03, -2.45167321e-04,
          -3.16931633e-03, -3.62207391e-03, -1.92761782e-03,
          -7.50445807e-03, -1.05204550e-03, 4.03740560e-04,
          4.04902780e-03, 1.56399724e-03, 5.52596711e-03,
          -3.29994969e-03, 2.21017544e-04, 1.04695337e-03,
          5.31211728e-04, -2.58315424e-03, -3.50389187e-03,
          -2.95906491e-03, -5.30009274e-04, 5.24475763e-04,
          -4.92756860e-03, -4.35477262e-03, -1.13616360e-03,
          6.93342066e-04, -5.18861366e-03, -5.42356074e-03,
          -3.39503586e-03, 8.29949684e-04, 7.76828080e-03,
          -1.88382308e-03, -4.13806783e-03, -1.19195064e-03,
          -3.55140166e-03, -5.38124237e-03, -5.89865074e-03,
          -5.07224863e-03, -2.49540294e-03, -6.40229741e-03,
          -1.45500863e-03, -1.30952673e-03, -4.20590816e-03,
          -5.17406361e-03, 2.84188613e-03, -3.83926230e-03,
          -4.47071483e-03, -1.57851446e-03, 4.79975436e-03,
          -3.81807750e-03, -5.53463073e-03, -2.31573731e-03,
          3.35403974e-03, -2.89995247e-03, -5.40044112e-03,
          -4.17238101e-03, -1.47341611e-03, -6.05353713e-03,
          -2.06090393e-03, -3.69154988e-03, -3.77251231e-03,
          -6.35612349e-04, -3.37019120e-03, -2.63583940e-03,
          -3.68396030e-03, 7.59127317e-04, -2.41193338e-03,
          -1.99905410e-03, -7.20477803e-03, -4.92507918e-03,
          -3.89971305e-03, -2.76048644e-03, -2.39739544e-03,
          -3.29056731e-03, -1.94783148e-03, 1.46345620e-03,
          -3.97473574e-03, -9.44857858e-03, -1.03262188e-02,
          -5.69454301e-03, -2.20270525e-03, 8.20652640e-05,
          -1.32793933e-03, 1.66073372e-03, 4.27339895e-04,
          4.53621324e-04, -5.47731621e-03, -2.78725801e-03,
          -2.07838812e-03, -1.33607432e-03, -1.88495254e-03,
          -4.59313067e-03, -1.81508868e-03, 2.88507505e-03,
          -1.58181868e-03, -7.89582916e-03, -5.27867209e-03,
          -1.62236276e-03, -4.55920584e-03, -3.18867946e-03,
          -2.01075198e-03, -1.31628721e-03, -3.08336946e-03,
          -3.55167221e-03, -6.63264981e-03, -7.95169733e-03,
          -7.18390662e-03, -3.49844713e-03, -1.94776012e-03,
          -2.05183495e-03, -4.41850629e-03, 1.35313894e-03,
          -9.83193633e-04, -3.46045592e-03, -3.54577811e-03,
          -4.14109323e-03, 2.49227369e-03, -1.08793483e-03,
          -6.61260623e-04, -7.19516131e-04, 7.08821521e-04,
          -3.05522629e-03, -5.32176020e-03, -5.69478236e-03,
          9.35932389e-04, 5.27290069e-03, 1.87797577e-03, 4.08084225e-03,
          1.06823305e-03, 1.19206635e-02, -7.79500464e-04,
          -1.42174400e-03, -1.07955199e-03, 4.98993136e-03,
          -3.76209593e-03, -2.21234164e-03, -2.34285649e-03,
          -6.34738524e-03, -6.46488136e-03, -1.93185417e-03,
          -3.02637066e-03, -3.93353868e-03, -5.33184363e-03,
          -1.76371867e-03, 1.49957067e-03, 2.73668091e-03,
          1.08975591e-03, -2.91320495e-03, -3.20258224e-03,
          -3.60889337e-03, -3.89718520e-03, -4.77143656e-03,
          3.72083788e-03, -5.62492409e-04, -7.83879834e-04,
          -2.76379660e-03, -5.49336104e-03, -1.64249924e-03,
          -1.90167758e-03, -2.50109239e-03, 3.45130451e-03,
          9.54851042e-03, 7.24816509e-03, 5.17537212e-03, 5.55984816e-03,
          2.30094325e-03, -1.86253712e-03, -1.44258287e-04,
          -5.21101174e-04, 6.01959787e-03, -3.95859126e-03,
          1.11951202e-04, -1.48345571e-04, 8.56026716e-04,
          -4.78087086e-03, -3.20914201e-03, -4.27762186e-03,
          -4.95899795e-03, -5.30557754e-03, -5.59193874e-03,
          -5.64607442e-04, 1.02798303e-03, 3.46035510e-03,
          1.13488015e-04, 8.80416541e-04, -3.36429360e-03,
          -4.13118349e-03, -4.86783870e-03, 4.48274706e-03,
          2.21096375e-03, 1.92687439e-03, 1.48974499e-03,
          -4.83173272e-03, -3.70181701e-03, -1.86523411e-03,
          -3.18108033e-03, 4.04275442e-03, 2.78559583e-03,
          2.99662002e-04, 5.09070756e-04, 1.72166736e-03,
          -1.65169884e-03, 4.18813899e-03, 6.26764318e-04,
          -1.71815325e-03, 4.47027897e-03, -6.82412460e-03,
          -7.46238336e-04, 9.80813405e-04, 1.06389867e-03,
          -1.66225393e-04, -7.56155059e-04, -1.83462538e-03,
          -3.35559295e-03, -4.49127005e-03, -4.17870237e-03,
          -1.39530341e-03, 1.74120220e-03, -1.86128297e-03,
          9.44839965e-04, 9.16565012e-04, 1.25639525e-03,
          -2.56371754e-03, -3.42636998e-03, -2.30221238e-04,
          -7.74707296e-04, -1.45942834e-03, -4.33471752e-04,
          -1.22033432e-03, 3.70640866e-03, 3.33997095e-03,
          2.51805759e-03, 3.64044891e-03, 3.03573033e-04, 1.72005151e-03,
          2.23655906e-03, 1.44395512e-03, 4.45222468e-05, 5.00599574e-03,
          4.83390130e-03, 4.10301145e-03, 2.99746101e-03,
          -5.54848404e-04, -6.46186469e-04, 1.88114238e-04,
          -3.97480419e-03, 1.11091751e-04, 2.06443784e-03,
          5.16676437e-03, 1.90590508e-03, -1.77790679e-03,
          1.88808204e-04, 1.72687869e-03, 6.33666757e-04, 5.51026838e-04,
          3.09426850e-03, 2.48335092e-03, 3.36313690e-03, 1.70989882e-03,
          -9.54240822e-05, 3.46552755e-04, 2.89420015e-03,
          5.65393653e-04, -1.46618835e-03, 2.40461202e-04,
          3.30895791e-03, 3.75322951e-03, 2.70759081e-03,
          -5.89169736e-04, 6.08291826e-04, -3.20437306e-04,
          -4.43977537e-04, 2.66993092e-03, 1.57637266e-03,
          1.88413472e-03, 2.61410489e-03, 2.32762541e-03,
          -2.00609770e-03, 9.53429379e-04, 1.54640269e-03,
          1.43948046e-03, 2.57947692e-03, 2.08748761e-03, 1.86301046e-03,
          3.58697190e-03, 4.32577159e-04, -3.02361645e-04,
          2.37346441e-03, 1.26493687e-03, 8.33524624e-04,
          -4.31327499e-04, -2.32554553e-03, -3.68400622e-04,
          1.79756992e-03, 3.43224476e-03, 2.16521649e-03, 2.23819679e-03,
          -2.22220365e-03, 1.20075019e-04, 3.21801123e-03,
          3.01715243e-03, 4.22060816e-03, 4.00664005e-03, 4.76395013e-04,
          -2.83428421e-03, 2.52718362e-03, 1.05411687e-03,
          2.30354141e-03, 4.17729421e-03, 1.36442774e-03, 2.28600297e-03,
          2.63561145e-03, 4.84779215e-04, -8.84954818e-04,
          1.16963303e-04, -1.17561803e-03, -6.18316699e-04,
          -6.87657623e-04, -1.32526702e-03, -2.32706865e-04,
          1.91765884e-03, 4.95056296e-03, 2.94636982e-03,
          -2.49401107e-03, -2.92128441e-03, 7.41183292e-04,
          1.65760075e-03, 9.35412536e-04, 2.25072043e-04, 2.79175187e-03,
          3.44435638e-03, 2.52604688e-04, 2.25733942e-03, 3.70507594e-04,
          1.62339036e-03, 1.38125033e-03, 5.13003557e-04,
          -2.12418599e-04, -2.62467860e-04, -1.42834242e-03,
          7.13382324e-05, -1.04028464e-03, -4.74176020e-04,
          1.84388692e-03, 2.90749664e-03, -7.44293386e-04,
          -1.50930136e-03, -2.70395330e-03, -2.29450711e-03,
          -4.38293489e-03, -9.75634786e-04, -1.78567215e-03,
          1.89881038e-03, 3.58105078e-03, 1.41155045e-03, 1.04171585e-03,
          2.52703018e-03, 4.64897370e-03, 3.73723771e-04,
          -3.41950799e-03, -3.00097000e-03, -6.21776155e-04,
          1.39525847e-03, -2.98934570e-03, -1.12743757e-03,
          1.21486781e-03, 1.11830130e-03, -1.90710393e-03,
          -2.05727550e-03, -7.91827857e-04, 1.54779502e-03,
          3.91161069e-03, -8.79377243e-04, -2.62154220e-03,
          -3.52447224e-03, -1.58856541e-03, -3.92898917e-03,
          -7.40015833e-03, -6.94802077e-03, -1.42856746e-03,
          -1.80181128e-03, -6.09621033e-03, -5.07359626e-03,
          -1.49066106e-03, -7.72373693e-04, -3.29584233e-03,
          1.97796314e-03, 2.71418109e-03, 5.89205138e-03, 5.17301448e-03,
          2.09398940e-03, -1.96775561e-03, 2.15200940e-03,
          2.66950787e-03, 4.73053381e-03, -1.66791806e-03,
          -3.89977568e-03, -2.55215960e-03, -1.35123741e-03,
          -3.83149856e-03, -5.71085000e-03, -3.63023952e-03,
          -1.53589121e-03, 1.70337176e-03, -4.50391648e-03,
          -7.35111535e-03, -6.38169469e-04, -1.92260277e-03,
          -5.37786819e-03, -5.68661559e-03, 4.45804000e-03,
          3.32757831e-03, 1.28592481e-03, -5.72961289e-03,
          -9.52779222e-03, -4.41791769e-03, -3.43338167e-03,
          -5.68710454e-03, -5.09342505e-03, 1.13407022e-03,
          -1.40635786e-03, 7.32028973e-04, -1.31572897e-05,
          -3.70414928e-03, -1.61099271e-03, -6.15292520e-04,
          1.29434783e-02, -3.56599945e-03, -5.19419229e-03,
          -1.72178855e-03, 3.33913462e-03, -7.97993783e-03,
          -8.30570422e-03, -2.92112399e-03, -1.44525478e-03,
          -2.51571904e-03, 1.73418797e-04, -5.70742087e-03,
          -4.66188276e-03, -2.49716570e-03, -5.41613810e-03,
          -9.54648107e-03, -3.89916589e-03, -2.52911169e-03,
          6.65557990e-03, -4.04688669e-03, -2.36757169e-03,
          -1.85845187e-03, 1.53317198e-03, -9.99613851e-03,
          -1.11537362e-02, -5.23326034e-03, -2.68854992e-03,
          -3.40455648e-04, -4.79767239e-03, -6.46950258e-03,
          -3.86027480e-03, -3.75943305e-03, -5.48201334e-03,
          -2.35062139e-03, -3.07510071e-03, -1.45829434e-03,
          -1.34137250e-03, 6.37139194e-04, -2.10726657e-03,
          1.13213994e-03, -2.73707625e-03, -4.36308328e-03,
          -4.26325714e-03, -6.47992082e-03, -4.44031041e-03,
          2.10891850e-03, -8.95297853e-04, -4.72895941e-03,
          -1.46710593e-03, -4.07359144e-03, -8.27923790e-03,
          -5.07919490e-03, -3.82639514e-03, -2.35951878e-03,
          -3.90845723e-03, -3.41909064e-04, -2.78975978e-03,
          1.10865675e-03, -6.75805332e-03, -8.06166138e-03,
          -6.03850465e-03, -6.50302228e-03, -3.76005261e-03,
          1.63582936e-02, -9.03552515e-04, -3.40622989e-03,
          1.76835118e-03, -4.04068828e-03, -3.19420267e-03,
          -3.12668597e-03, -2.61337240e-03, -3.15332739e-03,
          -2.16387794e-03, -2.14151549e-03, -4.62623825e-03,
          -3.49869812e-03, -4.19909554e-03, -1.71381375e-03,
          -3.55536118e-03, -2.31579738e-03, 3.24669178e-04,
          1.98748987e-03, 8.84429901e-04, 8.87192844e-04, 2.80536292e-03,
          1.21093716e-03, -5.33689745e-03, -4.42498783e-03,
          -3.86481592e-03, -2.49233586e-03, -3.47762415e-03,
          -1.05830806e-03, -3.84403323e-03, -2.74994131e-03,
          -2.03173375e-03, -2.78309279e-04, 2.01700418e-03,
          4.82467422e-03, 6.34388253e-03, 6.15101354e-03, 4.13983921e-03,
          -3.44504457e-04, -2.37635002e-04, 1.52043137e-03,
          2.74349150e-04, -2.49698944e-03, -2.18079472e-03,
          -2.10724748e-03, -6.67947344e-03, -3.98041011e-05,
          -8.37267202e-04, 2.69801676e-04, 1.73726166e-03,
          2.66051874e-03, 3.40888929e-03, 2.24645343e-03, 7.86871416e-04,
          -2.67659198e-03, -6.65871601e-04, 5.38612076e-05,
          1.85411039e-03, 2.97319144e-03, -2.72481050e-03,
          -3.14074976e-04, 1.88390014e-03, 2.93568184e-04,
          -3.55196628e-03, 2.43278849e-03, 2.07387330e-03,
          1.00226817e-03, -6.29394432e-04, -6.98298274e-04,
          -9.02566302e-04, 4.22924990e-04, -6.69357425e-04,
          -2.40466511e-03, -2.77159945e-03, 4.55662329e-03,
          4.22993861e-03, 2.06186529e-03, 4.12388146e-03, 1.45782449e-03,
          1.07233005e-03, -1.26576493e-03, -4.99477098e-03,
          -3.46275256e-03, 2.80786684e-04, 3.48721020e-04,
          4.41412395e-03, 5.24551421e-03, 8.75484722e-04, 1.34056353e-03,
          1.30771764e-03, -1.84133556e-03, 2.91664246e-03,
          3.13682505e-03, 9.92046087e-04, 4.00160253e-03, 1.69384142e-03,
          -1.15588412e-03, -5.43082249e-04, -1.10800157e-03,
          -3.18826805e-03, -5.95114892e-03, 1.23673049e-03,
          1.19714614e-03, 1.13968807e-03, 3.94361839e-03,
          -5.79971704e-04, -9.73167713e-04, 1.47417712e-03,
          -4.18058690e-03, 1.34477892e-03, 2.90606287e-03,
          1.53582520e-03, 2.54178094e-03, 2.76657497e-03, 6.92788381e-05,
          6.20979918e-05, -8.20140820e-04, -1.52904307e-03,
          3.74662620e-03, 5.59719466e-03, 3.68054840e-03, 4.42982232e-03,
          -5.88147886e-05, 9.79144592e-04, 1.64048886e-03,
          -1.09171902e-03, -3.82417114e-03, 3.41180293e-03,
          5.44831157e-03, 4.15655784e-03, 2.72238557e-03, 9.48327594e-04,
          -9.13436816e-05, 1.77941940e-04, 1.26086478e-03,
          -2.23081000e-03, 2.74023949e-03, 1.40966091e-03,
          1.74049428e-03, 2.00358289e-03, -1.03717111e-03,
          2.42683943e-03, 2.36359821e-03, 5.04068332e-04,
          -3.09039745e-03, 2.70273327e-03, 2.17550993e-03,
          1.19428337e-03, -6.45496068e-04, -8.18681554e-04,
          3.69163905e-03, 2.91058817e-03, 4.97603498e-04,
          -4.96321591e-03, 3.16088158e-03, 5.92744956e-03,
          3.02639441e-03, 7.50387902e-04, -3.61262960e-03,
          -3.27952584e-04, -6.34196505e-04, 2.18014675e-03,
          -7.23698759e-04, 5.35790203e-03, 3.77997500e-03,
          1.12173590e-03, -3.60987172e-03, -6.03364722e-04,
          3.09731672e-03, 3.94660607e-03, 1.76694000e-03,
          -2.76799104e-03, 3.61543801e-03, 3.57743143e-03,
          2.29388569e-03, 7.75174994e-04, -2.15681549e-03,
          -2.45760777e-03, 4.38488525e-04, 8.66641290e-04,
          2.76743341e-03, 6.91131037e-03, 5.41558955e-03, 2.86231353e-03,
          -1.04265253e-03, -3.41421168e-04, -2.72384146e-03,
          -1.75248424e-04, 4.68015997e-03, 3.45601444e-03,
          5.51291648e-03, 2.97432858e-03, -3.62096849e-04,
          -4.32435609e-03, 4.36389149e-04, -6.77459466e-04,
          2.26309081e-03, 6.34827372e-03, 5.60220750e-03, 2.79336143e-03,
          3.96814343e-04, -6.86270476e-04, -2.58126529e-03,
          -2.88096583e-03, -3.66330380e-03, -9.47795888e-06,
          5.03507350e-03, 5.67503972e-03, 6.36770437e-03, 3.73798609e-03,
          8.99513077e-04, -2.54823593e-03, -1.33371016e-03,
          -1.08743866e-03, 1.54412864e-03, 6.47584861e-03,
          6.99441275e-03, 3.98075115e-03, 7.02312682e-04,
          -9.33138421e-04, -2.03592307e-03, 4.04864037e-03,
          2.76501314e-03, 3.41182994e-03, 5.24466578e-03, 2.67982879e-03,
          2.83046043e-03, 1.87463069e-03, 8.80489999e-04, 1.45960611e-03,
          2.04703119e-03, 3.21128080e-03, 3.15743499e-03, 4.04883828e-03,
          -5.84223133e-04, -9.33244068e-04, -2.45290226e-03,
          -5.66954666e-04, -3.02741281e-03, 1.27727014e-03,
          1.40165165e-03, 6.04291027e-03, 7.14184158e-03, 3.88155412e-03,
          1.42517558e-03, -1.00420543e-03, -2.52851401e-03,
          -5.57550928e-04, -1.42367836e-03, 1.83006807e-03,
          4.50056558e-03, 3.80144222e-03, 1.58809358e-03,
          -2.17321259e-03, -3.05752293e-03, -4.31885244e-03,
          -5.37788169e-03, 3.17067956e-03, 6.42840331e-03,
          6.55356189e-03, 9.32157785e-03, 4.66502551e-03, 2.55565997e-03,
          1.82684953e-03, 1.46764086e-03, -7.10857857e-04,
          -3.20829661e-03, -1.80154783e-03, 2.50098266e-04,
          -2.50813988e-04, -1.87025021e-03, -1.27567002e-03,
          2.09129602e-03, 1.46438170e-03, -2.16648122e-03,
          -1.91559049e-03, 2.58098240e-03, 4.93217027e-03,
          5.41812228e-03, 2.36030552e-03, 3.29643444e-05,
          -1.54911540e-03, -3.24706803e-03, -4.79215197e-03,
          -3.31140729e-03, -3.67991440e-03, -2.72199255e-03,
          -3.71021684e-03, -4.25179861e-03, -2.59808288e-03,
          7.44939956e-04, -4.94946679e-03, -8.49440973e-03,
          -1.57270674e-03, -1.50145439e-03, 2.64999620e-03,
          -2.43311166e-03, 1.51603110e-03, -3.61543451e-03,
          2.95386440e-03, 3.57887475e-03, 1.38999056e-03,
          -3.86872608e-03, -4.38449206e-03, -4.70753148e-04,
          -2.12099846e-03, 8.83023240e-05, -2.69896095e-03,
          2.17725523e-03, -1.72043315e-07, -4.74142056e-04,
          -1.53877900e-03, -1.35623920e-03, 3.26179201e-04,
          -5.80832781e-03, 5.46394661e-03, -2.45147105e-03,
          1.84578076e-03, -9.56991222e-04, -5.17669227e-03,
          -3.80667299e-03, 1.66093625e-04, 6.24709646e-04,
          -1.42061443e-03, 4.59201401e-03, 4.89551399e-04,
          1.91866723e-03, -1.87843258e-03, -5.83601370e-03,
          -6.00602198e-03, -4.26448043e-03, -2.85667414e-03,
          -3.32137570e-03, 5.03908470e-03, -5.19517576e-04,
          4.15614864e-04, -7.45116093e-04, -2.41208682e-03,
          -9.65004414e-03, -6.05241023e-03, -2.53573013e-03,
          -1.92894414e-03, -2.52731889e-03, -2.72277347e-03,
          -3.71990353e-03, -1.83723646e-03, -6.84041856e-03,
          -3.91189475e-03, -1.99920192e-04, -1.50880849e-04,
          -1.42372795e-03, 8.80564656e-03, 3.83118470e-03,
          1.99983921e-03, -3.04150302e-03, -6.52107317e-03,
          -7.71235768e-03, -5.63173462e-03, -1.79797690e-03,
          -1.85084727e-03, 1.16795243e-03, -2.21532257e-03,
          -5.19447727e-03, -1.06906984e-02, -1.25451665e-02,
          -5.85244130e-03, -4.82742582e-03, -3.40005010e-03,
          -7.59524235e-04, -3.35008861e-03, 1.23137666e-03,
          -2.41825962e-03, 2.92265392e-03, -2.57904455e-03,
          -5.16487798e-03, -5.53942146e-03, -4.40102164e-03,
          -1.56488502e-03, 4.27788822e-03, 1.46558357e-03,
          -1.01129897e-03, 5.04715042e-03, -1.56432285e-03,
          -7.74750300e-03, -5.23655675e-03, -3.86940851e-03,
          -1.56406581e-03, -7.08560459e-03, 2.57401587e-03,
          -3.31358844e-03, -8.87132948e-04, -8.19901377e-03,
          -6.24697888e-03, -6.51924545e-03, -5.65788336e-03,
          -3.20812361e-03, 7.21971365e-03, 7.65661243e-04,
          -1.79156428e-03, 1.73864610e-05, -5.92795527e-03,
          -4.14413447e-03, -5.29587455e-03, -3.14604654e-03,
          -2.60179373e-03, -2.37510540e-03, -2.78323598e-04,
          -3.14543117e-03, 7.53583561e-04, -1.26910571e-04,
          1.62336696e-03, -2.56850850e-03, 5.47527615e-03,
          3.93246301e-04, 5.50109101e-03, 7.06204795e-04,
          -1.04022049e-03, -7.02794525e-04, 4.73025674e-03,
          -5.41448686e-03, -6.14053709e-03, -3.87016474e-03,
          -3.67999473e-03, -2.98502459e-03, -9.34174110e-04,
          -3.35616409e-03, -3.35739274e-03, -4.65213228e-03,
          2.15460386e-04, -1.26961706e-04, 2.26984126e-03,
          1.19093282e-03, 1.74848700e-03, 6.63405692e-04,
          -1.48750993e-03, -5.93863288e-03, -1.64648739e-03,
          -8.77896382e-04, -5.37408225e-04, 4.50885901e-03,
          1.06597523e-04, -4.05296916e-04, 1.83885463e-03,
          3.96046368e-03, 2.82298331e-03, 3.49070993e-03, 1.76387170e-04,
          -4.74788278e-04, 1.26053125e-03, 1.83185074e-03,
          1.77673437e-03, -6.75181858e-04, 8.91590677e-03,
          8.78342893e-03, 3.70929111e-03, -1.64984749e-03,
          -2.51138536e-03, 1.63584482e-04, -1.85320748e-03,
          -3.56631912e-03, -7.08355394e-04, -2.66177976e-03,
          -4.85864468e-03, -9.41399659e-04, -1.63588347e-03,
          -6.05831621e-03, -4.25348477e-03, -1.26406457e-03,
          -3.03993979e-03, -1.55931218e-06, 2.24431581e-03,
          8.21334310e-04, 1.18925737e-03, -1.08741678e-03,
          -8.16343178e-04, -1.05117215e-03, 6.24997076e-04,
          -2.85057613e-05, -4.09107935e-03, 2.88074394e-03,
          9.47658147e-04, -9.34995420e-04, 2.54843151e-03,
          -2.10653467e-04, -1.88165030e-03, 1.70599006e-03,
          1.47713884e-03, 3.30817630e-03, 2.82637752e-03, 2.38944148e-03,
          4.64896765e-03, -1.84462464e-03, -6.24244614e-03,
          -5.05840313e-03, -2.38073710e-03, -3.52339819e-03,
          -3.00400564e-03, 6.38812548e-04, 1.03074091e-03,
          2.42910392e-04, 1.23759022e-03, -4.81410278e-03,
          -5.60406223e-03, -2.34254706e-03, -2.53601861e-03,
          -3.30159278e-03, -2.29208294e-04, 1.42437208e-03,
          3.12293763e-03, 2.75338138e-03, 2.94359867e-04,
          -2.25160643e-03, -1.12525991e-03, -3.45658301e-03,
          -5.17853710e-04, -1.26115873e-03, 1.99777703e-03,
          4.55330312e-03, 2.89326627e-03, 1.73634768e-03, 6.56496268e-04,
          1.42740831e-03, -1.08876557e-03, 2.02986109e-03,
          -3.04744346e-04, 2.12017028e-03, 4.73262044e-03,
          3.63156712e-03, -1.14312442e-03, -6.56684674e-03,
          -5.61337266e-03, -6.01554569e-03, -5.15585160e-03,
          -2.50244816e-03, 1.21908088e-03, 5.21209789e-03,
          4.01392253e-03, -1.19224284e-03, -4.61619813e-03,
          -2.63793091e-03, -4.70095128e-03, -2.29288801e-03,
          -3.13074654e-03, 1.43777567e-03, 4.51310305e-03,
          1.44866062e-03, -5.80179272e-04, 2.58719758e-03,
          2.04572757e-03, 4.12475725e-04, 2.61209439e-03, 1.37694646e-04,
          2.24314770e-03, 2.53942120e-03, -4.85303433e-04,
          -3.58565012e-03, 4.40952106e-04, 2.18416704e-03,
          3.98271764e-03, 3.47266276e-03, 1.12858636e-03, 2.67965789e-03,
          4.32160508e-04, -1.48732017e-03, -9.48246161e-04,
          -5.85101021e-04, -5.70362899e-04, -9.74424940e-04,
          -1.21430284e-03, -2.78900820e-03, 6.64254010e-04,
          1.49947137e-03, 4.12477006e-04, -2.00298522e-03,
          -3.68121918e-03, -7.94363616e-04, 6.75626725e-05,
          1.21885932e-04, 1.95019922e-04, 2.06970819e-03, 1.31421641e-03,
          -2.02794094e-03, -2.77969055e-03, -5.18117507e-04,
          6.19133748e-03, 5.74143976e-03, 3.60254827e-03, 1.77353120e-03,
          1.57501397e-03, 8.29368422e-04, -2.41495832e-03,
          -1.36416149e-03, 2.76714796e-03, 6.64890883e-03,
          6.36796793e-03, 2.53211567e-03, 1.81491545e-03, 2.31597427e-04,
          -1.03428669e-03, 9.53125069e-04, -2.39613908e-03,
          -9.48740519e-04, -3.04040100e-06, -6.73161529e-04,
          -5.57319261e-04, 9.24669985e-06, 1.10969413e-03,
          3.19599570e-03, -1.72997024e-04, 1.09541375e-04,
          1.41739985e-03, -4.83386306e-04, -9.53845622e-04,
          -3.65093729e-04, 8.88411771e-04, 1.85973570e-03,
          2.42907670e-03, -1.64356129e-03, 2.52431957e-03,
          7.25367619e-03, 7.66268512e-03, 4.47498169e-03, 8.43037211e-04,
          8.43241753e-04, -1.07913162e-03, -3.00277537e-03,
          -6.02937536e-03, 7.37782335e-04, 5.94663806e-03,
          5.35972510e-03, 2.28956435e-03, -2.39237002e-03,
          -1.78021414e-03, -6.61587901e-03, -7.88539834e-03,
          1.94436160e-03, 5.58400434e-03, 5.65963937e-03, 1.55417772e-03,
          8.77513783e-04, -2.23958952e-04, 1.71314506e-03,
          3.03688203e-03, 3.00695980e-03, -1.64044823e-03,
          9.37055971e-04, 2.76173186e-03, -6.72407274e-04,
          -1.22565345e-03, -2.45018816e-03, -1.58256257e-03,
          -1.82088651e-03, -3.15000233e-03, -8.03782837e-04,
          7.23272096e-03, 1.00987665e-02, 7.83145614e-03, 9.51800123e-03,
          1.04730448e-03, 2.12769746e-03, -4.18415759e-03,
          -3.71603691e-03, -2.30248854e-03, -8.82923661e-04,
          -3.47313005e-03, -3.43019911e-03, -6.64514606e-04,
          -2.40847794e-03, -9.29762376e-04, -6.84572896e-03,
          -6.82668760e-03, 3.01365345e-03, 1.42695045e-03,
          -4.17395931e-04, 4.95931949e-04, 8.71944241e-04,
          -1.51365192e-03, 9.35887219e-05, -1.04433880e-03,
          1.53123541e-03, 1.69143756e-03, 1.10770715e-03,
          -1.95087760e-03, -1.66015944e-03, -4.35910188e-03,
          -5.17199654e-03, -2.49172747e-03, -1.89213769e-03,
          2.51158548e-04, -4.05923434e-04, -3.43128602e-04,
          -2.11979053e-03, -4.16568154e-03, 1.35824736e-02,
          -2.46181386e-03, -8.01859074e-04, -5.04898280e-03,
          -6.12492859e-03, -2.68386933e-03, 1.57907314e-04,
          3.40846280e-04, -3.51157680e-04, 6.42971555e-03,
          -7.20140175e-04, -1.84087036e-03, -5.73189603e-03,
          -6.91509619e-03, 2.34230445e-03, 7.90294725e-04,
          -8.10261583e-04, -1.95506867e-03, -2.34534242e-03,
          -5.09435218e-03, -3.92496632e-03, -3.31576215e-03,
          8.31756566e-04, 3.87596927e-04, 1.77410129e-03, 1.18052925e-03,
          -8.00143403e-04, -7.77899870e-04, -1.41768879e-03,
          -6.70483103e-03, -6.38822699e-03, -3.21650179e-03,
          -1.39752438e-03, 3.42308963e-03, 6.12721196e-04,
          1.37063046e-03, 9.09896195e-03, 1.70820381e-03,
          -8.42983427e-05, -6.70797657e-03, -7.05983117e-03,
          -6.86120987e-03, -3.22992564e-03, 5.64714137e-04,
          8.99223320e-04, 1.21930346e-03, -2.08486896e-03,
          -5.94017329e-03, -1.33002158e-02, -1.32481251e-02,
          -1.47028244e-03, 2.75321421e-03, 3.81462113e-03,
          -7.37539027e-04, -1.78390520e-03, -2.35989457e-03,
          -5.92390914e-03, -6.62182691e-03, -6.10061269e-03,
          -9.21228714e-03, -3.06788064e-03, -1.75905079e-04,
          -3.15480540e-03, -2.91361543e-03, -2.84852344e-03,
          -6.55095885e-03, -1.13374516e-02, -1.18752401e-02,
          -3.33339279e-03, -4.55592107e-03, -3.98764713e-03,
          -3.10538802e-03, -8.05864390e-03, 3.09044891e-03,
          4.78052651e-04, 1.48773158e-03, -2.56291428e-03,
          -2.50013941e-03, -3.63200484e-03, -5.17505966e-03,
          -5.11461264e-03, -2.95034290e-04, 7.36224814e-04,
          1.13888213e-03, 4.04948043e-03, 6.02364773e-04,
          -1.99264800e-03, -5.89904049e-03, -7.27480371e-03,
          -8.84954445e-03, -1.38951680e-02, 5.81773988e-04,
          -1.01227383e-03, -9.62263366e-05, -1.31346402e-03,
          -4.41192556e-03, -5.50880842e-03, -9.73738544e-03,
          -8.89970735e-03, 7.46870693e-03, -3.56912939e-03,
          -2.30257772e-03, -1.21874677e-03, -3.19739431e-03,
          -2.31244648e-03, -3.44481925e-03, -4.14021872e-03,
          -2.77387886e-03, -7.80112285e-04, 5.84460329e-04,
          2.67316471e-04, -8.07188218e-04, -1.39305112e-03,
          6.76327106e-03, -5.03691490e-06, -2.10541650e-03,
          -1.03779382e-03, -7.75786233e-04, -1.20841153e-03,
          -4.10340214e-03, -6.45617722e-03, 5.00103971e-03,
          -3.52469645e-03, -3.81429587e-03, -4.63555334e-03,
          -3.89210926e-03, -1.33010047e-03, -2.23667431e-03,
          -3.62007035e-04, -6.99069176e-04, -2.62232334e-03,
          2.67854612e-03, -1.82386220e-03, -4.94262343e-03,
          -2.26239045e-03, -2.70547555e-03, -4.70844767e-04,
          -2.33504036e-03, -1.77737221e-03, 3.17123113e-03,
          5.33948978e-03, -6.51296868e-04, -1.50037580e-03,
          -3.91317019e-03, -4.53399494e-03, -1.58039015e-03,
          -2.65176944e-03, -5.02529554e-03, 6.87323976e-03,
          5.99575741e-03, -5.75396232e-03, -4.19887807e-03,
          -9.08744405e-04, 1.80571352e-03, -1.13876897e-03,
          8.51546414e-04, 3.84394848e-03, 1.21337045e-02, 2.25583976e-03,
          -3.67239933e-03, -4.78233257e-03, -5.50061511e-03,
          -5.27100777e-03, -2.57388223e-03, -3.35438619e-03,
          -2.76098377e-03, 4.48845094e-03, 1.98072172e-03,
          -7.02820858e-03, -6.97934302e-03, -4.33595758e-03,
          -5.60291810e-03, -5.76704973e-03, -5.30989096e-03,
          -1.86589162e-03, 3.79570690e-03, 4.42144275e-03,
          -6.96348911e-03, -5.30162640e-03, -8.93056626e-04,
          -3.90075776e-03, -6.44823443e-03, -3.24071916e-05,
          4.52932017e-03, 9.73325595e-03, 8.66435561e-03,
          -4.79274616e-03, -3.36567033e-03, -2.91136885e-03,
          -1.82601518e-03, -4.57263691e-03, 1.81587820e-03,
          6.23464258e-03, 1.40093593e-02, 2.89132423e-03,
          -8.39226879e-03, -7.77799496e-03, -6.95652887e-03,
          -9.14989598e-03, -9.87343490e-03, -4.41748137e-03,
          -3.97671916e-04, 2.84890993e-03, 1.83960737e-03,
          -6.18507015e-03, -7.53719872e-03, -5.26390458e-03,
          -6.73961313e-03, -6.54556463e-03, -2.69678603e-05,
          -1.08057121e-03, 2.57988181e-03, 5.19639021e-03,
          -5.07454202e-03, -6.06513908e-03, -3.83518846e-03,
          -7.17607886e-03, -6.02195738e-03, -7.20126205e-04,
          3.27344704e-03, 9.82325245e-03, 7.77444057e-03,
          -3.79854022e-03, -4.86023165e-03, -2.73299799e-03,
          -4.21354920e-03, -3.50880233e-04, 2.22648331e-03,
          7.40693090e-03, 9.40230209e-03, 2.11375256e-04,
          -6.29740162e-03, -6.01658830e-03, -3.47655569e-03,
          -5.67915244e-03, -7.23518245e-03, -1.37841329e-03,
          -2.55935639e-03, -1.47824676e-03, -3.68050591e-04,
          -3.83698242e-03, -4.14662715e-03, -1.64996681e-03,
          -5.46299946e-03, -2.60837725e-03, -1.09718193e-03,
          -2.49866094e-03, -3.36521235e-03, 2.48409621e-03,
          -1.50933373e-03, -2.57888157e-03, -2.06953054e-03,
          -4.47353302e-03, -9.17621830e-04, 1.70708937e-03,
          5.13879908e-03, 6.84892805e-03, 5.69059281e-03, 9.38316924e-04,
          -3.75752896e-03, -4.33829892e-03, -6.41695457e-03,
          -8.52383557e-04, 3.19491536e-03, 5.50049683e-03,
          8.36974289e-03, 1.08566985e-03, -1.64642371e-03,
          -2.19332450e-03, -2.10532709e-03, -7.25678680e-03,
          -1.36289024e-03, -2.37434360e-04, 1.17985508e-03,
          -8.31695943e-05, -1.12428039e-03, -3.47539200e-03,
          -3.11620440e-03, -5.71577623e-03, -1.14171989e-02,
          -2.90207821e-03, -1.27464096e-04, 1.75837672e-03,
          1.06940593e-03, 3.82404029e-03, -3.93378345e-04,
          -2.37317267e-03, -3.14271380e-03, -6.09028013e-03,
          -8.55110236e-04, 1.55022519e-03, 3.99603043e-03,
          7.34519074e-03, 3.86149925e-03, 1.64999929e-03, 2.12094164e-04,
          -3.43031413e-03, -4.51938156e-03, 3.88085435e-04,
          3.26433987e-03, 6.75084675e-03, 7.48672057e-03,
          -1.24648225e-03, -1.58122391e-03, -1.62153877e-03,
          -3.45054967e-03, -8.16371385e-03, -2.52184668e-03,
          -8.61886874e-05, 1.31749979e-03, 1.89974904e-03,
          -4.35267016e-03, -4.44320077e-03, -3.97566427e-03,
          -3.18520307e-03, -6.97716000e-03, -3.24676698e-03,
          7.14662077e-04, 2.55773519e-03, 7.14067952e-04, 6.95069227e-03,
          6.03028107e-03, 3.21935723e-03, 3.41577834e-04, 1.20401068e-03,
          -3.05430440e-04, 8.45774135e-04, 5.89701487e-03,
          1.06359469e-02, 2.80689984e-03, -6.47480716e-04,
          -2.95072701e-03, -6.12670789e-03, -4.66884347e-03,
          -3.32668494e-03, -9.63763800e-04, 1.34820060e-03,
          3.88203026e-03, -3.29394196e-03, -7.83987064e-03,
          -3.90910078e-03, -4.56202636e-03, -3.97629477e-03,
          -3.51273012e-03, -4.91282728e-04, 1.21853210e-03,
          2.48954864e-03, -5.93304262e-03, -9.36340541e-03,
          -9.21852700e-03, -1.02156391e-02, -9.96316504e-03,
          -5.42727625e-03, -3.15016136e-03, -1.60828093e-03,
          -6.48952322e-04, 1.06519228e-02, 1.04015879e-03,
          -1.67777733e-04, -4.77165170e-03, 1.21862963e-02,
          -2.70062382e-03, -1.13473600e-03, -1.71410851e-04,
          1.09533919e-02, 1.44651544e-03, -3.27346334e-03,
          -4.16356511e-03, -3.83335096e-03, -6.37478475e-03,
          -6.64541684e-03, -3.98745295e-03, -1.65899529e-03,
          3.79840145e-03, -6.77154353e-03, -6.97011687e-03,
          -5.32831531e-03, -8.05282034e-03, -2.83387868e-04,
          -3.30978935e-03, -2.96713854e-03, -1.83277391e-03,
          -1.27800042e-03, -8.95571988e-03, -8.43881629e-03,
          -9.86164808e-03, -8.37265607e-03, -9.63404123e-03,
          -6.75766403e-03, -3.96850705e-03, -3.68598034e-03,
          -4.27775085e-03, 4.53867577e-03, -1.74737070e-04,
          -7.51438958e-04, -4.15957969e-04, -5.01463562e-03,
          -4.72702086e-03, -4.13525570e-03, -1.58251962e-03,
          6.16732659e-03, 2.89589260e-03, 2.54811515e-04,
          -1.11701782e-03, -1.81175914e-04, -2.47118110e-03,
          -2.58464599e-03, -5.08368714e-03, -4.55389544e-03,
          -2.47896905e-03, -6.30893465e-03, -7.88952690e-03,
          -5.80762234e-03, -5.71281509e-03, -8.30478407e-03,
          -5.21356054e-03, -4.11237078e-03, -1.02886115e-03,
          -4.21627518e-03, -8.36255215e-03, -1.10881729e-02,
          -9.21741407e-03, -6.27497770e-03, -5.67333819e-03,
          -4.67106001e-03, -5.05132833e-03, -2.36309995e-03,
          -6.86299149e-03, 4.07051481e-03, 5.44101838e-03,
          2.00300431e-03, 2.61819293e-03, 1.34228740e-03, 4.06095263e-04,
          -3.45116016e-03, -1.51617476e-03, -2.23202212e-03,
          -5.28589357e-03, -1.95676903e-03, -7.14616908e-04,
          2.46158423e-04, 1.92560907e-03, -2.55593425e-03,
          -4.41939570e-03, -4.17337706e-03, -8.17805436e-03,
          -7.55458046e-03, -6.36225473e-03, -5.61676035e-03,
          -2.90253246e-03, -2.59741955e-03, -2.60718982e-03,
          -4.30746516e-03, -2.22874782e-03, -6.89790770e-03,
          -1.19005358e-02, -5.66344708e-03, -4.06501722e-03,
          -1.61826971e-03, -2.56049726e-03, -4.13431367e-03,
          -3.33326636e-03, -4.41252021e-03, -1.33348946e-02,
          3.92687740e-03, -5.39535703e-03, -7.46680750e-03,
          -7.52661051e-03, -1.08600771e-02, -1.02840585e-03,
          2.00626720e-03, 1.81881327e-03, 4.60490212e-03, 5.26401773e-03,
          -4.70812526e-03, -9.93541442e-03, -8.85423366e-03,
          5.98454336e-03, -4.11322759e-03, 8.65469978e-04,
          -4.32703731e-04, 5.26328012e-03, -4.51162038e-03,
          -9.28795151e-03, -9.17639397e-03, -7.60419900e-03,
          -1.47633329e-02, -5.99681213e-03, -7.11233029e-03,
          -4.87038074e-03, -3.18995072e-03, -4.40852018e-03,
          -1.07031725e-02, -1.24277491e-02, -1.04015777e-02,
          -2.03211023e-03, -8.96049291e-03, -9.59778856e-03,
          -1.16352970e-02, -3.38353915e-03, 4.76364419e-03,
          -3.58027755e-03, -4.68262797e-03, -5.14073810e-03,
          -3.13372188e-03, -3.03192274e-03, 6.71314192e-04,
          9.72879003e-04, 5.19243302e-03, 6.27086638e-03,
          -3.15250619e-03, -6.01307116e-03, -4.42381995e-03,
          -2.65109562e-03, 4.77016962e-04, -2.41745860e-04,
          2.22891010e-03, 9.22569260e-03, -3.07834940e-03,
          -8.17481522e-03, -9.23725870e-03, -7.70184165e-03,
          -8.87880195e-03, -6.32587448e-03, -7.09588593e-03,
          -8.69047549e-03, -2.54147220e-03, -2.21850141e-03,
          -6.94704801e-03, -9.42991953e-03, -6.41947845e-03,
          -1.02395145e-02, -2.98351981e-03, -3.21954768e-03,
          -2.18951353e-03, -1.58593908e-03, 5.84398117e-03,
          -3.87595361e-03, -6.19761273e-03, -7.65502360e-03,
          -2.18466739e-03, -2.64696428e-03, -8.69033043e-04,
          -7.17154820e-04, 9.30516142e-03, 4.77843219e-03,
          -7.61986338e-03, -5.52183622e-03, -8.14529601e-03,
          -9.29933414e-03, -7.43904151e-03, -4.45983233e-03,
          -2.68657948e-03, 6.94021396e-03, 3.72862443e-04,
          -5.20745339e-03, -6.45508012e-03, -6.88440492e-03,
          -6.46160264e-03, -3.10411165e-03, -1.73098559e-03,
          -2.92321714e-03, 6.44750107e-05, -3.01397685e-03,
          -9.62827355e-03, -6.23825705e-03, -1.04344608e-02,
          -1.30826384e-02, -7.62698939e-03, -6.15548575e-03,
          -7.58058857e-03, -3.36373434e-03, 9.61578917e-03,
          -6.28175586e-03, -5.30023128e-03, -6.12126756e-03,
          -6.69445330e-03, -6.19062502e-03, -2.38877768e-03,
          3.50091832e-05, 1.04745589e-02, 1.19786607e-02,
          -4.07412555e-03, -5.76005271e-03, -4.19939402e-03,
          -1.78817764e-03, -4.84674890e-03, 3.01174168e-03,
          -2.51329882e-04, 1.07069751e-02, -3.03546293e-03,
          -8.54285620e-03, -6.05503935e-03, -7.05245556e-03,
          -7.70395901e-03, -5.72428619e-03, -5.88028505e-03,
          -6.77019777e-03, -2.26859632e-03, -4.63509653e-03,
          -7.06601702e-03, -7.44666578e-03, -5.92415873e-03,
          -6.52892562e-03, -6.05977047e-03, -7.77517958e-03,
          -9.29228589e-03, -4.26258193e-03, 8.93048476e-03,
          -2.25080596e-03, -1.96647504e-03, -1.58965553e-03,
          -3.41751659e-03, -4.46009170e-03, 1.48282456e-03,
          -1.38661312e-03, 6.30685035e-03, 1.09773576e-02,
          1.79414998e-03, 2.13645911e-03, 9.73928254e-04,
          -6.36792611e-05, -1.48947153e-03, 2.50786822e-03,
          6.20345760e-04, 9.35989339e-03, -5.82422037e-03,
          -5.80075709e-03, -5.87902591e-03, -5.56292990e-03,
          -8.34625587e-03, -7.01264525e-03, -6.21088501e-03,
          -1.03928605e-02, -6.39493298e-03, -4.00919048e-03,
          -2.46198382e-03, -2.38589360e-03, -8.79788888e-04,
          -7.14780856e-03, -6.47481065e-03, -5.18379966e-03,
          -9.03725624e-03, -6.24582404e-03, 5.09912102e-03,
          2.50780699e-03, 1.72530895e-03, -1.83435238e-03,
          -2.76263547e-03, -3.74333560e-03, 3.51028255e-04,
          7.73753854e-04, 3.37667996e-03, 5.09486487e-03, 7.02338410e-04,
          3.56423506e-03, -5.05791046e-03, -1.09450880e-03,
          -5.67111280e-03, 1.38591183e-03, 5.23616700e-03,
          6.43811561e-03, -5.33867627e-03, 3.86924599e-04,
          1.51425519e-03, -2.33754585e-03, -1.02867754e-02,
          -7.29242060e-03, -5.22788428e-03, -5.06188860e-03,
          -7.58813927e-03, -5.94388321e-03, -4.11601184e-04,
          1.86376285e-03, -5.58451330e-03, -1.02748908e-02,
          -1.01685803e-02, -6.35351753e-03, -6.27464289e-03,
          -5.17731486e-03, 3.50094866e-03, 5.92628610e-04,
          2.48839823e-03, 1.53708248e-03, -2.20482401e-03,
          -4.18756716e-03, 2.58632004e-04, 1.14863587e-03,
          4.01303731e-03, 9.03472211e-03, -5.50245447e-03,
          -2.36868230e-03, -1.08131755e-03, -1.11881376e-03,
          -3.98398517e-03, 2.52603809e-03, 4.01890324e-03,
          1.51347723e-02, -6.69184141e-03, -1.73129619e-03,
          4.56704962e-04, -3.98899894e-03, -9.29667149e-03,
          -1.05262334e-02, -5.61760692e-03, -5.54590486e-03,
          -3.89828393e-03, -6.26472896e-03, -1.44480038e-02,
          -1.39714973e-02, -1.01291733e-02, -1.09828040e-02,
          -1.08958362e-02, -5.98290609e-03, -6.04073890e-03,
          -4.16712230e-03, 1.03587164e-02, -6.39191689e-03,
          8.75330006e-04, 1.08014140e-03, 9.94041190e-03,
          -5.84270980e-04, 2.50616483e-03, 7.11574359e-03,
          1.76183898e-02, 5.28786751e-03, -8.59029125e-03,
          -6.28727954e-03, -7.71613372e-03, 1.14906847e-03,
          -3.97668406e-03, 6.71488233e-04, 2.52645114e-03,
          9.30974633e-03, -4.60449932e-03, -1.43733304e-02,
          -1.23039186e-02, -9.12959129e-03, -5.85815497e-03,
          -8.62348732e-03, -4.02081572e-03, -4.33242507e-03,
          -2.44880933e-03, -5.43959206e-03, -1.31357173e-02,
          -1.29891606e-02, -1.03841703e-02, -7.93258939e-03,
          -8.44915118e-03, -4.63765254e-03, -6.94677047e-03,
          -4.99318400e-03, 3.33312689e-03, -6.17931597e-03,
          -3.78110097e-03, -4.51112771e-03, 7.44318869e-03,
          -2.93356972e-03, -1.16380292e-03, 4.20921569e-05,
          9.71814897e-03, -4.33007954e-04, -8.89867824e-03,
          -5.93103888e-03, -8.20131693e-03, -7.88372383e-03,
          -6.19017472e-03, -1.74922298e-03, -7.04381964e-04,
          6.93045417e-03, -4.60937619e-03, -1.07802060e-02,
          -8.86959210e-03, -6.44230936e-03, -5.31690335e-03,
          -6.61795866e-03, -4.21231613e-03, -4.54554148e-03,
          -3.16499709e-03, -7.99848419e-03, -1.17007634e-02,
          -1.08310897e-02, -1.13576110e-02, -1.13958186e-02,
          -8.29714164e-03, -5.48484595e-03, -5.16859489e-03,
          -5.37925400e-03, 1.81418995e-03, -4.22302634e-03,
          -4.40710224e-03, -3.75436014e-03, -4.38554958e-03,
          -3.67001886e-03, -9.36225231e-04, 1.50189304e-03,
          5.34256781e-03, 1.65297219e-03, -8.07414856e-03,
          -6.91007823e-03, -4.28401818e-03, -2.17899121e-03,
          -2.99291895e-03, -1.52608030e-03, 1.17483677e-03,
          3.42104048e-03, -6.63005142e-03, -8.99598561e-03,
          -9.01116244e-03, -8.29462241e-03, -1.00369090e-02,
          -6.90845121e-03, -4.00899583e-03, -3.64898168e-03,
          -4.94819786e-03, -8.83324165e-03, -1.15270605e-02,
          -8.92078318e-03, -6.35766238e-03, -7.39792222e-03,
          -5.35974232e-03, -4.76438366e-03, -4.04357631e-03,
          -6.43582502e-03, 3.01107671e-03, -3.46109597e-03,
          -3.91619653e-03, -1.51715463e-03, 2.40088557e-03,
          -8.38403823e-04, -3.12503567e-03, -8.64323170e-04,
          3.66818160e-03, -3.24399117e-03, -3.20479251e-03,
          -3.74399172e-03, -1.29438262e-03, 1.27330350e-04,
          -4.06343257e-03, -3.84238805e-03, -3.63621116e-03,
          -4.80209803e-03, -6.23645913e-03, -1.08921351e-02,
          -8.40246957e-03, -4.72996198e-03, -5.76716010e-03,
          -5.96549641e-03, -6.94867224e-03, -4.91122669e-03,
          -5.72641939e-03, -7.53783016e-03, -1.07274028e-02,
          -1.25589296e-02, -7.98812322e-03, -4.33630031e-03,
          -8.24203808e-03, -8.58527049e-03, -6.94083842e-03,
          -6.83624530e-03, 1.52894633e-03, -7.86053669e-03,
          -7.38127017e-03, -5.58357127e-03, -1.30160134e-02,
          -5.99437207e-03, -7.26032211e-03, -5.74096246e-03,
          2.84267147e-03, 4.21277108e-03, -8.67334288e-03,
          -7.97376502e-03, -7.91812781e-03, 9.01525654e-03,
          -7.96493329e-03, -1.18365455e-02, -1.04854740e-02,
          5.53327473e-03, -8.38638097e-03, -6.78038225e-03,
          -7.31304474e-03, -7.86839239e-03, -1.84288174e-02,
          -6.63709687e-03, -8.75094999e-03, -6.66119205e-03,
          -9.26589780e-03, -1.01187555e-02, -7.37015065e-03,
          -6.98296819e-03, -7.56024197e-03, -9.70863737e-03,
          -7.93395378e-03, -9.44184512e-03, -8.88801459e-03,
          -1.02818850e-02, 7.27374759e-03, -4.34436277e-03,
          -3.95670347e-03, -6.05356321e-03, -8.61029699e-03,
          -7.05267861e-03, -8.06074776e-03, -7.56072020e-03,
          8.51244014e-03, 5.41260187e-03, -1.39265181e-03,
          -2.86173564e-03, -4.24295757e-03, -8.35021585e-03,
          -2.34856550e-03, -1.86964899e-04, 5.27186086e-03,
          7.15350639e-03, -9.41624772e-03, -6.23590034e-03,
          -4.43014316e-03, -6.78187003e-03, -1.29917357e-02,
          -6.66998886e-03, -6.99447747e-03, -6.55410346e-03,
          -8.63087084e-03, -6.48617232e-03, -6.87963562e-03,
          -7.98310805e-03, -6.13818364e-03, -1.21261431e-02,
          -7.11363973e-03, -7.52117299e-03, -4.65713581e-03,
          -6.96268631e-03, 5.56717569e-04, -5.87988086e-03,
          -5.06909890e-03, -4.54473775e-03, -7.46764662e-03,
          -4.74544335e-03, -9.90728382e-04, 1.85568075e-04,
          1.10867212e-03, 4.93078073e-03, -6.77367486e-03,
          -6.03199005e-03, -9.57097113e-03, -1.18117258e-02,
          -8.75042193e-03, -5.95601695e-03, -5.45597076e-03,
          3.01050954e-03, -6.97177416e-03, -9.27240960e-03,
          -7.59144453e-03, -4.97910706e-03, -9.77143925e-03,
          -7.52106635e-03, -5.12452237e-03, -5.66989137e-03,
          -5.12289861e-03, -6.79918192e-03, -9.24230553e-03,
          -8.15836899e-03, -1.14121540e-02, -1.40929958e-02,
          -7.31048128e-03, -8.06808530e-04, -2.18641129e-03,
          -2.02336279e-03, 3.69311776e-03, -7.16698309e-03,
          -5.96645894e-03, -8.19506496e-03, -6.69555413e-03,
          -5.15967747e-03, -4.95621283e-03, -6.59180153e-03,
          2.36735935e-03, 1.43379380e-03, -4.42948379e-03,
          -5.41079184e-03, -6.91098813e-03, -7.80279608e-03,
          -4.63980297e-03, -5.19584073e-03, -9.55173932e-03,
          1.94058311e-03, -2.65237316e-03, -6.27291203e-03,
          -6.16544299e-03, -9.21299681e-03, -9.04998928e-03,
          -5.95988007e-03, -6.43590640e-04, -2.93304818e-03,
          -1.79906294e-03, -2.41150195e-03, -2.96247145e-03,
          -5.56896254e-03, -7.04327039e-03, -1.14268288e-02,
          -6.03648368e-03, -2.83136242e-03, -5.37143368e-03,
          -5.83573151e-03, 1.46499719e-03, -3.40640498e-03,
          -3.66088562e-03, -5.59210358e-03, -7.95146078e-03,
          -4.78134118e-03, -4.41838475e-03, -1.09215435e-02,
          7.12417605e-05, 6.01856736e-03, 1.66968428e-04, 1.42147241e-03,
          -1.39945652e-03, -8.18362366e-03, -5.63536258e-03,
          -4.19566780e-03, -1.07717142e-02, 3.02804983e-03,
          -3.43342335e-03, -2.12777616e-03, -3.53333703e-03,
          -6.45824848e-03, -9.86629352e-03, -4.77008987e-03,
          -5.48966508e-03, -7.04086805e-03, -6.88519469e-03,
          -5.57187619e-03, 1.71690437e-04, 1.89237623e-03,
          -2.97257002e-03, -1.07151074e-02, -4.98607801e-03,
          -7.39421370e-03, -9.70223173e-03, -8.53988063e-03,
          3.95346154e-03, 3.12793721e-03, 4.23373422e-03, 4.98862064e-04,
          -9.48380306e-03, -6.83442224e-03, -4.10508364e-03,
          -6.17143512e-03, -1.13446196e-03, 2.93360511e-03,
          2.22777337e-04, 2.80711986e-03, -1.57616450e-03,
          -1.21620204e-02, -8.60782154e-03, -4.60982649e-03,
          -6.07274892e-03, 1.54043140e-03, -7.79761700e-03,
          1.45181711e-03, 2.87781470e-03, -3.30122979e-03,
          -1.14927730e-02, -7.73700280e-03, -7.35320151e-03,
          -8.69069621e-03, -7.86853302e-03, -9.13177244e-03,
          -5.70919272e-03, -2.31192727e-03, -5.73937502e-03,
          -1.45398825e-02, -9.66428127e-03, -8.12106766e-03,
          -7.68352998e-03, -1.02791367e-02, 6.56769471e-03,
          4.19765292e-03, 5.60143497e-03, 5.80383372e-03,
          -5.57744224e-03, -7.35885417e-03, -3.17960978e-03,
          -4.29759594e-03, 6.13734359e-03, 6.94006076e-03,
          -1.02484208e-02, -1.21421088e-02, -8.27911403e-03,
          -9.48721915e-03, -9.58787184e-03, -6.85935793e-03,
          -7.28149246e-03, 8.99551716e-03, -5.85246040e-03,
          -4.92411386e-03, -3.81377549e-03, -4.25842823e-03,
          -1.38005512e-02, -1.01067908e-02, -6.92455284e-03,
          -6.11923961e-03, -6.15971256e-03, -9.47364420e-03,
          -8.63211229e-03, -1.12293139e-02, -1.13360621e-02,
          -1.65693574e-02, -1.17979757e-02, -1.06962807e-02,
          -1.03664473e-02, -8.62701982e-03, 1.09824752e-02,
          -1.24342330e-02, -1.21722147e-02, -8.81615840e-03,
          2.91533535e-03, -7.58428732e-03, -5.44752833e-03,
          -6.31163688e-03, 1.24730775e-02, 8.05935729e-03,
          -1.09651210e-02, -1.09892543e-02, -8.57705530e-03,
          -9.11260862e-03, -6.81960769e-03, -5.04991552e-03,
          -6.18365640e-03, 7.96799455e-03, -9.66341142e-03,
          -1.08161932e-02, -1.32565061e-02, -9.95212421e-03,
          -1.00732390e-02, -7.75570236e-03, -8.73166788e-03,
          -9.26295016e-03, -9.00769327e-03, -1.12293819e-02,
          -1.35513162e-02, -1.20067522e-02, -9.08766035e-03,
          -1.38147846e-02, -7.86928926e-03, -9.01207421e-03,
          -9.91708320e-03, -1.06376130e-02, 4.15826822e-03,
          -8.48167296e-03, -8.20678007e-03, -6.19011000e-03,
          -8.20144173e-03, -5.58496872e-03, -4.28726105e-03,
          -4.60171932e-03, 2.37179524e-03, 4.47195349e-03,
          -1.10443952e-02, -1.06507698e-02, -9.03979968e-03,
          -6.88793790e-03, -7.54084392e-03, -5.63786691e-03,
          -5.48509741e-03, 5.32092527e-03, -1.05316546e-02,
          -1.02374619e-02, -9.03725997e-03, -7.35766487e-03,
          -1.19521664e-02, -7.77692953e-03, -7.99311884e-03,
          -7.73026282e-03, -8.86547938e-03, -1.00087095e-02,
          -1.26086231e-02, -1.07371127e-02, -9.36925877e-03,
          -1.34513453e-02, -1.04428967e-02, -9.48187523e-03,
          -9.32198390e-03, -8.16079788e-03, 4.40281257e-03,
          -7.46272178e-03, -8.04744102e-03, -8.46898183e-03,
          -9.65994317e-03, -6.31242199e-03, -5.14798285e-03,
          -1.15779636e-03, 6.89770095e-03, 2.15832982e-03,
          -1.04288822e-02, -9.53186490e-03, -9.26837698e-03,
          -1.04632704e-02, -4.98976931e-03, -2.62699020e-03,
          -9.05529654e-04, 6.84655458e-03, -8.21477361e-03,
          -1.20460019e-02, -9.87042300e-03, -9.28040035e-03,
          -1.34084420e-02, -8.23267736e-03, -7.51371309e-03,
          -7.06058461e-03, -6.77593704e-03, -8.32789484e-03,
          -1.17935725e-02, -1.22253634e-02, -1.29684005e-02,
          -1.66337211e-02, -7.76321255e-03, -6.17354037e-03,
          -4.20478592e-03, -4.02410608e-03, 2.12118984e-03,
          -8.25441629e-03, -7.63900625e-03, -6.42828457e-03,
          -1.01579977e-02, -7.82197621e-03, -5.13108354e-03,
          -2.86492426e-03, 4.77011362e-03, 5.67230210e-03,
          -6.25566440e-03, -1.11284740e-02, -9.80516244e-03,
          -7.61077506e-03, -8.70413799e-03, -8.14955495e-03,
          -4.99940710e-03, 6.09458284e-03, -5.16706752e-03,
          -6.38751034e-03, -1.03793573e-02, -1.15720574e-02,
          -1.39652612e-02, -1.01387119e-02, -5.40199503e-03,
          -3.98146920e-03, -3.32457968e-03, -8.39594193e-03,
          -8.28029681e-03, -1.34940073e-02, -1.44684156e-02,
          -1.47396056e-02, -1.12143289e-02, -8.00811127e-03,
          -7.38704158e-03, -7.47744553e-03 ]
   decision_functions:
      -
         sv_count: 1
         rho: -8.3077340353482554e-01
         alpha: [ 1. ]
