%YAML:1.0
opencv_ml_svm:
   format: 3
   svmType: EPS_SVR
   kernel:
      type: LINEAR
   C: 1.0000000000000000e-02
   p: 1.0000000000000001e-01
   term_criteria: { epsilon:1.0000000000000000e-03, iterations:1000 }
   var_count: 4356
   sv_total: 1
   support_vectors:
      - [ -1.08980676e-02, -1.16793411e-02, -1.37835750e-02,
          -1.26445852e-02, -1.93657111e-02, -1.39545035e-02,
          -1.09978458e-02, -1.05132628e-02, -1.20616099e-02,
          -7.35486206e-03, -1.01537211e-02, -8.56318604e-03,
          -1.53209148e-02, -8.61949753e-03, -1.91002581e-02,
          -1.67360697e-02, -1.52327409e-02, -9.60603822e-03,
          -7.16654677e-03, -1.25545887e-02, -1.32426554e-02,
          -1.43405050e-02, -1.73115768e-02, -1.52424742e-02,
          -1.04227336e-02, -1.24569442e-02, -6.91694766e-03,
          1.22980066e-02, -8.40705261e-03, -2.99655064e-03,
          -1.03324233e-02, 5.25158271e-03, -1.57776847e-02,
          -1.12641910e-02, -1.11696078e-02, 8.59248079e-03,
          9.41749895e-04, -8.28696601e-03, -1.37487715e-02,
          -1.81663316e-02, -2.21316852e-02, -1.47903496e-02,
          -1.46191195e-02, -1.33272931e-02, -3.43894295e-04,
          6.23449031e-03, -4.46370989e-03, -9.72591061e-03,
          -1.53971622e-02, -3.31323966e-03, -1.30280033e-02,
          -1.19738728e-02, -1.10989697e-02, 1.96740171e-03,
          2.11400285e-04, -7.54428236e-03, -9.27787274e-03,
          -1.62672587e-02, -1.91179756e-02, -1.51192285e-02,
          -9.08301678e-03, -9.73258633e-03, 9.50905902e-04,
          1.07777352e-02, 1.66860619e-03, 2.80378223e-03,
          -6.48333831e-03, 5.96744334e-03, -1.30261462e-02,
          -7.71095930e-03, -7.73458788e-03, 1.03252372e-02,
          4.43487102e-03, -4.39543696e-03, -1.16817271e-02,
          -1.57358292e-02, -1.54148219e-02, -1.23525281e-02,
          -1.01491548e-02, -8.99042562e-03, 2.16430752e-04,
          6.96167676e-03, -7.40037416e-04, -7.16677820e-03,
          -1.32401129e-02, -1.59571283e-02, -1.69745181e-02,
          -1.44494632e-02, -8.89617577e-03, 5.29111829e-04,
          3.55745247e-03, -4.35495004e-03, -1.01802545e-02,
          -1.16927968e-02, -1.08295660e-02, -1.43562742e-02,
          -1.06934570e-02, -9.45717655e-03, 2.82624591e-04,
          6.33538514e-03, 7.90121127e-03, 4.70377319e-03,
          -9.96416929e-05, 2.78423354e-03, -1.14851967e-02,
          -1.05865542e-02, -9.20788199e-03, -3.84042272e-03,
          5.72335906e-03, -2.55995081e-03, -6.70423638e-03,
          -1.22809801e-02, -2.15954687e-02, -1.61514655e-02,
          -1.43466014e-02, -6.16717013e-03, 3.61327035e-03,
          1.11370943e-02, -1.64882699e-03, 1.72363152e-03,
          -7.21814111e-03, -2.52756625e-02, -1.87583808e-02,
          -1.50026437e-02, -5.43435803e-03, 7.75529025e-03,
          8.84547923e-03, 5.36315190e-03, -8.59452237e-04,
          -6.98975893e-03, -1.13027832e-02, -1.18904086e-02,
          -1.15717612e-02, -8.24752636e-03, -2.17552669e-03,
          1.11490786e-02, 8.68367031e-03, 6.08645007e-03, 5.40955644e-03,
          -7.19685620e-03, -1.09715173e-02, -1.02216695e-02,
          -3.34825995e-03, 1.07278873e-03, 1.09313549e-02,
          -2.70130206e-03, -1.41566363e-03, -6.24295417e-03,
          -2.23332793e-02, -1.56149603e-02, -9.99437738e-03,
          -3.57087492e-03, 9.08369385e-03, 1.66088250e-02,
          8.39645392e-04, -6.09848008e-04, -8.85934196e-03,
          -2.14778315e-02, -1.72336195e-02, -8.79809540e-03,
          -4.17670328e-03, 7.84547441e-03, 9.37206112e-03,
          3.78721557e-03, 1.57665217e-03, -5.23730589e-04,
          -1.50493123e-02, -1.30629586e-02, -8.00651591e-03,
          -1.50136498e-03, 2.85143428e-03, 4.66456357e-03,
          7.61693716e-03, 7.45695829e-03, -2.37407116e-03,
          -6.68588001e-03, -1.56267993e-02, -1.29469465e-02,
          -3.40361521e-03, 3.08686111e-04, 1.52934240e-02,
          7.27179786e-03, -1.64022273e-03, -1.15438923e-02,
          -2.44578905e-02, -1.33531997e-02, -8.92921723e-03,
          -3.29383905e-03, 1.05407992e-02, 1.69477146e-02,
          1.11278640e-02, -3.44063202e-03, -1.10186376e-02,
          -1.93533618e-02, -7.79114431e-03, -5.03316754e-03,
          1.78525120e-03, 1.03665804e-02, 4.05141013e-03, 8.65201652e-03,
          4.16436372e-03, -9.79170296e-03, -2.13743243e-02,
          -1.08628375e-02, -7.78147532e-03, -2.61196238e-03,
          -3.63008265e-04, 1.79873984e-02, 1.33500956e-02,
          1.20217272e-03, -4.43312572e-03, -1.61869563e-02,
          -6.00600615e-03, -8.89654330e-04, 7.00599805e-04,
          9.46900900e-03, 7.61438720e-03, 6.82311179e-03,
          -3.99736315e-03, -1.09329270e-02, -1.53035903e-02,
          -7.33875949e-03, 4.27444465e-03, 4.33769030e-03,
          1.29577750e-03, 7.80573301e-03, 7.87450559e-03, 4.53061704e-03,
          -6.26737531e-03, -1.81146115e-02, -7.63341645e-03,
          3.23660061e-04, -2.86396057e-03, -2.58027832e-03,
          5.78892836e-03, 1.22691542e-02, -1.50663219e-03,
          -7.62492046e-03, -1.31275468e-02, -8.26804340e-03,
          1.33152981e-03, 1.93230703e-03, 5.26671624e-03, 9.00547951e-03,
          9.17188264e-03, 2.61519849e-03, -3.16424971e-03,
          -1.08610699e-02, -5.10077551e-03, 1.24299305e-03,
          3.11767869e-03, 2.63539609e-03, 4.06284677e-03, 3.46495188e-03,
          1.55804143e-03, -3.81818530e-03, -1.65998451e-02,
          -7.79730268e-03, -1.30898296e-03, 2.82083498e-03,
          3.26432055e-04, 1.91605254e-03, 2.67167646e-03,
          -2.67326925e-03, -1.15055721e-02, -2.53399797e-02,
          -1.83611792e-02, -6.61540497e-03, 5.76906651e-03,
          2.31708982e-03, 3.00808344e-03, 8.89702607e-03, 4.25232528e-03,
          -3.25701805e-03, -1.11279823e-02, 2.22901790e-03,
          1.23948616e-04, 9.14614648e-03, 3.90436267e-03, 2.90382467e-03,
          5.06981462e-03, -1.20073918e-03, -1.23652071e-02,
          -1.80238467e-02, -7.30083650e-03, 3.68632353e-03,
          4.89526475e-03, 6.42880052e-03, 1.94374693e-03,
          -3.61897633e-03, -8.34233128e-03, -1.09685864e-02,
          -1.58466268e-02, -9.50265303e-03, 1.34706800e-03,
          1.11313537e-02, 4.42414964e-03, -4.77350364e-03,
          -9.00378264e-03, -1.48415817e-02, -1.39232203e-02,
          -1.30740022e-02, -1.22009162e-02, -2.57137627e-03,
          4.02269652e-03, -4.65646270e-04, -2.08999077e-03,
          2.36288086e-03, -5.34843793e-03, -8.43545608e-03,
          -6.27346942e-03, 6.94780191e-03, 6.90865656e-03,
          8.55015311e-03, 5.90468291e-04, -3.38098640e-03,
          -7.00770179e-03, -1.42581388e-02, -1.51147908e-02,
          -4.48099431e-03, -1.65812043e-03, -1.96319052e-05,
          2.83351983e-03, -1.78630278e-03, -1.07967423e-03,
          -6.47919206e-03, -1.25103053e-02, -1.37637556e-02,
          -2.12468044e-03, -8.73221084e-03, 2.06415728e-03,
          7.53102964e-03, -1.74563285e-03, -3.10931960e-03,
          -9.94167384e-03, -1.43688386e-02, -1.38714965e-02,
          -1.68463048e-02, -9.29742213e-03, -2.39429576e-03,
          1.72050577e-03, -2.39743898e-03, -2.77424324e-03,
          -6.14553224e-03, -1.52388811e-02, -1.40017821e-02,
          1.85469780e-02, 5.66829089e-03, 1.08346837e-02, 8.18330888e-03,
          -1.67960313e-03, -3.56070022e-03, -1.44253997e-02,
          -1.68440565e-02, -1.12066371e-02, -1.06425455e-03,
          1.93099643e-03, 3.92591208e-03, -9.81186167e-04,
          -3.57881864e-03, -6.49784831e-03, -1.08672185e-02,
          -1.48546202e-02, -1.51698589e-02, -6.11136528e-03,
          -6.10850379e-03, -2.90252827e-03, 3.61284474e-03,
          -2.47970200e-03, -1.21550970e-02, -1.38519136e-02,
          -1.57646444e-02, -1.68958474e-02, -1.74163748e-02,
          -1.40790371e-02, -9.38142184e-03, -1.07992981e-02,
          -1.37187513e-02, -1.87918439e-03, -1.37084126e-02,
          -1.14860460e-02, -1.09714577e-02, 2.89435219e-02,
          7.43078953e-03, 6.45912904e-03, 1.51090079e-03, 2.02773139e-03,
          -1.51709719e-02, -1.60317607e-02, -1.51948808e-02,
          -1.63200907e-02, -2.49735801e-03, -8.56397115e-03,
          -1.15767140e-02, -1.39908828e-02, -1.59742944e-02,
          -1.32170506e-02, -1.23128798e-02, -1.22116031e-02,
          -1.39835384e-02, -1.47786122e-02, -1.80973243e-02,
          -1.07044997e-02, -1.09158801e-02, -1.27958544e-02,
          -4.11878852e-03, -1.01383086e-02, -8.35927762e-03,
          -1.00862850e-02, -1.17020346e-02, -1.77048203e-02,
          -8.49087536e-03, -9.13638808e-03, -4.77725454e-03,
          -3.36638535e-03, -8.74837488e-03, -8.08590837e-03,
          -1.52337477e-02, -2.55834172e-03, -1.49931395e-02,
          -7.25386245e-03, -1.02704456e-02, -4.98577813e-03,
          1.38336392e-02, -8.74275702e-06, -2.24989466e-03,
          -9.64242779e-03, 2.99521373e-03, -1.54995751e-02,
          -3.80483828e-03, -5.75957587e-03, 1.16560506e-02,
          -3.38200270e-03, -8.17807019e-03, -9.45080910e-03,
          -1.37981428e-02, -2.32913774e-02, -1.33448616e-02,
          -7.64567638e-03, -6.79000374e-03, -4.22924431e-03,
          5.88793599e-04, -1.75703282e-03, -2.97105359e-03,
          -7.43204542e-03, -6.90355152e-03, -1.00714788e-02,
          -8.06587748e-03, -8.26960616e-03, 8.24051618e-04,
          4.42111457e-04, -1.74270640e-03, -8.12408235e-03,
          -1.36012612e-02, -2.23153941e-02, -1.23538356e-02,
          -5.10251895e-03, -2.09775264e-03, 2.42159655e-03,
          5.84364496e-03, 7.63239153e-03, 8.05569068e-03, 4.74935444e-03,
          5.93746221e-03, -7.58356042e-03, -1.07121812e-02,
          -7.14199664e-03, 4.99481149e-03, -2.97474302e-03,
          -3.78902955e-03, -7.23905535e-03, -1.02559263e-02,
          -1.21732559e-02, -1.24728121e-02, -9.69599560e-03,
          -1.06404210e-02, -4.14709654e-03, -2.64951284e-03,
          -7.34580215e-04, -2.40166881e-03, -1.62676268e-03,
          -4.13509458e-03, -1.12958420e-02, -7.92434067e-03,
          -9.28930007e-03, -6.68757269e-03, 1.15797564e-03,
          -8.26211821e-04, -5.91300661e-04, -4.84890770e-03,
          -9.03920271e-03, -1.13227610e-02, -1.31090796e-02,
          -1.11275436e-02, -2.46226060e-04, 4.86892601e-03,
          -1.16443005e-03, 3.88109079e-03, 2.31611845e-03,
          2.25539994e-03, -8.52318294e-03, -8.00018013e-03,
          -5.84163563e-03, 8.56633298e-04, 9.32264200e-04,
          2.43068021e-03, -1.10884698e-03, -3.53701808e-03,
          -1.16978893e-02, -7.33133452e-03, -6.25287695e-03,
          -8.86287075e-03, -6.73947297e-03, 4.92279744e-03,
          8.92833268e-05, 2.39256595e-04, 2.12921621e-03,
          -5.47477975e-03, -6.91349525e-03, -8.26218724e-03,
          -7.34347058e-03, -2.84054922e-03, 2.50956998e-03,
          -4.83017648e-03, -7.43803801e-04, 2.73562223e-03,
          -6.00353442e-03, -4.00727149e-03, -7.67559279e-04,
          -9.16955760e-04, 1.22575555e-03, -2.19286303e-04,
          -5.53513551e-03, 4.05909988e-04, 5.86723257e-03,
          1.93068851e-03, 1.70869258e-04, -6.95508765e-03,
          -3.53788119e-03, 4.94957389e-03, 6.59918273e-03,
          5.94952842e-03, 4.03008005e-03, 4.41706134e-03,
          -9.55164526e-03, -9.03493073e-03, -7.06739351e-03,
          -2.72842217e-03, 2.31267652e-03, -3.64118459e-04,
          1.73088768e-03, 7.67033314e-03, -2.03664624e-03,
          -9.89647955e-03, -7.32567953e-03, -5.51741803e-03,
          -4.86530317e-03, -2.92464276e-03, 3.01152421e-03,
          -3.42818955e-03, 5.47532167e-04, 5.12358220e-03,
          -1.99209526e-03, -3.26026883e-03, -4.39547142e-03,
          2.88813142e-03, 5.14463894e-03, -3.10677080e-03,
          -6.59479527e-03, 1.32704538e-03, 1.74067111e-03,
          1.71140395e-03, 5.78277977e-05, -4.61749686e-03,
          -7.08954316e-03, -5.57905063e-03, -3.65388871e-04,
          2.40950100e-03, 2.50777579e-03, -5.07989805e-03,
          -1.21922549e-02, -1.80437195e-03, 9.05262568e-05,
          -1.59669947e-03, -4.22708271e-03, 3.91766103e-03,
          3.19230836e-03, 5.77444094e-04, -2.14193435e-03,
          -6.25102594e-03, 6.16865885e-03, 5.19531639e-03,
          2.65755318e-03, 3.73532739e-03, -3.21654114e-03,
          -3.40015884e-03, 1.08712923e-03, -2.21425341e-03,
          -7.02761346e-03, 1.01639028e-03, -9.42548388e-04,
          -6.48955628e-03, -6.53002644e-03, 4.42729658e-03,
          2.76422390e-04, -2.04341224e-04, -4.41482803e-03,
          -3.12939100e-03, 8.16852320e-03, 5.82602248e-03,
          -3.24798777e-04, 6.75389171e-03, 1.50298898e-03,
          3.13808490e-03, -2.73789628e-03, -4.56567714e-03,
          -6.40368741e-03, -8.43914808e-04, 3.90586373e-03,
          3.63975088e-03, 3.62063805e-03, 7.63979449e-04, 4.87135258e-03,
          1.24955364e-03, -3.94777674e-03, -5.70264924e-03,
          3.36278143e-04, 3.78212309e-03, 3.87999648e-03, 1.25779060e-03,
          -1.49792188e-03, -3.29515920e-03, -5.20870509e-03,
          -6.73426175e-03, -5.86491590e-03, 2.05869297e-03,
          5.45023824e-04, -1.53008476e-03, -1.02729839e-03,
          -3.14533827e-03, 3.33513366e-03, 1.56663451e-03,
          -6.39676990e-04, -2.55496381e-03, -1.52152410e-04,
          1.23531162e-03, -3.20351333e-03, -4.70394269e-03,
          -1.76549784e-03, 4.97600110e-03, 3.55561916e-03,
          -3.40286293e-03, -4.21804935e-03, -9.07130598e-04,
          2.37568677e-03, 3.46333440e-03, -1.27567363e-03,
          -2.22840300e-03, 2.30727089e-03, 5.14500833e-04,
          -8.82028043e-03, -1.41683361e-02, -2.37096427e-03,
          1.81338482e-03, 8.42678302e-04, -7.56124675e-04,
          -3.57636856e-03, 3.82598769e-03, 5.65396575e-03,
          -8.70424701e-05, 1.78978383e-03, -1.00604387e-03,
          3.05845193e-03, -3.52320517e-03, -6.99853990e-03,
          -1.73034729e-03, -2.01441883e-03, 1.26418751e-03,
          -2.28328467e-03, -6.10259874e-03, -1.25186215e-03,
          4.33752284e-04, -2.76642828e-03, -5.09486068e-03,
          -2.78940448e-03, 2.19609425e-03, -4.07755189e-03,
          -6.83555845e-03, -3.71895777e-03, 4.90152370e-03,
          5.49048977e-03, 8.32726713e-04, -8.77831699e-05,
          -6.59629749e-03, -6.31212769e-03, -1.07113980e-02,
          -1.58075448e-02, -7.29023945e-03, -6.39761856e-04,
          -5.65098344e-06, -1.11936510e-03, -4.32908535e-03,
          -5.88318857e-04, -1.52841024e-03, -2.80089141e-03,
          -6.65706757e-04, -2.65524397e-03, 2.13465327e-03,
          2.49874382e-03, 4.62010037e-03, 2.33988394e-03,
          -2.67030695e-03, -7.11145159e-03, -1.13512408e-02,
          -1.46091115e-02, -1.48382527e-03, -1.45714928e-03,
          2.83466163e-03, -6.23863772e-04, 1.73368305e-03,
          -6.94112852e-03, -8.98468308e-03, -1.16868373e-02,
          -1.49121396e-02, 4.72652167e-03, 7.75768748e-03,
          6.97667245e-03, 1.09281333e-03, -5.65703725e-03,
          -1.25783402e-02, -1.47857657e-02, -1.36524867e-02,
          -1.02111287e-02, 6.61582511e-04, 5.81666688e-03,
          2.75503262e-03, -5.41907456e-03, -1.55418077e-02,
          -4.02988587e-03, -4.79739998e-03, -7.35227438e-03,
          -1.33802686e-02, 4.74973023e-03, 7.73955788e-03,
          1.43926861e-02, 5.24131302e-03, 3.47311213e-03,
          -1.17449258e-02, -8.89822841e-03, -9.13045648e-03,
          -8.20312928e-03, -4.39715339e-03, 6.10098895e-03,
          1.01232873e-02, 2.15460546e-03, -8.87733046e-03,
          -1.37368198e-02, -1.40042603e-02, -1.23501420e-02,
          -1.13180056e-02, 1.51828500e-02, 6.90885214e-03,
          3.74626805e-04, -8.22672248e-03, -1.61659010e-02,
          -1.87505260e-02, -1.29762441e-02, -1.21457046e-02,
          -1.61375608e-02, -8.10742751e-03, -8.98311101e-03,
          -1.06656747e-02, -1.58098787e-02, -1.97886471e-02,
          -9.76794958e-03, -8.68722610e-03, -7.63794500e-03,
          -7.95394834e-03, 1.54063040e-02, 1.87289435e-02,
          1.46942167e-02, 2.18404690e-03, -3.85492481e-03,
          -1.53560145e-02, -1.14890970e-02, -1.00184511e-02,
          -1.83661021e-02, -6.72793901e-03, -5.26137231e-03,
          -8.19676835e-03, -1.13100307e-02, -1.56348217e-02,
          -1.47081725e-02, -1.19229043e-02, -1.12146139e-02,
          -1.44568831e-02, -6.38170680e-03, -1.22956168e-02,
          -1.02788247e-02, -1.14186397e-02, -1.30272917e-02,
          -4.63763997e-03, -6.47625560e-03, -6.90010563e-03,
          -1.25983292e-02, -7.28222867e-03, -1.64485127e-02,
          -1.25224395e-02, -9.41626355e-03, -8.32137931e-03,
          -1.28223756e-02, -1.03169065e-02, -6.17715437e-03,
          -6.87339203e-03, -6.07202528e-03, -1.45077836e-02,
          -1.19700842e-02, -1.19786290e-02, -1.29283341e-02,
          8.12642626e-04, 4.36342583e-04, 7.32138474e-03, 8.65821633e-03,
          4.21201298e-03, -9.93536692e-03, -1.01742428e-02,
          -1.00230360e-02, -4.80444124e-03, -5.88201918e-03,
          -4.53230925e-03, -5.48056420e-03, -1.09245582e-02,
          -2.11823154e-02, -1.16207618e-02, -6.73697377e-03,
          -3.87031282e-03, -5.27928164e-03, -6.93287747e-03,
          -3.23437946e-03, 6.04835164e-04, 9.07108479e-04,
          9.16275836e-04, -1.15045430e-02, -1.23022050e-02,
          -8.95587076e-03, -5.61073190e-03, -1.23753518e-04,
          -2.02901335e-03, 7.19079096e-03, 7.50072577e-05,
          -1.37636606e-02, -8.71874392e-03, -8.04929156e-03,
          -7.29000894e-03, -4.61919140e-03, -2.64423969e-03,
          4.08302480e-03, 9.86161176e-03, 4.93300566e-03, 1.75312767e-03,
          -5.31971920e-03, -7.76421418e-03, -5.51635446e-03,
          -4.38605435e-03, -5.98155474e-03, -9.07509879e-04,
          2.96645332e-03, 3.39956023e-03, -4.33450518e-03,
          -7.75077473e-03, -1.06220115e-02, -7.13023264e-03,
          -7.76572758e-03, -4.17163456e-03, -5.86363999e-03,
          6.14424795e-03, 7.22775143e-03, 2.50866101e-03,
          -3.61853512e-03, -6.81750197e-03, -3.39592807e-03,
          -5.51546691e-03, -2.42201309e-03, 2.00323644e-03,
          4.15751105e-03, 4.50564036e-03, -5.12103643e-03,
          -8.03676713e-03, -1.01543665e-02, -7.89802149e-03,
          -6.18929556e-03, 1.95675786e-03, -4.88790264e-03,
          2.21577240e-03, 2.75853509e-03, 4.46347613e-03,
          -4.96243499e-03, -5.78535302e-03, -8.10527056e-03,
          -3.66018061e-03, -4.27836180e-03, -8.30015168e-03,
          -3.00430082e-04, 4.17003874e-03, -6.69196388e-03,
          -1.09746424e-03, -3.87108140e-03, -2.38323817e-03,
          -4.74387687e-03, -5.56416437e-03, -6.28063176e-03,
          -2.12474144e-03, 3.30690946e-03, -1.10163866e-03,
          4.36590146e-03, -1.89773156e-03, -6.17201440e-03,
          -7.44668907e-03, 2.90873251e-03, -4.52801578e-05,
          4.01477446e-04, 2.03329866e-04, -5.19982772e-03,
          -2.97364732e-03, -5.40238665e-03, -5.66040771e-03,
          -4.88201668e-03, 8.18669423e-03, 3.75994737e-03,
          -3.91512411e-03, 7.63595745e-04, -2.14111083e-03,
          2.43051723e-03, 2.58886069e-03, 5.57820254e-04, 7.52012187e-04,
          -7.95082003e-03, -3.75769287e-03, -1.04042504e-03,
          4.36216639e-03, -1.43344200e-03, 3.42692295e-03,
          3.47827980e-03, -2.14644102e-03, -7.48406956e-03,
          -1.14512052e-02, -8.80847499e-03, -1.98415178e-03,
          -4.87270160e-03, -5.10544190e-03, 3.36730707e-04,
          -1.63598987e-03, -6.62098546e-03, -1.11477450e-02,
          -1.04667561e-03, 3.61441285e-04, -4.52850101e-04,
          3.44992010e-03, -1.58698286e-03, 7.70712458e-03,
          8.81610345e-03, 4.05825302e-03, -3.22263897e-03,
          -1.04233893e-02, -6.24630181e-03, -4.99495538e-03,
          -5.84856700e-03, 9.94690415e-03, 6.02127332e-03,
          6.35956600e-03, 2.39592581e-03, -8.69729556e-03,
          -5.95957739e-03, -3.48346611e-03, -1.13048893e-03,
          -5.48432767e-03, -8.00666772e-03, 1.73837529e-03,
          -1.24215719e-03, -7.49698840e-03, -8.49735457e-03,
          -9.69195331e-04, 8.71845346e-04, -2.17995862e-03,
          -6.51390245e-03, -5.24430908e-03, 9.47709568e-03,
          2.79706973e-03, -4.50525526e-03, -3.19844636e-04,
          -2.86957761e-03, 1.43719197e-03, 3.12679703e-03,
          -4.23692353e-03, 1.78687938e-03, 4.84321499e-03,
          1.89256051e-03, -1.41322101e-03, -6.55779568e-03,
          7.72247603e-03, 1.07075004e-02, 7.01278588e-03,
          -1.36311701e-03, -1.11299602e-03, 5.53129474e-03,
          5.79468207e-03, 9.52697243e-04, 2.32889342e-05,
          -2.09970443e-04, 2.47372338e-03, 1.55963644e-04,
          -4.41594003e-03, -4.71791439e-03, 7.27474270e-03,
          3.97624960e-03, 1.12124230e-03, 4.31900332e-03,
          -3.38600506e-03, 3.27307591e-03, 4.16640192e-03,
          -2.71875691e-03, -4.84387577e-03, 1.26042811e-04,
          1.57907011e-03, -2.19433242e-03, -3.07468930e-03,
          2.38470943e-03, 8.74449778e-03, 3.83395306e-03,
          -3.19998246e-03, -5.60443196e-03, 2.66809831e-03,
          6.44567469e-03, 3.92517075e-03, 5.25494223e-04,
          -4.80238069e-03, 1.75400544e-03, 2.02580704e-03,
          -4.03293781e-03, -6.32464653e-03, 2.45819846e-03,
          4.85295057e-03, 5.55972476e-03, -6.28856383e-03,
          -7.77906645e-03, 2.88047129e-03, 8.81743338e-03,
          2.57627363e-03, -1.84229715e-03, 7.76751433e-04,
          1.97049420e-04, -2.71048397e-03, -8.32021330e-03,
          -5.21982694e-03, 1.92805880e-03, 4.82335920e-03,
          2.52947025e-03, -5.47365169e-04, 1.06881256e-03,
          -8.26407806e-04, -2.51862279e-04, -6.03908626e-03,
          -8.84639286e-03, -1.02284166e-03, 3.39172757e-03,
          2.26290314e-03, -1.31892273e-03, 7.93952495e-03,
          5.15081035e-03, 3.35439458e-03, -6.25301478e-03,
          -6.40520826e-03, 3.64192791e-04, 1.40045013e-03,
          6.42411690e-03, 2.19603844e-05, 3.78058641e-03, 5.19167865e-04,
          1.75203918e-03, -6.21807249e-03, -1.55776506e-03,
          1.80126878e-03, -2.78015214e-04, 1.02120545e-03,
          6.42669911e-04, 3.45383742e-04, 1.23669556e-03, 1.01264461e-03,
          -2.77160958e-04, -1.78754318e-03, -5.66774746e-03,
          -8.05598777e-03, -1.32530304e-02, -4.89753904e-03,
          -3.49271880e-03, 3.88827804e-03, 2.78258114e-03,
          6.36510842e-04, 1.08099671e-03, 3.19822901e-03, 2.90567335e-03,
          4.32515889e-03, 4.13133967e-04, 4.28941706e-03, 6.25772076e-03,
          6.25356426e-03, 4.00456229e-05, -1.39900320e-03,
          -7.89844780e-04, -3.85842170e-03, -9.11588967e-03,
          -2.68338039e-03, -4.91840020e-03, 5.18797198e-03,
          9.25401971e-03, 2.47164094e-03, -3.90652753e-03,
          -1.04351146e-02, -9.85900685e-03, -1.17612155e-02,
          -1.08324841e-03, -2.06730154e-04, 5.20544453e-03,
          3.08522326e-03, 1.26994262e-03, -5.88924205e-03,
          -7.42510846e-03, -6.68015191e-03, -7.70389428e-03,
          -8.25696066e-03, 3.85441096e-03, 3.77568090e-03,
          3.04292468e-03, -4.59994236e-03, -6.13073644e-04,
          -5.78717701e-03, -6.11005025e-03, -3.08599649e-03,
          1.07144462e-02, -1.20912248e-03, 4.19226103e-03,
          7.34318141e-03, 1.79752160e-03, -4.54024272e-03,
          -1.03471549e-02, -7.65064545e-03, -8.51429440e-03,
          -6.17125817e-03, -1.01498712e-03, -5.02400985e-03,
          -2.75950390e-03, -4.69892612e-03, -9.35194083e-03,
          -6.57209614e-03, -5.13084373e-03, -5.10428939e-03,
          4.70185652e-03, 1.34913642e-02, 5.37949335e-03,
          -2.52182153e-03, -7.03506637e-03, -1.74361914e-02,
          -1.32807232e-02, -9.47421044e-03, -1.97386499e-02,
          -1.15618724e-02, -4.97929472e-03, -2.40414916e-03,
          -1.16758300e-02, -1.78681985e-02, -3.14476271e-03,
          -8.94548837e-03, -8.09451193e-03, -4.26117890e-03,
          1.00517198e-02, 9.39127896e-03, -2.54894490e-03,
          -4.66435403e-03, -1.60513620e-03, -1.52662024e-02,
          -1.51664810e-02, -1.19790398e-02, -1.95468720e-02,
          -9.68976412e-03, -3.54890339e-03, -3.44424113e-03,
          -1.35603184e-02, -1.49763562e-02, -1.34939374e-02,
          -1.23078609e-02, -6.50232425e-03, -6.66002836e-03,
          -7.14719063e-03, -1.17623266e-02, -1.08208843e-02,
          -1.20740905e-02, -1.31316651e-02, -1.14373304e-02,
          -4.99511836e-03, 3.43939918e-03, 4.44678683e-03,
          3.79240303e-03, -8.59452994e-04, -5.05002774e-03,
          -1.08474623e-02, -1.48162525e-02, -1.34601546e-02,
          -1.78078040e-02, -1.32401353e-02, -9.25688818e-03,
          -5.22653339e-03, -7.92666338e-03, -7.86335859e-03,
          -7.83134624e-03, -1.10129248e-02, -9.07824934e-03,
          -1.00117605e-02, -2.62931897e-03, -6.17424899e-04,
          1.32245068e-02, 3.95281566e-03, -1.63370068e-03,
          -6.16299221e-03, -5.07570663e-03, -9.00481921e-03,
          -2.14887504e-03, 3.69216083e-03, -5.98094543e-04,
          -6.89718639e-03, -2.17818841e-03, -4.89812763e-03,
          -9.52567067e-03, -1.35631533e-02, -1.13173537e-02,
          -1.09234627e-03, 4.25080815e-03, 5.12085995e-03,
          3.59739386e-03, -3.93264135e-03, -6.62797829e-03,
          -1.00763869e-02, -1.50173111e-02, -6.42483355e-03,
          -8.11158679e-03, -4.99917753e-03, -9.06505738e-04,
          -2.23686663e-03, 3.88296670e-04, -7.27372171e-05,
          -6.34538475e-03, -6.14580512e-03, -5.76169929e-03,
          -1.65234914e-03, 1.44119700e-03, 5.34606678e-03,
          1.60123277e-02, 1.41568002e-04, -9.78023978e-04,
          -4.13601426e-03, -8.65869783e-03, -5.13831014e-03,
          1.07946561e-03, 4.92686499e-03, 6.33286173e-03, 3.40804295e-03,
          -3.95829463e-03, -7.02136056e-03, -8.84742942e-03,
          -1.02653978e-02, -6.42591901e-03, 2.92751379e-03,
          4.39687772e-03, 6.26633642e-03, 3.93748051e-03,
          -4.58067935e-03, -4.38577216e-03, -1.00168698e-02,
          -7.70570943e-03, -2.83939810e-03, 2.51829531e-03,
          7.58429430e-03, 4.95947339e-03, 8.96830950e-03, 1.75218715e-03,
          6.23556145e-04, -2.52451468e-03, -5.80358738e-03,
          -5.25878929e-03, -1.65579328e-03, 4.15064162e-03,
          -3.80855938e-03, -3.59413307e-03, -4.45904414e-04,
          1.29962026e-03, -2.66042538e-03, -1.00593669e-02,
          -4.17055283e-03, 4.44938103e-03, 2.15502898e-03,
          -5.73828511e-05, -5.91790769e-03, -4.64687543e-03,
          -2.70706788e-03, -6.22380804e-03, -8.68886337e-03,
          6.97384996e-04, 3.36686824e-03, 3.41971777e-03, 4.11758432e-03,
          4.20721008e-05, 2.46819039e-03, 4.27714270e-03, 3.15334904e-03,
          -3.68453050e-03, -5.78104518e-03, -5.87005343e-04,
          8.96311030e-06, -4.73119458e-03, -1.02465441e-02,
          -3.46904015e-03, 5.70237135e-05, -2.48054415e-03,
          -1.14997094e-02, -2.29130988e-03, 5.84411900e-04,
          5.61121013e-03, 3.23048583e-03, 2.79659755e-03, 3.14622629e-03,
          3.84562765e-03, 1.28055282e-03, -6.23961166e-03,
          -4.06930596e-03, -2.01152684e-03, -5.21611539e-04,
          3.35021969e-03, -2.79130274e-03, 2.19799019e-03,
          2.06301105e-03, 3.76478676e-03, -4.10877075e-03,
          -9.24522895e-03, -5.87667432e-03, -2.20302143e-03,
          -4.32054559e-03, 3.21249734e-03, 4.68767295e-03,
          5.67406882e-03, 1.27531576e-03, -7.84703437e-03,
          -3.68270325e-04, -1.77223689e-03, -9.96887218e-04,
          -4.94427455e-04, -2.79038656e-03, 2.39849347e-03,
          4.03658301e-03, 3.65086808e-03, 7.91664526e-04,
          -1.42590876e-03, -3.97705194e-03, -2.64692516e-03,
          -3.52791767e-03, 3.73112760e-03, 3.66630475e-03,
          8.30546673e-03, 3.82485869e-03, 1.60627894e-03,
          -2.24121221e-04, 1.99890928e-03, 1.17604516e-03,
          -4.25401237e-03, 1.00230728e-03, 6.76789181e-03,
          4.46350314e-03, 5.01550443e-04, -2.21837731e-03,
          3.26504209e-03, 7.33384024e-03, 6.01329468e-03, 5.62434361e-05,
          -2.89337290e-03, 1.30559795e-03, 3.03176371e-03,
          1.04325346e-03, -1.16267963e-03, 1.41997077e-03,
          2.63099303e-03, 9.17832192e-04, -4.56354674e-03,
          1.02713017e-03, 2.70322035e-03, 5.10617206e-03, 9.83588747e-04,
          1.03564176e-03, 1.23728323e-03, 1.48704904e-03, 5.97529532e-03,
          -1.43018574e-03, -7.18615623e-03, -6.80379802e-04,
          7.85737007e-04, 1.76643522e-03, -2.75152246e-03,
          1.08908280e-03, 7.27943890e-03, 8.29164125e-03, 9.12750547e-04,
          -8.59034015e-04, 2.23701441e-04, 2.34306464e-03,
          3.56822088e-03, -4.05149767e-04, -6.64024195e-03,
          -4.76392655e-04, 1.61909196e-03, -1.64460822e-03,
          -1.61830476e-03, 2.42039398e-03, 5.36443992e-03,
          7.28802849e-03, -6.31396845e-03, 2.92393868e-03,
          3.94536229e-03, 1.02204708e-02, 1.97630026e-03,
          -1.26637833e-03, 1.07258512e-03, -7.05100247e-04,
          1.07543357e-03, 2.02722428e-03, -3.30809737e-03,
          2.37858109e-03, 5.17811626e-03, -1.23582000e-03,
          -1.16830261e-03, 8.82483961e-04, 2.83811853e-04,
          2.10495642e-03, 7.21114280e-04, -8.84403940e-03,
          -2.89587281e-03, -1.97807909e-04, 2.84297857e-04,
          2.40392308e-03, 7.88547844e-03, 5.36520500e-03, 2.42852862e-03,
          -8.60889908e-03, -7.62279797e-03, -3.47312912e-03,
          2.19324790e-03, 9.94415954e-03, 2.98194401e-03, 6.95910072e-03,
          1.59865664e-03, -8.27401120e-04, -8.14806484e-03,
          -7.42864935e-03, -8.15831183e-04, 2.68637505e-03,
          1.77517091e-03, 1.58611627e-03, 5.14016626e-03, 2.60623987e-03,
          1.92667835e-03, -3.57196899e-03, -8.14788323e-03,
          -4.21933411e-03, 2.79727229e-03, 6.99129188e-03,
          1.54339860e-03, 5.29953558e-03, -1.63559732e-03,
          -1.58632558e-03, -6.16272865e-03, -3.14849685e-03,
          -1.03236735e-03, 2.54575582e-03, 6.25154749e-03,
          2.31334561e-05, 1.04349095e-03, -2.65229435e-04,
          3.80282826e-03, -1.65426405e-03, -3.97733599e-03,
          -8.79103492e-04, -1.11657463e-03, 3.61279090e-04,
          -2.80269841e-03, -4.87284921e-03, 4.34227148e-03,
          5.12523996e-03, -6.37239646e-05, -4.42523276e-03,
          -2.37635314e-03, 2.29904288e-03, 4.18236898e-03,
          -2.95590376e-03, -2.47582793e-03, -2.86384136e-04,
          3.11235595e-03, -2.09971494e-03, -2.27386528e-03,
          -2.71797320e-03, -1.84551906e-03, 3.38316633e-04,
          -5.25753805e-03, -4.30814223e-03, 7.08189607e-03,
          9.30806273e-04, -2.64328602e-03, -2.33897520e-03,
          -3.89553537e-03, -4.40795626e-03, 2.05058488e-03,
          9.67536960e-03, -2.86345114e-03, -7.82172603e-04,
          -1.74775789e-03, -7.57249363e-04, -4.79393965e-03,
          -1.02095576e-02, -7.51911476e-03, -3.87000735e-03,
          -5.78683149e-03, -1.46647973e-03, -4.49232385e-03,
          -5.86370891e-03, -3.97518463e-03, -4.73019481e-03,
          -7.22615188e-03, -1.99379632e-03, 5.93703752e-03,
          1.40419481e-02, 5.58160129e-04, 5.11842454e-03,
          -1.16984302e-03, -4.98195458e-03, -1.11866482e-02,
          -1.06953224e-02, -4.20844695e-03, 1.06861291e-03,
          -6.28723670e-03, -4.07175161e-03, -4.76127677e-03,
          -9.89195146e-03, -1.09404502e-02, -7.37238955e-03,
          -1.00409510e-02, -7.95117859e-03, 2.65221694e-03,
          7.70396786e-03, 6.08576881e-03, -3.69179994e-03,
          -5.14308736e-03, -4.70765261e-03, -1.04313791e-02,
          -1.18479924e-02, -1.20520368e-02, -1.21790962e-02,
          -1.48407518e-04, -2.53253477e-03, -7.80345034e-03,
          -1.12834591e-02, -1.21935690e-02, -6.93574175e-03,
          -9.21333954e-03, -4.90745483e-03, 8.22709873e-03,
          1.28408177e-02, 5.45117911e-03, 4.66600386e-03,
          -6.64920965e-03, -7.73591083e-03, -1.40205650e-02,
          -1.40964529e-02, -1.54125644e-02, -1.02393432e-02,
          1.36418338e-03, -9.55394190e-03, -1.42080095e-02,
          -1.73550546e-02, -1.67279560e-02, -1.20642707e-02,
          -1.32838609e-02, -1.13431485e-02, -9.62686073e-03,
          -3.24342563e-03, -6.10976340e-03, -7.26967910e-03,
          -6.66267099e-03, -1.02116959e-02, -7.81365670e-03,
          -9.68120806e-03, -6.48702681e-03, -2.33032485e-03,
          1.35304788e-02, 6.92914799e-03, -9.54160234e-04,
          -4.68082260e-03, -6.02726871e-03, -1.86617021e-02,
          -1.62904486e-02, -1.52747082e-02, -1.77108850e-02,
          -5.99155808e-03, -7.32676638e-03, -5.76501619e-03,
          -9.50284675e-03, -1.58242639e-02, -1.55141540e-02,
          -1.05806766e-02, -8.75200611e-03, -4.73823771e-03,
          1.60512161e-02, 3.99804022e-03, -2.80823093e-03,
          -8.34841933e-03, -1.53390430e-02, -1.19487783e-02,
          -8.13172292e-03, -5.09746606e-03, -1.96693395e-03,
          -1.19342015e-03, 4.60379245e-03, -1.51559815e-03,
          -6.32128119e-03, -8.75573047e-03, -1.21848965e-02,
          -2.67098588e-03, 1.61060132e-03, 3.71747930e-03,
          9.40719154e-03, 7.56023079e-03, 1.45115645e-03,
          -3.27268266e-03, -1.43346982e-02, -1.41674159e-02,
          -8.29941966e-03, -3.13112512e-03, -1.43606251e-03,
          1.28127134e-03, 3.22014932e-03, -5.83446026e-03,
          -8.14779941e-03, -1.39307166e-02, -1.25296246e-02,
          -1.53253949e-03, -5.36033651e-04, 2.04366446e-03,
          2.15525832e-02, 7.37444311e-03, 6.71118149e-04,
          -4.92542190e-03, -1.12450952e-02, -6.93302788e-03,
          7.52556836e-04, 3.68892285e-03, 1.26237562e-03,
          -1.31684763e-03, 5.39006246e-03, 2.06538173e-03,
          -2.56434293e-03, -1.04511287e-02, -7.41673494e-03,
          -6.24326349e-04, -8.30319826e-04, -5.62706357e-03,
          -7.45997531e-03, 1.54137157e-03, 2.54642498e-03,
          -4.19708807e-03, -1.23030068e-02, -7.73459394e-03,
          4.29959362e-03, 3.19240359e-03, -1.48177997e-03,
          3.51072638e-03, 6.00920850e-03, 2.50093825e-03, 1.31843286e-03,
          -8.82217195e-03, 4.31241933e-03, 8.56489409e-03,
          1.12937344e-02, 5.95255871e-04, 1.79957680e-03, 1.67038257e-03,
          3.31165059e-03, 1.20100786e-03, -1.94110884e-03,
          -9.19887517e-03, -1.14508276e-03, -3.53991683e-03,
          -6.20510057e-03, -1.19388178e-02, -5.63946669e-04,
          1.46065862e-03, -2.70259799e-03, -1.03622098e-02,
          -7.22033111e-03, -1.80928397e-03, 2.29347381e-03,
          5.99843729e-03, -1.59809005e-03, 4.92163282e-03,
          1.27900997e-03, -3.15904571e-03, -7.83575419e-03,
          2.21469812e-03, 4.75025410e-03, 2.14678445e-03,
          -4.97389538e-03, -8.70319642e-03, -1.90012122e-03,
          1.01125021e-04, -1.17911892e-04, -1.62975001e-03,
          -3.88253538e-04, 3.64967948e-03, 7.31120724e-03,
          2.14970461e-03, -1.21225440e-03, 1.83452654e-03,
          -8.27024574e-04, -2.00602459e-03, -5.19663561e-04,
          -1.44517620e-03, -2.18526111e-03, 1.61228341e-03,
          5.71632700e-04, -1.03418401e-03, 5.82844066e-03,
          2.02628807e-03, -1.29245990e-03, -1.79318211e-03,
          -6.89938711e-03, -7.22886296e-04, -6.79574499e-04,
          -5.57140121e-03, -2.61884369e-03, 5.54840872e-03,
          6.50727563e-03, -1.42915305e-04, -4.87309741e-03,
          1.33833650e-03, 3.41374101e-03, 3.96106020e-03, 1.74636103e-03,
          -9.60120058e-04, 2.85485061e-03, 3.46431661e-05,
          -3.09249666e-03, -2.56260915e-04, -1.64447725e-03,
          5.61824860e-03, 1.92705763e-03, -1.24322670e-03,
          -6.65392866e-03, 5.41248405e-03, -2.81598070e-04,
          -1.25440268e-03, 2.50414538e-04, -2.19949731e-03,
          4.03568009e-03, 1.58704666e-03, -3.65695031e-03,
          -1.34433771e-03, 6.51119510e-03, 3.50914407e-03,
          -2.43697828e-03, -3.87095730e-03, -4.45788400e-03,
          -3.35037289e-03, 3.44541715e-03, 5.11615654e-04,
          -3.95509275e-03, 5.60499495e-04, -9.51032562e-04,
          -4.51885816e-03, -7.32365856e-03, -7.09494983e-04,
          5.14397444e-03, 5.47294598e-03, 7.06644496e-04,
          -1.63605949e-03, 7.30959792e-03, 2.90500605e-03,
          -5.04354422e-04, -1.36177288e-03, -9.28498991e-03,
          -2.88063032e-03, 5.15276613e-03, 2.98215047e-04,
          -4.52753203e-03, 3.24391644e-03, -2.76760245e-03,
          -4.04209737e-03, -9.01879091e-03, -1.08632928e-04,
          1.21090515e-03, 6.59591006e-03, 2.28866795e-03,
          -1.95938325e-03, 2.08571181e-03, 2.50370322e-05,
          -3.54597298e-03, -2.75006983e-03, -2.40874849e-03,
          3.04499152e-03, 5.03968727e-03, -3.30372294e-03,
          -6.09842595e-04, 2.10940925e-04, 9.23902029e-04,
          -1.03537692e-03, -2.50830641e-03, -2.49495450e-03,
          9.52440489e-04, 7.65531790e-03, 5.21182222e-03,
          -5.61689085e-04, 1.41990627e-03, -1.85172801e-04,
          1.47902800e-04, -6.25004875e-04, 3.66273336e-03,
          5.68587380e-03, 3.45750619e-03, -1.03999944e-02,
          -3.63108492e-03, -2.67987931e-03, -5.19551046e-04,
          1.21824625e-04, 6.78918223e-05, -6.52205804e-03,
          -2.48105638e-03, -7.37151597e-04, -3.68457753e-03,
          -5.13245992e-04, 2.33527855e-03, 5.44269709e-03,
          1.79200084e-03, -5.41220745e-03, -5.43101132e-03,
          -5.25672361e-03, 2.33085896e-03, 2.65985797e-03,
          2.06402782e-03, 3.86684807e-03, 3.10110045e-03, 6.50638307e-04,
          -5.58258779e-03, -6.76479249e-04, 2.04944029e-03,
          1.80893447e-04, -1.00916391e-02, -7.22438283e-03,
          -5.26117440e-03, 1.28542859e-04, 3.68013163e-04,
          -4.50759800e-03, -6.48702960e-04, 1.66807254e-03,
          4.77169221e-03, 1.48592691e-03, -5.28062228e-03,
          -3.20079649e-04, 9.10191145e-03, 2.82863912e-04,
          -3.33373924e-03, -5.55394031e-03, -6.76821684e-03,
          -2.08556652e-03, 2.76996172e-03, -3.99400853e-03,
          -4.17105155e-03, 3.12550343e-04, -9.28383321e-04,
          -5.39972354e-03, -8.27464648e-03, -5.03110792e-03,
          -1.11863727e-03, -1.08823401e-03, -8.34308006e-03,
          -4.42266557e-03, 4.30707773e-03, -1.66142988e-03,
          -7.88971595e-03, -6.98409160e-04, 2.34893709e-03,
          4.51649586e-03, 6.78209122e-04, -9.28858668e-03,
          2.21582782e-03, 8.48295540e-03, 4.89486242e-03,
          -1.27804570e-03, -1.61789788e-03, 2.26079300e-03,
          2.29082609e-04, -9.66608431e-03, -9.54870973e-03,
          2.33457773e-03, 6.62427628e-03, 3.13406507e-03,
          -3.24521028e-03, -5.73768979e-03, -3.16219428e-03,
          1.80057460e-03, 1.07535832e-02, 1.50539596e-02,
          -1.11269124e-03, 7.73240067e-03, 4.77419730e-04,
          -4.92796768e-03, -1.03433169e-02, -6.96934527e-03,
          -6.71827293e-04, -5.80002787e-04, -8.33923835e-03,
          -5.35031781e-03, -6.20027678e-03, -1.06344083e-02,
          -9.54667199e-03, -4.37441655e-03, 3.06534069e-03,
          2.69461097e-03, -2.40449654e-03, 1.35945324e-02,
          9.27897985e-04, 1.03676307e-03, -9.89682274e-04,
          -5.26203262e-03, -1.19944615e-02, -3.90556268e-03,
          -4.78611141e-03, -7.93957338e-03, -9.27057769e-03,
          -4.13117325e-03, -1.02256294e-02, -1.26326885e-02,
          -1.35588162e-02, -4.82787797e-03, -3.15620145e-03,
          7.28613557e-03, 1.13849565e-02, 1.54183451e-02, 1.50664605e-03,
          -4.53864597e-03, -9.30277351e-03, -4.41189576e-03,
          -9.29847267e-03, -1.08117312e-02, -9.49829631e-03,
          -9.23648104e-03, 2.95839924e-03, -9.38837882e-03,
          -1.51323508e-02, -1.39353061e-02, -8.25914554e-03,
          -7.80281611e-03, -3.24005238e-03, -1.67135196e-03,
          -2.47687654e-04, 2.37890359e-04, 5.33598894e-03,
          -5.46370726e-03, -9.57153365e-03, -7.47999316e-03,
          -1.47774676e-02, -1.11080017e-02, -1.01906369e-02,
          -1.05211604e-02, 2.25256561e-04, -1.03660440e-02,
          -1.80210378e-02, -1.71521753e-02, -1.60229951e-02,
          -1.59230679e-02, -1.38185360e-02, -1.45762991e-02,
          -2.17689928e-02, -4.73566214e-03, -2.89302832e-03,
          -2.29647616e-03, -7.50515144e-03, -1.28600094e-02,
          -1.10278632e-02, -1.04944585e-02, -9.09077656e-03,
          -6.50921324e-03, 2.62707956e-02, 9.82918590e-03,
          1.44775258e-03, -5.64186275e-03, -9.64583550e-03,
          -1.38605405e-02, -1.10348361e-02, -1.51877487e-02,
          -2.17759535e-02, -6.25957875e-03, -6.93916064e-03,
          -5.28207608e-03, -6.77606370e-03, -1.04141748e-02,
          -8.50659888e-03, -1.03276335e-02, -8.77132453e-03,
          -1.59835760e-02, 3.72653976e-02, 6.30559912e-03,
          -2.10984726e-03, -3.64155043e-03, -4.54295753e-03,
          -1.11280698e-02, -9.39536002e-03, -3.13893519e-03,
          -2.89038871e-03, 7.89388258e-04, 1.01987226e-03,
          -2.50799442e-03, -4.24527889e-03, -1.05218776e-02,
          -1.02249263e-02, -5.17871976e-03, 3.31957219e-03,
          3.19759105e-03, 7.71601964e-03, 1.56601588e-03, 6.52761105e-03,
          1.94359536e-03, -7.75892939e-03, -7.12488871e-03,
          -9.12936032e-03, -5.10404492e-03, -5.69636375e-03,
          6.55482942e-03, 2.89503136e-03, -1.90324779e-03,
          -5.54523198e-03, -4.89208475e-03, -6.01779297e-03,
          3.32524278e-03, 1.08738802e-02, 1.06085027e-02, 1.95528418e-02,
          5.91977080e-03, 4.29987535e-03, 9.17258265e-04,
          -2.08635465e-03, -5.87553717e-03, 2.51233368e-03,
          4.10397537e-03, -4.48910147e-03, -4.53320052e-03,
          -9.39662335e-04, 5.51451510e-03, 5.70075028e-03,
          -5.21346880e-03, -1.99360540e-03, 1.71715266e-03,
          4.52507520e-03, -4.99845343e-03, -5.97907417e-03,
          4.47278959e-04, 3.74811259e-03, 4.23679082e-03,
          -1.71969004e-03, -3.67723708e-03, 8.17484315e-03,
          9.68521927e-03, 2.24206643e-03, -3.51658586e-04,
          2.50346633e-03, 8.33478477e-03, 8.46669264e-03,
          -8.87235161e-04, -4.61928267e-03, 6.49934402e-03,
          7.21586309e-03, 6.95381919e-03, 1.06358354e-03, 2.24445248e-03,
          4.84082242e-03, 5.53026609e-03, -5.51679265e-03,
          -6.21223939e-04, 1.74699308e-04, 1.98518694e-03,
          -2.76617846e-03, -7.22861756e-03, -8.68048301e-05,
          1.03011099e-03, 1.94177730e-03, 1.41418318e-03,
          -3.98097280e-03, 2.13253102e-03, 4.47287364e-03,
          -8.89180228e-04, -6.00287737e-03, 2.16213637e-03,
          -3.89628182e-03, -5.89554571e-03, -4.70513618e-03,
          -2.02896562e-03, 9.37933102e-04, 2.41019807e-04,
          1.49834552e-03, -3.00155953e-03, 5.00303414e-03,
          6.38708752e-03, 5.45022590e-03, -2.86605139e-03,
          -3.04130197e-04, 4.29831864e-03, 4.95107844e-03,
          3.52494698e-03, 3.80978384e-03, 4.57641156e-03, 2.71210005e-03,
          2.63672089e-03, -6.17659825e-04, -5.53246588e-04,
          5.25492989e-03, 3.45347845e-03, -2.25472657e-04,
          -4.29901527e-03, 4.26003523e-03, -2.47211196e-03,
          -2.98697432e-03, -3.48686823e-04, -1.29777775e-03,
          2.09361943e-03, -9.00338753e-04, -4.44394536e-03,
          -6.07552752e-03, 6.24052621e-03, 1.43514678e-03,
          1.00555888e-03, 4.73280175e-04, 2.65062234e-04, 4.24343161e-03,
          5.15814871e-03, 1.56931393e-03, -2.16069818e-03,
          4.39235289e-03, 6.84592989e-04, 3.11005930e-03, 2.34418243e-04,
          -2.39920686e-03, 1.63115480e-03, -5.93538804e-04,
          -1.05881295e-03, 9.40104481e-04, 7.40578352e-03,
          4.71974444e-03, 4.52641718e-04, -3.67675530e-04,
          -1.16884580e-03, 1.43013359e-03, 2.88102939e-03,
          -1.62138639e-03, 1.19194086e-03, 1.03720576e-02,
          4.53546923e-03, -1.11859431e-03, -2.36840732e-03,
          -5.10078715e-03, -1.96720380e-03, 3.37832351e-03,
          -8.25320894e-04, -4.37399000e-03, 7.19358400e-03,
          -1.52322056e-03, -7.13091483e-03, -8.39874335e-03,
          -2.91032600e-03, -1.65156974e-03, -3.70065129e-04,
          -1.45973137e-03, 4.02655825e-03, 1.44466804e-02,
          7.93497823e-03, -2.95008067e-03, -4.79299622e-03,
          -6.52854424e-03, -3.77561478e-03, -2.20456766e-03,
          2.86478578e-04, 4.78560431e-03, 1.44286295e-02, 4.11405228e-03,
          -3.34425829e-03, -1.03171449e-02, -8.14000436e-04,
          2.84996023e-03, 6.17261417e-03, 2.41282047e-03,
          -2.23483238e-03, 4.66847280e-03, 6.30828494e-04,
          -1.44677318e-03, -4.87675937e-03, 4.67998208e-03,
          6.26288680e-03, 4.16046800e-03, -7.65034417e-03,
          -5.11219352e-03, -3.85295920e-04, -3.43147875e-03,
          -3.14282952e-03, -3.07820877e-03, -3.22781620e-03,
          3.54974996e-03, 5.11611113e-03, 1.64592871e-03, 7.45764875e-04,
          9.80911963e-03, 2.35897256e-03, -1.18395686e-03,
          -5.50480932e-03, 1.76382973e-03, 4.03957628e-03,
          3.45001783e-04, -6.93145907e-03, -5.19557949e-03,
          -4.12559463e-03, -9.42777377e-03, -5.39971190e-03,
          -2.61359662e-03, 1.25731016e-03, 4.33705607e-03,
          2.36526830e-03, -8.45704135e-03, -2.29867245e-03,
          -2.57323985e-03, -3.31089948e-03, -1.32775318e-03,
          -8.15643230e-04, -1.29764108e-03, 3.54623538e-03,
          4.92131105e-03, -5.29107964e-03, -5.88169321e-03,
          3.58506711e-03, 6.41177967e-03, 4.52673621e-03, 8.66048445e-04,
          -2.80203857e-03, 3.93757923e-03, 1.43269321e-03,
          -6.01421902e-03, -3.91557952e-03, -4.66786930e-03,
          -8.76027625e-03, -3.92007036e-03, -1.21404161e-03,
          -7.65318004e-03, -1.48180057e-03, 2.00596242e-03,
          -5.09027019e-03, -6.53687259e-03, -3.83121544e-03,
          4.62330820e-04, 1.18094124e-03, -2.90931109e-03,
          1.63816405e-03, 4.96006152e-03, 2.43083807e-03,
          -5.53235319e-03, -5.33027388e-03, 3.17391846e-03,
          9.37513541e-03, 7.75860203e-03, 1.77033269e-03, 4.59812756e-04,
          2.00525322e-03, -5.36573213e-03, -1.11481529e-02,
          -8.27294495e-03, 2.05370528e-03, 6.24815002e-03,
          4.46741795e-03, -1.33750087e-03, -1.42149988e-03,
          -3.38522578e-03, -4.04944271e-03, -4.47909441e-03,
          -5.77580975e-03, 9.12216929e-05, 6.73550833e-03,
          4.76832408e-03, 2.16930709e-03, -3.71793238e-03,
          -5.69838984e-03, -8.28645937e-03, -1.29653523e-02,
          -1.04283113e-02, -8.44323484e-04, 2.98673776e-03,
          1.25086028e-03, 7.88341393e-04, 2.75298680e-06, 4.62418515e-03,
          2.25549284e-03, -4.51231049e-03, 9.76273045e-03,
          3.01467511e-03, 1.66124362e-03, -7.46309175e-04,
          -3.94259486e-03, -8.89385957e-03, -3.16049787e-03,
          -4.94692568e-03, -1.22346310e-02, -9.76108573e-03,
          -2.66633788e-03, -8.47709551e-03, -1.21654849e-02,
          -1.15451654e-02, 7.83445488e-04, -4.14393004e-03,
          -5.69869252e-03, -8.81080236e-03, 4.71641263e-03,
          4.78392048e-03, 6.19508279e-03, 1.77342934e-03, 1.63257692e-03,
          -2.43879599e-03, -6.06588973e-03, -9.46328230e-03,
          -1.44647332e-02, -7.38426344e-03, -7.07034906e-03,
          -5.26702078e-03, -1.11431303e-02, -6.51331292e-03,
          -4.15464351e-03, -6.50111062e-04, 1.86142954e-03,
          -3.07711051e-03, 6.63571758e-03, 2.05697352e-03,
          -1.02485325e-02, -1.00091593e-02, -5.81643032e-03,
          -1.24079622e-02, -8.63019750e-03, -5.60841337e-03,
          -1.26791615e-02, -2.95378850e-03, -9.97941382e-03,
          -1.18134767e-02, -1.44862533e-02, -1.30573018e-02,
          3.33028077e-03, -2.88271904e-03, -1.76098512e-03,
          -6.92002987e-03, 6.22585090e-03, -2.81016948e-03,
          -9.74211749e-03, -9.37525462e-03, 1.23150612e-03,
          -8.15626699e-03, -1.07147694e-02, -1.27279833e-02,
          -1.80692151e-02, -3.32688214e-03, -1.17621394e-02,
          -1.10812383e-02, -1.12387519e-02, -6.58057909e-03,
          -1.37814563e-02, -8.42432119e-03, -1.15707424e-02,
          -1.79422460e-02, -7.48373987e-03, -8.01605731e-03,
          -4.75262804e-03, -4.79224138e-03, -1.11614875e-02,
          -7.85542093e-03, -8.06569122e-03, -5.00695035e-03,
          -1.04379831e-02, 3.09025217e-02, 8.74450617e-03,
          -2.00693565e-03, -4.61642537e-03, -5.36782434e-03,
          -1.43580586e-02, -6.61525968e-03, -1.04039777e-02,
          -1.54076386e-02, -7.59480847e-03, -6.55486388e-03,
          -5.82879316e-03, -5.69711113e-03, -1.25065614e-02,
          -8.84100702e-03, -6.09302241e-03, -3.92993633e-03,
          -1.95638463e-03, 2.64905058e-02, 6.52271695e-03,
          1.20115327e-03, -5.06761437e-03, -7.34849786e-03,
          -9.46320407e-03, -7.43019301e-03, -3.54549685e-03,
          -7.29994755e-03, 1.84180576e-03, 6.56388700e-03,
          -1.85201271e-03, -5.09026181e-03, -8.54564272e-03,
          -8.51981621e-03, 3.16452468e-03, 9.24319588e-03,
          5.23049291e-03, 6.75110752e-03, 1.58584409e-03, 5.26375510e-03,
          1.23838626e-03, -5.50623005e-03, -1.04020135e-02,
          -4.76263277e-03, -1.38505187e-03, -4.50740941e-03,
          -4.61972645e-03, 5.45720337e-03, 8.48802229e-05,
          -5.77802118e-03, -1.29574770e-02, -9.69689433e-03,
          6.96746167e-03, 9.53929126e-03, 3.34892212e-03, 3.29338177e-03,
          7.46708014e-04, 4.20725485e-03, 2.01553688e-03,
          -1.15797659e-02, -9.67471336e-04, 8.57928768e-03,
          1.14408117e-02, 4.61742049e-03, -5.55786584e-03,
          4.25183593e-04, 8.21191911e-03, 8.03191680e-03, 1.10116531e-03,
          -2.64605484e-03, 5.84599702e-03, 7.48323370e-03,
          8.35877098e-03, -2.35104142e-03, 7.09255808e-04,
          1.69582444e-03, 5.86506166e-03, -1.20977638e-03,
          -4.57549654e-03, 7.50137446e-03, 1.02011245e-02,
          3.88865970e-04, -9.68401600e-03, -4.56492975e-03,
          3.89928115e-03, 6.90804515e-03, -1.74223993e-03,
          -5.25984261e-03, 3.23578669e-03, 8.82527232e-03,
          3.17239948e-03, -4.50782385e-03, -2.89691868e-03,
          -2.99376226e-03, 1.02953368e-03, -1.56458549e-03,
          2.05362961e-03, 2.94785365e-03, 1.87177633e-04, 2.43486720e-03,
          -5.42093115e-03, 5.14741195e-03, 5.92494151e-03,
          5.03018545e-03, -1.73366367e-04, 5.03036520e-03,
          3.03304358e-03, 1.61676574e-03, 3.41309875e-04, 6.39721227e-04,
          6.66516088e-03, 1.01463003e-02, 8.23278073e-03, 4.54195309e-03,
          -4.13112715e-03, 1.82612776e-03, 1.62552728e-03,
          8.93549179e-04, -4.67071822e-03, 1.98266609e-03,
          1.01381156e-03, 2.70459359e-03, -3.67185494e-05,
          -8.81433208e-03, 1.69442454e-03, 1.17591640e-03,
          2.35667825e-03, -7.89330620e-03, 5.62281162e-03,
          6.01329142e-03, 4.47689416e-03, -3.80850094e-03,
          4.07324033e-03, 4.28360887e-03, 2.91477935e-03, 1.50500983e-03,
          -2.19063554e-03, 3.91498674e-03, 9.01512802e-03,
          1.02285873e-02, 5.06878737e-03, -4.74597357e-04,
          5.16411150e-03, 8.43116373e-04, 5.80778858e-03,
          -2.66254111e-03, 4.31147451e-03, 3.75739066e-03,
          1.70780101e-03, -4.29319625e-04, -3.56596522e-03,
          1.60503678e-03, 1.64550485e-03, 2.84262351e-03,
          -9.66578198e-04, 4.28664964e-03, 7.82059319e-03,
          6.76634954e-03, -6.24916516e-04, -7.45120598e-03,
          1.80996349e-03, 8.75336234e-04, 2.63287290e-03,
          -8.08630325e-03, -2.15171138e-03, 2.88869813e-03,
          9.63177939e-04, -3.34591279e-03, -3.64980847e-03,
          -1.84662873e-03, -2.35137623e-03, 1.94568187e-03,
          1.22486858e-03, 6.63145119e-03, 3.28073488e-03,
          -4.22534253e-03, -6.39561145e-03, -4.81190020e-03,
          -7.47009646e-04, 4.51384520e-04, 3.42771062e-03,
          3.99316475e-03, 1.43623836e-02, 7.43689295e-03, 7.42337841e-04,
          -7.73784146e-03, -4.47782176e-03, -5.67169744e-04,
          3.38886748e-03, 6.26495166e-04, -2.04349821e-03,
          -2.57416535e-03, -1.00819860e-03, -3.06261634e-03,
          -3.73402773e-03, -4.99424338e-03, -1.67843688e-03,
          1.51558884e-03, 3.12798447e-03, -5.82094723e-03,
          5.98685816e-03, 1.65846897e-03, 6.65899017e-04,
          -3.47186835e-03, -1.52708939e-03, 4.10725921e-03,
          4.70565725e-03, 7.86825432e-04, -4.02552949e-04,
          7.75222154e-03, 6.26413245e-03, 1.82694255e-03,
          -3.44324950e-03, -2.51810509e-03, 2.24902853e-03,
          3.07661179e-03, -5.64912567e-03, -7.46180722e-03,
          -4.89618443e-03, -1.12051778e-02, -9.26543307e-03,
          -6.60153385e-03, -3.71730304e-04, 9.25107743e-04,
          4.07764781e-03, 3.19711748e-04, -1.56362902e-03,
          8.22016224e-03, 8.40421952e-03, 9.99029540e-03, 1.48006668e-03,
          -3.90889961e-03, 1.48316816e-04, 2.35387147e-03,
          -8.51391535e-03, -9.42109805e-03, -4.46240650e-03,
          -7.60845840e-03, -6.12575607e-03, -3.67052224e-03,
          1.31341978e-03, 5.72308991e-03, 6.56277873e-03, 9.56676784e-04,
          -8.22244619e-05, -5.43155707e-03, -7.94229470e-03,
          -4.69377125e-03, -1.01106742e-03, 3.38346791e-03,
          2.12387531e-03, 2.40790052e-03, 1.39303808e-03, 1.70539366e-03,
          -4.46314085e-03, 4.35792934e-03, 5.56322932e-03,
          4.83178068e-03, 1.09845877e-03, 4.22613043e-03, 4.16153669e-03,
          -4.93500615e-03, -6.04031421e-03, -7.76314875e-03,
          -6.36303192e-03, -4.12342651e-03, 2.65539857e-04,
          -1.73324265e-03, 1.59836956e-03, -2.70962343e-03,
          -3.70181608e-03, -4.33627330e-03, -1.06723960e-02,
          -4.95145330e-03, -4.75755753e-03, -3.28622782e-03,
          -3.34833749e-04, -3.34374374e-03, -4.53116809e-04,
          2.55755056e-03, -1.55157992e-03, 8.51298508e-04,
          6.84112078e-03, 3.92565876e-03, 3.60508217e-03,
          -1.89973693e-03, -1.16232026e-03, -5.36265178e-03,
          -7.99113698e-03, -5.95049001e-03, -6.31050847e-04,
          2.08477979e-03, -2.63538212e-03, 1.51301955e-03,
          -4.76571545e-03, -2.61462905e-04, -2.49892852e-04,
          1.51966349e-03, -7.51638028e-04, -4.17320814e-04,
          1.60509825e-03, -4.41279728e-03, -5.80328517e-03,
          -5.29434439e-03, -3.20850313e-03, -4.04699054e-03,
          -1.05534587e-02, -7.51698203e-03, 3.23839183e-03,
          -1.60225248e-03, -5.66688599e-03, -7.22781802e-03,
          1.04195077e-03, -1.90209702e-03, -2.79827486e-03,
          -7.73069495e-03, -3.94532326e-05, 1.05921016e-03,
          6.05680747e-04, -3.15379049e-03, 2.86125857e-03,
          -2.67069531e-03, -4.41317400e-03, -6.63486775e-03,
          -1.13796201e-02, -5.05461078e-03, -3.66368704e-03,
          -4.24339576e-03, -9.86254495e-03, -5.99093409e-03,
          -2.28888914e-03, -3.25014116e-03, -3.89058376e-03,
          -4.19446081e-03, 5.54825505e-03, 2.47285003e-03,
          3.91676935e-04, -4.63756220e-03, -5.00650657e-03,
          -6.80190744e-03, -5.85886789e-03, -2.36117723e-03,
          -3.58465384e-03, -6.51316764e-03, -5.52532542e-03,
          -3.02867405e-03, -3.99247045e-03, -7.02605769e-03,
          1.06476386e-04, -8.84062378e-04, 2.12641153e-03,
          2.89823767e-03, 1.02494825e-02, -7.58136914e-04,
          -7.90694542e-03, -7.68220844e-03, -2.66667618e-03,
          -1.12649268e-02, -9.81871504e-03, -1.01152016e-02,
          -1.32933706e-02, -6.98483782e-03, -1.33894188e-02,
          -1.72001459e-02, -1.14216236e-02, -1.23857744e-02,
          -3.13887489e-03, -6.81959279e-03, -3.87232727e-03,
          -1.25407486e-03, 1.58965439e-02, 4.53792419e-03,
          -3.69752059e-04, -3.13442922e-03, -4.07384103e-03,
          -1.46511896e-02, -1.24560287e-02, -1.01190666e-02,
          -1.27297752e-02, -7.45301601e-03, -8.19964614e-03,
          -9.94596817e-03, -7.84689654e-03, -1.42416758e-02,
          -1.15607372e-02, -6.71106530e-03, -7.91218225e-03,
          -1.39964288e-02, -1.24090742e-02, -6.12210808e-03,
          -8.31821840e-03, -4.84965136e-03, -9.35144164e-03,
          -8.52180924e-03, -6.65824907e-03, -3.11458902e-03,
          -2.14125705e-03, 2.15772446e-02, 4.47336817e-03,
          -4.45448142e-03, -4.06999839e-03, -6.48276694e-03,
          -1.18504446e-02, -9.16676596e-03, -6.59548026e-03,
          -1.54910013e-02, -1.24087110e-02, -5.93833113e-03,
          -7.25455070e-03, -4.20362316e-03, -8.57454911e-03,
          -7.78465904e-03, -5.00593008e-03, 1.58866646e-03,
          -5.80096198e-03, 1.15156686e-02, 6.67588599e-03,
          -6.91535044e-03, -4.45947051e-03, -3.14680883e-03,
          -6.20044861e-03, -3.66270449e-03, -8.77948944e-04,
          -5.35174986e-05, -7.21388031e-04, 3.10782972e-03,
          1.28539640e-03, -6.37982134e-03, -8.32995120e-03,
          -2.24727648e-03, 3.50929983e-03, 5.01759723e-03,
          5.73029101e-04, 2.87717697e-03, 2.15454865e-03, 1.14714457e-02,
          4.57232725e-03, -8.41481786e-04, -3.88111873e-03,
          -4.21985192e-03, -1.33140676e-03, -2.62938160e-03,
          -4.65930533e-03, 3.13563296e-03, -4.40660212e-03,
          -7.37561006e-03, -4.91271866e-03, -2.86541157e-03,
          -4.04770998e-03, -2.68012891e-03, -1.03251990e-02,
          -3.07016168e-03, 2.93679978e-03, 4.47863573e-03,
          -2.37277825e-03, -3.71271814e-03, 4.72051033e-04,
          4.08762926e-03, 6.66150404e-03, -3.64719005e-03,
          -7.63385231e-03, -1.64401333e-03, 6.66893134e-03,
          4.46025003e-03, 5.72605815e-04, 4.65914636e-04,
          -5.92244149e-04, 5.94486017e-03, 3.28030065e-03,
          -1.96795538e-03, 1.11877231e-03, 5.84894326e-04,
          1.34699093e-03, 3.96974478e-03, -3.15983547e-03,
          -1.58365292e-03, -6.99436117e-04, -9.16032586e-03,
          -3.57251195e-03, 3.03411274e-03, 4.02435381e-03,
          1.10645415e-04, -5.52274613e-03, -3.40168667e-03,
          2.26868736e-03, 4.57855873e-03, -1.23363106e-05,
          -2.05380702e-03, 4.40790411e-03, 3.29929986e-04,
          -4.88938938e-04, -3.57163814e-03, -5.43997250e-03,
          -2.03899411e-03, 1.92256266e-04, 2.49561318e-03,
          -3.15083563e-03, 3.22718965e-03, -9.70763678e-04,
          -5.03999647e-04, -2.00147089e-03, -1.15575949e-02,
          -2.16661138e-03, 5.47525415e-04, 6.27635978e-03,
          -3.26749193e-03, 7.58712040e-03, 5.62979421e-03,
          2.67642317e-03, -4.18307353e-03, -4.92388196e-03,
          -1.52931153e-03, 1.53847085e-03, 1.47203158e-03,
          -2.79331999e-03, 2.77289352e-03, -1.93978334e-03,
          -2.40142690e-03, -8.61840090e-04, -6.76873839e-03,
          -3.70559609e-03, -8.23802256e-04, 2.88482779e-03,
          -5.60881337e-03, 6.94352947e-03, 1.01839602e-02,
          7.26875290e-03, -2.39448811e-04, -8.66764784e-03,
          -1.06701476e-03, 1.76135113e-03, 5.94394328e-03,
          -4.19136079e-04, 2.39331997e-03, 5.43071143e-03,
          1.06265279e-03, -2.86869705e-03, -1.06608421e-02,
          1.87204743e-03, 5.22106746e-03, -1.65811798e-03,
          -7.85177201e-03, -1.04455452e-03, 7.20975734e-03,
          -4.39616764e-04, -4.83462028e-03, -1.55350182e-03,
          2.34206533e-03, 5.16983820e-03, 3.29931290e-03,
          -4.06169565e-03, 3.99602344e-03, 6.12043077e-03,
          4.24261158e-03, 1.44511042e-03, -6.94146054e-03,
          6.60622120e-03, 7.40721961e-03, -3.59274563e-03,
          -8.33674800e-03, 1.39071455e-03, 6.34599663e-03,
          3.70871718e-03, -7.95606524e-04, -5.31434407e-03,
          2.90488359e-03, 7.88396597e-03, -2.04214058e-03,
          -8.32435396e-03, -2.38804193e-03, 2.57782219e-03,
          1.00979616e-03, -1.78758055e-03, -4.63779503e-03,
          -3.01032700e-03, 1.89027458e-03, 4.00262885e-03,
          -7.63954083e-03, 4.25319094e-03, 2.60933116e-03,
          5.36741083e-03, 1.64187653e-03, -6.87836017e-03,
          9.30904876e-03, 9.28025320e-03, -1.32661464e-03,
          -8.98501184e-03, -2.78000347e-03, 3.15678469e-03,
          3.17938416e-03, -9.13218886e-04, -1.83700444e-03,
          2.23064772e-03, 3.89415980e-03, 1.03151120e-04,
          -4.62985039e-03, 2.81664403e-03, 3.23437992e-03,
          1.41375558e-03, -1.18473009e-03, -2.81033036e-03,
          -2.93358695e-03, -2.29479381e-04, 2.43719644e-03,
          -9.33247444e-04, 5.06045017e-03, 4.41240612e-03,
          2.10420461e-03, 1.04129268e-03, -2.08211248e-03,
          8.64026311e-04, 2.40374380e-03, -4.42894828e-03,
          -4.99172602e-03, -8.76815931e-04, -4.50989464e-03,
          -3.17676878e-03, -1.75012089e-03, -1.96501380e-03,
          -3.58024903e-04, 3.03130073e-04, 4.60163952e-04,
          3.93537525e-03, 4.45112679e-03, 6.36922289e-03,
          -2.41687661e-03, -1.86991948e-03, -5.34000015e-03,
          -2.38205027e-03, 2.67779618e-03, 4.41678596e-04,
          1.66554621e-03, 1.76833186e-03, -7.91484083e-04,
          -6.51796209e-03, -5.35633741e-03, 3.54347052e-03,
          4.20181081e-03, 8.66459869e-03, 8.99391016e-04,
          -1.46733155e-03, -3.30379792e-03, -4.39434499e-03,
          -1.88867736e-03, 2.86925118e-04, 3.07161082e-03,
          1.33340911e-03, 6.32865820e-04, -2.82499287e-03,
          -2.65094684e-03, -7.09253643e-03, -2.56309938e-03,
          -1.43031171e-03, -3.16083967e-03, -4.70585143e-03,
          -1.57123420e-03, 3.36536230e-03, 5.03003271e-03,
          7.76685728e-03, 6.00514794e-03, 8.21949448e-04, 8.69530370e-04,
          -1.50199106e-03, -8.56816303e-03, -6.58372790e-03,
          -2.97817891e-03, -7.10342638e-03, -5.15344879e-03,
          -7.08977319e-03, -6.80393539e-03, -3.42487451e-03,
          -7.15511711e-03, 2.55147973e-03, 3.51271289e-03,
          5.38781239e-03, 3.44574871e-03, 8.51221010e-03,
          -2.09074424e-04, 2.63000885e-03, -6.56366174e-04,
          -1.55832351e-03, 1.70609448e-03, 1.71090337e-03,
          3.60581698e-03, -4.53250343e-03, 7.75699737e-03,
          2.76588369e-03, -1.96232786e-03, -4.16839309e-03,
          -4.46432224e-03, -4.03023791e-03, 3.18780803e-04,
          4.46795952e-03, -4.92915697e-03, -2.97928834e-03,
          -8.14570114e-03, -7.27125164e-03, -7.54778599e-03,
          -9.90370382e-03, -4.08270955e-03, -3.72738083e-04,
          2.48979474e-03, -4.53658681e-03, 2.98297405e-03,
          -2.18537403e-03, -9.14305635e-03, -1.54434359e-02,
          -1.25321718e-02, 2.14992394e-03, 4.00581397e-04,
          4.80772089e-03, -1.29513361e-03, 1.67665910e-02,
          3.41648958e-03, 7.19080155e-04, -8.83590803e-03,
          -2.33171694e-03, -5.11684874e-03, -2.63108825e-03,
          3.92498868e-03, -4.14337870e-03, -6.18432532e-04,
          -4.37913323e-03, -1.39455136e-03, -7.17968540e-03,
          -5.49279060e-03, -5.92869101e-03, -1.86929759e-03,
          5.09549491e-03, 1.21709669e-03, 1.03981635e-02,
          -1.92377798e-03, -2.81835021e-03, -1.53445126e-02,
          -1.13396896e-02, -1.45681286e-02, -6.31460501e-03,
          -2.44580675e-03, -6.94833929e-03, -2.84107728e-03,
          -7.84163736e-03, -7.81917851e-03, -1.79671068e-02,
          -1.60929579e-02, -1.84982282e-03, -5.16743073e-03,
          4.70023369e-03, -7.59866263e-04, 1.79726146e-02,
          2.95635057e-03, 1.88209175e-03, -7.16791488e-03,
          -1.92561303e-03, -1.34813385e-02, -9.55765508e-03,
          -3.62832169e-03, -1.14538614e-02, -1.23640685e-03,
          -5.73248370e-03, -1.05270660e-02, -1.01193730e-02,
          -1.20364092e-02, -1.62914619e-02, -4.65179887e-03,
          -1.43974074e-04, -4.51427698e-03, 1.59619432e-02,
          1.77364901e-03, -8.65597278e-03, -1.60072502e-02,
          -1.61401592e-02, -2.14310512e-02, -1.19460048e-02,
          -5.13759814e-03, -1.32482480e-02, -2.55161547e-03,
          -5.79870073e-03, -1.48308706e-02, -1.76676568e-02,
          -2.23819055e-02, -1.11981276e-02, -9.41650849e-03,
          -7.50938430e-03, -1.33238165e-02, -1.15481392e-02,
          -4.73164720e-03, -8.79439339e-03, -8.13186355e-03,
          -8.59435368e-03, -1.07673919e-02, -8.13422445e-03,
          -2.74916971e-03, -9.34724230e-03, 6.87290495e-03,
          8.68552644e-03, 2.49796361e-03, -2.74902955e-03,
          -3.81799438e-03, -1.25243366e-02, -9.41163488e-03,
          -9.93092172e-03, -1.52280154e-02, -1.37550682e-02,
          -8.25904869e-03, -1.25458324e-02, -1.38061065e-02,
          -1.13448557e-02, -1.19856559e-02, -9.11568664e-03,
          -1.45858095e-03, -6.00420404e-03, 8.71049333e-03,
          8.75313114e-03, -2.81364401e-03, -9.08129755e-03,
          -9.79448762e-03, -4.99306573e-03, -5.87593904e-03,
          -5.05717099e-03, -5.23093808e-03, -1.93118432e-03,
          3.64398584e-03, -1.53162831e-03, -5.73778199e-03,
          -4.15176712e-03, 7.16718892e-03, -7.68211065e-03,
          -6.87405420e-03, -1.42986011e-02, 2.09188997e-03,
          6.19111955e-03, 7.45476736e-03, 1.92614621e-03, 6.26739813e-03,
          -9.06853750e-03, -7.77675444e-03, -4.34536859e-03,
          -4.21610102e-03, -5.90017356e-04, 3.38446326e-03,
          -1.39499945e-03, -2.77482881e-03, -6.06510788e-03,
          -4.08117613e-03, -7.53570767e-03, -5.59656974e-03,
          -1.48139410e-02, 1.06177724e-03, 2.41929828e-03,
          2.81413575e-03, -8.61642911e-05, -3.16785648e-03,
          -2.35963980e-05, -3.73968179e-03, -2.57612998e-03,
          -1.07846297e-02, -3.26573616e-03, 2.76546762e-03,
          4.79513360e-03, 1.06389762e-03, 3.02246015e-04,
          -2.58243934e-04, 3.64469690e-03, 7.10031483e-03,
          -1.64104544e-03, 8.56128614e-03, -8.98064231e-04,
          -5.13171835e-05, 1.63948964e-04, -7.21899909e-04,
          3.37628735e-04, -2.45625270e-03, -2.14543892e-03,
          -1.11068813e-02, -5.37537271e-03, 2.24231766e-03,
          4.17752517e-03, 7.31634442e-04, 6.55329553e-04, 2.03019031e-03,
          2.30764807e-03, 4.70842514e-03, 8.90334122e-05, 7.39178574e-03,
          -5.14801173e-03, 3.68041947e-04, 8.00533919e-04,
          -3.51034570e-03, -3.28290113e-03, 2.51423777e-03,
          6.96404558e-03, 6.09190855e-03, -1.06029992e-03,
          2.72707141e-04, -1.60358055e-03, -9.77376476e-04,
          -2.59847380e-03, -3.87053494e-03, -7.78797432e-04,
          1.07642878e-02, 5.76824509e-03, -5.49999438e-03,
          9.06691980e-03, 9.72529035e-03, 7.64081627e-03, 2.43926444e-03,
          -5.72853722e-03, 1.07486942e-03, 3.68346181e-03,
          4.92310245e-03, -6.19497756e-03, -6.86391257e-03,
          -2.26455554e-03, -1.14160788e-03, -4.09498345e-03,
          -7.18078250e-03, -2.82889511e-03, 3.76054575e-03,
          3.37169343e-03, -5.42834168e-03, -1.13259268e-03,
          2.19101622e-03, 1.39824260e-04, -1.67694816e-03,
          -4.16855619e-04, 1.28326390e-03, 8.80341418e-03,
          -1.85639586e-03, -1.10112093e-02, 2.82799336e-03,
          6.04244927e-03, 5.18938713e-03, 3.96267744e-03,
          -4.41899151e-03, 1.59990974e-03, 5.20324893e-03,
          5.39057874e-06, -1.00948894e-02, 1.08629500e-03,
          1.36800576e-03, 1.11890584e-03, 1.77631422e-03,
          -1.96253438e-03, 4.73580381e-04, 1.96994795e-03,
          -1.98296877e-03, -1.20583382e-02, -1.54158298e-03,
          2.35622260e-03, 1.43163919e-03, 8.38908250e-04,
          -3.59632052e-03, 4.36134962e-03, 5.35815954e-03,
          2.10140110e-03, -7.83547573e-03, 1.08540978e-03,
          1.57227379e-03, -8.60916683e-04, -2.03144713e-03,
          -2.05720728e-03, 7.88066816e-03, 6.82834210e-03,
          4.00925567e-03, -7.65593071e-03, 8.33763857e-04,
          6.11342315e-04, 1.21362496e-03, 1.61968207e-03, 8.20972084e-04,
          3.77099239e-03, 3.59782833e-03, 8.51583376e-04,
          -3.26838181e-03, 3.36531037e-03, 6.07512519e-03,
          -3.28637223e-04, -2.83818366e-03, 2.41525215e-03,
          4.23144409e-03, 7.30807520e-03, 2.62316549e-03,
          -2.76283338e-03, 2.13753028e-05, -1.54679419e-05,
          -1.19312305e-03, 1.18470623e-03, 3.88977205e-04,
          3.54314514e-04, 1.85755757e-03, 9.01027699e-04,
          -9.70387540e-04, 1.89856905e-03, -8.46723502e-04,
          -4.13126266e-03, -2.98156403e-03, 1.30216591e-03,
          3.38655314e-03, 6.74238428e-03, 6.97891740e-03, 7.42000667e-03,
          3.45904776e-03, 4.22073947e-03, -3.25494609e-03,
          -2.56581604e-03, -3.58787761e-03, -2.91858800e-03,
          2.91030767e-04, 1.86972949e-03, 4.44095815e-03, 1.10734091e-03,
          -3.71161907e-04, -3.22353770e-03, -7.35675404e-03,
          -7.83008931e-04, -6.23003289e-04, 9.89799271e-04,
          8.77571013e-03, 8.79106112e-03, 1.08798174e-03,
          -3.22889956e-03, -5.16829081e-03, -4.25726455e-03,
          -5.18534798e-03, -6.63750805e-03, -4.65883035e-03,
          1.46124663e-03, 1.85124530e-03, -2.52379221e-03,
          -6.77090371e-03, -5.35300141e-03, -8.96717235e-03,
          7.07128143e-04, -7.36475689e-04, 4.23975260e-04,
          9.09899769e-04, 1.20984418e-02, 5.94892586e-03, 1.88702485e-03,
          3.59214935e-03, 9.85215185e-04, -7.07838777e-03,
          -1.20320043e-03, -3.09473043e-03, -6.19414775e-03,
          -3.03445128e-03, -6.69492269e-03, -6.89943274e-03,
          -4.20334656e-03, -6.95916777e-03, 2.06564693e-03,
          -2.06219591e-03, 1.01484613e-04, 1.29666971e-03,
          8.51392187e-03, 4.01298003e-03, 1.58853363e-04, 3.29292467e-04,
          1.13774592e-03, -6.29517855e-03, -1.16350234e-03,
          -6.41630124e-03, -7.13331252e-03, -4.39697457e-03,
          -3.34088202e-03, -6.52246177e-03, -9.61657986e-03,
          -8.17443617e-03, 9.67485772e-04, 5.93460537e-03,
          7.24779748e-05, -7.05184741e-03, 3.31941340e-03,
          -6.99547073e-03, -8.37739836e-03, -7.30746286e-03,
          -5.37696853e-03, 3.78632359e-03, 3.59200989e-03,
          2.47840746e-03, -5.14672138e-03, -2.55144929e-04,
          -6.93381019e-03, -1.28297852e-02, -1.40095409e-02,
          -3.98792233e-03, -2.18496122e-03, 5.43193193e-03,
          -3.76899634e-03, -8.55976343e-03, 9.70754307e-04,
          -5.97888185e-03, -1.22746173e-02, -1.18476599e-02,
          -8.61523952e-03, -4.50789649e-03, 5.82923414e-03,
          1.83231779e-03, -6.10247441e-03, -7.30361277e-03,
          -7.15716556e-03, -1.32674854e-02, -1.41504286e-02,
          -1.13368900e-02, 9.96091962e-03, 7.87782832e-04,
          6.61440520e-03, 3.69066279e-03, 3.38365394e-03,
          -3.48937069e-03, -9.56809241e-03, -1.19099207e-02,
          4.27898485e-03, -4.43709688e-03, -4.34471900e-03,
          2.72858073e-03, 9.46023094e-04, -3.74067831e-03,
          -6.67394372e-03, -1.03950705e-02, -1.52537646e-02,
          -6.98953867e-03, -4.58837533e-03, 9.54558258e-04,
          2.16052262e-03, -1.97347393e-03, -4.51061031e-04,
          -5.89303160e-03, -1.28516611e-02, -1.15411505e-02,
          -1.07504204e-02, -9.13562160e-03, -2.65412475e-03,
          -5.40390960e-04, -1.29139182e-04, -1.02711404e-02,
          -9.10561439e-03, -1.50223682e-02, -1.64149180e-02,
          -1.41531797e-02, -6.57867175e-03, -5.76435542e-03,
          2.59316969e-03, 1.30123051e-03, 1.97980646e-02, 1.65961916e-03,
          -1.17646735e-02, -1.46521786e-02, -1.09533258e-02,
          -1.46731799e-02, -9.15987138e-03, 1.13722554e-03,
          -5.17168129e-03, 1.59474218e-03, -2.89924606e-03,
          -1.64117105e-02, -1.89493224e-02, -2.08436437e-02,
          -1.08420840e-02, -3.63126863e-03, 4.18109959e-03,
          1.69766706e-03, 9.60380863e-03, -6.98895287e-03,
          -1.23975612e-02, -1.99372880e-02, -1.61450729e-02,
          -1.61792263e-02, -1.10136205e-02, -3.83980176e-03,
          -6.15802081e-03, -2.12376285e-03, -1.22560654e-02,
          -2.00666450e-02, -2.45021917e-02, -2.42571700e-02,
          -5.21238381e-03, -6.36356883e-03, -7.16574583e-03,
          -1.46534750e-02, -9.46840830e-03, -1.10717500e-02,
          -1.06869508e-02, -1.27944881e-02, -5.27473167e-03,
          -7.69836409e-03, -8.27065483e-03, -6.69980189e-04,
          -6.38166303e-03, 2.47707125e-02, 1.08849527e-02,
          4.52402374e-03, -2.97252159e-03, -4.55779349e-03,
          -1.22271068e-02, -9.82744433e-03, -1.02968235e-02,
          -1.32213756e-02, -1.41017959e-02, -1.20366886e-02,
          -1.30851977e-02, -1.30021209e-02, -1.21962344e-02,
          -1.45486668e-02, -1.32295284e-02, -1.08061349e-02,
          -1.12056853e-02, 4.47126664e-03, 1.07468804e-03,
          1.16622898e-04, -6.30635582e-03, -1.39844790e-02,
          -9.36401077e-03, -6.76439842e-03, -2.41259485e-03,
          -6.20869081e-03, 2.05126195e-03, 2.16762302e-03,
          2.99753505e-03, 1.33498502e-03, -6.89149089e-03,
          -6.12887088e-03, -8.65354110e-03, -5.35284542e-03,
          -1.38097676e-02, 8.19920842e-03, 7.25035369e-03,
          5.55841345e-03, 6.41275849e-03, -1.11505203e-03,
          -1.30220689e-02, -1.10331057e-02, -8.40840582e-03,
          -1.15184039e-02, -7.53546041e-03, -2.29480397e-03,
          5.01856790e-04, 2.52862577e-03, -1.09210508e-02,
          -6.12539658e-03, -1.13222767e-02, -1.00512700e-02,
          -1.48222651e-02, -2.81581748e-03, -4.78208909e-04,
          8.97101127e-03, 9.42528341e-03, -4.89540806e-04,
          -7.43141805e-04, -7.84024410e-03, -5.80692850e-03,
          -1.00263823e-02, -4.91990289e-03, -6.96773815e-04,
          3.57055687e-03, 1.18700450e-03, 1.64246222e-03, 2.32035317e-03,
          -6.11162744e-03, 1.68276660e-03, -2.16735007e-05,
          1.03638219e-02, -2.03724788e-03, 2.03201803e-03,
          3.00407340e-03, 1.01269840e-03, 6.37364355e-05,
          -1.12337582e-02, -7.70264724e-03, -6.89021312e-03,
          -6.17007073e-03, -3.11903446e-03, 6.19268371e-03,
          4.85429913e-03, 4.75983554e-03, -8.55806342e-04,
          -7.98786990e-03, -4.02079755e-03, -1.56860775e-03,
          5.30761806e-03, -3.39847011e-03, 2.29960866e-03,
          2.80866632e-03, -7.22476514e-04, 6.30414521e-04,
          -1.11222139e-03, 2.44083977e-03, 3.51888430e-03,
          -6.31399220e-03, -5.64797223e-03, 1.38875376e-03,
          4.67410777e-03, -6.25314889e-04, 2.42150636e-04,
          -1.94810203e-03, -7.88635152e-05, 1.12679345e-03,
          -1.67008268e-03, -2.27858359e-03, 4.55158623e-03,
          1.56066730e-03, -2.07139435e-03, 1.68306613e-03,
          -3.18757538e-03, -3.95140378e-03, -4.12719994e-04,
          -9.62807611e-03, -3.82246403e-03, -9.40372644e-04,
          -1.72054715e-04, 1.18074915e-03, 4.01385780e-03,
          1.94304099e-03, -6.52286271e-03, -2.60135694e-03,
          -3.64158256e-03, -2.31724516e-05, -2.49837711e-03,
          -5.23201947e-04, 2.53853248e-03, -3.73923511e-04,
          -2.63474183e-03, -1.76725944e-03, -3.58676049e-03,
          -1.30092520e-02, -1.83442933e-03, 2.41493504e-03,
          -8.14151426e-04, -1.24346744e-03, 2.90696305e-04,
          6.41392637e-03, 2.88825692e-03, -1.23279853e-04,
          -1.29892044e-02, 2.09406973e-03, 2.37161270e-03,
          3.98913538e-03, -2.25668773e-03, 5.12215169e-03,
          3.79588641e-03, -5.57868881e-03, -5.21367649e-03,
          -9.77617968e-03, -4.78251558e-03, -3.78648448e-03,
          3.31789692e-04, 4.31128172e-03, 6.24225615e-03, 5.39004570e-03,
          -2.37120991e-03, -6.15262007e-03, -1.46322688e-02,
          -2.47488986e-03, -3.91960115e-04, 1.81181054e-03,
          5.89825166e-03, 8.38954374e-03, 8.85114074e-03, 6.51124353e-03,
          1.86406879e-03, -1.24661392e-03, 1.41889532e-03,
          2.14204099e-03, 1.11541792e-03, 5.23119513e-03, 3.84156359e-03,
          5.57906635e-04, 1.65955583e-03, 1.95896835e-03,
          -4.02745791e-03, -9.18079877e-06, -2.33169296e-03,
          -3.77136609e-03, 1.15243380e-03, 5.47009008e-03,
          3.39837559e-03, -2.50667729e-03, -2.19314313e-03,
          -7.37719750e-03, 1.95885543e-03, -1.70891115e-03,
          -1.56668213e-03, 6.12117629e-03, -2.49627302e-03,
          -2.41893693e-03, -4.68177302e-03, -3.20233055e-03,
          -1.40281646e-02, 5.12971252e-04, -7.50521105e-03,
          -7.19391741e-03, -3.52647225e-03, 7.86484964e-03,
          4.11025807e-03, 4.77260258e-03, 1.06416550e-02, 7.50275142e-03,
          1.03756494e-03, -4.09349892e-03, -3.42033710e-03,
          1.73964456e-03, 2.29048985e-03, 4.94501379e-04, 1.89450837e-03,
          4.17572539e-03, 4.09071473e-03, -6.55342033e-03,
          -9.97202098e-03, -7.66623206e-03, -5.58303576e-03,
          7.08996144e-04, 2.44795578e-03, -1.41463429e-03,
          2.08134111e-03, -3.97905661e-03, -1.88926351e-03,
          -4.65012854e-03, -2.90216762e-03, -4.60332994e-05,
          9.17246623e-04, 2.35547102e-03, -5.91071439e-04,
          -2.86663789e-03, -7.37879146e-03, -1.01587614e-02,
          -1.15744201e-02, -3.44275264e-03, -3.62411072e-03,
          6.49960060e-03, -1.84641010e-03, 3.27440933e-03,
          3.11298179e-03, 9.65302717e-03, -2.87115341e-03,
          4.98307170e-04, -1.34002918e-03, 1.51901471e-03,
          -5.33887185e-04, -1.76711672e-03, -2.98428902e-04,
          -4.68174787e-03, -7.68900616e-03, -6.58033555e-03,
          -9.82660614e-03, -1.20117953e-02, -6.50109816e-03,
          4.57833661e-03, 3.49361263e-03, 2.16477970e-03,
          -3.95255722e-03, -6.02877373e-03, -8.99456348e-03,
          -6.71762833e-03, 5.45190996e-04, 5.83186978e-04,
          2.59879488e-03, 3.86464340e-03, 3.84822302e-03,
          -4.23073163e-03, -1.18217124e-02, -1.32113546e-02,
          -1.48874121e-02, -7.74541637e-03, -3.20363068e-03,
          1.31288858e-03, 1.80939352e-03, -7.15909991e-04,
          -5.94671397e-03, -6.93432987e-04, -6.26359554e-03,
          -1.21354572e-02, -1.20208021e-02, -7.88817834e-03,
          -2.53881444e-03, 1.51780981e-03, 5.35139581e-03,
          -9.92495101e-03, -1.30239772e-02, -1.10016977e-02,
          -1.30928066e-02, -1.32631352e-02, -6.39552763e-03,
          5.59433876e-03, 6.00426039e-03, 2.35392456e-03,
          -6.52750349e-03, -4.87459777e-03, -1.42088709e-02,
          -1.63257904e-02, -1.14216786e-02, -5.13706123e-03,
          -2.09592050e-03, 3.92427295e-03, 4.88735456e-03,
          -1.09509164e-02, -1.45432903e-02, -1.68231148e-02,
          -1.42099047e-02, -1.41667621e-02, -5.63467806e-03,
          -1.74602191e-03, 7.48883467e-03, 9.99025535e-03,
          -4.17473214e-03, -1.94356404e-03, -9.47885122e-03,
          -1.27603961e-02, -1.19255148e-02, -9.07464139e-03,
          -4.60659899e-03, -6.73809845e-04, 7.19496165e-04,
          -7.55993649e-03, -1.82138905e-02, -1.26282629e-02,
          -1.46492608e-02, -1.56728998e-02, -1.17112463e-02,
          -3.81753431e-03, -1.49535574e-03, 4.38619684e-03,
          -9.38726589e-03, 4.01260285e-03, -1.24499286e-02,
          -1.20397760e-02, -1.13242799e-02, -1.01065720e-02,
          -9.07542370e-03, -4.33282461e-03, -8.06524651e-04,
          -1.45018194e-02, -1.96376219e-02, -1.81106646e-02,
          -1.31014362e-02, -1.23753333e-02, -1.67885851e-02,
          -3.74437915e-03, 5.33002336e-03, 1.24673732e-02,
          2.44430383e-03, 1.19750341e-02, -9.98495147e-03,
          -1.21372081e-02, -1.58016551e-02, -1.10932468e-02,
          -1.29821831e-02, -6.40627416e-03, -2.01967359e-03,
          -4.96159587e-03, -3.44266137e-03, -1.44413188e-02,
          -1.92322675e-02, -2.04089750e-02, -2.01916900e-02,
          -1.01915449e-02, -3.07362922e-03, 7.11752335e-03,
          -3.99989681e-03, 4.35985392e-03, -1.59247722e-02,
          -1.12622520e-02, -1.23045677e-02, -1.67304575e-02,
          -1.85701419e-02, -1.22358790e-02, -6.63848082e-03,
          -1.09998416e-02, -1.06496820e-02, -1.67051479e-02,
          -1.95484869e-02, -2.21736226e-02, -2.34178528e-02,
          -1.03646237e-02, -1.05327712e-02, -8.28053802e-03,
          -1.07806958e-02, -1.45864179e-02, -7.16026267e-03,
          -9.49022826e-03, -9.54029616e-03, -8.25294014e-03,
          -6.87421160e-03, -8.51162896e-03, -4.85222321e-03,
          -9.45660472e-03, 2.03895513e-02, 2.77340226e-03,
          9.57110338e-03, 3.92329507e-03, -1.32334721e-03,
          -1.64544974e-02, -1.52951386e-02, -1.38765527e-02,
          -1.27880387e-02, -2.06599757e-02, -1.06649147e-02,
          -1.05931535e-02, -1.20084174e-02, -1.63629744e-02,
          -1.46931270e-02, -1.23522012e-02, -9.49241035e-03,
          -1.25941206e-02, -2.97582010e-03, -6.44251844e-03,
          -3.35301878e-03, -1.07635083e-02, -1.27043631e-02,
          -8.36485252e-03, -7.69265927e-03, -5.31057455e-03,
          -8.82816780e-03, -8.75636749e-03, -3.19700898e-03,
          2.34090397e-03, 1.72911189e-03, -5.27500594e-03,
          4.54373192e-03, -7.56215444e-03, -4.15235152e-03,
          -7.40482239e-03, 4.14614333e-03, 2.63120164e-03,
          1.88560821e-02, 1.66680515e-02, 9.76787694e-03,
          -1.39718829e-02, -9.30301193e-03, -8.07621889e-03,
          -9.19569656e-03, -1.90733839e-02, -7.49592576e-03,
          -6.27333112e-03, -7.34617887e-03, -8.75947718e-03,
          -7.10353861e-03, -9.80107859e-03, -7.88891688e-03,
          -1.01150302e-02, -4.76062717e-03, -7.06221489e-03,
          4.52729501e-03, 1.69470953e-03, -3.05041648e-03,
          7.80254020e-04, -7.25546433e-03, -5.92102390e-03,
          -4.07597562e-03, -5.76656777e-03, -5.34034986e-03,
          1.19914934e-02, 7.32562784e-03, 5.41174319e-03, 4.47744923e-03,
          -6.76197093e-03, -4.27812012e-03, -5.17957320e-04,
          8.03259574e-03, -8.05119053e-04, 9.02605988e-03,
          5.04625728e-03, 2.68931338e-03, -9.03356168e-03,
          -1.20369783e-02, -9.54628922e-03, -8.12298618e-03,
          -1.23751154e-02, -8.61406606e-03, 4.30116430e-03,
          1.16851996e-03, -4.54189628e-03, -8.96102004e-03,
          -8.73940438e-03, -6.23252802e-03, -1.32834841e-03,
          -1.89337251e-03, -5.86076407e-03, 6.09326176e-03,
          3.40180239e-03, -3.45845800e-03, 5.03505301e-03,
          -1.68431667e-03, -1.68233222e-04, -2.30193633e-04,
          -7.46063562e-03, -5.66236256e-03, 1.67767226e-03,
          3.03702895e-03, 6.58477657e-03, 1.11629395e-02, 6.42600097e-03,
          -2.09682691e-03, -7.12354027e-04, 2.46590609e-03,
          1.68771390e-03, 6.52329880e-04, 3.12973675e-03, 1.10682426e-02,
          -7.00559840e-03, -6.21237000e-03, -1.25951588e-03,
          -3.38354404e-03, -1.80254392e-02, -8.15076660e-03,
          1.61876727e-03, 4.27894294e-03, -2.53409054e-03,
          -5.19095873e-03, -6.53052842e-03, -4.94845631e-03,
          -3.89110949e-03, -1.26008354e-02, -7.23599829e-03,
          2.65699159e-03, 2.48181494e-03, -1.23398157e-03,
          1.57789718e-02, 5.74162928e-03, -8.90331750e-04,
          -3.71484435e-03, -3.88646289e-03, -1.36814127e-03,
          -2.15796847e-03, 6.08585961e-03, 1.43591436e-02,
          1.07812444e-02, 9.10425186e-03, 9.00356856e-04,
          -7.02746119e-03, -8.84119235e-03, -5.25677460e-04,
          1.47922884e-03, 7.03959074e-03, 1.17171025e-02, 3.33891972e-03,
          -1.90121948e-03, -6.32936182e-03, -7.32140476e-03,
          -1.51940370e-02, -6.46239473e-03, 1.27290084e-03,
          1.84961024e-03, 2.37974385e-03, 5.26196184e-03, 1.84420776e-03,
          -1.24897982e-03, -1.10087683e-02, -2.26597339e-02,
          -9.61400475e-03, -5.98565675e-03, -7.90136692e-04,
          -2.27887824e-04, 9.05627385e-03, 8.08677077e-03,
          4.30344045e-03, -7.28004612e-04, -4.15045395e-03,
          -3.49774200e-05, 2.03933031e-03, -1.52182649e-03,
          8.25926661e-03, -7.14759808e-04, 1.66294537e-03,
          -5.67533367e-04, -1.15425256e-03, -1.42831411e-02,
          -3.07416520e-03, -5.20279398e-03, -6.95169810e-03,
          -4.35265293e-03, 7.18621118e-03, 7.58943567e-03,
          7.32436264e-03, -6.38324860e-03, -1.32035883e-02,
          -7.36328028e-03, -3.12304735e-04, -6.93282287e-04,
          3.86317261e-03, 2.12000054e-03, -1.09833330e-04,
          1.90369226e-03, -4.76147700e-03, -1.06613887e-02,
          -6.95825461e-03, 1.74577418e-03, 5.32645558e-04,
          -9.93593203e-05, 1.79944525e-03, 4.04568418e-04,
          1.17809814e-03, 3.26845632e-03, -5.47686219e-03,
          -3.01741576e-03, -2.49006413e-03, -2.41999421e-03,
          4.15629707e-04, -3.35678481e-03, 7.09905988e-03,
          1.32941327e-03, 4.16754512e-04, -9.81181767e-03,
          -9.93863773e-03, -8.20724852e-03, 1.23617612e-03,
          -1.68494554e-03, 7.69106497e-04, 2.59211403e-03,
          5.47460327e-03, 2.54439702e-03, -4.77778865e-03,
          -4.84973891e-03, -1.87801651e-03, 5.49424905e-04,
          -8.39292537e-04, -1.00420683e-03, 7.86717748e-04,
          3.23919044e-03, -3.46853002e-03, -1.41476290e-02,
          -1.03039229e-02, -4.28682845e-03, -1.75930254e-04,
          -1.44700648e-03, -5.71714714e-04, 8.40225909e-03,
          5.93147520e-03, -1.61743793e-03, -2.45351787e-03,
          -5.55128511e-03, -9.24576819e-03, 9.93422931e-04,
          1.10968261e-03, 3.75767238e-03, 6.95298146e-03, 5.08283637e-03,
          -4.30576783e-03, -8.82488117e-03, -1.23384446e-02,
          -1.45886391e-02, -5.18661458e-03, -7.40451680e-04,
          -2.98474822e-03, 3.43906460e-03, 7.91290309e-03,
          -2.65874644e-03, -6.35912234e-04, -1.03307534e-02,
          -1.10583184e-02, -4.37874161e-03, -4.04119631e-03,
          -2.59273860e-04, -1.37478416e-03, -1.65824743e-03,
          -1.02917114e-02, -1.30273057e-02, -1.80654693e-02,
          -1.65851042e-02, -1.13333482e-02, -4.76404559e-03,
          9.94881056e-03, 1.17024053e-02, 5.91449719e-03,
          -1.10292889e-03, 1.85698806e-03, -1.26860198e-02,
          -1.25144720e-02, -7.75030721e-03, -3.64374719e-05,
          5.68795111e-03, 9.53841489e-03, 5.81412343e-03,
          -8.08758382e-03, -7.85022788e-03, -1.51149314e-02,
          -1.23081077e-02, -1.16695864e-02, -3.66158644e-03,
          2.34845676e-03, -2.68093776e-03, 1.98769593e-03,
          -6.54553575e-03, -3.21881403e-03, -1.98917631e-02,
          -1.68696158e-02, -1.15438821e-02, -1.34931016e-03,
          -1.20169960e-03, -4.42559738e-03, -3.82946827e-03,
          -1.01825306e-02, -1.56542901e-02, -1.72562785e-02,
          -1.77351814e-02, -1.61132365e-02, -5.69058629e-03,
          5.94904879e-03, 7.14076124e-03, 1.37697319e-02,
          -2.87573226e-03, 1.23394607e-02, -8.09539948e-03,
          -7.46963499e-03, -7.37451296e-03, -6.27164613e-04,
          -5.69841452e-03, -1.26682466e-03, 3.25463270e-03,
          -9.94230621e-03, -1.58656053e-02, -1.54643711e-02,
          -9.37631074e-03, -8.85056425e-03, -1.05105918e-02,
          -4.61977907e-03, -5.04880352e-03, -1.34730828e-03,
          -9.57221352e-03, 3.80537426e-03, -1.39153413e-02,
          -1.20993070e-02, -1.43180303e-02, -5.43368421e-03,
          -1.09955575e-02, -5.30348439e-03, -9.36059980e-04,
          -1.41836870e-02, -2.28358712e-02, -1.96058564e-02,
          -1.60435103e-02, -1.60896964e-02, -1.15260063e-02,
          -2.55592563e-03, 2.72599980e-03, 1.41131803e-02,
          2.65774108e-03, 6.46104896e-03, -1.32640740e-02,
          -7.61817629e-03, -1.09275514e-02, -8.27819388e-03,
          -1.38182379e-02, -1.50377061e-02, -3.64245987e-03,
          -7.92296696e-03, -3.68695636e-03, -1.41033493e-02,
          -1.42011121e-02, -1.99921336e-02, -1.78534761e-02,
          -1.03760995e-02, -7.16412347e-03, 2.59235618e-03,
          -5.76318847e-03, -2.32510455e-03, -1.67161934e-02,
          -1.05842669e-02, -1.37260351e-02, -1.07856020e-02,
          -1.70848146e-02, -1.86671074e-02, -1.21094072e-02,
          -1.14888232e-02, -1.05835553e-02, -1.98527984e-02,
          -1.62290595e-02, -2.06237491e-02, -2.08838992e-02 ]
   decision_functions:
      -
         sv_count: 1
         rho: -7.9477780551019095e-01
         alpha: [ 1. ]
