%YAML:1.0
opencv_ml_svm:
   format: 3
   svmType: EPS_SVR
   kernel:
      type: LINEAR
   C: 1.0000000000000000e-02
   p: 1.0000000000000001e-01
   term_criteria: { epsilon:1.0000000000000000e-03, iterations:1000 }
   var_count: 4356
   sv_total: 1
   support_vectors:
      - [ -1.36918779e-02, -1.57381371e-02, -1.53608965e-02,
          -1.60706695e-02, -2.45416742e-02, -1.50775574e-02,
          -1.12931030e-02, -1.17892409e-02, -1.35332868e-02,
          -1.25372047e-02, -1.81014836e-02, -1.32705783e-02,
          -1.81069896e-02, -1.78921316e-02, -1.63648818e-02,
          -9.09755658e-03, -1.24848960e-02, -1.16670532e-02,
          -1.14863748e-02, -1.42957745e-02, -1.28605114e-02,
          -1.50781488e-02, -1.36791095e-02, -1.35584110e-02,
          -1.33169973e-02, -1.52498251e-02, -1.20710339e-02,
          4.01462335e-03, -2.11422169e-03, 2.47850898e-03,
          -7.97943398e-03, 5.68867661e-03, -1.22964326e-02,
          -8.76917224e-03, -1.80067960e-02, -2.65763048e-03,
          -1.70300230e-02, -1.60223562e-02, -1.24404700e-02,
          -1.55398212e-02, -2.19397228e-02, -1.43873086e-02,
          -8.80017504e-03, -1.42127005e-02, -1.74007397e-02,
          -1.44276265e-02, -1.29412562e-02, -1.04503557e-02,
          -1.12543534e-02, -2.08495017e-02, -1.22835245e-02,
          -3.53276357e-03, -9.29557439e-03, -1.49510643e-02,
          -2.96348566e-03, -8.15935154e-03, -7.27244280e-03,
          -1.07286125e-02, -1.03166848e-02, -8.97525344e-03,
          -6.77263131e-03, -1.51384473e-02, -7.44940760e-03,
          6.31031534e-03, -7.75266625e-03, -7.35910563e-03,
          -6.64968323e-03, -5.72939357e-03, -8.15792661e-03,
          -1.21727970e-03, -8.58610682e-03, 6.37968211e-03,
          -1.40473237e-02, -1.57184303e-02, -9.56380460e-03,
          -1.25845335e-02, -2.35337354e-02, -8.73628166e-03,
          -3.11465538e-03, -7.40854768e-03, -1.24750547e-02,
          -1.39030349e-02, -1.28404619e-02, -9.45197977e-03,
          -1.56305749e-02, -1.79663487e-02, -1.55335786e-02,
          -1.04463147e-02, -8.56778771e-03, -9.58022010e-03,
          -1.20691699e-03, -1.14113856e-02, -6.40014885e-03,
          -1.17378253e-02, -1.14918482e-02, -6.12105895e-03,
          -8.24270188e-04, -3.39520420e-03, 2.36892095e-03,
          3.99747863e-03, -4.81700385e-03, -2.95999739e-03,
          -8.18262529e-03, -7.09404063e-04, -7.32425647e-03,
          -7.53529894e-04, -4.27110167e-03, 7.67450081e-03,
          -1.52845597e-02, -1.39354877e-02, -9.33191273e-03,
          -1.15762902e-02, -2.40994263e-02, -1.76038723e-02,
          -9.45397373e-03, -5.84873324e-03, -9.86575335e-03,
          -1.00739235e-02, -1.09935161e-02, -8.54195375e-03,
          -1.09023210e-02, -1.48360189e-02, -1.53972022e-02,
          -8.23485386e-03, -4.44923481e-03, -5.90457348e-03,
          -3.92323593e-03, -5.71251381e-03, -2.13946914e-03,
          -7.45487260e-03, -9.81355179e-03, -5.54444734e-03,
          5.01840096e-03, -1.43139856e-03, -2.56923842e-04,
          1.10385995e-02, -2.99921050e-03, 2.25560530e-03,
          -3.43299261e-03, 9.70871001e-03, -1.09591670e-02,
          8.72341276e-04, -1.87309599e-03, 9.15340241e-03,
          -8.20447691e-03, -1.32518141e-02, -1.12177357e-02,
          -1.35228308e-02, -1.19752772e-02, -1.33418376e-02,
          -8.04419257e-03, -2.92127044e-03, -3.83209274e-03,
          -9.04447213e-03, -1.38608795e-02, -1.78852640e-02,
          -1.65927522e-02, -1.44960023e-02, -1.47073939e-02,
          -8.61009490e-03, -4.42508748e-03, -2.26462446e-03,
          -1.97478966e-03, -5.54284593e-03, 5.68430754e-04,
          -1.04633756e-02, 6.27289934e-04, -1.11245038e-02,
          -1.40525715e-03, -1.18247571e-03, -2.49136036e-04,
          1.23308860e-02, 8.17511696e-03, -1.11923576e-03,
          -1.05556510e-02, 6.16815547e-03, -1.06187686e-02,
          -4.18138737e-03, -6.60834019e-04, 1.25179132e-02,
          -7.66261108e-03, -1.17580481e-02, -1.35413939e-02,
          -1.15578594e-02, -2.29628328e-02, -1.37108751e-02,
          -8.15292541e-03, -2.33905762e-03, -3.76287871e-03,
          -7.98037183e-03, -7.09133735e-03, -3.05647030e-03,
          -6.75708940e-03, -1.81405507e-02, -1.63092315e-02,
          -1.08201150e-02, -5.45763876e-03, -8.04084167e-03,
          6.99260039e-03, 2.02873792e-03, -2.39057257e-03,
          -6.30710367e-03, -7.63203576e-03, -7.64582818e-03,
          5.85764123e-04, 1.93190086e-03, 4.83202562e-03, 9.18052718e-03,
          3.70251713e-03, 2.92061770e-04, -1.71329081e-03,
          -5.94478380e-03, -9.92033817e-03, 5.61648805e-04,
          5.73944533e-03, 1.19518582e-02, -5.89313451e-03,
          -2.44849548e-03, -4.79658041e-03, -7.03686383e-03,
          2.14747270e-04, -9.35221091e-03, -5.66997984e-03,
          -1.66836462e-03, -6.41302578e-03, -9.46456660e-03,
          -7.68971769e-03, -7.63881905e-03, -8.77775997e-03,
          -1.33923367e-02, -1.46202287e-02, -1.51734715e-02,
          -8.87573976e-03, -1.20776398e-02, 7.66658038e-03,
          3.54049174e-04, -2.26200023e-03, -4.92658175e-04,
          5.77805657e-03, 1.64176885e-03, 7.96394236e-03, 1.13758584e-02,
          1.18386941e-02, 5.68021846e-04, -9.00801551e-03,
          -9.17968992e-03, -7.25438260e-03, -1.40994005e-02,
          -8.00951291e-03, 2.91899400e-04, 5.88622736e-03,
          5.09849610e-03, -5.92622720e-03, -1.00823650e-02,
          -6.67821849e-03, -5.39229577e-03, -3.17265722e-03,
          -1.38440775e-02, -1.02278981e-02, -8.22542794e-03,
          -1.07902130e-02, -9.26516205e-03, -1.55159719e-02,
          -1.59272701e-02, -1.05318399e-02, -9.67283174e-03,
          -1.66474599e-02, -8.82333145e-03, -1.18570998e-02,
          -1.12976944e-02, 2.13076756e-03, -9.79077071e-03,
          -9.33836307e-03, -6.09872723e-03, 6.84700627e-03,
          -2.29247892e-03, 1.21637499e-02, 1.36331003e-02,
          5.47315646e-03, -4.26760782e-03, -1.68369468e-02,
          -1.42621528e-02, -1.05967363e-02, -3.39988898e-03,
          -1.24290427e-02, 9.57091048e-04, -4.61190211e-04,
          6.98366959e-04, -9.61678755e-03, -1.63696632e-02,
          -1.73607022e-02, -1.21476287e-02, -1.11698005e-02,
          -1.68677121e-02, -9.19892825e-03, -7.87139498e-03,
          -8.08449462e-03, -1.11118341e-02, -1.45478994e-02,
          -1.50673399e-02, -1.25124305e-02, -2.24498771e-02,
          -1.84780154e-02, -1.46495439e-02, -9.47039761e-03,
          -1.15113417e-02, 1.65010558e-03, -1.21297976e-02,
          -9.29312501e-03, -8.18518084e-03, 1.27758076e-02,
          -1.27840554e-02, 5.98166743e-03, 2.97641172e-03,
          7.82254245e-03, -1.00716604e-02, -1.29264155e-02,
          -1.00496942e-02, -1.13608660e-02, 1.49592282e-02,
          -2.32965816e-02, -1.22323828e-02, -1.16177229e-02,
          -8.96364916e-03, -8.63457192e-03, -1.02018844e-02,
          -1.05564566e-02, -1.13307862e-02, -1.00398008e-02,
          -1.53480386e-02, -9.26608965e-03, -1.29373129e-02,
          -1.06192278e-02, -1.43029704e-03, -6.00276841e-03,
          -9.34804603e-03, -1.74603239e-02, -2.91640963e-02,
          -2.83762142e-02, -1.97819248e-02, -1.39201516e-02,
          -7.28843920e-03, 1.46031034e-05, -9.80035122e-03,
          -2.60934862e-03, -6.25964114e-03, 1.83174256e-02,
          -1.78081654e-02, -1.39869601e-02, -1.61674675e-02,
          -4.32411768e-03, 1.15260836e-02, -1.41822221e-03,
          -3.82017926e-03, -7.51756085e-03, -1.43645201e-02,
          -2.98232734e-02, -2.25310400e-02, -1.60492435e-02,
          6.58633048e-03, -4.52260254e-03, -8.39616824e-03,
          -1.14187784e-02, -1.57247297e-02, -1.51946405e-02,
          -2.27665212e-02, -1.61145218e-02, -9.24095511e-03,
          -5.37029654e-03, -1.43136131e-02, -1.45694986e-02,
          -1.64914448e-02, -1.82681661e-02, -3.09350844e-02,
          -1.90569591e-02, -1.66400596e-02, -1.19388746e-02,
          -1.13559505e-02, 6.91473018e-03, -2.13173497e-03,
          -4.03267657e-03, -9.87548474e-03, -7.83398096e-03,
          -2.60387082e-02, -1.77023057e-02, -1.00005129e-02,
          6.50533056e-03, -1.26160318e-02, -1.23488018e-02,
          -1.34211322e-02, -1.69358626e-02, -2.49462593e-02,
          -1.84562523e-02, -1.84754916e-02, -1.37615530e-02,
          -8.95195547e-03, -1.53410416e-02, -1.52171347e-02,
          -8.97326786e-03, -1.32037485e-02, -1.75666846e-02,
          -1.61668900e-02, -1.34236477e-02, -1.51304165e-02,
          -1.55759212e-02, -1.37125365e-02, -1.10031841e-02,
          -1.25030184e-03, -1.05732046e-02, -2.40129372e-03,
          -1.06334388e-02, -1.18316542e-02, -1.57008842e-02,
          -1.27488850e-02, -6.13348326e-03, -9.54198930e-03,
          -3.25437379e-03, -8.22114293e-03, -1.46399261e-02,
          -1.51636600e-02, -1.48683535e-02, -1.50273768e-02,
          -1.16738901e-02, 4.49894089e-03, -3.24995932e-03,
          2.77071469e-03, 1.65217125e-03, 1.65449772e-02,
          -1.09951980e-02, -1.50627783e-02, -1.50140757e-02,
          -6.52537914e-04, -1.27130318e-02, -8.51783250e-03,
          -7.47912889e-03, -7.89023377e-03, -1.41657656e-02,
          -8.01779982e-03, -4.77109011e-03, -1.36873731e-02,
          -1.56396795e-02, -7.35326856e-03, -6.82292506e-03,
          -9.03246179e-03, -6.62001502e-03, -1.26072206e-02,
          -2.85113160e-03, 2.08174181e-03, -4.36576409e-03,
          -1.08214673e-02, -5.39421476e-03, -5.38256206e-03,
          -3.62687279e-03, -6.14890503e-03, -8.48069601e-03,
          -7.45819183e-03, -4.61271545e-03, -7.86903687e-03,
          -5.24075003e-03, 5.04415901e-03, -4.19344241e-03,
          -4.86618560e-03, -5.01792738e-03, -7.04428134e-03,
          -4.93840128e-03, -1.17668300e-03, -9.00775567e-03,
          4.35078633e-04, -6.00752374e-03, -8.75971839e-03,
          -6.56228559e-03, -8.83536786e-03, -1.75356586e-02,
          -4.28520562e-03, 6.09829222e-05, -5.83068328e-03,
          -3.92236561e-03, -7.49610504e-03, -9.93153546e-03,
          -4.98217950e-03, -5.93447080e-03, -1.09174838e-02,
          -5.26933838e-03, 1.00903213e-03, -2.49966979e-03,
          -6.80346088e-03, -1.23319158e-03, -6.35826308e-03,
          -3.29302927e-03, -6.67315023e-03, -1.18033811e-02,
          -2.99823238e-03, -6.32394454e-04, -4.75028157e-03,
          1.79185066e-03, 8.36233795e-03, -9.77290887e-03,
          -2.40952987e-03, -3.98520241e-03, 6.67114416e-03,
          -2.09239521e-03, 4.55190847e-03, 1.88498537e-03,
          1.22872768e-02, -1.04571898e-02, -9.50350892e-03,
          -8.38502776e-03, -6.65046507e-03, -1.27457110e-02,
          -3.84960766e-03, 4.42300923e-03, -4.20194166e-03,
          -9.71010607e-03, -4.48139012e-03, -8.15561228e-03,
          -7.86664546e-04, -1.83786533e-03, -5.94591582e-03,
          -6.86148228e-03, -1.08430185e-03, -7.31718400e-03,
          -4.71479399e-03, -2.49719713e-03, -7.84622692e-03,
          -1.57935813e-03, -1.59303215e-03, -3.67956283e-03,
          -2.36101612e-03, 6.51324075e-03, 2.59902631e-03,
          -2.56349030e-03, 6.92139985e-03, 1.80872215e-03,
          9.45304707e-03, 6.22325251e-03, 2.58102454e-03,
          -2.78292294e-03, 3.48876510e-03, -8.42808560e-03,
          9.50992282e-04, -4.78858268e-03, -4.19060746e-03,
          1.52360799e-03, -2.26453901e-03, -5.71088120e-03,
          -8.70112050e-03, -3.37518798e-03, -7.43892649e-03,
          -9.81865637e-03, -3.13431211e-03, -5.65500290e-04,
          -7.59098562e-04, -2.40675220e-03, -3.82721494e-03,
          -1.84302684e-03, 6.52204035e-04, -2.05327594e-03,
          -8.95317737e-03, 4.47598333e-03, 2.29458674e-03,
          5.41925803e-03, -7.12520341e-05, -3.50735919e-03,
          -1.15271797e-02, -1.72684109e-03, -1.07166264e-02,
          -4.81327996e-03, 7.79776881e-03, -3.89961671e-04,
          5.92805166e-03, 5.44346462e-04, 7.46162958e-04,
          -2.37235148e-03, 1.77953672e-03, -3.78509285e-03,
          6.17998594e-04, -6.44197315e-03, -1.00932631e-03,
          -1.76723721e-03, -2.19282228e-03, -8.36510211e-03,
          -2.63373763e-03, -7.04689883e-04, -1.29439775e-03,
          -1.20019354e-02, -6.27087522e-03, -1.55779859e-03,
          -1.74921611e-03, -6.03770422e-05, -9.16468352e-03,
          -6.14233362e-03, -2.85249669e-03, -4.30879329e-04,
          -5.96327707e-03, 6.82621589e-03, -6.29503455e-04,
          -8.00702663e-04, 1.11465750e-03, -4.42140875e-03,
          4.74253233e-04, 3.01067624e-03, 1.32403080e-03, 1.57734705e-03,
          4.31796507e-05, 4.56905895e-04, -2.98618875e-03,
          -7.02837016e-04, -9.05938726e-03, 1.51630410e-03,
          -3.54112801e-03, -3.17852385e-03, -1.42908935e-03,
          1.25647243e-03, -2.04471056e-03, -2.74103181e-03,
          1.08552842e-04, 2.44488183e-04, 8.11818114e-04, 1.58041669e-03,
          6.90143148e-04, 3.72329785e-04, -3.77742085e-03,
          -8.13524239e-03, -8.14422034e-03, -6.48150872e-03,
          -1.58056244e-02, -4.67894366e-03, 1.26599905e-03,
          4.94290143e-03, -1.23753061e-03, 6.46810373e-03,
          -2.39680568e-03, -1.93428819e-03, -9.72433714e-04,
          -2.56507937e-03, 6.99366489e-03, 4.36367729e-04,
          -3.45550082e-03, 3.43137607e-03, 6.00825017e-03,
          -7.31522823e-03, -7.37686781e-03, -7.11901672e-03,
          -1.80945210e-02, -4.69692377e-03, -4.64488938e-03,
          1.44068879e-04, 8.70469864e-03, -7.14843161e-03,
          -9.46676359e-03, -8.85535125e-03, -7.15716882e-03,
          -8.17737821e-03, -5.57406479e-03, 5.41243097e-03,
          6.56945538e-03, -7.26556580e-04, -8.64887517e-03,
          -1.12793045e-02, -8.78362823e-03, -8.18201061e-03,
          -5.47566032e-03, -1.16473278e-02, 1.63972401e-03,
          3.33700632e-03, -4.76916134e-03, 1.56788882e-02,
          -8.83220974e-03, -7.53689837e-03, -5.78470947e-03,
          -1.48558849e-02, -6.23829337e-03, 8.05406831e-03,
          1.03719048e-02, 1.58982556e-02, 3.41996248e-03,
          -1.02158226e-02, -8.77215806e-03, -7.78238568e-03,
          -1.51704894e-02, -1.20124463e-02, 2.00184132e-03,
          1.03227105e-02, 7.62724411e-03, -8.44162796e-03,
          -8.10921472e-03, -8.95983446e-03, -7.48462044e-03,
          -5.51057747e-03, -1.45487105e-02, 4.00522677e-03,
          1.82289782e-03, -5.79212047e-03, -1.36307338e-02,
          -1.03098806e-02, -1.06779244e-02, -1.02440491e-02,
          -1.26366299e-02, -2.54819281e-02, -1.54335145e-02,
          -1.17660118e-02, -1.43707292e-02, 2.80796527e-03,
          -1.13226976e-02, -6.43010298e-03, -2.90481234e-03,
          -2.38097459e-03, -4.59744455e-03, 1.46240387e-02,
          2.10461318e-02, 1.54718421e-02, -9.86535568e-03,
          -1.63067468e-02, -1.28340051e-02, -1.24089289e-02,
          -1.83102768e-02, -2.22137645e-02, -1.92757347e-03,
          -1.94876350e-03, -3.05228564e-03, -6.89669279e-03,
          -5.00627141e-03, -2.73689604e-03, -1.13987550e-03,
          2.88060587e-03, -1.63424239e-02, -1.09442146e-02,
          -1.03103658e-02, -9.45917610e-03, 1.89642876e-03,
          -2.75265449e-03, -3.61007592e-03, -6.75898464e-03,
          -1.37378518e-02, -2.01970264e-02, -1.30384350e-02,
          -1.20558189e-02, -2.64978642e-03, 6.93004811e-04,
          -1.19881714e-02, -9.05303285e-03, -6.59053633e-03,
          -6.21176208e-04, -1.17284162e-02, 4.80846764e-04,
          9.07997251e-04, 5.45495469e-03, 5.30007354e-04,
          -1.24129234e-02, -1.53595554e-02, -1.61423497e-02,
          -7.45166838e-03, -1.86838098e-02, -1.36469528e-02,
          -8.20837170e-03, -4.23755628e-05, 5.12369582e-03,
          -3.68706271e-04, -2.98130268e-04, -7.24396296e-03,
          -1.24217418e-03, -1.93570163e-02, -1.14250081e-02,
          -1.22447964e-02, 9.36604862e-04, -8.80686846e-03,
          -9.04593058e-03, -7.13385269e-03, -1.13303196e-02,
          -2.26506535e-02, -1.58319287e-02, -1.51849641e-02,
          -1.31104197e-02, -9.22542159e-03, 6.99916761e-03,
          -7.57249957e-03, -1.19023351e-02, -1.19784027e-02,
          2.32239440e-02, -1.73912235e-02, -1.21276500e-02,
          -1.10791987e-02, 6.22495916e-03, -1.07223671e-02,
          -1.74568985e-02, -1.65943410e-02, -1.55873401e-02,
          -2.73203012e-02, -2.10505892e-02, -1.86755192e-02,
          -1.74413137e-02, -8.84224661e-03, -1.13070039e-02,
          -7.52098951e-03, -1.03487668e-03, -4.98343259e-03,
          -1.23186903e-02, -1.27183320e-02, -1.33882295e-02,
          -1.50038125e-02, -1.46524953e-02, -5.74909337e-03,
          -6.23034779e-03, 1.26774504e-03, -1.68484321e-03,
          6.36359770e-03, -1.12985587e-02, -1.35511067e-02,
          -1.31119480e-02, -6.55928301e-03, -8.19686800e-03,
          -5.07902959e-03, 7.61865696e-04, -3.64226336e-03,
          -8.64032190e-03, -1.03992447e-02, -1.42690726e-02,
          -1.56856906e-02, -1.48838302e-02, -1.94261476e-04,
          -4.36343747e-04, 8.67854338e-03, 5.89321018e-04,
          6.05500257e-03, -9.12066177e-03, -9.82010365e-03,
          -1.41401831e-02, -1.69538567e-03, -1.03956396e-02,
          -6.80493191e-03, -9.38732992e-04, -4.91909543e-03,
          -7.31335860e-03, -5.17184846e-03, -6.90268027e-03,
          -6.66238833e-03, -7.03824963e-03, -8.50633252e-03,
          -5.52946236e-03, -9.08563659e-03, -7.65099656e-03,
          -6.37796300e-04, -2.11123843e-03, -6.15838449e-04,
          -4.83338861e-03, -6.65038312e-03, -1.04863523e-02,
          -4.58210846e-03, 2.03394401e-03, -5.07257693e-03,
          -1.10861650e-02, -5.20112179e-03, -8.00929777e-03,
          -1.29133509e-02, -7.36602489e-03, 6.13160711e-03,
          -2.30640246e-04, -4.44446737e-03, -1.45126297e-03,
          1.75480489e-02, -4.74437885e-03, -4.36626980e-03,
          -8.23851023e-03, 5.59211522e-03, -4.81084315e-03,
          -3.64311342e-03, -1.07981302e-02, -8.47012084e-03,
          -9.83120594e-03, -8.12080223e-04, 1.03310694e-03,
          -2.62294360e-03, -6.85715023e-03, -6.08584285e-03,
          -5.21059148e-03, -7.93638639e-03, -7.21498579e-03,
          -4.20120219e-03, 5.02164196e-03, 8.10223445e-03,
          7.47571187e-03, -6.15266908e-04, -5.87794278e-03,
          -2.28534010e-03, -9.51285288e-03, -9.20416880e-03,
          -4.08632867e-03, 1.22391363e-03, 5.92516910e-04,
          -2.27331021e-03, -4.87177307e-03, 7.57164380e-04,
          7.44470442e-03, 7.40871252e-03, 2.66394974e-03, 5.29832346e-03,
          5.04890690e-03, 4.87871422e-03, 1.13601435e-03, 1.11372746e-03,
          -5.31056756e-03, -3.56950192e-03, -1.76225475e-03,
          -2.79008900e-03, -5.51517913e-03, -2.87286448e-03,
          5.89068420e-03, 3.28125595e-03, -4.56101028e-03,
          -1.59527326e-03, -7.62710697e-04, 6.77659363e-03,
          4.60845092e-03, 3.67700704e-04, -2.10661674e-03,
          2.14500329e-03, -4.38429415e-03, -6.24813745e-03,
          2.47838296e-04, 4.00754437e-03, 4.27622814e-03, 1.26269370e-04,
          -1.63157599e-03, -2.98023131e-03, 1.19751296e-03,
          1.31395599e-03, -1.76109700e-03, -1.57893891e-03,
          4.81238749e-05, -1.38048417e-04, 2.99890933e-04,
          -4.77801403e-03, -8.22727045e-04, 4.16105008e-03,
          2.92807096e-03, 6.62026927e-04, 3.52770300e-03, 2.13908637e-03,
          5.98489586e-03, 4.30673873e-03, -7.30171148e-03,
          -3.75518925e-03, 1.61221938e-03, -4.63796314e-03,
          -2.62948847e-03, -1.39156415e-04, -2.53594853e-03,
          5.89404674e-03, 1.58904784e-03, -6.17788328e-06,
          -7.25725549e-04, -8.40956438e-03, -6.80376589e-03,
          -6.72842562e-03, 6.25243236e-04, 1.09122240e-03,
          8.25417228e-04, 1.51399372e-03, -9.94548108e-03,
          9.78701515e-04, 6.63252175e-03, 4.38986905e-03, 2.38490029e-04,
          -4.48287278e-03, 8.16456974e-04, 3.96862300e-03,
          1.88293832e-03, -3.06439656e-03, 1.79985259e-03,
          -8.69540032e-03, -6.46548672e-03, -4.04499238e-03,
          6.49799872e-03, 5.33961575e-04, 3.06881638e-03, 4.57442598e-03,
          2.77770497e-03, 3.55184637e-03, -2.27583176e-03,
          -3.55604873e-03, 7.40903546e-04, -1.97090814e-03,
          -1.06546469e-03, -1.41751289e-03, 6.78284094e-04,
          -5.41097601e-04, 2.97191576e-03, -9.10569215e-04,
          1.41986588e-03, -2.76875286e-03, 3.48487432e-04,
          4.88074264e-03, 2.26453319e-03, 1.15378154e-03, 4.92534135e-03,
          5.92340063e-03, -7.63267651e-03, -8.08124617e-03,
          -9.29272850e-04, -7.87065271e-03, -5.90921659e-03,
          -8.32006522e-03, -6.65213075e-03, 1.97000336e-03,
          2.98596546e-03, -7.52347941e-03, -6.50395313e-03,
          -6.31042849e-03, -6.74372714e-04, 1.64917705e-03,
          -1.17048551e-03, 5.17137756e-04, -4.03315760e-03,
          3.09040421e-03, 6.20050530e-04, 1.21781114e-03, 2.83883681e-04,
          7.01799872e-04, -4.29712329e-03, -3.78127210e-03,
          -2.79949955e-03, -1.34942960e-02, -5.11949009e-04,
          4.04394045e-03, 2.38079135e-03, 2.26305821e-03,
          -6.03741547e-03, -6.17369963e-03, -5.84244309e-03,
          -4.55580233e-03, -1.24017789e-03, 1.90751231e-03,
          -7.75319291e-03, 8.66826798e-04, -4.10319399e-03,
          -1.02445297e-03, -5.85133350e-03, -4.31447430e-03,
          -7.38261873e-03, -1.35099310e-02, -3.23381322e-03,
          4.02291492e-03, 9.14612785e-03, 3.06826131e-03, 3.60862212e-03,
          -6.69584237e-03, -5.37099736e-03, -2.12703180e-03,
          -1.56833567e-02, -2.50669336e-03, 4.67073824e-03,
          3.97927407e-03, -7.35317823e-04, 7.63269607e-04,
          -6.99606445e-03, -4.73531196e-03, -1.09723059e-03,
          -8.70513730e-03, -5.76452678e-03, 1.72833609e-03,
          7.67254364e-03, -2.63548316e-03, 9.80065670e-04,
          -6.54819747e-03, -2.53547775e-03, -4.29815054e-03,
          -1.53183909e-02, -1.51102222e-03, 5.92795108e-03,
          1.14062158e-02, 3.09775118e-03, -3.37726087e-03,
          -7.47232512e-03, -4.12592059e-03, -3.48087237e-03,
          -7.65584083e-03, -3.27486312e-03, -4.82663745e-05,
          8.97102710e-03, -4.11608582e-03, -5.77191683e-03,
          -8.98244139e-03, -4.46264073e-03, -1.91660225e-03,
          7.72239757e-04, -5.36475470e-03, 4.82904492e-03,
          7.23711029e-03, -2.09115702e-03, -1.52391242e-02,
          -1.50932008e-02, -1.05497027e-02, -7.43770739e-03,
          -6.21952629e-03, -1.21968966e-02, -5.27069933e-05,
          -3.57526098e-03, -1.18769258e-02, -7.01185665e-04,
          -8.17005616e-03, -4.17369232e-03, -7.93502026e-04,
          6.90920744e-03, 2.49549048e-03, 7.92463124e-03, 1.10612083e-02,
          -2.62369029e-03, -1.08418679e-02, -1.20286522e-02,
          -1.00921663e-02, -2.64945580e-03, -9.37392062e-04,
          -5.69219980e-03, 4.07363940e-03, 1.13844301e-03,
          -9.42695513e-03, -7.39566470e-03, -9.46031604e-03,
          -6.16563996e-03, -3.84533661e-03, -1.87647191e-03,
          -1.20532420e-02, 1.89973984e-03, -1.88313390e-03,
          -8.34729522e-03, -3.74315819e-03, -1.08353514e-02,
          -1.55372787e-02, -8.05844273e-03, -8.98107048e-03,
          -1.66676268e-02, -1.54901659e-02, -1.18389837e-02,
          -3.70559096e-03, -2.61344807e-03, -7.20966049e-03,
          -5.85287763e-03, -5.75432554e-04, 1.64567791e-02,
          -5.00862440e-03, 7.44976709e-03, 6.60214992e-03,
          1.14772038e-03, -8.38524647e-05, -1.00177005e-02,
          -1.36357453e-02, -7.06675882e-03, -3.29081342e-03,
          -1.62503105e-02, -6.31032372e-03, 1.37780386e-03,
          5.26736164e-03, -3.91436217e-04, -9.54105891e-03,
          -1.62595604e-02, -8.14656075e-03, 1.22486632e-02,
          -1.43311676e-02, -1.35262618e-02, -1.18432445e-02,
          -5.25973621e-04, -1.41554549e-02, -1.67213734e-02,
          -1.93834659e-02, -1.56763103e-02, -2.33628359e-02,
          -2.14235689e-02, -1.97092257e-02, -1.91497412e-02,
          -1.33575164e-02, 8.96028150e-03, -8.32098536e-03,
          -1.43679027e-02, -4.95542539e-03, 1.89429820e-02,
          -8.64585582e-03, 1.53991231e-03, 1.06392726e-02,
          1.48248803e-02, -5.01438370e-03, -1.46973487e-02,
          -1.87295768e-02, -1.46307740e-02, -9.82253905e-03,
          -1.83984209e-02, -1.50528848e-02, -1.18471449e-02,
          -5.34671452e-03, -1.08407913e-02, -6.26900885e-03,
          -2.50909734e-03, -6.26901106e-04, -4.11567464e-03,
          -7.54305953e-03, -1.27989072e-02, -1.29664056e-02,
          -1.73096787e-02, -1.39237139e-02, -5.47536695e-03,
          5.76987164e-03, 2.57239956e-03, 4.88097593e-03,
          -5.21427579e-03, -1.15679735e-02, -1.12452386e-02,
          -1.39870150e-02, -1.31802233e-02, -8.40237550e-03,
          -9.34622774e-04, -3.73822427e-03, 1.12041121e-03,
          -1.17441863e-02, -1.20167937e-02, -1.51928207e-02,
          -1.45935109e-02, -8.96650832e-03, -2.50403275e-04,
          7.12964078e-03, 9.84775927e-03, 2.49632262e-02,
          -6.13693846e-03, -1.07307974e-02, -1.39922481e-02,
          -6.51429081e-03, -1.62688382e-02, -4.40052617e-03,
          -2.03750213e-03, -4.95434273e-03, -1.07136527e-02,
          -6.15532836e-03, -7.72814872e-03, -1.14549138e-02,
          -1.52494572e-02, -8.96071550e-03, 5.61528686e-05,
          9.91055858e-04, 3.00118467e-04, 4.61550523e-03,
          -2.16712221e-03, -7.26514868e-03, -1.02812890e-02,
          -1.15487864e-02, -9.85771418e-03, -1.50848681e-03,
          3.26493243e-03, -1.33708864e-03, -5.45918103e-03,
          -7.28573324e-03, -9.13522113e-03, -1.07412087e-02,
          -1.13033280e-02, -5.79763262e-04, 9.56653617e-03,
          1.91254802e-02, 1.18487542e-02, 1.64493602e-02, 1.47217349e-03,
          -3.12896282e-03, -5.15884021e-03, -3.11178947e-03,
          -7.63715478e-03, -1.06813048e-03, -3.03057069e-03,
          -3.09823640e-03, -6.31565508e-03, 6.28376962e-04,
          -2.93162884e-03, -7.52073899e-03, -5.72677748e-03,
          -3.80724389e-03, 2.52788328e-03, 7.13104801e-03,
          2.17580656e-03, -1.52887299e-03, 4.45747655e-03,
          2.56393896e-03, -3.08087422e-03, -3.16208019e-03,
          -3.51255597e-03, 2.52926722e-03, 7.34684663e-03,
          6.75851805e-03, -3.91715381e-04, 3.72671499e-03,
          -2.30445527e-04, -2.18971353e-03, -2.62105861e-03,
          -5.94990700e-03, 3.02115665e-03, 4.72011324e-03,
          2.20742822e-03, -2.11874489e-03, -7.25632766e-04,
          -2.35048216e-03, -6.94213668e-03, -6.63985265e-03,
          -1.36907166e-03, 6.28161710e-04, 2.82469252e-03,
          3.70205176e-04, -5.48328133e-03, 3.07099242e-03,
          5.08805271e-03, 9.74765222e-04, -1.74479536e-03,
          3.14624538e-03, 2.89103296e-03, -1.57992449e-03,
          -1.02884439e-03, -3.04777618e-03, 6.62414869e-03,
          9.10928659e-03, 1.02849314e-02, 5.93770854e-03, 1.36384030e-03,
          3.14771244e-03, 1.23927731e-03, -1.03077944e-03,
          -4.36558062e-03, -2.59223022e-03, -4.43885569e-03,
          -5.72063122e-03, -2.51760171e-03, 1.64823548e-03,
          1.41084439e-03, -1.41606346e-04, 2.00158120e-05,
          -3.64004774e-03, 1.14210288e-03, 4.14731307e-03,
          5.71213709e-03, 5.68127900e-04, 7.16121460e-04, 2.14529131e-03,
          1.05542154e-03, -2.96450593e-03, -1.21926144e-02,
          3.46298772e-03, 7.11606629e-03, 7.03573273e-03, 2.36214022e-03,
          -6.75465586e-03, 1.08733866e-03, 3.76632321e-03,
          -1.44172611e-03, -5.10224933e-03, 7.00793788e-03,
          1.91156217e-03, 4.89180791e-04, -1.56134006e-03,
          2.55927967e-04, 2.68707843e-03, 4.34157858e-03,
          -7.81939947e-04, -7.93559849e-03, 3.43823945e-03,
          2.69816467e-03, 7.50476867e-03, 6.09413080e-04,
          -5.88379381e-03, 1.61471206e-03, 3.19606345e-03,
          -9.83107486e-04, -2.72833603e-03, 7.27799069e-03,
          3.38927424e-03, 6.93426933e-03, 7.51721427e-06,
          -1.81668962e-03, 4.29709023e-03, 2.77256034e-03,
          5.20503032e-04, 5.57162566e-03, 1.22197513e-02, 3.18946317e-04,
          -9.46757966e-04, 5.21889131e-04, -9.69111919e-03,
          -4.13090317e-03, -2.97567528e-03, -6.37506600e-03,
          -3.02692381e-04, 1.69144094e-03, -5.23317605e-03,
          -6.21166453e-03, -8.55354499e-03, -2.69864826e-03,
          -1.71758432e-03, 1.32196641e-03, 3.39153502e-03,
          3.24854162e-03, 1.00810640e-02, 4.58341558e-03, 5.39678428e-03,
          3.65075469e-03, -7.98941124e-03, -3.44959926e-03,
          -2.15222570e-03, -2.00818991e-04, -4.77500120e-03,
          -2.04812619e-03, -7.54271774e-03, -2.78817693e-04,
          -3.63603793e-03, -9.16132983e-03, -5.09902555e-03,
          -2.58787815e-03, -2.59403745e-03, 3.63335921e-03,
          1.92686811e-03, -4.94828157e-04, 1.62213622e-03,
          -5.09643648e-03, -7.37384707e-03, -4.11934592e-03,
          -2.94216769e-03, -3.69985029e-03, -5.99459466e-03,
          -1.35561882e-03, 5.27207367e-03, 8.63396376e-03,
          -5.76567953e-04, -2.74665491e-03, -8.24870367e-04,
          4.11139568e-03, 5.10189589e-03, 7.61874532e-03,
          -2.95746955e-03, 2.82625580e-04, -1.05713680e-03,
          -3.57321743e-03, -5.42885531e-03, 2.41503702e-04,
          3.17164767e-03, 4.32444084e-03, -3.04060942e-03,
          -4.27248375e-03, 8.49818389e-05, -4.55733063e-03,
          -5.54607902e-03, -4.28127358e-03, -2.75965268e-03,
          1.66566926e-03, -2.99686333e-03, -6.63717650e-03,
          -3.52464081e-03, 4.10922058e-03, 1.04183685e-02,
          2.46202922e-03, -3.98778170e-03, -5.28971525e-03,
          -1.69342748e-04, -3.41764098e-04, -2.99867895e-03,
          4.54333785e-05, 1.91612577e-03, 8.64806864e-03, 9.04970570e-04,
          -4.04473161e-03, -2.43427791e-03, 1.82465487e-03,
          -2.56443163e-03, -8.15054215e-03, -4.81392862e-03,
          -2.97885132e-03, -6.17136527e-03, -5.25454152e-03,
          -4.10842383e-03, -1.73756096e-03, 6.47188281e-05,
          -1.86488018e-04, 6.86622225e-04, 9.75659990e-04,
          2.59279436e-03, 2.87959399e-03, -3.50092398e-03,
          -2.03774567e-03, -5.96780423e-03, -3.65193142e-03,
          7.57968111e-04, 6.46364060e-04, -2.74527440e-04,
          3.52529087e-03, 5.72119001e-03, -1.91489249e-04,
          -9.67796799e-03, -9.67702363e-03, -5.03544929e-03,
          1.00386773e-04, -7.15282105e-04, -3.47113120e-03,
          8.27869924e-04, -1.28760154e-03, -8.17508716e-03,
          -4.79044486e-03, -6.78249355e-03, -1.31561281e-03,
          1.05164456e-03, 4.35433770e-03, 5.57601568e-04, 1.83648756e-03,
          2.55689118e-03, -3.31923878e-03, -9.00747720e-03,
          -1.37368012e-02, -7.36490032e-03, -1.69743027e-03,
          -1.02228869e-03, -4.53461707e-03, -4.42189025e-03,
          7.15528033e-04, -8.55187234e-03, -2.80834036e-03,
          -5.12485346e-03, -3.69345699e-03, 1.01192354e-03,
          1.03538064e-02, -6.35687774e-03, 1.10333553e-03,
          -1.56162190e-03, -4.50062286e-03, -3.74490884e-03,
          -7.47849327e-03, -1.06219519e-02, -6.94694556e-03,
          -9.05634183e-03, -1.56258140e-02, -4.37377812e-03,
          -1.47640030e-03, -3.28341266e-03, -7.48788100e-03,
          -6.56327698e-03, -4.29929607e-03, 1.10160145e-04,
          3.73792090e-03, -7.29973707e-03, -3.19095067e-04,
          3.10196285e-03, -9.73226689e-03, -5.67640457e-03,
          -1.52882084e-03, -5.46600763e-03, -5.75393531e-03,
          -7.79864052e-03, -9.54127777e-03, 2.92122294e-03,
          3.27313109e-03, -5.10497997e-03, -1.93776656e-03,
          -8.40136502e-03, -1.06841698e-02, -5.17147221e-03,
          7.83116382e-04, -1.01419594e-02, -5.26939658e-03,
          8.64748436e-04, -1.45240501e-03, -1.06429001e-02,
          -1.28208539e-02, -1.62618253e-02, -1.63886826e-02,
          -1.83619130e-02, -1.78427100e-02, -1.22567955e-02,
          -1.32031664e-02, -1.25843938e-02, -1.92533189e-03,
          -2.53635255e-04, -5.92194172e-03, -5.99456206e-03,
          3.77572863e-03, -2.14651646e-03, 1.07220262e-02,
          1.25648212e-02, 4.26430954e-03, -1.29144816e-02,
          -1.04411868e-02, -1.33208502e-02, -1.89882349e-02,
          -1.31514305e-02, -1.30800772e-02, -1.78107453e-04,
          -8.61709646e-04, -1.12389186e-02, -1.29945287e-02,
          -7.36120809e-03, -7.18396041e-04, -7.41182640e-03,
          -6.38473872e-03, -1.29576940e-02, -1.79025177e-02,
          -1.76977068e-02, -1.31677976e-02, -8.56671948e-03,
          -3.27829039e-03, 1.05647405e-03, -6.94690912e-04,
          1.82803795e-02, -9.97884106e-03, -1.82087142e-02,
          -1.41691836e-02, -8.45632050e-03, -4.89256950e-03,
          -6.17077155e-03, 3.35348072e-04, -3.66361951e-03,
          -7.92838819e-03, -1.05405319e-02, -1.34770395e-02,
          -1.06222965e-02, -5.96536556e-03, -1.90449564e-03,
          -1.54822774e-04, 3.54810013e-03, 3.93000571e-03,
          1.90193076e-02, -2.10637855e-03, -9.83689446e-03,
          -9.07219201e-03, -2.05045822e-03, -6.87810732e-03,
          -2.32899073e-03, 5.59548032e-04, -2.14394252e-03,
          -6.91698818e-03, -9.39627364e-03, -1.29030198e-02,
          -9.78850573e-03, -9.04915202e-03, -8.26067291e-03,
          -4.42731800e-03, 1.62024761e-03, 6.43606903e-03,
          1.31837884e-03, -6.47406001e-03, -5.10178832e-03,
          -5.92123764e-03, -8.52924213e-03, -2.95538339e-03,
          -3.60001321e-03, -2.97573395e-03, -3.07637412e-04,
          -2.46839947e-03, -2.88235070e-03, -8.57497286e-03,
          -5.63844666e-03, -4.14585182e-03, -3.14140273e-03,
          -5.74299134e-03, 5.80652559e-04, 1.01768775e-02,
          -5.74987789e-04, -4.00066795e-03, -5.27647603e-03,
          -1.61315489e-03, -2.51341821e-03, -9.52217635e-03,
          -3.04599106e-03, 1.17201032e-03, 7.60195218e-03,
          -4.15460160e-03, -1.99870928e-03, 2.07598045e-04,
          -3.15697514e-03, -9.35796928e-03, -8.00242089e-03,
          1.37505506e-03, 4.06846550e-04, 3.46276863e-03,
          -1.38982665e-03, -7.67904799e-03, -3.76855675e-03,
          -1.01135792e-02, -1.17298337e-02, -2.53476598e-03,
          -4.77116928e-03, 5.33113896e-04, 7.24652642e-03,
          -8.39220453e-03, -5.24390431e-04, 1.61935959e-03,
          1.26107573e-03, 1.06908288e-03, 1.10540690e-03,
          -2.69625848e-03, -3.48900352e-03, 4.38841153e-03,
          2.40549375e-03, -3.07533750e-03, 3.48912482e-03,
          2.17590295e-03, -7.54837354e-04, -1.42901193e-03,
          2.03602714e-03, 1.57599081e-03, 5.20783802e-03,
          -4.68645664e-03, -5.07070823e-03, -3.63893434e-03,
          -2.56331777e-03, -7.54887518e-03, 3.29713715e-04,
          1.20585784e-03, -5.58901404e-04, 3.33898584e-03,
          -4.08257684e-03, -5.20692673e-04, 5.84096240e-04,
          2.85069901e-03, -3.50209372e-03, 5.20765036e-03,
          2.66720029e-03, -2.87871138e-04, 6.53975317e-03,
          -3.70899681e-03, 1.17110577e-03, 1.54693611e-03,
          7.28702545e-03, 5.77304047e-03, 3.89377284e-03, 2.03946349e-03,
          -7.77438891e-06, 4.25676815e-03, -4.28184867e-03,
          -7.33512396e-04, -2.69638211e-03, -2.37700646e-04,
          5.90472715e-04, 2.32407474e-03, 1.57021289e-03, 3.95055721e-03,
          2.58737127e-03, -5.18324459e-03, 3.01712629e-04,
          6.89668464e-04, 3.42868897e-03, 1.41414197e-03,
          -2.88403803e-03, 1.09897356e-03, 5.54070249e-03,
          3.07576288e-03, 3.38500366e-03, 8.94286111e-03, 4.74035647e-03,
          5.27502829e-03, 4.34328307e-04, 5.78404078e-03, 6.85926480e-03,
          3.79329268e-03, 3.55538540e-03, 2.53152242e-03, 4.62172925e-03,
          -5.12202037e-03, -8.40897847e-04, 2.49919132e-03,
          -2.12647161e-03, 5.02269156e-03, 2.03167251e-03,
          1.41181028e-03, -2.15342245e-03, 3.72208073e-03,
          -4.83705138e-04, -8.11405852e-03, -5.02325920e-03,
          -4.57415963e-03, 1.08475820e-03, 2.35664309e-03,
          4.20397986e-03, 2.77062063e-03, 6.99756946e-03, 3.33369640e-03,
          4.85113636e-03, 1.09431792e-04, -1.84321939e-03,
          -1.12309156e-03, 2.28289375e-03, 1.26674969e-03,
          6.09697192e-04, -2.37149908e-03, -4.64450615e-03,
          -7.54770372e-05, -1.25015678e-03, -3.87223205e-03,
          3.22159380e-03, 2.02512858e-03, 1.99761940e-03,
          -2.79561663e-03, 5.53654972e-03, -4.71063657e-03,
          -8.96410365e-03, -3.91280558e-03, 6.19724160e-04,
          -1.43151113e-03, -1.59978098e-03, 3.77522013e-03,
          -2.01536017e-03, 2.40188162e-03, -4.96069482e-03,
          -4.78156004e-03, -1.18199980e-03, 2.60532764e-03,
          2.00195750e-03, 1.39294181e-03, 1.76417234e-03, 4.05639876e-03,
          -4.63900715e-03, -5.73460106e-03, -2.34015356e-03,
          -1.12941454e-03, -3.64319701e-03, 4.78696369e-04,
          2.70914566e-03, 2.20488175e-03, -7.82189891e-03,
          -8.55222903e-03, -6.42259046e-03, -3.60702141e-03,
          -6.77145738e-03, 4.80061490e-03, -1.44011690e-03,
          -4.49898886e-04, 7.23338395e-04, -1.59895411e-04,
          5.58442436e-04, -9.08664544e-04, -4.02404054e-04,
          -1.27657637e-04, 1.38444768e-03, -1.85255252e-03,
          -2.00825208e-03, 3.55485012e-03, -1.02822660e-02,
          -8.69258400e-03, -3.99062264e-04, -1.69392372e-03,
          -8.95197736e-04, -1.80595892e-03, 3.91047494e-03,
          6.86839921e-03, 2.92245438e-03, -9.25924350e-03,
          -4.73500090e-03, -3.26673151e-03, -3.78467608e-03,
          -5.64955128e-03, -6.03804458e-03, 4.33539972e-03,
          1.08718919e-02, 4.22388948e-05, -5.31939417e-03,
          6.93172449e-04, 3.61467857e-04, -3.61403660e-03,
          -1.12040732e-02, -7.60144787e-04, 2.52110441e-03,
          8.15020874e-03, 5.70033491e-03, -8.35835375e-03,
          -8.16620700e-03, 3.60408984e-03, 3.98411852e-04,
          -1.76642975e-03, -2.43192934e-03, 4.77640377e-03,
          8.71384796e-03, 8.08236748e-03, -2.40452960e-03,
          -1.84327620e-03, 6.01406384e-04, -3.59557220e-03,
          -7.88477156e-03, -1.51725451e-03, 2.97472230e-03,
          8.08268879e-03, 4.09961073e-03, 1.11498330e-02, 3.83191655e-05,
          -1.11785217e-03, -4.41993150e-04, -6.45516627e-03,
          -6.07850309e-03, -1.00006517e-02, -5.50649548e-03,
          -1.81198935e-03, -6.77117670e-04, -5.71610034e-03,
          -4.75522410e-03, -1.98188564e-03, -5.96333388e-03,
          1.08811690e-03, 1.22212211e-03, 5.05666435e-03, 3.47419200e-03,
          7.21398229e-03, -6.60731923e-03, -6.90903049e-03,
          -7.25294417e-03, -2.75922916e-03, -3.74866067e-03,
          -1.22482171e-02, -4.52231150e-03, -6.26171427e-03,
          -7.56108668e-03, -6.87867450e-03, -3.29596573e-03,
          -1.89674785e-03, 1.13530620e-03, -4.79600206e-03,
          -8.31478368e-03, -7.51678227e-03, -3.48402560e-03,
          9.89151467e-03, -7.16692116e-03, -1.21322548e-04,
          -8.76582519e-04, -5.63378073e-03, -3.61914234e-03,
          -3.24311876e-03, -5.07130707e-03, -1.19510191e-02,
          -5.94917592e-03, -6.18773792e-03, 3.68601945e-03,
          -5.25291660e-04, -7.29874521e-03, -5.33553865e-03,
          -1.04982797e-02, -8.13099183e-03, -8.99176765e-03,
          -6.08217623e-03, -7.82328285e-03, -6.21800311e-04,
          -2.80923065e-04, 6.92259287e-04, -4.12779074e-04,
          -1.04748271e-02, -1.08087342e-02, -1.32333869e-02,
          -3.98578960e-03, -7.35352514e-03, 1.26943709e-02,
          3.51244723e-03, 6.83594728e-04, -4.22606245e-03,
          -4.21911897e-03, -5.81193576e-03, -1.29689295e-02,
          1.18738180e-03, -3.36749572e-03, 1.05102574e-02,
          1.30464020e-03, -4.83864360e-03, -1.49032138e-02,
          -1.28266811e-02, -1.41819557e-02, -1.81679055e-02,
          -9.23449174e-03, -9.99900978e-03, 5.30635356e-04,
          -4.37196670e-03, -1.57562643e-02, 3.98375886e-03,
          -1.19657721e-02, -9.96957999e-03, -1.16720051e-02,
          2.47111125e-03, -3.41733661e-03, 2.03173161e-02,
          9.08151455e-03, 4.08608047e-03, -1.28754769e-02,
          -1.81441568e-02, -1.60445441e-02, -1.52013479e-02,
          5.09785255e-03, -6.37342362e-03, 1.48651621e-03,
          -8.07843078e-03, -1.11540137e-02, -7.79779535e-03,
          -7.97370635e-03, -3.65302758e-03, -4.52520838e-03,
          -6.98568299e-03, -8.89024232e-03, -1.19496332e-02,
          -1.46822510e-02, -1.29564693e-02, -4.17081499e-03,
          -2.12578662e-03, -1.16144621e-03, 1.25314191e-03,
          4.58413549e-03, -1.26716844e-03, -5.98013680e-03,
          -7.46406801e-03, -6.18502591e-03, -1.01842098e-02,
          -8.25589802e-03, -3.28468089e-03, -5.45464456e-03,
          -7.17461528e-03, -7.96036236e-03, -8.28721095e-03,
          -1.53346574e-02, -1.68357436e-02, -3.80917988e-03,
          -4.55637019e-05, -1.44751766e-03, 1.85261783e-03,
          1.31662479e-02, -5.54830069e-03, -3.00258328e-03,
          -6.41184440e-03, -7.26839993e-03, -4.92057204e-03,
          -1.41067104e-03, -5.60976705e-03, -2.37801555e-03,
          -6.75997417e-03, -1.33780960e-03, -1.95637764e-03,
          4.95485321e-04, -3.45138670e-03, -1.99234136e-03,
          -4.02210513e-03, -3.74789722e-03, 6.10469002e-03,
          -3.25943250e-03, -4.24333103e-03, -2.21720850e-03,
          -1.74148846e-03, 5.58957516e-04, -7.41744880e-03,
          3.18348524e-03, -2.00788607e-03, -3.03757214e-03,
          -6.00984599e-03, -8.95298179e-03, -4.42868983e-03,
          -7.97823654e-04, -7.37724500e-03, 2.28048326e-03,
          4.00077784e-03, -1.52959046e-03, 1.11994555e-03,
          -5.20371133e-03, -6.09887112e-03, -2.39079422e-03,
          -1.27703208e-03, 1.94456425e-05, -2.05036858e-03,
          -2.98809167e-03, 6.29810442e-04, 4.79846122e-03,
          -7.45058106e-03, -3.50496569e-03, -1.02381024e-03,
          -2.02959124e-03, 1.97736104e-03, -1.78682531e-04,
          -2.08408316e-03, -2.22023134e-03, 3.38157360e-03,
          4.53202380e-03, -1.02401967e-03, 2.06028065e-03,
          2.55949423e-03, 1.52198866e-03, 3.22476379e-03, 1.17625890e-03,
          3.95662710e-03, 2.65846984e-03, -7.91755319e-03,
          -4.42943675e-03, -4.75753797e-03, -2.02124007e-03,
          2.48629320e-03, -3.00516817e-03, -3.76202492e-03,
          -1.79036392e-03, 3.49841570e-03, -2.42512883e-03,
          -4.66661155e-03, -1.03892945e-02, -6.23442093e-03,
          -1.27258094e-03, 2.19690334e-03, 1.73885562e-03,
          2.29329779e-03, 6.49659662e-03, 6.73891103e-04, 3.88809526e-03,
          4.32025502e-03, 6.93009514e-03, 5.40422974e-03, 2.33775564e-03,
          9.90295201e-04, 9.25313390e-04, 5.75118186e-03,
          -2.76497053e-03, 1.12274673e-03, -3.29153449e-03,
          -8.22471804e-04, 1.29783386e-03, -3.35246813e-03,
          -5.36216004e-03, -2.82425177e-03, 4.20404691e-03,
          -5.41176822e-04, 2.20319745e-03, 1.36480224e-03,
          6.60081394e-03, 2.93366902e-04, -8.59638769e-03,
          -6.64413627e-03, -2.82376609e-03, 3.60065768e-03,
          -5.72374510e-03, 2.34432332e-03, 1.30503741e-03,
          2.98420875e-03, -5.70950471e-03, 2.41304678e-03,
          7.78661342e-03, 5.34409331e-03, 7.02485070e-03, 3.90329340e-04,
          4.24055662e-03, 1.74029078e-03, 3.51972017e-03, 1.72529579e-03,
          -2.45904317e-03, 6.28601667e-03, 4.65802941e-03,
          3.21423123e-03, -5.99905208e-04, 1.19715848e-03,
          -3.34897405e-03, -3.78907984e-03, -4.32577915e-03,
          -5.23307081e-03, 1.40654168e-03, 2.96796928e-03,
          7.45887822e-03, 8.32469435e-04, 9.08975396e-03, 8.29545688e-03,
          6.39452320e-03, -5.03210165e-03, -5.79031836e-03,
          1.84859172e-03, -1.46207539e-03, 1.94460375e-03,
          -4.90632094e-03, -5.47725381e-03, -5.71847800e-03,
          -2.22003437e-03, -5.62091870e-03, -5.31463185e-03,
          -3.18306522e-03, 2.18028363e-04, -2.23648548e-03,
          -3.29930359e-03, 1.82562112e-03, -4.11279453e-03,
          -8.72033369e-03, -6.52780477e-03, -1.43019541e-03,
          3.46932071e-03, 2.71669938e-03, 4.28475300e-03,
          -1.18130492e-03, 4.62619308e-03, -1.95407216e-03,
          -8.83200206e-03, -5.95621439e-03, -4.07152390e-03,
          -1.70884782e-03, 7.32000393e-04, 3.66743724e-03,
          -9.11289419e-04, -2.54521542e-03, -6.52173487e-03,
          -5.23843663e-03, -4.11782414e-03, 2.98515242e-03,
          2.92675942e-03, 5.55050513e-03, 1.42013514e-02,
          -1.83197786e-03, 2.21205395e-04, -3.93398572e-03,
          -5.01531083e-03, 2.28046533e-03, -1.24406116e-03,
          1.66071660e-03, 1.47454452e-03, 5.65765775e-04,
          -2.29892926e-03, 1.53513020e-03, 1.10382796e-03,
          -5.80371311e-03, -4.99828160e-03, -8.13670270e-03,
          -3.42685776e-03, 5.03399759e-04, 1.70352566e-03,
          -6.80666231e-03, -5.85517799e-03, 1.99654116e-03,
          -2.03141733e-03, -5.27856220e-03, 6.36730948e-03,
          1.89589814e-03, 5.45381242e-03, 8.31531640e-03, 3.76180559e-03,
          2.33365409e-03, -1.88082992e-03, -1.44490297e-03,
          3.90661648e-03, -4.43922356e-03, -1.42154994e-03,
          2.55635800e-03, 1.94891298e-03, 3.75985191e-03,
          -1.39458978e-03, -4.47093230e-03, -6.88090408e-03,
          -1.24819635e-03, -7.48639926e-03, 4.54817852e-03,
          1.01119429e-02, 6.02643611e-03, -4.90363501e-03,
          -3.40249785e-03, 1.79274112e-03, 1.09364500e-03,
          -3.22606531e-03, -5.88075630e-03, 3.00685759e-03,
          5.12977643e-03, 9.38188378e-03, -2.50119297e-03,
          4.33984205e-05, 3.57027259e-03, 8.98303697e-04,
          -6.55207410e-03, -2.40185694e-03, 2.54823477e-03,
          5.31289773e-03, 6.59921905e-03, 4.65591904e-03, 4.20525437e-03,
          9.07964248e-04, -2.93521374e-03, -8.43403745e-04,
          -9.08999518e-03, -5.13329683e-03, -2.45239306e-03,
          2.70041451e-03, -2.91760592e-03, -3.13424249e-03,
          -5.70038101e-03, -7.79245095e-03, -9.50357970e-03,
          -1.10952975e-03, -5.60170040e-04, 4.97547630e-03,
          6.69422699e-03, 9.87151172e-03, -5.76034933e-03,
          -5.99116611e-04, 3.27051705e-04, -4.27431753e-03,
          -8.16313643e-03, -1.06179537e-02, -3.82920075e-03,
          -5.31221507e-03, -7.41557637e-03, -6.53683115e-03,
          -8.70829856e-04, 2.00368324e-03, -1.69597310e-03,
          -4.35378123e-03, -8.09035357e-03, 1.79768191e-03,
          6.64186548e-04, 8.34374409e-03, -3.63406632e-03,
          5.45146270e-03, -1.19157403e-03, -2.94588413e-03,
          -4.57257777e-03, -1.06792627e-02, -4.95095830e-03,
          -1.03659567e-03, 2.97246734e-03, -6.25975989e-03,
          5.67185832e-03, -1.28102920e-05, -1.14831806e-03,
          -7.91647658e-03, -6.55562151e-03, -2.55511212e-03,
          -7.96260033e-03, 3.11951363e-03, -6.06875913e-03,
          2.20551598e-03, 3.35204136e-03, 2.69708852e-03,
          -7.04489648e-03, -1.11880489e-02, -6.93440763e-03,
          -9.08494834e-03, -1.27601111e-03, -5.00887819e-03,
          4.96740779e-03, 4.85778059e-04, 6.30417198e-04, 2.67029880e-03,
          -5.56949899e-03, -1.26701067e-04, -3.33557720e-03,
          2.04019826e-02, -7.49278523e-04, 5.11439424e-03,
          2.64506351e-04, 9.13340412e-03, 5.59580571e-04,
          -1.20021207e-02, -5.73754124e-03, -5.00964094e-03,
          6.07880577e-03, -3.12826107e-03, -3.19002615e-03,
          -3.05297342e-03, 4.72433679e-03, -2.15176539e-03,
          -9.27973911e-03, -4.42656456e-03, -1.08180698e-02,
          1.35065187e-04, -2.27316096e-03, 9.81695112e-03,
          -2.14211387e-03, -2.44537671e-03, -1.26993852e-02,
          -1.39607359e-02, -1.32670645e-02, -1.26036918e-02,
          -4.02980158e-03, -5.29539866e-05, 1.06716133e-03,
          -9.60893091e-03, -1.26904352e-02, -1.77427917e-03,
          -1.01201246e-02, -8.68704449e-03, -6.79202797e-03,
          -3.33576766e-03, 3.01871402e-03, 2.61131115e-03,
          -1.71079591e-03, -1.69829698e-03, -6.47232588e-03,
          -5.19031379e-03, -1.15397815e-02, -7.51382299e-03,
          -4.15666727e-03, 6.07883499e-04, 1.84128934e-03,
          -8.87482986e-03, -4.84413095e-03, -8.20787996e-03,
          -9.26525053e-03, -4.20734426e-03, -4.72769327e-03,
          -2.61158240e-03, -4.88974480e-03, -2.49750051e-03,
          -9.79031809e-03, -1.02685587e-02, -1.07535804e-02,
          -5.80788730e-03, -1.03868952e-03, -1.25152897e-03,
          5.52090001e-04, -3.41431517e-03, 3.38919205e-03,
          -5.55830775e-03, -8.70878901e-03, -9.78997070e-03,
          -1.07217850e-02, -1.08118579e-02, -6.31498592e-03,
          -1.12127978e-02, -6.69365469e-03, -1.88607723e-03,
          -6.31407462e-03, -9.78964288e-03, -8.45072232e-03,
          -8.92485119e-03, -7.67071219e-03, -2.04664306e-03,
          7.83054251e-03, -2.44434155e-03, 7.84068136e-04,
          -5.25994925e-04, -8.43609869e-03, -7.77306128e-03,
          1.00937509e-03, -7.42438482e-04, -1.33700995e-03,
          -5.94318472e-03, -6.76065963e-03, 1.23023230e-03,
          3.53396841e-04, -7.20248697e-03, -8.03603732e-04,
          5.31373965e-03, 7.40906864e-04, 2.25425698e-03,
          -8.34498089e-03, -6.74658269e-03, -1.08733727e-03,
          4.42130864e-03, -3.41892894e-03, -6.05046516e-03,
          -8.63575784e-04, -7.61027727e-03, -4.34782822e-03,
          -6.10119058e-03, -6.62017241e-03, -2.43586139e-03,
          -1.12753820e-04, -7.32068019e-03, -4.25404287e-04,
          1.64244475e-03, -8.67049489e-03, 1.91861938e-03,
          -9.17343982e-03, -9.80445184e-03, -4.02272167e-03,
          1.42044120e-03, -1.67061377e-03, 4.74398723e-03,
          4.80339630e-03, 4.60838852e-03, 7.85155408e-03,
          -4.46800422e-03, -2.03605928e-03, -2.79939105e-03,
          2.77531007e-03, 7.17852591e-03, 4.33706969e-04,
          -1.37142325e-03, 3.39560863e-03, 3.32259899e-03,
          -4.62982897e-03, -3.87931662e-03, -8.83709267e-03,
          -3.86394630e-03, 2.75906385e-03, 4.83629201e-03,
          5.72471647e-03, -2.85051460e-03, 6.39143167e-03,
          -7.34544778e-03, -6.73592184e-03, -3.71379289e-03,
          3.85249220e-03, 3.23140644e-03, -2.82360916e-03,
          1.93365326e-04, -4.74088499e-03, -5.84165938e-03,
          -8.68943706e-03, -2.96043535e-03, -4.21688985e-03,
          2.18499731e-03, 3.34620068e-04, -2.87163281e-03,
          -5.12378337e-03, -1.14943739e-03, 8.62271816e-04,
          -3.57736461e-03, 2.28216290e-04, 2.86350260e-04,
          3.30035063e-03, -1.61598471e-03, -9.08162724e-03,
          -4.45795571e-03, 7.78518210e-04, 6.58712070e-03,
          9.98505624e-04, 4.15353943e-03, 6.46521244e-03, 7.17959180e-03,
          -6.45877002e-03, -9.68909473e-04, 8.97074118e-04,
          -2.86740577e-03, -3.19741480e-03, -9.07610916e-03,
          -1.32903352e-03, -2.27942670e-04, 4.96190554e-03,
          2.10009352e-03, -6.82267360e-03, 1.23458880e-03,
          3.02322838e-03, 8.60650744e-03, 3.36157228e-03, 1.47080352e-03,
          2.05070339e-03, 4.88850893e-03, 1.02519291e-03,
          -8.32006335e-03, 1.24911749e-04, 3.00002447e-03,
          5.88570675e-03, -5.68946498e-03, 1.94030220e-03,
          6.64274488e-03, 3.99227347e-03, -9.73621570e-03,
          -9.28775407e-03, 3.14165693e-04, 4.38049814e-04,
          3.15109175e-03, -7.16560474e-03, -7.35987583e-03,
          -2.53018294e-03, -4.77905618e-03, -1.10031469e-02,
          -4.36458690e-03, 1.34301628e-03, 4.40573879e-03,
          6.98132720e-03, 1.06774596e-03, 5.99466683e-03, 7.81846140e-03,
          4.96184500e-03, -1.76308176e-03, -3.72296432e-03,
          2.44906754e-03, 4.53380076e-03, 8.89425445e-03,
          -9.59038676e-04, 7.73570174e-03, 6.05069194e-03,
          1.90156163e-04, -4.57284693e-03, -9.21416748e-03,
          -3.22760362e-03, -2.72977375e-03, 1.36513449e-03,
          -8.22677650e-03, -4.70853690e-03, -3.29270214e-03,
          -3.35798506e-03, -9.88931581e-03, -5.57448203e-03,
          -5.34175138e-04, 1.95470615e-03, 9.43967141e-03,
          -7.11035449e-03, -4.04384872e-03, -3.86460521e-03,
          -3.16199777e-03, -6.00927323e-03, -5.40111167e-03,
          4.31436766e-03, 5.12086740e-03, 7.21419696e-03,
          -1.44283334e-03, 6.11595670e-03, 6.21708483e-03,
          1.75322010e-03, -4.05744836e-03, -6.10919064e-03,
          -1.06718647e-03, 4.21175733e-03, 9.11161862e-03,
          -3.06640775e-03, 7.05259945e-03, 4.72642668e-03,
          4.47751395e-03, -3.67555767e-04, -2.67528603e-03,
          4.71257605e-04, 2.67816428e-03, 5.53033315e-03,
          -5.86264068e-03, -4.15062066e-03, -3.46997310e-03,
          -1.40269811e-03, -3.02505687e-05, -1.22593502e-02,
          4.31737164e-04, 2.68486608e-03, 5.28944936e-03, 3.52892419e-03,
          -1.08207576e-03, -8.81175883e-03, -7.98642822e-03,
          -9.21154208e-03, -7.70579465e-03, 2.27569044e-03,
          2.16633291e-03, 3.58959264e-03, -6.49742456e-03,
          1.90315151e-03, 2.60809413e-03, 5.76993125e-03, 3.55221168e-03,
          -1.43494336e-02, 4.34363261e-03, 6.82964781e-03,
          6.98462734e-03, 2.24986419e-04, -2.81356787e-03,
          -5.37287211e-04, -3.04232817e-04, -1.09711858e-02,
          -1.23103121e-02, -1.17619093e-05, 6.02127519e-03,
          6.26442116e-03, 8.90953653e-03, 5.55188395e-03,
          -3.35919927e-03, -4.60942090e-03, -9.79169272e-03,
          -1.21084992e-02, -3.07409139e-03, 1.55543839e-03,
          2.12661782e-03, -1.53913547e-03, -8.07017495e-04,
          -7.72998994e-03, -8.20979755e-03, -1.03792986e-02,
          -8.49002413e-03, 2.50003091e-03, 6.46412000e-03,
          9.04022809e-03, 9.77520365e-03, 5.40602952e-03, 5.36194863e-03,
          6.73556048e-03, -6.25887280e-03, -1.02997376e-02,
          -4.18270286e-03, -5.89658087e-03, 5.48182637e-04,
          -2.04834645e-03, -2.18292046e-03, -3.86583875e-03,
          1.19502784e-03, -6.60251500e-03, -6.03263965e-03,
          -4.00081370e-03, -2.02758098e-03, -2.18643853e-03,
          1.27635663e-04, -2.90343235e-03, 4.04977822e-04,
          -2.88839987e-03, -3.37904599e-03, -7.19196920e-04,
          -6.87104184e-03, -6.23959443e-03, 1.50832161e-03,
          -1.13389420e-03, -1.61226827e-03, 9.61529836e-03,
          -5.81994245e-04, 3.39903054e-03, -6.28382945e-03,
          -7.59043917e-03, -8.95295106e-03, -1.84846122e-03,
          1.16434100e-03, -7.09863566e-03, 1.44640985e-03,
          5.33517217e-03, 2.28094839e-04, -3.80077283e-03,
          -8.56791344e-03, -1.62032191e-02, -4.11263155e-03,
          -1.01791909e-02, -5.68041950e-03, 4.37325984e-03,
          3.84269259e-03, 5.56456251e-03, 9.23603016e-04,
          -1.00844754e-02, -7.79248308e-03, -3.10019427e-03,
          4.57107415e-03, -1.10346789e-03, 7.56572606e-03,
          -3.31721199e-03, 2.95454962e-03, -8.12475162e-04,
          -1.20394481e-02, -7.52711343e-03, -4.45050420e-03,
          -1.10535685e-03, -1.27782663e-02, -7.77789345e-03,
          -8.35520774e-03, -1.84683444e-03, 8.29658820e-04,
          -7.57618528e-03, -2.66038533e-03, 2.14483356e-04,
          1.72873179e-03, 3.53223877e-03, 1.70457382e-02, 7.26080313e-03,
          6.61897613e-03, -4.48481552e-03, -6.23602374e-03,
          -1.52760895e-03, -3.28736100e-03, 2.93637300e-03,
          -7.72635592e-03, 4.59194835e-03, 3.14496621e-03,
          -5.84756082e-04, 4.39653028e-04, -6.74359454e-03,
          -6.57639373e-03, -2.36560707e-03, 8.75408854e-03,
          -8.32008570e-03, -1.96129666e-03, -4.61697858e-03,
          -7.72331987e-05, -1.06283678e-02, -3.39291687e-03,
          -1.27106123e-02, -6.28255261e-03, -5.17945411e-03,
          -4.64796368e-03, -4.98194201e-03, -5.76471956e-03,
          -7.69788818e-03, -3.67081468e-03, -6.62151538e-03,
          -4.77547338e-03, -6.86294260e-03, 1.34731671e-02,
          -1.38578163e-02, 2.57558422e-03, 7.53380649e-04,
          -3.71946394e-03, -8.79503973e-03, -3.32242297e-03,
          -3.09717539e-03, -8.60379916e-03, -3.80517892e-03,
          -8.81522242e-03, -1.18150096e-02, -8.34468473e-03,
          -1.10555450e-02, -9.72988177e-03, -9.00812540e-03,
          -1.13324393e-02, -7.12330686e-03, -1.19977864e-02,
          -3.52348806e-03, -2.03215727e-03, -6.19897153e-03,
          -8.63773748e-03, -4.06691246e-03, -8.55011307e-03,
          -8.95434059e-03, -2.70290929e-03, 4.28646244e-03,
          2.99528544e-03, 7.94580020e-03, 8.21112003e-03, 2.51638959e-03,
          -1.13885012e-02, -9.71363671e-03, -1.20815597e-02,
          -9.67385154e-03, -1.02220941e-02, -5.75343007e-03,
          -9.41511430e-03, -1.51426690e-02, -1.36332465e-02,
          -4.53702593e-03, -9.91500448e-03, -1.38708195e-02,
          -1.14175519e-02, 9.60153714e-03, -9.24451649e-03,
          -4.92883753e-03, -2.52461759e-03, -3.21629544e-04,
          -4.48015565e-03, -4.98516019e-03, -9.34063457e-03,
          -5.82168996e-03, -5.49354078e-03, -4.12556436e-03,
          6.03634492e-03, 2.42803688e-03, 4.88444115e-04, 1.27037999e-03,
          -2.31376966e-03, -6.25529792e-03, -2.38563342e-04,
          -2.42563663e-04, -3.80900316e-03, -2.62827519e-03,
          4.98223992e-04, 7.28084892e-03, -2.16193125e-03,
          -4.27082228e-03, -9.87993274e-03, -9.75757837e-03,
          -6.32215664e-03, -7.69346254e-03, 3.06512951e-03,
          8.38145555e-04, 8.14670784e-05, -4.15858673e-03,
          -4.17629606e-04, -7.61576230e-03, -6.73454581e-03,
          -1.21956160e-02, -3.24362773e-03, -1.03008006e-05,
          5.49864024e-03, 1.21145835e-03, 7.40997493e-03, 6.57430477e-03,
          -1.41034916e-03, 6.37935475e-03, -4.18101437e-03,
          -3.41256871e-03, 1.42137718e-03, 3.22532188e-03,
          6.00809045e-03, 1.40517962e-03, 3.10600782e-03,
          -5.90782007e-03, -7.65382778e-03, -1.15385223e-02,
          -2.97613279e-03, -1.69160601e-03, 1.89653167e-03,
          -1.62135966e-05, -1.57356448e-03, 5.02128806e-03,
          -2.26062699e-03, -9.34113108e-04, -1.10190464e-02,
          -3.32409260e-03, 1.15781592e-03, 7.14058569e-03,
          4.19869693e-03, 1.51479174e-03, 2.22973106e-03,
          -7.07159378e-03, -5.40333753e-03, -1.04694003e-02,
          -9.51929670e-03, -8.47441959e-04, 2.61316355e-03,
          1.34093303e-03, 4.88424581e-03, 2.44695856e-03,
          -5.44692762e-03, -6.00888953e-03, -1.20161073e-02,
          -2.09450978e-03, -4.89926012e-03, 4.81835892e-03,
          7.63987098e-03, 1.82137405e-03, 4.21608798e-03, 4.79598390e-03,
          6.05619419e-03, 3.82777094e-03, 4.95947665e-04,
          -3.66006279e-03, 1.41916855e-04, 6.17841678e-03,
          4.37517557e-03, 8.57440638e-04, -3.72190005e-03,
          -2.10196478e-03, -1.67081300e-02, -3.93531844e-03,
          -1.95315317e-03, -1.85910473e-03, 3.65191069e-03,
          9.53437120e-04, 5.43864956e-03, 8.43301695e-03, 7.56647345e-03,
          -1.93555362e-03, 2.78338231e-03, -2.35692551e-03,
          -5.20304823e-03, 1.59364170e-03, -3.78045742e-03,
          -3.79357557e-03, -2.41213781e-03, 2.73569906e-03,
          -4.07651858e-03, -1.00094255e-03, -3.59065947e-04,
          -4.14533075e-03, -3.36651457e-03, -4.14399058e-03,
          -5.06598619e-04, 1.90435362e-03, 3.62632517e-03,
          -3.20937624e-03, 5.03203832e-03, 1.68502261e-03,
          -2.17224308e-03, -5.18266158e-03, -3.12286755e-03,
          2.27264035e-03, 2.91117025e-03, 7.35689979e-03,
          -4.89792740e-03, -3.10575799e-03, -3.50707374e-03,
          -7.23671075e-03, -4.33996134e-03, 1.80569361e-03,
          6.22268301e-03, 4.62391367e-03, 6.94970088e-03,
          -8.60063918e-03, 9.32026189e-04, 5.12352621e-04,
          -2.06089579e-03, 7.84583564e-04, -8.63255281e-03,
          1.38140877e-03, 2.95610516e-03, 3.65231046e-03,
          -3.51610151e-03, 5.22795320e-03, 3.63823399e-03,
          -5.69857657e-04, -6.98879501e-03, -1.43825253e-02,
          -2.25844211e-03, 1.76976842e-03, 6.47998368e-03,
          -7.34893279e-03, 3.33492411e-03, -2.24090443e-04,
          -3.81193095e-04, -8.19212943e-03, -4.02541336e-05,
          7.63429189e-03, -2.42803348e-04, 3.80502408e-03,
          -1.02039967e-02, 6.90203917e-04, -1.68794999e-03,
          -1.20518869e-03, -3.75101139e-04, -5.46057522e-03,
          1.76431506e-03, 1.58234499e-03, 7.15815509e-03,
          -1.00364750e-02, -1.28790282e-03, -1.58943410e-03,
          8.16227344e-04, -2.22156476e-03, -1.04333293e-02,
          2.65670801e-03, 4.22758330e-03, 6.13794941e-03,
          -4.15827101e-03, 3.94621259e-03, -7.20494019e-04,
          4.60317172e-03, -6.25494460e-04, -1.44321471e-02,
          -9.20426042e-04, 3.21601843e-03, 3.95722594e-03,
          -7.56469974e-03, -7.24164024e-03, -2.83195381e-03,
          1.06429693e-03, -1.21908877e-02, -2.18059649e-04,
          4.81401756e-03, 5.54011529e-03, 4.94914874e-03,
          -5.68016432e-03, -4.34582646e-04, -2.07333011e-04,
          3.82296066e-03, 4.09391709e-03, -4.78504738e-03,
          -1.93790195e-03, -1.14274304e-03, -5.13702026e-03,
          -1.38947740e-02, -7.32660713e-03, -5.35016134e-03,
          2.99393176e-03, -5.88609418e-03, -1.05998991e-02,
          5.43065369e-03, 7.45564699e-03, 1.28332656e-02,
          -2.76272476e-04, -3.29719554e-03, 2.90712831e-03,
          5.10573573e-03, -9.91074648e-03, -9.86887421e-03,
          -5.54426387e-03, -6.84301509e-03, -4.74108662e-03,
          -9.88480635e-03, -7.93240499e-03, -4.05114098e-03,
          4.28265007e-03, -7.55772274e-03, -1.71802950e-03,
          2.74690357e-03, 1.54299207e-03, -1.12762721e-03,
          -1.03788963e-02, -4.23936825e-03, -6.67004555e-04,
          1.11378711e-02, -4.16988647e-03, -6.48934953e-03,
          -3.85760050e-03, -9.42788646e-03, -5.24208834e-03,
          -1.53270494e-02, -8.62555485e-03, -5.47814555e-03,
          1.05731376e-03, -9.42215230e-03, -4.89437534e-03,
          -5.44321164e-03, -8.83154385e-03, -4.48958203e-03,
          -4.50067921e-03, -7.33231800e-03, -1.59647816e-03,
          6.88558817e-03, -1.23470998e-03, -1.60545239e-03,
          -3.50742391e-03, -1.05375675e-02, -3.89857544e-03,
          -1.07228747e-02, -9.70513746e-03, 1.78428029e-03,
          2.05723220e-03, -1.15792309e-05, -6.95985649e-03,
          -1.80513074e-03, -6.57739164e-03, -4.79271542e-03,
          -1.02635100e-03, -8.25673528e-03, -4.32336843e-03,
          1.30397396e-03, -8.84801801e-03, 3.46317794e-03,
          3.08955554e-03, 1.04207955e-02, -3.47336009e-03,
          -1.32001936e-03, -7.12155784e-03, 2.10620533e-03,
          3.22402501e-03, 1.09679834e-03, -4.52256948e-03,
          -2.31122621e-03, 6.92848465e-04, 1.70616142e-03,
          -5.60416700e-03, -5.08702779e-03, 1.04236640e-02,
          3.67281330e-03, -2.86757038e-03, -8.14593397e-03,
          -6.85847737e-03, 2.60211644e-03, -1.35591067e-03,
          -5.35996770e-03, -3.98107106e-03, 8.62999540e-03,
          5.14004705e-03, -4.17342875e-03, 3.54457111e-03,
          -6.72498718e-04, 2.75923725e-04, -7.65534397e-03,
          -3.82251991e-03, -5.79015026e-03, 3.04310466e-03,
          2.49606650e-03, -2.06867210e-03, 2.40804721e-03,
          -3.73453344e-03, 1.15674734e-03, -4.04987205e-03,
          -1.03721190e-02, -5.81492856e-03, 3.02779168e-04,
          -5.75097091e-03, -3.48098017e-03, -7.57455360e-03,
          -8.07221886e-03, -3.52747017e-03, -5.32579375e-03,
          6.75423583e-03, -6.69100787e-03, 6.11131545e-03,
          -1.75415259e-03, -5.22896182e-03, -1.13592520e-02,
          -3.48327891e-03, -2.53928476e-04, -5.07387705e-03,
          -1.89362862e-03, -1.04027959e-02, -1.36741176e-02,
          -1.19241811e-02, -1.30817769e-02, 4.07257071e-03,
          -5.27922530e-03, -7.92928622e-04, -1.97663251e-03,
          9.93719418e-03, -1.34867418e-03, -2.68105185e-03,
          -3.35323974e-03, 4.33022203e-03, -2.96994857e-03,
          -9.97421099e-04, 1.86393713e-03, -3.55502102e-03,
          4.45053773e-03, -8.38236604e-03, -8.19052663e-03,
          -1.20867845e-02, -4.11934126e-03, -4.41881409e-03,
          -6.32749032e-03, -7.63261318e-03, -9.49212071e-03,
          -3.94641748e-03, -2.10730452e-03, -3.07724718e-03,
          -7.95350783e-03, -6.43237401e-03, 8.30662902e-03,
          -2.48898077e-03, -2.93099065e-03, -8.63367319e-03,
          2.24541072e-02, -2.37926492e-03, 9.74373799e-03,
          1.07514588e-02, 1.08402558e-02, -1.09046595e-02,
          -9.86033585e-03, -8.03119969e-03, -1.42316120e-02,
          -1.44149242e-02, -8.83356668e-03, -8.43105745e-03,
          -1.10368850e-02, -1.11233843e-02, -6.72020810e-03,
          -9.77347419e-03, -8.07477720e-03, -1.56050567e-02,
          5.66595932e-03, -1.52125861e-02, -9.20360163e-03,
          -9.18482058e-03, -7.10798986e-03, -2.10785292e-04,
          -1.08677603e-03, -5.67978574e-03, -6.99445233e-03,
          -1.35019131e-04, -4.21985891e-03, 2.33795750e-03,
          3.69271031e-03, 3.01359309e-04, -1.05001405e-03,
          6.06873829e-04, -2.79493071e-03, -4.57219221e-03,
          -2.31540622e-03, 1.02706812e-03, 1.20002180e-02,
          1.30427964e-02, 4.36482346e-03, -8.06903094e-03,
          -6.55867811e-03, -6.17309660e-03, -1.20155243e-02,
          -6.74278755e-03, -1.42161995e-02, -1.19176051e-02,
          -7.60233123e-03, -1.04487166e-02, -6.95230160e-03,
          -6.58972142e-03, -5.75002050e-03, -7.58223562e-03,
          -5.17001003e-03, -1.03233801e-02, -3.77640408e-03,
          -2.17637606e-03, -7.78978178e-03, -4.29233885e-04,
          2.30355025e-03, -2.46452953e-04, -5.84690075e-04,
          -3.60847614e-03, 7.46082922e-04, 4.72826976e-03,
          7.67401978e-03, 4.06977767e-03, 3.97099706e-04,
          -1.29024760e-04, -1.11275690e-03, -3.83907999e-03,
          -1.25852204e-03, -3.93520435e-03, 1.13963997e-02,
          9.54826828e-03, 1.41516177e-03, -2.38674087e-03,
          -3.64307256e-04, -5.01365110e-04, -5.41871786e-03,
          -7.62596261e-03, -5.48915984e-03, -2.17242795e-03,
          -3.95839615e-03, -4.63614846e-03, 3.02681117e-03,
          7.33649882e-04, 1.09235663e-03, -6.86587952e-03,
          -4.14090976e-03, -1.07583939e-03, 5.70436148e-03,
          5.53040346e-03, 3.68302339e-03, -3.45980842e-03,
          -3.51987849e-03, -2.89000967e-03, -3.00557492e-03,
          -1.47059951e-02, -2.32994673e-04, 5.42148855e-03,
          1.31373550e-03, -2.53537740e-03, -5.25959954e-03,
          2.67498568e-03, 5.15618362e-03, 3.62658501e-03,
          -4.25333530e-03, 3.04521620e-03, 3.65562527e-03,
          -4.33354313e-03, -4.16220399e-03, -9.13050608e-05,
          1.14913261e-03, 8.14062660e-04, -6.17295085e-03,
          -1.74495149e-02, 7.63484160e-04, 5.68789430e-03,
          4.89646615e-03, 4.77781100e-03, 6.62394892e-03, 1.10720163e-02,
          7.56636588e-03, 7.86543638e-03, 1.68790866e-04, 8.69908929e-03,
          8.96777213e-03, 7.24388333e-03, 1.02511961e-02,
          -3.85332154e-03, 3.67318653e-03, 6.24766806e-03,
          5.60042821e-03, -6.47494616e-03, 3.36113363e-03,
          1.40594156e-03, -5.75708179e-03, -3.58935073e-03,
          -1.26679800e-03, 6.43646345e-03, 5.21860318e-03,
          5.84451621e-03, -9.35241953e-03, 1.91231826e-04,
          1.70400983e-03, -2.61436659e-03, -3.92233534e-03,
          -4.81324998e-04, 1.06800180e-02, 7.45605817e-03,
          6.18379703e-03, -4.00139019e-03, 5.71743166e-03,
          5.42740850e-03, 4.47405316e-03, 4.61825148e-05,
          -3.19090206e-03, 5.62733505e-03, -8.87637216e-05,
          1.29903469e-03, -8.28799419e-03, -2.67314748e-03,
          9.16680510e-05, -1.41762744e-03, -6.29621791e-03,
          -1.49471080e-03, 8.61212704e-03, 6.45971065e-03,
          8.81731976e-03, -8.52743909e-03, 9.93950176e-04,
          6.00417471e-03, 5.81296114e-03, -6.77935197e-04,
          -3.12431366e-03, 3.10904370e-03, 6.48318883e-03,
          8.47991556e-03, -9.70818382e-03, 2.41200812e-03,
          2.44290894e-03, 2.43076403e-03, -1.87647750e-03,
          -5.64635172e-03, 5.28976973e-03, 4.04108642e-03,
          2.57000816e-03, -9.51737631e-03, -4.54870146e-03,
          -4.00216086e-03, -3.73544288e-03, -7.49847339e-03,
          -8.44725128e-03, -1.56453496e-03, 4.31219628e-03,
          4.24997276e-03, -1.39032947e-02, -2.47896742e-03,
          -4.66817510e-05, 1.38636539e-03, -1.01675047e-02,
          2.30977288e-03, 1.23523530e-02, 1.03113018e-02, 7.58979237e-03,
          -2.24701804e-03, -9.43826628e-04, 2.92242412e-03,
          5.02496306e-03, 1.75890513e-03, -2.75514578e-03,
          -1.79393659e-03, -1.66490709e-03, -5.21645229e-03,
          -1.15769720e-02, -4.45121527e-03, -1.04767119e-03,
          4.95744077e-03, -2.83588725e-03, -3.11380159e-03,
          2.37556500e-03, 5.69915725e-03, 1.00560160e-03,
          -1.23234708e-02, -3.47509561e-03, 4.69591934e-03,
          1.05695883e-02, -5.15007135e-03, -6.55922014e-03,
          -6.56076940e-03, -1.35992877e-02, -4.24994202e-03,
          -1.80964880e-02, -7.62286922e-03, 1.27524184e-03,
          6.58485945e-03, -4.39678738e-03, 2.08295020e-03,
          4.10745619e-04, -4.66595346e-04, -1.98739278e-03,
          2.68198457e-03, -8.86113325e-04, 3.57589242e-03,
          6.74383994e-03, 7.64921249e-04, -7.38407299e-03,
          -5.39097749e-03, -8.36578291e-03, -5.05985133e-03,
          -3.85972788e-03, -6.39095996e-03, -2.03303085e-03,
          -1.39242772e-03, -8.56357720e-03, -7.53677636e-03,
          -5.35570877e-03, -1.09796207e-02, -3.62209324e-03,
          -9.52531118e-03, -3.87828774e-03, 3.41508165e-03,
          7.96198286e-03, 2.69644964e-03, -6.42621424e-03,
          -3.13989026e-03, -8.83367844e-03, -8.57190974e-03,
          -1.09040234e-02, -6.58537820e-03, 3.39619466e-03,
          7.06772041e-03, 4.05114348e-04, -6.85992185e-03,
          1.78335380e-04, -2.43759062e-03, -1.31356495e-03,
          -7.24001788e-03, -3.89987044e-03, 3.19017982e-03,
          1.48552330e-03, -1.20858522e-02, 1.47690671e-03,
          3.09703755e-04, 3.96019866e-04, -4.33710031e-03,
          -9.19746177e-04, -2.24225596e-03, 6.59604464e-03,
          3.71929095e-03, -1.56908378e-03, -4.07320168e-03,
          -1.91394472e-03, -7.82026164e-03, -3.82267823e-03,
          -7.55925896e-03, -8.27575102e-04, 6.11783750e-03,
          5.49649308e-03, -6.82708574e-03, 3.60385026e-03,
          3.40807461e-03, 1.30137405e-03, 6.47360983e-04, 1.23211765e-03,
          -4.14237351e-04, 2.16310355e-03, 3.65869189e-03,
          3.02743190e-03, 6.77529629e-03, -8.28084070e-04,
          -1.12670742e-03, -7.84575474e-03, 8.71439558e-03,
          -3.69242835e-03, 4.91437793e-04, -6.24687702e-04,
          3.05394642e-03, 3.48309777e-03, -4.39113879e-04,
          -9.54025367e-04, -8.90007650e-04, -6.75407378e-03,
          -9.08384472e-03, -9.21346713e-03, -7.14929542e-03,
          -1.24862546e-03, -8.19892390e-04, 1.06423011e-03,
          -2.11473089e-03, -1.28638826e-03, 1.32494867e-02,
          -2.37604766e-03, 9.09381954e-04, -1.17605773e-03,
          -1.33265276e-03, -9.74043272e-03, 3.50165574e-05,
          6.58476711e-05, 4.80886223e-03, -3.79447872e-03,
          -9.80328023e-03, -8.92242137e-03, -8.96251108e-03,
          -9.25918110e-03, 4.33122087e-03, 5.71788056e-04,
          1.40553422e-03, 1.50150200e-03, 4.29591862e-03,
          -7.46529875e-03, -1.15045095e-02, -7.92950392e-03,
          1.45144307e-03, 1.34101824e-03, 4.80105402e-03, 7.03183329e-03,
          1.30222121e-03, 4.46035573e-03, -1.25019932e-02,
          -8.89985263e-03, -8.34897347e-03, -2.10926542e-03,
          -1.07252812e-02, -9.31565592e-04, 4.82334476e-03,
          5.86646702e-03, 7.73266796e-03, -6.34333398e-03,
          -1.69228353e-02, -1.47926463e-02, -1.20054111e-02,
          -1.49067407e-02, -2.93813832e-03, -7.61707488e-04,
          3.92753660e-04, -1.12051994e-03, -1.91036686e-02,
          -1.86259132e-02, -1.46777658e-02, -1.63346808e-02,
          -6.28387602e-03, -5.04988106e-03, -4.37045330e-03,
          -9.65933781e-03, -1.37983765e-02, -1.30829858e-02,
          -1.09424964e-02, -8.64421204e-03, -4.31354670e-03,
          1.86024094e-03, -8.78307223e-03, -5.18194959e-03,
          -1.06010837e-02, 2.43086107e-02, -1.49487229e-02,
          -8.30727629e-03, -1.46115571e-03, 8.62846151e-03,
          -1.03943311e-02, -9.24045313e-03, -8.99336115e-03,
          -1.30521432e-02, -1.52640361e-02, -2.10772324e-02,
          -1.88430529e-02, -1.20245628e-02, -6.58805622e-03,
          -1.19561572e-02, -1.30923288e-02, -1.08429845e-02,
          -1.51318833e-02, 1.05767641e-02, -1.91430002e-02,
          -1.84440054e-02, -1.32484240e-02, -8.79136473e-03,
          -2.94309482e-03, -9.53252148e-03, -9.49814264e-03,
          -9.38347261e-03, -7.61457300e-03, -1.23945437e-02,
          -1.27004096e-02, -3.36365425e-03, 3.29980883e-03,
          7.03709479e-03, -2.06534169e-03, -5.68465656e-03,
          -1.58722408e-03, 1.26041882e-02, 3.55401682e-03,
          4.07329586e-04, 2.86099431e-03, 1.10458098e-02,
          -6.87683746e-03, -1.28094796e-02, -1.46044325e-02,
          -1.35419406e-02, -1.50562124e-02, -1.82204898e-02,
          -1.67528298e-02, -1.21634342e-02, -5.76184364e-03,
          -3.73722217e-03, -8.94882809e-03, -1.46536175e-02,
          -9.72144585e-03, -7.75180943e-03, -2.62367143e-03,
          -8.94511212e-03, -1.11742411e-02, -5.61181409e-03,
          -1.50000176e-03, -3.09164613e-03, -8.31337832e-03,
          -5.40710706e-03, -4.83734207e-03, -1.77213154e-03,
          -7.14135403e-03, -5.82885882e-03, -1.77057588e-03,
          8.57830327e-03, 1.42994535e-03, -2.25943862e-03,
          -6.23703143e-03, 5.03590191e-03, 6.32750476e-03,
          6.40218705e-03, 6.67942176e-03, 5.88289881e-03,
          -5.65816090e-03, -6.10973965e-03, -1.10772718e-02,
          -8.77960492e-03, -1.12420321e-02, -4.04909207e-03,
          -1.32094463e-02, -1.18307192e-02, -7.10632745e-03,
          -4.87867696e-03, -6.91943662e-03, -7.48761510e-03,
          -1.02601182e-02, -5.15460176e-03, -2.23929388e-03,
          -1.10537680e-02, -8.40006489e-03, -7.32079800e-03,
          4.81224107e-03, 2.14122399e-03, 1.17341064e-04,
          -4.06703446e-03, -1.74499582e-02, 9.73792863e-04,
          3.30535462e-03, 1.78718509e-03, 3.15920939e-03, 6.74602576e-03,
          9.08287335e-03, 3.54011380e-03, -4.55905800e-04,
          -4.01629321e-03, 1.51362112e-02, 1.96578801e-02,
          9.45886690e-03, 1.11758057e-02, -5.30199474e-03,
          -6.37099566e-03, -5.40193031e-03, -8.73957854e-03,
          -2.42250469e-02, -4.52377694e-03, -4.82531916e-03,
          -7.92144798e-03, -7.95651879e-03, -7.85073824e-03,
          -3.01824021e-03, -8.54675425e-04, -3.90232331e-03,
          -2.11080145e-02, 2.35094014e-03, 4.03148681e-03,
          -1.29838020e-03, -7.93275703e-03, 7.94626889e-04,
          7.43562821e-03, 7.10320426e-03, 4.33358364e-03,
          -4.94590448e-03, 5.35763055e-03, 1.24418885e-02,
          6.06442429e-03, 1.57311966e-03, -3.98895703e-03,
          3.62185948e-03, 4.17475170e-03, 3.12926387e-03,
          -1.08515304e-02, 1.19139999e-03, 2.94445106e-03,
          2.14873906e-03, -5.55746350e-03, -7.76180020e-03,
          -1.72829349e-03, -1.47395171e-04, -6.78712036e-03,
          -1.71242468e-02, -1.16225134e-03, 6.58171391e-03,
          2.96194619e-03, -8.83912481e-03, -8.54494236e-03,
          -5.33350557e-03, -3.50747490e-03, -7.36261299e-03,
          -2.30861157e-02, -7.69562088e-03, 2.69310223e-03,
          2.62885052e-03, -4.08260291e-03, 3.84414895e-03,
          8.35168269e-03, 7.80297257e-03, 6.34883158e-03,
          -1.17819607e-02, -1.86395831e-03, -2.17158836e-03,
          -1.72008108e-03, -2.96848407e-03, -1.01619540e-03,
          4.25927714e-03, 5.11680264e-03, 2.45592021e-03,
          -1.37578649e-02, -5.64465905e-03, 2.77461740e-03,
          4.17951075e-03, -5.13112545e-03, -2.35244236e-03,
          -3.80484434e-03, -2.54211738e-03, -6.13540132e-03,
          -1.98792219e-02, -6.88733952e-03, 3.12826829e-03,
          5.17620193e-03, 1.07640179e-03, -4.73378226e-03,
          -5.97747182e-03, -7.00487616e-03, -5.43398736e-03,
          -2.02381052e-02, -6.93982141e-03, 1.97216170e-03,
          6.23596320e-03, -7.94327003e-04, 4.61524678e-03,
          3.68613144e-03, 5.29552205e-03, 3.29126674e-03,
          -3.12900357e-03, -1.95491337e-03, 5.09149861e-03,
          1.16549339e-02, 3.28803016e-03, -3.76257440e-03,
          -6.94239791e-03, -6.07631309e-03, -1.01357792e-03,
          -1.47950640e-02, -2.52562552e-03, 9.01888125e-04,
          8.16853310e-04, -1.69222290e-03, -1.66652433e-03,
          -3.80722829e-03, -4.40832833e-03, -1.12996285e-03,
          -1.39350444e-02, -4.95770667e-03, -4.80287854e-05,
          4.82404279e-03, -6.29662944e-04, -3.88545264e-03,
          -5.38078044e-03, -5.82070183e-03, -1.47379620e-03,
          -1.68502983e-02, -7.90342875e-03, -4.37880494e-03,
          -9.85423219e-04, -2.80963769e-03, -4.10878053e-03,
          -5.79351699e-03, -6.93783211e-03, -3.64901009e-03,
          -5.59796998e-03, -5.16632746e-04, 1.51396368e-03,
          1.60895544e-03, -5.48828568e-04, -3.53076658e-03,
          -7.35170394e-03, -9.55985673e-03, -1.06063718e-02,
          -2.24189693e-03, -8.56012851e-03, -6.45633612e-04,
          1.72599684e-03, -3.15229292e-03, 2.18438799e-04,
          -5.09838201e-03, -3.66132217e-03, -4.78947442e-03,
          -1.55197755e-02, -3.98978312e-03, -4.58320463e-03,
          1.63270184e-03, 2.19696993e-03, 5.57612954e-03,
          -2.20408174e-03, -8.34359601e-03, -7.93181080e-03,
          1.08251825e-03, -1.24222981e-02, -6.80473261e-03,
          -1.15636896e-04, 4.18412703e-04, 3.09888012e-04,
          -1.11921795e-03, -3.44949588e-03, -8.73409037e-04,
          -3.02894576e-03, -3.92792793e-03, -2.25278107e-03,
          8.87558097e-04, -1.16151306e-04, 1.15287118e-03,
          5.10441372e-03, 5.76380454e-03, 2.88863946e-03,
          -5.40855224e-04, -6.30301842e-03, -3.23849008e-03,
          1.76092121e-03, 5.20549901e-03, 5.55802276e-03, 1.50673394e-03,
          2.08350437e-04, 2.36914400e-03, -7.32082967e-03,
          -9.79824550e-03, -9.44412407e-03, -3.96193005e-03,
          1.28870178e-03, 1.08133368e-02, 4.54622647e-03, 2.38968735e-03,
          4.99776751e-03, -5.81576442e-03, -1.33479098e-02,
          -6.26452127e-03, -3.22717382e-03, 5.32446243e-03,
          1.97103317e-03, -1.29815156e-03, 5.64262853e-04,
          -1.33345625e-03, 1.51051916e-02, -6.50360808e-03,
          -1.12524012e-03, -1.38945237e-03, -1.41205778e-03,
          -4.35339799e-03, 1.21753081e-03, 5.05929533e-03,
          3.10348975e-03, -7.13047246e-03, -1.11866519e-02,
          -7.11796200e-03, -1.12701561e-02, -8.86398740e-03,
          9.25093982e-03, 4.30740137e-03, 6.06462779e-03, 5.61501784e-03,
          6.77822158e-03, -1.34956883e-02, -6.77315285e-03,
          -7.20171444e-03, 2.82512396e-04, 3.29148560e-03,
          2.97980197e-03, 3.41161736e-03, 1.65729900e-03,
          -1.91395599e-02, -1.72510408e-02, -7.85230566e-03,
          -1.15407100e-02, -6.10173633e-03, -2.46728491e-03,
          7.85036013e-03, 1.53455362e-02, 7.83263333e-03, 5.23702567e-03,
          -7.28836656e-03, -1.17709432e-02, -1.21219922e-02,
          -7.57180527e-03, -1.00571122e-02, -1.04979053e-03,
          4.26970655e-03, -1.01234089e-03, -6.62114145e-03,
          -1.96165312e-02, -1.59244295e-02, -1.21538453e-02,
          -9.61607695e-03, 6.19429676e-03, 4.32266766e-04,
          8.73563346e-03, 4.00281278e-03, -9.99216363e-03,
          -1.39666591e-02, -9.80952941e-03, -4.52635484e-03,
          1.07702543e-03, -2.68329959e-03, -6.35811267e-03,
          2.62005255e-03, -9.85269062e-03, -1.06802154e-02,
          -2.17769369e-02, -1.50253363e-02, -6.83527486e-03,
          -3.43864039e-03, -4.23925230e-04, -3.22044548e-03,
          -5.71400579e-03, -9.13486630e-03, -1.02941943e-02,
          -1.63888950e-02, -1.73201188e-02, -8.99449550e-03,
          3.04955523e-03, -6.16802042e-03, -7.83003587e-03,
          -6.24386035e-03, -1.24904169e-02, 2.17003319e-02,
          -1.64641570e-02, -1.48830414e-02, -8.94400291e-03,
          -1.99074880e-03, -2.27153730e-02, -1.52144497e-02,
          -1.64322034e-02, -1.22847622e-02, -2.88903564e-02,
          -1.85887609e-02, -2.10487135e-02, -1.46107245e-02,
          -1.90516114e-02, -2.27534864e-02, -1.64875370e-02,
          -1.64247993e-02, -1.40460832e-02, 1.40947080e-03,
          -2.19347645e-02, -1.69485733e-02, -1.37020219e-02,
          -2.06203405e-02, -3.79451703e-05, -1.06599256e-02,
          -1.06057916e-02, -1.21920370e-02, -8.07958934e-03,
          -1.55182686e-02, -1.05642760e-02, -4.37485939e-03,
          2.43839365e-03, 1.77846253e-02, -9.40756500e-03,
          -1.20317191e-02, -7.05673359e-03, 1.92594202e-03,
          2.10717181e-03, 5.81845269e-03, -2.29959935e-03,
          1.81252360e-02, -2.02405881e-02, -1.64275747e-02,
          -1.68619473e-02, -1.38232308e-02, -2.00472325e-02,
          -2.31154151e-02, -1.49552533e-02, -1.24241319e-02,
          -1.79943237e-02, -1.19669400e-02, -1.51884370e-02,
          -1.99305937e-02, -1.43818976e-02, -2.16537677e-02,
          -1.56214898e-02, -9.69491526e-03, -1.40066007e-02,
          -1.11529306e-02, 1.09528517e-02, -4.82881628e-03,
          -8.76160059e-03, -8.51023197e-03, -4.30839462e-03,
          -4.01260378e-03, -4.59425943e-03, -5.01789385e-03,
          1.12726782e-02, 1.60758160e-02, -2.82008993e-03,
          -1.95463793e-03, -8.87257699e-03, 2.30315924e-02,
          -1.06295280e-03, -6.35921815e-03, -2.90821097e-03,
          1.61341392e-02, -1.28894886e-02, -1.38926785e-02,
          -1.73449814e-02, -1.20602753e-02, -1.94811635e-02,
          -1.39776627e-02, -1.11489566e-02, -1.39571065e-02,
          -1.25008365e-02, -1.03103602e-02, -1.20597938e-02,
          -1.41070625e-02, -9.78528801e-03, 5.77970990e-04,
          -9.11010895e-03, -5.54015115e-03, -5.84362168e-03,
          -8.34379066e-03, 8.03665351e-03, 1.68468838e-03,
          6.84067956e-04, -5.48387459e-03, -1.02117965e-02,
          -4.97293565e-03, -5.92134986e-03, -4.19574277e-03,
          8.94439500e-03, 1.45241590e-02, 3.31086386e-03, 6.59270212e-03,
          -2.06539594e-03, 4.70271707e-03, 1.18241925e-03,
          8.86493176e-03, 6.78253453e-03, 2.02406794e-02,
          -6.88312715e-03, -1.03661520e-02, -1.28073702e-02,
          -8.93230364e-03, -2.10896861e-02, -7.80703314e-03,
          -8.38822685e-03, -8.24735221e-03, -7.51509983e-03,
          1.04090897e-03, -7.33095035e-03, -8.12589470e-03,
          -8.95749405e-03, -1.42130274e-02, -6.52219169e-03,
          -4.95712599e-03, -6.77764276e-03, 1.56545045e-03,
          1.18243024e-02, 2.20094365e-03, 2.62485328e-03,
          -1.91825104e-03, -7.97554385e-03, -3.23896110e-03,
          6.18057791e-03, 7.41258543e-03, 1.04326783e-02, 8.24679527e-03,
          -4.82487539e-03, -6.40145317e-03, -6.91405404e-03,
          -5.59415668e-03, -6.12642834e-05, 1.58288106e-02,
          1.89794544e-02, 1.23470696e-02, -6.80558151e-03,
          -6.53036917e-03, -7.44412886e-03, -5.26259094e-03,
          -1.90466587e-02, -4.71340120e-03, -4.20998922e-03,
          -6.02881331e-03, -7.55653856e-03, -9.49110184e-03,
          -9.60755069e-03, -1.30114229e-02, -1.04442444e-02,
          -1.88038368e-02, -4.65981243e-03, 8.38234555e-04,
          -1.38822943e-03, -7.62647996e-03, 9.61569510e-03,
          -5.34019852e-03, -4.46393993e-03, -4.58977278e-03,
          2.40523508e-03, -1.97493797e-03, 5.38447034e-03,
          8.69476330e-03, 1.34690125e-02, 1.34858745e-03,
          -4.26941738e-03, -5.03555639e-03, -4.65614069e-03,
          -9.10870265e-03, -7.61515461e-03, 6.74864568e-04,
          6.50623627e-03, 5.97985042e-03, -1.11054778e-02,
          -1.14461062e-02, -1.13675641e-02, -5.85855590e-03,
          -1.03075076e-02, -8.01203866e-03, -2.86841951e-03,
          -1.08409615e-03, -6.63579907e-03, -1.54158240e-02,
          -1.17488708e-02, -9.11317393e-03, -6.74964581e-03,
          -1.92208663e-02, -1.50612583e-02, -2.64267041e-03,
          9.55014373e-04, -6.96726609e-03, 9.07087512e-03,
          -2.90455041e-03, -4.26048785e-03, -5.39816543e-03,
          -9.29103047e-03, -1.11405943e-02, -1.54374237e-03,
          3.60290613e-03, 1.23001691e-02, 4.01542149e-03,
          -2.70249462e-03, -4.02537221e-03, -5.20559307e-03,
          -1.06459688e-02, -1.54343937e-02, -3.33120697e-03,
          1.27375650e-03, 3.07038985e-03, -1.39922891e-02,
          -6.75030332e-03, -3.86596425e-03, -7.42435316e-03,
          -2.21452508e-02, -1.64120570e-02, -6.94472063e-03,
          1.67178910e-03, -9.74085648e-03, -8.49026255e-03,
          -6.01026323e-03, -7.42991688e-03, -7.39599392e-03,
          -2.34701037e-02, -1.57888476e-02, -3.42295156e-03,
          1.81872433e-03, -6.06878567e-03, 6.74559129e-03,
          -2.73029320e-03, -2.56608403e-03, -2.57574278e-03,
          -1.27485497e-02, -9.25753638e-03, -4.95780492e-03,
          1.73824572e-03, 4.91724629e-03, 1.05000325e-02,
          -2.97834678e-03, -7.50709930e-03, -5.45610068e-03,
          1.25761377e-02, -1.13416575e-02, -7.64500303e-03,
          -2.23358185e-03, 1.03789503e-02, -3.85283516e-03,
          -6.18640753e-03, -8.51472002e-03, -9.02125612e-03,
          -2.38402970e-02, -1.16596362e-02, -7.45500065e-03,
          -1.64859439e-03, -6.10390736e-04, -3.87823093e-03,
          -6.93453569e-03, -9.32054501e-03, -1.07432511e-02,
          -2.08238065e-02, -1.22292908e-02, -1.22552030e-02,
          -4.93680080e-03, -2.99270847e-03, 1.60350855e-02,
          4.40012169e-04, -2.53870850e-03, 3.84881241e-05,
          -1.20434689e-03, -1.12942848e-02, -8.79546348e-03,
          -5.24389604e-03, 1.28720831e-02, 1.96701176e-02,
          5.03238384e-03, -1.31263153e-03, -1.61384209e-03,
          -4.53008479e-03, -1.12484321e-02, 1.26672664e-03,
          -4.40977560e-03, 1.44094992e-02, -1.24808529e-03,
          1.02783939e-04, -1.69345341e-03, -4.78669023e-03,
          -1.15909670e-02, -1.46727124e-02, -1.47663588e-02,
          -1.05476975e-02, -6.57894136e-03, -3.05348285e-03,
          5.37715293e-03, -2.19390774e-03, -7.33483816e-03,
          -2.11763531e-02, -1.79539323e-02, -1.66230164e-02,
          -1.35918465e-02, -1.49395205e-02, 1.15213571e-02,
          7.83506967e-03, 7.78268045e-03, 8.01092107e-03,
          -2.15318520e-03, -1.34161301e-02, -1.11446064e-02,
          -9.31686908e-03, 5.66644082e-03, 1.34053165e-02,
          4.59756656e-03, 7.07259495e-03, -4.29730210e-03,
          -1.74444746e-02, -1.83017030e-02, -1.48507878e-02,
          -1.03145931e-02, 7.52902497e-03, -4.93011670e-03,
          6.10270072e-03, 4.89621283e-03, -2.70663551e-03,
          -8.74135830e-03, -1.77841634e-02, -1.67029630e-02,
          -1.38089275e-02, -1.46793565e-02, -7.41474750e-03,
          -9.93852597e-03, -3.64361308e-03, -1.03414627e-02,
          -2.19966881e-02, -1.66487265e-02, -2.12319046e-02,
          -1.46175446e-02, -7.95853324e-03, 2.38135271e-02,
          1.37910470e-02, 2.21812446e-02, 1.93769229e-03, 4.01203241e-03,
          -1.38666760e-02, -7.51138804e-03, 2.06462201e-03,
          1.66459866e-02, 3.44148884e-03, -8.61535373e-04,
          3.89836117e-04, -1.36170266e-02, -1.09417709e-02,
          -2.23846622e-02, -1.48395421e-02, -2.89818877e-03,
          4.56222612e-03, -5.46403183e-03, -7.67128821e-03,
          -6.40425924e-03, -1.24293612e-02, -7.16049876e-03,
          -1.56666487e-02, -1.61144380e-02, -1.11859106e-02,
          -1.18094624e-03, -1.34908855e-02, -9.82416794e-03,
          -1.58365909e-02, -1.94260553e-02, -2.73988172e-02,
          -2.29007676e-02, -1.94860138e-02, -1.45932278e-02,
          -1.06402636e-02 ]
   decision_functions:
      -
         sv_count: 1
         rho: -1.1721890851091048e+00
         alpha: [ 1. ]
