%YAML:1.0
opencv_ml_svm:
   format: 3
   svmType: EPS_SVR
   kernel:
      type: LINEAR
   C: 1.0000000000000000e-02
   p: 1.0000000000000001e-01
   term_criteria: { epsilon:1.0000000000000000e-03, iterations:1000 }
   var_count: 4356
   sv_total: 1
   support_vectors:
      - [ -4.48968634e-03, -1.40366871e-02, -1.10010691e-02,
          -5.68288006e-03, -1.11754062e-02, -1.26745971e-02,
          -7.59037584e-03, -9.47006699e-03, -4.02907515e-03,
          -3.81225906e-03, -1.74754281e-02, -1.31097650e-02,
          -8.85779317e-03, -1.20218657e-02, -1.57124940e-02,
          -9.95010789e-03, -1.20295007e-02, -2.17731483e-03,
          -1.58887438e-03, -1.70948096e-02, -1.31471669e-02,
          -8.80567916e-03, -2.75435532e-03, -1.53497597e-02,
          -8.87003914e-03, -1.08945090e-02, 1.10132759e-03,
          1.39407376e-02, -1.87823679e-02, -1.43608209e-02,
          -1.35243684e-02, -8.60651210e-03, -1.86417270e-02,
          -1.18649667e-02, -1.17746294e-02, 1.70161165e-02,
          -6.49769232e-03, -2.03147735e-02, -1.17088640e-02,
          -8.13975092e-03, -8.92466120e-03, -1.02547575e-02,
          -1.06597785e-02, -1.22802835e-02, -6.17707148e-03,
          -5.03211340e-04, -2.16668025e-02, -1.72763783e-02,
          -1.47472061e-02, -9.17117111e-03, -1.37958694e-02,
          -1.28651336e-02, -1.83956418e-02, -4.58985940e-03,
          -2.95682391e-03, -1.78806856e-02, -1.48463752e-02,
          -1.14694415e-02, -9.89066623e-03, -1.28359487e-02,
          -1.37351779e-02, -1.18101249e-02, -2.08089035e-03,
          1.13131078e-02, 8.63836787e-04, -8.76294449e-03,
          -7.10472278e-03, 1.50856737e-03, -1.54655352e-02,
          -1.47446506e-02, -1.34073002e-02, 5.62159996e-03,
          -2.56158924e-03, -1.79101340e-02, -1.70214977e-02,
          -1.37855168e-02, -1.35054374e-02, -1.38418460e-02,
          -1.40841734e-02, -1.83685087e-02, -7.80051295e-03,
          -3.71819711e-04, -1.56711433e-02, -1.72786880e-02,
          -1.44740744e-02, -1.39013370e-02, -1.32260779e-02,
          -1.62959434e-02, -1.81347150e-02, -4.10707900e-03,
          5.63284708e-03, -1.58148457e-03, -5.85836684e-03,
          -8.80083814e-03, -4.97832242e-03, -1.55974813e-02,
          -1.56397074e-02, -1.47024989e-02, -1.94719946e-03,
          9.86550469e-03, 5.41149545e-03, 9.48354893e-04,
          -5.57077862e-03, -7.71577610e-03, -1.12219434e-02,
          -1.52813755e-02, -1.45281227e-02, 1.89820887e-03,
          -8.10543250e-04, -1.23922983e-02, -1.15235746e-02,
          -1.10461684e-02, -1.42220352e-02, -1.11528104e-02,
          -1.44880069e-02, -1.53852049e-02, -5.09398524e-03,
          -6.92298985e-04, -1.39048435e-02, -1.26478886e-02,
          -1.92594379e-02, -1.94746014e-02, -1.73398498e-02,
          -1.62925590e-02, -1.83103643e-02, -4.49363748e-03,
          1.40135493e-02, 6.93390751e-03, 1.52833134e-04,
          -6.40763901e-03, -1.01370513e-02, -8.81515723e-03,
          -1.18510500e-02, -1.07373185e-02, 4.06887662e-03,
          1.11361137e-02, 1.01539679e-02, -1.51173689e-03,
          -1.17965080e-02, -9.53838881e-03, -1.39833130e-02,
          -1.14268530e-02, -1.29519217e-02, 8.31291638e-03,
          -3.40474746e-03, -1.22087765e-02, -1.13368863e-02,
          -1.73730999e-02, -1.87136382e-02, -1.47689451e-02,
          -1.35813178e-02, -1.46288779e-02, -4.04251507e-03,
          -2.05255020e-03, -1.65041145e-02, -1.45250876e-02,
          -1.39637152e-02, -1.71555374e-02, -1.26907593e-02,
          -1.10813323e-02, -1.21814916e-02, 1.91760797e-03,
          1.03202583e-02, 7.77424406e-03, -6.50455942e-03,
          -1.12661952e-02, -7.26934569e-03, -1.12983864e-02,
          -7.40359863e-03, -1.08271148e-02, 6.64646644e-03,
          1.31721813e-02, -1.03267096e-03, -1.26012815e-02,
          -8.65174923e-03, -1.64681964e-03, -7.00284075e-03,
          -2.78301130e-04, -2.96577020e-03, 1.04758004e-02,
          -5.78642217e-03, -1.72462799e-02, -1.65000595e-02,
          -1.42471343e-02, -1.33302808e-02, -1.06861088e-02,
          -1.02327112e-02, -9.99784190e-03, 7.68223079e-04,
          -9.41855647e-03, -2.04061419e-02, -2.14394424e-02,
          -2.03610547e-02, -1.73581224e-02, -1.51406704e-02,
          -1.41859315e-02, -1.48284696e-02, -4.44419077e-03,
          1.28399879e-02, -8.90102517e-03, -1.09702721e-02,
          -6.88773766e-03, 1.55943295e-03, -4.75106342e-03,
          3.15623148e-03, 2.98352679e-03, 1.19382543e-02, 1.19046448e-02,
          -1.43499589e-02, -1.67306047e-02, -1.55620649e-02,
          -5.98270586e-03, -9.98850074e-03, -1.50172820e-03,
          3.06792208e-03, 1.19553721e-02, -5.82179707e-03,
          -1.61376577e-02, -1.82829779e-02, -1.93037800e-02,
          -1.72296818e-02, -1.52674578e-02, -1.48560032e-02,
          -1.44954994e-02, -1.03938382e-03, -6.75863260e-03,
          -1.86497644e-02, -1.69011503e-02, -2.09392440e-02,
          -2.21047159e-02, -1.80234089e-02, -1.90000311e-02,
          -1.78415906e-02, -4.62314440e-03, 1.31805427e-02,
          -1.44148665e-02, -1.60429962e-02, -1.58846620e-02,
          -3.80304852e-03, -7.10300496e-03, 2.73399218e-03,
          9.56192613e-03, 1.60697512e-02, 9.34232771e-03,
          -1.46320835e-02, -1.36872241e-02, -1.50654865e-02,
          -8.60494934e-03, -1.39068803e-02, -4.19701869e-03,
          4.78830189e-03, 1.71221010e-02, -4.98289801e-03,
          -1.56322438e-02, -1.42959822e-02, -1.60327349e-02,
          -1.22021586e-02, -1.51201617e-02, -1.65527724e-02,
          -1.41784474e-02, -3.78789287e-03, -4.27075848e-03,
          -1.49714593e-02, -1.35806222e-02, -1.62956454e-02,
          -1.45312734e-02, -1.71170272e-02, -1.84708424e-02,
          -1.58716720e-02, -3.72180832e-03, 8.26984737e-03,
          -1.31477593e-02, -1.14224330e-02, -1.10166380e-02,
          4.08910122e-03, -1.07041765e-02, -1.34534761e-03,
          8.29398911e-03, 1.68872997e-02, 2.12319847e-03,
          -1.48880100e-02, -1.59151964e-02, -1.45621188e-02,
          -1.14664959e-03, -1.45431673e-02, -1.16475848e-02,
          -5.53455087e-04, 8.07646848e-03, 1.76606316e-03,
          -1.58494432e-02, -1.29731130e-02, -1.37195550e-02,
          -1.41314128e-02, -1.39708398e-02, -1.50972903e-02,
          -1.66941117e-02, 3.15316347e-03, 4.96482570e-03,
          -1.72291100e-02, -1.51677569e-02, -1.72950495e-02,
          -1.89592615e-02, -1.63600128e-02, -1.47020835e-02,
          -1.88220665e-02, 2.02293741e-03, 5.10349590e-03,
          -1.27135161e-02, -1.19032701e-02, -9.55195446e-03,
          -5.75510645e-03, -1.25776473e-02, -1.24530960e-02,
          -5.55739598e-03, 8.52221623e-03, 5.40424744e-03,
          -1.28226755e-02, -1.06775537e-02, -9.16955620e-03,
          -7.85687380e-03, -1.50106624e-02, -1.22119384e-02,
          -6.22954685e-03, 9.28495359e-03, 4.75209719e-03,
          -1.31710209e-02, -1.52644468e-02, -1.49695659e-02,
          -1.91147234e-02, -1.54319210e-02, -1.27691561e-02,
          -1.41835101e-02, 1.31186284e-03, 6.06343895e-03,
          -1.65158138e-02, -1.84446983e-02, -1.72736440e-02,
          -2.16552448e-02, -2.05231048e-02, -1.29801547e-02,
          -1.32948328e-02, 3.65258195e-03, 9.32019111e-03,
          -6.60665752e-03, -8.67545512e-03, -8.96079745e-03,
          -2.64486391e-03, -1.26766078e-02, -1.01905977e-02,
          -2.73025665e-03, 1.01909610e-02, 8.66339076e-03,
          -8.17289948e-03, -1.08124884e-02, -1.58439614e-02,
          -7.20916968e-03, -1.74734648e-02, -1.39165800e-02,
          -8.45166016e-03, 9.83103272e-03, 2.79863109e-03,
          -1.51251126e-02, -1.67541280e-02, -1.89832244e-02,
          -1.75950583e-02, -1.71415098e-02, -9.27510951e-03,
          -9.63890553e-03, 3.96594545e-03, 3.23601183e-04,
          -1.49071310e-02, -1.69239957e-02, -2.18519773e-02,
          -2.39375588e-02, -1.95429903e-02, -1.27221150e-02,
          -1.41399587e-02, -2.64989532e-04, 2.11032797e-02,
          -7.23718153e-03, -1.24173500e-02, -1.76539794e-02,
          -2.71766074e-03, -1.30039603e-02, -9.79192182e-03,
          -7.25984981e-04, 2.20107939e-02, 9.18546785e-03,
          -1.05419736e-02, -1.31079294e-02, -1.89469326e-02,
          -1.10051669e-02, -1.88532826e-02, -8.17247853e-03,
          -7.01683108e-03, 7.74203939e-03, -8.62958003e-03,
          -1.23149129e-02, -1.06504252e-02, -6.62081270e-03,
          -1.41426644e-04, -1.07422145e-02, -9.83622950e-03,
          -1.06954416e-02, -9.66631342e-03, -1.03440499e-02,
          -1.45486239e-02, -1.22565972e-02, -9.46035143e-03,
          -8.80071148e-03, -1.39287701e-02, -1.26375062e-02,
          -9.90404189e-03, -8.16243049e-03, -1.88736282e-02,
          -1.48428725e-02, -9.39443428e-03, -4.39658156e-03,
          4.53738542e-03, -1.19291060e-02, -1.14505878e-02,
          -1.32249370e-02, -1.89395715e-02, 4.41728765e-03,
          4.90666227e-03, 1.25667900e-02, 1.01987598e-02, 2.56786193e-03,
          -9.20282025e-03, -9.27230995e-03, -7.42281647e-03,
          3.61323939e-03, -2.35436894e-02, -1.60419699e-02,
          -1.41670089e-02, -1.18523128e-02, -1.69512071e-02,
          -1.21426443e-02, -1.51990438e-02, -1.27797630e-02,
          -2.31515095e-02, -1.26385223e-02, -1.09505875e-03,
          -2.06687395e-03, -1.11687798e-02, -8.83799605e-03,
          -1.31608555e-02, -1.46532515e-02, -1.22974636e-02,
          -1.82622857e-02, -1.24223903e-02, 2.58277450e-03,
          1.03276512e-02, -1.39694614e-03, -9.11555067e-03,
          -8.03764723e-03, -1.16483793e-02, -1.07240183e-02,
          -1.34908371e-02, 6.43790513e-03, 1.77966766e-02,
          1.59630198e-02, 1.08911069e-02, 5.83902746e-03,
          -1.66571501e-03, -4.87402640e-03, -2.78380094e-03,
          -3.84152145e-03, -6.74927561e-03, -9.22883919e-04,
          -2.81523075e-03, -1.31872343e-02, -1.15397153e-02,
          -1.28417648e-02, -1.18997265e-02, -1.15420902e-02,
          -1.26478625e-02, -7.47115735e-07, 2.48551508e-03,
          1.51047402e-03, -1.08512454e-02, -1.24196382e-02,
          -9.70540754e-03, -1.16856452e-02, -1.14326775e-02,
          -1.03186993e-02, 5.74724376e-03, 1.01870997e-02,
          9.93103348e-03, -7.60841416e-03, -5.51273767e-03,
          -7.21222302e-03, -5.73590351e-03, -4.38863505e-03,
          -1.68373599e-03, 4.84460685e-03, -3.05821607e-03,
          6.33630157e-03, -7.74252973e-03, -1.03104329e-02,
          -3.23679415e-03, -4.94222157e-03, -4.30841697e-03,
          -1.89123570e-03, 1.69458287e-03, 5.46100223e-03,
          2.33346422e-04, -8.43978114e-03, -1.37744742e-02,
          -6.50337012e-03, -7.01027131e-03, -6.67331368e-03,
          -7.04077166e-03, 2.05604639e-03, 5.71904471e-03,
          -5.39669953e-03, -1.29161924e-02, -1.80821270e-02,
          -1.29137747e-02, -9.94536746e-03, -8.45728628e-03,
          -3.95517983e-03, 1.68960169e-03, 3.88696237e-04,
          4.08235006e-03, -1.09722707e-02, -8.95262510e-03,
          2.49768002e-03, -1.95856205e-06, 1.39347068e-03,
          -3.55223008e-03, 6.33983221e-03, -3.05887591e-03,
          -5.17513789e-03, -1.17997667e-02, -1.03602875e-02,
          -1.61446212e-03, -1.56519748e-03, 2.42578957e-04,
          -1.81124592e-03, 1.77870132e-03, 9.70668509e-04,
          -7.55970879e-03, -1.29326107e-02, -1.32281743e-02,
          -1.11656142e-02, -4.11573844e-03, -4.89640422e-03,
          -1.36999122e-03, 1.25953800e-03, -4.23296820e-03,
          -1.21772084e-02, -1.14349928e-02, -8.08874890e-03,
          -6.37946045e-03, -1.12615118e-03, 1.05878338e-03,
          1.78391102e-03, 2.44966405e-03, -5.42115234e-03,
          -3.57413478e-03, -1.19936857e-02, -1.00016752e-02,
          -5.77576598e-03, 1.46010920e-04, 6.73527829e-04,
          -1.28541072e-03, -8.66385759e-04, -4.46097320e-03,
          -3.86406574e-03, -9.49870609e-03, -7.42091984e-03,
          -1.72739907e-03, 5.61751239e-03, 2.42469297e-03,
          7.46266509e-04, 3.79992579e-03, -1.02062011e-02,
          -1.26490518e-02, -8.94728303e-03, -5.48462383e-03,
          -4.98046214e-03, 8.33887549e-04, 4.92623448e-03,
          6.64805435e-03, 1.39919401e-03, -1.24074006e-02,
          -1.46684088e-02, -1.76022612e-02, -1.48723377e-02,
          -1.15053980e-02, -5.73947967e-04, 2.23126472e-03,
          6.10353751e-03, -3.51689570e-03, -5.05683850e-03,
          -5.13979373e-03, -7.53101241e-03, -2.07530870e-03,
          -1.40451142e-04, 7.13610090e-03, 5.05466759e-03,
          4.90603549e-03, 4.67656821e-04, -5.58077917e-03,
          -4.50714538e-03, -1.67005770e-02, -1.17745930e-02,
          -7.54903536e-03, 2.32465845e-03, -4.90381557e-04,
          5.92967169e-03, -2.62160623e-03, -1.15028601e-02,
          -1.34571251e-02, -1.53869493e-02, -1.36218648e-02,
          -1.04923639e-02, 1.02463202e-03, 5.62799769e-03,
          7.44958641e-03, -7.12304842e-03, -1.16015347e-02,
          -1.24587705e-02, -1.18383188e-02, -1.19717894e-02,
          -1.34195024e-02, -5.07672376e-04, 3.79306520e-03,
          -2.65223876e-04, 3.49378242e-04, -3.00011295e-03,
          -4.09833016e-03, -1.29996873e-02, -1.54426778e-02,
          -5.21485321e-03, 5.65578742e-03, 3.98465479e-03,
          5.79995685e-04, -8.84312205e-04, -5.47353597e-03,
          -6.86735660e-03, -8.60972609e-03, -3.76981171e-03,
          -6.01965701e-03, 7.70830549e-03, 3.20628099e-03,
          -2.09378413e-04, -5.05825365e-03, -1.03012286e-02,
          -1.25116371e-02, -1.06437169e-02, -1.22163650e-02,
          -1.13969930e-02, 3.00674653e-03, 7.30449287e-03,
          -1.69936894e-03, -8.25984962e-03, -1.39313284e-02,
          -1.54685229e-02, -1.50763523e-02, -1.05289361e-02,
          -1.34849362e-02, -7.60538317e-03, -1.30133412e-03,
          -4.50883433e-03, -2.67402618e-03, -5.93546079e-03,
          -3.80998943e-03, -6.37167832e-03, -7.95854814e-03,
          1.82894745e-03, 1.30026676e-02, 1.06584849e-02, 1.60815113e-03,
          -6.20922213e-03, -1.14099821e-02, -8.61430448e-03,
          -9.80835315e-03, -8.93185567e-03, 2.62603932e-03,
          5.53899445e-03, 9.72194597e-03, 3.44708445e-03,
          -5.81050152e-03, -1.19557651e-02, -1.07157575e-02,
          -9.78763402e-03, -7.49405054e-03, -9.35293082e-03,
          -7.55757652e-03, -2.06589140e-03, -3.50206881e-03,
          -1.22836148e-02, -1.26240635e-02, -1.27051063e-02,
          -7.55483517e-03, -8.78882874e-03, -1.20672211e-02,
          -1.15412557e-02, -5.36454469e-03, -8.18000734e-03,
          1.41800276e-03, -9.07552335e-03, -3.21523868e-03,
          -4.75820294e-03, 4.08497034e-03, 3.76904756e-03,
          3.78005579e-03, 9.51889902e-03, 5.84485801e-03,
          -7.04322103e-03, -1.13022104e-02, -7.90083688e-03,
          -6.95529813e-03, -5.64128719e-03, -9.53136291e-03,
          3.40630999e-03, 3.75352800e-03, -9.32027935e-04,
          -5.29612089e-03, -7.62764784e-03, -1.01507930e-02,
          -8.03871732e-03, -6.39175158e-03, -9.88284312e-03,
          -1.07023213e-02, -2.66509154e-03, -1.30336126e-03,
          -8.47382762e-04, -7.43332040e-03, -1.14304358e-02,
          -1.19427182e-02, -5.72389271e-03, -1.22723663e-02,
          -9.48907528e-03, -3.54872248e-03, 5.30487625e-04,
          -9.17202979e-03, -3.85900098e-03, -5.33980923e-03,
          -4.73149214e-03, 4.61709639e-03, -3.00074881e-03,
          -7.08077801e-04, 3.16160149e-03, -2.31698668e-03,
          -6.04913570e-03, -8.91236868e-03, -7.89779425e-03,
          -7.55615672e-03, -1.67989847e-03, -5.04456228e-03,
          -3.89635516e-03, -2.02981173e-03, -4.69106529e-03,
          -3.73763498e-04, -8.49275291e-03, -9.21825785e-03,
          -8.13107844e-03, -7.85851106e-03, -1.03311557e-02,
          -4.98202583e-03, -1.99087034e-03, 1.97688118e-03,
          -5.08085033e-03, -8.60848371e-03, -7.61473039e-03,
          -1.09092006e-02, -9.22444928e-03, -1.34863881e-02,
          -6.18275208e-03, -6.19063945e-03, -4.60856641e-03,
          -3.56529653e-03, -9.79477726e-03, -6.64705038e-03,
          -4.95547056e-03, 2.68179039e-03, -1.26803853e-03,
          2.97872373e-03, 1.97337428e-03, 1.53658155e-03,
          -2.49711610e-03, -1.04388697e-02, -7.87928328e-03,
          -9.85915121e-03, 1.57979061e-03, -8.88052583e-03,
          -1.29889871e-03, -3.04590049e-03, 2.73454539e-03,
          -2.33811699e-02, -1.68262701e-02, -1.04666753e-02,
          -6.92469953e-03, -8.15640762e-03, -1.59963313e-02,
          -1.21748094e-02, -1.43645229e-02, -1.97857879e-02,
          -1.21296858e-02, 2.71740207e-03, 1.26514276e-02,
          4.39935923e-03, -8.37328099e-03, -1.30387908e-02,
          -1.09371152e-02, -1.01406444e-02, -1.28789041e-02,
          -1.32177761e-02, -3.67499818e-03, 6.88452786e-03,
          -2.21674726e-03, -5.50505845e-03, -1.92648042e-02,
          -1.54298516e-02, -1.50774335e-02, -1.60900075e-02,
          9.57514439e-03, 2.10027751e-02, 2.65171807e-02, 2.22157668e-02,
          4.84986417e-03, -6.51700003e-03, -8.32457375e-03,
          -6.04636082e-03, 5.98529412e-04, -1.40216220e-02,
          5.62830595e-03, 9.23803356e-03, -1.70063140e-04,
          -1.04721887e-02, -8.88671633e-03, -1.38863353e-02,
          -8.26696958e-03, -1.25880037e-02, -6.90824166e-03,
          9.39001329e-03, 9.67103709e-03, 4.27882513e-03,
          -8.46857950e-03, -8.40338878e-03, -1.21594174e-02,
          -6.53303321e-03, -6.54832739e-03, -4.02069744e-03,
          1.05514955e-02, 1.09038660e-02, 8.17484595e-03,
          -5.12865884e-03, -6.84500206e-03, -1.05557740e-02,
          -7.09807128e-03, -5.69969229e-03, 1.08966613e-02,
          4.62726969e-03, 1.22069167e-02, 5.15501993e-03,
          -1.80982787e-03, -6.64741592e-03, -5.94871212e-03,
          -1.61411997e-03, 7.10187433e-03, -4.08374099e-03,
          6.26362348e-03, 9.43027064e-03, 1.11161941e-03,
          -1.03031397e-02, -7.60337804e-03, -6.17656717e-03,
          -9.65543906e-04, -4.65755071e-03, -6.84675248e-03,
          2.76960828e-03, 3.39629245e-03, -4.13627690e-03,
          -1.33101018e-02, -8.17043532e-04, -1.25989690e-03,
          4.02338046e-04, -6.60379091e-03, 5.59499429e-04,
          3.93567001e-03, 8.16680118e-03, 3.37176002e-03,
          -4.39149700e-03, -6.69374084e-03, -3.59652285e-03,
          -1.60795439e-03, -3.41154227e-04, 8.56199884e-04,
          4.07152809e-03, 6.49410998e-03, -1.37838046e-03,
          -9.51303914e-03, -3.26090935e-03, -2.27060431e-04,
          1.61353732e-03, -3.17675690e-03, -8.23385641e-03,
          -9.36844095e-04, 6.25493645e-04, -6.62988611e-03,
          -8.62415694e-03, 4.46015131e-03, 4.45432542e-03,
          3.73439398e-03, -6.40716217e-03, -1.06299445e-02,
          -3.47202527e-03, -6.47216663e-03, -7.85276014e-03,
          -9.40113794e-03, 4.70413081e-03, 3.41642136e-03,
          7.25172111e-04, -1.02010192e-02, 3.43575072e-03,
          3.26009910e-03, 1.23442966e-03, -3.75599158e-03,
          -1.29754795e-02, 2.58849002e-03, 7.34478841e-03,
          5.25991339e-03, 8.58293497e-04, 4.78632934e-03,
          -1.12663978e-03, -7.64779327e-03, -7.72439130e-03,
          -1.35897463e-02, 4.72167507e-03, 3.24308011e-03,
          1.98558904e-03, 8.11283477e-03, -6.65469887e-03,
          -4.42337291e-03, -7.18667731e-03, -7.59624690e-03,
          -6.48593158e-03, -6.70066278e-04, 9.82180936e-04,
          1.97000685e-03, -3.94071080e-03, -5.70512889e-03,
          -1.32141076e-03, 1.62010337e-03, -2.00578151e-03,
          -1.83922285e-03, 5.18150767e-03, 6.51731947e-03,
          2.50751339e-03, -2.62096873e-03, 3.01921065e-03,
          -5.44330431e-03, -5.73541457e-03, -6.18953118e-03,
          -5.17482450e-03, 1.33317022e-03, 1.18567911e-03,
          1.02444889e-03, 6.27251156e-03, -4.65790072e-04,
          -5.17300004e-03, -1.00709160e-03, 1.21418259e-03,
          4.92384541e-04, 1.34701969e-03, -7.92834093e-04,
          -5.54687809e-03, -1.86763078e-04, -4.88505093e-03,
          -5.37429878e-04, 3.64183891e-03, 1.35711103e-03,
          2.21471349e-03, 3.68953054e-03, 4.54990333e-03, 2.11216556e-03,
          -4.17421293e-03, -1.70802721e-03, -1.43651431e-03,
          2.16862373e-03, -4.12471546e-03, -9.25318897e-03,
          -6.63349591e-03, -3.87179665e-03, -2.89514870e-03,
          -2.30959849e-03, -1.44226814e-03, -3.09553160e-03,
          7.34797213e-03, 7.84944650e-03, 4.05552378e-03, 2.20176950e-03,
          -1.43568660e-03, -5.80006698e-03, -1.06133695e-03,
          -1.29326526e-03, -5.37551427e-03, 2.18444527e-03,
          2.30379216e-03, -8.22080486e-03, -9.03323758e-03,
          -6.91546220e-03, -7.84463342e-03, -4.80563706e-03,
          -4.64176759e-04, 2.63677968e-04, -2.24281987e-03,
          -3.16560711e-03, -9.66580678e-03, -6.00617565e-03,
          1.16615172e-03, 2.69700983e-03, -2.26803496e-03,
          -3.12424405e-03, -1.26730930e-03, -1.03760208e-03,
          -6.75105257e-04, 8.82424996e-04, -3.24213644e-03,
          4.58462024e-03, 4.57771821e-03, -1.14584633e-03,
          9.50945483e-04, -4.18017758e-03, 2.49453890e-03,
          1.67375908e-03, -9.34397615e-03, -1.05326958e-02,
          -4.80025588e-03, -3.08204954e-03, -3.06788788e-05,
          -4.12462745e-03, -4.88890940e-03, -4.00870282e-04,
          -2.90544285e-03, -7.40464730e-03, -9.50339809e-03,
          2.07029702e-03, 2.13968591e-03, -2.93613900e-03,
          -6.96862536e-03, -6.08754996e-03, -4.69745276e-03,
          -3.85464821e-03, -6.82420982e-03, -8.69998592e-04,
          8.95164628e-03, 9.16318875e-03, -2.03793170e-03,
          -8.18610564e-03, -1.14085078e-02, -8.83297343e-03,
          -6.94245705e-03, -9.04266071e-03, 5.34417015e-03,
          1.08097494e-02, 7.96498638e-03, -4.05267859e-03,
          -7.30592478e-03, -7.89296161e-03, -4.25220467e-03,
          -6.71344204e-03, -1.01581989e-02, -5.77077735e-03,
          4.32917522e-03, 7.02210527e-04, -2.94317026e-03,
          -4.01552906e-03, -7.28843873e-03, -2.27513164e-03,
          -1.71194004e-03, -5.41181304e-03, -1.58704119e-03,
          6.71635941e-03, 3.47630354e-03, -2.96200509e-03,
          -9.39836726e-03, -8.68981425e-03, -6.23214804e-03,
          -5.48906531e-03, -6.88745128e-03, 2.46233656e-03,
          1.18819578e-02, 7.39406887e-03, -7.59723503e-03,
          -1.33733461e-02, -1.01797124e-02, -6.67031109e-03,
          -9.24874935e-03, -7.03962613e-03, -6.72030402e-03,
          6.21850928e-03, -2.39305402e-04, -1.27513306e-02,
          -3.85902356e-03, -4.19360073e-03, -1.11972040e-03,
          -1.32208667e-03, -2.08109757e-03, 3.92689230e-03,
          8.42486508e-03, 5.69288293e-03, -5.05673699e-03,
          -3.54929036e-03, -7.07028853e-03, -7.55001558e-04,
          -5.84219536e-03, 1.54627650e-03, 2.70226505e-04,
          6.50562067e-03, 2.67323153e-03, -4.19905456e-03,
          -1.26744388e-02, -6.73529226e-03, -5.71597926e-03,
          -7.11866654e-03, 2.48445757e-03, -3.30011826e-03,
          2.18249879e-05, -3.55807180e-03, -1.05394255e-02,
          -1.02049801e-02, -9.82863270e-03, -7.46889040e-03,
          -2.54392321e-03, -6.91886479e-03, -6.97044330e-03,
          -8.38424545e-03, -9.78032500e-03, -1.28074242e-02,
          2.52641877e-03, -2.67926976e-03, 9.75794159e-04,
          1.16453937e-03, 1.75145697e-02, 7.44407938e-04, 2.64282199e-03,
          1.73905178e-03, -5.69670054e-04, 1.91668281e-03,
          -6.56040758e-03, -2.82558706e-03, 6.89821143e-04,
          -1.58393779e-03, -4.00151685e-03, -2.47378554e-03,
          -3.23461019e-03, -6.54990288e-07, -6.53734803e-03,
          -8.59568175e-03, -3.92552465e-03, -8.54770071e-04,
          3.82263470e-03, -3.84199410e-03, -4.50256420e-03,
          -3.70244076e-03, -6.76297955e-03, -8.55616294e-03,
          -8.65925848e-03, -6.15670905e-03, -5.29453903e-03,
          5.90811158e-03, -7.43702566e-03, -1.96149899e-03,
          -3.48703447e-03, -2.65108072e-03, 3.31095653e-03,
          -5.19610522e-03, -1.28126796e-03, 3.21019604e-03,
          4.22826828e-03, -3.67914373e-03, -1.70611369e-03,
          -2.09673750e-03, 2.35211593e-03, 7.72473915e-03,
          -3.30591784e-03, 1.07998180e-03, -2.64221337e-03,
          4.91382182e-03, -6.49514841e-03, -6.37028692e-03,
          -5.13592921e-03, 8.90107360e-03, -1.55279888e-02,
          -5.30220335e-03, 4.43754066e-03, 2.05732766e-03,
          -1.02731660e-02, -1.48604494e-02, -1.07701020e-02,
          -1.23808179e-02, -1.54947685e-02, -9.86633915e-03,
          1.01672010e-02, 1.55078489e-02, 1.21735195e-02,
          -2.22750288e-03, -7.72609562e-03, -6.77732518e-03,
          -5.95524907e-03, -9.98911075e-03, -1.78349763e-02,
          7.74259621e-04, 1.05745299e-02, 6.68012910e-03, 3.48569418e-04,
          -9.33631416e-03, -9.67647973e-03, -1.23000229e-02,
          -2.20815353e-02, 2.01442000e-03, 1.59299616e-02,
          1.65679362e-02, 1.25866812e-02, 1.48777645e-02,
          -2.29694624e-03, -1.89948454e-03, -5.02178725e-03,
          -4.83490899e-03, -7.39690941e-03, 4.63305693e-03,
          4.54727653e-03, 7.09275203e-03, -6.72873063e-03,
          -3.64076323e-03, -3.25275469e-03, -3.19495890e-03,
          -6.48871297e-03, -2.26672180e-03, 7.45995727e-04,
          4.56893910e-03, 5.42640965e-03, -1.35319482e-03,
          -4.66011558e-03, -1.58541207e-03, 3.04113317e-04,
          -6.40395517e-03, -2.38660746e-03, 8.96808039e-03,
          6.34381594e-03, 7.53752980e-03, -1.57683028e-03,
          -1.55956566e-03, -1.36152748e-03, -4.25246404e-03,
          -3.72207328e-03, 3.52727901e-03, 6.37936173e-03,
          1.19307237e-02, 8.50759167e-03, 4.80564637e-03,
          -3.01172113e-04, 2.38816603e-03, 1.39889133e-03,
          2.49203434e-03, -3.86344292e-03, 2.83690845e-03,
          6.30729599e-03, 3.70662520e-03, -4.83553158e-03,
          -2.44851084e-03, -1.80356973e-03, 1.34583958e-03,
          -5.67535032e-03, -2.41282885e-03, 1.31731585e-03,
          4.50082915e-03, -1.79918285e-03, -9.55103058e-03,
          -6.17418787e-04, 2.71613896e-03, 4.03365586e-03,
          -6.68985536e-03, -2.73117935e-03, 3.39276926e-03,
          3.53798713e-03, 3.32108489e-03, -4.03826358e-03,
          1.29840861e-03, 4.48963745e-03, 4.64809779e-03,
          -7.06101244e-04, 4.33322275e-03, 6.74563460e-03,
          4.43174178e-03, -2.68222392e-03, -5.60176559e-03,
          9.94929229e-04, 8.16002768e-03, 9.17807035e-03, 2.72708223e-03,
          -9.63152444e-04, 4.19185264e-03, 6.51971437e-04,
          -5.66164544e-03, -1.32729653e-02, 2.21995520e-03,
          5.39779570e-03, 2.01102323e-03, -4.13871882e-03,
          1.11577997e-03, 2.37553054e-03, -3.68917594e-03,
          -8.16790946e-03, -1.20662451e-02, 6.87544653e-03,
          6.03368971e-03, 1.38297910e-03, 9.84355342e-04, 1.52156758e-03,
          5.26381237e-03, 2.69161444e-03, -2.95463041e-03,
          -6.47921767e-03, 3.09940288e-03, 1.16048977e-02,
          9.57194716e-03, 4.53284755e-03, 3.49968439e-03, 2.60103354e-03,
          -4.59441915e-03, -6.80492632e-03, -8.25758372e-03,
          6.98976684e-03, 1.07714925e-02, 1.00469589e-02, 8.34568311e-03,
          4.06507665e-04, -4.30952758e-03, -4.39884281e-03,
          -8.05302057e-03, -5.86839858e-03, 3.59102082e-03,
          2.08940054e-03, 8.56520666e-04, 1.29929592e-03,
          -1.65950088e-03, -4.42144787e-03, -2.38954555e-03,
          -1.01781834e-03, -2.29571087e-04, 1.81446970e-03,
          5.74783131e-04, -2.27338099e-03, -4.19476954e-03,
          4.46216809e-03, 9.11328418e-04, -7.29234191e-03,
          -8.93277302e-03, -3.19083221e-03, 7.53132999e-03,
          1.16068544e-02, 1.24981720e-02, 8.64063948e-03, 1.90931570e-03,
          9.29109985e-04, -2.00736569e-03, -8.45918723e-04,
          -2.00783811e-03, 6.51639979e-03, 4.09592409e-03,
          5.84572228e-03, 5.48565062e-03, -4.45105275e-03,
          -3.94588569e-03, 1.40410510e-03, 9.19591170e-03,
          4.15648473e-03, 2.86048511e-03, -1.38311647e-03,
          -3.75326909e-03, -6.74283598e-03, -8.39688256e-03,
          -5.06938063e-03, 7.94499938e-04, 4.67169564e-03,
          -4.07162309e-03, -4.50585643e-03, -1.82770705e-03,
          -8.36252980e-03, -1.08698141e-02, 3.32207116e-03,
          -1.25530525e-03, -3.86577449e-04, 8.15652311e-03,
          8.30335263e-03, 7.73643469e-03, 4.31195786e-03, 7.58448010e-03,
          4.32647439e-03, -2.64374510e-04, 9.53382638e-04,
          3.98419041e-04, 1.61080447e-03, -1.70886389e-03,
          1.58558704e-03, 2.69919727e-03, -1.34917221e-03,
          -2.31258525e-03, -7.07920967e-03, -3.33681726e-03,
          3.71744484e-03, 2.27845367e-03, -6.66591385e-03,
          -6.34019682e-03, -1.39001501e-03, -4.64512361e-03,
          -5.25793340e-03, -6.78702956e-03, 7.04842038e-04,
          3.31488298e-03, -4.30307211e-03, -1.06418850e-02,
          -1.02466969e-02, 1.61819113e-03, 7.17368501e-04,
          -5.70290675e-03, 4.88674175e-03, 5.48524363e-03,
          6.06823154e-03, -2.35387663e-04, -1.09863561e-03,
          1.60858256e-03, 6.99300645e-03, 5.04758628e-03, 3.72283114e-03,
          3.69654573e-03, 6.78841444e-03, 5.80110494e-03,
          -1.18351728e-02, -6.16885070e-03, -6.33273041e-03,
          5.95521228e-03, 4.94242646e-03, 3.35708284e-03,
          -7.38792913e-03, -6.06557413e-04, -9.10807517e-04,
          -8.73265136e-03, -1.28521621e-02, -1.02346875e-02,
          2.63989856e-03, 4.29060688e-04, -3.65533051e-03,
          -2.93014874e-03, 4.00363375e-03, 8.11799057e-03,
          1.47650705e-03, -5.53997653e-03, -2.04882119e-03,
          1.04343623e-03, -1.72989594e-03, -4.55309264e-03,
          -3.26370617e-04, 2.31209281e-03, 1.13914011e-03,
          -1.33915534e-02, -1.10163996e-02, -8.47913884e-03,
          2.50418577e-03, 3.09412181e-03, 7.48261751e-04, 8.44809285e-04,
          9.21412930e-03, 1.06726103e-02, 2.50483165e-03,
          -4.12058830e-03, -4.25872765e-03, 3.70904134e-04,
          -8.57375504e-04, 1.04748819e-03, -8.84606596e-03,
          -4.95596672e-04, 4.60225483e-03, 1.19284622e-03,
          -2.85298447e-03, -5.54554223e-04, 5.22038620e-03,
          6.81544829e-04, -1.05345277e-02, -1.12642795e-02,
          -4.32999153e-03, 2.43089837e-03, -3.56376142e-04,
          -2.06623971e-03, -2.64145085e-03, 3.72743676e-03,
          3.88103281e-03, -5.47764683e-03, -1.04827741e-02,
          5.93606150e-03, 9.81739536e-03, 2.65904912e-03,
          -3.59659153e-03, -5.02138748e-04, 2.39306572e-03,
          -3.97256372e-04, -1.02009140e-02, -1.03511373e-02,
          1.82943535e-03, 6.89077470e-03, 2.01714830e-03, 8.13310593e-03,
          2.76321056e-03, 5.84831182e-03, 4.28836560e-03,
          -4.51771682e-03, -7.94291124e-03, -2.03513890e-03,
          3.66913876e-03, 2.49477802e-03, -7.54302950e-04,
          6.13052835e-05, 6.03614189e-03, 4.96132765e-03,
          -4.53114463e-03, -8.94716568e-03, -5.13671432e-03,
          -3.56136705e-03, -1.96545036e-03, -9.71098058e-03,
          -6.83493307e-03, -4.60203830e-03, -3.31890816e-03,
          -6.66598510e-03, -9.40570980e-03, -1.85013947e-03,
          2.66449782e-03, 1.97650748e-03, 5.33756567e-03, 7.24360906e-03,
          7.35827815e-03, 9.93793458e-03, -1.44059060e-03,
          -5.13817975e-03, -5.81752928e-03, 2.78258766e-03,
          8.62011779e-03, -2.36243568e-03, 2.32591038e-03,
          6.32508192e-03, 4.33419505e-03, -2.49405927e-03,
          -2.23998632e-03, -2.10706680e-03, -2.49502901e-03,
          -1.15275441e-03, -3.32467002e-03, -4.89805592e-03,
          -1.61746444e-04, -9.04836284e-04, 1.05714484e-03,
          -7.19105080e-03, -5.49450330e-03, -4.78225993e-03,
          -6.89098146e-03, -2.66574020e-03, -8.28628894e-03,
          -1.16478745e-02, -6.94992859e-03, -5.95258363e-03,
          -1.10689283e-03, -1.12844026e-03, 2.70925841e-04,
          -1.36921648e-03, -6.44331984e-03, 5.73768420e-03,
          1.31741222e-02, 1.01113077e-02, 3.15148267e-03,
          -9.13961267e-04, -9.91399051e-04, -1.41380075e-03,
          -3.88813042e-03, 3.71373771e-03, -4.19148896e-03,
          -2.26802635e-03, 8.37383268e-04, -1.06381613e-03,
          -1.68693867e-02, 1.22166064e-03, 1.09666698e-02,
          8.37332755e-03, 3.52559448e-03, -6.79439865e-03,
          -8.81003402e-03, -1.23055438e-02, -1.92355774e-02,
          -5.06269885e-03, 9.78358369e-03, 1.65406205e-02,
          6.70738565e-03, 9.89150535e-03, -2.04783259e-03,
          -3.65242641e-03, -4.13686968e-03, -1.04375491e-02,
          -1.71421375e-02, -2.53190962e-03, 1.22423731e-02,
          1.38723040e-02, 9.35565494e-03, -1.23734423e-03,
          -5.63896587e-03, -1.04318317e-02, -1.77221950e-02,
          -4.01369383e-04, 5.41916769e-03, 1.45200770e-02,
          7.53982924e-03, 1.93750858e-02, 2.38617253e-03,
          -6.97314274e-04, 7.82333227e-05, -4.63513751e-03,
          -6.86592702e-03, 7.46058067e-03, 2.92105204e-03,
          4.03077109e-03, -2.69699655e-03, 2.36798674e-04,
          -3.29549657e-03, -4.36894014e-04, -7.66526395e-03,
          -8.79669748e-03, -3.33251111e-04, 3.60794715e-03,
          9.01045371e-03, 1.06258038e-03, 2.39286362e-03,
          -8.36764084e-05, -1.80131139e-03, -7.81194819e-03,
          1.70959404e-03, 4.44797473e-03, 6.10411447e-03, 3.55434697e-03,
          -5.94953261e-03, 5.25737705e-04, -3.12776444e-03,
          1.04942138e-03, -2.99404934e-03, 2.85801175e-03,
          9.24610067e-04, 9.34987888e-03, 1.22629628e-02, 5.13969688e-03,
          5.35331247e-03, -3.21166730e-03, -3.06576374e-03,
          -2.48091383e-04, -8.85144062e-03, -3.22493003e-03,
          1.65291631e-03, 1.51723356e-03, -1.59198989e-03,
          4.60330537e-03, 5.79065736e-03, 2.94112670e-03,
          -4.29043593e-03, -4.03290195e-03, -3.74456798e-03,
          1.53773557e-03, -1.40730082e-03, -6.16933592e-03,
          4.01688088e-03, 9.12004523e-03, 5.09517919e-03,
          -2.58033653e-03, -6.44441869e-04, 1.52173787e-04,
          2.61168461e-03, 5.69059281e-03, 2.31589307e-03, 9.00199171e-03,
          4.22295416e-03, 3.54891876e-03, 2.54847971e-03, 4.75925114e-03,
          -5.79952146e-04, 2.54397490e-03, 3.70289641e-03,
          -6.23566157e-04, 1.19739939e-02, 1.05560413e-02,
          6.97971508e-03, 5.64304087e-03, -1.45285600e-03,
          -4.60755167e-04, 8.73777899e-04, 3.52264359e-03,
          -2.61580735e-03, 4.47170949e-03, 1.05910655e-02,
          5.72329946e-03, 1.06477889e-03, 2.65406561e-04, 8.37390544e-04,
          -5.52298129e-03, -2.51136837e-04, -7.35728955e-03,
          8.03107023e-03, 9.22440179e-03, 8.92730616e-03, 3.34698823e-03,
          4.64808708e-03, -4.14828165e-03, -4.41098027e-03,
          6.07642811e-03, 4.04770626e-03, 1.37402210e-02, 1.11043174e-02,
          6.96494104e-03, 5.81655139e-03, -6.89105364e-04,
          -2.05435394e-03, -6.05134817e-04, 1.52966275e-03,
          -3.13836755e-03, 5.23583731e-03, 4.53281822e-03,
          6.17158320e-03, 1.74715254e-03, -9.61616170e-04,
          1.97600690e-03, -1.33280701e-03, -6.17062021e-03,
          -8.18233471e-03, 7.00843055e-03, 8.98401160e-03,
          5.95472287e-03, 2.90682260e-03, -2.07345496e-04,
          3.60418664e-04, 4.98930342e-04, -1.00355363e-03,
          -3.82306334e-03, 9.75229219e-03, 8.07509013e-03,
          8.05013627e-03, 5.62091544e-03, 9.25496628e-04, 3.75775067e-04,
          2.20563757e-04, 6.65777945e-04, -4.18795459e-03,
          2.43815850e-03, 4.61165793e-04, -4.19641641e-04,
          -2.06525833e-03, 2.51788250e-03, 5.23880450e-03,
          8.83548707e-03, 3.93360946e-03, 8.03987496e-04, 1.27769681e-02,
          7.80030387e-03, 3.32808960e-03, 1.92114001e-03,
          -5.68257039e-03, -5.46929240e-03, -1.70978240e-03,
          -2.19866424e-03, 9.22143110e-04, 3.44719109e-03,
          4.07540472e-03, 3.69815179e-03, -3.78012122e-03,
          -3.80257936e-03, -4.12490405e-03, -2.90434249e-03,
          -5.17677050e-03, -3.36817396e-03, 2.24898453e-03,
          7.43870100e-04, -5.73655940e-04, -2.99739768e-03,
          2.46304180e-03, 3.14595271e-03, 2.80601787e-03, 5.83430938e-03,
          5.98483533e-03, 1.16081219e-02, 1.12929298e-02, 3.48954415e-03,
          1.77256775e-03, 2.46980274e-03, 1.43164443e-03, 2.44599971e-04,
          4.31328872e-03, -1.42973138e-03, 4.64508822e-03,
          7.22550508e-03, 2.15607998e-03, 2.10603583e-03, 6.33148360e-04,
          5.36177028e-03, 6.83574192e-03, -7.28834746e-03,
          -4.70530428e-03, 1.48777280e-03, -1.53808927e-04,
          2.47269380e-03, 6.88838714e-04, -1.24911394e-03,
          5.06555429e-03, 1.97082805e-03, -1.28868595e-02,
          -1.19538829e-02, -6.11474458e-03, -1.24257046e-03,
          1.55470637e-03, -8.45553179e-04, 8.39387719e-03,
          4.62536793e-03, 4.39942721e-03, -3.46896425e-03,
          3.75539879e-03, 6.44454220e-03, 5.95947495e-03, 4.41125175e-03,
          7.47241545e-03, 7.29210163e-03, 4.18877974e-03, 1.82839436e-03,
          -9.33805853e-03, -7.74372462e-03, -1.56790088e-03,
          3.48854432e-04, 2.11753719e-03, 6.81600580e-03,
          -3.36158811e-03, 3.68964928e-03, -6.69233676e-04,
          -8.78310390e-03, -9.41903424e-03, -5.92597527e-03,
          1.76730129e-04, 2.58556381e-03, -4.18414734e-03,
          -2.75817211e-03, 7.55461119e-03, 6.02760864e-03,
          1.70490390e-03, -8.67719110e-03, -5.22774924e-03,
          3.38063575e-03, 9.35972843e-04, -2.47180834e-03,
          3.14621301e-03, 4.42534266e-03, -1.88013713e-03,
          -5.56054106e-03, -5.31374337e-03, -3.24536418e-03,
          1.67031088e-04, 1.25040498e-03, 3.08678229e-03, 8.34676065e-03,
          7.14701461e-03, 1.54288008e-03, 1.79585440e-05,
          -3.55764898e-03, -9.37632576e-04, 2.74148141e-03,
          4.73252684e-03, 4.31515090e-03, -5.81065519e-03,
          7.24337623e-03, 7.23083410e-03, 4.49202070e-03,
          -1.43177039e-03, -1.02901156e-03, 2.45392392e-03,
          -1.43806683e-03, -7.30559137e-03, -7.77546177e-03,
          3.28934495e-03, 3.66345956e-03, 1.96646596e-03, 7.18572736e-03,
          3.06651136e-03, 3.48142651e-03, -1.25683204e-03,
          -5.19560184e-03, 9.19435639e-03, 5.99627942e-03,
          4.33510728e-03, 3.33296368e-03, -2.73381098e-04,
          -2.27341801e-03, 2.28474080e-03, -8.16205138e-05,
          3.53885582e-03, 9.46785556e-04, -2.70578242e-03,
          -2.00185832e-03, -1.11075584e-04, 3.43231973e-03,
          2.61298916e-03, 1.32298761e-03, -3.00927204e-03,
          1.60337309e-03, -1.09836357e-02, -4.03966941e-03,
          -3.04044131e-03, 4.37850179e-03, 6.49445038e-03,
          1.00987609e-02, 8.42490699e-03, 5.16683888e-03,
          -2.83242180e-03, -1.22813517e-02, -1.16937244e-02,
          -4.39131027e-03, 4.62005474e-03, -2.56840046e-03,
          7.33890710e-03, 9.13430564e-03, 5.63823059e-03,
          -6.48492482e-03, -9.55068786e-03, -3.46163334e-03,
          -2.76797125e-03, 8.36576615e-03, 3.67016834e-03,
          8.31452105e-03, 7.76143977e-03, -1.34523446e-03,
          -2.73936428e-03, -1.22745270e-02, -7.49771437e-03,
          -2.01336201e-03, 3.99775011e-03, 6.02325983e-03,
          8.29710625e-03, 5.63458959e-03, -5.02380484e-04,
          -5.95335802e-03, -8.43593664e-03, -8.91209021e-03,
          -5.85483992e-03, -2.53883214e-03, 1.16546627e-03,
          5.23116114e-03, 1.00582363e-02, 6.61081308e-03,
          -5.42355329e-03, -5.39884157e-03, -3.89078050e-03,
          -1.42476684e-03, 5.85810121e-05, 3.44561436e-03,
          -3.90819088e-03, -1.38360425e-04, -1.23837451e-03,
          -3.50786187e-03, -1.37852533e-02, -7.56473839e-03,
          -5.00766421e-03, 1.29847403e-03, 1.12087438e-02,
          1.02584073e-02, 7.11951870e-03, 2.87577324e-03,
          -1.17332563e-02, -1.27782077e-02, -4.75727115e-03,
          -6.11385237e-03, -1.38804747e-03, 9.57401097e-03,
          3.02751851e-03, -4.19586722e-04, -4.22073947e-03,
          -1.32292816e-02, -1.57446396e-02, -4.35835915e-03,
          3.74012673e-03, 9.20988712e-03, 8.50658584e-03, 6.02189451e-03,
          -7.31030595e-04, -7.20948400e-03, -1.40855983e-02,
          -3.11345654e-03, 4.31611249e-03, 1.04611171e-02,
          8.18128604e-03, 1.32646868e-02, 5.85223874e-03, 1.32292998e-03,
          -2.15627393e-03, -6.88735582e-03, -1.62800793e-02,
          -5.08728065e-03, -2.94821570e-03, 1.50929717e-03,
          6.39207987e-03, 6.57364074e-03, 6.21320913e-03,
          -1.70710287e-03, -1.52593032e-02, -8.67399853e-03,
          -2.92723795e-04, 9.15273651e-03, 8.19187239e-03,
          1.77421141e-02, 9.83607117e-03, 6.23639440e-03,
          -8.26738003e-08, -9.42704733e-03, 3.03506618e-03,
          4.55723517e-03, 8.03293101e-03, 3.47954640e-03,
          -3.08620115e-03, 9.03733424e-04, -1.59434229e-03,
          5.61547116e-04, 1.52192276e-03, 4.31148335e-03, 4.23951820e-03,
          7.02540064e-03, 8.49876646e-03, 4.16524988e-03, 5.75734256e-03,
          -3.55592649e-03, -1.92477379e-03, 2.90048571e-04,
          -6.65797573e-03, 3.07017035e-04, 6.47074450e-03,
          4.60457243e-03, 3.46414419e-03, 4.55139112e-03, 3.00581590e-03,
          -5.77142811e-04, -8.24710540e-03, -3.88638396e-03,
          -2.52580876e-03, 6.54831855e-03, 7.88038224e-03,
          4.53700637e-03, 8.03602487e-03, 1.04992057e-03,
          -5.50672179e-03, -9.74143296e-03, 4.50193044e-03,
          5.88479871e-03, 3.72038060e-03, 4.78241406e-03, 2.28312472e-03,
          7.71951722e-03, -2.44237063e-03, 2.81304005e-03,
          4.20466997e-03, 3.39426147e-03, -2.17102905e-04,
          2.43653383e-04, 2.62683397e-03, 3.51333432e-03, 9.69631691e-03,
          1.01233437e-03, 4.34744032e-03, 7.08747888e-03,
          -1.37000449e-03, -1.88876351e-03, 1.79657957e-03,
          4.14832402e-03, 1.93262938e-03, 6.58984249e-03,
          -4.60829260e-03, -2.93484074e-03, -5.92159107e-03,
          -4.20937547e-03, -6.93116337e-04, 8.01209128e-04,
          3.15899821e-03, 3.91116366e-03, 7.62916217e-03,
          -6.48334064e-03, -4.55446495e-03, 7.20372773e-05,
          3.25289415e-03, -2.69220746e-03, -3.37163103e-03,
          4.48676944e-03, 5.54022845e-03, 1.11433910e-02, 3.38676805e-03,
          5.64064411e-03, 7.42210215e-03, 5.31244790e-04, 3.09423497e-03,
          8.31381418e-04, 4.67327377e-03, 2.68694333e-04, 5.73467277e-03,
          4.28711483e-03, 7.42513034e-03, 4.78207367e-03,
          -5.20131225e-03, 7.39312323e-04, 2.56723980e-03,
          7.32255634e-03, 6.37807278e-03, 9.02279373e-03,
          -3.51153011e-03, 1.55059315e-04, -1.45944185e-04,
          -6.57889480e-03, 8.66205257e-04, 1.26109214e-03,
          8.46910663e-03, 3.41169559e-03, 7.11683417e-03, 5.21523040e-03,
          8.03153496e-03, -4.08873835e-04, -4.45795769e-04,
          1.38448877e-03, -1.78390625e-03, 6.22708164e-03,
          -3.26454150e-03, 8.99602077e-04, 5.54699036e-05,
          9.09466064e-04, -5.52741985e-04, 1.82416057e-04,
          4.51554032e-03, 6.46185083e-03, 1.08299367e-02, 4.06813296e-03,
          8.10384657e-03, 5.17061353e-03, 3.40133347e-03, 7.50386680e-04,
          -9.42965783e-03, -3.93240107e-03, 2.32996978e-03,
          1.16163632e-02, 2.75248010e-03, 1.02221388e-02, 8.04904476e-03,
          8.60615820e-03, -3.20427306e-03, -6.78218948e-03,
          -4.49101208e-04, 7.52502726e-03, 1.43347979e-02,
          7.68475235e-03, 1.47042563e-02, 8.46279878e-03, 6.11009821e-03,
          -3.15600052e-03, 1.59184344e-03, 4.07310715e-03,
          2.52215797e-03, 9.23003536e-03, 7.63014425e-03, 7.41381105e-03,
          3.37203406e-03, 2.94688594e-04, -2.14220420e-03,
          3.74980224e-03, -5.74565202e-04, -1.83855952e-03,
          5.60165755e-03, 2.34066206e-03, 4.64433944e-03, 7.43806036e-03,
          5.35334134e-03, 4.96655144e-03, -7.18443794e-03,
          -4.23831749e-04, 3.59233283e-03, 8.23319145e-03,
          5.83522860e-03, 8.13666731e-03, 2.75867432e-03,
          -6.62873848e-04, -8.90610740e-03, -1.52253907e-03,
          -2.50280928e-03, -4.16738912e-03, 4.17843170e-04,
          -4.31288936e-04, 7.17523508e-03, 1.55420275e-03,
          7.25080725e-04, -2.24960363e-03, 7.93603307e-04,
          -2.06263433e-03, 2.73018639e-04, 3.03124922e-04,
          -5.67663752e-04, 4.57893498e-03, 6.96721952e-03,
          5.26818680e-03, 3.70309781e-03, -6.66498090e-04,
          -2.23539723e-03, -1.45752775e-03, -2.87556788e-03,
          -9.71008930e-03, -5.27367461e-04, -2.09223363e-03,
          2.59733782e-03, 1.82205637e-03, 2.89461738e-03,
          -4.21199296e-03, 1.01561900e-05, 2.07759230e-03,
          -1.86043850e-04, 5.00929216e-03, -2.07236095e-04,
          3.10972729e-03, 5.40851674e-04, 7.88758788e-03,
          -1.94089964e-03, 3.91469104e-03, 3.89099657e-03,
          -8.65846407e-03, -1.41759741e-03, -1.71001861e-03,
          4.74083005e-03, 5.59282163e-03, 1.56250759e-03,
          -3.90977832e-04, -2.40886817e-03, 2.16126733e-04,
          -5.40193124e-03, 3.10392963e-04, -1.95303606e-03,
          1.26429950e-03, 3.94361001e-03, 6.05008146e-03, 5.87719772e-03,
          1.75746728e-03, 4.89033177e-04, -4.82300390e-03,
          -4.14167717e-03, -1.05334981e-03, 1.04496069e-03,
          1.20864087e-03, 1.03310049e-02, 3.87848564e-03, 4.53362474e-03,
          7.73158390e-03, -7.65702734e-03, 4.31637367e-04,
          -1.66775554e-03, 6.34153932e-03, 9.91961733e-03,
          1.06911771e-02, 5.00098336e-03, 5.27779665e-03, 3.98424454e-03,
          -9.46931262e-03, -6.07888494e-03, -3.95344803e-03,
          7.10521708e-04, 5.55068068e-03, 1.06751667e-02, 4.93331486e-03,
          3.42398277e-03, 1.80619722e-03, -1.22246053e-03,
          -3.27777443e-03, -1.78921374e-03, 1.71334518e-03,
          2.48773722e-03, 6.55598007e-03, 3.52620613e-03, 4.69445763e-03,
          1.91992824e-03, -2.06458312e-03, -2.37300619e-03,
          -1.78956089e-03, 7.38192612e-05, 3.90412053e-03,
          1.17630875e-02, 3.14990873e-03, 3.05995904e-03, 4.12857579e-03,
          -5.40098175e-03, -6.37452910e-03, -3.64530808e-03,
          8.56957806e-04, 9.79307108e-03, 7.88957905e-03, 2.64144689e-03,
          2.60639377e-03, 3.28953657e-03, -6.31402992e-03,
          -7.71271344e-03, -1.01392251e-03, 8.77933460e-04,
          5.39016817e-03, -6.32852025e-04, 2.94784969e-03,
          1.66952936e-03, 6.67833071e-03, -4.83135409e-05,
          4.10702685e-03, 5.85522910e-04, -3.23038083e-03,
          3.17579531e-03, -7.90325645e-03, -1.53178140e-03,
          -1.36161619e-03, 7.62984762e-03, 9.04553849e-03,
          3.74852563e-03, -2.65953923e-03, -6.48748362e-03,
          -6.00208296e-03, 3.68549582e-03, 4.21168050e-03,
          5.24792587e-03, 8.99228547e-03, 8.60954809e-04,
          -6.23543048e-04, 2.34878552e-03, -4.83858967e-05,
          2.13747984e-03, -4.84945811e-03, -4.15433384e-03,
          3.37516167e-03, 8.98129214e-03, 9.02375393e-03, 4.45717061e-03,
          -5.52982045e-03, -9.41417925e-03, -7.30594900e-03,
          -8.19571037e-03, -4.21709148e-03, -6.28144655e-04,
          6.38814364e-03, 2.39789393e-02, 7.95532390e-03,
          -3.60200764e-04, -3.47398012e-03, -1.01564461e-02,
          -1.29606398e-02, -2.87538581e-03, -1.14395015e-03,
          4.26196307e-03, 1.35237193e-02, 3.46353976e-03,
          -5.24766883e-03, -6.14966964e-03, -1.35124922e-02,
          -9.82344244e-03, -7.38919759e-03, -7.05335231e-04,
          8.78714956e-03, 2.21747551e-02, 5.11921383e-03,
          -6.91046519e-03, -1.37690818e-02, -1.14110000e-02,
          -1.21601075e-02, -6.41051447e-03, 8.52769517e-05,
          1.09284623e-02, 1.11167943e-02, -1.64909568e-03,
          -1.38291130e-02, -1.50717041e-02, -1.40716955e-02,
          -1.60875656e-02, -8.25646892e-03, -5.46392752e-03,
          -3.76699143e-03, 2.46680621e-03, 7.75604462e-03,
          1.01973731e-02, -1.41610717e-03, -1.52654136e-02,
          -1.10551510e-02, -1.59019534e-03, 6.10377267e-03,
          7.59851141e-03, 1.58885680e-02, 1.15813464e-02, 1.33334892e-02,
          4.31661960e-03, -7.02305278e-03, -2.16306485e-02,
          -1.51949758e-02, -9.53413825e-03, -5.87832788e-03,
          2.82547972e-03, 7.37420190e-03, 1.02783823e-02,
          -2.73365178e-03, -1.47290668e-02, -8.94521456e-03,
          -4.98685800e-03, 3.42898769e-04, 3.59419920e-03,
          6.57396810e-03, 5.03319409e-03, 1.40039744e-02, 8.64036474e-03,
          -1.66848954e-03, -8.95592012e-03, 1.70743588e-04,
          7.14354822e-03, 5.31403627e-03, 2.62719067e-03, 6.92810677e-03,
          8.93162191e-03, 1.67868857e-03, -8.11098889e-03,
          -4.27631615e-03, -4.46992973e-03, 3.47886421e-03,
          5.28778089e-03, 1.71318138e-03, 6.58318214e-03, 3.03576072e-03,
          -5.38422819e-03, -9.42396838e-03, -2.91259214e-03,
          8.54513200e-05, 3.72363534e-03, 1.07915106e-03,
          -1.11663004e-03, 3.77249205e-03, 5.81879448e-03,
          7.66837178e-03, -4.94743173e-04, -8.69984098e-04,
          -3.82256476e-05, 8.36084713e-04, -2.58308649e-03,
          -5.44994511e-03, 1.63723854e-03, 5.79374889e-03,
          1.95400510e-03, -4.31327661e-03, -3.23540042e-03,
          -1.28612365e-03, 2.78035761e-03, 5.52434335e-03,
          2.29716860e-03, 5.38570201e-03, -7.98196299e-04,
          -2.86031235e-03, -6.76091108e-03, -2.24814122e-03,
          5.31739229e-03, 5.12428442e-03, 5.35585778e-03, 5.29714581e-03,
          7.33111706e-03, -2.60628923e-03, -4.01958218e-03,
          -2.52154539e-03, 2.40385905e-03, 4.96881641e-03,
          4.26702807e-03, 2.57423380e-03, -5.39817195e-03,
          -7.38442293e-04, 1.89486018e-04, -6.57997327e-04,
          -3.00586130e-03, 6.29663514e-03, 1.26097761e-02,
          1.01899682e-02, 4.83811600e-03, -1.40847429e-03,
          2.32302304e-03, -5.44254808e-03, -2.87668663e-03,
          -7.35143665e-04, -4.98013198e-03, 4.98582795e-03,
          6.70600776e-03, 7.51900347e-03, 6.35614200e-03, 7.13681756e-03,
          -3.86642339e-03, -5.96609339e-03, -8.13602470e-03,
          -5.07735834e-03, -1.05089362e-04, 7.83016160e-03,
          4.96383151e-03, 6.33008254e-04, 5.84258884e-03, 2.74827750e-03,
          9.27033368e-04, -9.07407422e-03, 4.53212392e-03,
          1.38190864e-02, 1.34498961e-02, 8.81792326e-03, 1.20765297e-03,
          3.68629629e-03, -2.55491724e-03, -2.02746782e-03,
          -3.09971301e-03, 2.44292524e-03, 7.07418704e-03,
          1.26432870e-02, 7.28830928e-03, 6.73770148e-04, 2.72942055e-03,
          -1.32930919e-03, 3.00851464e-03, -6.92564854e-03,
          -5.96667593e-03, -2.33706366e-03, 5.92396315e-03,
          9.96795762e-03, 1.52611977e-03, 8.84167105e-03, 8.56529269e-03,
          5.87838376e-03, -4.41274466e-03, -5.19718416e-03,
          -2.01644166e-03, 7.63021410e-03, 1.25603937e-02,
          4.25542472e-03, 1.47320507e-02, 1.24693802e-02, 7.14951660e-03,
          -1.65468419e-03, 9.06080997e-04, 4.69814893e-03,
          7.05742789e-03, 4.10935748e-03, -4.52750409e-03,
          -2.10787519e-03, 2.91931792e-04, 4.89463378e-03,
          -3.32398969e-03, -1.35751281e-04, 4.58282977e-03,
          2.87480024e-03, 3.89894791e-04, -7.95456022e-03,
          2.32185470e-03, 2.22398457e-03, 6.11376809e-03, 2.21721479e-03,
          -5.96316904e-03, -2.27809604e-03, 3.66143463e-03,
          8.07061885e-03, 5.95974457e-03, 1.08312368e-02, 7.35419337e-03,
          1.88618933e-03, -3.37182311e-03, -6.40578510e-04,
          -3.92771442e-04, 2.54265266e-03, 3.04268254e-03,
          -3.12642870e-03, 1.05907945e-02, 2.87749176e-03,
          -6.96426316e-04, -3.53538641e-03, -5.13302581e-03,
          8.78848368e-04, 2.40136450e-03, -1.83288101e-03,
          -1.81474851e-03, 3.96723580e-03, 6.32999511e-03,
          4.49755741e-03, 4.34528757e-03, -1.03541103e-03,
          4.13760822e-03, 6.28593564e-03, 5.67014888e-03,
          -2.18446017e-03, 1.40700804e-03, 1.15590217e-03,
          1.39541470e-03, 2.39969976e-03, 1.98107678e-03, 1.12154800e-03,
          6.27790764e-03, 3.94716067e-03, -3.04917060e-03,
          2.99589080e-03, -1.66137982e-03, -3.59846535e-03,
          -3.34743666e-03, 4.66660270e-03, 3.75353615e-03,
          8.48351233e-03, 5.06113423e-03, -7.52038369e-03,
          -9.21428145e-04, 1.29756355e-03, 3.88836884e-03,
          2.77547468e-03, 2.73386319e-03, 6.57105772e-03, 7.16888579e-03,
          3.93791357e-03, -5.75646665e-03, -3.31949466e-03,
          -1.09016628e-03, -1.91563473e-03, -1.25723472e-03,
          -1.84533105e-03, 4.15211963e-03, 7.04993494e-03,
          -5.82071743e-06, -1.05239274e-02, 9.29979137e-07,
          4.42823395e-03, 1.68104225e-03, 1.16016215e-03, 5.60254278e-03,
          3.92226968e-03, 6.14750804e-03, 7.45135918e-03,
          -7.43772183e-03, -1.20020390e-03, 3.64259747e-03,
          5.62150963e-03, 6.99095568e-03, 5.72076160e-03,
          -2.60283385e-04, 4.04729974e-03, 2.78003491e-03,
          -8.56645871e-03, -1.95535109e-03, -2.48649786e-03,
          -1.66504190e-03, 4.63102618e-03, -1.38540205e-03,
          3.86757567e-03, 7.25895073e-03, 3.74746858e-03,
          -6.65859831e-03, 2.10079318e-03, 5.16144186e-03,
          2.24483130e-03, -7.57170434e-04, -1.75136793e-03,
          -2.03252025e-03, 1.02686463e-03, -5.86559239e-04,
          -1.36242220e-02, -3.20516527e-03, -2.15065992e-03,
          -1.80462201e-03, -2.22719484e-03, 9.81569756e-03,
          1.39810797e-03, -1.06978160e-03, 7.82065690e-05,
          -4.81593097e-03, 8.01802671e-04, -3.10030277e-03,
          -4.30590211e-04, 1.05656190e-02, 6.75696367e-03,
          3.83453001e-03, -5.81173226e-04, 1.31741446e-03,
          -1.39022165e-03, -2.82534631e-04, 8.87441915e-04,
          -3.15588503e-03, 5.61668864e-03, 8.83221161e-04,
          -2.67323543e-04, -1.31361966e-03, -1.32930453e-03,
          -6.92051370e-03, 2.54085055e-03, -3.32291075e-03,
          4.75114270e-04, 2.56419950e-03, 3.55041795e-03, 3.00892559e-03,
          -3.17268394e-04, -5.37934899e-03, -4.11606999e-03,
          4.28504776e-03, -3.27868341e-03, -2.57343939e-03,
          3.68280057e-03, 2.25475174e-03, 1.82059698e-03, 2.96014920e-03,
          7.29847653e-03, 3.08263977e-03, 2.11654697e-03,
          -2.52314657e-03, -5.30859036e-03, 2.07791966e-03,
          -8.67434870e-03, -7.57204928e-03, 2.69134110e-03,
          1.00651355e-02, 5.78232855e-03, 2.56319507e-03,
          -3.28909792e-03, -6.73381053e-03, -6.49220450e-03,
          2.15275958e-03, 1.19048485e-03, 1.41243730e-03, 3.64598213e-03,
          -1.13568490e-03, 1.34566484e-03, -1.47162518e-03,
          -3.57904169e-03, 5.63233253e-03, -5.65630442e-04,
          -1.34314410e-03, -1.72689382e-03, 7.16309203e-03,
          -1.00698892e-03, -3.55862151e-03, -5.83826099e-03,
          -4.65122052e-03, -3.26903712e-04, -1.20272227e-02,
          -7.36145210e-03, 4.91847750e-04, 1.16075724e-02,
          2.07527224e-02, 1.46160927e-03, -7.41585856e-03,
          -1.21093774e-02, -1.13596134e-02, -1.35469269e-02,
          -5.61193749e-03, -2.22783466e-03, 1.46048404e-02,
          1.16373096e-02, -3.11258878e-03, -1.50659448e-02,
          -1.28662689e-02, -1.47762951e-02, -2.34238245e-03,
          1.20472287e-04, -1.57486400e-04, 1.12468759e-02,
          1.85264107e-02, -2.32563098e-03, -6.83667045e-03,
          -5.14668925e-03, -4.73556807e-03, -9.20420699e-03,
          -8.61760695e-03, -5.66333253e-03, 8.21670890e-03,
          8.34375527e-03, -6.63116435e-03, -1.42205842e-02,
          -1.25631215e-02, -8.22209753e-03, -1.93404090e-02,
          -1.54417856e-02, -9.34019033e-03, -5.54774003e-03,
          2.82169133e-03, 9.46004037e-03, 1.08943442e-02,
          -1.14246667e-03, -1.47241643e-02, -3.06270039e-03,
          -6.22627977e-03, -5.44282084e-04, 7.83475465e-04,
          1.06157186e-02, 7.04286806e-03, 1.83029808e-02, 1.71023570e-02,
          1.90166908e-03, -1.95137113e-02, -1.63677726e-02,
          -1.01808272e-02, -4.71851183e-03, -3.76471062e-03,
          2.61365063e-03, -4.26567206e-03, -1.08073987e-02,
          -2.14795768e-02, -5.82031300e-03, -6.99177524e-03,
          -1.61046139e-03, -3.85826919e-03, 1.94212061e-03,
          4.44557704e-03, 7.45253032e-03, 5.68747520e-03,
          -4.83665476e-03, -1.71804044e-03, 6.48650632e-04,
          4.06288222e-04, -9.32392941e-05, -3.72283161e-04,
          -1.78545277e-04, 1.74379803e-03, 7.67971296e-03,
          4.20455850e-04, -8.73312005e-04, 6.17001252e-03,
          3.09946504e-03, 1.07847236e-03, -2.80586910e-03,
          1.18770543e-03, 6.26517460e-03, 4.49488126e-03,
          -1.98545912e-03, -1.20504573e-03, -1.75350939e-03,
          -1.86113430e-05, -2.45779543e-03, -5.68338623e-03,
          -1.29278970e-03, 8.69645213e-04, 1.80742389e-03,
          -1.40256516e-03, -1.02480735e-05, 3.77568277e-03,
          2.44849036e-03, 2.92420457e-03, -4.83170478e-03,
          7.61408883e-04, 2.45304452e-03, -2.87613249e-04,
          2.20441623e-04, 8.22048984e-04, 9.67713818e-03, 7.55790947e-03,
          -9.46652835e-06, -1.08531322e-02, -4.94854711e-03,
          -8.00806214e-04, -2.85115652e-03, -2.75421422e-03,
          1.15253800e-03, 1.53354146e-02, 1.26886992e-02, 1.35538494e-03,
          -1.09840007e-02, -4.33145091e-03, -4.45054611e-03,
          -7.45811639e-03, -3.71079100e-03, -7.02325604e-04,
          9.32359323e-03, 6.80473447e-03, 1.57050439e-03,
          -9.13811568e-03, -1.27411552e-03, 1.51689688e-03,
          4.60465788e-04, -1.20986754e-03, -3.19814612e-03,
          1.12348469e-02, 1.16064185e-02, 2.27220752e-03,
          -1.26579376e-02, -9.37110861e-04, 2.03901436e-03,
          -2.29064259e-03, -4.47767181e-03, 3.96895129e-03,
          1.46640390e-02, 1.53966649e-02, 7.99896754e-03,
          -3.25489556e-03, 1.29942155e-05, -4.14969074e-03,
          -3.86395003e-03, -4.40665375e-04, 1.22600445e-03,
          9.98744275e-03, 1.17429243e-02, 7.61073921e-03,
          -1.53348676e-03, -1.90797902e-03, -5.52214775e-03,
          -2.63776630e-03, -7.39405025e-03, -3.30783869e-03,
          8.08305014e-03, 9.93770361e-03, 5.51464269e-03,
          -5.36337448e-03, -8.01939692e-04, -3.48477974e-03,
          -4.62691020e-03, -5.22512197e-03, -2.78664147e-03,
          2.53463793e-03, 6.07880577e-03, 7.44744623e-03,
          -5.88517869e-03, -2.75546522e-03, -1.01084262e-02,
          -1.01108365e-02, -9.48927365e-03, 4.94408933e-03,
          1.05046052e-02, 7.67810782e-03, 6.03873143e-03, 2.86872964e-03,
          3.49686685e-04, -4.44036908e-03, -2.64355796e-03,
          -2.59268214e-03, -1.73663837e-04, 7.38246832e-03,
          7.07560452e-03, 5.57576818e-03, -6.75504003e-03,
          4.00524586e-04, -4.00456542e-04, -4.00078343e-03,
          -1.61436503e-03, 2.04229797e-03, 7.12754019e-03,
          8.04725196e-03, 9.13958158e-03, -3.61458701e-03,
          7.28909159e-04, -5.03365742e-03, -7.73590105e-03,
          -4.67897998e-03, 1.09332369e-03, 6.72703562e-03,
          8.53713695e-03, 8.13630410e-03, -3.42603400e-03,
          8.42948561e-04, -1.45531201e-03, -7.71528203e-03,
          -7.93293584e-03, -4.01688041e-04, 4.48938040e-03,
          5.79040498e-03, 5.25070494e-03, 1.28940213e-03, 6.53129257e-03,
          4.98589687e-03, -2.85880012e-03, 4.46024147e-04,
          9.58249148e-04, 5.40325372e-03, 6.77449955e-03, 4.94316174e-03,
          2.63929158e-03, 7.64264027e-03, 1.01805897e-02, 7.12724170e-03,
          3.34918196e-03, -6.80498080e-03, -8.19961308e-04,
          2.41334131e-03, 4.70892852e-03, 3.23315454e-03, 7.85608497e-03,
          2.62944773e-03, -6.76690927e-03, -1.25590432e-02,
          -7.79450359e-03, -5.87591378e-04, 3.43475607e-03,
          6.01503940e-04, 1.12067664e-03, 1.22745382e-02, 8.51874985e-03,
          -1.46108726e-03, -1.10526634e-02, 3.00971139e-03,
          4.02511703e-03, 6.17300160e-03, -8.65122827e-04,
          -2.99549405e-03, 4.00582468e-03, 1.03551205e-02,
          3.96157848e-03, 3.09346104e-03, 4.21022158e-03, 3.21786478e-03,
          6.70348061e-03, 2.55623413e-03, -5.55574801e-03,
          3.55354906e-03, 8.10609106e-03, 1.41576980e-03, 2.06697336e-03,
          -9.11868457e-03, -2.85026594e-03, -1.04282226e-03,
          -4.05197078e-03, -3.40093509e-03, 8.58417712e-03,
          1.16242571e-02, -1.76696485e-04, -1.10239508e-02,
          -7.89159164e-03, -1.24641217e-03, 4.79740603e-03,
          5.88231953e-04, -1.53562950e-03, 1.00356238e-02,
          6.06069760e-03, -7.09232362e-03, -9.45673883e-03,
          1.02688198e-03, 4.19349642e-03, 6.60660770e-03, 4.45000455e-03,
          -3.68774147e-03, 1.99159677e-03, 5.16666099e-03,
          2.62926775e-03, 2.49468372e-03, -6.19999086e-03,
          -1.80812133e-03, 1.53711345e-03, 1.55676354e-03,
          -7.34718004e-03, 6.91475987e-04, 5.52813290e-04,
          -7.57038651e-04, -9.55845113e-04, -5.28879976e-03,
          2.39786133e-03, 5.75060956e-03, -4.17094561e-04,
          -3.79292876e-03, 4.60945535e-03, 9.53357492e-04,
          -7.06037134e-03, -9.75457765e-03, -5.78061165e-03,
          -2.91099958e-03, -1.48024620e-03, 4.81684878e-03,
          -7.63780484e-03, 2.06084456e-03, 2.86681508e-03,
          -3.56696732e-03, -8.24246090e-03, -3.59731051e-03,
          -1.29805249e-03, 2.27093766e-03, 4.14160267e-03,
          -2.33560288e-03, 2.12756824e-03, -2.58326088e-03,
          -6.51204027e-05, 1.87995785e-03, -4.38478601e-04,
          1.55115523e-03, 8.11562117e-04, -3.90730100e-03,
          7.54550565e-04, -2.33419960e-05, -3.77147505e-03,
          -1.16057182e-03, 3.38193099e-03, -8.19304865e-03,
          -3.29738972e-03, 1.34070613e-03, 8.44594371e-03,
          -8.81605083e-04, -6.06306130e-04, -3.13823973e-03,
          -2.54240353e-03, -3.48954997e-03, -8.18531681e-03,
          -4.28692950e-03, -2.53676693e-03, -1.97788980e-03,
          -4.55423258e-03, -9.88021307e-03, -4.38672071e-03,
          -4.80094925e-03, -3.44009092e-03, 2.98402947e-03,
          -8.52137047e-04, 3.82099417e-03, 3.44123319e-03,
          1.98794383e-04, 2.59100180e-03, 2.50447122e-03, 8.68486881e-04,
          8.27005785e-03, 5.08313347e-03, -1.56145531e-03,
          1.56072376e-03, 4.87591093e-03, 5.10581722e-03, 2.71951128e-03,
          -9.95579059e-04, 3.65161453e-03, 5.40363276e-03,
          -2.88673583e-03, -5.61178708e-03, -2.79452815e-03,
          -3.02525866e-03, -7.96614774e-03, -5.73399151e-03,
          -5.70977852e-03, -6.83605252e-03, -1.17053394e-03,
          -5.39263943e-03, -1.14444988e-02, -6.90784352e-03,
          -6.47641951e-03, -1.34396227e-02, -3.99600063e-03,
          -6.02376182e-03, -9.54525452e-03, -5.10166585e-03,
          4.07198677e-03, 2.79391464e-03, 5.41304657e-03, 7.37989135e-03,
          1.60221588e-02, -2.73235049e-03, -6.88196719e-03,
          -5.55709982e-03, -2.56084534e-03, -5.19787520e-03,
          -3.60328821e-03, -5.29519375e-03, 7.46924663e-03,
          5.63070085e-03, -3.01565183e-03, -9.48162191e-03,
          -8.94789211e-03, -7.13104615e-03, 2.70764553e-03,
          -3.17902304e-03, -2.35874462e-03, -4.22024820e-03,
          -5.17867832e-03, -6.11205911e-03, -8.11599754e-03,
          -7.44591421e-03, -3.04352003e-03, 2.33864965e-04,
          -4.59997077e-03, -5.62060298e-03, 2.85844970e-03,
          -3.57988430e-03, -3.98358284e-03, -8.77671316e-03,
          -4.36433358e-03, -2.75770854e-03, -1.25409383e-02,
          -1.40016600e-02, -8.58235825e-03, -6.26040343e-03,
          3.83643317e-03, 4.78944788e-03, -2.18378054e-03,
          -9.95060429e-03, -1.22827031e-02, 1.42311153e-03,
          -4.07176092e-03, 2.74024555e-03, -4.24623868e-04,
          4.83908970e-03, 1.40840663e-02, 1.50266690e-02, 1.30864978e-02,
          1.12625975e-02, -2.05733422e-02, -1.70597676e-02,
          -1.50285326e-02, -1.22008966e-02, -2.44790781e-03,
          -1.93678413e-03, -6.74676895e-03, -1.73202939e-02,
          -2.00035777e-02, -1.28407730e-02, -1.39237316e-02,
          -1.17878374e-02, -1.20054306e-02, -1.20663121e-02,
          3.24507942e-03, 1.09103620e-02, -7.90213991e-04,
          -1.13084819e-02, -1.12227266e-04, -1.86397927e-03,
          -1.00892887e-03, -3.73156695e-03, -8.49064533e-03,
          -1.95564912e-03, 8.02760758e-03, 6.06189389e-03,
          1.73945911e-03, 7.34670646e-03, 4.50576982e-03, 2.60547432e-03,
          1.59313111e-03, 3.77446506e-03, 2.65376875e-03, 1.58135034e-02,
          1.14722895e-02, 1.16696702e-02, -1.23798298e-02,
          -7.55519839e-03, -9.10661649e-03, -1.30395992e-02,
          -1.90457236e-02, -3.50490049e-03, 4.63338243e-03,
          -5.39385073e-04, -1.46030253e-02, -9.87278204e-03,
          -2.78961938e-03, -5.79995383e-03, -5.03953639e-03,
          -8.57568253e-03, 1.17279182e-03, 4.59956750e-03,
          2.69006845e-03, -7.75296753e-03, -1.30984851e-03,
          1.40346398e-04, 1.61828857e-03, -1.06355641e-03,
          -4.21520369e-03, 9.23922285e-04, 6.48011547e-03,
          4.39497933e-04, 2.86671886e-04, -2.93090218e-03,
          4.12209891e-03, 7.83375930e-03, 6.41244638e-04,
          -4.18323837e-03, 2.10189261e-03, 5.00358688e-03,
          4.35362849e-03, 1.76728854e-03, -1.18894354e-02,
          -2.38101464e-03, -5.48549416e-03, -2.59164954e-04,
          -7.66373612e-03, 2.48378189e-03, 7.43911043e-03,
          2.12139823e-03, -7.77222216e-03, -1.22962976e-02,
          -4.12408262e-03, -1.37051800e-03, -1.18944480e-03,
          -7.53801595e-03, 2.17140652e-03, 8.02050158e-03,
          5.13653853e-04, -6.52017863e-03, -6.59655547e-04,
          7.01910909e-03, 8.93567875e-03, 3.37743154e-03,
          -1.65769202e-03, -9.79826087e-04, -4.22784034e-03,
          4.11392539e-04, 3.50132701e-03, -4.22598980e-03,
          2.01265118e-03, 8.04634579e-03, 8.83793086e-03, 5.73649246e-04,
          -3.52778472e-03, -7.94275012e-03, -7.93463737e-03,
          -5.64364763e-03, -6.94920914e-03, -1.26787098e-04,
          4.61688358e-03, 2.34441552e-03, -4.36018454e-03,
          1.85279525e-03, 5.10546798e-03, 4.03245259e-03,
          -2.57844781e-03, -7.85209704e-03, -2.65512848e-03,
          7.09773181e-03, 7.89142866e-03, -1.52902934e-03,
          -2.94922967e-03, -1.05600001e-03, -5.33554144e-03,
          -5.44782495e-03, 2.19189655e-03, 2.17407686e-03,
          8.33698642e-03, 7.48168631e-03, -2.44081742e-03,
          -3.23946495e-03, -1.46775623e-04, -6.90736109e-03,
          -2.19988381e-03, -7.84451666e-04, 2.83384393e-03,
          4.83384915e-03, 4.37154621e-03, -3.40477587e-03,
          -3.86336888e-03, -4.64323821e-04, -3.53244413e-03,
          -4.47111297e-03, -4.38884599e-03, -2.07082555e-03,
          4.06746846e-03, 6.30410109e-03, -2.83964910e-03,
          -3.43105500e-03, 1.21107127e-03, -5.25075989e-03,
          -3.11675738e-03, -3.84094869e-03, -4.10791766e-03,
          2.80294311e-03, 3.78285535e-03, -3.45200161e-03,
          -5.57602523e-03, -3.21344589e-03, -4.79534548e-03,
          -2.42999406e-03, -2.89833313e-03, -3.28125525e-03,
          6.49623689e-04, 2.60745175e-03, 3.90524464e-03, 4.33839113e-03,
          2.88503570e-03, -2.67032930e-03, -2.76334700e-03,
          -1.75389485e-03, -2.49546557e-03, 1.84493861e-03,
          -1.51323993e-03, 9.94153088e-04, 8.80348682e-03,
          4.18203278e-03, -2.57306919e-03, -5.08421287e-03,
          -3.29886982e-03, -1.10602274e-03, 1.47640309e-03,
          4.24498226e-03, -2.32527032e-03, 1.99423725e-04,
          -4.14888142e-03, -1.63190067e-03, -4.20550117e-03,
          -1.29356736e-03, -3.04366881e-03, -2.44929135e-04,
          -3.43129109e-03, -5.22804493e-03, 2.27638218e-03,
          -1.81699242e-03, -2.05888390e-03, -5.11575723e-03,
          1.76851056e-04, 1.94252760e-03, 1.62748236e-03,
          -4.89473483e-03, -3.76686826e-03, 8.48064851e-03,
          5.51945763e-03, -3.61811626e-03, -5.81842661e-03,
          -2.81380699e-03, 7.49967934e-04, 3.85741354e-03,
          -2.97430693e-03, -2.91311671e-03, 9.35314689e-03,
          5.77077642e-03, -2.30997778e-03, -6.70083519e-03,
          -1.31780002e-03, -1.94742635e-03, -1.58128375e-03,
          -6.59658015e-03, -7.70285679e-03, 4.27699974e-03,
          1.01262529e-03, -2.72999960e-03, -7.25723384e-03,
          -6.02281513e-03, 1.64269877e-03, 1.88167242e-03,
          -1.09542743e-03, -8.60519800e-03, 4.39967815e-04,
          3.43616214e-03, -1.96494209e-03, -8.34420510e-03,
          1.99740985e-04, 6.54291455e-03, 5.32158045e-03, 7.69365404e-04,
          1.89177284e-04, 4.91012400e-03, 1.62721277e-04,
          -5.60078770e-03, -5.93926338e-03, 1.59938191e-03,
          2.13433942e-03, 6.26710709e-03, 6.74514426e-03, 1.07797634e-04,
          -2.76343460e-04, 7.87022873e-04, -3.67914164e-03,
          -5.02866693e-03, -6.13562297e-03, 6.72868686e-03,
          6.19068136e-03, 1.20726787e-03, -5.35493577e-03,
          -4.70499881e-03, -4.59517213e-03, -9.06921644e-03,
          -8.63667764e-03, -6.97803497e-03, 2.31524161e-03,
          4.56489902e-03, -1.27458782e-03, -1.05894711e-02,
          -4.16619331e-03, -4.78227437e-03, -1.00656878e-02,
          -7.48667587e-03, 3.17301042e-03, -1.22487283e-04,
          7.50128366e-03, 1.27515327e-02, 6.68191677e-03,
          -1.45796721e-03, -3.66442138e-04, -1.34429871e-03,
          3.28166876e-03, -1.71579316e-03, -2.19073822e-03,
          -6.01172727e-03, -4.13291296e-03, -1.94911240e-03,
          -1.40608568e-02, -7.45745422e-03, -6.81472570e-03,
          -4.01658850e-04, -2.02490157e-03, 2.93573155e-03,
          3.25720478e-03, 1.26552442e-03, -8.39165039e-03,
          -4.51067463e-03, -6.14293898e-03, -9.78470221e-03,
          -4.58009541e-03, -4.37820703e-03, -1.26780651e-03,
          -3.71300406e-03, -1.21203521e-02, -1.37343956e-02,
          -8.84915795e-03, -6.36161538e-03, -9.05103236e-03,
          -6.85699936e-03, -2.24258256e-05, -3.24424414e-04,
          4.22643148e-04, -5.61466499e-04, 7.11352378e-03,
          -3.74778849e-03, -4.25348012e-03, -7.05277640e-03,
          -3.43231281e-04, 2.10997951e-03, -4.06524399e-03,
          -1.97042897e-03, -4.15955856e-03, 6.20540185e-03,
          1.15820067e-03, 1.48919178e-03, -3.65837035e-03,
          6.08305074e-03, -8.67804885e-03, -2.66929739e-03,
          1.15114741e-03, -3.48457810e-03, 2.80774408e-03,
          -3.32686445e-03, 4.77469200e-03, 7.59277260e-04,
          -8.32861103e-03, -1.15838656e-02, -7.40956422e-03,
          -3.23858275e-03, -9.10909940e-03, 3.22048785e-03,
          -3.86932679e-03, -2.51026987e-03, -7.11999414e-03,
          -1.06521901e-02, 4.20338474e-03, 2.29406962e-03,
          -2.77182087e-03, -5.03654173e-03, -1.61011494e-03,
          -3.17321072e-04, 2.24653236e-03, 2.77549936e-03,
          6.20778603e-03, 9.12257191e-03, 2.05093832e-03,
          -3.25214630e-03, 2.67184223e-03, -1.24409678e-04,
          3.27832601e-03, 3.85801261e-03, 6.92614727e-03, 8.81469809e-03,
          -1.01890247e-02, -5.65206306e-03, -5.85269835e-03,
          -9.26085655e-03, 2.78863474e-03, -1.84102613e-03,
          -3.26319039e-03, -6.04400923e-03, -6.73491973e-03,
          -8.61118175e-03, -8.43380950e-03, -5.92437247e-03,
          -3.74962483e-03, -8.74482188e-03, -4.00017109e-03,
          -1.35898334e-03, -3.22969537e-03, -7.26981694e-03,
          -1.29038338e-02, -1.23397326e-02, -1.17657855e-02,
          -7.89578538e-03, 6.64339680e-03, 1.14898896e-03,
          -5.76556474e-03, -1.24152740e-02, -1.09210666e-02,
          1.03876262e-03, -5.90008078e-03, -8.73446371e-03,
          -1.09593663e-02, 1.83682586e-03, 1.36135211e-02,
          1.40774082e-02, 3.89545993e-03, 4.10569506e-03,
          -1.28305014e-02, -1.23055391e-02, -1.25804190e-02,
          -7.61175482e-03, -3.28433307e-05, -5.26611647e-03,
          -7.52867991e-03, -1.36204883e-02, -1.31133804e-02,
          -4.02593846e-03, -1.04138777e-02, -1.30759086e-02,
          -1.52583029e-02, -8.25409126e-03, -4.36374871e-03,
          4.79695038e-04, -9.48938914e-03, -5.35804173e-03,
          -8.77673831e-03, -6.83710817e-03, -1.10956719e-02,
          -1.39730424e-02, -1.25750192e-02, -3.07718688e-03,
          1.18057895e-02, 2.69260909e-03, -1.09608294e-02,
          -8.28284828e-05, -2.07550754e-03, -6.09934423e-03,
          -4.21089586e-03, 1.77297019e-03, 7.86088221e-03,
          1.43275419e-02, 7.62581732e-03, 2.96853366e-03,
          -1.24028344e-02, -8.93788505e-03, -1.30097149e-02,
          -1.31480275e-02, -1.66822542e-02, -9.94549226e-03,
          -2.09616870e-03, -6.26496226e-03, -1.65555961e-02,
          -1.05397338e-02, -6.61571370e-03, -5.37957530e-03,
          -6.32901210e-03, -5.30097401e-03, -5.60471229e-03,
          1.09880092e-02, 6.17540441e-03, -1.12551106e-02,
          -8.61962140e-03, -4.78915218e-03, -4.49424563e-03,
          -5.23693219e-04, -4.61990386e-03, -9.60570120e-04,
          6.95522176e-03, -7.02023899e-05, -3.02714691e-03,
          -2.93551944e-03, -6.06803549e-03, 6.16393867e-04,
          -1.22374413e-03, -1.67207955e-03, 4.70313802e-03,
          1.34219825e-02, 7.17350049e-03, 7.74578145e-03,
          -1.61497723e-02, -8.63653701e-03, -3.72610590e-03,
          -6.35823188e-03, -9.92550701e-03, -7.21500907e-03,
          3.01496265e-03, -1.32755714e-03, -1.33045902e-02,
          -1.90843903e-02, -9.00815986e-03, -5.37471008e-03,
          -3.53451679e-03, -9.91752371e-03, -3.67787457e-03,
          3.76271829e-03, -4.16534301e-03, -7.82117900e-03,
          1.56459562e-03, -1.74839271e-03, 4.15110262e-03,
          2.29545846e-03, -2.53010122e-03, 3.31521791e-04,
          7.21814483e-03, 2.63016112e-03, 9.52500477e-03, 3.38343391e-03,
          -5.19182591e-04, 5.24340989e-03, 3.93566955e-03,
          -4.74550202e-03, -1.80453726e-03, 2.89652916e-03,
          3.27435462e-03, 8.25916976e-03, -1.60518903e-02,
          -5.88920247e-03, -3.83245456e-03, -6.00922212e-04,
          -9.73213557e-03, -1.65997236e-03, 1.52085908e-03,
          -3.43196676e-03, -7.97858275e-03, -1.03908200e-02,
          -3.03154183e-03, -2.59356899e-03, -4.54839179e-03,
          -1.22754350e-02, -3.85781471e-03, -2.19020550e-03,
          -5.02381241e-04, -9.05672740e-03, 4.78572352e-03,
          -1.83015014e-03, 2.83402950e-03, 1.44888903e-03,
          -5.16783306e-03, -3.30593134e-03, -8.33981030e-04,
          -1.14330219e-03, 1.05902199e-02, 8.59565195e-03,
          -3.41941952e-03, 1.11876708e-03, 1.05480183e-04,
          -4.30843420e-03, -3.47625930e-03, -4.86583536e-04,
          -2.23872112e-03, 9.71109141e-03, -4.38798219e-03,
          -2.47041904e-03, -3.49070248e-03, -4.80312435e-03,
          -1.03997234e-02, -5.79376100e-03, -3.63905658e-03,
          2.06630258e-03, -2.23723240e-03, -6.94455020e-03,
          -1.19127403e-03, -5.47930319e-03, -8.90362170e-03,
          -1.35066258e-02, -5.38278930e-03, -4.34690481e-03,
          1.84743805e-03, -3.65302595e-03, 5.13318973e-03,
          1.21151214e-03, 2.84668151e-03, -1.15608703e-03,
          -3.79311503e-03, -1.56916433e-03, -3.67339165e-03,
          8.22428905e-04, 4.93188016e-03, 3.51062091e-03, 7.07586005e-04,
          -1.27868936e-03, -6.94361096e-03, -4.50638821e-03,
          -1.77764241e-03, -6.21279795e-03, 1.52352883e-03,
          2.53767311e-03, -1.91469130e-03, 4.63429606e-03,
          -2.98604253e-03, -1.09733539e-02, -1.28827188e-02,
          -4.84310882e-03, -3.97505937e-03, 1.84962654e-03,
          -3.39180348e-04, 3.15720536e-04, 5.40769426e-03,
          2.71768030e-03, -7.96088669e-03, -9.31382366e-03,
          -1.20489793e-02, -9.54750460e-03, -2.02614348e-03,
          -3.59294610e-03, 3.56705370e-03, -6.28114969e-04,
          2.89221236e-04, -6.23029843e-03, -2.94428854e-03,
          -1.79539982e-03, -3.09042749e-03, -1.28683168e-03,
          4.63964092e-03, 5.17202134e-05, 2.56252289e-03, 5.78858238e-03,
          2.88493675e-03, -6.82447804e-03, -2.38218787e-03,
          -2.52055726e-03, -3.66704748e-03, -3.69041902e-03,
          -2.35577510e-03, 4.26800037e-03, -1.21425278e-03,
          -8.96901172e-03, -7.65363360e-03, -8.84970650e-03,
          -7.94591010e-03, -6.57508150e-04, -1.94055971e-03,
          -8.64068326e-03, -2.57705199e-03, -2.72414909e-04,
          -3.38202436e-03, -1.24510052e-02, -7.07553606e-03,
          -8.00504256e-03, -3.65573424e-03, -8.31649452e-03,
          -5.08624315e-03, 8.47068895e-03, 8.28764401e-03,
          8.38637352e-03, -6.16652565e-03, -5.14709577e-03,
          -6.83901319e-03, -6.19128719e-03, -7.30880117e-03,
          -2.85329437e-03, 4.27482044e-03, 6.03819825e-03,
          2.10896018e-03, -7.66901765e-03, -4.69685160e-03,
          -6.67961268e-03, -7.26552960e-03, -1.53512345e-03,
          -6.92484528e-03, -5.84238500e-04, 4.82939836e-03,
          3.11483251e-04, -8.62742867e-03, -7.72839086e-03,
          -7.42650079e-03, -5.77329192e-03, -1.04642948e-02,
          -1.12272073e-02, -7.56064779e-04, 9.73597518e-04,
          -5.42782526e-03, -1.13780331e-02, -9.30968300e-03,
          -1.04857432e-02, -1.11795133e-02, -1.38550457e-02,
          7.34883640e-03, 6.73415931e-03, 8.18567816e-03, 4.88243625e-03,
          2.36755307e-03, -1.82307442e-03, -3.88363679e-03,
          -6.38512522e-03, 4.76088608e-03, -2.39849184e-03,
          2.58164038e-03, 1.09538832e-03, -1.19166998e-02,
          -7.93937501e-03, -5.17678494e-03, -1.35803444e-03,
          -4.42502880e-03, -6.86126901e-03, -3.66803003e-03,
          1.79049361e-03, 3.52277048e-03, -7.50986766e-03,
          -1.11203464e-02, -7.69423274e-03, -6.87396154e-03,
          -8.42356961e-03, -6.67199679e-03, -3.28545389e-03,
          -3.23752523e-04, -5.18105226e-03, -1.41396271e-02,
          -1.16963061e-02, -8.06724094e-03, -4.51048044e-03,
          -9.51839238e-03, -1.00768646e-02, -3.61698447e-03,
          -3.78212053e-03, -2.83165532e-03, -7.76523910e-03,
          3.00701498e-03, 3.21368547e-03, 8.27151071e-03, 4.12827823e-03,
          -5.05705597e-03, 3.33710457e-03, -8.32110457e-03,
          -6.77694567e-03, -1.33897755e-02, -3.91388079e-03,
          1.87530718e-03, 4.44475561e-03, -7.99873029e-04,
          2.79490347e-03, -5.80947381e-03, -2.19785492e-03,
          -5.93329640e-03, -1.30159557e-02, -4.85740928e-03,
          -5.49573917e-04, 1.67587318e-03, -2.45247572e-03,
          -1.06991883e-02, -4.99783829e-03, -8.73214845e-03,
          -9.17326100e-03, -1.71377249e-02, -8.31624493e-03,
          -5.44030278e-04, -1.17150182e-03, -3.24813323e-03,
          -8.05993658e-03, -2.10510241e-03, -6.99114520e-03,
          -4.81423270e-03, -1.00886533e-02, -1.14829009e-02,
          -2.30097142e-03, -1.90369971e-03, -2.97933328e-03,
          -4.38138435e-04, 5.09105623e-03, -4.47717262e-03,
          -3.13869515e-03, -3.86494538e-03, -8.60539917e-03,
          -6.57703821e-03, -1.86176156e-03, -1.75997242e-03,
          5.33113116e-03, -4.15253802e-04, -3.84366815e-03,
          -3.02807591e-03, -5.01334108e-03, -4.32846695e-03,
          -1.05828431e-03, -2.06431560e-03, -8.27337033e-04,
          -5.29988296e-03, -4.62453719e-03, -2.65340880e-03,
          -1.72318949e-03, -1.81820279e-03, 7.50783773e-04,
          -6.21562218e-03, -1.30262505e-03, 2.02593487e-03,
          -7.17568398e-03, -7.38356961e-03, -9.92049649e-03,
          -1.08254533e-02, -9.21917614e-03, 7.70401675e-03,
          -6.42124470e-03, -8.11160635e-03, -1.42636411e-02,
          -9.10583418e-03, 4.11171094e-03, -9.06931795e-03,
          -8.70809145e-03, -1.12896841e-02, -2.60406476e-03,
          -3.53239174e-03, 6.70614000e-03, 2.06370954e-03,
          5.19026536e-03, -8.91355425e-03, -1.27406577e-02,
          -1.34637756e-02, -1.39886932e-02, -3.79678025e-03,
          -1.10785766e-02, -1.33822821e-02, -1.50027126e-02,
          -1.06906807e-02, -8.57840572e-03, -1.57241654e-02,
          -1.41821150e-02, -1.99580416e-02, -1.52274668e-02,
          -1.78008340e-02, -1.78134814e-02, -1.73730161e-02,
          -8.43472965e-03, -5.90683008e-03, -8.09943303e-03,
          -5.58099011e-03, -8.90867133e-03, -1.08568268e-02,
          -5.21985022e-03, 9.29220172e-04, -2.90030683e-03,
          -4.53839777e-03, 5.29307174e-04, 5.17179375e-04,
          2.27024709e-03, -4.82809357e-03, 1.12101715e-02,
          2.29432667e-03, 1.11173857e-02, 6.50279922e-03, 8.24616011e-03,
          -7.09248427e-03, -1.41346818e-02, -1.25823263e-02,
          -1.47746252e-02, -1.83777753e-02, -1.24863312e-02,
          -1.39443241e-02, -1.27117597e-02, -8.08598194e-03,
          -1.66678347e-03, -1.35838175e-02, -1.06952898e-02,
          -1.22948680e-02, -1.02353180e-02, -9.21733398e-03,
          -1.16644530e-02, -1.12602748e-02, 3.53332120e-03,
          -9.07019340e-03, -5.15339244e-03, -4.41218214e-03,
          -7.31566269e-03, -4.18981398e-03, -4.32674261e-03,
          4.79115220e-03, 4.59518330e-03, -3.40242265e-03,
          -4.11714381e-03, -4.44552768e-03, -4.23105992e-03,
          -4.50854190e-03, -6.33757282e-03, 3.07001406e-03,
          7.01054838e-03, 8.90398398e-03, 5.83590195e-03,
          -9.49375890e-03, -1.28799854e-02, -8.75963829e-03,
          -9.69593320e-03, -1.53351566e-02, -7.01233558e-03,
          -1.05451876e-02, -1.13026649e-02, -4.37759142e-03,
          -9.30805318e-03, -1.53374057e-02, -1.37225622e-02,
          -1.31234983e-02, -1.98556297e-02, -7.63671519e-03,
          -6.33300329e-03, -7.59537844e-03, -5.14993793e-04,
          -2.66922498e-03, -3.03708017e-03, -3.18354927e-03,
          -3.43452836e-03, -6.24890812e-03, 1.14453665e-03,
          1.86678325e-03, 4.07184800e-03, 8.18247069e-03, 4.71058162e-03,
          -1.80080021e-03, -4.45794733e-03, -4.53425851e-03,
          -1.23293260e-02, -6.65868446e-03, -1.78746402e-03,
          7.81729259e-03, 7.96226878e-03, -4.00224607e-03,
          -8.85974523e-03, -1.06150862e-02, -1.24576231e-02,
          -1.88636612e-02, -5.30027784e-03, -7.89634790e-03,
          -5.22443000e-03, -9.49201349e-04, 6.47011120e-03,
          -1.01616699e-02, -1.36638479e-02, -1.47001520e-02,
          -2.32373904e-02, -1.16543919e-02, -1.60921998e-02,
          -6.62152609e-03, 5.81504079e-03, 4.51876409e-03,
          1.58353907e-03, -3.89012066e-03, -4.70650522e-03,
          -9.70640965e-03, -6.87092077e-03, -2.17027590e-03,
          7.67054688e-03, 9.57326591e-03, 9.15532839e-03, 8.03976413e-03,
          -1.54214294e-03, -6.53879438e-03, -1.03503773e-02,
          -5.72276162e-03, -2.81706033e-03, 8.66862480e-03,
          1.35738077e-02, 3.10764322e-03, -8.52247234e-03,
          -1.03868879e-02, -1.29121542e-02, -1.75441969e-02,
          -1.01210792e-02, -1.18177552e-02, -5.17628295e-03,
          6.09799754e-03, 6.04668632e-03, -4.00707126e-03,
          -7.20721344e-03, -1.70798283e-02, -2.03323830e-02,
          -1.26012955e-02, -1.38332332e-02, -9.74031258e-03,
          3.28457938e-03, 7.17813661e-03, 1.01997526e-02,
          -8.61970300e-04, -8.00477248e-03, -1.19278561e-02,
          -5.29029313e-03, -7.21838186e-03, 4.06811619e-03,
          1.35464342e-02, 9.28075705e-03, 9.51171201e-03, 1.75523420e-03,
          -5.87895280e-03, -7.05420226e-03, -9.24169458e-03,
          -6.92815008e-03, 1.44490891e-03, 1.01894410e-02,
          1.97812705e-03, -3.26152868e-03, -8.22586939e-03,
          -1.49399899e-02, -2.21847985e-02, -1.26833562e-02,
          -1.34777566e-02, -1.12828910e-02, -5.61338093e-04,
          -8.80048265e-06, -5.29828668e-03, -1.07594319e-02,
          -1.31746009e-02, -2.16064341e-02, -1.45488298e-02,
          -1.40351569e-02, -1.61082391e-02, -4.18769429e-03,
          7.44018657e-03, 7.32743088e-03, -6.58497156e-04,
          -2.39421357e-03, -5.33993542e-03, -7.51970569e-03,
          -4.85041225e-03, -2.42905502e-04, 6.81566913e-03,
          5.82742551e-03, -6.03017816e-03, -3.25769885e-03,
          -5.12358267e-03, -7.02266302e-03, -3.95041145e-03,
          -1.96644105e-03, -3.36703216e-03, 6.32448215e-03,
          -4.33066161e-04, -6.02087611e-03, -8.90757609e-03,
          -1.14713702e-02, -1.68369282e-02, -1.11700650e-02,
          -1.17724398e-02, -1.45478826e-02, -5.99551201e-03,
          -5.44179650e-03, -1.41255669e-02, -1.27906147e-02,
          -1.28365690e-02, -1.87860895e-02, -1.08883027e-02,
          -1.25331441e-02, -1.40623525e-02, -7.19152251e-03,
          1.40330270e-02, 1.30419224e-03, 1.79350888e-03, 1.54896406e-03,
          -9.87364212e-04, -6.04190910e-03, -2.84033897e-03,
          -1.18050375e-03, 1.01484973e-02, 1.17691280e-02,
          -3.55086313e-03, -3.46158282e-03, -3.25733889e-03,
          -5.05348155e-03, -9.84133501e-03, -7.50961807e-03,
          -5.11783641e-03, 8.70411005e-03, -4.35190415e-03,
          -1.45232808e-02, -1.19270263e-02, -1.23784887e-02,
          -1.85968094e-02, -1.47766331e-02, -1.47134205e-02,
          -1.09310327e-02, -4.80181165e-03, -1.63325993e-03,
          -1.60634369e-02, -1.60114989e-02, -1.41219711e-02,
          -1.96452290e-02, -1.62812229e-02, -1.27666304e-02,
          -7.96890538e-03, -6.55490963e-04, 1.16740381e-02,
          -2.58465507e-03, 4.80670715e-04, -7.09130242e-03,
          6.08417485e-03, -8.27323273e-03, -6.30612066e-03,
          -6.64146896e-03, 1.04944762e-02, 6.64246827e-03,
          -1.52481107e-05, -6.49895344e-04, -9.13853198e-03,
          -1.17885722e-02, -6.96070492e-03, -6.10419922e-03,
          -7.73729756e-03, 1.11933309e-03, 5.40648820e-03,
          -1.46670360e-02, -1.65936872e-02, -1.70626249e-02,
          -1.38734682e-02, -1.33205988e-02, -1.31283244e-02,
          -1.03337951e-02, 4.23771143e-03, 5.55619178e-03,
          -1.19032469e-02, -9.96839255e-03, -1.47910612e-02,
          -1.54841077e-02, -1.17445150e-02, -1.21102091e-02,
          -1.03863319e-02, 4.85684490e-03, -2.30584817e-04,
          4.65288991e-04, -1.57936395e-03, -1.11043593e-02,
          -7.99086411e-03, -3.96882091e-03, -3.67993745e-03,
          -4.63376008e-03, -3.97869293e-03, 1.22132795e-02,
          -4.46585286e-03, -3.28398240e-03, -1.31414151e-02,
          -3.86685785e-03, -1.52888184e-03, -2.64376588e-03,
          -3.87003209e-04, 3.23530613e-03, 8.12920835e-03,
          -7.09349476e-03, -5.49397338e-03, -1.28116319e-02,
          -1.04628392e-02, -1.01915728e-02, -7.82739464e-03,
          -6.21169806e-03, 7.22483313e-03, 7.33009307e-03,
          -7.06362911e-03, -6.46310812e-03, -1.65135916e-02,
          -1.40935853e-02, -7.98038486e-03, -8.11258517e-03,
          -8.19933135e-03, 2.25016638e-03, 3.36116902e-03,
          -3.96414381e-03, -3.66828311e-03, -7.75353052e-03,
          -4.52419464e-03, -2.85204104e-03, -3.08063417e-03,
          -7.72371059e-05, -2.69580726e-03, -2.34978995e-03,
          -6.43082382e-03, -5.83383488e-03, -3.26701032e-04,
          -3.98436049e-03, -4.34995629e-03, -2.30404898e-03,
          -5.26822405e-04, -4.61353548e-03, 2.22440041e-03,
          -5.61758876e-03, -7.32096052e-03, -1.23353656e-02,
          -1.25880428e-02, -9.72418766e-03, -1.05216252e-02,
          -6.96000084e-03, -9.44170693e-04, -6.34393713e-04,
          -8.55749380e-03, -8.20679683e-03, -6.31603645e-03,
          -8.56699143e-03, -6.86337240e-03, -8.61399248e-03,
          -7.61894742e-03, -2.20583123e-03 ]
   decision_functions:
      -
         sv_count: 1
         rho: -5.1746798770320979e-01
         alpha: [ 1. ]
