%YAML:1.0
opencv_ml_svm:
   format: 3
   svmType: EPS_SVR
   kernel:
      type: LINEAR
   C: 1.0000000000000000e-02
   p: 1.0000000000000001e-01
   term_criteria: { epsilon:1.0000000000000000e-03, iterations:1000 }
   var_count: 4356
   sv_total: 1
   support_vectors:
      - [ -3.37762944e-03, -4.85884352e-03, -6.91110129e-03,
          -1.59841590e-02, -1.02452002e-02, -1.51652973e-02,
          -8.61349609e-03, -7.39754504e-03, -3.67333600e-03,
          -5.93341142e-03, -6.93758158e-03, -9.64916963e-03,
          -1.52869485e-02, -2.79698661e-03, -1.27434777e-02,
          -1.14671420e-02, -1.03278067e-02, -7.39444001e-03,
          8.60842224e-03, -5.29153412e-03, -8.42554774e-03,
          -1.70306973e-02, -1.69993949e-03, -1.40287271e-02,
          -7.02481717e-03, -7.29779853e-03, 8.73188116e-03,
          5.46959275e-03, -8.00498389e-03, -1.09895002e-02,
          -1.48222288e-02, 6.61642617e-03, -1.43901138e-02,
          -9.48004425e-03, -1.00450078e-02, 4.96889511e-03,
          -5.46735246e-03, -6.88022980e-03, -7.86621962e-03,
          -1.07393377e-02, -2.32438557e-03, -9.13233869e-03,
          -1.01744933e-02, -1.09316781e-02, -1.06431963e-02,
          -8.97109136e-03, -1.01574967e-02, -7.35013001e-03,
          -9.22237337e-03, -4.04205144e-04, -1.04040978e-02,
          -9.30906832e-03, -9.72032826e-03, -1.28984982e-02,
          6.36533368e-03, -1.12172635e-02, -1.09452624e-02,
          -1.36120114e-02, 3.69836856e-03, -9.92950052e-03,
          -7.66023388e-03, -7.60797039e-03, 6.42907573e-03,
          -2.08504102e-03, -1.78686287e-02, -1.27930520e-02,
          -1.62105132e-02, 7.31781777e-03, -1.15554193e-02,
          -6.54580537e-03, -5.14071248e-03, 3.91147682e-04,
          -7.48132356e-03, -1.07200500e-02, -5.87409129e-03,
          -9.93882678e-03, 7.61851727e-04, -7.76101509e-03,
          -4.50320682e-03, -7.79773202e-03, -7.87851773e-03,
          -9.63642821e-03, -1.31709678e-02, -1.42610110e-02,
          -1.13594532e-02, 9.60226345e-04, -1.31417839e-02,
          -1.14795826e-02, -1.19838845e-02, -9.18090995e-03,
          -1.06647459e-03, -1.35457674e-02, -9.87234619e-03,
          -1.31324250e-02, 1.00370627e-02, -8.41348339e-03,
          -3.82630317e-03, -5.27423667e-03, 2.60027149e-03,
          -3.63039109e-03, -1.51672428e-02, -1.38354860e-02,
          -1.56121440e-02, 3.97824729e-03, -1.24053666e-02,
          -5.87434182e-03, -8.44713114e-03, -1.36820448e-03,
          -7.40415789e-03, -1.03864828e-02, -1.36226183e-02,
          -1.00612417e-02, 2.70439847e-03, -1.02120433e-02,
          -1.09432479e-02, -9.01043136e-03, -6.76977308e-03,
          -4.88604000e-03, -9.34338942e-03, -1.10221719e-02,
          -1.23317754e-02, 2.88037118e-03, -1.07657947e-02,
          -1.25990361e-02, -9.11929645e-03, -4.72387997e-03,
          1.28038204e-03, -1.16900951e-02, -1.17643429e-02,
          -1.08100930e-02, 4.67699440e-03, -7.00627780e-03,
          -1.93490169e-03, -2.16248701e-03, 2.31284020e-03,
          1.15160865e-03, -6.71738805e-03, -8.64541251e-03,
          -1.00265536e-02, 6.88155706e-04, -9.76608600e-03,
          -1.15521252e-02, -9.33890417e-03, 1.35584327e-03,
          -3.36480513e-03, -7.22832186e-03, -8.39745253e-03,
          -1.27558103e-02, -7.58939795e-03, -9.67680477e-03,
          -7.68392300e-03, -7.94220343e-03, -4.15564142e-03,
          -3.16615426e-03, -8.16627033e-03, -9.68664698e-03,
          -1.23518743e-02, 4.03961632e-04, -8.08750093e-03,
          -8.89422372e-03, -1.00181466e-02, -6.07117405e-03,
          1.80883659e-03, -5.60756447e-03, -6.59238221e-03,
          -1.09724598e-02, -2.70592608e-03, -9.01722349e-03,
          -6.11729454e-03, -3.85895255e-03, 3.32492287e-03,
          5.74906915e-03, -9.16495360e-03, -9.94547922e-03,
          -1.48448460e-02, 3.74738825e-03, -1.09104849e-02,
          -1.09344013e-02, -1.17437514e-02, 4.49728267e-03,
          -4.64485679e-03, -7.46021420e-03, -8.65018088e-03,
          -1.12197148e-02, -1.74392771e-03, -8.90860986e-03,
          -1.10977506e-02, -8.94313399e-03, -4.04500542e-03,
          -1.87763001e-03, -7.10137980e-03, -7.60900415e-03,
          -1.18342089e-02, -1.37665402e-03, -1.33607741e-02,
          -1.06003946e-02, -8.07769317e-03, -1.64797495e-03,
          3.41826398e-03, -7.75431097e-03, -8.61201249e-03,
          -1.40338745e-02, 1.94123096e-03, -9.79639776e-03,
          -1.12447869e-02, -1.05368523e-02, 3.43736517e-03,
          3.35033936e-03, -7.13147037e-03, -6.28963904e-03,
          -1.32279787e-02, 1.44884526e-03, -1.55099807e-02,
          -1.06134368e-02, -7.56648649e-03, 2.35400326e-03,
          -5.45771560e-03, -8.35500844e-03, -9.73050483e-03,
          -1.21852662e-02, 5.74127713e-04, -1.34274485e-02,
          -9.47368518e-03, -8.78463592e-03, -4.99947602e-03,
          -6.68270187e-03, -9.70461778e-03, -1.29364971e-02,
          -1.04504107e-02, 6.90692384e-03, -8.00241623e-03,
          -8.12389795e-03, -1.05526950e-02, -6.70631789e-03,
          -1.66082216e-04, -9.19481367e-03, -9.54630040e-03,
          -1.16800619e-02, -2.03383388e-03, -1.45524656e-02,
          -9.25077870e-03, -8.19334108e-03, -1.31239754e-03,
          -6.13733137e-04, -9.71596502e-03, -9.89675615e-03,
          -1.30196214e-02, 4.80069127e-03, -1.23592969e-02,
          -8.91570933e-03, -9.93316621e-03, -2.14508991e-03,
          -4.30449424e-03, -8.97471979e-03, -1.12638269e-02,
          -1.12605290e-02, 3.06826900e-03, -6.94252597e-03,
          -6.60042372e-03, -9.31246113e-03, -5.40339388e-03,
          -2.66035274e-03, -6.87132310e-03, -9.80360433e-03,
          -1.82971675e-02, -4.11160570e-03, -1.24512929e-02,
          -1.16800629e-02, -1.07002901e-02, -3.94907361e-03,
          5.22062927e-03, -8.82149674e-03, -1.03543168e-02,
          -1.14360042e-02, 8.01351666e-03, -1.13059497e-02,
          -8.65281001e-03, -8.68993811e-03, 3.42285819e-03,
          6.93397503e-03, -6.47997111e-03, -9.82563570e-03,
          -1.64344590e-02, 4.10260836e-04, -1.64289996e-02,
          -1.36288218e-02, -1.15144700e-02, 3.34834214e-03,
          -2.30875751e-03, -5.27330209e-03, -7.09481724e-03,
          -1.43663576e-02, 8.05733260e-04, -1.00663751e-02,
          -1.11185629e-02, -1.07965041e-02, -5.26142586e-03,
          -3.82540002e-03, -7.29819294e-03, -4.61493665e-03,
          -7.15562794e-03, 9.61199636e-04, -1.20334579e-02,
          -1.11728925e-02, -1.16455080e-02, -4.93436959e-03,
          7.09657092e-03, -4.75597708e-03, -8.52117036e-03,
          -1.49614383e-02, 1.09608774e-03, -1.18937073e-02,
          -1.24473860e-02, -1.31495399e-02, 4.53090621e-03,
          1.04713356e-02, -6.55329553e-03, -5.65159926e-03,
          -7.59049132e-03, 9.10859555e-03, -1.21865747e-02,
          -1.24232937e-02, -1.38685042e-02, 7.41558941e-03,
          -8.50961357e-03, -7.78336590e-03, -4.62038442e-03,
          -3.73410317e-03, 4.99228667e-03, -1.13236168e-02,
          -9.85837821e-03, -1.05039030e-02, -9.11601540e-03,
          -9.73988324e-03, -1.13759739e-02, -8.53191130e-03,
          -6.85358606e-03, -3.45541164e-03, -1.28121627e-02,
          -9.59150214e-03, -1.09267337e-02, -1.07196216e-02,
          5.96548384e-03, -9.00372490e-03, -7.00923568e-03,
          -8.44615325e-03, 1.24386987e-02, -1.07863406e-02,
          -8.30389373e-03, -8.41363426e-03, 4.54216124e-03,
          2.51042750e-03, -1.34326071e-02, -1.11340834e-02,
          -1.53760193e-02, 3.09026422e-04, -1.17560485e-02,
          -7.63542857e-03, -7.39146024e-03, 2.81287683e-03,
          -3.16305878e-03, -8.42545927e-03, -6.06476469e-03,
          -7.40595628e-03, -5.29221538e-03, -9.69640538e-03,
          -9.28351469e-03, -8.64912383e-03, -6.69640396e-03,
          -2.64658290e-03, -7.19301775e-03, -4.85317782e-03,
          -1.00369928e-02, 9.56709613e-04, -1.28482226e-02,
          -1.22634610e-02, -8.38032737e-03, -7.19292322e-03,
          5.29896421e-03, -1.03078810e-02, -9.88367945e-03,
          -1.55850295e-02, 2.71107955e-03, -8.43224395e-03,
          -6.29383838e-03, -3.88211641e-03, 3.42450500e-03,
          4.72060218e-03, -9.73296538e-03, -1.03915920e-02,
          -1.53118148e-02, 1.71613216e-03, -1.25981886e-02,
          -8.86316504e-03, -9.89436917e-03, -1.13978703e-03,
          1.09608471e-03, -5.70115028e-03, -5.49087767e-03,
          -1.05568776e-02, 2.32682025e-04, -8.32061283e-03,
          -3.35890357e-03, -6.57713786e-03, -6.93161972e-04,
          -2.22432427e-03, -7.85261299e-03, -8.81298166e-03,
          -1.23149920e-02, -4.08490794e-03, -1.00031076e-02,
          -7.40281073e-03, -7.59895751e-03, -2.65309401e-03,
          -5.21426322e-03, -2.27219588e-03, -4.92764264e-03,
          -2.48681218e-03, 7.17125135e-03, -4.37929109e-03,
          -1.47885515e-03, -6.03615027e-03, -7.60862837e-03,
          4.53695888e-03, -3.77447694e-03, -5.05219400e-03,
          -8.36444646e-03, 4.70367540e-03, -7.03958329e-03,
          -4.73392243e-03, -5.50136901e-03, 2.87857628e-03,
          -1.54181535e-03, -8.71262141e-03, -9.04273428e-03,
          -1.09548848e-02, -4.81031043e-03, -8.51770025e-03,
          -6.25498733e-03, -4.72048391e-03, -1.68972986e-03,
          -3.51964985e-03, -1.09727299e-02, -1.07775638e-02,
          -1.32989045e-02, 4.89893183e-03, -8.45229533e-03,
          -3.85999423e-03, -1.56974734e-03, -6.20858395e-04,
          -1.90154847e-03, -1.22173631e-03, -4.06519743e-03,
          -8.67507048e-03, -5.30250045e-03, -8.98837578e-03,
          -2.55317241e-03, -6.05816545e-04, 8.65709968e-04,
          7.43175903e-03, -5.71506913e-04, -4.03198972e-03,
          -1.01584624e-02, -8.72455304e-04, -8.69935099e-03,
          -1.66286051e-03, 1.52806949e-03, 1.03607969e-02,
          -4.17596754e-03, -1.02346931e-02, -1.10928258e-02,
          -1.15052694e-02, 6.06776681e-03, -6.74739247e-03,
          -1.69673783e-03, -2.11866363e-03, -2.28154520e-03,
          -2.82525993e-03, -9.88193508e-03, -1.18055297e-02,
          -1.38909863e-02, 9.23447253e-04, -7.88676925e-03,
          -1.20786973e-03, -5.61635289e-03, -4.49619815e-03,
          5.76571189e-03, 1.41836784e-03, -3.37527203e-03,
          -7.46139092e-03, 3.15316138e-03, -3.25657823e-03,
          2.66064121e-03, 5.49221411e-03, 9.31436568e-03, 9.09705088e-03,
          -6.72800234e-04, -6.20982004e-03, -1.41253164e-02,
          -4.44021029e-03, -7.54641648e-03, 3.25963437e-03,
          3.36032198e-03, 8.41493066e-03, -3.47110350e-03,
          -9.40072164e-03, -1.01974998e-02, -1.17056761e-02,
          -4.86626849e-03, -6.99516665e-03, -7.76604167e-04,
          -5.42997429e-03, -5.02971839e-03, -5.83117013e-04,
          -6.75661024e-03, -6.63429266e-03, -7.26924604e-03,
          -7.51915714e-03, -9.68509074e-03, -9.14842729e-03,
          -8.81553441e-03, -2.41825148e-03, 1.05307773e-02,
          -3.06878542e-03, -5.03097754e-03, -1.17565189e-02,
          -4.11298446e-04, -6.96855132e-03, 6.11144165e-03,
          2.54543917e-03, 9.69087332e-03, 7.97341578e-03,
          -3.00289365e-03, -3.05991946e-03, -9.07448120e-03,
          -9.29494295e-03, -6.01838483e-03, 3.37634701e-03,
          3.25368637e-05, 5.81807271e-03, -9.81395133e-04,
          -6.40585553e-03, -6.78693922e-03, -9.74022690e-03,
          -4.80811205e-03, -1.08616473e-02, -9.48416349e-03,
          -6.59807259e-03, -2.91392300e-03, -1.49855250e-03,
          -9.04203020e-03, -9.73614957e-03, -1.47022149e-02,
          3.48147936e-03, -1.15447557e-02, -1.11000929e-02,
          -1.00117512e-02, -2.73762457e-03, 5.20369783e-03,
          -2.52877758e-03, -3.71021661e-03, -1.02569358e-02,
          -2.02394513e-04, -7.24022556e-03, 1.96444662e-03,
          1.72401755e-03, 5.76926395e-03, -4.68213431e-04,
          -7.11303344e-03, -2.93038390e-03, -1.27316844e-02,
          -1.96985295e-03, -9.36598517e-03, -3.65461712e-03,
          -7.10843503e-03, 5.29739831e-04, -1.70581962e-03,
          -5.92128653e-03, -6.88618142e-03, -1.24784457e-02,
          -1.54107891e-03, -9.28163528e-03, -1.00592710e-02,
          -8.46178178e-03, -1.35875633e-03, -2.71428633e-03,
          -6.61569787e-03, -7.43774651e-03, -1.19334301e-02,
          -2.47762771e-03, -1.23913428e-02, -1.09078949e-02,
          -8.96563381e-03, -2.17395183e-03, 1.02709990e-03,
          -6.02914346e-03, -3.26979998e-03, -9.65128373e-03,
          1.90130348e-04, -4.66375239e-03, -1.45395787e-03,
          -3.71124363e-03, 5.71765378e-03, 1.29022577e-04,
          -6.44808030e-03, -3.96221038e-03, -1.10094780e-02,
          -2.05915561e-03, -1.01700444e-02, -7.42826099e-03,
          -7.14871008e-03, 3.40083172e-03, -2.76520755e-03,
          -8.07268173e-03, -8.89660697e-03, -1.00651300e-02,
          -4.19340283e-03, -1.37135936e-02, -1.03909494e-02,
          -9.74756107e-03, -2.62228400e-03, -2.25619948e-03,
          -6.75267261e-03, -6.57951552e-03, -1.08958893e-02,
          2.07551266e-03, -1.08327558e-02, -7.98748434e-03,
          -9.59064439e-03, -2.48059980e-03, -1.27374800e-03,
          -6.95479522e-03, -4.61281464e-03, -1.11595141e-02,
          -3.95435654e-03, -1.43537475e-02, -9.35115572e-03,
          -7.08463416e-03, 3.83053767e-03, -4.60823858e-03,
          -7.57936668e-03, -7.57964840e-03, -1.07163973e-02,
          5.31227514e-03, -9.19149444e-03, -4.26335447e-03,
          -7.51645537e-03, -1.00019504e-04, 1.63906300e-03,
          -6.67105289e-03, -7.56233931e-03, -1.16899079e-02,
          4.43596533e-03, -9.78680979e-03, -6.72427891e-03,
          -6.65518735e-03, 1.21308398e-03, 4.56977263e-03,
          -6.41028769e-03, -6.00175653e-03, -1.21902116e-02,
          -6.70420891e-03, -1.63649935e-02, -1.04320794e-02,
          -1.03956284e-02, 2.44112546e-03, 1.64122938e-03,
          -8.03108606e-03, -7.34407455e-03, -9.56306420e-03,
          2.39150785e-03, -6.65075798e-03, -1.25221489e-03,
          -5.71914902e-03, 3.34075233e-03, 7.40165962e-03,
          -7.45861512e-03, -2.64510093e-03, -1.18103940e-02,
          -4.72518895e-03, -1.45840421e-02, -5.66866947e-03,
          -1.17118424e-02, 5.71208168e-03, 2.98100314e-03,
          -6.13457477e-03, -6.21994026e-03, -1.06732734e-02,
          -2.96746241e-03, -1.29633173e-02, -9.19707306e-03,
          -9.98592563e-03, 1.31163734e-03, 5.45704504e-03,
          -9.16962512e-03, -4.25450644e-03, -4.92111035e-03,
          8.04812089e-03, -9.47846659e-03, -9.11114924e-03,
          -9.50684771e-03, 4.90384782e-03, -2.24446133e-03,
          -9.44077689e-03, -5.20470832e-03, -1.02359140e-02,
          -6.12337049e-03, -1.08625051e-02, -4.60811518e-03,
          -9.44168121e-03, -1.69761211e-03, 2.90298765e-03,
          -7.07070250e-03, 2.93290312e-03, -9.37328581e-03,
          3.12487478e-03, -5.90593740e-03, -3.08963843e-03,
          -4.23158193e-03, 7.79912760e-03, 1.88621972e-03,
          -9.24267806e-03, -5.20486059e-03, -8.60563386e-03,
          8.92829895e-03, -8.89535341e-03, -5.95233263e-03,
          -6.14339858e-03, 2.69034482e-03, 4.39977710e-04,
          -1.24968514e-02, -9.24358144e-03, -1.67828985e-02,
          -8.50210141e-04, -1.18963281e-02, -5.34160901e-03,
          -6.04761392e-03, 6.19391212e-04, 2.39674887e-03,
          -8.13734252e-03, -2.21646600e-03, -1.01375561e-02,
          7.04661070e-04, -8.18861835e-03, -4.30644443e-03,
          -6.61538856e-04, 8.25689640e-03, 5.37875388e-03,
          -1.00925434e-02, -5.05642500e-03, -1.55813172e-02,
          -6.19784696e-04, -1.43183246e-02, -5.29239001e-03,
          -1.45458919e-03, 9.22089070e-03, -9.92683795e-07,
          -1.15853082e-02, -8.81185569e-03, -1.68823246e-02,
          4.98122768e-04, -9.75474622e-03, -6.00711862e-03,
          -4.74885153e-03, -1.70900091e-03, 1.74946117e-03,
          -1.04353018e-02, -8.00369494e-03, -1.29730944e-02,
          3.67947563e-04, -1.08197322e-02, -7.21265608e-03,
          -6.90666400e-03, -1.70896400e-03, 4.70284466e-03,
          -6.24573044e-03, -4.48955176e-03, -1.41340820e-02,
          9.72613343e-04, -9.54207405e-03, -2.23511807e-03,
          -1.86914811e-03, 5.22170449e-03, 1.07421102e-02,
          -4.29622084e-03, -2.64202571e-03, -1.13259768e-02,
          -8.22538137e-03, -1.02955932e-02, -2.64085759e-03,
          -1.59727788e-04, 1.15703093e-02, -7.18600350e-03,
          -4.70632361e-03, -4.47706925e-03, -2.66621995e-04,
          1.52927346e-03, -2.17117649e-03, -3.06541706e-03,
          -5.77168632e-03, -1.10562285e-02, -1.46760629e-03,
          -3.32304672e-03, -4.44712257e-03, -7.37756444e-03,
          4.41014854e-04, -5.66943362e-03, -2.45668739e-03,
          -4.02017217e-03, -5.56146447e-03, 2.54615792e-03,
          -1.84174604e-03, -1.74218742e-03, -2.74906808e-04,
          -9.38025361e-04, -3.66802467e-03, -4.13192017e-03,
          -3.93320853e-03, -1.40538462e-03, -1.57165469e-03,
          8.14376341e-04, 6.14848163e-04, -8.22191779e-03,
          2.88102264e-03, -7.47058773e-03, -2.16143951e-03,
          -2.67697335e-03, -3.30182374e-03, -2.00253888e-03,
          -1.05126342e-03, -3.40586714e-03, -7.14067323e-03,
          -1.10456739e-02, -9.52081569e-03, -4.42148885e-03,
          -1.69098552e-04, -3.24593345e-03, -2.77676666e-03,
          -2.00597453e-03, -5.52139152e-03, -4.51140478e-03,
          -6.45488407e-03, -6.00493047e-03, -5.95792662e-03,
          -8.78110935e-04, -4.89210524e-03, -3.77377546e-05,
          -1.69151556e-03, -9.52802482e-04, -8.78151320e-03,
          -6.23126095e-03, -9.96402279e-03, -2.03102850e-03,
          2.44924799e-03, -9.76965530e-04, 4.13451111e-03,
          2.86199874e-03, -2.93755764e-03, -5.08986413e-03,
          -8.24245624e-03, -8.68381560e-03, -4.08123992e-03,
          4.41753212e-03, 2.41009193e-03, -5.86178899e-03,
          -2.56366399e-03, -6.55956659e-03, -5.15664462e-03,
          -4.64240694e-03, -3.60129843e-03, -2.81813601e-03,
          1.06097118e-03, -6.01299666e-03, -5.29156812e-03,
          -3.31588183e-03, -6.26703771e-03, -1.15447734e-02,
          -9.58477892e-03, -4.43373574e-03, -1.57585484e-03,
          1.37780781e-03, -4.19796072e-03, -3.66188283e-03,
          2.41901190e-03, -3.80946952e-03, -2.59497226e-03,
          -2.31440132e-03, -4.85394849e-03, -2.68249726e-03,
          4.24023438e-03, -3.28804879e-03, 9.99356154e-04,
          2.56102462e-03, -2.73931352e-03, -6.13169093e-03,
          -1.60909921e-03, -4.30160249e-03, -3.61153478e-04,
          5.31389797e-03, 4.49359836e-03, -4.51592728e-03,
          -5.30616287e-03, -4.77681495e-03, -1.07924528e-02,
          -9.43107810e-03, -4.65797493e-03, 1.56499573e-03,
          1.33420515e-03, -1.14841503e-03, -4.06087551e-04,
          -5.77252591e-03, -5.72778564e-03, -9.03693307e-03,
          -1.10063525e-02, -5.15804626e-03, 1.38576585e-03,
          9.86828469e-04, -1.84005604e-03, 2.22839997e-03,
          -1.56092628e-05, -3.53383319e-03, -7.74826994e-03,
          3.25502013e-03, -2.53805798e-03, 5.86668868e-03,
          9.34089813e-03, 9.08743404e-03, 5.51211764e-04,
          -2.08499166e-03, -4.84828185e-03, -1.10714352e-02,
          -6.69120206e-03, -4.53813048e-03, 8.44595954e-03,
          3.91514692e-03, 3.35498690e-03, -2.21025059e-03,
          -5.48969815e-03, -3.88238858e-03, -9.44255292e-03,
          -7.54247699e-03, -6.65806979e-03, -4.76064801e-04,
          -1.85697828e-03, -2.46597943e-03, -3.51128099e-03,
          -9.58782621e-03, -2.81041698e-03, -1.00903613e-02,
          -3.07397870e-03, -8.39067902e-03, -3.21545592e-03,
          -6.03815727e-03, -7.86376419e-04, -1.01040408e-03,
          -3.40589904e-03, -5.14860777e-03, -8.59049242e-03,
          1.57464400e-03, -1.35988419e-04, 1.21628726e-02,
          3.95798357e-03, -1.35482638e-03, 4.97224368e-03,
          -8.23871698e-03, -6.82561705e-03, -1.06199896e-02,
          1.08139415e-03, -4.01298609e-03, -4.90201273e-05,
          -3.37037328e-03, 6.75368449e-03, -3.25762504e-03,
          -6.87185954e-03, -1.48806826e-03, -8.80536530e-03,
          -4.50205151e-03, -4.30054916e-03, -9.22098232e-04,
          -2.95898900e-03, 3.98880336e-04, -3.80799477e-03,
          -6.81539765e-03, -3.56173748e-03, -8.09820648e-03,
          -4.18983446e-03, -4.90218075e-03, -1.28470361e-03,
          -4.40789061e-03, -7.63224962e-04, 4.69445629e-04,
          -5.91627043e-03, -3.16106435e-03, -9.21278354e-03,
          9.71202389e-04, 2.06276964e-04, -1.40292372e-03,
          -5.81055880e-04, 4.45330003e-03, -3.58924572e-03,
          -1.01524834e-02, -8.46631732e-03, -1.04037449e-02,
          -3.66386934e-03, -2.55486765e-03, 1.15952408e-03,
          -3.43459449e-03, 5.82945067e-04, -3.53905628e-03,
          -6.73405826e-03, -4.31617396e-03, -7.79431360e-03,
          -1.21070328e-03, -1.11132544e-02, -4.43399791e-03,
          -3.29233473e-03, -3.38884210e-03, -4.07558074e-03,
          -9.04490426e-03, -8.68124142e-03, -7.33811501e-03,
          -3.26906051e-03, -7.86482263e-03, -4.57296753e-03,
          -6.76791975e-03, -4.93703038e-03, 3.75989755e-03,
          -9.37998947e-03, -8.81124102e-03, -7.92428851e-03,
          1.55870907e-03, -5.69090573e-03, 8.75702171e-05,
          -2.20586103e-03, 6.09658053e-03, 6.41546259e-03,
          -8.28339066e-03, -4.83925547e-03, -6.30153622e-03,
          -1.61349832e-03, -7.68879987e-03, -1.93736702e-03,
          -9.13306139e-03, 5.27492119e-03, -2.34948378e-03,
          -8.32108688e-03, -6.66183699e-03, -6.57699862e-03,
          -1.66353025e-03, -4.21883538e-03, -2.29589920e-03,
          -5.61181456e-03, -5.04703866e-03, -4.43334831e-03,
          -7.19063263e-03, -5.03212446e-03, -6.64651953e-03,
          -1.05895801e-02, -1.05709843e-02, -4.40365635e-03,
          -9.53119341e-03, -3.94480443e-03, 9.34090000e-03,
          -6.60793390e-03, -3.69466282e-03, -3.51101207e-03,
          1.70336035e-03, -3.77787743e-03, -2.22111397e-04,
          -5.46471355e-03, 7.50726741e-03, 8.38166941e-03,
          -3.52261239e-03, -2.18594610e-03, 5.38900669e-04,
          -8.41813069e-03, -9.67070647e-03, -5.40038524e-03,
          -8.51265341e-03, 7.87665788e-03, -4.96257236e-03,
          -7.93273933e-03, -5.78183727e-03, -7.52406195e-03,
          -6.48873579e-03, -1.10522732e-02, -5.52745024e-03,
          -8.41681939e-03, -4.40023467e-03, -3.48373060e-03,
          -6.56602299e-03, -1.56948483e-03, -7.03124609e-03,
          6.82831230e-03, -4.97826049e-03, -6.42185472e-03,
          -6.02415204e-03, -7.86623277e-04, 5.39815938e-03,
          -6.36667479e-03, -7.90445693e-03, -6.23348495e-03,
          -4.02737968e-03, -9.94334742e-03, -5.52626047e-03,
          -4.25254088e-03, 5.74173220e-03, 1.93210121e-03,
          -4.74512903e-03, -1.97284063e-03, -6.16978714e-03,
          1.88256111e-02, 5.61119523e-04, -3.61165660e-03,
          -3.01521155e-03, 3.52241378e-03, -4.95558837e-03,
          -5.01082093e-03, -2.48780218e-03, -9.54612438e-03,
          3.66193010e-03, -6.41084276e-03, -5.58420829e-03,
          -5.07155759e-03, -3.25509254e-03, -2.86135590e-03,
          -7.63298245e-03, -5.45730488e-03, -1.37752509e-02,
          -4.83889412e-03, -1.06954006e-02, -5.64459106e-03,
          -6.08667824e-03, -3.53595964e-03, -3.14843352e-03,
          -3.20316153e-03, -3.44791776e-03, -6.05677394e-03,
          1.03013134e-02, -3.71719897e-03, -5.65853994e-03,
          -5.04283234e-03, -9.13991185e-04, 8.62710271e-03,
          -7.44913297e-04, -2.04236037e-03, -9.30439588e-03,
          1.17495563e-02, -2.59741023e-03, -3.72747821e-03,
          -3.11026559e-03, 5.51927835e-03, -2.24148156e-03,
          -5.45753585e-03, -6.93187863e-03, -1.15224980e-02,
          -4.81963670e-03, -5.27956430e-03, -5.69833955e-03,
          -5.08754002e-03, -5.02261007e-03, 4.69551800e-04,
          -5.69078838e-03, -5.26405452e-03, -7.95172621e-03,
          -9.01237316e-03, -7.71941151e-03, -2.06808792e-03,
          -2.04761676e-03, -4.32774657e-03, 8.26081727e-03,
          -3.65513936e-03, -5.71216550e-03, -7.96663947e-03,
          8.66370276e-03, -5.05073462e-04, -3.00124101e-03,
          -3.63952899e-03, 1.91310083e-03, 3.53812287e-03,
          -3.72610847e-03, -3.14235780e-03, -5.08455560e-04,
          1.10819761e-03, -7.88276491e-04, 3.50020500e-03,
          3.76269105e-04, -2.12298078e-03, -2.63428502e-03,
          -1.61886995e-03, -2.53152824e-03, -1.77832565e-03,
          2.24190857e-03, -1.85724569e-03, -4.19104658e-03,
          -3.18024517e-03, -2.75178230e-03, -1.52663246e-03,
          -1.31351035e-03, -1.85890950e-03, -7.68915797e-03,
          -2.68324884e-03, -4.55284584e-03, -2.94062216e-03,
          -2.33285199e-03, -2.50855228e-03, 1.63766643e-04,
          -4.33010142e-03, -8.66225362e-03, -2.34233984e-03,
          4.19901265e-03, -7.13125512e-04, -6.31796150e-03,
          -3.26109439e-04, -2.45205429e-03, -1.82515709e-03,
          -8.91760178e-03, -1.28786694e-02, -9.63945966e-03,
          1.77330687e-03, -2.22044019e-03, -5.15964674e-03,
          2.75868061e-03, -2.61000334e-03, -2.28203996e-03,
          -2.02311925e-03, -2.52320128e-03, -7.25670112e-03,
          -8.87601171e-03, -3.84828192e-03, -3.28971015e-04,
          2.75224447e-03, -3.54232383e-04, 7.56111171e-04,
          2.24272511e-03, -4.20037424e-03, -6.45016134e-03,
          -1.06315557e-02, -3.95998918e-03, -1.28852087e-03,
          8.54165107e-03, 1.16952986e-03, 4.21789533e-04,
          -6.09171158e-03, -9.14458279e-03, -7.78990472e-03,
          -7.77859753e-03, -3.15293181e-03, -5.71825367e-04,
          3.84102925e-03, -1.80690514e-03, 5.33842156e-03,
          -5.69267315e-04, -4.60830797e-03, -1.46585528e-03,
          -4.65096068e-03, -3.13210185e-03, -1.93530915e-03,
          6.30132109e-03, 1.45409547e-03, -4.99771163e-03,
          -1.80219431e-05, -5.92220109e-03, -5.29152481e-03,
          -9.68721509e-03, -6.19374821e-03, -3.53594869e-03,
          3.29538109e-03, -2.43125274e-03, -5.84950298e-03,
          1.62495975e-03, -2.64673587e-03, -4.56985505e-03,
          -1.01703694e-02, -4.83765872e-03, -7.55749526e-04,
          1.36485789e-03, -1.27173582e-04, 1.04387547e-03,
          -6.63679442e-04, -3.89551930e-03, -1.93686457e-03,
          -8.14620405e-03, -4.28030174e-03, -4.26176516e-03,
          4.15188679e-03, -3.73607822e-04, 1.62285485e-03,
          1.20815239e-03, 3.20061925e-03, -6.66469132e-05,
          -4.58076643e-03, -1.82716292e-04, 1.12878229e-03,
          2.48596119e-03, 2.91189831e-03, -3.73410131e-03,
          -7.99272151e-04, -4.27376339e-03, -7.56965345e-03,
          -1.08462768e-02, -4.18176735e-03, -1.41796598e-03,
          2.90168915e-03, -1.73337059e-03, -4.25445120e-04,
          4.43317142e-04, -4.49081743e-03, -1.13729555e-02,
          -1.58800483e-02, -4.48975619e-03, -2.08027987e-03,
          2.07252125e-03, -2.44317134e-03, -5.46065101e-04,
          9.37816687e-04, 5.34120540e-04, -2.64842995e-03,
          -6.25492027e-03, 1.09646970e-03, 8.75234604e-04,
          6.69597834e-03, -8.97163991e-04, 4.02012188e-03,
          5.58839273e-03, -3.68654937e-03, -1.02506420e-02,
          -1.24566229e-02, -1.86619861e-03, -6.53317111e-05,
          5.82389347e-03, 5.60134416e-03, 3.02764121e-03,
          -8.70191783e-04, -4.61078994e-03, -1.00547457e-02,
          -1.12187965e-02, -2.39697983e-03, 6.10136602e-04,
          6.95487659e-04, -3.14687402e-03, 2.58484366e-03,
          -5.21876430e-03, -8.74145608e-03, -1.19125200e-02,
          -8.24926421e-03, -4.70513292e-03, -4.88936435e-03,
          -5.73438080e-03, 1.85405253e-04, 8.30106810e-03,
          3.26193753e-03, -2.45530717e-03, -1.00559555e-02,
          -6.86052442e-03, 3.23722349e-03, 8.75880476e-03,
          1.02734677e-02, 9.16283112e-03, 4.11017099e-03,
          -2.12298124e-03, -6.61901990e-03, -1.23653049e-02,
          -5.63260214e-03, 3.16716410e-04, 5.73003851e-03,
          9.37972683e-04, 1.97199243e-03, -1.48439826e-03,
          -5.25707658e-03, -4.48340457e-03, -1.23837274e-02,
          -5.69775607e-03, -7.54758483e-04, -1.73959229e-03,
          -2.04184325e-03, 6.44110783e-04, -1.10339522e-02,
          -9.29894205e-03, -8.41981452e-03, -1.10446708e-02,
          -1.01104788e-02, -5.30373259e-03, -2.88291834e-03,
          -2.75178743e-03, -5.10649243e-03, 1.21194636e-02,
          -6.52397925e-04, -1.57804985e-03, -8.02060124e-03,
          1.55441067e-03, 5.06556034e-03, 1.34961668e-03, 9.45966877e-03,
          1.47348372e-02, -3.23634874e-03, -9.01075080e-03,
          -6.92966813e-03, -9.54090804e-03, -5.99439349e-03,
          1.88996131e-03, -1.61431334e-03, 5.97840548e-03,
          8.52766912e-03, -4.98800771e-03, -7.48862233e-03,
          -7.91305862e-03, -6.47274777e-03, -2.00679433e-03,
          -1.36476860e-03, 1.41326815e-03, -1.43161963e-03,
          -2.10842141e-03, -4.02299687e-03, -1.09935626e-02,
          -8.76918808e-03, -6.41380064e-03, -3.54666775e-03,
          -3.42934323e-03, -1.45745196e-03, -8.51022918e-03,
          -4.38455306e-03, -3.91245773e-03, -9.69627872e-03,
          -9.13662184e-03, -5.50334668e-03, -5.56336250e-03,
          5.55614382e-03, 1.05979561e-03, 7.22968020e-03, 2.36351532e-03,
          -4.64841304e-03, -1.19190654e-02, -1.00694997e-02,
          -8.84453394e-03, 6.00250997e-03, -2.79096363e-04,
          1.71689142e-03, -4.31018649e-03, -3.90117313e-03,
          1.14542359e-04, -6.32869452e-03, -3.61635885e-03,
          -3.95935914e-03, -1.01163157e-03, -1.30541844e-03,
          -1.06774620e-03, -6.54990925e-03, -8.45743169e-04,
          3.19489907e-03, -5.75467292e-03, -5.81195438e-03,
          -1.98309449e-03, -6.41583698e-03, -6.80781389e-03,
          -7.28856446e-03, -6.67131180e-03, 3.43154697e-03,
          -1.12707736e-02, -7.44710676e-03, -2.36476026e-03,
          -2.14643031e-03, 1.57106202e-02, 3.61441053e-03,
          2.00335355e-03, -4.25063539e-03, -9.15183872e-03,
          -1.04636392e-02, -5.17967902e-03, -3.24480934e-03,
          -1.99858355e-03, 4.34165681e-03, -2.78475112e-03,
          -3.03984969e-03, -7.28308689e-03, -8.85469187e-03,
          3.06467433e-03, -7.06550851e-03, -9.34778154e-03,
          -7.20812613e-03, -4.95252432e-03, -6.37383712e-03,
          -3.55534535e-03, -3.50525999e-03, 3.32640158e-03,
          -9.79052158e-04, -2.09950004e-03, -2.54978286e-03,
          -6.16080454e-03, 1.11446138e-02, 3.64536955e-03,
          1.57566555e-03, 6.00606378e-04, 2.62094871e-03,
          -2.32963706e-03, -4.94105741e-03, -4.86690458e-03,
          -1.19062711e-03, 8.05923901e-03, -3.64001980e-03,
          -3.67793650e-03, -6.19937060e-03, -2.54646875e-03,
          1.60090730e-03, -2.09364152e-04, 6.25988236e-04,
          -8.23562674e-04, 1.05207078e-02, -1.62720622e-03,
          -1.70750450e-03, -4.40290291e-03, 5.34057443e-04,
          -7.18471268e-03, -2.34827818e-03, -1.93438225e-03,
          -2.98888236e-03, 3.89741967e-03, -4.63909411e-04,
          -3.71808931e-03, -1.53529400e-03, -4.31420188e-03,
          -3.27023747e-03, -3.36716138e-03, -1.61865703e-03,
          -6.61510788e-03, 9.09056887e-03, -1.17216224e-03,
          -4.50218981e-03, -2.39679357e-05, -1.86872249e-03,
          -6.11772016e-03, -4.42121318e-03, -4.71601030e-04,
          2.07458041e-04, -1.68626884e-03, -4.66308091e-04,
          -1.13999075e-03, -4.34995070e-03, -5.69792045e-03,
          -7.97074009e-03, -6.07276941e-03, 1.40653283e-03,
          5.88028692e-03, 8.16643983e-03, 3.09121911e-03,
          -3.79149511e-04, -1.02813850e-04, -9.13227722e-03,
          -5.18745044e-03, -6.52472908e-03, -5.64211141e-03,
          -6.10343693e-03, -6.10445114e-03, -4.91535384e-03,
          -6.23518927e-03, -5.02067339e-03, -5.96112432e-03,
          -1.17475213e-03, -7.16618355e-03, -2.26630177e-03,
          1.56019419e-03, -4.14092047e-03, 1.70312368e-03,
          -5.65197028e-04, 1.27629738e-03, -2.95208488e-03,
          -4.18584328e-03, -5.77715784e-03, 1.45749538e-03,
          2.67340592e-03, -1.11975591e-03, -2.64647231e-03,
          -3.57268349e-04, -3.23747471e-03, -4.88596968e-03,
          2.68290145e-03, -3.20332288e-03, 4.94635571e-03,
          5.28089469e-03, 2.62005767e-03, 5.89259481e-03, 6.44319179e-03,
          1.16811297e-03, -3.43037624e-04, -4.50047059e-03,
          -7.40513299e-03, -1.15274023e-02, -1.87867275e-03,
          1.38788531e-02, 4.69260756e-03, -5.85522735e-03,
          -6.07876747e-04, -2.48339796e-03, -4.05053655e-03,
          -1.14241773e-02, -1.30428188e-02, -6.82852324e-03,
          9.53697227e-03, 2.53340253e-03, -4.26940341e-03,
          3.52176535e-03, -8.23505106e-05, -8.15195683e-03,
          -1.03630023e-02, -1.34533327e-02, -5.48169017e-03,
          9.43868048e-03, 1.49653095e-03, -9.44089517e-03,
          -4.99479659e-03, -1.69057210e-04, -4.23432933e-03,
          -8.37255549e-03, -9.62984841e-03, -5.86981885e-03,
          2.13100831e-03, 3.76853539e-04, -8.48466344e-03,
          -3.85281979e-03, 5.00417198e-04, -2.61003315e-03,
          -5.52299479e-03, -7.37779075e-03, -3.26136267e-03,
          -3.60724516e-03, 1.95881166e-03, 6.06989372e-04,
          5.30337682e-03, -8.07863471e-05, -1.51008356e-03,
          -7.24897860e-03, -4.91417805e-03, -1.36582158e-03,
          2.95191701e-03, 2.65602465e-03, 6.99170050e-04, 4.88333637e-03,
          3.11937270e-04, -5.09748003e-03, -4.98642307e-03,
          -7.30889197e-03, -1.01538445e-03, -1.04276149e-03,
          -1.28760503e-03, -6.41297363e-03, -9.83947306e-04,
          -9.73177026e-04, -1.33429409e-03, -3.29993386e-03,
          -3.80030274e-03, 2.78951856e-03, 7.10502791e-04,
          4.32346901e-03, -5.88625204e-03, 3.40822531e-04,
          4.54011746e-03, -1.56248582e-03, -5.65348798e-03,
          -3.27359163e-03, -3.55385989e-03, -2.80665467e-03,
          1.06938591e-03, -2.07545445e-03, -3.16320715e-04,
          -3.32502066e-03, 1.15156570e-03, 1.42535573e-04,
          3.33101512e-03, 2.83642276e-03, -1.32035045e-03,
          5.83925843e-03, 2.23132269e-03, -4.17917880e-04,
          -5.88052580e-03, -3.29140900e-03, -4.74170176e-03,
          -4.31694835e-03, -2.27819011e-03, -3.37502128e-03,
          1.33052317e-03, -8.12524557e-03, -3.92852072e-03,
          -1.57856103e-03, -1.00935751e-03, -5.46654919e-04,
          -8.84635490e-04, -1.54532536e-04, 1.65149060e-04,
          4.10803920e-03, 1.03105919e-03, -9.33215197e-05,
          -3.14510573e-04, -2.98646116e-03, 3.38706537e-03,
          3.90371028e-03, 2.43683509e-03, -2.11592950e-03,
          2.66252877e-03, -3.65908054e-05, 1.72519381e-03,
          -8.09557177e-03, 1.26818253e-03, 5.59357554e-03,
          -9.10185627e-04, -3.58642894e-03, -7.46256812e-03,
          -1.65883894e-03, -7.65260702e-05, 1.35957380e-03,
          9.88652464e-04, -2.23135855e-03, 2.79787695e-03,
          2.52643763e-03, -5.93999692e-04, -1.32177619e-03,
          7.49341852e-04, 3.87540669e-04, -3.49744572e-04,
          -2.99898675e-03, -7.90130696e-04, 4.00026511e-05,
          -1.43137795e-03, -4.36869729e-03, -6.27225870e-03,
          -8.11207807e-04, 4.49428335e-04, 4.14103922e-03,
          1.35860092e-03, 3.73759633e-03, 4.39370424e-03, 4.89129918e-04,
          -4.43883287e-03, -7.11179525e-03, 2.89463275e-03,
          2.81685358e-03, 7.42752617e-03, 1.50878879e-03,
          -5.02462673e-04, -3.30117228e-03, -5.94426412e-03,
          -8.34996998e-03, -1.86633621e-03, 5.33995545e-03,
          9.17776302e-03, 4.67250356e-03, 1.39245286e-03,
          -4.20588301e-03, -3.15014902e-03, -5.17301587e-03,
          -4.40618815e-03, -5.31864725e-03, 4.65091737e-03,
          8.42767302e-03, 1.05433594e-02, -9.23367043e-04,
          -5.28736738e-03, -7.11201923e-03, -8.31888430e-03,
          -7.48849707e-03, -1.13002630e-03, 8.04909039e-03,
          5.64524764e-03, 5.84182562e-03, -1.47261657e-03,
          2.26710271e-03, -3.26950918e-03, -5.40195452e-03,
          -7.14827655e-03, 2.67804181e-03, 5.28068841e-03,
          8.05373117e-03, 8.32376629e-03, 5.24477195e-03,
          -7.58985523e-03, -7.16238609e-03, -6.27349503e-03,
          -6.96849450e-03, -5.42630302e-03, 1.06107036e-03,
          2.51570623e-03, 4.83071245e-03, -1.98023254e-03,
          1.02096610e-03, -3.03938007e-03, -7.44784577e-03,
          -5.81557723e-03, 4.62221273e-04, 4.72147577e-03,
          8.49598926e-03, 8.12863652e-03, 5.13112266e-03,
          -2.69279326e-03, -1.42124097e-03, -2.47928477e-03,
          -2.93520815e-03, -5.17040491e-03, -1.15976389e-03,
          5.73463505e-03, 7.19449576e-03, 4.04922850e-03,
          -4.89639398e-03, -7.66347675e-03, -5.90746384e-03,
          -3.38763674e-03, -7.50667695e-03, -8.23194510e-04,
          1.01576664e-03, 2.45719659e-03, -4.54230560e-03,
          -5.89440390e-03, -8.35091248e-03, -6.16847025e-03,
          -5.83270472e-03, -5.99616615e-04, -2.84235855e-03,
          -2.09347531e-03, -4.62637795e-03, -8.31347983e-03,
          3.35073820e-03, 2.15251814e-03, 2.17459421e-03, 1.65826932e-03,
          -5.00112027e-03, 1.16785814e-03, 3.67137906e-03,
          4.44916915e-03, 5.42790070e-03, 4.86086914e-03, 2.55559105e-03,
          6.84803992e-04, 6.28260430e-04, 2.60671205e-03, 3.73105542e-03,
          -1.93700625e-03, 5.18302026e-04, 5.79545554e-03,
          -1.14851696e-02, -6.66368240e-03, -3.11499345e-03,
          -5.20560518e-03, -2.62986054e-04, -2.87345634e-03,
          -4.39304858e-03, -6.04098756e-03, -1.05513372e-02,
          -1.01630464e-02, -3.98622127e-03, -3.23394686e-03,
          -1.80781796e-03, -2.58465763e-03, -5.89488260e-03,
          -6.33862894e-03, -6.46248367e-03, -8.64419807e-03,
          9.23152175e-03, 4.87006223e-03, 1.13977418e-04,
          -1.43695087e-03, 1.33187207e-03, 2.56449357e-03,
          1.67825702e-03, 2.66074669e-03, 1.38960965e-02, 1.27145527e-02,
          1.61355152e-03, -3.11914715e-03, -2.47409497e-03,
          1.74909062e-03, -1.47714349e-03, 1.31730211e-03,
          5.12742717e-03, 1.25748338e-02, -9.58456378e-03,
          -3.39325122e-03, -3.45932459e-03, -7.85354117e-04,
          -5.64575335e-03, -4.60600201e-03, -6.45675324e-03,
          -8.00185371e-03, -1.13505032e-02, -1.06744738e-02,
          -3.21749225e-03, -1.64965284e-04, 1.34706846e-03,
          -1.83430163e-03, -1.48271653e-03, -4.36485931e-03,
          -9.44362674e-03, -1.33643057e-02, 1.02049066e-02,
          1.85092376e-03, -6.45608990e-04, 1.40018424e-03,
          -1.99452136e-03, 1.06717856e-03, 3.14035476e-03,
          4.48375149e-03, 1.10322637e-02, 1.30478684e-02, 4.01666900e-03,
          5.32386871e-03, 4.87372465e-03, -1.45329826e-03,
          3.46145546e-03, 5.43999206e-03, 3.17058689e-03, 8.49640649e-03,
          -8.88083037e-03, -5.65399090e-03, 7.37864757e-04,
          1.63675460e-03, -3.96243157e-03, 2.19741545e-04,
          -3.69772222e-03, -8.09052680e-03, -1.11054610e-02,
          -4.52241069e-03, -5.42575261e-03, 2.60149594e-03,
          4.15625144e-03, -1.17582525e-03, -1.26510591e-03,
          -4.77642007e-03, -8.39239266e-03, -9.66945104e-03,
          6.21913420e-03, -7.58310081e-04, 3.52296303e-03,
          5.19477669e-03, -4.49278532e-03, 1.92993821e-03,
          2.43268412e-04, 3.75205564e-04, 4.68578562e-03, 8.98914039e-03,
          9.32173710e-03, 9.39954259e-03, 5.86174708e-03,
          -3.12604057e-03, 2.04567052e-03, -2.65763490e-03,
          -3.83617217e-03, 1.26166234e-03, -3.81890219e-03,
          -4.17157914e-03, 2.53556436e-03, 2.98179477e-03,
          -9.41633305e-04, -2.75623426e-03, -5.39659243e-03,
          -1.01309111e-02, -7.74419773e-03, 7.05477316e-04,
          -1.89384364e-03, 4.45432350e-04, 3.11227143e-03,
          4.62001190e-03, 5.39759453e-03, -1.47415907e-03,
          -4.74655582e-03, -4.52227937e-03, 3.56081175e-03,
          4.28263331e-03, 6.24095369e-03, 2.76471768e-03,
          -4.25203191e-03, -3.11466469e-03, -7.90447183e-03,
          -9.06121545e-03, -6.27933443e-03, 4.44622850e-03,
          4.23711957e-03, 3.73871345e-03, 5.56722097e-03, 4.53712046e-03,
          4.40643728e-03, -6.12499053e-03, -7.29804859e-03,
          -6.77399291e-03, -9.21775866e-03, -1.02068661e-02,
          -9.20562539e-03, -6.97782077e-03, 3.84199014e-03,
          -5.02271054e-04, -9.23495367e-03, -7.79216643e-03,
          -6.32709533e-04, -3.93528026e-03, -8.03542417e-03,
          -7.40246894e-03, -5.61921112e-03, 9.79433954e-03,
          -2.90043908e-03, -9.80231166e-03, -4.37537907e-03,
          2.31633821e-05, -3.79839493e-03, -6.12156931e-03,
          -8.96429643e-03, -3.25031509e-03, 6.14905404e-03,
          -3.66433850e-03, -9.08340421e-03, -6.94074435e-03,
          -1.23383012e-03, -1.29066955e-03, -4.29677824e-03,
          -5.82278240e-03, -4.62649111e-03, 9.21132788e-03,
          -2.18478078e-03, -8.60595237e-03, -1.98931573e-03,
          -7.46082223e-05, -2.71597924e-03, -3.96840973e-03,
          -6.37647836e-03, 4.83634270e-04, -2.04442348e-03,
          -3.76714906e-03, -8.15373287e-03, -2.70190067e-03,
          6.99118187e-04, -1.00310089e-03, -2.91930465e-03,
          -3.85732902e-03, 2.86527071e-03, 1.09626888e-03,
          3.23800463e-03, -1.01738758e-02, -2.05856445e-03,
          3.87610402e-03, 1.07418257e-03, -4.55225958e-03,
          -7.59558659e-03, -1.08807010e-03, 1.00535151e-04,
          2.93947803e-03, -1.40914379e-03, 2.29787012e-03,
          3.40340543e-03, 9.25666362e-04, -5.30239940e-03,
          -7.72043038e-03, 2.47733988e-04, 5.75911440e-03,
          4.18369705e-03, -3.94104375e-03, 2.97127920e-03,
          3.59574519e-03, -4.33196267e-03, -4.22990881e-03,
          -3.04185180e-03, 2.38803099e-03, -2.39494466e-03,
          3.96107323e-04, -1.17890118e-02, -4.59619937e-03,
          -5.19534573e-04, -2.49141594e-03, -2.34629912e-03,
          -4.20812238e-03, -5.91108110e-04, -6.41066523e-04,
          3.16461525e-03, 8.78823688e-04, 1.59457431e-03,
          -8.56873288e-04, -1.34639139e-03, -2.34132656e-03,
          -3.62312072e-03, 4.09933319e-03, 1.48125645e-03,
          7.75712324e-05, -5.77917136e-03, -1.48218847e-03,
          1.83732132e-03, 4.20071092e-03, -2.83882464e-03,
          -5.52731566e-03, 6.34975731e-04, 7.71613850e-04,
          5.21660456e-03, 3.57085984e-04, 2.81469268e-03, 6.54749572e-03,
          2.41485704e-03, 5.01927407e-03, 2.79031461e-03, 2.73652578e-04,
          3.31584387e-03, 1.22299523e-03, 6.17490732e-04,
          -4.88409889e-04, 1.26654410e-03, -2.43532518e-03,
          -1.38314476e-03, -6.20128959e-03, -1.65841880e-03,
          -4.10022959e-03, 6.33937598e-04, 6.33553544e-04,
          1.49586110e-03, -2.43905466e-03, 4.28950461e-03,
          1.40609336e-03, -7.26660294e-03, -5.22178190e-04,
          9.68392706e-04, 3.66106094e-03, 6.44591986e-04, 9.03163105e-04,
          5.85857173e-03, -2.89917551e-03, 9.98238538e-05,
          -4.06211388e-04, 3.02049518e-03, -4.09080833e-03,
          4.62233368e-03, -1.56334194e-03, -6.61471975e-04,
          -1.89904519e-03, -4.19035461e-03, -1.76024472e-03,
          -3.64009989e-03, -7.99929956e-04, -5.09731565e-03,
          2.99020973e-03, 3.13206483e-03, 4.47801640e-03,
          -5.00695687e-03, -4.35141660e-03, -3.60293197e-03,
          -5.95749076e-03, -3.39483703e-03, 8.01778864e-04,
          5.89853898e-03, 6.29296619e-03, 2.98943999e-03,
          -3.88625264e-03, 1.20802282e-03, 5.43712080e-03,
          8.11365247e-03, 4.73090261e-03, -2.26716790e-03,
          1.49939908e-03, -3.62981722e-04, 2.43999949e-03,
          1.50056975e-03, -3.14337923e-03, 2.90156482e-03,
          1.76316872e-03, -3.33007716e-04, 4.16418631e-03,
          -7.86788994e-04, -1.76584674e-03, 1.34331069e-03,
          -3.23485886e-03, 3.53637413e-04, -1.66775961e-03,
          -3.75807262e-03, -3.08293127e-03, 1.72885775e-03,
          4.12194291e-03, 5.59886126e-03, 4.71295835e-03, 3.88806313e-03,
          -6.34247251e-03, -1.78370636e-03, -2.06733518e-03,
          -3.02010356e-03, 1.82633987e-03, 1.42580480e-04,
          3.66128539e-03, 2.44273501e-03, 7.29584252e-04, 7.72787200e-04,
          1.48538337e-03, 1.61484932e-04, -3.19373305e-03,
          1.83312775e-04, -5.10266633e-04, -3.36973998e-03,
          -4.02812613e-04, 1.60772339e-04, -2.35382654e-03,
          -2.86260759e-03, -2.33505084e-03, -5.61074587e-04,
          3.67913349e-03, 2.84796185e-03, -6.13747106e-04,
          -2.72187928e-04, -4.81988711e-04, -6.62631029e-03,
          -4.00012126e-03, -2.95627420e-03, -3.33188521e-03,
          -2.10970570e-03, -2.44029984e-03, -2.35317438e-03,
          -1.13070523e-03, -2.39129714e-03, 2.98809656e-03,
          -1.45780225e-03, -1.56409037e-03, -5.18052955e-04,
          3.44326999e-03, -1.22887592e-04, -5.04239462e-03,
          -3.21484101e-03, 5.86486841e-03, -1.96122332e-03,
          -3.56951868e-03, -2.26795580e-03, -6.51731447e-04,
          -1.50156789e-03, -2.63191905e-04, -3.63691477e-03,
          -3.93648166e-03, 1.05030442e-04, 3.54273972e-04,
          -2.27404526e-03, -3.27406288e-03, 2.19023088e-03,
          -3.87388538e-03, -9.53065828e-05, -4.67490964e-03,
          -4.24143346e-03, 1.36767048e-03, 6.00272743e-03,
          -3.12845642e-03, -3.40989954e-03, -3.20089958e-03,
          -7.21876044e-03, -4.59617842e-03, -4.01681382e-03,
          -6.55214710e-04, 8.15371145e-03, 9.94355883e-03,
          -4.49103117e-03, -4.06881375e-03, -6.06609695e-03,
          -7.10265071e-04, -3.02860746e-03, 3.70908738e-03,
          3.68322688e-03, 1.23553481e-02, 5.33247506e-03,
          -8.74294856e-05, -3.46204941e-03, -8.54763086e-04,
          -1.01566827e-02, -5.35356440e-03, -4.02540527e-03,
          -8.46610870e-04, 4.53217141e-03, 7.60154799e-03,
          2.84884300e-04, 3.83503299e-04, -3.36412317e-03,
          -1.11698303e-02, -5.51107014e-03, -1.26047560e-03,
          1.41932594e-03, 8.28846358e-03, 7.52373040e-03,
          -2.80358968e-03, -3.14457342e-03, -3.40660824e-03,
          -5.05727483e-03, -2.56972737e-03, 7.84642296e-04,
          1.98520580e-03, 1.07492888e-02, 9.49208904e-03,
          -2.62325560e-03, -2.29651621e-03, -1.61791581e-03,
          -4.08997387e-03, -2.05094740e-03, 4.16631857e-03,
          4.27223369e-03, 1.06677655e-02, 5.71382744e-03, 4.02742811e-03,
          -3.15855665e-04, -1.77522888e-03, -7.23063154e-03,
          -4.59045963e-03, -1.02459185e-03, 2.53156060e-03,
          5.82155306e-03, 7.54555967e-03, 8.12083425e-04,
          -2.67423689e-03, -2.33789696e-03, -1.10752052e-02,
          -4.78474936e-03, -5.95492136e-04, 3.02369031e-03,
          5.83036803e-03, 7.70478463e-03, 1.87231088e-03, 2.12226994e-03,
          1.00589194e-03, -4.35232371e-03, -1.27952581e-03,
          1.30650960e-03, 1.87305594e-03, 5.14662219e-03, 7.70990923e-03,
          5.52002480e-03, 5.51763969e-03, -1.11154269e-03,
          -6.10837853e-03, -1.13073969e-03, -5.02699707e-03,
          -3.56101734e-03, 2.15117401e-03, 3.11930082e-03,
          -2.42235092e-03, -2.59167864e-03, -2.23872089e-03,
          -5.11695491e-03, 6.53247931e-04, -1.37436189e-04,
          5.46308933e-04, 3.01704626e-03, 5.64311352e-03,
          -2.78586592e-03, -3.50569864e-03, -2.99882726e-03,
          -5.72647247e-03, 5.17272251e-03, -1.16618210e-03,
          -2.09850539e-03, 1.74296519e-03, 8.16957559e-03,
          8.26923363e-03, 7.06752669e-03, -3.04859178e-03,
          -1.70810393e-03, 1.55249273e-03, -4.76292614e-03,
          -2.85528647e-03, 1.41817101e-04, 4.19036113e-03,
          6.36187848e-03, 7.31318863e-03, 2.21938011e-03, 2.09813961e-03,
          3.09709436e-03, -6.29869569e-03, -3.49123077e-03,
          -6.56284858e-03, 2.59920373e-03, -2.41236459e-03,
          1.16309419e-03, -1.04367884e-03, -9.62530146e-04,
          5.70140732e-03, 1.49438635e-03, 2.62662390e-04, 5.57660940e-04,
          -3.70154949e-03, -6.05467241e-03, 1.01130761e-04,
          2.32943869e-03, 2.53041071e-04, 2.35768757e-03,
          -6.50021946e-04, 6.67138433e-04, -6.70492183e-03,
          -4.85269818e-03, -6.21860661e-03, -7.58034829e-03,
          -4.89846244e-03, 7.81840645e-03, -3.23606585e-03,
          -9.08754114e-03, -6.92492351e-03, -4.21313103e-03,
          -5.13593946e-03, -7.40453089e-03, -6.18248899e-03,
          -5.05669881e-03, 1.04182111e-02, -1.77545263e-03,
          -8.53711274e-03, -2.77834223e-03, -1.87350227e-03,
          -5.56817790e-03, -3.13728955e-03, -4.13090875e-03,
          -6.42520376e-04, 1.02195963e-02, -2.44122668e-04,
          -7.53779989e-03, -5.86554548e-03, -5.17426850e-03,
          -9.25784931e-03, -7.21183186e-03, -5.17291063e-03,
          -3.42951319e-03, 4.55968548e-04, -4.20005666e-03,
          -7.58798607e-03, -5.29191410e-03, -3.27209686e-03,
          1.07908818e-04, -6.86655706e-03, -9.08918679e-03,
          -2.39998288e-03, 4.54722345e-03, 3.80028342e-03,
          -1.28370256e-03, 2.24356214e-03, 1.91833102e-03,
          5.02110552e-03, -4.17921785e-03, -8.47964268e-03,
          -4.02760319e-03, 4.29238519e-03, 2.89466558e-03,
          -2.80398736e-03, 6.54103141e-03, 6.74398290e-03,
          -6.70622941e-03, -6.55212300e-03, -1.15469750e-02,
          -5.14641870e-03, -2.66091665e-03, 6.96700357e-04,
          -3.26386420e-03, 2.97874125e-04, -2.07124627e-03,
          -2.35752715e-03, -6.24157814e-03, -1.47933383e-02,
          -7.30759930e-03, -5.33178495e-03, 1.23409519e-03,
          -5.47302654e-03, 3.10670678e-03, 9.37256089e-04,
          1.47152250e-03, -8.61294742e-04, -2.58458126e-03,
          -1.72230613e-03, -3.71738733e-03, 9.98340784e-06,
          -3.16900993e-03, 2.64968956e-04, 3.17784958e-03,
          7.87787046e-03, -2.79665459e-04, -4.06978233e-03,
          3.29982908e-03, 2.79415562e-03, 5.22420276e-03, 2.15330883e-03,
          2.52487930e-03, 8.01210292e-03, -5.25069842e-03,
          -3.65299056e-03, -9.05144215e-03, -4.99696238e-03,
          -8.57446436e-03, -1.55754539e-03, -6.59547839e-03,
          1.30514032e-03, -3.72962141e-03, -1.93156058e-03,
          -2.25491473e-03, -4.42989497e-03, -1.01696339e-03,
          -2.72608805e-03, 4.12549684e-03, -4.97531705e-03,
          -9.98646647e-05, 2.59896298e-03, 4.88239946e-03,
          9.98685719e-05, -5.71511872e-03, -3.16751283e-03,
          -5.08121355e-03, 2.60945503e-03, 5.94938581e-04,
          -2.77765852e-04, 5.93643077e-03, 5.05325617e-03,
          6.59699971e-03, 2.51061586e-03, -1.01197998e-04,
          -9.00533237e-03, -4.10479959e-04, -5.09037636e-03,
          -3.99565184e-03, 9.31069895e-04, -1.14303443e-03,
          -2.06461851e-03, -4.19758633e-03, -3.79268359e-03,
          -4.23554843e-03, 3.21169291e-03, -1.86242338e-03,
          1.98074710e-03, 2.53876438e-03, 6.18287083e-03,
          -5.10446378e-04, -2.89037731e-03, -1.67402392e-03,
          -1.26459301e-02, -7.81843555e-04, -4.70712641e-03,
          -3.26543930e-04, 2.40531121e-03, 5.39515307e-03,
          1.32331708e-02, 8.30281619e-03, 3.31551838e-03,
          -8.50282796e-03, -3.74039984e-03, -5.46253845e-03,
          -1.14955672e-03, -9.83486607e-05, -2.06025271e-03,
          6.82238163e-03, 4.63605626e-03, -2.03175383e-04,
          -5.78009943e-03, -7.25374743e-03, -7.81417172e-03,
          -7.26726255e-04, -3.87773174e-03, 7.76421325e-03,
          7.49319652e-03, 2.95848818e-03, 6.08956499e-04,
          -1.36586362e-02, -2.90678279e-03, -2.22133333e-03,
          1.19130604e-03, 2.25356314e-03, 4.49537905e-03, 4.87778522e-03,
          4.24672244e-03, -1.93733678e-04, -7.84319267e-03,
          -6.06575841e-03, -5.10022976e-03, -1.33991626e-03,
          -1.07716781e-03, 7.25813583e-03, 5.95919322e-03,
          6.42244751e-03, -6.33019517e-05, -2.31056032e-03,
          -3.42718698e-03, -6.87056035e-03, -1.85591663e-04,
          3.93973757e-03, 2.85442476e-03, 1.54689385e-03, 4.75712353e-03,
          2.26266868e-03, 6.40573970e-04, -7.37476104e-04,
          -5.57483453e-03, -4.56937635e-03, 6.18621649e-04,
          7.95616582e-03, 4.66614403e-03, 4.95346496e-03,
          -2.32919957e-03, -1.03360601e-02, -4.65038884e-03,
          -5.74636972e-03, 5.24692761e-04, 4.16778261e-03,
          1.26249375e-04, 3.30819562e-03, 4.64207307e-03,
          -3.06997099e-03, -9.28063784e-03, -4.25127475e-03,
          -7.08162738e-03, -5.31653874e-03, -3.62435309e-03,
          3.46478913e-03, 1.81519063e-04, 1.58121076e-03, 3.92256165e-03,
          -3.02539836e-03, -1.67482751e-04, -2.67066574e-03,
          -4.10289085e-03, 2.89782183e-03, 7.16806669e-03,
          -6.60934620e-06, -2.33910163e-03, 2.60867039e-03,
          -7.34135602e-03, -3.85571877e-03, -5.40138176e-03,
          -3.39327124e-03, 5.26929693e-03, -2.09777919e-03,
          -2.84796930e-03, -1.13330979e-03, -1.32725539e-03,
          -8.00256897e-03, -1.68356986e-03, -2.04709964e-03,
          -2.69127171e-03, -3.21688899e-03, -3.08558531e-03,
          -1.45662518e-03, -2.09108810e-03, -2.40546884e-03,
          -1.12003237e-02, -1.17570562e-02, -9.84280743e-03,
          -5.70528489e-03, -5.67327719e-03, 1.48753682e-02,
          5.01169683e-03, -9.47552850e-04, 1.71437068e-03,
          -9.50479507e-03, -4.52707103e-03, -2.39210902e-03,
          1.46390637e-03, 1.15467273e-02, 1.62316710e-02, 9.74595174e-03,
          5.33242524e-03, 1.42637594e-03, -7.62642315e-03,
          -6.15687994e-03, -2.89068953e-03, 2.07619928e-03,
          1.42434333e-02, -1.15763454e-03, -2.51961313e-03,
          -2.13960162e-03, -1.53906574e-03, -9.57444962e-03,
          -1.16762780e-02, -7.95733370e-03, -5.77041274e-03,
          -3.46555538e-03, -2.07135058e-03, -4.64832829e-03,
          -2.72600120e-03, 1.00736751e-03, -9.65695269e-03,
          -1.27318185e-02, -1.25491936e-02, -7.30383862e-03,
          -4.19382332e-03, 1.40632279e-02, 7.67552573e-03,
          3.96953337e-03, 4.20144899e-03, -4.36892640e-03,
          -5.54986717e-03, -2.33846647e-03, 1.65313005e-03,
          6.52349601e-03, 1.14917029e-02, 2.25435221e-03, 2.10902956e-03,
          1.98555202e-03, -7.06875697e-03, -4.10754792e-03,
          -1.09608693e-03, 2.35135248e-03, 1.12821171e-02,
          -3.65695776e-03, -4.91343066e-03, -1.07841881e-03,
          -2.64472801e-05, -6.51052268e-03, -9.29741468e-03,
          -6.85293786e-03, -3.84893385e-03, -6.29200647e-03,
          -3.84172052e-03, -6.85272319e-03, 1.08724530e-03,
          2.24954405e-04, -2.96700909e-03, -5.96374087e-03,
          -3.32196173e-03, -2.32030591e-03, -3.39627638e-03,
          2.92062154e-03, -3.37198057e-04, -7.75611406e-05,
          4.90316481e-04, -5.11578610e-03, 2.81581166e-03,
          4.98354668e-04, 3.08947638e-03, 9.37704649e-03, 5.71207656e-03,
          -2.91287038e-03, -1.35186280e-03, 3.96868709e-04,
          -3.31374723e-03, 7.20272865e-03, 4.78578592e-03,
          9.57468711e-03, 1.08662145e-02, -5.46064600e-03,
          -5.44972299e-03, -5.06139659e-05, -2.31304951e-03,
          -3.87282996e-03, -1.07708748e-03, 1.54305436e-03,
          1.44760788e-03, -4.67322627e-03, -2.14044633e-03,
          -6.40251162e-03, -6.55740406e-03, -1.47422799e-03,
          -2.29572202e-03, 6.52518496e-03, 5.00217872e-03,
          6.67968113e-03, -1.94865582e-03, -2.26561664e-04,
          -6.22680318e-03, -5.85187576e-04, 1.89963693e-03,
          -6.11731957e-04, 6.90592593e-03, 5.81524242e-03,
          6.81032008e-03, 3.67711461e-03, -4.71294718e-03,
          -1.11303870e-02, -2.45234207e-03, 2.24690139e-03,
          2.73314468e-03, 5.75388269e-03, 7.37394439e-03, 6.01751171e-03,
          -2.66817678e-03, -2.65929289e-03, -5.86020574e-03,
          -5.63608529e-03, -2.62847519e-03, 2.08943989e-03,
          8.41939356e-03, 7.56491348e-03, 8.22513830e-03,
          -3.14700301e-03, -5.97746065e-03, -8.88537709e-03,
          -5.13981748e-03, 2.72402400e-03, 3.36500630e-03,
          8.69573746e-03, 6.01211051e-03, 5.42167621e-03,
          -5.86427143e-03, -1.49962888e-03, -2.94124126e-03,
          -6.26646215e-03, -2.87902704e-03, 9.12728719e-03,
          -1.52729114e-03, -4.88691591e-03, -2.86714244e-03,
          -1.42154377e-03, -5.52288024e-03, -3.60615109e-03,
          -3.63406679e-03, -2.59956322e-03, -6.48196228e-03,
          -4.91825771e-03, -6.28185738e-03, -3.12851043e-03,
          -3.24006396e-04, -4.34153993e-03, -5.54852746e-03,
          -1.09156938e-02, -8.49407632e-03, 2.59743584e-03,
          -3.10735428e-03, -8.19957443e-03, -5.75736351e-03,
          -3.78133077e-03, -2.27026583e-04, -5.26270410e-03,
          -6.13590749e-03, -5.03474381e-03, -8.18878971e-03,
          -6.54863007e-03, -6.33040536e-03, -2.61871959e-03,
          -2.89232866e-03, -4.14293911e-03, -3.25228157e-03,
          -5.84305637e-03, -2.89008277e-03, -5.36388066e-03,
          1.30131387e-03, -3.58716911e-03, 1.97114074e-03,
          8.89323710e-04, 4.34993999e-03, -4.39659273e-03,
          -1.35114929e-02, -6.25660876e-03, -4.21463465e-03,
          -5.20719623e-04, -3.55231296e-03, 3.30789015e-03,
          6.82858285e-03, 1.83576753e-03, -3.68314888e-03,
          -6.97628548e-03, -6.66831899e-03, -8.08358192e-03,
          -3.77914775e-03, -1.28171046e-03, 4.55612177e-03,
          2.21218355e-03, 1.48654752e-03, -5.76418824e-03,
          -9.80389025e-03, -1.04416413e-02, -5.65625494e-03,
          -7.26807304e-03, -2.09281873e-03, 3.51955602e-03,
          5.13334107e-03, 2.43238383e-03, -8.47747258e-04,
          -7.47145899e-03, -5.04268706e-03, -9.15143173e-03,
          -2.91121169e-03, -5.07096434e-03, 9.32825031e-04,
          1.74787804e-03, 2.52144388e-03, 1.92574531e-04,
          -7.15748582e-04, -1.46166293e-03, -5.44892682e-04,
          1.66391348e-03, -5.99717582e-03, -3.92147480e-03,
          2.52651004e-03, 1.43628189e-04, -3.58411431e-04,
          -5.98038221e-03, -6.88036298e-03, -1.04139885e-02,
          -8.54828954e-03, -1.85687083e-03, 1.39185903e-03,
          3.72638972e-03, -3.59557522e-03, 1.24501623e-03,
          -2.32080440e-03, -4.28311148e-04, -1.49389589e-03,
          -1.39445043e-03, -4.51136380e-03, -2.17583659e-03,
          -6.15116733e-04, 4.75664623e-03, 5.96679689e-04,
          -1.24727364e-03, -4.59888671e-03, -8.08841176e-03,
          -1.32169784e-03, -5.49444510e-03, -1.14258740e-03,
          2.59382906e-03, 8.44294950e-03, 5.27634891e-03,
          -3.60802282e-04, -1.65869389e-03, -1.38330460e-02,
          -2.13801977e-03, -3.20751476e-03, 3.65822739e-03,
          4.32812469e-03, -4.88087488e-03, 4.12175810e-04,
          -3.73747689e-03, -2.56507075e-03, -9.79260169e-03,
          -5.58816921e-03, -8.53641983e-03, -2.44714925e-03,
          -5.70212469e-05, -2.97687855e-03, -2.82551092e-03,
          -4.32319939e-03, 1.33586721e-03, -1.23728691e-02,
          -8.36792495e-03, -1.07517885e-02, -2.01303349e-03,
          1.20924925e-03, 1.29186790e-02, 1.01304715e-02, 6.11756369e-03,
          3.79824312e-03, -1.08027244e-02, -2.75178323e-03,
          -4.54225531e-03, 1.19077764e-03, 8.01619235e-03,
          3.02314945e-03, 5.10222325e-03, 3.35125695e-03, 9.02535219e-04,
          -8.10519420e-03, -4.27606236e-03, -5.48241660e-03,
          -1.75170659e-03, 3.63233412e-04, -1.22130860e-03,
          5.67528012e-04, -7.47346669e-04, 1.82990415e-03,
          -1.05538229e-02, -9.99972597e-03, -7.42054544e-03,
          -4.67880582e-03, 4.18558763e-03, -8.30680423e-04,
          2.77098297e-04, 7.25935795e-04, -1.53504300e-03,
          -1.22236358e-02, -8.12669657e-03, -7.39087025e-03,
          -5.27913449e-03, -1.83945615e-03, 1.07184798e-02,
          5.73364878e-03, 5.03505860e-03, -1.17355876e-03,
          -8.54154769e-03, -2.52683135e-03, -2.40723672e-03,
          1.91679259e-03, 7.16346968e-03, 7.62298284e-03, 4.50620800e-03,
          4.16782685e-03, -2.85351853e-04, -6.46629138e-03,
          -7.24470243e-03, -6.55604899e-03, -1.33449095e-03,
          -9.94606060e-04, 1.54413015e-03, 2.60149292e-03,
          2.56674760e-03, -1.39744929e-03, -1.11924410e-02,
          -6.93118945e-03, -5.30782761e-03, -3.90049769e-03,
          -2.08006077e-03, 9.64464096e-04, 1.74217229e-03,
          -9.03363631e-04, -4.25396999e-03, -8.39282200e-03,
          -1.01580443e-02, -6.63062744e-03, -5.03944885e-03,
          -6.60783378e-03, -2.06730547e-04, 3.44517222e-03,
          6.15263451e-03, 3.58988647e-03, -8.42402782e-03,
          -2.41829501e-03, -4.94307419e-03, -2.51948717e-03,
          -7.47372909e-03, -4.05694824e-03, 3.46074067e-03,
          5.87113388e-03, 4.32579126e-03, 3.74242221e-03,
          -9.11777280e-03, -8.34049471e-03, -7.28621939e-03,
          -6.04048651e-03, -1.73761719e-03, -2.49638106e-05,
          1.10551144e-03, 8.35232349e-05, -9.55072325e-03,
          -6.52720919e-03, -7.71439727e-03, -3.80941713e-03,
          -7.92025495e-03, -5.33320429e-03, -5.12778154e-03,
          -1.18985935e-03, 9.19309969e-04, -3.78323719e-03,
          -1.06783034e-02, -1.14505077e-02, -6.47420762e-03,
          -9.71884280e-03, -4.44070809e-03, -5.80405816e-04,
          3.35854711e-03, 9.18807928e-03, 9.42410994e-03,
          -8.13685730e-03, -4.22500726e-03, -3.65089602e-03,
          -3.84140015e-03, 5.22663584e-03, -5.46477363e-03,
          -2.24010670e-03, 5.33857895e-03, -4.29441314e-03,
          -8.17995518e-03, -5.43672778e-03, -2.76313606e-03,
          4.07505361e-03, -1.26614445e-03, -5.04941167e-03,
          -1.99160058e-05, 3.11952108e-03, -6.40465820e-04,
          -8.87554791e-03, -7.48136872e-03, -5.09729702e-03,
          -4.27428819e-03, -8.15582229e-04, -1.05365533e-02,
          -6.73742034e-03, -9.39853082e-04, -1.41582973e-02,
          -1.22711258e-02, -7.45279761e-03, -8.15489236e-03,
          -1.57206226e-03, 5.45105358e-05, -2.00166088e-03,
          9.77002666e-04, 6.30812626e-03, 6.36996003e-03,
          -6.10026717e-03, -4.25959704e-03, -9.53561743e-04,
          -9.50925751e-04, -9.22887214e-03, -5.49381273e-03,
          3.69851274e-04, -9.31266230e-04, 1.07816840e-02,
          -1.70924596e-03, 3.34289321e-03, -1.00962573e-03,
          -8.58018361e-03, -4.10433020e-03, -7.30196852e-03,
          -2.72858469e-03, 2.05776375e-03, 4.57231095e-03,
          -8.53547547e-03, -5.89480344e-03, -6.14287704e-03,
          -5.51196653e-03, -6.46787230e-03, -5.31527214e-03,
          1.49216678e-03, 1.65424729e-03, 1.22870021e-02,
          -5.27212722e-03, -2.60109245e-03, -5.47702843e-03,
          -6.37036562e-03, -8.80976021e-03, -6.26329333e-03,
          1.83080067e-03, 1.23670429e-03, 8.77603516e-03, 2.16924376e-03,
          2.36971397e-03, -1.07578014e-03, -7.37769902e-03,
          -1.45953428e-03, -4.43539862e-03, -1.40130077e-03,
          3.84688587e-03, 9.63206030e-03, 1.24791479e-02, 9.29283537e-03,
          -1.05089981e-04, -6.26680721e-03, -8.91024899e-03,
          -7.24620838e-03, 1.42629072e-03, 1.09015557e-03,
          5.78838913e-03, -4.82814939e-04, 1.81560894e-03,
          -2.19204975e-03, -8.97098519e-03, -6.92238612e-03,
          -8.10052641e-03, 4.55710397e-04, -1.07568828e-03,
          3.72784282e-03, 8.60676076e-03, 6.72262209e-03,
          -4.13309725e-04, -1.02250092e-02, -6.07381202e-03,
          -3.28260963e-03, -4.85390285e-03, -1.89875171e-03,
          2.28700391e-03, 5.07314410e-03, 7.18929281e-04,
          -7.30061205e-04, -8.78594629e-03, -5.81682939e-03,
          -4.40463563e-03, 6.78400276e-04, 6.29784772e-03,
          7.66165648e-03, 8.76258779e-03, 4.32193698e-03, 1.57845463e-03,
          -9.36764199e-03, -7.37822521e-03, -8.09869543e-03,
          -4.70882282e-03, -5.34963794e-03, -4.66679363e-03,
          5.16441977e-03, 2.88875948e-04, -2.00608931e-03,
          -1.24565139e-02, -1.81379833e-03, -3.02940514e-03,
          1.45667256e-03, 5.21427579e-03, 3.69479088e-03, 4.31740191e-03,
          1.97844510e-03, -2.98344763e-03, -9.44763049e-03,
          3.30913533e-03, 6.65907050e-04, -1.63605390e-03,
          -7.31856143e-03, -5.64543949e-03, -3.66663071e-03,
          -7.70958327e-03, -1.51368091e-03, 3.13489512e-03,
          7.99274538e-03, 9.94658563e-04, -4.44305968e-03,
          -4.44555609e-03, -4.48345253e-03, -4.04755864e-03,
          -5.42818429e-03, 3.52451461e-03, 8.81146733e-03,
          -1.79635326e-03, -6.02366496e-03, -7.58148450e-03,
          -8.77060834e-03, -7.00654089e-03, -7.76488986e-03,
          -1.05041228e-02, -5.43303927e-03, -1.03726261e-03,
          -2.79793586e-03, -7.01112067e-03, -6.57691993e-03,
          -9.66679584e-03, -9.95014422e-03, -9.19420458e-03,
          -1.09525695e-02, -3.32671870e-03, 2.92499317e-04,
          9.09637380e-03, 1.27622206e-03, -5.29167801e-03,
          -5.36921388e-03, -5.66890324e-03, -2.49062292e-03,
          -4.48141887e-04, 4.31905733e-03, 1.02762431e-02,
          1.12637868e-02, 1.24675583e-03, -5.38977236e-03,
          -6.81997137e-03, -6.20578881e-04, -5.68972528e-03,
          9.57305892e-04, 3.18461470e-03, 1.28114019e-02,
          -2.66060000e-03, -7.13605015e-03, -1.07647898e-02,
          -7.66266417e-03, -1.02392873e-02, -6.26383023e-03,
          -6.31587766e-03, -1.58830977e-03, 7.73953507e-04,
          5.45754156e-04, -5.76143852e-03, -7.65197165e-03,
          -7.87925255e-03, -1.29431160e-02, -9.00980085e-03,
          -3.15764290e-03, -5.25380136e-04, 2.17880472e-03,
          1.13724032e-02, 1.91874697e-03, -3.05017130e-03,
          -4.16512974e-03, -4.74663870e-03, -7.19602685e-03,
          -7.05639191e-04, 2.87120440e-03, 1.39016872e-02,
          1.29479577e-03, 1.92363898e-03, 2.15428974e-03, 2.28403183e-03,
          4.25360957e-03, 7.89292797e-04, -1.65831007e-03,
          1.66890898e-03, 3.84223438e-03, -2.92874738e-05,
          -7.28421938e-03, -6.76374231e-03, -5.53333387e-03,
          -1.96352024e-02, -1.13786478e-02, -5.08723268e-03,
          -4.90182138e-04, 9.89944558e-04, 6.19896979e-04,
          -5.65285282e-03, 1.05783191e-04, -1.78599497e-04,
          -3.50994314e-03, -4.85911220e-03, -5.68844844e-03,
          4.21753008e-04, 2.15759384e-03, -1.64745303e-04,
          -1.09567452e-04, 2.73369928e-03, 4.06145537e-03,
          1.99991465e-03, 1.18973781e-03, -5.38998330e-03,
          1.99281494e-03, 2.79414956e-03, 1.79942045e-03, 9.67636588e-04,
          1.89709920e-03, 1.26041030e-03, -1.09512894e-03,
          -2.88866740e-03, -7.13226432e-03, 1.62009359e-03,
          1.02358293e-02, -4.06600302e-03, -5.79522504e-03,
          -3.68754205e-04, -8.95666948e-04, -3.58105521e-04,
          -8.23106442e-04, -8.28711130e-03, -2.57834769e-03,
          5.25475596e-04, -4.16024821e-03, -3.85065656e-03,
          -8.01970658e-04, -3.30040138e-03, -2.51265196e-03,
          -5.25076361e-03, -9.56741069e-03, -5.94730023e-03,
          -4.02643869e-04, 4.69170860e-04, 3.03754420e-03,
          3.89826950e-03, 5.67817828e-03, -1.05403399e-03,
          -6.75684912e-03, -5.66633884e-03, -2.71501835e-03,
          7.88254198e-03, 6.74690353e-03, 2.43361620e-03, 6.97865849e-03,
          3.25389020e-03, -3.64405499e-03, -7.14619830e-03,
          -6.18953444e-03, -3.61744966e-03, 4.64747706e-03,
          1.42125660e-04, -2.95781880e-03, -4.67754842e-04,
          1.47373322e-03, -3.64516210e-03, -7.02606235e-03,
          -8.16785917e-03, -5.99150220e-03, 1.59536453e-03,
          -1.39109592e-03, -2.76735914e-03, -6.18229562e-04,
          3.52768227e-03, -3.43954540e-03, -9.16234404e-03,
          -1.01177385e-02, -8.34067166e-03, -3.06980615e-03,
          5.92439529e-03, 5.74032497e-03, 6.73899567e-03, 1.31303316e-03,
          -7.36312009e-03, -5.64064784e-03, -4.31399886e-03,
          -2.80018221e-03, -1.69433234e-03, 1.50076661e-03,
          4.08568798e-04, -5.49541670e-04, -5.18507673e-04,
          1.11389125e-03, -7.26745743e-03, -7.35046901e-03,
          -4.95515345e-03, -1.35900150e-03, 1.81604933e-03,
          2.95482430e-04, -2.20659119e-03, -3.29979137e-03,
          -5.25546866e-03, -7.81640317e-03, -7.15518557e-03,
          -8.52728356e-03, -2.69361376e-03, -1.74734753e-03,
          7.05006241e-04, -5.65357856e-04, 5.09859936e-04,
          -1.54357264e-03, -1.13745285e-02, -8.58433172e-03,
          -9.64859873e-03, -3.80166690e-03, 3.00748996e-03,
          -8.90014984e-04, -1.69776636e-03, -2.16487941e-04,
          4.34511621e-03, -5.44870785e-03, -6.62444159e-03,
          -4.37263399e-03, 2.29901704e-03, 3.53417033e-03,
          -5.24096237e-03, -2.71984865e-03, 1.69588719e-04,
          6.31928490e-03, -1.00103300e-02, -9.36135091e-03,
          -6.79165730e-03, 7.58281385e-04, -8.24954768e-04,
          -4.42259479e-03, -4.39565815e-03, -3.03328969e-04,
          -4.98150429e-03, -9.55111440e-03, -1.04747824e-02,
          -8.44957680e-03, -3.41243506e-03, -5.06040873e-03,
          -6.73099142e-03, -5.42565947e-03, -4.00005234e-03,
          2.25772848e-03, -1.06261969e-02, -1.19416071e-02,
          -1.13286125e-02, -9.26883146e-03, 6.82423403e-03,
          -2.27120589e-03, 1.97191187e-03, 2.76770419e-03,
          4.85658878e-03, -1.09611358e-02, -1.01408996e-02,
          -6.01544976e-03, 1.08652329e-03, 3.14154383e-03,
          -5.89488447e-03, -3.09243612e-03, -2.48308922e-03,
          -6.93697948e-03, -1.37638515e-02, -1.13695385e-02,
          -7.35988934e-03, 2.76062964e-03, 1.57182442e-03,
          -3.73206008e-03, 2.80829787e-04, -1.99020212e-03,
          9.65547655e-03, -1.16622644e-02, -1.09952232e-02,
          -1.02199400e-02, -3.19345552e-03, 4.09013266e-03,
          -9.10700578e-03, -7.62875983e-03, -6.03090227e-03,
          -5.32542169e-03, -1.43862162e-02, -1.20188752e-02,
          -9.77518130e-03, 3.65527067e-03, 2.03303280e-05,
          -6.15941593e-03, -2.94640451e-03, -6.88573229e-04,
          6.57728175e-03, -6.98791211e-03, -6.61369786e-03,
          -5.85862016e-03, -2.26974883e-03, 8.60903470e-04,
          -5.86167490e-03, -5.84470457e-04, 4.89765604e-04,
          5.14444290e-03, -2.91927857e-03, -6.91178357e-05,
          -3.80525505e-03, -2.93418812e-03, 4.57660574e-03,
          -8.15980230e-03, -4.60652774e-03, -2.70642317e-03,
          1.59588212e-03, -9.06181894e-03, -6.56314474e-03,
          -5.77829732e-03, 4.85575153e-03, 3.77887860e-03,
          -7.16936868e-03, -4.59345942e-03, -6.75586844e-03,
          5.73049206e-03, -2.76790559e-03, 4.40581748e-03,
          -2.30510463e-03, 1.79606793e-03, -4.84644249e-03,
          -7.83578027e-03, -2.09663273e-03, 1.88800320e-03,
          4.01715841e-03, 7.23789504e-04, 3.67944059e-03,
          -1.01901998e-03, -9.53033380e-03, -6.32969942e-03,
          -9.81506333e-03, -4.34555626e-03, 1.14454585e-03,
          2.95473915e-03, 8.45996570e-03, 1.14519922e-02, 4.47767973e-03,
          -9.17059556e-03, -7.77477690e-04, -6.92390464e-03,
          -4.11068322e-03, -4.98806732e-03, 8.80215131e-03,
          1.81744143e-03, 6.85143983e-03, -3.00586922e-03,
          -5.63534163e-03, 2.84593443e-06, -6.51461305e-03,
          -3.56825884e-03, 1.09560404e-03, 1.25800166e-02,
          -9.47392909e-05, 2.32336577e-03, -3.13367508e-03,
          -5.76075399e-03, -7.56467227e-03, -3.93871730e-03,
          2.39655469e-03, 1.23987556e-03, 2.32647103e-03, 6.01014402e-03,
          5.01996186e-03, 4.30797553e-03, -5.86159807e-03,
          -7.08247116e-03, 9.07101389e-03, 1.56841297e-02,
          6.00636657e-03, 5.62572805e-03, 9.41751711e-03, 7.14125065e-03,
          5.08969557e-03, -5.54941641e-03, -9.02860891e-03,
          -5.41498465e-03, -1.62977970e-03, 4.55059484e-03,
          4.63087531e-03, -1.71603891e-03, -3.07300151e-03,
          -4.54066833e-03, -9.00468417e-03, -9.82308853e-03,
          -5.37061505e-03, 2.78186606e-04, -1.58151830e-04,
          4.60741529e-03, -1.89159403e-03, -4.64838929e-03,
          -7.68093904e-03, -1.43156955e-02, -2.84710852e-03,
          -6.72610942e-03, -8.49823654e-03, -6.14826847e-03,
          -1.33294787e-03, -3.72610195e-03, -2.26738490e-03,
          -7.93430430e-04, -2.84374063e-03, 1.67577213e-03,
          -9.66821425e-03, -8.13436322e-03, -8.05592537e-03,
          5.28436434e-03, -4.91060782e-03, -4.92509501e-03,
          -1.59513019e-03, 5.54536656e-03, -6.20594015e-03,
          -1.13254720e-02, -8.18425417e-03, -1.06761958e-02,
          -6.63227402e-04, -7.67013431e-03, -4.15040785e-03,
          -1.96979032e-03, -2.32338975e-03, 1.13977026e-03,
          -9.45277326e-03, -8.43727123e-03, -1.17831379e-02,
          -1.21421588e-03, -9.23666544e-03, -7.43957376e-03,
          -4.11344972e-03, 3.98671534e-03, -2.88285757e-03,
          -9.24866647e-03, -7.19065219e-03, -6.91088336e-03,
          -4.29737032e-04, -3.46218934e-03, -2.01628543e-03,
          4.68561075e-06, 1.83454307e-03, -4.24625978e-05,
          -3.85665917e-03, -2.14138930e-03, -5.51220682e-03,
          4.90147620e-04, -5.01142815e-03, 1.63908495e-04,
          -1.31298520e-03, 2.87624821e-03, 1.18542509e-03,
          -3.46056954e-03, -4.54182783e-03, -9.40902904e-03,
          -5.64807560e-04, -5.99568244e-03, -5.23346057e-03,
          -3.58263706e-03, 3.63967381e-03, 4.39139316e-03,
          -4.30844445e-03, -1.72327936e-03, -6.78068167e-03,
          4.19165520e-03, -3.65770748e-03, -3.66715761e-03,
          -6.67307340e-03, 4.65516094e-03, -3.48715484e-03,
          5.79324784e-04, 2.66589038e-03, -1.35699904e-03,
          -1.21248290e-02, -9.20872763e-03, -2.97761452e-03,
          -5.54024649e-04, -6.66754844e-04, 2.38192602e-04,
          -1.31915172e-03, 3.87902185e-03, -5.26809090e-05,
          3.13276495e-03, -5.10971062e-03, -3.52792535e-03,
          7.20794953e-04, 7.66449235e-03, 4.28936910e-03,
          -3.99577711e-03, -2.97502684e-03, -4.72166855e-03,
          -6.33640401e-03, -7.01379124e-03, -4.60994896e-03,
          -4.71507013e-03, 5.06201899e-03, 5.32139791e-03,
          -1.92012719e-03, -5.10580081e-04, -2.20581004e-03,
          8.77975952e-03, -6.83751842e-03, -5.90206124e-03,
          -4.20629885e-03, 7.33787613e-03, 4.26584098e-04,
          -3.23499157e-03, 5.13417320e-03, -1.56687421e-03,
          5.91917476e-03, -8.97755555e-04, -5.04343770e-03,
          -1.53520925e-03, 5.98932896e-03, -3.81364045e-03,
          -4.48586373e-03, 3.62177426e-03, -2.08016043e-03,
          3.22714774e-03, -3.74533539e-03, -5.38213458e-03,
          -2.86631682e-03, 1.07480283e-03, 3.11088795e-03,
          -4.45161946e-03, -1.65311422e-03, -4.85882070e-03,
          2.74166139e-03, -4.02899785e-03, -7.17821624e-03,
          -6.99022133e-03, 7.84395449e-03, -2.37788609e-03,
          -6.99271541e-03, -4.20964183e-03, -6.82779681e-03,
          -1.67133380e-03, -5.21994382e-03, -7.99526926e-03,
          -5.21453936e-03, 5.77885658e-04, 2.30776356e-03,
          -2.63261981e-03, 2.02367408e-03, 3.33192380e-04,
          4.88279341e-03, -5.49749052e-03, -6.17114967e-03,
          -4.68950579e-03, 1.17369369e-03, 2.72830878e-03,
          -1.91696535e-03, -1.71800755e-04, 1.89009146e-03,
          -2.78510246e-03, -5.14915073e-03, -1.02488128e-02,
          -9.49832052e-03, -4.31211054e-04, 1.09443336e-03,
          -6.58415770e-03, -5.24866953e-03, -8.19019228e-03,
          4.20927536e-03, -5.04123094e-03, -7.90427346e-03,
          -5.16997976e-03, 2.32103583e-03, -8.58662301e-04,
          -7.09043024e-03, -7.44917104e-03, -4.38655447e-03,
          2.16049445e-03, -4.45008604e-03, -1.24628674e-02,
          -1.16439415e-02, -1.55780988e-03, 5.33731235e-03,
          1.26949139e-03, -8.14941886e-04, -2.34294636e-03,
          -5.30390185e-04, -5.56427753e-03, -7.32386298e-03,
          -8.52142833e-03, -2.52204132e-03, 5.17204963e-03,
          1.65000837e-03, -3.40756238e-03, -4.21372475e-03,
          1.29721814e-03, -1.01667307e-02, -1.00207515e-02,
          -1.11485524e-02, -1.45430595e-03, 1.63197820e-03,
          -5.94104826e-03, -8.74916185e-03, -4.42900928e-03,
          1.07711683e-04, -8.07551946e-03, -1.06521146e-02,
          -1.18651362e-02, -1.66583585e-03, -3.10738734e-03,
          -6.49515307e-03, -9.56447702e-03, -9.22403485e-03,
          1.19427103e-03, -1.29674030e-02, -1.75933726e-02,
          -1.69481225e-02, -6.45238766e-03, 7.69807398e-03,
          1.31980516e-03, -2.02092528e-03, -1.56504894e-03,
          -3.29099013e-03, -9.49425623e-03, -1.05853183e-02,
          -9.70853027e-03, -1.17660442e-03, -3.01093142e-03,
          -6.93784561e-03, -1.98254967e-03, -1.41902873e-03,
          6.00845879e-03, -8.49900022e-03, -1.09358672e-02,
          -1.16415890e-02, -5.72387083e-03, -1.99256605e-03,
          -6.00302545e-03, -8.46922304e-03, -9.23471805e-03,
          -3.38969240e-03, -1.16685303e-02, -1.32124471e-02,
          -1.41752521e-02, -4.57629049e-03, 4.21114452e-03,
          -1.15420334e-02, -1.22110369e-02, -7.90405460e-03,
          -4.57718736e-03, -1.43044954e-02, -1.37116406e-02,
          -1.43972710e-02, 4.25645523e-03, 8.35524115e-04,
          -4.68489667e-03, -1.00593036e-03, -9.21849161e-04,
          1.70855001e-02, -6.81645842e-03, -6.47021784e-03,
          -8.42318870e-03, 1.42472418e-04, 2.59092078e-04,
          -7.77315721e-03, -6.72170939e-03, -6.15995564e-03,
          7.88698718e-03, -9.02379025e-03, -7.43585639e-03,
          -6.55942969e-03, 3.12184216e-03, 1.68572972e-03,
          -8.01366195e-03, -9.13622137e-03, -1.09272720e-02,
          5.82964858e-03, -1.14440341e-02, -1.05966069e-02,
          -8.28172918e-03, 2.38542818e-03, 2.46521039e-03,
          -8.82126950e-03, -1.10512283e-02, -1.62867773e-02,
          -2.49910820e-03, -1.27640301e-02, -5.16174594e-03,
          -5.10203466e-03, 4.25297813e-03, -3.97672266e-04,
          -5.97928045e-03, -4.45280410e-03, -4.56990395e-03,
          2.15946906e-03, -9.13693476e-03, -6.03330741e-03,
          -5.35319326e-03, 9.51703230e-04, 2.76379264e-03,
          -7.29280291e-03, -3.65985720e-03, -5.33435307e-03,
          1.41958408e-02, -2.13739020e-03, 5.39946416e-03,
          -2.17950344e-03, 1.59312226e-03, -1.07023188e-04,
          -5.78873465e-03, -7.02864164e-03, -1.23391598e-02,
          2.41237786e-03, -8.75475723e-03, -1.94052944e-03,
          -3.34399403e-03, 2.75332853e-03, 8.92695447e-04,
          -7.23991822e-03, -4.00217017e-03, -1.21336654e-02,
          1.19023724e-02, -3.64049245e-03, 3.35610751e-03,
          -3.30976164e-03, 1.41433184e-03, 4.07113601e-03,
          -3.49561358e-03, -8.54238984e-04, -4.64822818e-03,
          1.32985394e-02, 2.68419099e-04, 4.66273353e-03,
          -3.40834283e-03, -5.07369870e-04, 8.78196210e-03,
          -1.64817937e-03, 1.81897357e-03, -1.35511928e-03,
          1.13120386e-02, -5.51851513e-03, -3.93864990e-04,
          -4.82860720e-03, 1.97705766e-03, 4.79851756e-03,
          -1.99037604e-03, 5.91431686e-04, -9.76487994e-03,
          9.84882843e-03, -4.68561705e-03, 7.06945575e-05,
          -6.15267456e-03, 3.95924971e-03, 7.52588082e-03,
          -4.08551982e-03, -1.70512428e-03, -5.40455943e-03,
          9.01826471e-03, -1.37207629e-02, -8.88638292e-03,
          -9.08256415e-03, -3.26572219e-04, -1.51740841e-03,
          -4.45743045e-03, 2.74110329e-03, 5.44106355e-03,
          1.25640556e-02, -4.29157726e-03, -4.64429054e-03,
          -7.27661094e-03, -2.55260849e-03, -1.14220148e-02,
          -4.30098316e-03, -2.99226702e-03, 4.18204349e-03,
          1.39052449e-02, -1.77944382e-03, -4.83548315e-03,
          -8.11073091e-03, -1.15384683e-02, -3.60772223e-03,
          -3.64898634e-03, -2.05892744e-03, 4.37060557e-03,
          7.20088044e-03, -1.18529880e-02, -1.13823572e-02,
          -9.89004690e-03, -6.60055317e-03, -9.69715603e-03,
          -9.42143053e-03, -6.41805027e-03, -7.59765878e-03,
          9.14021395e-03, -9.54816490e-03, -9.75747127e-03,
          -9.05981939e-03, -9.12963692e-03, -2.62261764e-03,
          -1.16029726e-02, -7.43422611e-03, -8.41311458e-03,
          -3.48963728e-03, -9.63766873e-03, -6.54283306e-03,
          -3.66352848e-03, -8.49909149e-04, 7.26589793e-03,
          -7.91821163e-03, -6.56737760e-03, -1.07218567e-02,
          3.24006542e-04, -8.37051217e-03, -6.47381879e-03,
          -6.41904911e-03, 6.79460075e-03, -1.01311202e-03,
          -7.86210690e-03, -1.04760472e-02, -8.23316257e-03,
          1.73757679e-03, -8.42000358e-03, -9.59463976e-03,
          -6.42835908e-03, -3.56715336e-03, 1.92557496e-03,
          -6.11267611e-03, -6.30984874e-03, -9.12473351e-03,
          7.42133288e-03, -8.78013857e-03, -9.40377079e-03,
          -9.72510967e-03, -2.92603928e-03, 3.98737006e-03,
          -2.23349873e-03, 8.92616925e-04, -7.83239398e-03,
          3.59329209e-03, -7.30413757e-03, -6.70300471e-03,
          -7.72843231e-03, 5.36640408e-03, -5.13140578e-04,
          -4.61156433e-03, -2.38888408e-03, -8.78047571e-03,
          2.62423023e-03, -4.50419541e-03, -7.34125823e-03,
          -9.93885472e-03, -6.25813380e-04, -1.39169057e-03,
          -5.76176774e-03, -3.87719087e-03, -5.84151829e-03,
          8.35010316e-03, -8.51343572e-03, -7.00938515e-03,
          -9.49811563e-03, -2.37823860e-03, 6.29029644e-04,
          -6.59268070e-03, -5.56964474e-03, -6.63984427e-03,
          3.14615085e-03, -7.21993251e-03, -4.30474477e-03,
          -4.94633429e-03, -1.42634253e-03, 2.07093637e-03,
          -4.71285079e-03, -2.50889803e-03, -7.60362158e-03,
          -2.92776595e-03, -7.16424687e-03, -4.40744963e-03,
          -6.10252190e-03, 9.49312409e-04, 3.33348638e-03,
          -8.47292785e-03, -4.40314226e-03, -2.64173117e-03,
          9.04522836e-03, -8.10938422e-03, -5.81140164e-03,
          -4.28934768e-03, 4.82895458e-03, -1.24476315e-03,
          -6.28062151e-03, -4.18270426e-03, -6.63790712e-03,
          2.49815639e-03, -5.31908032e-03, 6.34034106e-04,
          -3.00479750e-03, -1.56194961e-03, -2.64106994e-03,
          -6.58828998e-03, -3.39047052e-03, -4.09175875e-03,
          1.14927599e-02, -5.91254095e-03, -4.15876834e-03,
          -4.63231420e-03, -1.89075863e-03, 5.73044224e-03,
          -7.53506273e-03, -4.12573433e-03, -2.24425271e-03,
          6.09405281e-04, -6.12342218e-03, -6.58521568e-03,
          -4.50903550e-03, 1.10579804e-02, 3.55706876e-03,
          -1.00900792e-02, -7.22131040e-03, -7.42930546e-03,
          -6.86693471e-03, -6.72039716e-03, -5.53248730e-03,
          -3.48083000e-03, 9.15738288e-03, -3.79089452e-03,
          -6.61659846e-03, -2.91193719e-03, -3.03991954e-03,
          -2.76347273e-03, -6.51247147e-03, -3.55578522e-04,
          -1.79386919e-03, -3.00625688e-03, -2.59109984e-05,
          -1.07438657e-02, -7.22102169e-03, -2.75953766e-03,
          -6.69062138e-03, -8.79247766e-03, -6.87863072e-03,
          -8.10841750e-03, 6.40128565e-04, 1.06230387e-02,
          -6.62617851e-03, -5.84322400e-03, -7.98216742e-03,
          -9.35114163e-04, -4.90636192e-03, -6.15274021e-03,
          -3.42206378e-03, 1.25036053e-02, 5.09633590e-03,
          -7.55708804e-03, -1.13739269e-02, -8.65728129e-03,
          -1.80400128e-03, -9.03863832e-03, -1.19483173e-02,
          -1.03818839e-02, 3.08592757e-03, 5.29467477e-04,
          -1.02265896e-02, -9.29195154e-03, -6.50112703e-03,
          1.51171442e-03, -7.96912890e-03, -8.56086705e-03,
          -6.29409496e-03, 2.68228189e-03, -4.45518270e-03,
          -9.20694415e-03, -8.92116781e-03, -1.20767951e-02,
          -5.34624560e-03, -1.08874813e-02, -1.62249394e-02,
          -1.20202163e-02, -3.71874683e-03, 2.96616135e-03,
          -3.31790070e-03, -7.86706991e-03, -5.42565901e-03,
          4.22788924e-03, -1.11400085e-02, -1.36140799e-02,
          -1.10603580e-02, 7.42824981e-04, -1.22372620e-03,
          -4.11036098e-03, -7.92165659e-03, -9.57547501e-03,
          1.96440984e-03, -1.51958419e-02, -1.86209604e-02,
          -1.52321644e-02, -6.50143903e-03, -2.13930802e-03,
          -4.92318859e-03, -6.26614969e-03, -9.46761947e-03,
          -4.09052707e-03, -1.12782344e-02, -1.49822989e-02,
          -1.13879126e-02, -2.42799101e-03, -7.34089059e-04,
          -7.68318679e-03, -6.98277261e-03, -9.30691697e-03,
          6.18393021e-03, -1.31785944e-02, -1.65794361e-02,
          -1.14405332e-02, -3.64615535e-03, 1.67420157e-03,
          -4.25964640e-03, -5.02451928e-03, -9.07926541e-03,
          -1.73749065e-03, -1.18898563e-02, -1.36033725e-02,
          -1.33363903e-02, -2.08187243e-03, 1.49533502e-03,
          -7.92109314e-03, -1.06870690e-02, -1.11826621e-02,
          -7.05204159e-03, -1.33594889e-02, -1.53438905e-02,
          -1.26332426e-02, -4.73837645e-05, -2.67389952e-03,
          -7.67845847e-03, -5.64572355e-03, -8.79429560e-03,
          -1.15038292e-03, -1.03593767e-02, -1.45445829e-02,
          -1.15279239e-02, -3.94076109e-03, 2.36995704e-03,
          -5.80635667e-03, -6.73582545e-03, -6.75380789e-03,
          -6.01695618e-03, -9.37646069e-03, -1.29819848e-02,
          -1.11409603e-02, 3.97907803e-03, 3.25870072e-03,
          -6.97878934e-03, -6.98378123e-03, -1.19982501e-02,
          1.42431341e-03, -9.26133525e-03, -9.94608179e-03,
          -8.09348561e-03, 2.55538803e-03, -1.28871715e-03,
          -7.85648357e-03, -1.00731738e-02, -1.55976247e-02,
          8.06686468e-04, -8.18397012e-03, -3.71410232e-03,
          -4.87582805e-03, 1.20254979e-03, 3.06869298e-03,
          -6.03522314e-03, -7.72345718e-03, -1.02588134e-02,
          -9.51592054e-04, -5.78246685e-03, -6.80546369e-03,
          -7.78457196e-03, 2.50964635e-03, -2.79719825e-03,
          -6.78430544e-03, -5.72999706e-03, -1.72537025e-02,
          -9.66118556e-03, -9.48497839e-03, -2.02209689e-03,
          -5.95472148e-03, -4.42018779e-03, -1.64929172e-03,
          -6.01475080e-03, -7.19194021e-03, -1.06280493e-02,
          4.68985550e-03, -6.40715938e-03, -2.02734536e-03,
          -3.59791517e-03, -6.00050204e-04, 3.00848461e-03,
          -7.95493275e-03, -4.60747443e-03, -8.42508860e-03,
          4.48415382e-03, -3.20345256e-03, 2.64829537e-03,
          -2.27953424e-03, 7.55830994e-03, -6.55721128e-03,
          -9.48434044e-03, -5.20982128e-03, -1.27848508e-02,
          2.81367713e-04, -6.21245196e-03, -3.65104224e-03,
          -5.09378081e-03, -6.53246464e-03, -5.58853429e-03,
          -1.13778412e-02, -8.35425593e-03, -1.13416547e-02,
          -5.31716691e-03, -5.59230894e-03, -1.10121991e-03,
          -3.87868099e-03, -5.69401076e-03, 1.07199699e-02,
          -2.12810072e-03, -9.57848824e-05, -7.68872770e-03,
          4.79437038e-03, -6.96702627e-03, 6.37507692e-05,
          -3.37543036e-03, 1.13591067e-02, 1.10823698e-02,
          -6.72090845e-03, -4.33450611e-03, -8.77707265e-03,
          1.70399365e-03, -1.57092325e-02, -1.08204987e-02,
          -1.03308596e-02, 2.39717728e-03, -1.52831513e-03,
          -7.20722275e-03, -4.94194403e-03, -9.76203755e-03,
          6.92268775e-04, -6.55583898e-03, 7.31734908e-04,
          -1.88113062e-03, -2.41662934e-03, -2.55925558e-03,
          -9.67757124e-03, -6.63391734e-03, -1.20408749e-02,
          -4.84525459e-03, -9.67760570e-03, -6.17268356e-03,
          -8.68450757e-03, -6.25724113e-03, 6.55789569e-04,
          -5.53927291e-03, -5.66157280e-03, -4.58599394e-03,
          5.06579084e-03, -1.15372036e-02, -1.05169658e-02,
          -8.96371529e-03, -4.01288364e-03, -1.54504133e-03,
          -1.04336906e-02, -1.01893591e-02, -4.97395452e-03,
          6.48118882e-03, -7.57355709e-03, -7.49495625e-03,
          -8.20381381e-03, -3.01742926e-03, -8.70880298e-03,
          -1.06819626e-02, -1.17435399e-02, -1.14285108e-02,
          -1.97274168e-03, -9.01354849e-03, -8.56130198e-03,
          -1.08680902e-02, -1.07362298e-02, -7.84011092e-03,
          -9.86423530e-03, -1.03436997e-02, -6.83107181e-03,
          6.05112175e-03, -7.00634206e-03, -7.22065149e-03,
          -9.46099404e-03, -1.20937005e-02 ]
   decision_functions:
      -
         sv_count: 1
         rho: -7.7237929654286719e-01
         alpha: [ 1. ]
