%YAML:1.0
opencv_ml_svm:
   format: 3
   svmType: EPS_SVR
   kernel:
      type: LINEAR
   C: 1.0000000000000000e-02
   p: 1.0000000000000001e-01
   term_criteria: { epsilon:1.0000000000000000e-03, iterations:1000 }
   var_count: 4356
   sv_total: 1
   support_vectors:
      - [ -1.73070207e-02, -9.03727952e-03, -7.03247590e-03,
          -1.14025157e-02, -1.80379301e-02, -9.24206153e-03,
          -6.91784406e-03, -6.02599373e-03, -1.59557480e-02,
          -1.24282315e-02, -1.12295719e-02, -7.82979652e-03,
          -8.48499406e-03, -8.75171460e-03, -6.07474521e-03,
          -5.65055991e-03, -4.22471249e-03, -1.16203958e-02,
          -5.99208847e-03, -8.07770621e-03, -6.48462446e-03,
          -1.29046980e-02, -1.15256095e-02, -1.09808492e-02,
          -2.74894922e-03, -3.75783513e-03, -2.37409049e-03,
          2.01377529e-03, -9.12496075e-03, -6.02362305e-03,
          -1.00427791e-02, 7.25996913e-03, -1.01969587e-02,
          -7.30052032e-03, -4.77773836e-03, 3.72322137e-03,
          -1.15559576e-02, -1.07160825e-02, -6.09111926e-03,
          -8.03318713e-03, -1.35403946e-02, -5.43356081e-03,
          -3.78609635e-03, -5.27319685e-03, -1.08215380e-02,
          -1.21714184e-02, -1.19802570e-02, -5.92266489e-03,
          -8.32755677e-03, -1.38195334e-02, -7.71350600e-03,
          -4.83128102e-03, -8.84225313e-03, -1.27030089e-02,
          3.16777918e-03, -8.56660679e-03, -5.56527590e-03,
          -1.01547698e-02, -1.35004399e-02, -7.80863920e-03,
          -6.98849186e-03, -5.65121835e-03, 4.72801598e-03,
          1.03014009e-02, -4.76904679e-03, -2.47159554e-03,
          -5.50745055e-03, -1.04750954e-02, -8.97666160e-03,
          -7.08400784e-03, -7.21755531e-03, 9.06850304e-03,
          -1.33480411e-02, -7.62877986e-03, -3.19129881e-03,
          -5.25507424e-03, -1.55498618e-02, -8.59053712e-03,
          -4.05806163e-03, -6.32555736e-03, -1.60874967e-02,
          -1.10178385e-02, -6.21043053e-03, -2.10696436e-03,
          -2.99330871e-03, -1.53650884e-02, -1.02492748e-02,
          -5.27824368e-03, -7.11197918e-03, -1.22962175e-02,
          3.45979654e-03, -4.08522598e-03, -2.12687394e-03,
          -2.94133741e-03, -1.05639063e-02, -8.53414461e-03,
          -5.38406288e-03, -4.72641783e-03, 9.87057108e-04,
          -8.41276662e-04, -3.55135836e-03, 1.37972063e-03,
          1.53430985e-04, -1.13111334e-02, -4.06410731e-03,
          -1.34391070e-03, -2.68169167e-03, 2.57395045e-03,
          -1.04570277e-02, -7.22432649e-03, -1.44395942e-03,
          -3.36314412e-03, -1.09570818e-02, -7.76755624e-03,
          -4.56521893e-03, -5.39901992e-03, -1.28334155e-02,
          -9.24601406e-03, -5.79870492e-03, -8.13346356e-04,
          -7.46231480e-03, -1.22074652e-02, -1.11341337e-02,
          -9.22064204e-03, -6.06071902e-03, -1.06684286e-02,
          -2.30104057e-03, -2.83832895e-03, 1.07175484e-03,
          -1.40958990e-03, -7.02289212e-03, -5.40144742e-03,
          -3.05844261e-03, -3.55674303e-03, -4.81642230e-04,
          5.81968622e-03, 1.41451298e-03, 1.68339221e-03,
          -6.06368436e-03, -7.88455363e-03, -1.05150687e-02,
          -8.19738396e-03, -4.98788711e-03, 4.82738251e-03,
          -9.63015016e-03, -4.75571211e-03, -1.79252704e-03,
          -6.99526165e-03, -1.03356959e-02, -8.70342925e-03,
          -7.61890225e-03, -5.46531705e-03, -1.01621021e-02,
          -8.81053787e-03, -6.77082688e-03, -4.09779185e-03,
          -7.11954385e-03, -2.05934327e-03, -5.97137120e-03,
          -4.47427062e-03, -7.16210250e-03, -1.03818439e-02,
          2.01925077e-03, -1.22500723e-03, -4.23806923e-04,
          -6.34151977e-03, -1.09829493e-02, -9.27470624e-03,
          -8.22772365e-03, -6.20358530e-03, -3.21963249e-04,
          4.44227085e-03, -3.67166940e-03, -3.63669335e-03,
          -8.30030348e-03, -9.63131431e-03, -4.27270448e-03,
          -2.84632249e-03, -6.39325706e-03, 4.71602846e-03,
          -5.72944339e-03, -9.10025090e-03, -4.06903541e-03,
          -7.96243921e-03, -9.05328337e-03, -5.31631941e-03,
          -5.70178591e-03, -7.92933442e-03, -8.18007998e-03,
          -2.85709416e-03, -7.50688976e-03, -8.12255032e-03,
          -9.02696792e-03, -9.73905064e-03, -6.17215689e-03,
          -6.10465696e-03, -7.31992815e-03, -5.71022136e-03,
          1.08894901e-02, -3.96972569e-03, -2.02917494e-03,
          -9.22772009e-03, -1.13066453e-02, -6.30752044e-03,
          -4.12278017e-03, -6.90443348e-03, 1.21336253e-02,
          1.53150437e-02, -4.09219135e-03, -4.65432648e-03,
          -1.03680966e-02, -1.17182937e-02, -1.02626681e-02,
          -6.67318888e-03, -7.97173381e-03, 1.43894143e-02,
          -5.00779832e-03, -6.56294636e-03, -6.42614299e-03,
          -6.18901569e-03, -9.61117074e-03, -7.20928144e-03,
          -7.72481179e-03, -7.39644840e-03, -5.45042939e-03,
          -6.27261726e-03, -7.90853985e-03, -5.20725874e-03,
          -9.84540861e-03, -1.08106369e-02, -1.13091953e-02,
          -8.56057275e-03, -3.79714649e-03, -5.68869477e-03,
          5.70807653e-03, -9.65029642e-04, -2.47225352e-03,
          -7.70224724e-03, -1.35718407e-02, -8.04248173e-03,
          -4.54344414e-03, -4.46321908e-03, 4.68989881e-03,
          2.96814111e-03, -3.50538199e-03, -5.20092063e-03,
          -8.79995525e-03, -9.77046974e-03, -1.19357901e-02,
          -9.99712199e-03, -6.51373761e-03, 1.98186681e-04,
          -3.23215919e-03, -5.60764363e-03, -4.41123173e-03,
          -1.20142018e-02, -9.23385751e-03, -9.26764030e-03,
          -4.92021441e-03, 1.09484943e-03, -9.41193372e-04,
          -3.63575737e-03, -7.45212426e-03, -9.70756263e-03,
          -1.48166586e-02, -1.22285085e-02, -9.79432091e-03,
          -5.72455721e-03, -1.15630100e-03, -2.39486946e-03,
          -4.94056003e-05, -6.80836011e-03, -8.17549042e-03,
          -9.83197242e-03, -5.62563259e-03, -1.01956446e-02,
          -5.43357618e-03, -2.08762079e-03, 1.93702464e-03,
          3.63767496e-03, -8.89858603e-03, -8.64811987e-03,
          -9.62642860e-03, -4.96635586e-03, -9.70880035e-03,
          -5.06456429e-03, -5.41042397e-03, 3.99207091e-03,
          -2.54760450e-03, -4.20399383e-03, -6.62086904e-03,
          -1.06116198e-02, -1.01290941e-02, -6.12716237e-03,
          -3.01435986e-03, -1.92407670e-03, -1.84298388e-03,
          -7.26235006e-03, -7.06618791e-03, -9.32003558e-03,
          -1.33380154e-02, -1.77416075e-02, -1.00377994e-02,
          -6.07517501e-03, -5.91699779e-03, -6.59536710e-03,
          5.12891961e-03, -3.22819781e-03, -6.79480657e-03,
          -6.41917810e-03, -2.11075577e-03, -1.19067437e-03,
          -1.35441206e-03, -2.90093268e-03, 5.10510895e-03,
          3.08105187e-03, -4.32129204e-03, -1.03840288e-02,
          -1.23971347e-02, -7.81065645e-03, -5.35087520e-03,
          -3.81125580e-03, -9.39053297e-03, 2.19920860e-03,
          -7.74909323e-03, -9.42979287e-03, -9.39290784e-03,
          -1.23136714e-02, -1.16284499e-02, -9.95225739e-03,
          -1.06991949e-02, -7.52519909e-03, -5.44139091e-03,
          -5.83947543e-03, -1.21416301e-02, -1.12539716e-02,
          -1.15729906e-02, -1.50651140e-02, -1.30093247e-02,
          -1.32895401e-02, -1.10059511e-02, -5.18262433e-03,
          1.39695287e-04, -8.69325735e-03, -9.87827871e-03,
          -1.26613621e-02, 9.24168900e-03, -4.51858807e-03,
          -8.83193873e-03, -8.68599303e-03, 3.51849012e-03,
          -5.70914533e-04, -1.37310950e-02, -1.36019047e-02,
          -1.27601912e-02, -8.29125941e-03, -1.38617251e-02,
          -7.60998484e-03, -1.04018664e-02, 1.69595541e-03,
          -2.69790902e-03, -1.12331081e-02, -1.03986925e-02,
          -9.99003462e-03, -9.64088459e-03, -9.52732842e-03,
          -9.43495799e-03, -9.07553826e-03, -2.62231077e-03,
          -8.51924159e-03, -1.65488478e-02, -1.35978227e-02,
          -1.39493439e-02, -1.54361110e-02, -1.18323350e-02,
          -1.17327683e-02, -1.09342253e-02, -7.41557125e-03,
          2.72700563e-03, -1.01291649e-02, -1.25143928e-02,
          -1.06688496e-02, -5.22552850e-03, -9.60815605e-03,
          -9.02951695e-03, -7.70299369e-03, 5.15458314e-03,
          3.32287676e-03, -1.48610184e-02, -1.40161840e-02,
          -1.67809222e-02, -1.66886151e-02, -1.73292514e-02,
          -1.62284207e-02, -9.67612397e-03, 4.44611674e-03,
          -9.44665354e-03, -1.02033559e-02, -5.60268201e-03,
          -8.93794186e-03, -1.00625828e-02, -1.10163232e-02,
          -1.89626287e-03, -4.71502636e-03, -9.40397196e-03,
          -8.22464749e-03, -1.05020981e-02, -6.64497167e-03,
          -9.34787374e-03, 4.67974553e-03, -1.01599153e-02,
          -6.68668933e-03, -5.89736877e-03, -8.50011408e-03,
          -2.90771667e-03, -7.11529236e-03, -2.41935160e-03,
          -9.75566637e-03, -8.99381656e-03, -1.24137802e-02,
          -3.54673225e-03, -5.96187543e-03, -3.30614578e-03,
          -1.14000647e-03, -4.48313449e-03, -2.56855297e-03,
          -1.03980443e-02, 1.29829440e-03, -1.34915104e-02,
          -7.67131802e-03, -5.69171784e-03, -7.04268459e-04,
          -6.43757265e-03, -7.58335879e-03, -5.88105572e-03,
          -1.00577408e-02, -1.13329198e-02, -7.85858277e-03,
          -6.42166520e-03, -5.05741267e-03, -3.71645787e-03,
          -6.05631201e-03, -6.67223474e-03, -5.46867447e-03,
          -6.35953248e-03, -6.54878095e-03, -1.08008003e-02,
          -5.71359787e-03, -5.31665329e-03, -2.77841580e-03,
          -2.58269324e-03, -4.81784344e-03, -2.80324975e-03,
          -1.20300082e-02, -4.49520623e-04, -1.03158336e-02,
          -4.27931314e-03, -3.19679128e-03, -7.08815467e-04,
          1.47270097e-04, -4.74331947e-03, -3.17166885e-03,
          -6.70636958e-03, 4.75234399e-03, -1.20275840e-02,
          -1.09207619e-03, -2.27492303e-03, 1.69208157e-03,
          -8.70440528e-03, -8.61469842e-03, -5.09982230e-03,
          -7.09356274e-03, -1.20436847e-02, -1.15576908e-02,
          -7.34992046e-03, -5.43058291e-03, -8.21076054e-03,
          -8.47752392e-03, -1.03719346e-02, -6.31780783e-03,
          -2.77996063e-03, -8.44765920e-03, -7.04797311e-03,
          -5.74723678e-03, -5.11358865e-03, -7.30029307e-03,
          4.66138311e-03, -6.32045977e-03, -5.32689085e-03,
          -9.23575088e-03, -8.97689071e-03, -1.40298344e-02,
          -3.97817791e-03, -1.11476646e-03, 4.99062845e-03,
          6.32971944e-03, -8.14805087e-03, -5.77339996e-03,
          -8.47223867e-03, -6.32699532e-03, -1.19076949e-02,
          -2.91425176e-03, -5.04693016e-04, 8.08585342e-03,
          -1.19453194e-02, -8.11385084e-03, -4.20685951e-03,
          -2.36503780e-03, -7.55592436e-03, -7.35602761e-03,
          -5.28142694e-03, -6.03281101e-03, -1.15008987e-02,
          -9.60708037e-03, -3.77168506e-03, -2.64927605e-03,
          -5.82199125e-03, -5.40090213e-03, -1.26340454e-02,
          -9.45920683e-03, -9.25366674e-03, -1.14985211e-02,
          8.94884113e-03, -4.96342033e-03, -3.30804079e-03,
          -5.57922851e-03, -4.20372421e-03, -7.99653307e-03,
          -1.05030928e-03, 7.35700422e-04, 1.08604683e-02,
          1.09230578e-02, -4.05754382e-03, -1.87061331e-03,
          -3.06261028e-03, 5.23916120e-03, -6.99904375e-03,
          -2.09461874e-03, -1.28282467e-03, 1.34823704e-02,
          -6.39975164e-03, -4.50795656e-03, -2.87504354e-03,
          -6.25880016e-03, -8.13486800e-03, -7.47508509e-03,
          -6.32927287e-03, -6.54659886e-03, -8.84987134e-03,
          -8.35468248e-03, -7.43337953e-03, -5.97559102e-03,
          -9.13739577e-03, -6.16794638e-03, -4.07635141e-03,
          -2.13535875e-03, -6.92664413e-03, -7.23538175e-03,
          8.27513728e-03, -4.37600166e-03, -3.68905393e-03,
          -4.10196139e-03, -1.25543959e-03, -5.23764454e-03,
          2.37690145e-03, 2.55070440e-03, 1.01851067e-02, 1.51718017e-02,
          -3.57190729e-03, 1.25525312e-05, -7.09006330e-03,
          2.92654498e-03, -1.83960970e-03, 2.75608036e-03,
          -2.53780454e-04, 1.67002138e-02, -1.96107104e-03,
          -7.00757094e-03, -5.71860559e-03, -8.70901905e-03,
          -7.06178602e-03, -5.50685730e-03, -2.39363499e-03,
          -6.47056196e-03, -1.71767583e-03, -3.07882018e-03,
          -4.70863702e-03, -1.60411210e-03, -6.68587023e-03,
          -8.79268628e-03, -7.23788701e-03, -2.45601335e-03,
          -5.55880601e-03, -4.48874710e-03, 9.11774673e-03,
          -7.41718104e-04, 4.60801367e-03, -4.55586752e-03,
          1.44865271e-03, -9.84142767e-04, 5.66324638e-03,
          -1.66290032e-03, 1.00303395e-02, 1.15481047e-02,
          3.15713324e-03, 5.63849322e-03, -3.65494471e-03,
          1.34366087e-03, -3.24421935e-03, 3.26931663e-03,
          -2.99581699e-03, 6.83938805e-03, -4.07457910e-03,
          -3.87399667e-03, -2.39451649e-03, -4.08230349e-03,
          -6.83193421e-03, -5.01053454e-03, -2.25650583e-04,
          -2.29162397e-03, -6.61518890e-03, -4.79993643e-03,
          -4.75436868e-03, -7.07960175e-03, -5.78407757e-03,
          -6.65561343e-03, -8.49056058e-03, -6.67562522e-03,
          -7.12930085e-03, -7.46287685e-03, 9.08229128e-03,
          -8.49021308e-04, -9.74931580e-04, -6.19585300e-03,
          2.52080208e-04, -3.33359512e-03, -8.35869927e-04,
          -3.41583928e-03, 6.71275053e-03, 1.71440057e-02,
          1.75425911e-03, -1.45398860e-03, -5.11289528e-03,
          8.26623407e-04, -7.15103140e-03, -3.57631361e-03,
          -4.93080728e-03, 1.37076154e-02, -4.50126547e-03,
          -5.01003349e-03, -6.38992433e-03, -5.70871169e-03,
          -4.67827450e-03, -7.89379980e-03, -3.73233971e-03,
          -4.48127557e-03, -4.12024651e-03, -5.85246412e-03,
          -9.25894640e-03, -9.56215151e-03, -6.51204400e-03,
          -1.60256389e-03, -6.54261000e-03, -2.75049778e-03,
          -6.67633116e-03, -4.86913370e-03, 1.67246740e-02,
          5.30108984e-04, -6.74576615e-04, -3.04580014e-03,
          3.90665187e-03, -5.06207254e-03, -1.68489583e-04,
          -3.10719805e-03, 1.21298805e-02, 1.11038955e-02,
          3.75189644e-04, -5.01614530e-03, -5.28807612e-03,
          5.22749871e-03, -4.12846496e-03, -1.12138390e-04,
          -3.17598740e-03, 1.11309774e-02, -3.45268031e-03,
          -6.71827327e-03, -9.80683509e-03, -6.57480722e-03,
          -2.80276989e-03, -1.85529713e-03, -1.64099364e-03,
          -6.58264058e-03, -3.70994536e-03, -5.01928199e-03,
          -4.57625557e-03, -9.41206980e-03, -1.01518827e-02,
          -8.39135889e-03, -5.43551380e-03, -7.09251827e-03,
          -8.69344827e-03, -6.46857452e-03, 1.40964454e-02,
          -2.16813036e-03, -8.58923979e-03, -4.69967909e-03,
          6.57888269e-03, -1.74161664e-03, 6.86083513e-04,
          -3.51795880e-03, 1.23959137e-02, 8.01289827e-03,
          -9.27808345e-04, -7.34093413e-03, -8.54797382e-03,
          -2.41450896e-03, -6.72975089e-03, -7.41315447e-03,
          -7.59494072e-03, 8.02081730e-03, -6.11185282e-03,
          -5.29475696e-03, -8.58420320e-03, -9.58851352e-03,
          5.34926215e-03, -7.78786372e-03, -7.83261005e-03,
          -7.73009285e-03, -5.43942163e-03, -5.59972227e-03,
          -9.51346476e-03, -1.03909355e-02, -8.96302424e-03,
          -7.51974154e-03, -1.10953823e-02, -7.00936932e-03,
          -9.42005590e-03, -7.30913272e-03, 3.50129721e-03,
          -2.10915552e-03, -6.05015876e-03, -1.15999617e-02,
          1.13841044e-02, -6.12973096e-03, -6.24495931e-03,
          -6.81562861e-03, 3.12126148e-03, -1.98219623e-03,
          -8.95426609e-03, -6.11276226e-03, -1.18217077e-02,
          -3.89995915e-03, -8.87555536e-03, -5.38704218e-03,
          -9.49802436e-03, 1.66318833e-03, -1.02506287e-03,
          -7.70746730e-03, -7.69780530e-03, -7.31142284e-03,
          1.65285566e-03, -7.32682552e-03, -8.33125878e-03,
          -8.63834843e-03, -1.74199941e-03, -1.85283076e-03,
          -8.41943081e-03, -7.03899842e-03, -1.16215385e-02,
          -1.26988096e-02, -1.43948905e-02, -1.54515970e-02,
          -1.05956458e-02, -1.56314147e-03, 2.67201406e-03,
          -6.81679649e-03, -5.47308475e-03, -8.91725346e-03,
          1.02547454e-02, -5.43014845e-03, -5.28168818e-03,
          -7.10220961e-03, 5.86724421e-03, 3.26843420e-03,
          -8.92433617e-03, -6.59969682e-03, -1.58036333e-02,
          -9.79470089e-03, -1.45350844e-02, -1.45071866e-02,
          -1.03789074e-02, 3.79110780e-03, -1.12225870e-02,
          -4.86235647e-03, -2.76531302e-03, -8.35062843e-03,
          -8.97633750e-03, -1.19093992e-02, -7.87741225e-03,
          -5.74625796e-03, -1.04745952e-02, -9.14562494e-03,
          -4.62858612e-03, -5.65306842e-03, -1.18499240e-02,
          -4.17235482e-04, -1.30032264e-02, -9.69668664e-03,
          -6.37620222e-03, -1.09534618e-02, -9.06071067e-03,
          -2.33657425e-03, 6.40226936e-05, -6.76116580e-03,
          -6.69383258e-03, -1.60925034e-02, -9.30335559e-03,
          -6.22584531e-03, -8.91142339e-03, -4.23876848e-03,
          1.43671405e-05, 1.56310166e-03, -1.06708407e-02,
          8.76665208e-03, -1.45613905e-02, -9.23603401e-03,
          -6.02565426e-03, -6.40414376e-03, -7.63012795e-03,
          -3.16728745e-03, -3.69181554e-03, -1.21462764e-02,
          -9.78068449e-03, -1.03045925e-02, -5.45194698e-03,
          -2.47048098e-03, -8.75136256e-03, -6.81983493e-03,
          -3.46987904e-03, -2.79392349e-03, -4.93760267e-03,
          -2.29631714e-03, -9.51972045e-03, -2.42359703e-03,
          -2.97666038e-03, -8.22018925e-03, -3.42119415e-03,
          -5.96930855e-04, -3.24712461e-03, -1.22567639e-02,
          -4.89391200e-03, -9.36462078e-03, -6.38386142e-03,
          -4.03445959e-03, -8.75256397e-03, 9.64283757e-03,
          4.82543139e-03, -3.01381061e-03, -4.84286295e-03,
          -2.93175573e-04, -7.58854114e-03, -4.98414971e-03,
          -3.63614038e-03, -3.10288102e-04, -5.78510063e-03,
          -5.43088792e-03, -6.49523968e-03, -8.85960832e-03,
          -1.01956166e-02, -9.54180118e-03, -2.52667489e-03,
          -2.61792005e-03, -5.08597679e-03, -4.59773280e-03,
          -6.23344351e-03, -7.05082947e-03, -8.87550879e-03,
          7.60294672e-04, -7.60894921e-03, -3.18291551e-03,
          -3.42606590e-03, -4.65337001e-03, 5.98898903e-03,
          -2.68720882e-03, -5.36088506e-03, -1.17241610e-02,
          -1.16138346e-02, -5.01143280e-03, -4.95466683e-03,
          -3.39455297e-03, 8.02908267e-04, 7.99626485e-03,
          -5.19026107e-05, -5.02815749e-03, -1.29436227e-02,
          5.54899732e-03, -2.43496033e-03, -5.50087122e-03,
          -3.07489489e-03, 2.90899514e-03, -4.69766324e-03,
          -6.16331585e-03, -7.07139587e-03, -7.84871820e-03,
          -4.18704795e-03, -5.21065528e-03, -4.15711571e-03,
          -3.79947340e-03, -3.19317449e-03, -5.48983458e-03,
          -6.68681227e-03, -6.94856513e-03, -5.78548666e-03,
          -6.08973787e-04, -4.05922066e-03, -3.09074810e-03,
          -3.00408923e-03, -2.45483546e-03, 7.33161438e-03,
          -2.01537297e-03, -9.01540369e-03, -8.71071033e-03,
          -6.42815279e-03, -3.45338928e-03, -6.07451145e-03,
          -5.41261537e-03, 8.64931440e-04, 1.67945698e-02,
          2.54533696e-03, -3.52303125e-03, -5.07816393e-03,
          4.59561544e-03, -4.32555797e-03, -2.92705745e-03,
          -5.27574401e-03, 1.14717558e-02, -6.82085007e-03,
          -6.80269860e-03, -7.26328650e-03, -4.58912970e-03,
          -5.38813556e-03, -5.92519669e-03, -1.09005638e-03,
          -1.82430318e-03, -3.04582529e-03, -5.85592585e-03,
          -3.85033269e-03, -4.56953607e-03, -4.11561830e-03,
          -7.77535466e-03, -5.06844325e-03, -1.73558597e-03,
          -4.00746794e-04, -2.43035611e-03, 1.05720330e-02,
          1.89869537e-03, -1.32205361e-03, -4.30638716e-03,
          -4.91228839e-03, -4.74746479e-03, -4.75994963e-03,
          -2.97851092e-03, 4.90975007e-03, 1.26992632e-02,
          7.68385781e-03, 4.62416047e-03, -5.49587829e-04,
          -6.31037867e-03, -4.80578095e-03, -3.10121640e-03,
          4.53171466e-04, 7.38188624e-03, -7.21196039e-03,
          -3.56438849e-03, -2.17193691e-03, -2.60249898e-03,
          -6.85489876e-03, -3.14210146e-03, -6.95290859e-04,
          -2.35558418e-03, -2.95698596e-03, -4.74206498e-03,
          -9.76007490e-04, -3.04285041e-03, -6.46607392e-03,
          -1.09636877e-02, -3.72407143e-03, -2.26877676e-03,
          -5.69044892e-03, -4.08646837e-03, 1.00913299e-02,
          4.06473316e-03, 4.62140568e-04, -3.01543390e-03,
          -8.19178298e-03, -4.10519354e-03, 5.29149605e-04,
          1.56689214e-03, 8.42405297e-03, 9.72612947e-03, 2.15774111e-04,
          -2.12969142e-03, -7.20836641e-03, -1.07549233e-02,
          -3.09110549e-03, -8.52001613e-05, 2.29107402e-03,
          8.82362761e-03, -4.28276742e-03, -1.56764232e-03,
          -3.52607365e-03, -7.89332576e-03, -1.11658704e-02,
          -4.72905906e-03, -6.52814517e-03, -6.62203692e-03,
          -1.90454628e-03, -2.55552377e-03, -1.70360366e-03,
          -3.91366938e-03, -8.15443043e-03, -8.84541404e-03,
          -4.54025716e-03, -5.58278570e-03, -5.68984821e-03,
          -2.64346041e-03, 1.36911962e-02, 1.78790200e-04,
          -4.63403668e-03, -8.07605963e-03, -1.06401378e-02,
          -1.31575717e-03, 5.00304683e-04, 4.50873980e-03,
          1.48540931e-02, 1.40379490e-02, -1.45495273e-04,
          -3.09158117e-03, -6.77367672e-03, -1.05052292e-02,
          -1.58931455e-03, 4.51579341e-04, 7.02122413e-03,
          1.67251807e-02, -2.61451071e-03, -3.32730968e-04,
          -3.61350900e-03, -5.14935330e-03, -4.08275751e-03,
          -3.64533905e-03, -3.40359542e-03, -5.36693679e-03,
          -4.24823212e-03, -2.95133446e-03, -4.79021203e-03,
          -8.56282283e-03, -6.01155078e-03, -4.55470849e-03,
          -5.81904827e-03, -4.72295517e-03, -7.78911496e-03,
          -4.61324630e-03, 1.52932880e-02, 2.25422322e-03,
          -1.30082923e-03, -2.47440464e-03, -4.22565034e-03,
          -1.91367313e-03, 6.37724937e-04, 5.61083015e-03,
          1.60029288e-02, 1.17852362e-02, -1.78064057e-03,
          -6.69752434e-03, -3.86745296e-03, -3.49070039e-03,
          -3.77273490e-03, -2.73456122e-03, 2.61633075e-03,
          1.32007934e-02, -2.82114209e-03, -5.16158389e-03,
          -9.35984310e-03, -3.65994335e-03, 1.66799116e-03,
          -3.91098950e-03, -4.98964638e-03, -6.67091412e-03,
          -2.94405338e-03, -4.02953848e-03, -4.78928350e-03,
          -1.06861535e-02, -8.34282674e-03, -1.99465198e-03,
          -6.27280306e-03, -8.05058237e-03, -6.95377029e-03,
          -3.58601450e-03, 1.21501898e-02, -3.99141340e-03,
          -7.42109306e-03, -2.98242434e-03, 6.74395217e-03,
          -9.17214493e-04, -2.69731530e-03, 9.26228589e-04,
          1.54698100e-02, 3.61215766e-03, -8.88420828e-03,
          -1.27203371e-02, -1.00434488e-02, 2.47413060e-03,
          -6.53144112e-03, -9.75450501e-03, -1.72666053e-03,
          6.62507489e-03, -4.87405155e-03, -5.18305833e-03,
          -7.66559690e-03, -8.42889491e-03, 1.24812545e-02,
          -1.19349919e-03, -6.38973620e-03, -7.63109699e-03,
          -6.73980080e-03, -1.08014252e-02, -8.41908436e-03,
          -4.75333026e-03, -6.94197137e-03, -6.59889681e-03,
          -7.60622602e-03, -8.16674344e-03, -1.14523759e-02,
          -7.89360888e-03, 6.19302504e-03, -7.57865282e-03,
          -8.32688063e-03, -7.86706898e-03, 2.05437765e-02,
          2.71654746e-04, -2.52707675e-03, 4.41383990e-03,
          8.77754204e-03, -5.17743826e-03, -7.43226707e-03,
          -2.29149754e-03, -3.22144222e-03, -2.71505909e-03,
          -7.44168321e-03, -5.92952222e-03, -2.52845651e-03,
          -2.05686738e-04, -4.42909496e-03, -5.78503869e-03,
          -4.26985929e-03, -5.65549685e-03, 4.61589079e-03,
          -5.12913754e-03, -7.71073019e-03, -1.01634329e-02,
          -3.63851688e-03, -5.86835295e-03, -7.70617183e-03,
          -7.09666777e-03, -1.05542950e-02, -7.79257109e-03,
          -9.83561948e-03, -1.17356451e-02, -1.08951489e-02,
          -6.68278476e-03, 1.17557158e-03, -5.61539410e-03,
          -1.88415419e-04, -2.53728265e-03, 9.68128256e-03,
          -5.06542623e-03, -4.19213297e-03, -4.23456123e-03,
          1.39505009e-03, 1.65672123e-03, -7.84782600e-03,
          -7.84963835e-03, -1.12149231e-02, -4.17311396e-03,
          -7.06373202e-03, -6.17445912e-03, -6.14625681e-03,
          4.42805514e-03, -1.26609383e-02, -4.59913118e-03,
          8.47462274e-04, -3.97524098e-03, -1.30437426e-02,
          -1.40982037e-02, -8.11474770e-03, -7.22437259e-03,
          -1.34032378e-02, -1.13280620e-02, -8.96598562e-04,
          1.97195308e-03, -5.33998851e-03, 2.18644389e-03,
          -1.38670439e-02, -8.64165369e-03, -6.92294911e-03,
          -1.25845261e-02, -7.50249065e-03, -3.40869720e-03,
          3.43417376e-03, -1.97908515e-03, -1.19732413e-02,
          -1.12741785e-02, -5.10206306e-03, -5.17222378e-03,
          -8.58637225e-03, 5.17623150e-04, 3.68805812e-03,
          5.95736923e-03, 1.45580817e-03, 1.01124570e-02,
          -1.49055729e-02, -8.65185540e-03, -8.24453309e-03,
          -4.48968075e-03, -9.23576858e-03, 1.63108809e-03,
          -1.74934696e-03, -7.67766777e-03, -6.87427586e-03,
          -9.46973171e-03, -5.98126044e-03, -4.63265600e-03,
          -1.25710415e-02, -3.95803759e-03, -4.00874298e-04,
          -3.63589125e-03, -3.02441278e-03, -4.19093203e-03,
          -6.00413512e-03, -5.62544540e-03, -4.26019914e-03,
          -8.15095752e-03, -2.31549875e-05, 1.78995507e-03,
          1.89818302e-03, -1.91500643e-03, -4.27750219e-03,
          -1.45605728e-02, -8.25928804e-03, -5.79707092e-03,
          -5.41576138e-03, 2.90400302e-03, -1.42042502e-03,
          -1.71766779e-03, 9.91712208e-04, 7.02530565e-03,
          -6.14203559e-03, -6.57010777e-03, -3.31746065e-03,
          1.67757634e-03, -1.28690223e-03, -3.17008514e-03,
          -6.42232271e-03, -8.67956597e-03, -9.62273870e-03,
          -3.12424148e-03, -3.28739849e-03, -3.41982092e-03,
          -3.95496888e-03, 1.45229860e-03, -2.22865329e-03,
          -5.06970147e-03, -8.12981650e-03, 1.24380679e-03,
          1.91512739e-03, -2.45231506e-03, -2.78957980e-03,
          -2.14882754e-03, 2.32952158e-03, -4.26186062e-03,
          -6.75435597e-03, -5.77274757e-03, -4.46315901e-03,
          -9.27902944e-03, -3.90631100e-03, -4.38841479e-03,
          1.40187447e-03, 1.06273647e-02, -3.71965958e-04,
          -3.04331654e-03, 8.12621205e-04, 1.59577746e-02,
          4.23170248e-04, -4.83521988e-04, -3.23306723e-03,
          6.60279719e-03, 2.17837375e-03, -8.89807416e-04,
          -5.31494478e-03, -6.30358933e-03, -4.10588039e-03,
          -2.46870704e-03, -1.56494987e-03, -3.82600399e-03,
          -1.04136358e-03, 3.67869274e-03, -1.44306116e-03,
          -5.53562539e-03, -3.57169798e-03, -2.49893544e-03,
          -3.64741590e-03, -1.62849657e-03, -5.58534870e-03,
          -2.14108848e-03, 6.77342620e-03, -4.90972947e-04,
          -2.48238182e-04, 1.49385084e-03, 6.60521328e-04,
          6.58868579e-04, -1.34759361e-03, -2.09305319e-03,
          2.33587879e-03, 9.04368330e-03, 4.10434743e-03,
          -9.29514703e-04, 2.85273464e-03, 1.04269932e-03,
          8.86544236e-04, 1.20550307e-04, -1.68187509e-03,
          2.96537904e-03, 3.76734929e-03, -3.21856263e-04,
          -2.64450442e-03, -1.66089064e-03, -3.27228522e-03,
          -2.35832413e-03, -2.69809458e-03, -3.60851316e-03,
          -1.33721111e-03, 2.61167181e-03, 8.58083775e-04,
          2.33785206e-04, -2.15189834e-03, -5.73955942e-03,
          -2.65764794e-03, -2.49527907e-03, -1.83267740e-03,
          -2.55538296e-04, 6.77348766e-03, 5.47125237e-04,
          -4.96053696e-03, 1.58483314e-03, -2.03929003e-03,
          2.41035921e-03, 2.17060995e-04, -8.81257001e-04,
          1.87549682e-03, 4.56595235e-03, 6.74654788e-04, 2.88050924e-03,
          3.46269412e-03, -9.38498124e-05, 3.84170050e-03,
          -5.95265243e-04, -1.29773410e-03, 4.12734039e-03,
          -2.13838788e-03, -1.05132081e-03, 1.35928765e-03,
          -3.95546621e-03, -5.04204119e-03, -3.39302304e-03,
          -2.01221392e-03, -4.55504342e-04, -1.72607586e-04,
          -3.81242461e-03, -6.13091839e-03, -3.45300580e-03,
          -5.04252827e-03, -6.94985548e-03, -2.89476523e-03,
          9.26113164e-04, 1.32705248e-03, -6.92005793e-04,
          2.18222733e-03, 2.59499066e-03, 7.46061001e-03, 1.87292765e-03,
          -9.78701155e-06, 1.17058196e-04, -7.36284303e-04,
          1.64540147e-03, 4.09396179e-03, 2.13915133e-03,
          -9.12688905e-04, 1.59064017e-03, -1.63215853e-03,
          7.30742704e-06, 7.62523152e-04, 5.46289701e-03, 4.91340412e-03,
          5.44219976e-03, 2.81657279e-03, -4.12430521e-03,
          -7.65756844e-03, -5.85687580e-03, -7.07908813e-03,
          -1.19740714e-03, 1.30862638e-03, 2.42396654e-03,
          5.87575510e-03, 3.87309119e-03, -3.32828937e-03,
          -5.33137238e-03, -6.26377622e-03, -5.90649340e-03,
          4.67839331e-04, -1.12950965e-03, 4.56031924e-03,
          6.36964384e-03, 6.08641654e-03, -3.29080294e-03,
          -4.13877843e-03, -3.56717035e-03, -4.03280510e-03,
          4.82463278e-04, 2.61915731e-03, 5.38148778e-03, 6.59141270e-03,
          8.83987825e-03, -1.41916075e-03, -2.74611195e-03,
          4.93605214e-04, -1.82073505e-03, 2.29426497e-03,
          -1.85083319e-03, 4.92474204e-03, 4.95131407e-03,
          2.82178936e-03, -2.28306721e-03, -2.18125153e-03,
          -2.94575468e-03, -2.30709207e-03, -1.80243049e-03,
          -1.41609181e-03, 4.24023019e-03, 6.04552124e-03,
          2.52670003e-03, -4.88926005e-03, -6.11841446e-03,
          -2.79534212e-03, -2.86212680e-03, -4.64202883e-03,
          -3.30537534e-03, -3.37109726e-04, 5.09357918e-03,
          6.84416154e-03, -2.35579253e-04, -1.57860003e-03,
          1.16312341e-03, 9.21327679e-04, 3.50606325e-03,
          -1.03381160e-03, 4.77132341e-03, 7.64665939e-03,
          4.88983793e-03, -9.71476315e-04, -1.39657047e-03,
          2.29445356e-03, -9.67878383e-04, 1.73061097e-03,
          -2.96686310e-03, -1.13394274e-03, 6.35088282e-03,
          2.50975974e-03, -5.19328332e-03, -5.31546632e-03,
          -4.00999654e-03, 1.56072190e-03, -4.72419255e-04,
          -2.82578659e-03, -5.19511988e-04, 5.62409870e-03,
          1.12756470e-03, -7.43643846e-03, -1.00174583e-02,
          -1.30036641e-02, -3.58068198e-03, -8.69211089e-03,
          -8.03411566e-03, -2.99491920e-04, 3.54887359e-03,
          6.99420460e-03, -8.42320966e-04, -1.91315252e-04,
          3.97729687e-03, 4.30481741e-03, 1.22436159e-03, 4.99093905e-04,
          -1.93554454e-03, 6.03326363e-03, 5.35610318e-03,
          -4.40578116e-03, -3.72722792e-03, -4.02608188e-03,
          2.04856205e-03, -6.10938249e-03, 1.49103624e-04,
          -1.96235094e-04, 4.95540444e-03, -5.61074866e-03,
          -7.66342506e-03, -6.94353366e-03, -1.15616117e-02,
          6.52584527e-03, -6.55325782e-03, -2.23191502e-03,
          -1.40343953e-04, -8.95173114e-04, -8.69003125e-03,
          -9.22141131e-03, -4.55798814e-03, -6.64334744e-03,
          -7.51534291e-03, -1.03764571e-02, -3.86393443e-03,
          -5.33654634e-03, -7.79265864e-03, 2.64363689e-03,
          -2.85110786e-03, -1.53695629e-03, -5.18149696e-03,
          1.14525165e-02, -6.51747873e-03, -7.28404790e-04,
          -3.64612602e-03, 4.59783571e-03, -5.52786514e-04,
          -5.86141832e-03, -4.19903221e-03, -8.39154888e-03,
          -5.46166487e-03, -4.49523237e-03, 1.90083135e-03,
          -1.46338833e-03, 4.54421900e-03, -1.65109639e-03,
          -6.05307939e-03, 1.77663314e-04, -2.26246146e-03,
          4.04996239e-03, -5.51753445e-03, -1.68190722e-03,
          -7.31527200e-03, -2.60543241e-03, -9.05062724e-03,
          -1.24647887e-02, -7.78914709e-03, -1.01901544e-02,
          -2.21947557e-03, -7.04055186e-03, -8.76555499e-03,
          -1.22276312e-02, -8.74626171e-03, 2.94121075e-03,
          -6.67760661e-03, -6.06545527e-03, -7.59854261e-03,
          7.79592805e-03, -1.50628807e-03, 4.54356149e-03,
          3.92057467e-03, 8.18606187e-03, -6.13914896e-03,
          -1.07158711e-02, -9.94521752e-03, -7.66122993e-03,
          3.71580027e-05, -2.00283551e-03, -2.69962940e-04,
          -3.58904479e-03, 7.60551411e-05, -5.60704898e-03,
          -6.26677088e-03, 8.69995158e-04, 4.50618012e-04,
          -4.08875151e-03, -7.46478140e-03, -3.18737398e-03,
          -4.25657257e-03, -5.67408791e-03, -1.72419241e-03,
          -1.28488173e-04, 1.68998842e-03, 4.12758876e-04,
          3.61634139e-03, -1.35102198e-02, -7.09730573e-03,
          -7.27454154e-03, -5.63532906e-03, -7.67672434e-03,
          -8.66168458e-03, -3.49631463e-03, 2.39733467e-03,
          -2.95152026e-03, -8.95718392e-03, -5.89237548e-03,
          -1.01828119e-02, -1.04961209e-02, 3.82122071e-03,
          -6.83238613e-04, 3.96786211e-03, 8.90596712e-04,
          2.69901543e-03, -9.52140801e-03, -3.54416156e-03,
          -7.28109665e-03, -5.34185162e-03, 8.76462072e-05,
          1.48726243e-03, 9.33039817e-04, 1.36866671e-04,
          -4.26032068e-03, -1.23811951e-02, -7.34883780e-03,
          -3.75543628e-03, -4.10796143e-03, 1.59936084e-03,
          -4.32749605e-03, -1.70532067e-03, -3.95084848e-04,
          1.34262526e-02, -3.69644631e-03, -5.36122173e-03,
          -3.22305225e-03, -6.44366024e-04, -2.04290642e-04,
          -4.83508455e-04, -1.29367749e-03, 2.08729078e-04,
          -8.61801673e-04, -1.19200507e-02, -2.80328235e-03,
          -6.98149204e-03, -7.80919520e-03, 2.46058754e-03,
          -4.81643109e-03, -9.81278135e-04, 9.06410802e-04,
          2.13022530e-02, 2.26991507e-03, -1.88757794e-03,
          -6.67953771e-03, 1.23116258e-03, 4.54431283e-04,
          -6.81915926e-03, -8.25816579e-03, -3.68847651e-03,
          -6.15354069e-03, -8.61707237e-03, -3.46809113e-03,
          -3.64983920e-03, -6.81709280e-05, 1.34446181e-03,
          -1.35581510e-03, -3.94219859e-03, 6.07177382e-03,
          5.25633292e-03, 8.94151628e-04, -2.36574467e-03,
          -2.85387272e-03, -5.39743633e-04, 6.63367682e-04,
          -5.54017909e-03, -7.62182847e-03, -5.39004151e-03,
          -4.18982143e-03, -1.12006604e-03, -2.59405654e-03,
          -3.97924241e-03, -1.59473944e-04, 2.30824249e-03,
          6.03224151e-03, 3.61800171e-03, 9.97935701e-03, 1.06720515e-02,
          8.60967115e-03, 7.32255867e-04, -1.03674232e-04,
          9.78429802e-04, 1.33008091e-03, -1.53949752e-03,
          -8.34515740e-05, 5.95951034e-03, -2.61538604e-04,
          7.74865854e-04, -3.12624546e-03, -3.20633920e-03,
          -2.66981171e-03, 2.38560280e-03, 2.79691373e-03,
          -2.61033303e-03, 3.86685855e-03, -1.72868939e-04,
          2.67886533e-03, -2.62318971e-03, -3.90694058e-03,
          -1.63579814e-03, -2.59008445e-03, 2.59197131e-03,
          2.04930035e-03, 9.08016786e-03, 2.44830782e-03, 5.43166837e-03,
          7.00069184e-04, -3.87624386e-05, -2.83748889e-03,
          -4.30058026e-05, 4.01074113e-03, 2.65006931e-03,
          9.97360516e-03, 2.33542291e-03, 4.62532463e-03, 6.85034320e-04,
          3.44926193e-05, -2.66527222e-03, 1.33203843e-03,
          2.35979492e-03, -4.82917763e-03, 1.35307701e-03,
          -1.11078308e-03, 5.22790151e-03, -1.45365181e-03,
          -1.52900966e-03, 1.39384763e-03, -1.89938501e-03,
          1.07781892e-03, 1.07806618e-03, 3.42623843e-03,
          -7.51773128e-04, 2.73289089e-03, -1.25064852e-03,
          9.11566080e-04, 1.19985698e-03, 2.49279826e-03, 5.83328959e-03,
          4.43546614e-03, 2.79020262e-03, -1.13144272e-03,
          4.16459097e-03, -3.46085755e-04, -5.79999061e-04,
          -9.98776988e-04, 3.16899107e-03, 7.45544024e-03,
          2.87221139e-03, 6.11248193e-04, -1.62560167e-03,
          8.96239595e-04, -1.01154170e-03, 3.92747344e-03,
          7.23083678e-04, -3.92147340e-03, 6.58847683e-04,
          5.48404222e-03, 1.21120829e-03, -2.39012763e-03,
          1.36537151e-03, 6.93115522e-04, 4.61570965e-03, 5.38528897e-04,
          -2.37329630e-03, -7.83179828e-04, 3.49562359e-03,
          -2.94773001e-03, -4.64872901e-05, 6.00146176e-03,
          6.16696151e-03, 9.13565047e-03, 4.21675341e-03,
          -1.18275336e-03, 1.98898348e-03, 6.43770152e-04,
          -1.45880750e-03, -4.42760438e-03, 5.64088637e-04,
          -3.57607292e-04, 4.00448730e-03, -4.00875404e-04,
          7.11413973e-04, 7.30063359e-04, -1.28494270e-04,
          1.21664430e-03, -8.97596823e-04, 3.40319914e-03,
          2.80385814e-03, 5.91945136e-03, 2.36318028e-03, 2.96979863e-03,
          -1.50824396e-03, -1.27543556e-03, -9.50504211e-04,
          -3.14004812e-03, 3.96093150e-04, 4.44252416e-03,
          8.25457554e-03, 5.80411544e-03, 5.54051949e-03,
          -1.48350245e-03, 1.63101271e-04, 4.71089361e-03,
          -5.44488523e-03, 1.06982992e-03, 2.41555041e-04,
          2.56747566e-03, 4.61026514e-03, 4.73076850e-03, 7.97816087e-04,
          -1.94662818e-04, 2.20744987e-03, -1.21694652e-03,
          2.21103220e-03, 2.86352681e-03, 5.84360491e-03, 5.95618645e-03,
          4.92216507e-03, 4.65828081e-04, 1.69381348e-03, 5.13028353e-03,
          -6.94947317e-03, 2.46999389e-03, -2.87820239e-06,
          1.43591885e-03, 3.57219577e-03, 3.51804728e-03,
          -3.48591020e-05, 2.13110703e-03, 4.94196219e-03,
          -6.36742800e-04, 2.90355738e-03, -4.37614508e-03,
          -5.48897428e-04, 4.82569588e-03, 1.46265607e-03,
          1.84441777e-03, 3.70776793e-03, 2.33264943e-03, 3.22858068e-05,
          3.48351500e-03, -2.85551324e-03, -1.41518121e-03,
          5.84422203e-04, 3.66735691e-03, 1.86447019e-03, 4.09576623e-03,
          4.51272633e-03, -2.56522180e-04, 1.89923041e-03,
          -2.75479653e-03, -1.29096676e-03, 2.39492487e-03,
          -7.41205295e-04, 3.31084989e-03, 4.23664739e-03,
          5.50697232e-03, 4.09809547e-03, 5.59275504e-03, 7.67965859e-04,
          -3.19659797e-04, -2.76053208e-03, 1.59472704e-03,
          1.47862255e-03, 1.15706073e-03, 1.19681261e-03, 4.21384396e-03,
          2.79446365e-03, -1.15729671e-03, -1.73780462e-03,
          3.16656951e-04, 1.34314806e-03, -2.42461596e-04,
          -7.68926169e-04, -1.49869465e-03, 1.37323362e-03,
          -3.97004932e-03, -1.70732359e-03, -2.63249176e-03,
          2.48307758e-03, -2.26877048e-03, 3.01103154e-03,
          3.66153219e-03, 3.49824084e-03, 8.48018937e-03, 5.79888467e-03,
          1.30577362e-04, -2.17437977e-03, -3.52221145e-03,
          -1.53151131e-03, 6.93301612e-04, 1.87069853e-03,
          -2.31127208e-03, 2.92361714e-03, -3.17591266e-03,
          -3.70129826e-03, -3.64547013e-03, -2.07659975e-03,
          3.15918960e-03, 1.90173811e-03, 3.09546082e-03,
          -1.20926372e-04, 1.51907671e-02, -4.35119448e-03,
          -3.95906437e-03, -4.84346692e-03, 3.45201814e-03,
          1.19411922e-03, -4.39813035e-03, -5.38824173e-03,
          -8.34086165e-03, -5.09095285e-03, -4.63745464e-03,
          -1.43163663e-03, -1.29808625e-03, 5.05903922e-03,
          -8.20839254e-04, -1.68108218e-03, 2.11589667e-03,
          -1.64298271e-03, 1.47357583e-02, -1.59967819e-03,
          -4.89518745e-03, -4.46083583e-03, -1.82297279e-03,
          -3.04917037e-03, -6.92718662e-03, -7.93297775e-03,
          -4.59137373e-03, -4.73979861e-03, -5.45077212e-03,
          -5.75273391e-03, -4.93982947e-03, -1.78752118e-03,
          1.63317949e-03, -5.66809764e-03, -5.45943808e-03,
          -8.34228937e-03, 1.04506547e-02, -2.38646497e-03,
          -1.80919582e-04, 2.65214732e-03, 7.93849397e-03,
          -6.76632812e-03, -1.01318946e-02, -1.13540972e-02,
          -8.38805549e-03, 4.42972705e-05, -4.63823118e-04,
          -1.24782079e-03, -1.16868189e-03, 8.49982258e-04,
          -3.52712744e-03, -9.42090899e-03, -9.67133604e-03,
          -6.43590558e-03, 1.55922277e-02, -3.83177795e-03,
          -2.37658707e-04, -8.26315198e-04, -1.80877361e-03,
          -1.04994224e-02, -1.32604968e-02, -1.20140119e-02,
          -7.05402577e-03, 5.81474509e-03, 1.26248901e-03,
          1.91777945e-03, -3.53457825e-03, -6.11744402e-03,
          -6.77089626e-03, -7.36187818e-03, -5.66046964e-03,
          2.36928253e-03, -3.95587552e-03, -4.53296583e-03,
          -3.41461319e-03, -8.01709853e-03, -1.03379944e-02,
          1.26953873e-05, -8.50195123e-04, -3.17123369e-03,
          -3.24282865e-03, -2.08992409e-04, -6.17953576e-03,
          -2.46340316e-03, -6.42114133e-03, -4.83157579e-03,
          -3.36657651e-03, -1.79786247e-03, -2.12710162e-04,
          5.04187949e-04, 2.04558764e-03, 3.60513409e-03, 6.55145617e-03,
          -5.90325985e-03, -7.88266957e-03, -6.69201108e-05,
          -3.88803636e-03, -6.86603412e-03, -8.22094642e-03,
          1.58323292e-02, -1.57035235e-03, 1.55871455e-03,
          -6.64230622e-03, -4.48903302e-03, 3.20590707e-03,
          2.59629916e-03, -1.18635979e-03, -2.80163810e-03,
          -4.73228237e-03, -7.14444229e-03, 1.45664570e-04,
          -3.90201434e-03, -2.28402158e-03, 2.74458923e-03,
          -1.43713690e-03, -2.13075802e-03, -6.58917648e-04,
          1.02560511e-02, 2.57967738e-03, -9.32941388e-04,
          -6.03518635e-03, 3.15911922e-04, 3.20912176e-03,
          -2.85492768e-03, -3.33266100e-03, -7.21564749e-03,
          1.05070055e-03, -5.40660741e-03, 3.32883588e-04,
          -3.65603995e-03, -1.89618475e-03, 5.47005283e-03,
          2.58836336e-03, 3.70976678e-03, 1.55558879e-03, 1.94465891e-02,
          -3.37368285e-04, -1.26122148e-03, -2.52322876e-03,
          5.38007997e-04, -3.47871147e-03, -5.68716694e-03,
          -8.27121455e-03, -6.32924540e-03, -3.05671035e-03,
          -1.03403065e-04, -5.03217801e-03, -7.03976396e-03,
          -3.76402703e-03, -3.13814287e-03, 2.28888774e-03,
          2.11619306e-03, 9.14624520e-03, 1.13865053e-02, 8.06224160e-03,
          -1.91127358e-04, -2.73114024e-03, -3.75607563e-03,
          -4.08695079e-03, -8.17918684e-04, -2.28675781e-03,
          3.12960357e-04, -3.20493913e-04, -4.24163998e-04,
          -4.99748625e-03, -4.19340422e-03, -5.26305381e-03,
          -4.75613959e-03, 4.05178638e-03, 2.91814771e-03,
          1.07408827e-02, 1.16801923e-02, 9.99700557e-03, 9.38162615e-04,
          -3.01121082e-03, -6.18366618e-03, -3.87576944e-03,
          -1.35443627e-03, -1.47469377e-03, 5.78796072e-03,
          5.42611023e-03, 3.97842471e-03, -1.69415944e-04,
          -2.05459818e-03, -4.51307185e-03, -2.23925774e-04,
          3.21181421e-03, 2.20320234e-03, 8.51185247e-03, 5.36743598e-03,
          1.66851992e-03, 6.09106850e-04, -2.12317170e-03,
          -3.92042985e-03, -6.52810000e-03, 2.07418459e-04,
          -1.76885177e-03, 6.44054217e-03, 5.32813231e-03,
          5.31684188e-03, -2.72654649e-03, -4.29704506e-03,
          -8.29536561e-03, -4.37071640e-03, 2.88206851e-03,
          4.34504030e-03, 6.61858590e-03, 4.67859767e-03, 3.31219751e-03,
          -3.57511663e-03, -3.07155191e-03, -7.05585442e-03,
          3.90976621e-03, 7.41422782e-03, 6.76363939e-03, 4.80975583e-03,
          -8.49994482e-04, 2.47063581e-03, 2.55094958e-03,
          7.51833373e-04, -2.43897946e-03, 4.62927530e-03,
          6.65872684e-03, 2.92202341e-03, 1.33288861e-03,
          -3.00890091e-03, 1.81595725e-03, 1.47703191e-04,
          3.45789199e-03, 2.85662420e-04, 6.10193820e-04, 4.26871702e-03,
          7.11052725e-03, 6.75575063e-03, -1.87708181e-03,
          3.03987390e-03, 1.21540518e-03, 4.34218848e-04,
          -3.52762197e-03, -7.61600269e-04, 7.10684631e-04,
          2.73927674e-03, 7.14929949e-04, -7.00572319e-03,
          4.63890814e-04, -1.51834654e-04, 4.98259789e-04,
          -4.33352077e-03, 6.85440563e-03, 6.47539692e-03,
          4.64611873e-03, 2.25649634e-03, -1.52561057e-03,
          3.29462579e-03, 5.87083807e-04, 4.75892657e-03, 4.77089779e-03,
          5.52723836e-03, 2.58440431e-03, 3.07302247e-03, 5.83927147e-03,
          5.54130122e-04, 5.03718015e-03, 2.16768519e-03, 6.79065287e-03,
          3.74608068e-03, 1.92955148e-03, 1.82704185e-03,
          -2.77523330e-04, 2.47283926e-04, -2.49257684e-03,
          6.81050296e-04, -2.54697137e-04, 1.43205072e-03,
          -3.37908015e-04, 1.10185787e-03, -3.65735963e-03,
          -4.57933871e-03, -6.28690410e-04, -6.50480855e-03,
          -1.17101287e-03, -7.97939079e-04, 2.64019193e-03,
          1.66990692e-04, 5.29263122e-03, 2.20116135e-03, 3.81037267e-03,
          2.77731474e-03, 1.04949612e-03, 5.85234025e-03, 3.54557647e-03,
          6.35575643e-03, 5.92659507e-03, 5.45225479e-03, 2.83020060e-03,
          6.04920276e-03, 4.26531769e-03, -2.70387460e-03,
          6.59049815e-03, 2.69658258e-03, 3.39247892e-03, 5.52973244e-03,
          6.78580254e-04, -1.36365555e-03, 1.12237455e-03,
          -1.51741656e-03, -5.12429886e-03, 3.11818998e-03,
          3.74662015e-03, 3.09389341e-03, -1.52128213e-03,
          2.86712288e-03, 2.30005779e-03, 3.76056693e-03, 1.18309516e-03,
          -7.72185624e-03, 2.34798808e-03, 1.91780797e-03,
          2.02413081e-04, 2.73464737e-03, 4.58500721e-03, 3.02447076e-03,
          6.06036093e-03, 2.29648734e-03, 1.65249908e-03, 3.81543930e-03,
          1.37266167e-03, -1.25390675e-03, 4.55578044e-03,
          -2.25783000e-03, 1.84185291e-03, 6.42160792e-03,
          6.93727937e-03, 5.76850260e-03, 6.89642737e-03, 1.93164998e-03,
          -6.01618958e-04, -1.42465183e-03, 2.02321797e-03,
          1.53165450e-03, 2.51641078e-03, 1.61297305e-03,
          -4.11257660e-03, -9.18019563e-04, -8.08376994e-04,
          -4.98978945e-04, 3.98192741e-03, -2.85529858e-03,
          -1.19212014e-03, 4.37345263e-03, 7.57506024e-03,
          2.50555365e-03, 1.63925043e-03, -4.70415782e-03,
          -5.89501346e-03, -2.90285610e-03, -4.23498545e-03,
          4.24502417e-03, 4.53782547e-03, 8.87272693e-03, 1.23928757e-02,
          6.15512626e-03, 8.95395293e-04, -1.02062325e-03,
          -5.31877251e-03, -3.89940455e-03, 2.12710747e-03,
          2.43335031e-03, 1.14157633e-03, 6.16844697e-03,
          -1.87326327e-03, -4.77582403e-03, -4.41703154e-03,
          -7.43915746e-03, -3.08997859e-03, 7.45955156e-04,
          5.24363993e-03, 1.15533639e-02, 1.07370391e-02, 2.33235280e-03,
          -2.84716138e-03, -5.77407889e-03, -5.78872254e-03,
          -6.14400255e-03, -3.91470734e-03, -2.02626293e-03,
          3.72047210e-03, 3.64302099e-03, -4.03664913e-03,
          -6.57332223e-03, -7.73596903e-03, -8.15497898e-03,
          -1.82894248e-04, 8.17248656e-04, 3.98322148e-03,
          7.75144959e-04, 2.06691604e-02, 4.23883414e-03,
          -1.82198070e-03, -3.76124447e-03, -5.03527792e-03,
          -2.40305415e-03, -2.00488977e-03, -5.95535478e-03,
          -1.78204989e-03, -8.82378372e-04, -8.99102713e-04,
          -3.37703340e-03, -5.76370535e-03, -6.05623331e-03,
          -5.93216764e-03, -2.36121612e-03, -1.53542671e-03,
          -1.43475668e-03, 1.18440194e-02, -1.20416959e-03,
          -4.97993827e-03, -5.76279964e-03, -9.53260064e-03,
          -2.83467956e-03, 2.85260467e-04, -1.33255951e-03,
          -2.56240950e-03, -5.00162179e-03, -3.37465084e-03,
          -3.68131814e-03, -4.22742218e-03, -4.97700926e-03,
          -3.16995964e-03, -5.32995118e-03, -5.31295035e-03,
          -3.09660030e-03, 1.57617591e-02, -3.05617647e-03,
          -1.26629893e-03, -2.66532693e-03, -4.82731964e-03,
          -1.06085669e-02, -9.07230377e-03, -6.96207210e-03,
          -3.57228960e-03, 6.46581920e-03, 1.31858210e-03,
          1.16031384e-03, -4.09406517e-03, -9.31250304e-03,
          -1.32445863e-03, -1.57320895e-03, -2.75064399e-03,
          -4.29247087e-03, 7.22784409e-03, -3.71197355e-03,
          -3.00781778e-03, -2.93008634e-03, -5.07300766e-03,
          -6.32062182e-03, -5.48483338e-03, -3.69283953e-03,
          -2.27207155e-03, 7.62398448e-03, -7.10928522e-04,
          -3.08000133e-03, -5.55353798e-03, -9.02436581e-03,
          -4.43076948e-03, -8.83600325e-04, -2.23333831e-03,
          -2.90701445e-03, -1.15030783e-03, 3.30107100e-03,
          5.87748317e-03, -6.02166494e-03, -7.93573167e-03,
          -5.06304903e-03, -4.74108569e-03, -4.67124395e-03,
          -7.02677527e-03, 4.68712486e-03, -1.87961676e-03,
          3.28433979e-03, -2.63446802e-03, -6.06944505e-03,
          -5.56603167e-03, -3.09265940e-03, -5.89213218e-04,
          -2.64821365e-03, -5.24568185e-03, 4.48245229e-03,
          4.55257110e-03, -4.83309012e-03, -6.29447959e-03,
          -3.11141834e-03, -6.05025189e-03, -1.86264154e-03,
          -5.92962466e-03, 1.01498757e-02, -1.42065471e-03,
          3.13555426e-03, -3.08681931e-03, -3.31449159e-03,
          -1.74204877e-03, -5.44112409e-03, -5.52262273e-03,
          -6.61294907e-03, -3.50298500e-03, -2.64497427e-03,
          1.34021416e-03, -2.82793841e-03, -4.23711026e-03,
          -2.54892977e-04, 6.28971437e-04, -1.11188530e-03,
          1.53857481e-03, 1.02622341e-02, 8.82370921e-04,
          -2.54893996e-04, 7.22783210e-04, -2.39044102e-03,
          -1.15980813e-03, -4.44938336e-03, -2.80503952e-03,
          -7.18586007e-03, -5.75748459e-03, -2.33530742e-03,
          2.12056236e-03, 7.84366392e-04, -1.63900864e-03,
          -1.04965677e-03, 4.01951885e-03, 2.20753625e-03,
          1.76475174e-03, 7.57591380e-03, 2.15837383e-03, 2.49186950e-03,
          2.24466872e-04, -5.84290246e-04, -2.59033847e-03,
          3.98197764e-04, 6.37127669e-04, -5.43752569e-04,
          -1.49910315e-03, -1.42316730e-03, -2.72987015e-03,
          -2.00980040e-03, -5.31986030e-03, -4.56600310e-03,
          1.72169495e-03, 2.72189267e-03, 8.07160605e-03, 1.21235689e-02,
          8.89978092e-03, 1.16918737e-03, -1.72756403e-03,
          -4.58977651e-03, -4.64966195e-03, 4.03600628e-04,
          1.11887646e-04, -2.89485999e-03, -5.06478036e-03,
          -6.25809771e-04, -5.44262177e-04, -4.21879347e-03,
          -5.69617562e-03, -6.10994268e-03, -2.02732650e-03,
          2.25023541e-04, 6.37997175e-03, 7.03017600e-03, 1.15942610e-02,
          3.57079250e-03, -1.27161958e-03, -6.80830423e-03,
          -4.92964871e-03, -1.00390555e-03, 2.95438804e-04,
          5.71543444e-03, 8.38014483e-03, 5.14316047e-03,
          -1.10736051e-04, -1.36150455e-03, -4.24049748e-03,
          -5.33605181e-03, -1.95519417e-03, -1.71340595e-04,
          4.56971815e-03, 2.17867107e-03, 1.91762706e-03,
          -4.05839365e-03, -2.41405651e-04, -3.50357383e-03,
          -4.80670808e-03, -3.16296215e-03, -4.61311836e-04,
          2.96956906e-03, 5.13027702e-03, 8.49067140e-03, 4.29820648e-04,
          -1.66142278e-03, -4.13777772e-03, -3.20002902e-03,
          -2.63196998e-03, 5.10613376e-04, 5.87582123e-04,
          -5.85415510e-05, 4.71974211e-03, -1.92415449e-04,
          -5.99243038e-04, -1.58206420e-03, -1.16435891e-04,
          4.91973339e-03, 7.50195747e-03, 8.64965934e-03, 3.65079577e-05,
          6.42427127e-04, -6.61240076e-04, 1.77255564e-03,
          -9.38120822e-04, -2.56322394e-03, 1.62365159e-03,
          5.30883577e-03, 6.04817225e-03, -1.26624363e-03,
          -1.56285858e-03, 6.24769658e-04, -2.42031622e-03,
          -6.16601435e-03, 1.70532207e-03, 3.83669068e-03,
          5.28727332e-03, 4.88895969e-03, -1.85906794e-03,
          1.51752750e-03, 2.36111879e-03, 1.54490510e-04, 1.68157939e-03,
          -2.28963632e-04, 2.72777863e-03, 5.03759086e-03,
          6.71329908e-03, -2.97650375e-04, -9.55583964e-05,
          -2.00769049e-04, -3.43491277e-03, -2.51221890e-03,
          -3.12250224e-04, -1.11962529e-03, 7.92011619e-04,
          3.37920780e-03, 4.26950224e-04, -1.97735033e-03,
          -6.29675284e-04, 1.52334396e-04, -3.26474896e-03,
          3.53043783e-03, -4.37439000e-03, 3.39032995e-04,
          1.22537836e-03, -5.45391953e-03, -1.03244535e-03,
          2.11765943e-03, 6.08641189e-04, 1.37504167e-03, 6.29611313e-03,
          4.81089763e-03, 5.01554739e-03, 6.00945018e-03, 9.91080538e-04,
          -1.54187693e-03, -3.50758899e-03, 1.43696170e-05,
          2.91938381e-03, 7.25780986e-03, 4.47799079e-03, 6.85829902e-03,
          2.40626815e-03, 8.14958417e-04, -1.37473061e-03,
          -3.88388033e-03, 4.41987562e-04, 2.51667667e-03,
          2.73700175e-03, 1.06857403e-03, 4.69784392e-03, 2.81562400e-03,
          -5.71148470e-04, 1.34992576e-03, 1.55641686e-03,
          -6.76251773e-04, 1.21188990e-03, 2.94809020e-03,
          3.67328408e-03, 2.76599592e-03, -7.70413026e-05,
          -7.93029275e-03, -3.82802403e-03, -7.44938850e-04,
          4.56128590e-04, 1.91307231e-03, 3.67623335e-03, 5.24239382e-03,
          8.66988115e-03, 6.88675791e-03, 2.91602220e-03,
          -5.82318753e-04, -3.12749762e-03, 6.54914998e-04,
          4.23152978e-03, 2.79514911e-03, 4.27009771e-03, 4.96794423e-03,
          2.65007024e-03, -7.76675763e-03, -5.53330081e-03,
          -3.71004129e-03, -1.27992313e-03, 4.69061965e-03,
          2.46084714e-03, 5.28591778e-03, 4.35363455e-03, 3.50720691e-03,
          -4.14450606e-03, -4.28535743e-03, -2.40933942e-03,
          -1.65533726e-04, 2.91568250e-03, -1.30036112e-03,
          2.29771342e-03, 3.39927082e-03, 4.69422294e-03, 3.78305209e-03,
          2.27204198e-03, -3.67045240e-03, -2.78232573e-03,
          -2.24385597e-03, 2.02682614e-03, 4.14646417e-03,
          3.80408042e-03, 2.39759218e-03, -7.68087758e-03,
          -5.47595881e-03, -3.52766295e-03, -3.01510701e-03,
          4.17831820e-03, -1.92204141e-03, -1.28196727e-03,
          -1.57422270e-03, 3.44637758e-03, -1.27839705e-03,
          1.48660643e-03, -3.67198465e-03, -4.37099254e-03,
          -2.48940522e-03, 4.02780483e-04, 3.30447103e-03,
          3.95079842e-03, 8.28933902e-03, 1.38578713e-02, 2.85897078e-03,
          -3.03432392e-03, -3.63980699e-03, -1.22578267e-03,
          -3.06316512e-03, -3.46231437e-03, -4.46739653e-03,
          9.59600322e-04, 4.54841508e-03, -7.82671291e-03,
          -8.14232882e-03, -3.82503914e-03, -4.26915195e-03,
          -4.50408971e-03, -3.28989164e-03, -6.07631495e-03,
          3.16890515e-03, 6.97989343e-03, 2.10545119e-03,
          -3.12952464e-03, -2.72880052e-03, -4.80495207e-03,
          -3.97175690e-03, -3.84694408e-03, -5.46849379e-03,
          4.82142030e-04, 3.03989835e-03, -5.30312164e-03,
          -7.76690152e-03, -4.20188950e-03, -4.49397927e-03,
          -1.52064301e-03, -1.35916588e-03, 1.94563589e-04,
          -2.20733741e-03, 1.87763199e-02, -5.99165726e-03,
          -6.52322872e-03, -4.50975215e-03, -2.77660321e-03,
          -7.59346993e-04, -1.06776354e-03, -7.77041249e-04,
          -2.64251092e-03, -5.86349517e-03, -5.79985185e-03,
          -3.45877116e-03, -3.35767330e-03, -2.37993873e-03,
          -3.33810248e-03, -4.23627207e-03, -2.21639988e-03,
          -2.27190997e-03, 1.10057192e-02, -6.25168532e-03,
          -5.18736383e-03, -2.61228601e-03, -2.00118287e-03,
          -3.73679050e-03, -7.28477212e-03, -8.70908983e-03,
          -5.33576449e-03, -7.09734019e-03, -7.46232923e-03,
          -6.12287689e-03, -3.35721090e-03, -1.70403742e-03,
          -4.17450239e-04, -1.47707947e-03, -2.92433146e-03,
          -2.57838448e-03, 4.54342412e-03, -3.34016280e-03,
          -1.49013929e-03, -3.21726128e-03, -2.41105608e-03,
          -4.11001127e-03, -1.69405807e-03, -9.98024596e-04,
          -1.80056365e-03, 7.51565164e-03, -4.68759472e-03,
          -6.53281575e-03, -6.02117553e-03, -6.71847770e-03,
          -2.95441394e-04, -4.51954687e-03, -7.02238968e-03,
          -7.54828332e-03, 4.68008034e-03, -5.90051338e-03,
          -4.00002394e-03, -3.94763611e-03, 1.18800346e-03,
          -4.30021901e-03, -3.77864367e-03, -2.55858712e-03,
          -6.05744310e-03, -3.20613704e-04, -1.01671601e-02,
          -7.42560998e-03, -5.17661544e-03, -2.89698341e-03,
          -6.08586008e-03, -2.30296655e-03, -6.95010938e-04,
          -2.26145727e-03, -3.45090451e-03, 6.61576679e-03,
          2.44166795e-03, -3.00536002e-03, -6.21002074e-03,
          1.23750127e-03, -3.56158987e-03, -8.78419087e-05,
          -2.39260448e-03, 3.23031005e-03, 5.13747288e-03,
          7.26997573e-03, 4.68898285e-03, 4.39931778e-03,
          -1.23066660e-02, -5.16115362e-03, -3.87325045e-03,
          -4.59660310e-03, -5.08425618e-03, 1.44265254e-03,
          -1.52120879e-03, -6.20869966e-03, -1.49289183e-02,
          -9.35771875e-03, -4.60845744e-03, -3.07517056e-03,
          -5.77591918e-03, 1.09169455e-02, -2.15070299e-03,
          4.37575409e-06, -3.12633440e-03, -8.84999428e-03,
          1.89049111e-03, -6.49486377e-04, 1.77578721e-03,
          -2.71760998e-03, -5.84304659e-03, -1.78481848e-03,
          5.31293685e-03, 4.03053826e-03, 5.86282276e-03, 3.55594722e-03,
          1.58173963e-03, 2.67965230e-03, 1.44273287e-03, 3.06422659e-03,
          -8.26112810e-04, 6.98631024e-03, 2.29954487e-03,
          6.99118199e-03, -7.70456716e-03, -3.09715816e-03,
          8.52229015e-04, -2.04073312e-03, -3.26481322e-03,
          -2.15618848e-03, 2.87814852e-04, -2.09438871e-03,
          -6.85323682e-03, -4.12213849e-03, -2.34002154e-03,
          1.09178701e-03, 1.29439926e-03, 3.71957175e-03,
          -1.88108790e-03, -4.13644942e-04, -9.67377040e-04,
          -1.87314407e-03, -6.39542588e-04, 1.35246851e-03,
          -7.06137216e-04, -8.50456185e-04, -6.23693317e-03,
          -1.59720797e-03, 4.31565428e-03, -3.06909787e-04,
          2.36028631e-04, 5.82177076e-04, -4.59588860e-04,
          5.35249477e-04, 5.90158720e-03, 6.49684900e-03, 1.39722330e-02,
          8.89612176e-03, 1.57490978e-03, -1.35069015e-03,
          -8.73305928e-03, -3.44535825e-03, -2.28293962e-03,
          -3.18931765e-03, -6.45986851e-03, -1.95075490e-03,
          -3.18646384e-03, -4.47301799e-03, -6.53079199e-03,
          -5.03768353e-03, -1.31557777e-03, -2.11460560e-04,
          1.23434723e-03, 4.25454229e-04, 1.12583665e-02, 1.03830751e-02,
          4.18689451e-04, -5.55130048e-03, -4.06998768e-03,
          -4.07036440e-03, -1.85591239e-03, 2.76039960e-03,
          1.93476712e-03, 9.09835007e-03, 4.22274042e-03,
          -6.13156881e-04, -2.42130575e-03, -1.84446573e-03,
          -6.98774005e-04, -1.50144380e-03, 1.04274286e-03,
          1.47822092e-03, 4.94763721e-03, 3.59181641e-03, 1.37398439e-03,
          -6.45641529e-04, -8.40533618e-03, -3.67762358e-03,
          -2.69804755e-03, -1.34874228e-03, -2.81023514e-03,
          6.21519797e-03, 3.86303733e-03, -8.11499835e-04,
          -5.79703832e-03, -3.34367761e-03, -1.52361536e-04,
          -9.43855033e-04, -1.22268696e-03, -3.82551551e-03,
          3.51710245e-03, 5.36298426e-03, 4.29228088e-03,
          -1.99082284e-03, 2.69519864e-03, 1.76307699e-03,
          1.98394456e-03, 4.22623008e-03, 1.22032419e-03,
          -9.59739496e-04, 2.00976920e-03, 2.22936086e-03,
          3.38559086e-03, -1.47975341e-03, 4.76185378e-04,
          2.65733059e-03, 6.53039850e-03, -2.48486036e-03,
          1.57047107e-04, -3.23917455e-04, -2.99532927e-04,
          -6.46244211e-04, 1.18996002e-04, 3.20176431e-03,
          1.56892813e-03, 3.46952141e-03, -2.16074544e-03,
          -1.99466688e-03, 1.96869159e-03, 3.27094784e-03,
          2.30696006e-03, 3.71986040e-04, -1.40958015e-04,
          2.57344707e-03, 5.43158967e-03, -2.96625309e-03,
          -7.75582215e-04, 2.56871898e-03, 3.16669815e-03,
          1.18055206e-03, 2.42609112e-03, 2.92940089e-03, 2.28001946e-03,
          4.93435934e-03, 2.31902843e-04, 9.34794720e-04, 6.73992836e-05,
          3.66450986e-05, 1.61203250e-04, 2.39008735e-03, 3.58033506e-03,
          4.03310033e-03, 1.37241534e-03, -6.64962747e-04,
          3.53281823e-04, -1.87157094e-03, -9.96292569e-04,
          -4.69605031e-04, 2.36136094e-03, 1.72365317e-03,
          2.39224941e-03, 4.36934829e-03, -4.43759700e-03,
          2.42099911e-03, 8.21654452e-04, 1.30816177e-03, 1.38125638e-03,
          9.39470949e-04, 4.45328839e-03, 1.15386478e-03, 8.17888009e-04,
          -5.45753678e-03, 5.21756738e-05, 3.44418891e-04,
          -3.27461748e-03, -2.43146066e-03, 5.05203556e-04,
          5.51718706e-03, 6.38713874e-03, 1.99115020e-03,
          -9.26645182e-04, 7.72715546e-04, -6.98124175e-04,
          1.92549499e-03, 1.93757052e-03, -3.38820799e-04,
          1.03367225e-03, 4.29083826e-03, -2.41490459e-04,
          -9.34668910e-03, -3.51438485e-03, -4.99371812e-03,
          -1.00708450e-03, 2.71940976e-03, 3.75626865e-03,
          4.70652524e-03, 4.31641284e-03, -1.41088327e-03,
          -5.56325866e-03, 1.63641875e-03, 3.83579405e-03,
          2.70761270e-03, 7.30230357e-04, 4.32035886e-03, 6.21085637e-04,
          9.97793628e-04, -5.81895839e-03, -9.56299249e-03,
          -7.56172289e-04, -9.97587456e-04, 1.69085583e-03,
          4.53527505e-03, 3.52793653e-03, 4.60377848e-03, 7.76139973e-03,
          7.42395595e-03, -7.65230623e-04, -2.55956687e-03,
          -9.88210668e-04, -1.99236209e-03, 6.17437996e-03,
          7.26590690e-04, 2.65813724e-05, 1.48029486e-03, 2.56971060e-03,
          -1.25892181e-03, -2.64926697e-04, -4.90193022e-04,
          -4.56464430e-03, -1.45099056e-03, 4.01641754e-03,
          -9.91319190e-04, 1.87280949e-03, 1.02810177e-03,
          -3.84315383e-03, -1.85658119e-03, -1.03038887e-03,
          -2.60183844e-03, 3.44070676e-03, 2.16313289e-03,
          -6.86287880e-04, 9.50727670e-04, 1.82547211e-03,
          -7.95822684e-03, -4.83809551e-03, -4.49479837e-03,
          -6.51089055e-03, -9.35899734e-04, 2.75901752e-04,
          -8.38305394e-04, -2.25578225e-03, 2.79847905e-03,
          9.15892515e-03, 7.77865876e-04, -3.41063133e-04,
          -2.70762620e-03, -3.22050927e-03, 6.57084282e-04,
          -1.80836860e-03, -3.08402791e-03, 1.16662390e-03,
          1.30230619e-03, -1.80207496e-03, -4.75451676e-03,
          -3.21239745e-03, -2.20711133e-03, -1.39238022e-03,
          -1.60064269e-03, 2.11067568e-03, 4.39866446e-03,
          -5.91788033e-04, -2.78786523e-03, -2.35296297e-03,
          -3.91983613e-03, -1.25532923e-03, -1.45152176e-03,
          -3.39474971e-03, -3.01429303e-03, 3.19572585e-03,
          1.47148012e-03, -2.97165918e-03, -4.46427753e-03,
          -3.20725515e-03, -2.15571956e-03, 3.58622114e-04,
          -3.64402030e-03, -1.84176804e-03, -8.91387986e-04,
          9.74980928e-03, -3.23429890e-03, -5.06995060e-03,
          -7.08399049e-04, 1.15849602e-04, 7.67888792e-04,
          -6.69878349e-03, -6.76836772e-03, -3.84101202e-03,
          -4.10175230e-03, -7.23036425e-03, -5.86010050e-03,
          -1.79243344e-03, 2.14700238e-03, 1.14354957e-03,
          -1.94702577e-03, -2.77626724e-03, 6.93915295e-04,
          6.84958557e-03, -4.46669199e-03, -7.72335380e-03,
          -4.12925519e-03, -1.97863599e-04, 3.00654350e-03,
          -3.27929808e-03, -4.84626507e-03, -4.24291613e-03,
          -5.43036219e-03, -7.59315304e-03, -9.45540424e-03,
          -7.69638317e-03, 2.94473139e-03, 3.36807291e-03,
          -2.65769847e-03, -9.44438297e-03, -6.55257655e-03,
          -4.81409152e-05, -5.06645720e-03, -3.86147271e-03,
          -3.03025264e-03, 5.85190533e-03, 1.72272301e-03,
          -3.52554326e-03, -2.27977033e-03, -4.20184201e-03,
          -2.09208135e-03, -7.04529975e-03, -5.31721767e-03,
          -3.80674982e-03, 2.32224958e-03, 7.78852170e-03,
          -2.07363046e-03, -4.22838377e-03, -5.41104563e-03,
          4.95318044e-03, -6.37080567e-03, -7.51842977e-03,
          -6.81216735e-03, 2.52454216e-03, 1.48286100e-03,
          -2.74469203e-04, -1.24364183e-03, -7.59909116e-03,
          -6.89327344e-03, -1.00609232e-02, -8.61279946e-03,
          -7.44247297e-03, -1.66524877e-03, -2.62606353e-03,
          -4.29495983e-03, -2.34861439e-03, -5.18423226e-03,
          -6.18501753e-03, 1.24765502e-04, 4.34621517e-03,
          -2.59375339e-03, -2.95148254e-03, -7.34932022e-04,
          -3.20718205e-03, 9.09033697e-05, -6.67383987e-03,
          1.18234707e-02, -3.62376426e-03, 3.75853642e-03,
          1.48182549e-03, 2.03419570e-03, -9.53460205e-03,
          -7.59524340e-03, -3.15139932e-03, -6.55362010e-03,
          -7.15263002e-03, -7.80954305e-03, -1.79295358e-03,
          -9.31315683e-03, -1.18168667e-02, -6.52107829e-03,
          -6.82703685e-03, -3.24881170e-03, -8.44402239e-03,
          1.29083274e-02, -9.62418411e-03, 1.72822597e-03,
          -1.57140498e-03, -6.41881069e-03, -2.42002308e-03,
          -4.26159194e-03, -3.47401394e-04, -2.64898245e-03,
          -2.23738747e-03, -3.27354879e-03, 3.03332112e-03,
          -8.98029597e-04, -1.89704343e-03, 4.98388382e-03,
          -2.09657033e-03, 8.05313233e-04, 1.76112074e-03,
          1.02042817e-02, 1.80934975e-03, 3.32118734e-03, 1.86635612e-03,
          5.62539417e-03, -3.88192781e-03, -5.20655978e-03,
          -2.62136338e-03, -5.44139650e-03, -2.99486634e-03,
          -7.92585593e-03, -6.38605328e-04, -3.14454548e-03,
          -5.20050898e-03, 2.11757096e-03, -3.60041624e-03,
          -3.70924664e-03, -4.67631035e-03, 6.25820737e-03,
          -4.36328555e-04, 1.35018385e-03, 7.81553390e-04,
          -1.34848058e-03, -1.25365180e-03, -3.20241041e-03,
          -1.56846188e-03, -1.19139813e-03, -4.10370762e-03,
          -1.73602637e-03, -1.34701747e-03, -2.16299179e-03,
          -1.00172951e-03, 3.56037635e-03, -4.10658366e-04,
          2.33604643e-03, 3.09448852e-03, 6.13147672e-03, 8.25536437e-03,
          1.19945640e-02, 6.09777402e-03, 4.72540222e-03,
          -3.76472669e-03, -1.69078587e-03, -2.09498964e-03,
          -4.71860589e-03, -9.10375826e-03, -4.35114605e-03,
          -4.02481062e-03, -3.03137419e-03, -9.23212059e-03,
          -2.79356050e-03, -1.29271380e-03, 1.47905445e-03,
          -1.95813389e-03, -2.23724986e-03, 4.00987873e-03,
          3.82728642e-03, -2.09370442e-03, -6.90348912e-03,
          -1.17441546e-03, -1.42119580e-03, 8.07780307e-04,
          7.43869110e-04, -1.22765859e-03, 7.60076568e-03,
          5.99488756e-03, 3.50931613e-03, 7.47687940e-04, 6.07804302e-03,
          1.87704538e-03, 2.08786014e-03, 1.62088044e-03,
          -1.69254083e-03, 6.08201930e-03, 6.26679277e-03,
          8.29526037e-03, 5.15409373e-03, -5.46725513e-03,
          -4.44775820e-03, -4.18165670e-04, -2.48393742e-03,
          -6.40178006e-03, 2.50015262e-04, -1.90455071e-03,
          -5.23194671e-03, -8.55481159e-03, -3.50330840e-03,
          -7.21101882e-04, 1.17187265e-04, -8.18209781e-04,
          -6.18830603e-03, -5.04253607e-04, -2.43842788e-03,
          -3.39209544e-03, -5.68879163e-03, 5.71140880e-03,
          3.34106619e-03, 1.74174516e-03, 2.05294252e-03,
          -5.74545003e-03, -3.43246880e-04, 9.19300073e-04,
          3.44199338e-03, 4.01803851e-03, 1.07552940e-02, 4.11661761e-03,
          2.25767517e-03, 1.95624074e-03, -5.67852845e-03,
          -1.08276703e-03, 2.36548251e-03, 3.71638406e-03,
          7.60314241e-03, -2.27412977e-03, 3.64794536e-03,
          -1.12028763e-04, 7.11804838e-04, -4.73201368e-03,
          -2.32921657e-03, -3.32935899e-03, -6.62467722e-03,
          -7.26020662e-03, -3.78336944e-03, 4.38716030e-03,
          -1.98355666e-03, -1.31682784e-03, -6.86628977e-03,
          -1.72661594e-03, -3.16082523e-03, -6.74475916e-03,
          -4.53121029e-03, 8.71247705e-03, 3.39828548e-03,
          1.86833914e-03, 2.18015187e-03, -4.61802958e-03,
          4.96964669e-04, 2.27465387e-03, 3.35230399e-03, 7.60499435e-03,
          6.18812768e-03, 1.54929759e-03, -2.84801237e-04,
          -1.34409638e-03, -6.32339716e-03, -7.49138009e-04,
          1.00754970e-03, -2.56338681e-04, 2.34420039e-03,
          -2.79540778e-03, 1.76272390e-03, -2.40758236e-04,
          -1.94992078e-03, -5.93383471e-03, -2.30518999e-04,
          -1.80370302e-03, -1.96622219e-03, -3.16001824e-03,
          -3.86123452e-03, -4.25755093e-03, -2.04254431e-03,
          -4.99058049e-03, -6.07073400e-03, -1.10536942e-03,
          7.14591821e-04, -2.04802025e-04, -3.15333833e-03,
          9.53214802e-03, 4.26968373e-03, 2.82610557e-03,
          -7.03998783e-04, -4.26439149e-03, 1.76464603e-03,
          2.32536928e-03, 1.04799774e-03, 6.60303561e-03, 7.36072659e-03,
          -1.12118071e-03, -4.27570078e-04, -4.43956861e-03,
          -7.09984871e-03, -1.87749334e-03, -1.78269355e-03,
          -1.04543241e-03, 5.77091984e-03, -3.16227577e-03,
          -4.40091360e-03, -1.43001834e-03, -3.18228616e-03,
          -4.81764739e-03, 1.94679049e-03, 5.60240878e-04,
          -9.57851589e-04, -2.17940123e-03, -2.74362136e-03,
          -4.03267145e-03, -2.72795395e-03, -3.22436518e-03,
          -6.60943380e-03, -3.30835907e-03, -5.20468969e-03,
          -3.91774857e-03, -1.16827153e-03, 9.97224450e-03,
          8.30966106e-04, 3.30894976e-03, -1.06167892e-04,
          3.83622735e-03, -2.38395622e-03, -3.77396680e-03,
          -2.99939746e-03, 7.71624083e-03, 5.89850266e-03,
          -2.56660423e-04, 6.94440037e-04, -1.10418233e-03,
          -1.05245849e-02, -5.18759713e-03, -6.61758007e-03,
          -6.16798550e-03, 3.20231938e-03, -1.77562993e-04,
          -2.47487798e-04, 2.28456664e-03, -1.59769581e-04,
          4.00437330e-06, -5.45634516e-03, -7.15164235e-03,
          -3.68836150e-03, -1.94817723e-03, -7.57398200e-04,
          -5.98380459e-04, -1.42202189e-03, -3.91159346e-03,
          -8.12699832e-03, -3.05021927e-03, -7.37544242e-03,
          -6.22856850e-03, -4.11287928e-03, 6.13283180e-03,
          1.44312752e-03, 1.96862407e-03, -8.06536627e-06,
          -3.39160068e-03, -1.50528958e-03, -5.85817778e-03,
          -5.34546655e-03, 2.80423369e-03, 2.73824809e-03,
          1.70728177e-04, 1.55813119e-03, -3.10459931e-04,
          5.79443353e-04, -2.13786052e-03, -4.52798512e-03,
          -4.25809948e-03, 1.00917672e-03, -1.09109926e-04,
          2.45202944e-04, 2.07530975e-04, -1.93833420e-03,
          -9.00526531e-03, -1.99154089e-03, -5.97775448e-03,
          -6.78992318e-03, -5.33448253e-03, -1.52059703e-03,
          -2.28865002e-03, -4.80332412e-03, -6.38894504e-03,
          -8.81859194e-03, -2.18193163e-03, -3.44763463e-03,
          -4.68440494e-03, -4.95031709e-03, 4.60010860e-03,
          3.40602081e-03, -1.34728418e-03, -1.57754368e-03,
          1.08864680e-02, -4.67103161e-03, -9.12245363e-03,
          -6.55360427e-03, 1.42648746e-03, 9.33927856e-03,
          1.23901980e-03, -6.34296099e-03, -7.74012646e-03,
          -4.74632485e-03, -7.90799968e-03, -1.10065835e-02,
          -8.81834980e-03, 3.90775735e-03, -6.83819118e-04,
          -1.46140519e-03, -6.84948219e-03, -6.32004254e-03,
          -3.77649069e-03, -2.50114826e-03, -6.01665396e-03,
          -7.26987328e-03, -3.16968071e-03, -9.04570392e-04,
          -5.94358006e-03, -1.03326254e-02, -1.02375653e-02,
          -8.40641931e-03, -6.10058336e-03, -1.35403685e-02,
          -1.33466572e-02, -4.39851684e-03, 1.21319601e-02,
          4.34146216e-03, -1.03828125e-03, -8.29915982e-03,
          4.66208003e-05, -7.29239685e-03, -7.54580135e-03,
          -6.81880303e-03, 4.42052167e-03, 6.83697779e-03,
          5.32565871e-03, -3.39500909e-03, -9.21638962e-03,
          -7.90372211e-03, -1.05415462e-02, -9.11739189e-03,
          -7.75885815e-03, -1.03966275e-03, 3.47887608e-03,
          -7.04930723e-03, -1.04234805e-02, -1.08092278e-02,
          -1.16620504e-03, -5.77640906e-03, -1.16559574e-02,
          -1.21918712e-02, -1.80733716e-03, 9.98169417e-04,
          -6.54812064e-03, -1.14741167e-02, -1.14701176e-02,
          -6.56964444e-03, -1.33670643e-02, -1.15256663e-02,
          -9.69880074e-03, -3.11338645e-03, -5.43702394e-03,
          -7.48143904e-03, -3.55324452e-03, -5.70557779e-03,
          -7.82151427e-03, -8.46656784e-03, -2.80163088e-03,
          -7.58506078e-03, -6.35916693e-03, -2.67480646e-04,
          -5.22777066e-03, -6.45308814e-04, -7.97599461e-03,
          1.76029094e-02, -5.99464821e-03, 2.87399674e-03,
          1.08025665e-03, 2.21964251e-03, -7.15460349e-03,
          -7.04698171e-03, -4.28779237e-03, -6.86748791e-03,
          -7.51804980e-03, -1.07482718e-02, -8.13729502e-03,
          -8.76871683e-03, -5.47917979e-03, -3.83994472e-03,
          -5.76722110e-03, -3.69734922e-03, -1.24618774e-02,
          7.79781537e-03, -1.29398443e-02, -5.47567569e-03,
          -5.70957735e-03, -3.64750158e-03, 9.85757331e-04,
          -1.75020553e-03, -2.10452615e-03, -5.36363339e-03,
          -2.58084247e-03, -9.31336451e-03, -3.09331249e-03,
          -3.48056247e-03, 2.38393969e-03, 6.99627912e-03,
          3.06778296e-04, -2.21622479e-03, -5.97258238e-03,
          8.43406562e-03, -1.06335990e-03, 2.39608553e-03,
          6.18508639e-05, 4.82919300e-03, -4.16791299e-03,
          -5.37883630e-03, -4.52118786e-03, -8.83427542e-03,
          -1.36229405e-02, -1.37539897e-02, -5.57277352e-03,
          -3.05342139e-03, -3.62388953e-03, -4.94634686e-03,
          -1.43003464e-03, -3.51588451e-03, -5.40661905e-03,
          -3.19520873e-03, -6.53771264e-03, -2.97674886e-03,
          -1.73955015e-03, -2.00129882e-03, 2.11611646e-03,
          -2.21726694e-03, -1.62429048e-03, -6.98639406e-03,
          -2.57076998e-03, -6.01636060e-03, -1.43261359e-03,
          -3.03990976e-03, -2.25695153e-03, 3.94524279e-04,
          -1.82564778e-03, 1.04791170e-03, -5.42757509e-04,
          6.08766871e-03, 2.27469206e-03, 6.18991721e-03,
          -2.03663274e-03, -3.22922203e-03, -6.62093423e-03,
          -4.07365803e-03, -3.39427940e-03, -7.85664562e-03,
          -5.50022302e-03, -7.08111282e-03, -3.05658719e-03,
          -2.08619772e-03, -5.11832908e-03, -4.83379373e-03,
          -1.56002527e-03, -5.75889833e-04, -2.58810958e-03,
          -1.74973661e-03, -2.46593775e-03, 3.43289605e-04,
          -2.30580987e-03, -4.61038295e-03, -7.02776189e-04,
          -1.96449575e-03, 2.15293243e-04, -1.00623316e-03,
          -1.50332227e-03, -1.01183809e-03, -2.29873316e-04,
          -6.55470975e-03, -4.52186912e-03, 5.41176880e-03,
          4.58609266e-03, 2.95934314e-03, -3.16310652e-05,
          5.09234425e-03, 1.13179267e-03, 6.07249152e-04,
          -3.02420254e-03, 1.58515875e-03, -3.09057347e-03,
          -1.26912282e-03, -1.83062337e-03, -2.80478620e-03,
          -6.25065900e-03, -3.73557978e-03, -3.26632080e-03,
          -6.28174888e-03, -5.46775153e-03, 5.49094751e-04,
          1.73979462e-03, -1.82254415e-03, -1.00180064e-03,
          -2.31570634e-03, -1.90379482e-03, -1.98171660e-03,
          -3.20307631e-03, -2.55279779e-03, 3.07095749e-03,
          7.79655902e-03, 3.56325484e-03, 6.42492902e-04, 3.59640340e-03,
          4.11219044e-05, -5.31827798e-04, -4.67638485e-03,
          -2.53816182e-03, -1.57745671e-04, 5.37871290e-03,
          2.08595535e-03, -2.48526246e-03, 2.97096535e-03,
          -4.69354331e-04, -1.28434075e-03, -4.16782033e-03,
          -1.16010220e-03, -1.06091308e-03, 1.64521008e-03,
          -8.03609088e-04, -2.21006782e-03, -3.06071364e-03,
          -3.17024533e-03, -8.39710527e-04, -4.77168662e-03,
          -5.26878191e-03, -2.38682306e-03, -1.10487361e-03,
          -3.06643778e-03, -6.58934563e-03, -4.39685909e-03,
          -3.34906159e-03, -2.79039401e-03, -5.73163945e-03,
          -8.34358856e-03, 7.71594467e-04, 5.85132744e-03,
          1.45611656e-03, -2.44914507e-03, 1.92089274e-03,
          1.10067951e-04, -2.65618587e-06, -7.24805170e-04,
          -6.12185744e-04, 3.98189266e-04, -1.69903249e-03,
          -3.92334303e-03, -6.84743002e-03, 1.41908787e-03,
          -1.37893396e-04, 3.62291257e-03, 2.06574961e-03,
          -4.98102861e-04, -1.22011651e-03, -7.38375355e-04,
          -3.77471419e-03, -6.01807842e-03, -4.97045275e-03,
          -3.29767558e-04, -2.27032928e-03, -2.42241658e-03,
          -9.22640692e-03, -5.19053452e-03, -9.80672543e-04,
          -6.08519046e-03, -7.77354278e-03, -7.00933626e-03,
          -4.76698391e-04, 8.34363338e-04, -1.34205818e-03,
          -9.94807389e-03, -1.59126567e-03, -2.31731683e-03,
          -1.24408060e-03, -3.68861854e-03, 6.52462710e-03,
          1.29351765e-03, 2.75805732e-03, 6.24735898e-04, 5.35194587e-04,
          9.99154407e-04, -3.85338417e-03, -4.56852047e-03,
          -5.03483927e-03, -1.18186057e-03, -2.51270784e-03,
          -9.12964926e-04, -1.78351649e-03, 3.17232707e-03,
          -8.73733778e-03, -2.01266957e-03, -1.98639603e-03,
          -3.68684251e-03, -2.92065879e-03, 1.85468921e-03,
          2.73695774e-03, -3.21682915e-03, -1.16656218e-02,
          -9.39258747e-03, -6.14580652e-03, -5.38071664e-03,
          -1.63706578e-03, -6.26303256e-03, -1.70512125e-03,
          -9.83681064e-04, -7.72970449e-03, -1.12129180e-02,
          6.91936351e-03, -1.42067019e-03, -3.39331012e-03,
          -5.05885808e-03, -5.76292805e-04, -4.58567776e-03,
          -3.47985327e-03, -1.78969547e-03, 4.23325272e-03,
          7.52525311e-03, 1.72697252e-03, -2.17191945e-03,
          -7.39767682e-03, -8.73350725e-03, -4.23147157e-03,
          -3.48904240e-03, -3.44802230e-03, 2.36504362e-03,
          -5.41762495e-03, -5.49814105e-03, -3.03292205e-03,
          -2.68767308e-03, -7.83358049e-03, -5.01167262e-03,
          -5.20013925e-03, -5.93825383e-03, -7.72751169e-03,
          -6.37674239e-03, -7.41536776e-03, -6.48074038e-03,
          -9.48098209e-03, -1.62912812e-02, -7.81900901e-03,
          -6.45181863e-03, -5.79726370e-03, -5.68182766e-03,
          1.15305632e-02, 4.24681418e-03, 1.42073026e-03,
          -2.22378108e-03, 1.05450093e-03, -2.56734295e-03,
          -1.09984772e-03, -1.41204218e-03, 7.85257667e-03,
          -1.41142204e-03, -3.12550063e-03, -7.22319586e-03,
          -7.42485560e-03, -3.21635976e-03, -5.33497939e-03,
          -1.42873044e-03, -3.53723136e-03, -1.09199167e-03,
          -7.83137977e-03, -6.87474338e-03, -4.06050403e-03,
          -7.42921792e-03, -1.19617488e-02, -6.39346801e-03,
          -5.59942145e-03, -5.39425248e-03, -3.69290076e-03,
          -1.12537500e-02, -1.16886813e-02, -9.28257592e-03,
          -1.04459254e-02, -1.52408388e-02, -9.41258110e-03,
          -6.63526962e-03, -4.67676250e-03, -9.79377702e-03,
          4.98137064e-03, -2.79801060e-03, -8.76485836e-03,
          -8.15697014e-03, 8.63306224e-03, -4.91156988e-03,
          -3.85743333e-03, -5.31904306e-03, 5.02657332e-03,
          6.50811242e-03, -7.07284873e-03, -8.00133217e-03,
          -1.16457436e-02, -2.86709401e-04, -8.73568375e-03,
          -6.87186653e-03, -8.67691543e-03, 4.86689620e-03,
          -9.52515379e-03, -1.06675765e-02, -7.51217501e-03,
          -8.31281394e-03, -5.10009378e-03, -8.02098773e-03,
          -6.85229897e-03, -6.19935058e-03, -1.05528031e-02,
          -6.13624183e-03, -9.87217017e-03, -8.20245780e-03,
          -1.07113114e-02, -1.65718347e-02, -1.11167319e-02,
          -7.32572190e-03, -8.80401488e-03, -4.17741900e-03,
          1.28814885e-02, -5.56574715e-03, -7.83853326e-03,
          -1.16744107e-02, -2.52516125e-03, -7.65796006e-03,
          -6.90369634e-03, -9.09015629e-03, 1.04342820e-02,
          1.07465619e-02, -6.11058017e-03, -7.25321798e-03,
          -1.20659340e-02, -4.90724249e-03, -1.44769009e-02,
          -1.12014841e-02, -9.82629135e-03, 4.92972415e-03,
          -1.30792870e-03, -6.15060143e-03, -7.92877376e-03,
          -9.27617960e-03, -8.13140720e-03, -8.16206262e-03,
          -5.19637251e-03, -8.00905097e-03, 3.67379689e-04,
          3.04413232e-04, -7.16308365e-03, -8.65225215e-03,
          -1.40564991e-02, -1.41215650e-02, -1.16927726e-02,
          -9.31958482e-03, -7.64791388e-03, -1.12506845e-04,
          -3.03805433e-03, -9.52681620e-03, -6.26507821e-03,
          -7.79761514e-03, -7.27637531e-03, -8.13985895e-03,
          -8.86823609e-03, -8.54540616e-03, -1.92212954e-03,
          9.78782028e-03, -1.07630491e-02, -8.29763524e-03,
          -1.33269029e-02, 1.39613235e-02, -1.24057159e-02,
          -7.48677459e-03, -6.21152250e-03, 1.37024615e-02,
          -1.33556100e-02, -1.09799523e-02, -1.03875538e-02,
          -1.10050254e-02, -1.81121510e-02, -1.03697469e-02,
          -9.68979951e-03, -8.39667022e-03, -1.27351414e-02,
          -9.12236609e-03, -1.27353109e-02, -1.34320930e-02,
          -1.79988462e-02, -9.25647933e-03, -1.77335627e-02,
          -1.29222367e-02, -8.29799473e-03, -6.40569534e-03,
          4.09980817e-03, -9.37406905e-03, -6.32966449e-03,
          -8.62370338e-03, -1.37294400e-02, -1.33887855e-02,
          -8.34680535e-03, -3.36683192e-03, 7.65981385e-03,
          1.09500345e-02, -4.36277501e-03, -4.26791748e-03,
          -5.21882391e-03, 1.87679648e-03, -6.43888256e-03,
          -8.32629041e-04, 5.06468443e-03, 1.65666770e-02,
          -7.99344387e-03, -1.03933942e-02, -8.67369398e-03,
          -1.21744005e-02, -1.80559680e-02, -1.70191936e-02,
          -1.33678885e-02, -8.51051230e-03, -3.05120903e-03,
          -5.43248840e-03, -1.00531150e-02, -6.17645681e-03,
          -9.40180663e-03, -1.29819857e-02, -1.15604717e-02,
          -8.28522258e-03, -5.85633516e-03, -1.25623157e-03,
          4.51869424e-03, -5.83277084e-03, -6.77193329e-03,
          -9.25429445e-03, -4.88427794e-03, -8.13334342e-03,
          -4.35686251e-03, 3.81182792e-04, 8.91480688e-03,
          8.18904676e-03, -2.82854727e-03, -4.58440976e-03,
          -8.24049208e-03, 3.06602567e-03, -5.73377823e-04,
          4.22225427e-03, 4.73129294e-05, 1.05324844e-02,
          -7.30297063e-03, -1.07041989e-02, -9.67877824e-03,
          -1.18262740e-02, -2.07638796e-02, -9.26274527e-03,
          -5.99856954e-03, -3.91987292e-03, -4.14921902e-03,
          -9.75456368e-03, -1.05555821e-02, -9.60094761e-03,
          -1.23156393e-02, -1.55323250e-02, -4.83236089e-03,
          -3.57361906e-03, -1.68351713e-03, -4.59093135e-03,
          4.45792824e-03, -1.33808469e-03, -4.41812817e-03,
          -4.67020832e-03, -6.10586442e-03, -4.75640642e-03,
          -5.90683194e-04, -5.39737241e-03, 5.70494123e-03,
          9.43065807e-03, -3.63676023e-04, -3.45160533e-03,
          -3.20215186e-04, -3.63418204e-03, -4.62506199e-03,
          -8.50725686e-04, -2.67701806e-03, 6.97585149e-03,
          -1.11460239e-02, -9.32129379e-03, -7.89840799e-03,
          -8.94940365e-03, -1.72259435e-02, -6.41294057e-03,
          -3.98482895e-03, -4.70386073e-03, -7.29694404e-03,
          -1.05481716e-02, -1.07403547e-02, -8.57416634e-03,
          -6.89639896e-03, -1.44843347e-02, -8.03358853e-03,
          -2.80814129e-03, -4.05704835e-03, -9.13355965e-03,
          1.09863142e-02, 2.70279590e-03, 1.92669954e-03,
          -7.54045672e-04, 1.97576964e-03, -2.63194088e-03,
          -1.78165064e-04, -4.45592543e-03, 8.09902418e-03,
          5.66294556e-03, -5.97109133e-03, -6.00626180e-03,
          -5.49580762e-03, -2.14837259e-03, -3.22692934e-03,
          -3.74111789e-03, -7.00771436e-03, 1.63380895e-03,
          -8.25576298e-03, -9.64514352e-03, -6.99178874e-03,
          -4.73990804e-03, -1.17381243e-02, -5.91421686e-03,
          -5.05058793e-03, -5.93938865e-03, -6.54369639e-03,
          -1.43581964e-02, -1.01020932e-02, -8.86938721e-03,
          -8.50688107e-03, -1.48466239e-02, -9.13295057e-03,
          -1.13448873e-02, -1.11938855e-02, -1.38351368e-02,
          1.54844057e-02, -1.63165259e-03, -4.29710140e-03,
          -5.97180612e-03, 2.04792130e-03, -5.54174767e-04,
          -3.32233869e-03, -3.77704180e-03, 1.03957839e-02,
          7.10675726e-03, -2.60702963e-03, -7.33532943e-03,
          -1.00715887e-02, -8.12866166e-03, 1.06347237e-04,
          4.26947634e-04, -3.55145801e-03, 7.41201267e-03,
          -1.40678231e-02, -8.29039235e-03, -7.04876054e-03,
          -1.00623071e-02, -1.27902525e-02, -6.70354534e-03,
          -1.04241492e-02, -8.49525258e-03, -1.11144958e-02,
          -1.23872915e-02, -1.16343731e-02, -1.00962315e-02,
          -1.19857704e-02, -9.96914413e-03, -7.38432677e-03,
          -7.87523761e-03, -1.13236811e-02, -1.15042329e-02,
          5.66788111e-03, -1.58833142e-03, -2.44921912e-03,
          -6.10164413e-03, -3.11026699e-03, -1.11028017e-03,
          -1.29954924e-03, -7.75293633e-03, 5.84938750e-03,
          2.65213591e-03, -2.94012809e-03, -2.02162028e-03,
          -9.46140208e-04, -5.69484802e-03, -4.90130717e-03,
          -7.81598967e-03, -1.17638726e-02, 1.31223490e-03,
          -1.11521035e-02, -8.55140667e-03, -8.65408499e-03,
          -6.91626919e-03, -7.76275201e-03, -7.71230087e-03,
          -1.06618432e-02, -1.27265602e-02, -1.11542968e-02,
          -9.15677659e-03, -6.59487722e-03, -3.46929953e-03,
          -1.52051880e-03, -6.61195163e-03, -8.50229058e-03,
          -1.44640990e-02, -1.43520022e-02, -1.38507327e-02,
          9.88928787e-03, -8.81239772e-04, 5.02812560e-04,
          7.67942343e-04, -5.59729524e-03, -6.63400209e-03,
          -7.66553404e-03, -7.67575437e-03, 7.39635108e-03,
          2.76174396e-03, -9.20726545e-03, -9.13921837e-03,
          -7.21981749e-03, -1.37923239e-02, -8.62684380e-03,
          -6.27394253e-03, -5.35532553e-03, 7.96374399e-03,
          -7.59184267e-03, -4.33498900e-03, -2.91050901e-03,
          1.28301058e-03, -8.74052290e-03, -7.00465078e-03,
          -9.97934584e-03, -1.05478000e-02, -1.07753230e-02,
          -1.12577435e-02, -1.37454057e-02, -7.76808057e-03,
          -5.30462572e-03, -1.78382937e-02, -8.69108457e-03,
          -6.79054577e-03, -8.39597452e-03, -9.19805001e-03,
          4.40549542e-04, -9.00228042e-03, -4.04447271e-03,
          -1.84391590e-03, -7.39391008e-03, -2.40062131e-03,
          -3.14239156e-03, -4.29917080e-03, 6.65780297e-03,
          8.62422690e-04, -1.03729758e-02, -1.19212270e-02,
          -8.96809343e-03, -8.84248130e-03, -6.68301154e-03,
          -5.31803304e-03, -2.76717101e-03, 4.81134932e-03,
          -1.16965007e-02, -1.41768660e-02, -9.37787909e-03,
          -6.39785966e-03, -1.15136858e-02, -4.99958592e-03,
          -4.16321633e-03, -7.65757496e-03, -7.42779952e-03,
          -1.34570422e-02, -1.36583624e-02, -1.41509911e-02,
          -9.27428715e-03, -8.81320797e-03, -5.19114500e-03,
          -7.69875711e-03, -8.12879391e-03, -1.11557888e-02,
          -3.83274932e-03, -9.32240393e-03, -8.34152941e-03,
          -8.49942677e-03, -2.90012360e-03, -7.16706179e-03,
          -5.31297782e-03, -3.57358833e-03, -2.25727353e-03,
          3.63010843e-03, -9.08157695e-03, -6.41956320e-03,
          -9.06561594e-03, -1.20255444e-02, -9.75842401e-03,
          -5.39137423e-03, -5.23946295e-03, 6.26253523e-03,
          -1.21988915e-02, -1.22547485e-02, -1.11234663e-02,
          -7.79775996e-03, -3.89746996e-03, -6.85478514e-03,
          -8.27357359e-03, -6.92514190e-03, -9.11709759e-03,
          -1.04541387e-02, -1.47464629e-02, -1.02979112e-02,
          -8.35522916e-03, -5.71694784e-03, -1.14118727e-02,
          -8.54318216e-03, -7.16228457e-03, -7.09704123e-03,
          9.54449084e-03, -8.87047034e-03, -8.65032990e-03,
          -6.04119664e-03, -4.69806278e-03, -8.23991094e-03,
          -4.90581337e-03, -6.85654953e-03, 7.47910747e-03,
          3.35333170e-03, -1.21561484e-02, -1.25786485e-02,
          -1.29607152e-02, -1.53421788e-02, -9.43150185e-03,
          -7.76311196e-03, -9.22078174e-03, 3.91372619e-03,
          -9.39227082e-03, -1.29667809e-02, -9.13521461e-03,
          -8.24659690e-03, -1.24915922e-02, -1.17788231e-02,
          -1.03822695e-02, -9.35717486e-03, -9.21112671e-03,
          -1.15207275e-02, -1.47872297e-02, -1.06047634e-02,
          -1.29620833e-02, -1.78342313e-02, -1.10272542e-02,
          -1.11044990e-02, -1.24679599e-02, -1.13565810e-02 ]
   decision_functions:
      -
         sv_count: 1
         rho: -6.2886111784092324e-01
         alpha: [ 1. ]
