%YAML:1.0
opencv_ml_svm:
   format: 3
   svmType: EPS_SVR
   kernel:
      type: LINEAR
   C: 1.0000000000000000e-02
   p: 1.0000000000000001e-01
   term_criteria: { epsilon:1.0000000000000000e-03, iterations:1000 }
   var_count: 4356
   sv_total: 1
   support_vectors:
      - [ -2.34360080e-02, -1.49408709e-02, -1.25547387e-02,
          -1.55304689e-02, -2.21167170e-02, -1.61175486e-02,
          -1.78943425e-02, -2.05518678e-02, -2.34493203e-02,
          -1.44320037e-02, -1.09319314e-02, -9.33901966e-03,
          -1.69215873e-02, -1.10276127e-02, -1.80757530e-02,
          -2.01682709e-02, -2.07542963e-02, -1.69593003e-02,
          -9.95582528e-03, -3.80115863e-03, 7.83424184e-04,
          -1.02487924e-02, -1.56761501e-02, -2.00678948e-02,
          -2.07256619e-02, -1.98785290e-02, -1.00555820e-02,
          5.34419576e-03, 1.08189769e-02, 1.61651894e-02,
          -9.05004446e-04, 2.04703193e-02, -1.26897972e-02,
          -1.40970657e-02, -8.35674722e-03, 7.63495860e-04,
          -6.21950207e-03, -6.87506329e-03, -1.21052694e-02,
          -1.66249536e-02, -1.67395864e-02, -1.66218840e-02,
          -1.67300105e-02, -1.47933438e-02, -9.92741715e-03,
          2.50414852e-03, -3.51177412e-03, -5.73445065e-03,
          -1.55151440e-02, -2.07522493e-02, -2.14740857e-02,
          -1.30637577e-02, -1.10610658e-02, -3.65210907e-03,
          1.94028963e-03, 5.08100260e-03, 3.48598487e-03,
          -8.00920371e-03, -9.07260086e-03, -1.21595701e-02,
          -1.17444582e-02, -8.33439175e-03, -9.15928220e-04,
          1.07618244e-02, 7.22438656e-03, 6.96325628e-03,
          -3.54804751e-03, -1.02621235e-03, -1.26668988e-02,
          -4.69941273e-03, -2.99876765e-03, 4.26171441e-03,
          -3.74700321e-04, -4.86592809e-03, -9.22300480e-03,
          -1.43467458e-02, -2.51205433e-02, -1.86685938e-02,
          -1.18588032e-02, -1.09837586e-02, -5.05533861e-03,
          -2.43897972e-04, 2.99944841e-05, -6.74753869e-03,
          -8.60284828e-03, -1.78224500e-02, -2.01855879e-02,
          -8.71210359e-03, -6.71139359e-03, -4.96808672e-03,
          5.07763447e-03, 3.09592229e-03, 2.19610124e-03,
          -9.94085893e-03, -1.92666277e-02, -1.31286755e-02,
          -3.55917425e-03, -2.82368856e-03, 4.15264023e-03,
          2.78002257e-03, 2.26291385e-03, 9.25060245e-04,
          -4.98045003e-03, -3.80125898e-03, -1.06663248e-02,
          2.40408350e-03, -5.97724138e-05, 1.34772039e-03,
          -3.34807928e-03, -9.35101416e-04, -4.64201998e-03,
          -8.87265336e-03, -1.83783099e-02, -1.64501052e-02,
          -6.18772628e-03, -7.02548306e-03, -7.94378575e-03,
          -1.82860147e-03, -1.32902758e-04, -4.37509688e-03,
          -1.46576734e-02, -2.17701066e-02, -1.45848403e-02,
          -7.99820106e-03, -9.69982240e-03, -4.43182932e-03,
          1.07092261e-02, 1.81476702e-03, -1.71951321e-03,
          -8.97114445e-03, -1.71047468e-02, -1.21117840e-02,
          -1.51803985e-03, -2.41948292e-03, 4.39543230e-03,
          1.19630238e-02, -2.91205617e-03, -7.31710251e-03,
          -1.13555482e-02, -1.57146435e-02, -6.80449512e-03,
          -3.33793857e-03, -1.43819861e-03, 1.17787039e-02,
          7.39228260e-03, 9.12716961e-04, -4.44150064e-03,
          -1.58632156e-02, -2.31602564e-02, -1.25319883e-02,
          -8.45553353e-03, -9.81648453e-03, 2.00295821e-03,
          6.04851590e-03, -4.01136186e-03, -1.11676017e-02,
          -1.73654798e-02, -2.67600659e-02, -1.59464180e-02,
          -1.36572542e-02, -1.36200069e-02, -1.02002709e-03,
          1.85411014e-02, 3.42343980e-03, -8.35514627e-03,
          -1.71150547e-02, -1.78735442e-02, -3.75786773e-03,
          -1.59132713e-03, 2.45254533e-03, 1.72038656e-02,
          2.07850952e-02, -8.88288196e-04, -9.30491369e-03,
          -1.79594997e-02, -1.75422020e-02, -1.32926609e-02,
          -9.18788277e-03, -4.26449766e-03, 1.58367138e-02,
          7.76279205e-03, -4.12011892e-03, -6.99978974e-03,
          -1.00710941e-02, -2.25625262e-02, -1.02313999e-02,
          -1.21730184e-02, -7.88702723e-03, 4.14417405e-03,
          4.15438600e-03, -3.61920288e-03, -7.56859407e-03,
          -1.17386589e-02, -2.57917289e-02, -1.44193489e-02,
          -9.47223883e-03, -4.93599381e-03, 6.36873394e-03,
          2.05922518e-02, -1.25182641e-03, -7.17178592e-03,
          -8.46448634e-03, -1.93772037e-02, -1.18184313e-02,
          -7.60376500e-03, -3.07963998e-03, 1.74538288e-02,
          2.89141517e-02, 6.80187484e-03, -5.05507784e-03,
          -8.39960668e-03, -2.09190566e-02, -1.14701428e-02,
          -5.83861675e-03, -8.04604404e-03, 2.60114521e-02,
          5.40168863e-03, -5.83776971e-03, -8.31360091e-03,
          -1.40271345e-02, -2.44766250e-02, -1.55499075e-02,
          -7.28132064e-03, -8.30070989e-04, 6.65820064e-03,
          1.21419993e-03, -1.08584985e-02, -1.37061281e-02,
          -1.96497981e-02, -3.05293538e-02, -2.00628340e-02,
          -1.06124319e-02, -2.74857366e-03, 6.37838989e-03,
          3.09944954e-02, 3.41373868e-03, -7.66138500e-03,
          -1.16253961e-02, -1.79473050e-02, -1.11764921e-02,
          -4.49316995e-03, -1.27990334e-03, 3.14775929e-02,
          2.37036627e-02, -3.89833166e-03, -1.30784968e-02,
          -2.06745695e-02, -2.65379306e-02, -2.05043610e-02,
          -6.39466615e-03, 1.78046140e-03, 2.83687022e-02,
          2.21184106e-03, -9.60176066e-03, -1.19844256e-02,
          -1.88126620e-02, -2.55773123e-02, -1.50427492e-02,
          -6.47389377e-03, -2.61307214e-05, 8.45932774e-03,
          -1.24359154e-03, -1.05859330e-02, -1.38917072e-02,
          -2.08775196e-02, -2.39823200e-02, -1.30552780e-02,
          -3.73344030e-03, 2.63590785e-03, 3.33676673e-03,
          1.93206817e-02, -5.92532149e-03, -9.93342325e-03,
          -1.77232344e-02, -1.58405062e-02, -1.34992693e-02,
          5.02448747e-05, 3.51431197e-03, 2.59327348e-02, 1.62621848e-02,
          -6.55142404e-03, -9.99148563e-03, -1.62705537e-02,
          -1.27769867e-02, -8.58024508e-03, 1.48534286e-03,
          1.03397677e-02, 1.97357349e-02, -8.82196054e-03,
          -6.91165822e-03, -9.26728453e-03, -1.19494060e-02,
          -1.46210128e-02, -1.03886193e-02, -1.41872588e-04,
          2.76380219e-03, -6.24498446e-03, -1.31235067e-02,
          -7.13039516e-03, -8.65520444e-03, -1.09131308e-02,
          -2.23203972e-02, -1.84976719e-02, -1.05299288e-02,
          -4.05459246e-03, -1.54188732e-02, 1.39101325e-02,
          -3.78487445e-03, -3.15857073e-03, -8.29823874e-03,
          1.46220217e-03, -2.57783080e-03, 1.17675811e-02,
          1.79153308e-02, 1.82199851e-02, 2.58084177e-03,
          -5.94835542e-03, -4.19959286e-03, -1.05552115e-02,
          -1.47534180e-02, -1.03589213e-02, 3.36698163e-03,
          7.08929403e-03, 4.87321336e-03, -1.28828911e-02,
          -6.32050773e-03, -7.40120001e-03, -1.21791279e-02,
          -1.51552409e-02, -1.75684914e-02, -5.60185220e-03,
          -3.98580590e-03, -1.30185103e-02, -1.98594909e-02,
          -1.16882725e-02, -1.12013035e-02, -1.61990691e-02,
          -2.55296584e-02, -1.88039932e-02, -6.04339736e-03,
          -8.35295673e-03, -1.78142786e-02, 1.87640060e-02,
          -4.18961979e-03, -4.57410933e-03, -1.13098454e-02,
          -4.12054220e-03, -5.26864966e-03, 3.49582895e-03,
          1.01488465e-02, 1.89907383e-02, 2.74518062e-03,
          -8.51208530e-03, -1.11279339e-02, -1.55073097e-02,
          -1.51862390e-02, -1.20876972e-02, 3.21543473e-03,
          3.05846240e-03, -1.37168809e-03, -1.66249983e-02,
          -1.17379446e-02, -1.19924592e-02, -1.84282716e-02,
          -1.54641382e-02, -1.39709152e-02, -5.31983096e-03,
          -6.22220524e-03, -1.56296156e-02, -2.61180904e-02,
          -1.79793164e-02, -1.83709115e-02, -2.61602141e-02,
          -2.58116219e-02, -1.85463279e-02, -1.68056916e-02,
          -1.85178798e-02, -2.85184570e-02, 1.88761000e-02,
          -7.28174299e-03, -7.04651745e-03, -8.92749988e-03,
          9.99592897e-03, 3.79522122e-03, 1.30331591e-02, 9.85937566e-03,
          1.79504696e-02, -6.76599192e-03, -1.86796933e-02,
          -1.80943459e-02, -2.23777834e-02, -1.71254892e-02,
          -8.37014895e-03, -5.16411383e-03, -1.06533105e-02,
          -5.24399942e-03, -1.95179079e-02, -8.14076234e-03,
          -2.62294267e-03, -5.44195855e-03, -1.38979638e-02,
          -1.89300515e-02, -1.77723970e-02, -1.84088666e-02,
          -1.95299145e-02, -1.15012396e-02, 5.55064296e-04,
          2.68437644e-03, -1.69203244e-03, 1.08788135e-02,
          -1.14781810e-02, -1.15956971e-02, -8.95015523e-03,
          -1.28295207e-02, -6.03869790e-03, -4.62112296e-03,
          4.25734324e-03, -2.33269320e-03, -7.60511775e-03,
          -2.09042132e-02, -2.13521682e-02, -1.51297310e-02,
          -1.21040260e-02, -5.61949622e-04, -3.87997483e-03,
          4.81726276e-03, 3.03860113e-04, 3.97472037e-03,
          -9.22866538e-03, -1.26321008e-02, -8.68196599e-03,
          -7.81000964e-03, -5.48775960e-03, 2.62015522e-03,
          2.12502186e-04, -8.24212283e-03, -9.05636512e-03,
          -7.55300280e-03, -5.18945185e-03, -2.80538714e-03,
          -4.77359537e-03, 2.11453112e-03, 1.60070532e-03,
          -5.53078571e-05, -8.77299067e-03, -1.16746388e-02,
          -7.73872994e-03, -1.57847733e-03, 1.94565335e-03,
          8.38693086e-05, -5.30154770e-03, -1.37601874e-03,
          3.00951162e-03, -7.26056896e-05, -6.34262245e-03,
          -5.71720628e-03, -8.10721796e-03, -4.84559033e-03,
          -6.51659258e-03, -4.54491749e-03, -5.16887568e-03,
          -6.90620858e-03, -5.84017625e-03, -4.51204833e-03,
          -4.30632988e-03, 5.35155879e-04, 2.20304006e-04,
          -5.33116749e-03, 1.35773222e-03, 1.29353395e-03,
          -1.84084743e-03, -1.21706529e-02, -1.70012992e-02,
          -6.64819079e-03, 2.02581286e-03, 5.24346135e-04,
          3.84296553e-04, 2.04033242e-03, 1.90058735e-03,
          -1.18509284e-03, -6.23070356e-03, -2.04480742e-03,
          -8.08089040e-03, 5.53441467e-03, 2.81434460e-03,
          2.59867054e-03, -3.45290708e-03, -6.00152602e-03,
          -1.10638272e-02, -1.25176851e-02, -1.29170297e-02,
          -3.44660389e-03, 4.14036028e-03, -8.86998372e-04,
          4.93206957e-04, -5.38666733e-03, -4.37278161e-03,
          -1.22737652e-02, -1.44564537e-02, 1.67855222e-04,
          -6.28907606e-03, 7.46073958e-04, 3.71442665e-03,
          -1.28915417e-03, 5.11169573e-03, 9.86205298e-04,
          2.20290021e-04, -7.17669772e-03, -1.73016544e-02,
          -1.02250427e-02, 9.56056290e-04, 1.66948099e-04,
          2.34638737e-03, 6.96002692e-03, -3.99552798e-03,
          -8.63372814e-03, -8.76956247e-03, -9.43943858e-03,
          -1.90342311e-03, 4.96488297e-04, 1.57241349e-03,
          7.56813912e-03, -7.34024588e-03, -3.36201419e-03,
          -7.92991742e-03, -8.88940133e-03, -1.09758768e-02,
          -6.51349127e-03, -7.32040498e-04, 5.37934434e-03,
          -6.00727694e-03, -7.72738655e-04, -9.95131955e-03,
          -1.09177222e-02, -8.10369011e-03, -7.93857779e-03,
          3.05634574e-04, 2.23244331e-03, 5.90342609e-03, 1.24943897e-03,
          1.10494131e-02, 2.18460103e-03, -9.67918243e-03,
          -1.48064429e-02, -1.34700136e-02, -1.60754251e-03,
          -1.46799910e-04, 3.36618209e-03, 9.93089192e-03,
          1.31483292e-02, -7.47945742e-04, -8.38020816e-03,
          -1.73718538e-02, -1.83791853e-02, -1.03940526e-02,
          -4.22777096e-03, -2.49201455e-03, 1.07639777e-02,
          2.17761821e-03, -7.63851358e-03, -1.03088319e-02,
          -1.44316321e-02, -7.71323685e-03, 1.74042140e-03,
          4.18037409e-03, 7.37469411e-03, 2.37213890e-03, 4.46738722e-03,
          -5.63688530e-03, -7.82214012e-03, -1.44858342e-02,
          -2.70183966e-03, -6.50288712e-04, 5.43925166e-03,
          5.10983355e-03, 5.88969514e-03, 1.27125550e-02,
          -7.02228455e-04, -5.94918104e-03, -1.21920761e-02,
          -2.43542381e-02, -7.71212019e-03, -2.49543367e-03,
          2.57026459e-05, 1.20470058e-02, 1.59687251e-02, 5.82207972e-03,
          -2.57557654e-03, -1.08709447e-02, -2.13797502e-02,
          -7.57032121e-03, -2.41750339e-03, -2.25362135e-03,
          1.25574246e-02, 8.52006581e-03, 1.93331169e-03,
          -3.44118709e-03, -8.82809423e-03, -1.73044670e-02,
          -1.62147870e-03, 2.98920739e-03, 6.12549810e-03,
          9.44986939e-03, 1.40134422e-02, 7.27524748e-03, 7.80708157e-04,
          -8.84869415e-03, -1.48793375e-02, -2.63745221e-03,
          -4.21711942e-04, 4.24743211e-03, 9.41105466e-03,
          1.93256307e-02, 5.02744364e-03, -6.46836916e-03,
          -1.09442109e-02, -1.73377581e-02, -6.15313742e-03,
          -3.64358653e-04, 2.93433410e-03, 1.63114090e-02,
          1.09711681e-02, -2.53506564e-03, -1.25072990e-02,
          -1.84191521e-02, -2.53430288e-02, -1.47566302e-02,
          -3.87672288e-03, 2.50635523e-04, 1.05013857e-02,
          1.76023897e-02, 7.62662105e-03, -3.47619294e-04,
          -6.54704310e-03, -9.45375208e-03, 3.95082310e-03,
          1.13763392e-03, 4.03511549e-05, 9.98772681e-03, 1.06640449e-02,
          4.03970858e-04, -6.93090307e-03, -9.78547428e-03,
          -1.23512624e-02, -1.23061484e-03, -2.66853115e-03,
          -3.48641491e-03, 7.35841878e-03, 7.98354391e-03,
          -7.34024402e-03, -1.04661928e-02, -1.58379227e-02,
          -1.70963090e-02, -1.29277948e-02, -2.95730517e-03,
          -8.07821227e-04, 7.55511876e-03, 5.53859770e-03,
          -4.66182036e-03, -5.37561066e-03, -8.72889534e-03,
          -7.98463821e-03, -4.77037998e-03, 1.31477648e-03,
          5.44296764e-03, 6.58971397e-03, 7.65571883e-03,
          -5.03480062e-03, -5.07608568e-03, -8.34389031e-03,
          -3.70744336e-03, -3.60317947e-03, -6.72739698e-03,
          -5.56473900e-03, 7.53931701e-03, 4.16097837e-03,
          -5.87422028e-03, -6.65162597e-03, -2.43624230e-03,
          1.39378360e-04, 3.81207472e-04, -1.57611386e-03,
          -5.16432663e-03, 3.73596651e-03, 6.34717813e-04,
          -3.32709076e-03, -1.95432198e-03, -5.37570054e-03,
          -5.77205385e-04, -2.29145400e-03, 9.10557155e-03,
          7.29186414e-03, 4.48926212e-03, -4.26554959e-03,
          -1.15984539e-02, -1.28658814e-02, -1.39036467e-02,
          -1.49049116e-02, -8.42165481e-03, 7.54913781e-03,
          8.49760324e-03, -1.11829850e-03, 2.38832366e-03,
          -4.29816032e-03, -6.36960426e-03, -3.30489571e-03,
          4.01277002e-03, -4.92452225e-03, 2.08787178e-03,
          1.80819980e-03, 3.13874590e-03, 9.88109689e-03,
          -8.81103892e-03, -1.02726948e-02, -6.63080951e-03,
          -1.06369695e-02, -7.41841318e-03, 2.84223375e-03,
          9.45468526e-03, 1.44002046e-02, -1.32154219e-03,
          -7.26056425e-03, -9.84820910e-03, -1.23404786e-02,
          -7.96729606e-03, -7.05759088e-03, 3.17901536e-03,
          4.59978729e-03, -9.51099326e-04, -1.06943166e-02,
          -7.47169601e-03, -8.39720760e-03, -1.12345899e-02,
          -1.04080644e-02, -6.53820392e-03, 6.95545634e-04,
          -3.81779275e-03, -8.80531222e-03, 1.34802843e-02,
          -6.76095439e-03, -6.53373310e-03, -4.13117930e-03,
          -9.44844633e-03, -1.44346943e-03, 2.90864473e-03,
          8.03303812e-03, 1.92792844e-02, 1.04534766e-02,
          -1.09645352e-02, -7.23572355e-03, -1.01380581e-02,
          -8.13214667e-03, -2.53141043e-03, 4.21795947e-03,
          7.10093509e-03, 1.27702504e-02, -1.10323466e-02,
          -8.31324048e-03, -4.68380935e-03, -8.44662450e-03,
          -7.25322869e-04, -4.85023716e-04, 3.31750978e-03,
          -3.89129389e-03, -1.12319971e-02, -2.38647312e-02,
          -1.78961735e-02, -1.39435735e-02, -1.80186983e-02,
          -1.41096348e-02, -5.79791842e-03, -5.92832221e-03,
          -9.20183212e-03, -1.98813081e-02, 7.32677057e-03,
          -8.38442147e-03, -4.48331609e-03, -8.80921725e-03,
          -4.45598009e-04, 1.31297833e-03, 5.62888710e-03,
          9.29246936e-03, 9.78235714e-03, -8.16195831e-03,
          -1.55318184e-02, -1.39980810e-02, -1.85614806e-02,
          -6.78255642e-03, -1.33308792e-03, 6.34180557e-04,
          -5.80251403e-03, -1.48636906e-03, -7.24994345e-03,
          -3.35559412e-03, 2.17583729e-03, 1.86387595e-04,
          -2.19907612e-03, -1.81302316e-02, -1.85510516e-02,
          -1.44072333e-02, -1.26946326e-02, -7.48931197e-04,
          -3.44158756e-03, 1.26824155e-03, 4.97392379e-03,
          9.14507639e-03, -7.30736880e-03, -1.42593523e-02,
          -1.44602088e-02, -8.98771826e-03, -2.81253504e-03,
          -2.23412039e-03, 1.36103935e-03, 1.84598437e-03,
          -1.82377407e-03, -2.26671379e-02, -2.07237713e-02,
          -1.84251219e-02, -8.77817813e-03, 6.85204472e-03,
          -2.63060560e-03, -8.87124799e-04, 3.06509691e-03,
          -3.16656660e-03, -7.24321697e-03, -1.26696220e-02,
          -1.83880068e-02, -2.08300244e-05, -3.89399147e-03,
          1.73343215e-04, 3.05767870e-03, 7.02866400e-03,
          -4.44238482e-04, -2.76055606e-03, -8.22065771e-03,
          -9.07362625e-03, -7.69891031e-03, -2.11283914e-03,
          -9.57876793e-04, -2.80230073e-03, -1.44722243e-03,
          1.49044383e-03, -4.40771313e-04, -1.45568431e-03,
          -7.87367113e-04, -7.03169452e-03, 7.33770197e-03,
          -2.55707838e-03, 6.22759748e-04, 4.16907156e-03,
          -1.37899444e-03, -2.38564401e-03, -4.32991935e-03,
          -1.17063979e-02, 3.83214862e-03, -8.62480920e-06,
          -9.40238498e-03, -1.06037734e-02, -8.92827846e-03,
          3.36625287e-03, -2.12539965e-03, -4.99844411e-03,
          -5.23199234e-03, -2.26075947e-03, -9.66280932e-04,
          -3.70662590e-03, -7.28290435e-03, -5.68647450e-03,
          -5.36739314e-03, 7.63469026e-04, 5.52039687e-03,
          1.56737500e-04, 7.63703196e-04, 9.55899304e-05,
          -5.08941594e-04, -5.88363828e-03, -4.96554654e-03,
          7.60228664e-04, -1.75096875e-03, 5.76429954e-03,
          2.45614420e-03, 6.12203556e-04, 3.30786849e-03,
          -6.86770165e-03, -6.67841826e-03, -6.60698721e-03,
          -7.46339187e-03, -2.85135536e-03, -1.98862259e-03,
          -4.63822857e-03, 5.24118822e-03, 8.74046702e-03,
          -3.06899962e-03, -3.66296154e-03, -1.07678922e-03,
          -2.69538141e-03, -3.09036695e-03, 8.75318889e-04,
          -7.54137407e-04, 1.13138417e-02, -2.33482919e-03,
          -2.64787790e-03, -4.63740667e-03, -7.73540756e-04,
          -3.02920374e-03, -1.01112842e-03, 3.71824193e-04,
          2.86282157e-03, -4.58660256e-03, -2.36437400e-03,
          -6.74592843e-03, -7.06870947e-03, -1.95604604e-04,
          4.42296779e-03, 6.15244871e-03, 3.15872580e-03, 4.06356761e-03,
          -2.46727234e-03, 3.17751750e-04, -4.60706279e-03,
          -5.08935563e-03, -2.16287110e-04, -6.85768155e-03,
          -1.93645188e-03, -3.10590048e-03, -4.51138988e-03,
          5.03076473e-03, -2.14696839e-03, -2.30042264e-03,
          -4.33724839e-03, -1.23183848e-03, 3.39162325e-05,
          1.61290728e-03, -9.68691253e-04, -2.49611097e-03,
          -5.27974451e-04, -3.31186061e-03, -8.24164320e-03,
          -9.57254972e-03, -8.13487731e-03, 6.17144338e-04,
          3.57411872e-03, 4.19738190e-03, 1.42808293e-03,
          -2.03208136e-03, -7.41571246e-04, -8.17016885e-03,
          -1.06568541e-02, -1.21545875e-02, -4.68685575e-05,
          4.59463755e-03, 7.70374574e-03, 4.21914505e-03, 4.21719672e-03,
          -2.68224772e-04, -2.32483284e-03, -5.07109147e-03,
          -6.88040257e-03, -1.37541443e-03, -4.69024177e-04,
          -2.66502984e-03, -5.05441893e-03, 3.60269449e-03,
          1.04763107e-02, -6.87614363e-03, -1.07709644e-02,
          -1.11675728e-02, 2.60362984e-03, -2.06010509e-03,
          7.33300287e-04, -1.74174504e-03, 8.97748210e-03,
          6.11855881e-03, -1.64860499e-03, -4.66819573e-03,
          -6.03822526e-03, -5.47454879e-03, 5.06159384e-03,
          4.23318148e-03, 7.81243108e-03, 8.01863987e-03, 1.03116026e-02,
          1.64225383e-03, -2.47313594e-03, -6.17839163e-03,
          -9.48846806e-03, -1.21361634e-03, -1.76885771e-03,
          2.74732546e-03, 7.27767451e-03, 1.09707220e-02,
          -4.28970298e-03, -8.58409330e-03, -8.45290348e-03,
          -4.21697507e-03, 2.46260804e-03, 2.87002511e-03,
          4.49175946e-03, 1.06258728e-02, 1.05051836e-02, 5.52177553e-05,
          -6.28515240e-03, -1.00036385e-02, -6.76681614e-03,
          -6.84953574e-03, -6.48896769e-03, 2.53364618e-04,
          9.90474876e-03, 9.82803665e-03, 5.11426851e-03, 6.51161885e-04,
          -1.12367433e-03, -5.33476472e-03, 4.48706048e-03,
          -1.54462224e-03, -4.66759736e-03, 4.90139285e-03,
          4.68879193e-03, 1.64761289e-03, -6.18733582e-04,
          -1.38592208e-04, -3.14962934e-03, 6.85208896e-03,
          -1.37792522e-04, -7.08705140e-03, 2.51908926e-03,
          8.45830608e-03, 3.96864209e-03, -7.66164067e-06,
          -2.66462821e-03, -3.43689788e-03, -1.95822655e-03,
          -5.27410582e-03, -9.20216495e-04, 6.72428450e-03,
          6.46259123e-03, 1.99900288e-03, 6.23811211e-05, 4.03633155e-03,
          5.09000290e-03, 2.51101609e-03, -2.67275679e-03,
          -4.37136134e-03, 1.15716001e-02, 3.37412325e-03,
          -2.72626663e-03, 7.80414441e-04, -5.28271135e-04,
          9.52388393e-04, 2.17506103e-03, -5.09827724e-03,
          -1.12982867e-02, 7.95991335e-04, 3.13357031e-03,
          -7.38969073e-04, -1.33221643e-03, 4.73002438e-03,
          8.05784483e-03, 1.80779968e-03, -7.25552952e-03,
          -1.25441561e-02, -1.75976707e-03, 5.17570274e-03,
          -7.24997895e-04, -5.31202415e-04, 2.85734492e-03,
          6.52061775e-03, 2.57185660e-03, -3.13965441e-03,
          -7.64808990e-03, 8.33722018e-03, 5.34159411e-03,
          -1.89620943e-03, -5.19487215e-03, 7.82144163e-03,
          2.58819922e-03, 1.66214595e-03, -4.66600107e-03,
          -1.32357152e-02, 5.44173818e-04, 2.30784738e-03,
          -9.50475864e-04, -5.62172756e-03, 3.18149175e-03,
          1.07968124e-02, -2.84525449e-03, -5.59078250e-03,
          -6.39152154e-03, 9.24480206e-04, 8.22595693e-03,
          -4.86494275e-03, -2.83920206e-03, 4.90280287e-03,
          -1.06374361e-03, -3.83622572e-03, -3.65637417e-04,
          5.20410482e-03, 1.08098425e-02, 1.56219851e-03,
          -3.02096922e-03, -4.19232482e-03, 9.10294242e-03,
          8.45934730e-03, -4.48205828e-05, -6.76652743e-03,
          -1.53728928e-02, -4.85496316e-03, 6.56335475e-03,
          -4.35801642e-03, -4.15361626e-03, 3.49608832e-03,
          1.70955522e-04, -8.20910931e-03, -1.34852044e-02,
          -4.21644654e-03, 8.22160020e-03, 1.13036418e-02,
          -4.48524253e-03, -1.33070117e-03, 4.00860747e-03,
          7.48188642e-04, 1.11210451e-03, 6.47676527e-04, 6.28850656e-03,
          1.60810668e-02, 7.19974190e-03, -7.00926455e-03,
          -4.40995907e-03, -9.39623360e-03, -1.21911149e-02,
          -1.29548658e-03, 3.28243506e-04, 5.05329482e-03,
          5.79767115e-03, 1.06208548e-02, -2.59994250e-03,
          -3.50401108e-03, -2.00796430e-03, -4.70037339e-03,
          -4.69651213e-03, -1.18597178e-02, -4.90903528e-03,
          1.26083484e-02, 6.14528824e-03, -7.47898035e-03,
          -9.16057639e-03, -1.18937623e-02, -8.98957811e-03,
          -3.60800972e-04, -1.43383408e-03, -1.60979945e-03,
          3.37393489e-03, -1.02047052e-03, -1.03596142e-02,
          -9.46215261e-03, -1.30344871e-02, 2.93277786e-04,
          -2.15586787e-03, -3.01470957e-03, 1.25889294e-03,
          1.33333495e-03, -9.07228980e-03, -1.50765842e-02,
          -1.50140692e-02, -1.41698681e-02, -6.89117098e-03,
          3.79762641e-04, 3.18483496e-03, 2.14591017e-03,
          -3.42755858e-03, -1.57080812e-03, -1.37314871e-02,
          -1.06869414e-02, -7.98566360e-03, -3.34152370e-03,
          1.82167126e-03, -1.21501434e-04, -3.35453224e-05,
          8.33562401e-04, -3.88836511e-03, -1.52752167e-02,
          -1.27201183e-02, -9.15994868e-03, 3.96974094e-04,
          7.63920974e-03, 8.40178784e-03, 9.26758535e-03, 4.11505625e-03,
          -8.40471126e-03, -2.15491955e-03, 2.18292279e-03,
          9.64982994e-03, 6.46741828e-03, -1.30127156e-02,
          -1.16018672e-02, -1.30673423e-02, -1.18482392e-02,
          -6.89885067e-03, -4.51901043e-03, -2.41540489e-04,
          5.39458124e-03, 9.71866772e-03, -3.78515781e-03,
          -2.90876720e-03, -7.18286494e-03, -1.01583535e-02,
          -1.08081680e-02, -7.09169870e-03, -4.75654239e-03,
          1.21850828e-02, 1.14664249e-02, -1.37360506e-02,
          -1.29823480e-02, -1.33489361e-02, -1.35253854e-02,
          -1.00389998e-02, -9.70882177e-03, -1.37663481e-03,
          2.47634877e-03, 1.01724602e-02, -6.48482703e-03,
          -5.62735368e-03, -8.55687354e-03, -1.01692835e-02,
          -8.33584752e-04, -2.79647554e-03, 1.95183660e-04,
          8.13501421e-04, 1.95928966e-03, 1.93567830e-03, 9.24653024e-04,
          -4.58672922e-03, -4.60122526e-03, 4.78683418e-04,
          -1.89791049e-03, -3.71003081e-03, -5.55685814e-03,
          1.15357069e-02, 4.62359749e-03, 2.96552113e-04,
          -1.51473470e-03, 1.03831862e-03, -2.96715763e-03,
          -5.49163623e-03, -2.63856584e-03, -4.38871561e-03,
          2.33677588e-03, 3.38862231e-03, -1.27282657e-03,
          -4.67253057e-03, -5.69896819e-03, 2.11506966e-03,
          -5.58252679e-03, -4.91666701e-03, -7.44413445e-03,
          6.90080877e-03, 6.32311404e-03, -2.26787408e-03,
          8.46279552e-04, -1.88498612e-04, -1.44711463e-03,
          -4.44036955e-03, -4.57900204e-03, -6.22222386e-03,
          -4.49623866e-03, -3.15490644e-03, -4.07603709e-03,
          -1.93924061e-03, 1.60664890e-03, 1.98045003e-04,
          -1.21264742e-03, -9.47226654e-04, 9.15068784e-04,
          -7.99002955e-05, -3.28509673e-03, -4.57864767e-03,
          -1.13444316e-04, 1.71901169e-03, 5.98133495e-03,
          -3.39379301e-03, -4.34342353e-03, -4.30367282e-03,
          -8.26633652e-04, -6.92771573e-04, -6.37829956e-03,
          2.63876072e-03, 4.71885130e-03, 9.22825746e-03, 2.10908940e-03,
          1.72012113e-03, 4.25996818e-03, 7.76656345e-03,
          -5.83508331e-03, -5.33885835e-03, 1.32668740e-03,
          3.86786065e-03, -3.55658005e-03, -2.05884804e-03,
          -1.84867147e-03, 2.33137212e-03, -1.12073228e-03,
          5.10244980e-04, 1.38759753e-03, 2.75404542e-04, 5.76243096e-04,
          -1.62157253e-03, 4.60786396e-04, -2.41677416e-03,
          1.93022285e-03, 2.59574200e-03, 6.59633754e-03, 4.01088223e-03,
          -1.74461267e-04, -2.20175530e-03, -9.13179392e-05,
          -2.70470534e-03, 5.62308007e-04, 6.19752845e-03,
          2.02775584e-03, -4.55735996e-03, -5.22113591e-03,
          3.20137682e-04, 7.30813830e-04, -8.85360991e-04,
          -4.32054186e-03, -2.46709981e-03, 2.12339847e-03,
          2.88665574e-03, 4.56402171e-03, -3.52087291e-03,
          -3.39382864e-03, -2.60424195e-03, 4.08285305e-05,
          1.05689606e-03, -3.65202315e-03, -5.39623434e-03,
          1.71541772e-03, 2.87852786e-03, 3.45593598e-03,
          -1.56260934e-03, -8.20199202e-04, 4.30814130e-03,
          -1.51739840e-03, -4.58844891e-03, -3.23793991e-03,
          -2.84693786e-03, 2.82240566e-03, 4.77423565e-03,
          4.58905101e-03, 5.39267017e-03, 1.19560922e-03,
          -9.75184957e-04, -4.07731859e-03, -7.25250458e-03,
          -3.84781481e-04, 2.29458814e-03, -1.89819746e-03,
          -2.26168614e-03, 1.56840286e-03, 5.35896607e-03,
          9.06367641e-05, -5.54603571e-03, -5.76544274e-03,
          -3.42535879e-03, -1.27312684e-04, 1.01043959e-03,
          5.75519074e-03, 7.94248190e-03, 3.12659843e-03,
          -1.56591309e-03, -3.43782501e-03, -2.23196286e-04,
          -3.74107668e-03, 2.89577385e-03, 4.05010534e-03,
          4.39923443e-03, 5.98630868e-03, 3.33648897e-03,
          -8.13857827e-04, -3.00288619e-03, -4.12154337e-03,
          -4.04473720e-03, -4.63427370e-03, -4.35421849e-03,
          3.82127560e-04, 2.57791975e-03, 7.22091040e-03,
          -1.32634270e-03, -2.55504553e-03, 4.24817146e-04,
          -3.99953406e-03, 2.68028374e-03, 3.72944120e-03,
          6.12605922e-03, 8.25675484e-03, 5.94471442e-03,
          -1.61475234e-03, -4.65756981e-03, 1.77538756e-03,
          -1.95935299e-03, -1.90040344e-04, -2.83765467e-03,
          1.52906717e-03, 4.74607293e-03, 1.56560971e-03, 2.33295816e-03,
          -3.58239224e-04, 1.17229891e-03, -4.51486296e-04,
          9.23853717e-04, -6.27385825e-03, -1.49031333e-03,
          3.08286771e-03, 1.00253779e-03, 5.22808172e-03,
          -8.29279190e-04, 7.16686808e-03, 3.58117395e-03,
          1.11192220e-03, -4.63992450e-03, -6.64039457e-04,
          6.49356283e-03, 3.82011360e-03, 6.15450880e-03,
          -2.31309910e-03, 6.39941031e-03, 2.79558706e-03,
          1.54602822e-04, -3.84996086e-03, 8.96572252e-04,
          2.85563339e-03, 5.46443649e-03, 1.08162919e-02,
          -2.06869165e-03, 4.83017135e-03, -6.34916883e-04,
          -1.27798598e-03, -5.09705860e-03, -5.11913747e-03,
          3.67468386e-03, 1.11321022e-03, 1.33568246e-03,
          -1.46545027e-03, 4.22765128e-03, 5.47113502e-03,
          2.66409200e-03, -2.99676065e-03, -2.79437331e-03,
          4.97888681e-03, 1.40795810e-03, 7.98434252e-04,
          -5.92379551e-03, 4.76361625e-03, 5.83751686e-03,
          4.12086863e-03, -2.27269949e-04, -4.29392280e-03,
          5.96448255e-04, 4.76081762e-03, 4.25286451e-03,
          -3.01563367e-03, 2.48912303e-03, 2.79836776e-03,
          1.19552226e-03, -5.30924648e-03, -6.98709255e-03,
          2.45099002e-03, 4.36116103e-03, -3.23639181e-03,
          -7.93209113e-03, 4.01726970e-03, 4.40509990e-03,
          1.93463825e-03, -5.86270820e-03, -8.23185407e-03,
          1.74990995e-03, 2.02573743e-03, 2.16850801e-03,
          -1.07283227e-03, 1.04301423e-02, 9.40112304e-03,
          5.14792744e-03, 1.73385511e-03, -4.02845442e-03,
          -1.70077162e-03, 3.10788932e-03, 4.01156285e-04,
          -4.11878154e-03, -1.48376927e-03, -9.14742181e-04,
          -1.70541729e-03, -7.89223518e-03, -9.67546017e-04,
          6.42957631e-04, 5.15061757e-03, -3.71332141e-03,
          -7.02824350e-03, 5.68999117e-03, 1.15341656e-02,
          4.50319517e-03, -3.51680955e-03, -4.32533259e-03,
          -3.22730688e-04, 7.81916734e-03, -7.27980747e-04,
          -9.49561223e-03, -5.15987957e-03, -3.62325530e-03,
          -1.94422773e-03, -8.23244825e-03, -1.90646970e-03,
          6.88416604e-03, 5.31739369e-03, 3.74688185e-03, 3.57228215e-04,
          2.96738814e-04, 4.36373171e-04, 2.85667460e-03,
          -4.38586436e-03, 1.12210342e-03, 3.67585104e-03,
          2.54475861e-03, -6.98715856e-04, -4.50096512e-03,
          -4.29763459e-03, 2.29367265e-03, 9.00751445e-03,
          3.34556517e-03, -5.80603664e-04, 3.87036428e-03,
          2.45530810e-03, 2.60344683e-03, -3.13067995e-03,
          7.81634299e-04, 1.04484484e-02, 2.70062964e-03,
          -2.10028980e-03, 2.47123418e-03, 3.45824007e-03,
          -2.91991513e-03, -4.03271895e-03, -7.94064533e-03,
          2.98935780e-03, 7.73302047e-03, 2.28064903e-03,
          -2.06729397e-03, -6.77514169e-03, -6.56923233e-03,
          -6.26155827e-03, -1.01992320e-02, -6.05827430e-03,
          -1.33625465e-03, 1.39941694e-02, 6.70872023e-03,
          -2.26254296e-03, -4.38128226e-03, -1.92533352e-03,
          -1.29029788e-02, -8.27683695e-03, -5.52341854e-03,
          -4.63169673e-03, 7.04337517e-03, 1.37743261e-02,
          8.20979942e-03, 5.10132592e-03, -6.84121810e-03,
          -1.02204280e-02, -9.31617618e-03, -1.07966242e-02,
          1.75237641e-04, 1.49042364e-02, -4.07835562e-03,
          -8.61024205e-03, -1.00924568e-02, -1.58529170e-02,
          -1.80550925e-02, -8.74749944e-03, -1.04903840e-02,
          -3.79385846e-03, 2.13674153e-03, 8.46731942e-03,
          -1.17959059e-03, -4.47498728e-03, -1.50813935e-02,
          -1.26060806e-02, -7.13283522e-03, -4.56791697e-03,
          1.56672075e-02, 1.83772091e-02, -7.47804390e-03,
          -1.18631525e-02, -9.73494351e-03, -1.35635389e-02,
          -1.05000297e-02, -8.81222729e-03, -9.39958496e-04,
          5.55698818e-04, 2.47792918e-02, -3.36201023e-03,
          -8.81556794e-03, -4.33544209e-03, -6.59984024e-03,
          -1.23084644e-02, -1.00042103e-02, -6.38535200e-03,
          1.19953854e-02, 1.59771387e-02, -8.95072427e-03,
          -1.80378947e-02, -1.30210407e-02, -1.31270206e-02,
          -7.53792142e-03, -1.08870920e-02, -3.58447875e-03,
          3.82475299e-03, 5.35996864e-03, -4.95107332e-03,
          -1.60652921e-02, -1.07231718e-02, -7.61721050e-03,
          -3.92204756e-03, -4.68851160e-03, 4.37618000e-05,
          -1.37459848e-03, 7.51458853e-03, 2.42081587e-03,
          -5.98561112e-03, -3.87181505e-03, -4.91802441e-03,
          6.89896988e-04, -6.32788287e-03, -4.51841531e-03,
          -1.79632846e-03, 1.75558887e-02, 6.07555732e-03,
          -3.76556790e-03, 3.15326382e-04, -3.28324444e-04,
          -2.96805799e-03, -2.96951993e-03, -1.69175724e-03,
          -2.35741492e-03, 6.16965350e-03, -1.77019963e-03,
          -1.12180160e-02, -2.35607172e-03, -3.16458778e-03,
          4.21967730e-03, -3.35286255e-03, -8.15510470e-03,
          -4.72063385e-03, 1.48863979e-02, 1.51545310e-03,
          -4.02824860e-03, -5.12500154e-03, -1.23134127e-03,
          5.84039185e-03, -3.22471000e-03, -3.84948612e-03,
          -2.38496787e-03, 1.44494712e-04, 4.73342487e-04,
          -5.94412303e-03, 2.38095247e-03, 5.67057217e-03,
          3.66630871e-03, 5.18210116e-04, 5.39540022e-04, 1.97742158e-03,
          3.78155545e-03, -3.05494503e-03, -7.14316871e-03,
          2.40668422e-03, 6.14971574e-03, 4.22114925e-03,
          -2.38651736e-03, -8.22841376e-03, -3.79236741e-03,
          1.60280149e-03, -1.88794301e-03, -4.87247063e-03,
          -5.86094335e-03, -7.80406001e-04, -3.28613608e-03,
          -1.98940584e-03, -1.05986937e-05, 8.92446190e-03,
          6.50720252e-03, -4.30920767e-03, -6.36932394e-03,
          -3.09859379e-03, -2.79645086e-03, 3.05293033e-05,
          -2.65285978e-03, 1.55750406e-03, 4.44117514e-03,
          2.20041280e-03, -2.88491778e-04, -7.66071165e-03,
          5.87966468e-04, 4.01570462e-03, -5.93010554e-05,
          -5.93105284e-03, -1.35699438e-03, 5.50930016e-03,
          5.43126743e-03, 2.38478044e-03, -6.19562808e-03,
          -3.52761196e-03, -8.06196709e-04, -4.16236464e-03,
          -2.12556729e-03, 2.43802206e-03, 7.22659752e-03,
          4.20081709e-03, 3.89333046e-03, -3.49143427e-03,
          -3.08753399e-04, -4.14880319e-03, -4.97560808e-03,
          -3.74892936e-03, 2.14712578e-03, 6.69287331e-03,
          8.44633766e-03, 4.25584521e-03, -3.08617321e-03,
          -7.47097190e-03, -6.97423192e-03, 3.54339904e-03,
          5.90939424e-04, 2.36008927e-04, -2.84007750e-04,
          2.63611437e-03, 1.33271737e-03, -4.41274932e-03,
          -1.96207478e-03, 3.40640079e-03, 6.99546374e-03,
          1.70850556e-03, -4.37808194e-04, -3.08586378e-03,
          2.42522638e-03, 2.73634004e-03, -3.45188682e-03,
          4.43702331e-03, 7.24715367e-03, -1.75410509e-03,
          2.19005370e-03, 3.03115638e-04, 5.58722066e-04, 3.67336557e-03,
          3.56997887e-04, -4.92209056e-03, -5.74955950e-03,
          -4.94324462e-03, 4.06185444e-03, 5.28334785e-05,
          1.19056704e-03, -2.19327235e-03, 3.67382984e-03,
          -1.10750948e-03, -8.42044875e-03, -4.45069326e-03,
          1.64859041e-04, 3.88157438e-03, -3.14146234e-03,
          4.49599058e-04, -4.24056954e-04, 1.47307036e-03,
          5.48576145e-03, -1.49010259e-04, 1.64714933e-03,
          5.21485601e-03, 6.07000384e-03, -1.21356372e-03,
          -2.33973478e-04, 3.23030073e-03, 4.59596189e-03,
          3.40665737e-03, -2.98535102e-03, 3.13971192e-03,
          2.03949492e-03, 5.65980375e-03, -5.17887808e-03,
          -9.88951651e-04, 2.26935884e-03, 9.08096146e-04,
          -1.07340375e-03, -5.53814042e-03, -3.02083814e-03,
          4.29197494e-03, -1.69916428e-03, -7.41672702e-03,
          -2.06051045e-03, 1.01594208e-03, 5.23197185e-03,
          5.66344010e-03, -1.86115515e-03, 2.05309084e-03,
          1.24547177e-03, 6.67549390e-03, 4.34414670e-03,
          -2.62401649e-03, 9.30842385e-03, 6.92339288e-03,
          4.06133197e-03, -2.22042925e-03, 2.23635999e-03,
          9.12241451e-03, 7.41694635e-03, 3.46248480e-03,
          -4.68249293e-03, 3.44269024e-03, -2.03164178e-03,
          -3.27570876e-03, -2.47911667e-03, -1.64585898e-03,
          1.18052745e-02, -5.40089188e-03, -4.79139481e-03,
          1.17875170e-03, 6.16767630e-03, 9.42165498e-03, 9.19288211e-03,
          5.85115701e-03, 4.47686948e-03, 4.30283742e-03,
          -4.29750467e-03, -8.12391378e-03, -5.40255802e-03,
          3.46089620e-03, -2.47743359e-04, 2.08466919e-03,
          4.02940391e-03, 3.67107242e-03, 2.06416030e-03, 1.10237869e-02,
          2.60544126e-03, -8.94131546e-04, 2.69594090e-03,
          2.32309895e-03, 2.38498487e-03, -2.48465571e-03,
          -7.12962355e-04, 1.05912983e-02, 7.52755022e-03,
          -2.90338765e-03, -4.08257474e-04, 4.56890278e-03,
          4.64240974e-03, 5.75153669e-03, -4.80171351e-04,
          -3.29820090e-03, 4.45236033e-03, 1.43808394e-03,
          -8.02657101e-03, -4.35664738e-03, 2.00770702e-03,
          -5.17527806e-04, 2.45699706e-03, -2.94344570e-03,
          -1.15485833e-04, 3.14957346e-03, -3.90328979e-03,
          -8.55695549e-03, -2.20826687e-03, 2.53558392e-03,
          1.18227780e-03, 5.19491034e-04, -4.11175238e-03,
          -4.23362432e-03, 2.23451923e-03, 3.88607895e-03,
          -5.34364814e-03, -3.02411965e-03, 5.28694829e-03,
          8.98385886e-03, 6.95037330e-03, -5.92037395e-04,
          -3.19115748e-03, -1.87919603e-03, 5.50292153e-03,
          -1.53325091e-03, -2.47988594e-03, -3.24442401e-03,
          -3.60940932e-03, -1.11751177e-03, -6.17333269e-03,
          6.82765269e-04, 1.92696787e-03, -2.15460849e-03,
          -7.87775777e-03, -3.79118673e-03, 7.09946267e-04,
          2.75659584e-03, 4.81786905e-03, 2.93445168e-03,
          -7.89840764e-04, 1.75885711e-04, 2.21378822e-03,
          7.16988230e-04, -1.22506265e-03, -4.15581698e-03,
          -4.75862017e-03, 2.31251307e-03, 3.01806792e-03,
          6.42516464e-03, 6.24510832e-03, 4.03514411e-03, 1.24669296e-03,
          1.74613364e-04, -2.09837663e-03, 9.86744277e-03,
          -2.96746590e-03, -2.08665151e-03, 2.90451152e-03,
          7.06604915e-03, 4.43745084e-04, -3.73051083e-03,
          -8.64204764e-03, 3.92636051e-03, 9.07490589e-03,
          8.89408460e-04, -3.06524849e-03, -4.65995818e-03,
          -2.98141199e-03, 7.14525534e-03, 3.53445741e-03,
          3.54797021e-03, -1.24383532e-03, 2.11458118e-03,
          -9.51930240e-04, -6.12387666e-04, 4.10311716e-03,
          8.83102790e-03, 2.02366710e-03, -2.29927152e-03,
          -3.91161209e-03, 5.78993792e-03, 7.26782670e-03,
          3.69761209e-03, -4.61946242e-03, -3.88872111e-03,
          1.09271798e-03, -4.07586806e-03, -7.75443064e-03,
          -1.14501948e-02, 3.45890154e-03, 1.78069193e-02,
          1.99056070e-04, -6.62527466e-03, -5.23992674e-03,
          -7.20993895e-03, -1.33057972e-02, -8.28137249e-03,
          -9.87137109e-03, 1.40283850e-03, 3.65571724e-03,
          5.42900432e-03, -3.11732711e-03, -2.24340288e-03,
          -9.00523085e-03, -8.06685071e-03, -1.19886529e-02,
          -1.03069507e-02, 4.93352395e-03, 1.94444954e-02,
          4.70269937e-03, -6.75802864e-03, -6.22905837e-03,
          -8.65770783e-03, -1.31180380e-02, -1.56232892e-02,
          -7.49027682e-03, -3.01864144e-04, 5.36045386e-03,
          7.16919452e-03, -2.32582306e-03, -5.77140774e-04,
          -1.13778124e-02, -9.65005811e-03, -1.17227798e-02,
          -8.75717495e-03, 6.66866824e-03, 1.80788469e-02,
          -6.21605990e-03, -1.26478598e-02, -1.16923284e-02,
          -1.08955726e-02, -6.49029715e-03, -1.08107487e-02,
          -6.02507498e-03, 1.61532918e-03, 1.28273964e-02,
          -1.95279578e-03, -1.56960748e-02, -1.36265792e-02,
          -1.01071745e-02, -1.00543881e-02, -1.20459115e-02,
          -1.32857384e-02, 4.91018116e-04, 1.36617571e-02,
          -8.01960414e-04, -7.66470376e-03, -7.34886108e-03,
          -7.09602516e-03, -1.19200721e-02, -1.40309045e-02,
          -1.31071899e-02, -2.48811732e-04, 1.27605526e-02,
          1.83587812e-03, -9.97669064e-03, -1.12639386e-02,
          -1.11815585e-02, -1.32837344e-03, -2.87005492e-03,
          -3.18101980e-03, -1.71301782e-03, 7.30431313e-03,
          3.03001655e-03, -1.02931652e-02, -4.61980514e-03,
          -5.31266537e-03, 2.54952046e-03, -1.55198434e-03,
          -4.21474734e-03, -3.06824408e-03, 1.67355202e-02,
          5.33173885e-03, -2.56268750e-03, -4.62140422e-03,
          -3.97423096e-03, -9.24598612e-03, -6.49078703e-03,
          -5.86746261e-03, 1.97831169e-03, 7.08637433e-03,
          1.48846605e-03, -1.23812407e-02, -7.50449160e-03,
          -1.09631829e-02, -8.10624938e-03, -5.85609395e-03,
          -2.74930475e-03, 2.89081037e-03, 1.80050693e-02,
          -4.38324315e-03, -6.04702672e-03, -9.55889095e-03,
          -8.55422299e-03, 1.45594953e-04, -2.49534403e-03,
          -3.85826756e-03, -8.33836675e-04, 1.79129839e-03,
          3.67881102e-03, -1.36775454e-03, -4.22454812e-03,
          -3.91756929e-03, -2.97194091e-03, -1.16123760e-03,
          8.11266713e-04, 1.31216515e-02, 1.58005748e-02, 4.08211304e-03,
          -3.91971460e-03, -3.31766950e-03, -4.94348770e-03,
          -8.63109343e-03, -9.04759392e-03, -2.71617388e-03,
          9.48781206e-04, -2.02211598e-03, -1.23961212e-03,
          -2.70042359e-03, -6.76046871e-03, -9.04006045e-03,
          -6.28297590e-03, -3.64215905e-03, -1.69456331e-03,
          1.02843530e-02, 1.27341822e-02, 6.41644793e-03,
          -1.78433699e-03, -4.23707999e-03, -1.06535237e-02,
          -2.73906905e-03, 1.38066665e-04, 3.67780146e-03,
          1.12277763e-02, 1.17521752e-02, 2.73381080e-03,
          -1.86782435e-03, -1.58578879e-03, -5.31286513e-03,
          -5.25542302e-03, -1.61695038e-03, 1.71782926e-03,
          5.54562313e-03, 1.33610992e-02, 7.08552450e-03,
          -2.64422444e-04, -4.82791755e-03, -5.27806440e-03,
          -1.95641862e-03, 8.50835713e-05, 4.60658176e-03,
          1.37965083e-02, 1.05198054e-02, 4.91778785e-03,
          -4.07467876e-03, -3.38082877e-03, -7.79310660e-03,
          -3.99735570e-03, -7.81309791e-03, -6.05420861e-03,
          -1.28215493e-03, 4.97089373e-03, 2.60977657e-03,
          -6.13071304e-03, -6.01527235e-03, -3.27209779e-03,
          -2.16821837e-03, -1.46367738e-03, -1.77604740e-03,
          -1.18359877e-03, 8.13946221e-03, 6.53292332e-03,
          -2.25963350e-03, -4.69720981e-04, -8.39603483e-04,
          4.06731991e-03, 2.69108888e-04, -1.37155713e-03,
          3.72339436e-03, 1.10177072e-02, 6.51759561e-03,
          -1.94067578e-03, 7.69735721e-04, 3.30254529e-03,
          2.95543414e-05, -1.06915599e-02, -8.94169882e-03,
          -2.81896978e-03, 9.51409806e-03, 3.77008505e-03,
          1.38528447e-03, 6.48339861e-04, 4.16087126e-03, 1.29978766e-03,
          -6.43967651e-03, -1.25041297e-02, 3.02278344e-03,
          8.63773189e-03, 7.78603228e-03, -1.45044964e-04,
          8.20902409e-04, 5.11548715e-03, 6.85869111e-03,
          -2.80696992e-03, -2.48611905e-03, 7.72384461e-03,
          9.19498596e-03, 1.75377156e-03, -7.79049937e-04,
          4.07160912e-03, 8.05244502e-03, -9.69280489e-04,
          -7.43436627e-03, -3.35450610e-03, 1.67446537e-03,
          9.95382108e-03, 7.49282772e-03, 7.23020593e-03, 6.55920617e-03,
          6.25391537e-03, 5.92985097e-03, -4.25756443e-03,
          -1.08966175e-02, 2.84958398e-03, 7.24739349e-03,
          2.06382107e-03, -4.03840141e-03, 2.65852711e-03,
          8.07641353e-03, 3.06212506e-03, -5.20252250e-03,
          -7.25571113e-03, -1.63483096e-03, 1.45415624e-03,
          -6.87166699e-04, -1.90845050e-03, 3.97326134e-04,
          8.68970901e-03, -4.69632121e-03, -9.18407366e-03,
          -3.44086811e-03, 9.58138262e-04, 1.27899330e-02,
          9.61768627e-03, 7.58909201e-03, 4.67621023e-03, 4.47738357e-03,
          -4.74971347e-03, -5.91281569e-03, -1.46804412e-03,
          3.81404231e-03, 4.78383154e-03, 5.67739503e-03, 1.78803434e-03,
          3.45960539e-03, 9.91120585e-04, -4.79857583e-04,
          -8.18640925e-03, -3.85573879e-03, -1.74713868e-03,
          6.18216489e-03, 4.73723188e-03, 2.26036110e-03, 2.40206835e-03,
          6.90093311e-03, 3.42826126e-03, -1.01344846e-02,
          1.80702424e-03, 1.63310429e-03, 2.27387855e-03, 5.61134703e-03,
          -1.78488088e-03, 1.46064512e-03, 5.13170380e-03,
          -2.30200496e-03, -6.63661445e-03, -2.93250359e-03,
          1.08058646e-03, 1.83903379e-03, 9.90675180e-04,
          -3.54773644e-03, -2.23382004e-03, -3.28706898e-04,
          -2.69572972e-03, -1.23137562e-02, -3.96878691e-03,
          7.17587071e-03, 7.46550923e-03, 5.39735751e-03,
          -3.70200071e-03, -2.95373192e-03, 2.02341774e-03,
          3.89109552e-03, -7.90038984e-03, 6.22345309e-04,
          2.26949365e-03, 4.18181298e-03, -2.33992143e-03,
          -5.05454605e-03, -3.45063256e-03, 8.66681058e-03,
          4.45421226e-03, -7.90522713e-03, -1.14244968e-03,
          9.08110011e-03, 1.22242048e-02, -2.99300766e-04,
          -6.22707745e-03, -3.52534186e-03, 1.01550780e-02,
          -6.38262788e-03, -1.24302683e-02, -7.33170006e-03,
          3.45244491e-03, 5.19226165e-03, 3.14964633e-03,
          -3.02998512e-03, -1.74324610e-03, -3.01095564e-03,
          -9.62815946e-04, -2.83007906e-03, 3.55547934e-04,
          -2.48026312e-03, -6.39095437e-03, 2.98548723e-03,
          1.40326447e-03, 2.83435057e-03, 2.72116414e-03, 2.59785424e-03,
          -5.12010418e-03, -3.18064890e-03, 1.06975548e-02,
          1.28052998e-02, 1.75842806e-03, -4.42841556e-03,
          -1.34982564e-03, 2.81288032e-03, 1.65596756e-03,
          -2.59004696e-03, 3.23568680e-03, 5.57445269e-03,
          2.99936254e-03, 4.34692157e-03, 1.19961880e-03, 4.74319328e-03,
          8.35272763e-03, -2.43880902e-03, -2.01956672e-03,
          3.18980590e-03, -1.79318333e-04, -3.02760163e-04,
          -2.38503632e-03, -1.91870006e-03, -2.05605756e-04,
          7.30310101e-04, -4.89921309e-03, -4.99133067e-03,
          3.39735379e-05, 3.52505152e-03, 3.53835407e-03, 1.06226571e-03,
          -1.07797617e-02, -8.96972138e-03, -5.06870542e-03,
          2.21277052e-03, -5.79453213e-03, 3.66559252e-03,
          6.29528286e-03, 7.17671076e-03, 9.67132114e-03, 8.35656014e-04,
          5.58985909e-03, 9.69910901e-03, -4.30379389e-03,
          -2.11064867e-03, 4.67780093e-03, 8.61576851e-03,
          5.90019953e-03, 7.31289061e-03, -3.86742642e-03,
          -4.25368547e-03, -1.43385585e-03, -1.39001561e-02,
          -1.08260289e-02, -3.52657028e-03, 3.19795730e-03,
          1.51888253e-02, 8.06322880e-03, -5.68952924e-03,
          -4.84358938e-03, -9.64308437e-03, -1.72192585e-02,
          -1.56479515e-02, -5.25692431e-03, -9.09531489e-04,
          9.42931138e-03, 1.06589366e-02, -2.03872588e-03,
          -5.43990964e-03, -9.21536330e-03, -1.02600018e-02,
          -6.85007311e-03, 3.75628192e-03, 1.20574646e-02,
          1.84696391e-02, 7.25076161e-03, -6.22302992e-03,
          -5.54878870e-03, -6.65490283e-03, -1.42962430e-02,
          -1.45416148e-02, -5.27738547e-03, 3.35476082e-03,
          7.40785571e-03, 3.68369371e-03, -5.90412738e-03,
          -8.15439969e-03, -1.11457082e-02, -6.50983723e-03,
          -8.06431100e-03, -1.30880540e-02, -5.10982098e-03,
          1.22041116e-02, 6.04064483e-03, -3.01345438e-03,
          -5.31334290e-03, -3.34080402e-03, -8.28804169e-03,
          -8.47258326e-03, -1.42558105e-02, -3.46254092e-03,
          9.71856620e-03, 4.04403545e-03, -3.02269240e-03,
          -6.61547435e-03, -9.19551216e-03, -1.07523352e-02,
          -1.31634986e-02, -1.58249699e-02, -1.29938591e-02,
          8.26086383e-03, 9.01723187e-03, -3.32374964e-03,
          -5.57685457e-03, -7.32332142e-03, -8.73310491e-03,
          -8.72459449e-03, -1.71478093e-02, -8.31469148e-03,
          1.05300825e-02, 4.21530986e-03, -1.94098381e-03,
          -5.75268874e-03, -1.07957264e-02, -5.79983648e-03,
          -4.12576227e-03, -7.73089053e-03, -1.13455323e-03,
          3.70346825e-03, 3.99584137e-03, -2.74962536e-03,
          -1.66711700e-03, -9.48357303e-03, -3.32461717e-03,
          -1.85955164e-03, -2.69425521e-03, 5.06243145e-04,
          1.15146004e-02, -3.24359722e-03, -2.73822970e-03,
          -4.08649864e-03, -7.10954657e-03, -3.04781739e-03,
          -5.55841718e-03, -9.63988248e-03, -1.33962219e-03,
          -1.39162672e-04, 4.70556738e-03, 1.11285539e-03,
          -6.26078749e-04, -2.76338472e-03, 1.30493566e-03,
          -3.61669972e-03, -7.22203730e-03, -1.22932566e-03,
          1.41163170e-02, -4.11802065e-03, -4.73648030e-03,
          -3.44353938e-03, -1.25897420e-03, -1.60555169e-03,
          -3.48252477e-03, -2.21825647e-03, -1.25668116e-03,
          1.56968262e-03, 1.36593444e-04, -6.53516967e-04,
          -2.25294288e-03, -2.74247560e-03, -3.37973796e-03,
          -6.07289560e-03, -3.50109860e-03, 6.99810684e-03,
          1.60328411e-02, 8.39324202e-03, 4.07005148e-03,
          -1.72723740e-04, -4.45353007e-03, 4.89495033e-05,
          -5.24775032e-03, -1.07358480e-02, -6.38454128e-03,
          1.12783245e-03, 1.33559620e-03, -2.00864999e-03,
          -4.15946590e-03, 1.84146885e-03, -6.36067428e-03,
          -1.30053423e-02, -1.18528381e-02, 2.71552219e-03,
          1.36815533e-02, 6.18297327e-03, 3.49242077e-03,
          -2.74529168e-03, 1.07955711e-03, -4.88131028e-03,
          -6.76330552e-03, -3.79504956e-04, 1.48235289e-02,
          1.67905129e-02, 5.40479878e-03, 1.56744139e-03,
          -2.57601775e-03, -5.82148833e-03, -1.72202173e-03,
          -1.06147835e-02, -4.87048877e-03, 8.75910744e-03,
          1.07157659e-02, 2.46751565e-03, 8.18657805e-04,
          -4.53655887e-03, -9.49675683e-04, -4.35209880e-03,
          -1.43986568e-02, -7.07419543e-03, 1.31707061e-02,
          1.34523548e-02, 5.73470257e-03, 2.31871149e-03,
          -1.68067683e-03, 2.55449512e-03, 2.21213093e-03,
          -1.42700402e-02, -6.40964974e-03, 6.50275499e-03,
          8.72278120e-03, 3.81850847e-03, -1.55967078e-03,
          -4.46839351e-03, 4.08112258e-03, 2.23843078e-03,
          -1.09614301e-02, -8.24221317e-03, 3.45721119e-03,
          1.10741239e-02, 1.40254246e-03, 8.00060749e-04,
          -1.93812372e-03, 2.69093877e-03, 3.14988359e-03,
          -8.14705901e-03, -1.06275324e-02, 1.18496253e-04,
          6.53790776e-03, 4.44775028e-03, 7.49780738e-04, 3.41760856e-03,
          6.11737231e-03, 7.87521992e-03, -9.11946967e-03,
          -6.72506867e-03, 2.29066960e-03, 6.72300253e-03,
          -2.05620774e-03, -3.15321656e-03, -3.44464439e-03,
          4.75692982e-03, 1.06372032e-02, -6.91125868e-03,
          -4.52413689e-03, 3.35494545e-03, 4.95470129e-03,
          -7.01994053e-04, -2.22295639e-03, 2.74262833e-03,
          1.25099868e-02, 3.50821554e-03, -5.43904630e-03,
          -7.21280370e-03, -1.25810853e-03, 5.18302293e-03,
          5.26445452e-04, -2.45541101e-03, 2.87244818e-03,
          3.69138410e-03, -3.90574336e-04, -1.50470261e-03,
          5.95377467e-04, -3.68210181e-06, 4.17574355e-03,
          -3.25833308e-03, -5.30589372e-04, 3.69460299e-03,
          2.56250543e-03, 7.42221344e-03, -6.42204657e-03,
          1.18800707e-03, 6.01725979e-03, 4.92441561e-03, 4.92519175e-04,
          -1.89456885e-04, 1.26456027e-03, 9.71264578e-03,
          4.33514966e-03, -1.54685567e-03, 4.32746671e-03,
          4.43261932e-04, 5.80086885e-03, 2.13127444e-03, 4.65908926e-03,
          2.42137956e-03, 6.81613805e-03, -2.39861757e-03,
          -2.88869347e-03, 2.67678755e-03, -1.66266004e-03,
          5.15121827e-03, 2.43044668e-03, 4.49225801e-04, 5.29466290e-03,
          3.77495470e-03, 4.44602501e-03, -9.82426014e-03,
          1.58579904e-03, -1.66209694e-03, 1.94263092e-04,
          7.47326249e-03, -2.04009726e-03, 3.27415089e-03,
          7.17527978e-03, -6.13324984e-04, -6.16190722e-03,
          -3.38115892e-03, -4.00744239e-03, 5.52638061e-03,
          6.25077263e-03, 2.13100039e-03, 3.52936611e-03, 6.23319391e-03,
          3.93422786e-03, -7.57569727e-03, -5.49654895e-03,
          -2.78612319e-03, -7.69864782e-05, 9.18792654e-03,
          1.82864477e-03, 3.91180802e-04, 3.59807559e-03, 6.79447548e-03,
          -7.68636307e-03, 9.27179761e-04, 1.16392714e-03,
          3.14667891e-03, 2.88382696e-04, -1.98239204e-03,
          -9.95013863e-04, 8.08035024e-03, 7.10646249e-03,
          -4.78600105e-03, -2.81601818e-03, 6.31037774e-03,
          1.22205280e-02, 3.22226551e-03, -5.56043349e-03,
          -2.49963976e-03, 6.93212636e-03, 6.79804245e-03,
          -9.20328032e-03, -4.49851062e-03, -1.55718240e-03,
          -1.36607792e-04, 1.49309053e-03, 1.06977869e-03,
          -1.86226319e-03, 5.50036784e-03, 4.82965214e-03,
          -8.11998732e-03, -5.86123252e-03, -2.99178693e-03,
          5.83935436e-03, 2.83658784e-03, -3.67977936e-03,
          -2.47227564e-03, 3.37611442e-03, 6.24103937e-04,
          -6.55018538e-03, -5.12903789e-03, 7.41940597e-03,
          1.56451631e-02, 5.15642995e-03, -6.65539084e-03,
          -4.72286996e-03, -1.75016746e-03, 3.34646297e-03,
          -1.09463534e-03, -3.94052448e-04, 3.07469536e-03,
          9.62465536e-03, 4.70644841e-03, 3.11866472e-03, 1.80141721e-03,
          3.84052820e-03, -3.60044115e-03, -8.40131659e-03,
          -7.87593517e-03, 2.02922779e-03, 1.00310259e-02,
          1.42801635e-03, -5.16967941e-03, -5.86637156e-03,
          -5.12248790e-03, 2.27047503e-03, -2.27012672e-03,
          -5.04566915e-03, 4.04529274e-03, 8.40243604e-03,
          3.63593735e-03, 3.46133043e-03, 1.45421887e-03, 2.64681713e-03,
          2.02004114e-04, -4.81906068e-03, -3.49610951e-03,
          1.66875904e-03, 6.27726596e-03, 9.53159109e-03, 1.48001558e-03,
          4.31926362e-03, 5.86487865e-03, -3.33727757e-03,
          -4.01873328e-03, -2.15656660e-03, 7.84625951e-03,
          1.08624967e-02, 7.03122793e-03, -4.85122204e-03,
          -1.69025571e-03, -1.59207720e-03, 4.17235401e-03,
          -1.27396605e-03, -5.30378148e-03, 1.28090440e-03,
          8.57113488e-03, 5.43670775e-03, 1.55514537e-03, 3.75727797e-03,
          7.70042650e-03, -4.10387712e-03, -5.97773492e-03,
          -5.52577898e-03, 5.29012363e-03, 1.19816493e-02,
          -3.70896631e-03, -7.95819424e-03, -6.97802985e-03,
          1.88477730e-04, -9.65229701e-03, -3.79431923e-03,
          6.26855937e-04, 1.42243989e-02, 2.21406277e-02, 7.40009081e-03,
          -5.73200313e-03, -4.12210496e-03, -8.93608294e-03,
          -1.40550910e-02, -1.02834906e-02, -5.92007581e-03,
          4.00798628e-03, 1.10790404e-02, 3.10851028e-03,
          -7.71230459e-03, -7.30589731e-03, -1.27441175e-02,
          -7.23651145e-03, -4.34256950e-03, -3.87744792e-03,
          6.62549911e-03, 3.05546578e-02, 1.05547406e-04,
          -5.32736536e-03, -8.20318516e-03, -5.98786678e-03,
          -1.14106378e-02, -1.03503559e-02, -6.06555911e-03,
          -1.46304094e-03, 9.02677141e-03, -5.88478928e-04,
          -1.00076636e-02, -9.21095069e-03, -1.42561402e-02,
          -1.35343475e-02, -1.12947356e-02, -1.28165605e-02,
          -1.75851937e-02, 7.24039460e-03, 1.31335743e-02,
          2.81331432e-03, -2.89559714e-03, -9.55893192e-03,
          -8.88900179e-03, -8.43019411e-03, -1.21050682e-02,
          -8.33317917e-03, 8.50879587e-03, 7.38040218e-03,
          1.75523630e-03, -4.07358486e-04, -6.60659233e-03,
          -1.53429089e-02, -1.22133326e-02, -1.39568886e-02,
          -1.69864688e-02, 3.70253064e-03, 1.40957804e-02,
          1.11883711e-02, 1.59594009e-03, -1.19406842e-02,
          -9.33842734e-03, -1.31974081e-02, -1.13021890e-02,
          -1.08447531e-02, 9.97083262e-03, 1.29587203e-02,
          2.74147047e-03, 2.87772651e-04, -6.93956576e-03,
          -3.13960481e-03, -4.76595107e-03, -6.81107771e-03,
          2.45389470e-04, -5.87077159e-03, 5.01547800e-03,
          1.84886868e-03, 1.68524787e-03, -1.52119261e-04,
          -9.58755380e-04, -5.26979053e-03, -5.87244285e-03,
          1.51341653e-03, 1.01141157e-02, -8.05540849e-03,
          -2.10081995e-03, -4.04929230e-03, -1.06911198e-03,
          -1.41251355e-03, -5.10604680e-03, -3.93710146e-03,
          -1.71621528e-03, -1.21116713e-02, 2.92059896e-03,
          -1.53594743e-03, 5.01388975e-04, 2.30536400e-03,
          3.80373094e-05, -4.50563245e-03, -5.00751473e-03,
          9.77669843e-04, 1.07181780e-02, -6.41632266e-03,
          -2.01891613e-04, -3.64317792e-03, 2.39822431e-04,
          -2.41020625e-03, -5.67345368e-03, -9.78922471e-03,
          -3.85765266e-03, -5.86657459e-03, -2.23104190e-03,
          -2.03644764e-03, -5.61386254e-03, -5.28172823e-05,
          -3.17240506e-03, -5.21869725e-03, -1.14005934e-02,
          4.33220295e-03, 7.91633781e-03, 2.96533667e-03,
          -9.28326263e-05, -1.90628832e-03, 1.33319455e-03,
          3.84484930e-03, -3.78590147e-03, -8.12254380e-03,
          -1.52697985e-03, 4.80951654e-04, -1.23575481e-03,
          2.30243732e-03, -9.94789880e-04, 4.21591382e-03,
          5.89637412e-03, -7.46287755e-04, -9.35614295e-03,
          5.77799138e-03, 9.27894097e-03, 6.93850173e-03, 3.00940825e-03,
          -7.67938211e-04, 8.77773203e-03, 9.52260889e-05,
          -7.09316740e-03, -5.89937670e-03, 1.12840496e-02,
          9.02657863e-03, 6.49619102e-03, -6.49383757e-04,
          1.37449848e-03, 5.77778229e-03, 1.38485304e-03,
          -1.17690302e-02, -8.16321280e-03, 2.23533530e-03,
          6.18094904e-03, 1.80371141e-03, -4.87294281e-03,
          -3.41495825e-03, 1.41559588e-03, 4.44884831e-03,
          -1.60604308e-03, -9.17344820e-03, 7.58636929e-03,
          9.56186559e-03, 5.85741783e-03, -1.98236550e-03,
          -2.08551576e-03, 5.56335365e-03, 3.42220627e-03,
          -8.87677539e-03, -8.95451382e-03, 2.02271342e-03,
          6.20252779e-03, 2.92344741e-03, -3.92919639e-03,
          -5.27579524e-03, 3.50022595e-03, 6.07227208e-03,
          -3.23884632e-03, -4.60317824e-03, -9.15672921e-04,
          8.91586207e-03, -6.37175050e-03, -6.24439586e-03,
          -3.31790349e-03, 4.58290474e-03, 8.94332957e-03,
          -4.85303532e-03, -2.75694358e-04, 2.41865590e-03,
          7.24466343e-04, -4.67947451e-03, -6.86956244e-03,
          2.03117100e-03, 1.23997452e-02, 6.48657093e-03,
          -3.63574363e-03, -5.04239276e-03, 2.25572754e-03,
          8.25358741e-03, -4.98089707e-03, -9.67828371e-03,
          -2.63809832e-03, 3.40547785e-03, 7.88742863e-03,
          -4.43221361e-04, 3.33543867e-03, 5.83336502e-03,
          -2.72246217e-03, -6.51970226e-03, -1.28781283e-02,
          -9.51747061e-04, 1.01783499e-02, 4.39455081e-03,
          -6.22668630e-03, 4.47417842e-04, 4.71951813e-03,
          -1.36834558e-03, -5.35439351e-04, -1.23552827e-03,
          1.79575945e-04, 8.74897093e-03, 1.48859050e-04,
          -2.50161299e-03, -1.74339069e-03, 6.53190596e-04,
          -1.56065507e-04, 1.58236572e-03, 4.40408522e-03,
          -1.81557157e-03, 6.29089959e-03, 3.03485827e-03,
          6.27886096e-04, 3.97729408e-03, 7.62375118e-03,
          -4.40286472e-03, -1.29477947e-03, -6.83583785e-03,
          -1.95517787e-03, 7.50810187e-03, -1.80237601e-03,
          1.43504376e-03, 1.63426343e-03, 4.30183904e-03, 4.35978640e-04,
          -1.49976148e-03, -3.56987421e-03, -5.34174731e-03,
          3.12547199e-03, 3.05727916e-03, -5.92539879e-03,
          -5.61659038e-03, 1.04119931e-03, 1.58817263e-03,
          5.68600511e-03, 4.60181478e-03, 2.59582233e-03, 7.30327563e-03,
          6.98791957e-03, -8.04003235e-03, -5.64431818e-03,
          9.50255373e-04, 4.73507651e-04, 7.47242896e-03, 3.02676903e-03,
          -1.42816993e-04, 7.38056656e-03, 4.16803267e-03,
          -3.96680133e-03, -1.16967526e-03, 4.08749329e-03,
          -3.39099817e-04, 1.52607879e-03, -4.84189281e-04,
          -4.87297162e-04, 8.66590347e-03, 7.45927030e-03,
          -5.35057532e-03, -8.47071782e-03, -2.35578488e-03,
          -2.29205261e-03, 1.53615465e-03, -6.71431306e-04,
          -9.52090777e-05, 7.02477479e-03, 7.65115116e-03,
          -6.60991343e-03, -2.51011434e-03, 2.52788141e-03,
          -9.28743568e-04, 2.12261174e-03, 4.06871224e-03,
          -1.88996072e-03, 9.10692383e-03, 9.82526317e-03,
          -7.58153060e-03, -4.77530574e-03, 2.25741933e-05,
          4.65988927e-03, 4.11809795e-03, 1.62885844e-05,
          -3.15521756e-04, 9.01510101e-03, 8.07651505e-03,
          -7.44840549e-03, -4.08172514e-03, -1.48177345e-03,
          -4.00172174e-03, -2.73319427e-03, -6.72333466e-04,
          -1.85283774e-03, 7.93210696e-03, 9.49395727e-03,
          -6.28434168e-03, -4.95986314e-03, 2.80408072e-03,
          3.69346654e-03, 3.90596659e-04, -2.58082268e-03,
          -2.34637037e-03, 8.77390336e-03, -3.11949453e-03,
          -8.38839076e-03, -8.67902953e-03, 3.03575490e-03,
          1.46262906e-03, 4.52089444e-04, -3.27142701e-03,
          -2.51721684e-03, -2.40065251e-03, -1.23851979e-03,
          -5.22221485e-03, -6.53352030e-03, 1.18444702e-02,
          6.99090771e-03, 8.72371998e-03, 4.86172643e-03, 7.09409500e-03,
          3.75408563e-03, 1.67717203e-03, -8.48936103e-03,
          -1.18680773e-02, 9.50322501e-05, 2.75497395e-03,
          -3.76966130e-03, -5.94023010e-03, -2.82969000e-03,
          1.90755771e-03, 2.49227669e-05, -3.63084255e-03,
          -2.45081051e-03, 8.48540291e-03, 7.34196976e-03,
          6.58534281e-03, 3.44627129e-04, 6.60364004e-03, 4.42996807e-03,
          -4.31502191e-03, -4.94340714e-03, -3.26071400e-03,
          7.10340170e-03, 4.75702295e-03, 4.00823401e-03, 2.55710003e-03,
          3.63977696e-03, 2.21245806e-03, -9.33472812e-03,
          -5.45512605e-03, -1.83726870e-03, 6.75549544e-03,
          5.14532859e-03, -2.30360962e-03, -8.37711431e-03,
          -7.10843410e-03, -2.69102957e-03, -4.51390073e-03,
          -4.46223142e-03, -2.64857337e-03, 6.37614774e-03,
          8.80812481e-03, 5.89615293e-03, -9.24230902e-04,
          3.31209763e-03, 7.99161091e-04, -8.37487355e-03,
          -4.37162677e-03, -5.38948504e-03, 5.10092452e-03,
          4.04251320e-03, -3.00058816e-03, -1.14255287e-02,
          -6.66745612e-03, -4.90479730e-03, -1.35401925e-02,
          -6.98438473e-03, -2.20222818e-03, 6.80194329e-03,
          2.27424800e-02, -1.47189188e-03, -7.12202629e-03,
          -6.88109873e-03, -5.28994808e-03, -1.16773704e-02,
          -1.03051784e-02, -8.55532847e-03, -9.39727179e-04,
          6.97598234e-03, -4.15243441e-03, -8.97630118e-03,
          -8.49733222e-03, -1.15716644e-02, -1.06833056e-02,
          -8.00824817e-03, -2.72846548e-03, 6.83876034e-03,
          2.02827957e-02, -5.23180328e-03, -8.67236592e-03,
          -5.39827859e-03, -4.04180493e-03, -1.21958163e-02,
          -8.65047611e-03, -8.14390741e-03, 1.95425251e-04,
          -6.70284498e-03, -4.01618751e-03, -6.31623995e-03,
          -7.25386478e-03, -6.93017943e-03, -1.28282811e-02,
          -1.10164220e-02, -1.27351126e-02, -1.82622056e-02,
          -2.07619090e-03, 8.53955746e-03, 1.24870650e-02,
          6.67442661e-03, -9.88538284e-03, -5.06800879e-03,
          -9.86175239e-03, -1.14614703e-02, -1.02564618e-02,
          3.24977166e-03, 8.97804461e-03, 2.37512565e-03, 5.67152072e-03,
          -3.00910440e-03, -1.68361310e-02, -1.45206880e-02,
          -1.25568639e-02, -1.59004107e-02, -4.84544272e-03,
          3.03190504e-03, 5.70786325e-03, -3.24779074e-03,
          -1.60319097e-02, -1.24051496e-02, -8.20354652e-03,
          -1.09492429e-02, -8.77230335e-03, 5.82559686e-03,
          7.74121564e-03, 9.21068771e-04, -1.34952040e-03,
          -1.14404969e-02, -8.85676767e-04, -3.40334140e-03,
          -3.30685219e-03, -2.53336295e-03, -1.12821599e-02,
          -2.14450620e-03, -4.83513344e-03, -2.49028392e-03,
          1.03801768e-03, 2.54410086e-03, -1.42863707e-03,
          -2.97760009e-03, -6.28517417e-04, 4.63679945e-03,
          -4.34919866e-03, -6.52264059e-03, -5.95546374e-03,
          1.26378820e-03, -1.61208306e-03, -1.31074025e-03,
          -1.51775253e-03, -5.49756922e-03, -3.40145896e-03,
          2.09319894e-03, -4.79392428e-03, -3.02112312e-03,
          -6.89795148e-03, 1.05098868e-03, -3.43328132e-03,
          -5.03644161e-03, -5.99104585e-03, 1.98183022e-02,
          -5.11671323e-03, -1.09433616e-02, -8.71399138e-03,
          -6.64428435e-03, 5.37758647e-03, -4.38799569e-03,
          -6.35231100e-03, -2.48157023e-03, 1.68671808e-03,
          -2.33627576e-03, 3.89776658e-04, -8.07328674e-04,
          5.49174938e-03, 2.99044163e-03, -4.69911424e-03,
          -7.07340240e-03, 3.12499865e-03, 6.22338103e-03,
          2.57519097e-03, -1.83870376e-03, -4.20248369e-04,
          8.46466608e-03, -1.39619550e-03, -6.30995259e-03,
          -6.57083699e-03, -4.69990913e-03, -3.32744239e-05,
          -3.08522745e-03, -5.33507392e-03, -9.19327140e-03,
          -4.43310570e-03, 9.80017358e-04, -6.38802303e-03,
          1.34596205e-03, 4.74737724e-03, 2.35800957e-03,
          -1.57914904e-03, -3.15652951e-03, -2.69591762e-03,
          2.88852630e-03, 2.93681072e-03, -2.04037386e-03,
          -5.36466576e-03, 5.38661610e-03, 4.45420574e-03,
          2.26894487e-03, -1.51019148e-03, -2.05492228e-03,
          6.71419082e-03, -9.50305432e-04, -6.26050821e-03,
          -5.61637385e-03, -4.44201112e-04, 3.21954722e-03,
          -2.11515493e-04, -6.80806348e-03, -6.19247137e-03,
          1.91902078e-03, -8.03141447e-04, -6.06799638e-03,
          -1.00498646e-03, 3.96077055e-03, 2.03254865e-03,
          -7.34520378e-04, -3.80302576e-04, -1.12669438e-03,
          5.67150721e-03, 3.30508314e-03, 1.58410857e-03, 9.92666581e-04,
          2.67543830e-03, 4.12282627e-03, 2.75392993e-03,
          -2.27278471e-03, 3.42607871e-03, 9.83900111e-03,
          5.90073736e-03, -4.28692932e-04, -4.21498297e-03,
          -7.13120098e-04, -6.91996946e-04, -9.41288657e-03,
          -1.07386289e-02, -6.19640527e-03, 5.33799687e-03,
          1.20806396e-02, 7.29750190e-03, 7.79611291e-04,
          -1.92629682e-06, -7.70729361e-03, -1.20562389e-02,
          -1.03950659e-02, -4.04846761e-03, 9.71717574e-03,
          9.65803675e-03, 4.59935982e-03, 3.45618202e-04, 8.63482070e-04,
          -2.23189616e-03, 1.18263578e-03, -1.14451621e-04,
          3.86600965e-03, 9.22014564e-03, 1.28687574e-02, 9.43135656e-03,
          -2.40053423e-03, -5.47823403e-03, -7.33002881e-03,
          -5.79566648e-03, -3.38677171e-04, 5.67311188e-03,
          1.11948270e-02, 1.00419289e-02, 4.34721494e-03, 2.35649338e-03,
          2.20645359e-03, -6.21255580e-03, -6.21286221e-03,
          -4.26424295e-03, -2.86170933e-03, 9.55313724e-03,
          1.91823673e-03, -1.66441943e-03, 7.05813291e-04,
          5.94209007e-04, -6.58181543e-03, 2.37271175e-04,
          -5.57091972e-03, -4.19782428e-03, 4.95915860e-03,
          1.29863294e-02, 7.71003915e-03, -3.91438045e-03,
          -4.40724241e-03, -5.24831610e-03, -6.26853807e-03,
          6.27102854e-04, 4.23804345e-03, 1.30628776e-02, 5.30452980e-03,
          1.74246542e-03, -4.55049286e-03, -4.25558724e-03,
          -1.13735311e-02, -8.64967180e-04, 5.36680222e-03,
          3.30445822e-03, 1.02380272e-02, 6.57708151e-03,
          -4.53979755e-03, -2.27327808e-03, 7.05574115e-04,
          -4.39788494e-03, 1.20467460e-03, -1.74064399e-03,
          1.86748523e-03, 9.72922053e-03, 8.66061449e-03,
          -3.55841662e-03, -4.43718443e-03, -1.86204154e-03,
          -6.28935220e-03, -1.98502326e-03, -4.93780524e-03,
          -9.47706576e-04, 6.49455097e-03, 1.05843693e-02,
          1.05076516e-03, -2.27318471e-03, -7.52099557e-04,
          -7.36809429e-03, -2.05213041e-03, -7.67276040e-04,
          3.72186862e-03, 1.45989163e-02, 1.25251748e-02,
          -8.89154035e-04, -8.70818349e-06, -4.63215867e-04,
          -9.43499804e-03, -8.14455561e-03, -8.16046260e-03,
          -5.02150320e-03, 1.20248804e-02, 8.47460795e-03,
          -4.27568750e-03, -2.43485044e-03, -2.68037524e-03,
          -2.10264884e-03, -4.73741442e-03, -6.08799467e-03,
          -4.36863024e-03, 4.79725329e-03, 1.54701751e-02,
          -1.31068029e-03, -1.09519821e-03, 1.09891372e-03,
          8.20957310e-03, -2.48116022e-03, -6.71857363e-03,
          -6.08376833e-03, 1.11893108e-02, 8.64248071e-03,
          1.64501165e-04, 7.66243029e-04, -5.20967878e-04,
          -2.05387617e-03, -4.81037656e-03, -7.76380068e-03,
          -7.31873373e-03, 7.30059482e-03, 9.07178689e-03,
          5.35247289e-03, 3.69563722e-03, 2.19025556e-03, 8.98314291e-04,
          -3.65274097e-03, -5.02978358e-03, -4.96164663e-03,
          5.80792502e-03, 4.79137106e-03, -7.05445232e-03,
          -1.19034946e-02, -3.58076370e-03, 1.93557225e-03,
          -2.88319122e-03, -5.85544342e-03, -4.24439320e-03,
          9.18393303e-03, 8.78001191e-03, -3.34124314e-03,
          -2.89499620e-03, 5.74163906e-03, 2.47410988e-03,
          1.07799273e-03, -4.03829617e-03, 1.79948448e-03,
          1.62480120e-02, 2.06260313e-03, 2.78392667e-03,
          -3.99902742e-03, 1.42864732e-03, -5.20684477e-03,
          -4.33565071e-03, -8.67541134e-03, -3.26776411e-03,
          7.00705359e-03, 7.87009858e-03, 2.63878610e-03, 5.60890243e-04,
          3.46594024e-03, -8.86517053e-04, -2.36001005e-03,
          -9.45995096e-03, -3.03861103e-03, 1.26572130e-02,
          4.94054053e-03, -3.93161690e-03, 4.82672505e-04,
          6.64411206e-03, 6.04593800e-03, -1.45607308e-04,
          -5.38958935e-03, 1.67216512e-03, 8.57281312e-03,
          -1.44035555e-03, -8.32354126e-04, -2.95381318e-03,
          4.79942624e-04, 6.16557151e-03, -5.02341241e-03,
          -1.11445971e-02, -5.07630873e-03, -3.47560081e-06,
          8.73593334e-03, 3.84442206e-03, 1.61983841e-03, 9.35307238e-03,
          -1.05780072e-03, -4.75969864e-03, -1.08203301e-02,
          -4.80385311e-03, 8.69953632e-03, -3.20163708e-05,
          -1.90007431e-03, -2.05980358e-03, -2.59980885e-03,
          1.90657412e-03, -7.94252194e-03, -1.53803797e-02,
          -8.65825731e-03, -3.94255901e-03, -8.53948586e-04,
          -3.40742175e-03, -1.29687367e-03, -4.34760819e-04,
          1.71634089e-02, -5.74872131e-03, -9.29020066e-03,
          -7.69465277e-03, 1.66643178e-03, 1.10811648e-04,
          -6.83631515e-04, -4.21724515e-03, 1.89040857e-03,
          -7.22517772e-03, -4.48809564e-03, -7.46320514e-03,
          -7.88920466e-03, -2.75228033e-03, -3.82394274e-03,
          -8.26797262e-03, -9.69486497e-03, -7.56808743e-03,
          2.20749676e-02, -8.78553651e-03, -1.35366693e-02,
          -1.05470754e-02, -3.60001181e-03, -1.02710752e-02,
          -5.52372541e-03, -3.65812611e-03, -1.36917189e-03,
          -7.81662017e-03, -1.07253101e-02, -1.20180482e-02,
          -1.05872164e-02, -1.30603537e-02, -7.89073762e-03,
          -1.20911114e-02, -1.30818477e-02, -1.68758892e-02,
          -3.70916328e-03, 9.03735578e-04, -2.62639311e-04,
          -7.69675709e-03, -5.38287964e-03, 9.47271401e-05,
          -4.63391701e-03, -7.58391246e-03, -6.42555207e-03,
          9.42991301e-03, 5.59201743e-03, 3.47735104e-03,
          -8.45899514e-04, 3.04652541e-03, -1.85748655e-02,
          -1.26428260e-02, -1.15810689e-02, -1.89711004e-02,
          -1.03091514e-02, -3.55770672e-03, -2.00015237e-03,
          -1.29511934e-02, -2.02515069e-02, -1.33285075e-02,
          -1.32096317e-02, -9.44018736e-03, -1.08294804e-02,
          1.50630036e-02, 3.09205474e-03, 1.54433283e-03,
          -9.86488257e-03, -1.32013429e-02, 4.02383565e-04,
          -2.70640128e-03, -2.23099627e-03, -6.42794045e-03,
          2.01995921e-04, -5.64754300e-04, -1.58879801e-03,
          -7.66350364e-04, 2.75230792e-04, -1.23077654e-03,
          -6.92287460e-03, -8.46739393e-03, -7.14276358e-03,
          1.29840495e-02, -1.21979218e-03, -8.04378837e-03,
          -9.59555898e-03, -1.84386468e-03, -7.07519846e-03,
          -7.61015760e-03, -6.57901214e-03, -4.56349272e-03,
          -5.96002722e-03, 1.08631724e-03, 2.59536691e-03,
          -3.82420397e-03, -3.58211948e-03, -6.23780210e-03,
          -9.42603685e-03, -6.45323470e-03, -2.61315540e-03,
          9.99446493e-03, -5.54428902e-03, -4.85678483e-03,
          -5.63949673e-03, -5.82723552e-03, 3.85330431e-03,
          -6.32640580e-03, -4.04056860e-03, -2.94907112e-03,
          7.87517056e-03, -2.01347377e-03, -5.84729761e-03,
          -1.26151051e-02, 3.77417356e-03, 1.18849729e-03,
          -6.64156349e-03, -1.20086654e-03, 1.17725343e-03,
          6.52250228e-03, -1.06981292e-03, -7.09257694e-03,
          -1.13387611e-02, 5.30314026e-03, -3.13526718e-03,
          -5.02056442e-03, -3.89453978e-03, -2.99952761e-03,
          8.45693066e-05, -2.52211513e-03, -5.09463437e-03,
          -4.66500828e-03, -2.55608652e-03, -2.72942637e-03,
          -4.55035362e-03, -3.66540044e-03, -1.77704403e-03,
          8.14278238e-03, 8.31049122e-03, -3.85704054e-03,
          -2.49148649e-03, -2.70707812e-03, 1.26354257e-03,
          -7.31186010e-03, -3.35751567e-04, 2.12350255e-03,
          2.96296226e-03, 3.65822023e-04, -4.36044252e-03,
          -5.38558234e-03, 4.72242385e-03, 4.33405302e-03,
          -3.21549876e-03, 4.63533401e-03, 1.54073199e-03,
          2.83341226e-03, 2.99491943e-03, -1.28063466e-03,
          3.29928519e-03, 7.73003232e-03, -7.58243771e-03,
          -3.99473216e-03, -5.30617032e-03, -1.92302308e-04,
          -7.95876258e-04, 6.91716326e-03, -6.52045198e-03,
          -7.27437623e-03, -8.61322042e-03, -5.06277336e-03,
          2.57132429e-04, 1.82930985e-03, 7.66943791e-04,
          -2.86376174e-03, 4.00101440e-03, -7.45258899e-03,
          -5.95682720e-03, -5.28214267e-03, 5.28876344e-03,
          -2.02050107e-03, -1.92614578e-04, -6.85993349e-04,
          -2.89261737e-03, 7.39852607e-04, 2.07929034e-03,
          6.04432495e-03, 9.32072662e-03, 9.87135712e-03, 2.90004773e-05,
          -4.23084805e-03, -4.19376511e-03, -6.20697718e-03,
          -3.02192708e-03, 2.55993661e-03, 7.99258612e-03,
          1.11528151e-02, -5.21196797e-03, -3.12915538e-03,
          -2.22164486e-03, -2.97636096e-03, -4.90187434e-03,
          -1.19791878e-03, -6.61501754e-03, -3.40034277e-03,
          -2.66194879e-03, -3.47246043e-03, -5.86552359e-03,
          -8.61592591e-03, -2.79283081e-03, -6.44623674e-03,
          -3.41016846e-03, -3.61728505e-03, 1.32549001e-04,
          -4.07358981e-04, 1.02263466e-02, 3.77659081e-03,
          -6.61686622e-03, -3.48988897e-03, -5.99811599e-03,
          -3.20483046e-03, 7.90840830e-04, 4.63945465e-03,
          9.78231896e-03, 9.01992340e-03, 7.46843638e-04,
          -4.34423517e-03, -4.53082193e-03, -9.25345067e-03,
          -2.03146390e-03, 7.60427734e-04, 5.61322086e-04,
          9.95785836e-03, 4.58154315e-03, 1.35459774e-03,
          -7.82668591e-03, -4.39806236e-03, -9.99359787e-03,
          -3.27668618e-03, -2.53857579e-03, 9.45044565e-04,
          4.28956328e-03, 5.32844011e-03, -8.22068949e-04,
          -3.93091422e-03, -6.65042922e-03, -1.12461373e-02,
          -3.72926798e-03, -5.58515487e-04, -7.25306221e-04,
          3.77737312e-03, 1.27568031e-02, 8.77167564e-04,
          -4.91497247e-03, -6.01429772e-03, -3.27245751e-03,
          -3.62069393e-03, -1.31976209e-03, 1.51164364e-03,
          1.06797330e-02, 1.25465188e-02, -9.36996425e-04,
          2.25043832e-03, -5.29089570e-03, -6.48508221e-03,
          -7.17648072e-03, -9.68915317e-03, -8.59442540e-03,
          8.16751085e-03, 4.96979058e-03, 1.56302282e-04,
          -5.67725278e-04, -2.86880741e-03, -4.20094561e-03,
          -2.98473286e-03, -9.51860333e-04, -3.00809671e-03,
          1.75830408e-03, -9.03737498e-04, -4.37479001e-03,
          1.99756934e-03, -3.91445588e-03, -1.03128888e-02,
          -2.29160069e-03, -6.74632704e-03, -5.41388290e-03,
          -3.25413770e-03, 5.93774160e-03, -4.96415747e-03,
          8.02927476e-04, -5.74449636e-03, -6.04382250e-03,
          -6.52298797e-04, -6.98980270e-03, -7.05755595e-03,
          5.77110378e-03, 7.79697532e-03, -2.99996068e-03,
          1.33703032e-03, 2.00025970e-03, -4.70222579e-03,
          4.24316246e-03, -4.43380838e-03, -3.33182351e-03,
          7.42853666e-03, -4.46992833e-03, -5.49203809e-03,
          1.53990835e-03, -4.43789503e-03, -6.94918912e-03,
          1.32084987e-03, -5.70895849e-03, -3.68610234e-03,
          -4.51541319e-03, -2.20468151e-03, -2.10757414e-03,
          4.57326270e-04, 5.45796100e-03, -1.22015656e-03,
          6.63551921e-03, -2.68849474e-03, -1.24067010e-03,
          -6.46285014e-04, 5.02553349e-03, 1.05977606e-03,
          -3.59512446e-03, 2.99205864e-03, -7.10252812e-03,
          -1.91217032e-03, -5.92106860e-03, -3.07547464e-03,
          6.41150121e-03, 1.19711226e-02, 3.08617564e-05,
          -1.32351008e-03, 3.57528543e-03, -4.02496755e-03,
          -2.13639997e-03, -7.88932387e-03, -6.21919055e-03,
          1.13030076e-02, 2.02562171e-03, 4.23554331e-03, 7.12606416e-04,
          3.24044819e-03, -4.04861150e-03, 2.32625729e-03,
          -3.16352677e-03, -6.13230141e-03, -4.54865210e-03,
          -2.55161151e-03, 1.64484815e-03, 4.40459093e-03,
          1.16661075e-03, -6.23209681e-03, 1.33483700e-04,
          -8.08781385e-03, -1.26641272e-02, -5.68037480e-03,
          1.61396340e-02, 7.70256389e-03, 5.58126811e-03, 9.55340918e-03,
          -5.71699906e-03, -3.40834889e-03, -5.89592848e-03,
          -3.76405776e-03, 1.20684579e-02, 8.67065415e-03,
          -3.33771878e-03, -1.99608179e-03, -9.83533682e-04,
          -2.74420390e-03, -7.31316209e-03, -1.06906807e-02,
          -6.62868610e-03, 3.80526809e-03, 4.77695325e-03,
          9.52980854e-03, 5.17274300e-03, -3.73741292e-04,
          -4.46440512e-03, -4.02833195e-03, -8.37490149e-03,
          -7.57257268e-03, 3.82880354e-03, -3.71992472e-03,
          -3.52828135e-03, -5.14029246e-03, -9.06672329e-03,
          -1.43386368e-02, -1.37295919e-02, -1.49114775e-02,
          -7.69731170e-03, -2.19637924e-03, 7.36461440e-03,
          -2.28691939e-03, -2.13550753e-03, -6.62017846e-04,
          2.02885624e-02, -7.07544293e-03, -9.71603394e-03,
          -6.72073057e-03, 8.31805915e-03, 5.19067841e-03,
          -2.96854856e-03, 2.13016174e-03, -3.61444545e-03,
          -6.84326235e-03, -1.14697060e-02, -1.04283895e-02,
          -8.00805539e-03, 2.55239126e-03, -1.19352317e-03,
          -6.26834668e-03, -8.35782965e-04, -5.25525678e-03,
          8.03830475e-03, -1.32026356e-02, -1.51458504e-02,
          -1.21028740e-02, -2.07240274e-03, -6.04143692e-03,
          -8.90578330e-03, -3.52084229e-04, -7.09872879e-03,
          -1.35788722e-02, -1.46049475e-02, -1.73497070e-02,
          -1.47912782e-02, -1.45408036e-02, -8.74093920e-03,
          -1.35075161e-02, -1.02123776e-02, -1.71269272e-02,
          -1.74282845e-02, -2.97609810e-03, 3.61474394e-03,
          -6.06933795e-03, -9.80594568e-03, 7.78425485e-03,
          -1.06463917e-02, -7.59369181e-03, -8.95809568e-03,
          1.23063643e-02, 1.11742169e-02, 7.54550705e-03, 4.98723006e-03,
          8.07483122e-03, -1.54557480e-02, -1.51314251e-02,
          -1.63853187e-02, -2.34027598e-02, -2.85490975e-02,
          -1.59703959e-02, -3.58023378e-03, -5.96425124e-03,
          -1.05464198e-02, -9.97238327e-03, -1.32548008e-02,
          -1.32788820e-02, -1.58279799e-02, -9.72306821e-03,
          -7.61512900e-03, 4.74404218e-03, -9.00854429e-05,
          -1.33671309e-03, 5.34129143e-03, -1.07975714e-02,
          -7.35982554e-03, -6.66257460e-03, -1.32686002e-02,
          -1.68609468e-03, 1.42565637e-03, -9.75005387e-04,
          1.06459316e-02, -8.64441600e-03, -7.54247280e-03,
          -2.65404209e-03, -9.58448101e-04, 2.24602800e-02,
          -3.13593610e-03, -3.65103153e-03, -4.89170197e-03,
          -5.11962827e-03, -1.11894375e-02, -1.28346914e-02,
          -1.18290568e-02, -1.24526070e-02, -2.05631219e-02,
          -6.92996196e-03, -3.26662022e-03, -2.59524095e-03,
          -2.48755654e-03, -1.12585695e-02, -1.27040045e-02,
          -7.96346180e-03, -1.66973788e-02, 5.00489678e-03,
          -1.05931824e-02, -5.43392263e-03, -4.17167461e-03,
          -2.17136461e-03, -5.09343622e-03, -5.23583079e-03,
          -9.76757030e-04, -2.50428915e-03, -9.31506604e-03,
          -4.36954200e-03, -7.03086145e-03, -4.07441100e-03,
          -3.27116833e-03, -2.69563706e-03, -3.80663830e-03,
          -3.43359308e-04, -6.07667200e-04, 4.19210037e-03,
          7.13763526e-03, 5.02479495e-03, -2.02347967e-03,
          -5.33320662e-03, -2.00264738e-03, -1.05855726e-02,
          -8.06446001e-03, -1.33438939e-02, -2.11069249e-02,
          -7.60115031e-03, -4.76393010e-03, -1.96242449e-03,
          -3.54128220e-04, -3.17380927e-03, -1.36803063e-02,
          -1.09747285e-02, -1.07072815e-02, -9.07062367e-03,
          9.76609532e-04, 3.94222653e-03, 2.26606498e-03, 2.50423164e-03,
          -1.86597544e-03, -1.88508152e-03, -2.38688244e-03,
          -4.92178043e-03, -3.51656578e-03, 4.13764035e-03,
          -3.21304426e-03, -1.71493983e-03, -1.96130294e-03,
          -7.48603558e-03, 8.95703619e-04, -1.47519901e-03,
          -3.43288342e-03, -3.99225159e-03, -1.31742924e-03,
          -6.27467316e-03, -5.68908593e-03, -5.35263680e-03,
          -3.53080058e-03, -1.06322970e-02, -8.10774136e-03,
          -9.44252778e-03, -1.43089676e-02, 8.14899540e-05,
          1.40196143e-03, 2.20499816e-03, 3.95518448e-03, 1.79336930e-03,
          -4.40904405e-03, -8.15985631e-03, -1.08457031e-02,
          -1.07316831e-02, -3.17265769e-03, 3.29849916e-03,
          5.65354852e-03, 8.76586046e-03, 4.59916098e-03, 3.46225081e-03,
          -6.73129805e-04, -1.86287134e-03, 8.08495679e-04,
          -2.88648461e-03, -2.98094982e-03, 3.27551359e-04,
          7.98957236e-03, 1.76602486e-03, -1.28848769e-03,
          -6.82265824e-03, -8.85584950e-03, -7.74791883e-03,
          -7.39119435e-03, -7.98527058e-03, -3.62289511e-03,
          9.66500607e-04, 1.27038341e-02, -3.40746855e-03,
          -9.52592213e-03, -1.12466961e-02, -8.39210581e-03,
          -6.83209021e-03, 8.60219297e-04, 5.85689163e-03,
          1.42364008e-02, 1.45968674e-02, -9.20001697e-03,
          -1.30536901e-02, -1.23833120e-02, -1.31867249e-02,
          -1.08796470e-02, -1.06306896e-02, 1.22181885e-03,
          1.06839156e-02, 1.05615314e-02, 1.39943464e-03,
          -7.66199641e-03, -9.97039583e-03, -7.69670447e-03,
          -4.92434390e-03, -7.93348998e-03, -4.96910466e-03,
          8.84256419e-03, 3.81462113e-03, 3.24105518e-03,
          -1.09495432e-03, -6.47104019e-03, -1.02620376e-02,
          -1.97788095e-03, -2.30791653e-03, 1.75326027e-03,
          2.55201641e-03, 1.11561986e-02, -7.18735298e-03,
          -1.23673016e-02, -1.15105119e-02, -1.45677160e-02,
          -1.09926723e-02, -1.16072698e-02, -4.28629853e-03,
          1.00248707e-02, 7.74322590e-03, 1.86697557e-03, 3.20907857e-04,
          -5.16258460e-03, -1.69781093e-02, -7.52150360e-03,
          -9.17544868e-03, -2.53032334e-03, 4.43172781e-03,
          3.82369314e-03, -1.19603072e-04, -9.75718649e-06,
          -7.28619460e-04, -8.13587196e-03, -3.21915862e-03,
          -3.19357030e-03, 1.25744939e-03, 2.60552508e-03,
          1.98965616e-04, -6.56904420e-03, -4.21177922e-03,
          -5.68446517e-03, -1.61828343e-02, -9.19134635e-03,
          -6.22224575e-03, -2.25189026e-03, 1.19349192e-04,
          7.22597167e-03, 1.10607455e-03, 2.32227496e-03,
          -1.21314847e-03, -1.69328842e-02, -8.05438776e-03,
          -1.04325628e-02, -1.90968241e-03, 6.31594984e-03,
          4.07253113e-03, -4.78080940e-03, -5.04017202e-03,
          -7.82830454e-03, -1.75846163e-02, -1.24367466e-02,
          -1.03850914e-02, -4.20970749e-03, 1.02932351e-02,
          -2.94763432e-03, -5.93438419e-03, -2.11904975e-04,
          -2.36948440e-03, -9.26098600e-03, -2.89936690e-03,
          -6.00214070e-03, -4.79561597e-04, -2.01704548e-04,
          4.01250739e-03, 3.60774435e-03, 3.89740919e-03, 2.36758206e-04,
          -3.32122599e-03, -4.55951638e-04, -6.02809479e-03,
          -3.83125921e-03, 2.82812142e-03, 4.17897338e-03,
          -1.11695880e-03, -3.02205939e-04, -3.10639688e-03,
          -1.17775295e-02, -6.64405758e-03, -7.62937590e-03,
          -7.21165258e-03, 3.68806254e-03, 4.82800882e-03,
          5.68280835e-03, 1.17426692e-03, -3.71331931e-03,
          -1.50740221e-02, -6.57443330e-03, -1.06739746e-02,
          -1.02950968e-02, -2.23390292e-03, 1.27857635e-02,
          1.01211425e-02, 1.14650428e-02, 8.20957241e-04,
          -4.60590376e-03, -8.67270748e-04, -3.30353272e-03,
          -4.25152620e-03, 7.01221731e-03, 4.83403681e-03,
          7.99001846e-03, 1.02831768e-02, -1.62583217e-03,
          -1.05777942e-02, -8.02558102e-03, -6.82611763e-03,
          -1.44613255e-02, 1.53036241e-03, 9.36792791e-03,
          9.78700910e-03, 4.39144997e-03, -9.28419083e-03,
          -1.93052422e-02, -1.07060494e-02, -1.12711061e-02,
          -1.06126368e-02, -3.42231803e-03, -8.05934833e-04,
          1.63327786e-03, 5.05044009e-04, -1.25185279e-02,
          -2.49016155e-02, -2.00105682e-02, -1.73885040e-02,
          -1.56597216e-02, -1.33727649e-02, 1.08783580e-02,
          1.38469841e-02, 1.43360188e-02, 3.52420914e-03, 1.40546565e-03,
          -5.14367083e-03, -4.31589549e-03, -6.96985051e-03,
          9.72224399e-03, 9.98250488e-03, 1.31540420e-03,
          -3.15459887e-03, -1.05170170e-02, -1.39105497e-02,
          -1.50524434e-02, -1.11444863e-02, -8.39909259e-03,
          9.32386518e-03, -7.07579602e-04, 3.22133373e-03,
          8.86858965e-04, -1.48472739e-02, -2.34706942e-02,
          -1.78032685e-02, -1.26499468e-02, -1.24704503e-02,
          -9.78472177e-03, -6.80887839e-03, -2.90052430e-03,
          -7.12738093e-03, -1.69729572e-02, -2.55942941e-02,
          -1.99616142e-02, -1.29504846e-02, -1.27868587e-02,
          -1.26127396e-02, 1.84900071e-02, 1.03011467e-02,
          4.44106152e-03, -3.51773272e-03, 2.01330148e-02,
          -1.41528109e-02, -1.11914352e-02, -9.17575881e-03,
          1.66509394e-02, -4.03651083e-03, -6.35421369e-03,
          1.47228740e-04, -6.95758872e-03, -9.01502930e-03,
          -1.60047244e-02, -1.66766569e-02, -1.53768826e-02,
          -9.08057764e-03, -8.71104188e-03, -5.99049358e-03,
          -1.04816034e-02, -1.56769417e-02, -9.89575963e-03,
          -1.68149080e-02, -1.35753779e-02, -1.19487466e-02,
          -1.00780874e-02, -2.53763758e-02, -1.53045058e-02,
          -9.94382426e-03, -1.98906828e-02, -2.26723664e-02,
          -1.80172641e-02, -1.63226314e-02, -1.53636234e-02,
          -2.40981262e-02 ]
   decision_functions:
      -
         sv_count: 1
         rho: -3.1636954389828337e-01
         alpha: [ 1. ]
