%YAML:1.0
opencv_ml_svm:
   format: 3
   svmType: EPS_SVR
   kernel:
      type: LINEAR
   C: 1.0000000000000000e-02
   p: 1.0000000000000001e-01
   term_criteria: { epsilon:1.0000000000000000e-03, iterations:1000 }
   var_count: 4356
   sv_total: 1
   support_vectors:
      - [ -2.03738529e-02, -6.96612662e-03, -7.38398451e-03,
          -6.54332712e-03, -1.07932566e-02, -4.72575007e-03,
          -7.13581312e-03, -8.89528356e-03, -2.12142821e-02,
          -1.88210830e-02, -8.10073409e-03, -6.43993821e-03,
          -9.05954465e-03, -1.76039692e-02, -9.98852961e-03,
          -5.66603336e-03, -8.75314139e-03, -1.94273777e-02,
          -1.08351503e-02, -5.71648870e-03, -5.91990957e-03,
          -7.18369940e-03, -1.51451128e-02, -6.35649031e-03,
          -8.92584212e-03, -9.41631477e-03, -1.18407952e-02,
          -7.51925586e-03, -6.55938080e-03, -4.51177545e-03,
          -9.91459191e-03, -1.71876010e-02, -1.12559982e-02,
          -7.24203372e-03, -8.45913123e-03, -8.95708334e-03,
          -2.05113310e-02, -9.05660912e-03, -7.13816239e-03,
          -1.28462845e-02, -1.42238140e-02, -1.08610513e-02,
          -5.52157219e-03, -8.53858888e-03, -2.08493136e-02,
          -1.85769834e-02, -8.69423896e-03, -7.00581120e-03,
          -9.05541889e-03, -6.49767136e-03, -8.46263394e-03,
          -9.43981111e-03, -1.00876028e-02, -1.81266107e-02,
          -5.69555396e-03, -7.02933129e-03, -3.50432750e-03,
          -1.19815674e-02, -1.61458757e-02, -1.31757865e-02,
          -8.29564594e-03, -7.78507069e-03, -6.95979455e-03,
          8.14130704e-04, -4.13858099e-03, -5.22632909e-04,
          -6.21817494e-03, -7.40233285e-04, -6.56638388e-03,
          -3.72509961e-03, -5.23355138e-03, 7.04905135e-04,
          -1.69595517e-02, -4.48079221e-03, -2.24190718e-03,
          -3.54895834e-03, -1.05060535e-02, -6.63675275e-03,
          -8.42028204e-03, -7.82878790e-03, -1.74961630e-02,
          -1.54123018e-02, -5.11085847e-03, -2.50608707e-03,
          -5.60110249e-03, -1.42546892e-02, -1.16788782e-02,
          -9.93525703e-03, -1.34131843e-02, -1.50116310e-02,
          6.23639394e-03, -4.14153608e-03, -2.06572842e-03,
          -4.40604100e-03, -1.21898931e-02, -6.22335123e-03,
          -3.67929065e-03, -5.36850048e-03, 4.63014422e-03,
          4.87915613e-03, 1.64309412e-03, 3.20368935e-03,
          -3.21868667e-03, -7.87102710e-03, -1.00791166e-02,
          -8.38992093e-03, -1.02030681e-02, 8.48713215e-04,
          -1.51768466e-02, -3.70987412e-03, -2.72447360e-03,
          -4.24696039e-03, -1.12112565e-02, -8.71637277e-03,
          -7.77796982e-03, -1.01432940e-02, -1.61942374e-02,
          -1.20639866e-02, -4.74459119e-03, -3.67947877e-03,
          -5.32619562e-03, -1.10508036e-02, -7.38868164e-03,
          -7.39555154e-03, -9.45292320e-03, -1.42309032e-02,
          5.02348877e-03, -1.11538998e-03, -7.95286731e-04,
          -1.98291312e-03, -1.05016865e-02, -7.94604886e-03,
          -5.86715434e-03, -8.66049528e-03, 1.28562865e-03,
          8.42996594e-03, 7.12182373e-03, -1.70969137e-03,
          -2.99909711e-03, -7.42943631e-03, -1.01835122e-02,
          -6.32233592e-03, -8.72682407e-03, 3.73218744e-03,
          -1.21648796e-02, -5.39927371e-03, -6.10399665e-03,
          -5.56332013e-03, -1.37959942e-02, -6.87996019e-03,
          -7.38388067e-03, -1.04546035e-02, -1.52336722e-02,
          -9.78305470e-03, -4.74775769e-03, -4.06416226e-03,
          -6.57532038e-03, -1.54271862e-02, -9.28349793e-03,
          -7.86149781e-03, -1.11490861e-02, -1.28553156e-02,
          1.23907300e-02, 8.18465778e-04, -5.44393621e-03,
          -6.86564902e-03, -1.52358757e-02, -1.00675011e-02,
          -7.03909621e-03, -1.00306291e-02, 2.27174233e-03,
          1.45279849e-02, -3.20521719e-03, -4.49620513e-03,
          -1.02497265e-02, -1.70653220e-02, -1.13628497e-02,
          -8.76601692e-03, -9.43903625e-03, 1.06041413e-02,
          -1.02096936e-02, -5.08977473e-03, -3.04232747e-03,
          -6.24265661e-03, -1.37163335e-02, -8.03983118e-03,
          -7.55517883e-03, -8.78358167e-03, -1.27705913e-02,
          -1.08950287e-02, -6.19516568e-03, -4.23980597e-03,
          -9.01153684e-03, -1.54088065e-02, -5.97741269e-03,
          -7.22359587e-03, -8.55254848e-03, -1.24320984e-02,
          7.97713269e-03, -5.68355620e-03, -3.12652159e-03,
          -8.03746656e-03, -1.42139941e-02, -1.11440923e-02,
          -9.01590753e-03, -8.32250528e-03, 5.64631401e-03,
          1.40598202e-02, -2.01069191e-03, -3.01584904e-03,
          -1.07895238e-02, -1.04888733e-02, -9.14332643e-03,
          -9.03199241e-03, -6.04896620e-03, 1.16772857e-02,
          -1.37801766e-02, -5.80006046e-03, -4.77399956e-03,
          -7.52110686e-03, -1.18024414e-02, -5.40966494e-03,
          -7.01812841e-03, -8.47083423e-03, -1.43213905e-02,
          -1.44950766e-02, -8.98259412e-03, -7.73728220e-03,
          -8.12197756e-03, -1.11783231e-02, -6.45079697e-03,
          -6.46073837e-03, -9.59665701e-03, -1.74364373e-02,
          9.52167157e-03, -5.89914294e-03, -5.06311562e-03,
          -9.00968071e-03, -1.11990236e-02, -7.86568597e-03,
          -7.71230413e-03, -7.84182176e-03, 4.13742568e-03,
          1.35622798e-02, -5.62884891e-03, -7.43469317e-03,
          -9.84678883e-03, -9.46573541e-03, -9.78191663e-03,
          -9.11632180e-03, -8.81043077e-03, 9.60182026e-03,
          -1.30727310e-02, -8.43585469e-03, -6.95268391e-03,
          -7.18245376e-03, -1.15113724e-02, -5.96177857e-03,
          -6.23620488e-03, -1.03900880e-02, -1.56587213e-02,
          -1.20809050e-02, -9.60187707e-03, -5.85323991e-03,
          -8.45160428e-03, -1.26878740e-02, -6.64721988e-03,
          -4.97476524e-03, -1.15376618e-02, -1.30231846e-02,
          1.16415964e-02, -7.22381007e-03, -8.47642496e-03,
          -9.63597000e-03, -1.09310383e-02, -8.39129835e-03,
          -5.75776724e-03, -5.22024371e-03, 8.04087613e-03,
          1.93346590e-02, -9.12323873e-03, -7.98581261e-03,
          -1.07158506e-02, -1.18910978e-02, -8.47640354e-03,
          -6.03535818e-03, -4.25843149e-03, 1.60834733e-02,
          -1.39855035e-02, -8.82807840e-03, -6.80512050e-03,
          -6.77491957e-03, -1.40865427e-02, -7.68029829e-03,
          -4.70559066e-03, -8.86197295e-03, -1.41505767e-02,
          -1.25639355e-02, -8.08044057e-03, -7.39829661e-03,
          -6.17536483e-03, -1.24642318e-02, -6.05775695e-03,
          -5.42215211e-03, -1.07029248e-02, -1.37547432e-02,
          1.74217653e-02, -9.17613134e-03, -8.70253053e-03,
          -7.76284747e-03, -1.31189153e-02, -7.94067699e-03,
          -3.74838966e-03, 1.24915189e-03, 1.53477127e-02,
          3.87825863e-03, -8.27492587e-03, -8.23532417e-03,
          -6.37602620e-03, -9.70851816e-03, -4.94340993e-03,
          -3.50190978e-03, -4.23645228e-03, 3.36447381e-03,
          -1.03925653e-02, -4.12280578e-03, -2.31997389e-03,
          -4.43861028e-03, -1.21443653e-02, -5.43493126e-03,
          -5.34124393e-03, -8.31763074e-03, -1.19755296e-02,
          -1.13282315e-02, -9.65016149e-03, -7.50229135e-03,
          -8.17015395e-03, -1.62562300e-02, -1.04534151e-02,
          -1.03125032e-02, -8.54816753e-03, -1.09581770e-02,
          9.68275033e-03, -2.53921398e-03, -2.89672310e-03,
          -4.80111968e-03, -8.56770296e-03, -1.70779927e-03,
          -2.62050686e-04, -1.87953503e-03, 9.15999711e-03,
          1.10088577e-02, -6.21273182e-03, -7.63974106e-03,
          -1.18492572e-02, -1.68486107e-02, -1.04483888e-02,
          -9.16710403e-03, -2.83615058e-03, 1.14566218e-02,
          -1.16231823e-02, -1.13242799e-02, -8.88638105e-03,
          -6.88368315e-03, -8.44083633e-03, -1.02281487e-02,
          -8.91793799e-03, -6.43679500e-03, -8.00036918e-03,
          -1.58944260e-02, -1.06995543e-02, -8.98472685e-03,
          -9.56741069e-03, -1.54007059e-02, -8.00693128e-03,
          -9.20494832e-03, -7.25229504e-03, -1.40365642e-02,
          1.04378182e-02, -8.67158268e-03, -9.39981453e-03,
          -1.15308315e-02, -1.08783850e-02, -1.27428779e-02,
          -6.18788786e-03, 2.79883214e-04, 1.31509835e-02,
          2.06740503e-03, -1.40253482e-02, -7.78357778e-03,
          -1.20678050e-02, -1.79072246e-02, -8.74919910e-03,
          -1.79927199e-04, 1.53429725e-03, 5.64217567e-03,
          -8.64079315e-03, -5.50170848e-03, -4.27011214e-03,
          -6.24460587e-03, -1.51032312e-02, -7.60575430e-03,
          -8.92329402e-03, -8.98333080e-03, -1.07020894e-02,
          -7.97935482e-03, -6.90963492e-03, -4.51770425e-03,
          -8.68938491e-03, -2.26730052e-02, -1.18214609e-02,
          -7.59738125e-03, -9.71709657e-03, -9.68349818e-03,
          8.03507306e-03, -6.68369420e-03, -4.21326421e-03,
          -6.00326434e-03, -1.25685511e-02, -8.87105335e-03,
          -1.01101696e-02, -1.09255230e-02, 8.14187061e-03,
          5.46041876e-03, -4.96697892e-03, -8.76301201e-04,
          -6.13205181e-03, -7.95823708e-03, -1.35213276e-02,
          -8.44253507e-03, -1.35656754e-02, 3.36628687e-03,
          -5.67513099e-03, -5.72466198e-03, -3.02094547e-03,
          -7.91680906e-03, -1.37192896e-02, -1.04312990e-02,
          -6.43891934e-03, -5.73075376e-03, -7.01853912e-03,
          -2.48127780e-03, -3.79950856e-03, -4.88022342e-04,
          -5.93181653e-03, -3.53238150e-03, -9.62085277e-03,
          -2.45518028e-03, -4.50880732e-03, -6.27584523e-03,
          -6.36673626e-03, -7.01527018e-03, -1.71842694e-03,
          -8.16086680e-03, -9.74695478e-03, -1.19814267e-02,
          -7.53925322e-03, -1.22239850e-02, -8.78076907e-03,
          3.48227890e-03, -1.27579979e-05, 3.50830611e-03,
          -8.42847209e-03, 6.60199998e-03, -1.12596322e-02,
          -3.19419662e-03, -8.33926164e-03, 3.29398038e-03,
          -2.80018034e-03, -3.67286243e-03, -2.86118081e-03,
          -5.23544336e-03, -1.30669316e-02, -7.15262722e-03,
          -2.91679427e-03, -4.86282911e-03, -7.56742153e-03,
          -5.66080865e-03, -3.52188759e-03, -4.84048360e-04,
          -3.22302594e-03, -1.20935421e-02, -8.26983899e-03,
          -7.17477733e-03, -8.83022696e-03, -9.31398664e-03,
          5.54245338e-03, -2.70299241e-03, -3.99201550e-03,
          -6.87615061e-03, -1.21101001e-02, -7.21339975e-03,
          -4.89813741e-03, -7.32418569e-03, 3.39120138e-03,
          9.07552708e-03, -2.57718517e-03, 3.86576424e-03,
          2.56293826e-03, -4.40303190e-03, -1.35965482e-03,
          -6.06115116e-03, -9.40358266e-03, 6.18535280e-03,
          -5.09256776e-03, -3.23613733e-03, -1.85390539e-03,
          -3.46991583e-03, -1.15716914e-02, -4.90623759e-03,
          -5.86571312e-03, -8.85085296e-03, -1.06605431e-02,
          -2.75462144e-03, -3.69967369e-04, -1.52863120e-03,
          -4.24025627e-03, -8.05614609e-03, -7.72380736e-03,
          -6.52051810e-03, -9.08196066e-03, -8.86216015e-03,
          1.79986423e-03, 1.15903490e-03, 3.97985708e-03, 1.97009416e-03,
          -6.89692236e-03, -8.02907452e-04, -3.79240303e-03,
          -7.51452986e-03, 3.35467630e-04, 7.12413713e-03,
          2.60844710e-03, 4.13901079e-03, -1.91387977e-03,
          -6.21598028e-03, -4.48437268e-03, -5.99389756e-03,
          -8.23410321e-03, 5.58571192e-03, 4.88730962e-04,
          2.99737323e-04, -3.55590996e-03, -5.11188665e-03,
          -1.35552930e-02, -7.28324801e-03, -5.94535423e-03,
          -5.95751964e-03, -2.73582735e-03, 1.49757683e-03,
          -6.47830311e-03, -5.43090003e-03, -9.00124572e-03,
          -1.15443645e-02, -1.02760252e-02, -7.04676146e-03,
          -4.98131569e-03, 2.19078865e-05, 1.12280231e-02,
          1.27273775e-03, -1.98712735e-03, -5.59641980e-03,
          -8.41458049e-03, -6.02301629e-03, -7.49046495e-03,
          -7.02628540e-03, 1.13622397e-02, 4.56050737e-03,
          -6.28065970e-03, -6.66863797e-03, -8.56513251e-03,
          8.62058601e-04, -1.02383010e-02, -6.98028971e-03,
          -5.69762988e-03, 5.51276235e-03, 3.96158546e-03,
          -4.25714115e-03, -4.03982494e-03, -4.62175207e-03,
          -1.07244616e-02, -9.07140318e-03, -4.62016510e-03,
          -4.28727828e-03, 3.12891905e-03, 7.60630006e-03,
          -3.24398815e-03, -6.25497056e-03, -8.06562044e-03,
          -1.12023698e-02, -9.68100410e-03, -7.30880024e-03,
          -7.73344468e-03, 3.95666948e-03, 7.77165359e-03,
          -2.42549647e-03, -4.88207396e-03, -4.25582007e-03,
          -9.41602886e-03, -7.99868815e-03, -5.23866108e-03,
          -1.50735548e-03, 7.07917009e-03, 1.56905334e-02,
          7.16585806e-03, -3.01740901e-03, -2.38349522e-03,
          -7.47497845e-03, -7.97170680e-03, -4.69149090e-03,
          -4.28308360e-03, 9.04653873e-03, 5.16252313e-03,
          -4.28668782e-03, -5.21326577e-03, -8.10658280e-03,
          -1.18697761e-02, -7.48553500e-03, -7.41241314e-03,
          -8.29505827e-03, 5.99755382e-04, 6.85710041e-03,
          -4.54516709e-03, -5.33449044e-03, -6.71729958e-03,
          -1.00431563e-02, -7.87646603e-03, -7.50084128e-03,
          -8.86881445e-03, 2.92988401e-03, 6.04052469e-03,
          2.49861693e-03, -3.93335987e-03, -6.92109624e-03,
          -1.15698967e-02, -8.97337217e-03, -7.89995398e-03,
          -1.09421164e-02, 1.42841972e-03, 9.58352350e-03,
          2.55905418e-03, 1.72076107e-04, -2.39640404e-03,
          -6.75583119e-03, -4.32656799e-03, -5.22891013e-03,
          -9.25042201e-03, 7.69652287e-03, 8.15822929e-03,
          -6.43335562e-03, -6.88768923e-03, -8.55068211e-03,
          -1.31490296e-02, -8.67423415e-03, -6.83186622e-03,
          -6.24947902e-03, 4.92156623e-03, 8.83884728e-03,
          -7.66641600e-03, -6.02912297e-03, -7.48972502e-03,
          -1.13305990e-02, -8.24452657e-03, -6.54887082e-03,
          -3.16631980e-03, 4.87150019e-03, 4.73678391e-03,
          -2.70713470e-03, -1.42243027e-03, -4.80824476e-03,
          -7.46770343e-03, -4.65761311e-03, -5.15434239e-03,
          -6.64430205e-03, 3.21070291e-03, 6.06450625e-03,
          -2.01009423e-03, -1.10895303e-03, -4.91590006e-03,
          -6.90629520e-03, -7.00428337e-03, -4.93736658e-03,
          -5.80258155e-03, 2.95692449e-03, 3.00101261e-03,
          -4.38425504e-03, -4.28067846e-03, -5.39642014e-03,
          -1.31721143e-02, -7.20040221e-03, -2.44536460e-03,
          -1.59290794e-03, 3.08735529e-03, 1.61283358e-03,
          -6.36850623e-03, -7.48979067e-03, -7.34546594e-03,
          -1.22810928e-02, -5.41556114e-03, 6.09914023e-05,
          -3.33254784e-03, 4.69534891e-04, 7.85223674e-03,
          -2.74934294e-03, -4.57145832e-03, -6.65622437e-03,
          -1.30401095e-02, -5.94300358e-03, -2.85700342e-04,
          -1.67277211e-03, 4.92827548e-03, 5.00702625e-03,
          -7.46040791e-03, -6.70469040e-03, -1.13826701e-02,
          -1.33306347e-02, -3.64309386e-03, 3.48787243e-03,
          -2.31201435e-03, 6.51142141e-03, 9.20528139e-04,
          -5.79768978e-03, -4.80232947e-03, -5.80842048e-03,
          -1.37572996e-02, -3.44135449e-03, 1.02074293e-03,
          -2.78999866e-03, 1.56808307e-03, -3.00676865e-03,
          -6.88170688e-03, -9.63698886e-03, -1.05857188e-02,
          -1.68126207e-02, -8.21492542e-03, -4.84305574e-03,
          1.02596742e-03, -2.60593719e-03, 8.75627436e-03,
          -8.11069459e-03, -4.72228089e-03, -7.24035734e-03,
          -1.03322323e-02, 9.78318043e-04, 9.36063007e-03,
          2.22766330e-03, 1.16209993e-02, 4.30947170e-03,
          -9.64097958e-03, -1.07618645e-02, -1.08637102e-02,
          -1.45399300e-02, -4.06557601e-03, 1.25135877e-03,
          2.82854098e-03, 8.02034233e-03, -3.81846679e-03,
          -9.61178541e-03, -1.02538336e-02, -1.06552076e-02,
          -1.37246922e-02, -6.70276722e-03, -3.41676432e-03,
          -9.68492299e-04, -6.38333848e-04, -8.32854118e-03,
          -1.34053808e-02, -7.35952472e-03, -7.69167393e-03,
          -1.24374414e-02, -4.06750198e-03, -6.45515218e-04,
          -4.29433101e-04, -7.59086432e-03, 1.13317277e-02,
          -9.39305965e-03, -1.29790939e-02, -8.50419793e-03,
          -1.22373924e-03, 5.33929653e-03, 4.31955094e-03,
          2.13100528e-03, 1.20330825e-02, -1.22994056e-03,
          -1.07207689e-02, -9.87670477e-03, -6.27308944e-03,
          -4.17000242e-03, -1.16414309e-03, 1.71340222e-03,
          -1.94844103e-03, 1.70365383e-03, -1.08643211e-02,
          -4.43858793e-03, -2.80153705e-03, -5.43094845e-03,
          -6.22967025e-03, -5.47651295e-03, -1.02524729e-02,
          -1.00848619e-02, -1.16129601e-02, -9.96549614e-03,
          -6.74282061e-03, -3.78884887e-03, -9.11346450e-03,
          -1.50226634e-02, -1.21080969e-02, -9.97052435e-03,
          -1.21803498e-02, -1.21699674e-02, 3.07658431e-03,
          5.63979498e-04, -1.71593623e-03, -5.87256113e-03,
          3.92222963e-03, -1.53772789e-03, -5.01890946e-03,
          -2.21837917e-03, -4.92244086e-04, 6.73403731e-03,
          -5.54620149e-03, -2.91629531e-03, -9.07489099e-03,
          3.05922097e-03, -9.37424414e-03, -7.62497727e-03,
          -5.19512640e-03, 4.76069050e-03, -1.09008169e-02,
          -6.87663816e-03, -3.01249442e-03, -7.73454271e-03,
          -7.70659558e-03, -9.99556668e-03, -5.81560563e-03,
          -9.56368074e-03, -1.22775706e-02, -9.89791099e-03,
          -5.07849967e-03, -7.49617175e-04, -3.86511651e-03,
          2.79193348e-03, -1.11623863e-02, -5.22772269e-03,
          -8.96234438e-03, -1.09097231e-02, 9.57888365e-03,
          -6.40057540e-03, -3.57184978e-03, -6.81473687e-03,
          9.54513729e-04, -9.28375777e-03, -4.53914283e-03,
          -5.51169133e-03, 8.83026049e-03, 2.66982336e-03,
          -7.00621121e-03, -2.80871242e-03, -8.20881338e-04,
          1.34751955e-02, -6.54328987e-03, -5.40671963e-03,
          -7.13739311e-03, 5.79964078e-04, -4.29599266e-03,
          -3.97538021e-03, -2.55772937e-03, -4.61834343e-03,
          -9.86613706e-03, -7.27564702e-03, -6.36649644e-03,
          -7.00186566e-03, -5.94974356e-03, -3.97641957e-03,
          -6.25605043e-03, -1.70073856e-03, 4.22738231e-04,
          -6.61786413e-03, -6.39003527e-04, -7.33118085e-03,
          -8.74412805e-03, -6.04728563e-03, 4.76953620e-03,
          -3.70369875e-03, -2.63892394e-03, -2.29549338e-03,
          -6.52618613e-03, -7.70825474e-03, -6.06387714e-03,
          -5.50268870e-03, 1.24986540e-03, 1.34371324e-02,
          -6.19948434e-04, 3.88395716e-03, 5.84432436e-03,
          8.01131129e-03, -1.35122775e-03, -6.76351739e-03,
          -4.75064805e-03, 1.17117446e-02, -1.00490404e-02,
          -4.47088107e-03, -8.42702284e-04, 7.78086775e-04,
          -3.41125252e-03, 6.12900709e-04, -5.34558063e-03,
          -7.52251362e-03, -1.01078758e-02, -7.16942223e-03,
          -3.27447196e-03, 1.21815677e-03, -6.93450915e-04,
          -6.30977040e-04, -2.22048396e-03, -6.00894354e-03,
          -7.67555460e-03, -7.39945192e-03, 5.05566224e-03,
          -1.56917924e-03, 3.82388686e-03, 6.40219403e-03,
          4.43638710e-04, -7.10189226e-04, -6.21967576e-03,
          -6.29444281e-03, 2.76615261e-03, 5.66795934e-03,
          1.52119668e-03, 2.86481064e-03, 5.04202954e-03, 2.26481212e-03,
          -2.16047665e-05, -4.02636128e-03, -3.53903719e-03,
          -7.55578279e-04, -4.79864236e-03, -1.55985239e-03,
          5.84493042e-04, -2.21079052e-03, -4.37206496e-03,
          -2.97048525e-03, -7.75062805e-03, -6.41330518e-03,
          -1.58678484e-03, -6.14066701e-03, -3.67723359e-03,
          -3.72202881e-03, -5.33414166e-03, -3.78227816e-03,
          -6.55554375e-03, -5.45442570e-03, -5.91462478e-03,
          -2.97130551e-03, 6.59990497e-03, -1.65181840e-03,
          -1.68532040e-03, -1.11689710e-03, -3.26157431e-03,
          -1.67480721e-05, -6.47008792e-03, -1.91018858e-03,
          2.14822427e-03, 9.25071537e-03, -3.54302046e-03,
          -4.80124401e-03, -6.05171081e-03, -2.59613385e-03,
          -6.98111532e-03, -5.08629531e-03, -6.08035643e-03,
          5.64613147e-03, -4.85591590e-03, 1.69056453e-04,
          -2.58445297e-03, -3.06823547e-03, -8.06569681e-03,
          -3.97814484e-03, -1.95783866e-03, -2.21530529e-04,
          -2.75749201e-03, -1.39059243e-03, 3.35141714e-03,
          -2.11287013e-04, -1.58070726e-03, -9.00636334e-03,
          -7.96943996e-03, -7.09850201e-03, -3.83215025e-03,
          -4.33565443e-03, 4.24011331e-03, -1.38116092e-03,
          -1.24316581e-03, -4.40401630e-03, -7.02872453e-03,
          -4.62811580e-03, -8.86809139e-04, -5.76857536e-04,
          1.91526685e-03, 1.01263272e-02, 2.05279561e-03, 5.93047077e-03,
          -2.81280093e-03, -2.45352695e-03, -5.02915774e-03,
          -1.00741105e-03, 3.33107566e-03, 5.01286844e-03,
          -1.68734207e-03, 3.01801576e-03, -2.31545046e-03,
          -4.70333174e-03, -7.43713416e-03, -6.20593224e-03,
          -6.72126375e-03, -5.22945449e-03, -4.99412999e-04,
          -4.66296775e-03, 8.46519426e-04, -9.92048881e-04,
          -2.30434886e-03, -4.53636982e-03, -1.10376847e-03,
          -3.48494551e-03, -4.65674372e-03, -1.54195121e-03,
          7.33089540e-03, 1.20619964e-03, 9.95178358e-04,
          -4.45099827e-03, -4.68648784e-03, -3.78758786e-03,
          -1.69591384e-03, 1.20052299e-03, 5.75103052e-03,
          7.82907568e-03, 7.30269705e-04, -9.82966973e-04,
          -1.24636618e-03, -1.36574626e-03, -8.23892595e-04,
          -1.81215385e-03, -9.47461172e-04, 4.67871642e-03,
          -3.53368418e-03, -2.01975601e-03, -1.63729652e-03,
          -2.19997508e-03, -5.11243986e-03, -1.58270611e-03,
          -4.49324306e-03, -5.27851889e-03, -3.53969191e-03,
          -3.40346480e-03, -4.93165478e-03, -6.12957682e-03,
          -4.03542817e-03, -6.21274626e-03, -3.47580528e-03,
          -5.35436068e-03, -7.79330824e-03, -4.42863628e-03,
          1.03117526e-02, -2.24055233e-03, -4.46315901e-03,
          -2.23930320e-03, 2.17962690e-04, -1.25013839e-03,
          -2.90986756e-03, -3.48763569e-06, 7.92020652e-03,
          7.99395796e-03, -6.18140632e-03, -7.57698203e-03,
          -5.38621191e-03, -5.91627602e-03, -3.71876545e-03,
          -3.46761197e-03, -3.02094442e-04, 6.78829011e-03,
          1.89367012e-04, -2.31049582e-03, -5.18185552e-03,
          -5.32460259e-03, -8.73220433e-03, -3.67044960e-03,
          -3.07929586e-03, -4.03415086e-03, -3.91196134e-03,
          1.78426690e-03, -1.59752695e-03, -3.04483995e-03,
          -5.04507218e-03, -5.30485669e-03, -1.41877064e-03,
          3.63128935e-03, -1.05948804e-03, -1.78659553e-04,
          1.15534337e-02, -2.64780805e-03, -6.45248126e-03,
          -5.15479781e-03, -1.01840124e-02, -4.66813287e-03,
          -4.68938006e-03, -1.36169430e-03, 7.05920951e-03,
          1.02016088e-02, 4.78820037e-03, 4.48323553e-04,
          -4.67994995e-03, -9.65219736e-03, -3.82085354e-03,
          -4.06217761e-03, -5.53886592e-03, 6.27118489e-03,
          -1.74630445e-03, -5.32343192e-03, -2.18507671e-03,
          -5.17480541e-03, -5.72533114e-03, -1.11689733e-04,
          3.74794798e-03, 1.05865346e-03, -1.99242355e-03,
          -2.74600904e-03, -7.20887771e-03, -5.96579397e-03,
          -7.21077248e-03, -1.08903581e-02, -8.75909056e-04,
          3.66354012e-03, 3.80877696e-04, -2.78160907e-03,
          1.03549026e-02, -8.20777350e-05, -1.82057056e-03,
          -5.70469070e-03, -8.92239902e-03, -9.47216409e-04,
          1.61673105e-03, 2.09472748e-03, 9.07806400e-03, 3.24533391e-03,
          -6.79799914e-03, -6.17057923e-03, -5.99304866e-03,
          -7.74748297e-03, 3.41006089e-04, 4.86965384e-03,
          4.27469192e-03, 7.73842633e-03, -3.95485666e-03,
          -8.13694950e-03, -9.53410845e-03, -7.16500217e-03,
          -9.55013651e-03, -6.34467520e-04, -1.54489433e-04,
          -2.10119807e-03, -1.76647701e-03, -1.01357773e-02,
          -9.53356083e-03, -7.43157789e-03, -5.97277051e-03,
          -7.61989458e-03, -6.22794672e-04, 8.75463593e-04,
          -3.85846477e-04, -6.11196924e-03, 6.40630722e-04,
          -5.00960695e-03, -3.73673276e-03, -2.12011463e-03,
          -1.39018835e-03, 2.64910865e-03, 8.55164416e-03,
          1.18552130e-02, 9.50893015e-03, -7.09065143e-03,
          -6.72408659e-03, -4.16222960e-03, -3.86177399e-03,
          -4.23980877e-03, 9.00078041e-04, 3.89753515e-03,
          6.00296352e-03, -2.26995791e-03, -9.61222406e-03,
          -3.91241303e-03, -3.18707875e-03, -3.88540770e-03,
          -3.87710449e-03, -2.45408155e-03, -3.74543597e-03,
          -3.21789156e-03, -9.17269755e-03, -7.44853774e-03,
          -6.23611035e-03, -4.85836342e-03, -9.97115858e-03,
          -8.45331978e-03, -6.69191964e-03, -5.54185547e-03,
          -4.63534612e-03, -7.17582693e-03, 8.38527363e-03,
          3.37491347e-03, 3.77226993e-03, -1.14367867e-03,
          8.39947432e-04, -2.22735293e-03, -2.80939217e-04,
          -1.29640289e-03, 6.56350562e-03, 4.22500353e-03,
          -1.83511199e-03, -1.48061011e-03, -7.21432408e-03,
          -1.49247062e-03, -6.97558327e-03, -2.19546794e-03,
          -6.62684627e-03, 2.38303607e-03, -4.45731543e-03,
          -5.13771549e-03, -5.15413517e-03, -8.70960299e-03,
          -6.98486716e-03, -6.32407051e-03, -3.33309546e-03,
          -3.45321116e-03, -5.00640459e-03, -6.34400174e-03,
          -5.59224188e-03, -5.24026388e-03, -1.55517121e-03,
          -1.06113148e-03, -5.22159832e-03, -6.00128528e-03,
          -6.43428927e-03, -8.31221882e-03, 9.16562323e-03,
          -2.27543921e-03, -1.17996393e-03, -6.05688710e-03,
          -5.16762026e-03, -7.85240531e-03, -4.54966910e-03,
          -4.26100101e-03, 8.67175404e-03, 1.05349952e-02,
          -3.07610584e-03, -2.13899720e-03, -9.49736626e-04,
          -4.07802500e-03, -2.80787423e-03, -5.41490037e-03,
          -3.15779867e-03, 8.07277672e-03, -2.21803342e-03,
          -3.18105239e-03, -1.90756388e-03, 1.56878098e-03,
          -4.39236080e-03, -3.22149997e-03, -4.37208125e-03,
          -3.64533043e-03, -3.55365057e-03, -5.37963258e-03,
          -7.03859085e-04, 2.36400287e-03, 5.14765130e-03,
          -1.12532836e-03, -6.09785318e-03, -7.83560518e-03,
          -9.73786786e-03, -7.27997255e-03, 5.14624501e-03,
          -5.17691532e-03, -2.39123055e-03, 2.11289036e-03,
          8.04189534e-04, 1.87375851e-03, -3.42376938e-04,
          -2.27753073e-03, 3.20375012e-03, 6.99399645e-03,
          -1.15883257e-03, 1.64081299e-04, 7.19254324e-03,
          3.06419935e-03, 5.97443152e-03, -1.10600071e-04,
          -2.31651915e-03, 6.23047259e-03, 1.83184777e-04,
          7.37141992e-04, 5.90766035e-03, 8.29622149e-03, 6.67546818e-04,
          7.71891035e-04, -5.00675337e-03, -4.09365399e-03,
          -3.91144445e-03, -2.12143268e-03, -5.06626020e-06,
          4.47435165e-03, 6.52795564e-03, 8.16449698e-04,
          -1.58477726e-03, -3.74399265e-03, -2.72829202e-03,
          -3.07780644e-03, 1.14367041e-03, 3.47774359e-03,
          5.82364341e-03, 6.97306776e-03, 3.27627081e-03, 6.58835471e-03,
          4.12844773e-03, -3.71330854e-04, 2.69594346e-03,
          -1.05154398e-03, 1.79823313e-03, 3.68628674e-03,
          4.12938045e-03, 3.33482423e-03, 2.13586842e-03,
          -1.20076980e-03, -1.36497780e-03, -3.41568282e-03,
          6.63416809e-04, 9.86306346e-04, -6.52245013e-04,
          -1.21181256e-04, -2.84545677e-04, -1.59375358e-03,
          -3.85176507e-03, -1.00988557e-03, -1.56508424e-04,
          1.03230945e-04, -1.60114141e-03, -2.47668964e-03,
          -3.75077291e-03, -4.52564284e-03, -4.86905267e-03,
          6.98078540e-04, -2.10536015e-03, 1.11692923e-03,
          -6.85128907e-04, 1.94104901e-03, 7.99405796e-04,
          4.14361944e-03, -1.65517093e-03, 2.01286195e-04,
          2.04401658e-04, 9.41021892e-04, -1.56294554e-03,
          -2.47588125e-03, -1.42891321e-03, -2.30062613e-03,
          -1.98656388e-04, -5.01758978e-03, -2.94110365e-03,
          1.11652433e-03, -3.06431553e-03, -1.17998593e-03,
          1.54385576e-03, 3.23829823e-04, 4.35215567e-04,
          -4.68101091e-04, -4.54824045e-03, -2.76333024e-03,
          1.86181813e-03, 3.72185925e-04, 2.88138003e-03, 2.74440600e-03,
          1.91765453e-03, 3.14492639e-03, -1.70016277e-03,
          -1.93351228e-03, -1.24107732e-03, 1.99898751e-03,
          4.04072367e-03, 2.51932885e-03, -3.69162136e-03,
          3.60092544e-03, 1.48396380e-03, 2.79973401e-03,
          -2.49638734e-03, -2.54726177e-03, 1.84441882e-03,
          -2.21695309e-03, -3.87892872e-03, -5.72455581e-03,
          4.51532146e-03, 1.36378536e-03, 8.91541364e-04,
          -3.67782661e-03, -4.85315948e-04, -3.85111576e-04,
          -2.60879123e-03, -6.40166085e-03, 1.61276455e-03,
          1.99571857e-03, 1.72131648e-03, -2.81069707e-03,
          -9.35256714e-04, 1.69699953e-03, 2.14966596e-03,
          3.99384834e-03, 4.90145199e-03, 3.71453189e-03, 3.04115773e-03,
          1.08135585e-03, -1.61380056e-04, -6.31047937e-04,
          6.87497610e-04, 1.11999013e-03, 3.59964720e-03, 4.62462334e-03,
          -9.02801193e-03, 1.96043472e-03, 5.47926466e-04,
          4.02412523e-04, -2.75496813e-03, 2.76078144e-03,
          8.38178094e-04, 1.97462691e-03, -7.10251322e-03,
          -7.50087062e-03, 1.47327618e-03, 8.80016421e-04,
          -3.69251647e-04, -8.34798964e-04, 2.01221788e-03,
          8.23871000e-04, 4.06727800e-03, -6.14457484e-03,
          4.36443789e-03, -1.72857894e-03, -2.68129306e-03,
          -7.88714213e-04, 4.23019112e-04, -2.53554038e-03,
          -1.03214849e-03, 3.11513315e-03, 6.12557027e-03,
          5.54680405e-03, -4.78653517e-03, -3.43984598e-03,
          -1.37074979e-03, -4.57833102e-03, -9.43823485e-04,
          3.07977432e-04, 3.26477131e-03, 7.08170375e-03,
          -4.60531795e-03, -1.67055900e-04, -4.36802191e-04,
          -1.33137859e-03, -8.01870367e-04, -1.34187401e-03,
          1.54133700e-03, 3.49883013e-03, -6.31022640e-03,
          -3.68577242e-03, -4.09790361e-03, -1.75378833e-03,
          -9.17812111e-04, -4.12601139e-03, 1.38437946e-03,
          3.18960985e-03, 2.90111988e-03, -3.45573365e-03,
          4.40192223e-03, 6.06970047e-04, -2.06824334e-04,
          -1.57010078e-03, -6.77293492e-03, 1.11554703e-03,
          -2.23742216e-03, 4.63543314e-04, 5.89861860e-03,
          3.51335690e-03, 5.21756522e-03, 4.36783908e-03,
          -1.15308049e-03, -7.10811140e-03, 3.20271036e-04,
          -2.30177888e-03, -2.50801072e-03, 5.16506424e-03,
          -5.16090076e-04, 4.27117338e-04, 2.61848094e-04,
          -1.08290371e-03, -9.12396295e-04, 1.88894116e-03,
          -1.04257495e-04, -1.45158323e-04, -3.04082700e-04,
          -2.63614766e-03, -1.36396673e-03, -1.79339049e-03,
          -3.00518307e-03, -4.76294989e-03, 3.29846283e-03,
          -4.70610277e-04, -1.70749042e-03, -3.50515498e-03,
          2.90665007e-03, 7.20658645e-05, -3.52581730e-03,
          -5.09504322e-03, -8.60277470e-03, 1.44017831e-04,
          3.13129998e-03, 2.65401253e-03, 4.91597690e-03,
          -2.89828912e-03, -3.29307071e-03, -5.25200972e-03,
          -5.73160173e-03, -8.36412772e-04, 1.96344010e-03,
          9.43970308e-03, 5.49177499e-03, 4.78036609e-03, 3.56367200e-05,
          -2.03946675e-03, -5.76251885e-03, -5.84397791e-03,
          -7.83904083e-03, 1.37531129e-03, 1.34738628e-03,
          3.89813539e-03, 1.02423284e-04, 4.61284246e-04,
          -3.83274816e-03, -6.47627003e-03, -7.79959094e-03,
          3.06075695e-03, 4.58886940e-03, 5.76471537e-03, 5.36681479e-03,
          2.61817081e-03, -5.92903513e-03, -3.92918242e-03,
          -2.31331401e-03, -2.86150188e-03, -2.56238901e-03,
          2.76258425e-03, 4.40681539e-03, 4.71185707e-03,
          -1.61935959e-03, -9.45817120e-03, -5.01788175e-03,
          -3.16459010e-03, -5.54621161e-04, -3.91875146e-05,
          3.90814431e-03, 1.32953655e-03, 1.93930918e-03,
          -5.44098159e-03, -4.34204796e-03, -4.74982522e-03,
          -5.24348300e-03, -4.42562392e-03, 4.43497160e-03,
          9.11299139e-03, 4.44533117e-03, 2.46608281e-03,
          -2.02318374e-03, -8.50479119e-03, -5.59967058e-03,
          -3.85229383e-03, -2.01703282e-03, 1.95960794e-03,
          3.29945632e-03, -4.21721442e-03, -5.24681062e-03,
          -6.43053465e-03, -5.28174499e-03, 3.80034908e-03,
          3.95365199e-03, -2.08156329e-04, 8.23177584e-03,
          4.72926162e-03, -1.33651157e-03, -5.84190385e-03,
          -8.54258891e-03, -2.59682676e-03, -1.60435704e-03,
          -1.26832305e-03, -5.24774520e-03, -8.81077722e-04,
          -3.99256963e-03, -3.50421155e-03, -7.88425468e-03,
          -5.50157158e-03, 9.34161653e-04, 7.99603818e-04,
          1.84117199e-03, 2.54424033e-03, 8.96490552e-03, 1.01970332e-02,
          2.63420027e-03, -2.63629761e-03, -4.71995241e-04,
          7.06624379e-03, -1.09853712e-03, 8.19220324e-04,
          1.34225539e-03, -4.16158512e-03, 6.74405659e-04,
          -3.31966649e-03, -4.18385444e-03, 8.37817695e-03,
          -7.69186707e-04, -5.12198359e-03, -2.82687624e-03,
          -3.84336687e-03, -4.06088820e-03, -5.05433464e-03,
          -5.14805596e-03, -5.38993115e-03, 7.28053332e-04,
          7.05872430e-04, -4.60975198e-03, -3.44367768e-03,
          -6.11843780e-06, -1.20027522e-02, -2.48472835e-03,
          -3.82783171e-03, -5.62458578e-03, -1.65564835e-03,
          2.61132489e-03, -4.52456344e-03, -1.22931832e-03,
          -4.27899358e-04, -7.86599703e-03, -3.28957918e-03,
          -5.95257431e-03, -3.30499280e-03, 4.75897221e-03,
          7.06921658e-03, -2.75760866e-03, 1.65235845e-03,
          8.55888147e-03, 4.81138285e-03, 2.19490868e-03,
          -3.06880591e-03, -2.04404793e-03, 7.31827831e-03,
          4.99828777e-04, -4.82623093e-03, -3.42321326e-03,
          -1.54357532e-03, -1.72916730e-03, 1.36960286e-03,
          -1.25561503e-03, -4.96615563e-03, -9.05110210e-04,
          -3.32975033e-04, 1.18155417e-03, -1.01533229e-03,
          -2.82553234e-03, -9.28651076e-03, 1.91911228e-03,
          5.32520411e-04, -4.28410619e-03, -2.85050063e-03,
          -8.25772062e-04, 5.90048265e-04, 4.91194194e-03,
          5.27514704e-03, -1.79586510e-04, 1.87370169e-03,
          -1.52168341e-03, -4.98909829e-03, 1.65604404e-04,
          4.02361387e-03, 7.99592305e-03, 1.14000589e-02, 5.53087657e-03,
          -2.33054371e-03, 3.84372543e-04, 9.05726105e-04,
          -2.72815675e-03, -1.81124895e-03, 2.44085633e-04,
          5.29541215e-03, 4.95631807e-03, 4.86571202e-03, 7.06143735e-04,
          5.68236783e-03, 5.49897086e-03, 1.49451708e-03, 8.25664785e-04,
          -2.90607964e-03, -7.91889674e-04, 2.48464942e-03,
          1.28616032e-03, -6.79416442e-03, 6.19449886e-04,
          1.28285249e-03, -3.85510386e-03, -6.03185361e-03,
          4.04136395e-03, 6.19864836e-03, 1.16763832e-02, 9.31327511e-03,
          2.96957674e-03, 4.24814317e-03, 2.66360235e-03,
          -8.15947948e-04, -1.23128772e-03, 4.22633195e-04,
          -3.89946857e-04, 4.76566842e-03, 4.54874476e-03,
          -2.14025402e-03, 4.50527621e-03, 2.88671185e-03,
          -1.43672747e-03, -1.08088797e-03, -2.23597884e-03,
          -5.66270726e-04, 1.60377496e-03, 3.13409721e-03,
          -4.54100082e-03, 3.58009269e-03, 4.19038069e-03,
          1.71832333e-03, -2.54106731e-03, -6.32845238e-03,
          -2.74017360e-03, -1.28095213e-03, 3.07852635e-04,
          -1.26543804e-03, -1.85392529e-03, 1.24127220e-03,
          -2.21629060e-04, -5.05127804e-03, 4.32280079e-03,
          9.89746768e-04, 3.69229773e-03, 6.58041332e-03, 1.66120881e-03,
          8.32096301e-03, 6.41276641e-03, 3.57623724e-03, 3.25328275e-03,
          1.57470780e-03, 1.53492636e-03, 2.86706560e-03, 2.35855361e-04,
          2.16204580e-03, 1.85323984e-03, 1.06053543e-03, 1.93632569e-03,
          -1.50850997e-03, -7.28513906e-03, 1.17885589e-03,
          3.08698369e-03, 4.15076409e-03, 3.80896544e-03,
          -1.05995656e-04, 2.19793292e-03, 2.27024895e-03,
          -4.21448098e-03, -5.81298163e-03, 2.30751163e-03,
          2.57799402e-03, 2.67858594e-03, 1.01393252e-03,
          -1.12799062e-04, 7.15093396e-04, 3.40937055e-04,
          -7.37558398e-03, -1.07468572e-03, 1.16190131e-04,
          3.00318957e-03, 2.66739866e-03, 6.19611004e-03, 4.04095510e-03,
          4.24758205e-03, 6.59543648e-03, -5.73927828e-04,
          -6.33697724e-03, 4.73906839e-04, 1.85182760e-03,
          3.00773093e-03, 6.06880663e-03, 2.87563866e-03, 1.34079100e-03,
          1.08008622e-03, -4.58476739e-03, -9.12102591e-03,
          -8.59826512e-04, 1.79479306e-04, 3.84834525e-03,
          4.97782044e-03, 5.64871868e-03, 9.48034925e-04, 1.49437110e-03,
          -1.12491241e-02, -7.61456089e-03, 7.40611285e-04,
          1.24994316e-03, 4.92159044e-03, 5.59717463e-03, 3.87937692e-03,
          2.31339270e-03, 3.36118811e-03, -6.17592828e-03,
          -5.07490616e-03, 1.71844978e-04, 1.67281658e-03,
          7.80117651e-03, 1.03736995e-02, 6.55545294e-03, 1.69101451e-03,
          -1.41859392e-03, -7.37234903e-03, -5.26935467e-03,
          8.92559590e-04, 5.21675684e-04, 7.21378066e-03, 9.04337969e-03,
          4.07963898e-03, 1.96495093e-03, 1.81389833e-03,
          -6.07825210e-03, -6.05314551e-03, 1.85736295e-04,
          -3.52788717e-04, 3.21789365e-03, 3.58811952e-03,
          -1.48349147e-06, 2.39049993e-03, 1.77272386e-03,
          -5.93239907e-03, -2.64693401e-03, -7.86816876e-04,
          -6.64240331e-04, 1.52793410e-03, 2.70846952e-03,
          5.54244546e-03, 3.42353480e-03, 2.07215594e-03,
          -3.52648972e-03, 6.37861493e-04, -1.68503192e-03,
          -1.63288321e-03, 6.49189344e-03, 6.46765251e-03,
          1.08415331e-03, 4.37437790e-04, 1.74516242e-03,
          -2.73301755e-03, 1.17214280e-03, -1.87819812e-03,
          7.94215535e-04, 5.55198453e-03, 7.40322657e-03, 2.76388694e-03,
          8.94584518e-04, -2.54605105e-03, -5.86074358e-03,
          -8.04931624e-04, 6.45297579e-04, 3.17542756e-04,
          7.32077402e-04, 2.53457902e-03, 2.99463375e-03,
          -1.28309114e-03, -3.09066288e-03, -4.22394741e-03,
          -1.46065708e-04, 2.05451320e-03, -1.34559080e-03,
          -5.37235246e-05, 1.10652403e-03, 2.77798646e-03,
          -3.19423998e-04, -4.12281556e-03, -3.63580161e-03,
          -1.95848802e-03, -1.07648014e-03, -3.23759246e-04,
          8.41139467e-04, 4.98901540e-03, 4.01190529e-03, 4.10596898e-04,
          -3.25799920e-03, -7.13008270e-03, -5.35589526e-04,
          -1.35449099e-03, -2.38122954e-03, -7.87664612e-04,
          4.88565816e-03, -7.43678247e-04, -6.65337313e-03,
          -6.22941507e-03, -4.89200698e-03, 3.11628869e-03,
          1.71758910e-03, -2.78626685e-03, -1.96036440e-03,
          -5.67783555e-03, -6.68664114e-04, -6.53441530e-04,
          -1.75049994e-03, 3.71067406e-04, 3.77920386e-03,
          9.43281106e-04, -2.29454902e-03, -2.49411765e-04,
          3.10466439e-03, 6.29790593e-03, 4.89183888e-03, 3.14252521e-03,
          4.90020774e-03, 1.81424932e-03, -1.72980755e-04,
          -1.17317797e-03, -2.17344076e-03, -5.14724618e-03,
          -4.04676888e-03, -5.64108603e-03, -7.63328420e-03,
          -3.66149266e-04, 7.07056082e-04, 1.69175689e-03,
          -6.13437151e-04, 8.73579629e-05, 3.33052524e-03,
          4.04096860e-03, 5.49385382e-04, -3.47748725e-03,
          -6.54714822e-04, -1.31345144e-03, -1.38684316e-03,
          -4.75780899e-03, -3.00221075e-03, 5.95314475e-03,
          1.00018261e-02, 4.77245403e-03, 4.08459746e-04,
          -1.14699220e-03, -6.36586733e-03, -3.37216258e-03,
          -3.48541350e-03, -2.28972454e-03, 5.08764293e-03,
          2.81103188e-03, -2.36647530e-03, -3.13108135e-03,
          -5.74943842e-03, -5.99044887e-03, 1.72256748e-03,
          -1.03091996e-03, -5.09506150e-04, 2.41967640e-03,
          6.08820654e-03, 6.03703433e-04, -4.41785296e-03,
          -7.46636000e-03, -9.10184626e-03, -3.74589697e-03,
          3.12190066e-04, -5.83795016e-04, 5.10468427e-03,
          8.99297092e-03, 1.83453935e-03, -3.90714686e-03,
          -9.10414755e-03, -1.17749616e-03, -9.90639674e-04,
          8.63927125e-04, 1.78508856e-03, 7.62829185e-03, 8.09033867e-03,
          2.67667626e-03, -4.82642936e-04, -5.15292166e-03,
          2.81872717e-03, -1.48807489e-03, -2.34842781e-04,
          -1.72859509e-04, -4.78295237e-03, 1.44717260e-03,
          -1.06871640e-03, -8.12659913e-04, -6.62085018e-04,
          3.83228995e-03, 3.28928378e-04, 1.48304261e-03, 1.11747603e-03,
          5.15909260e-03, 2.43031979e-03, 8.77218379e-04, 1.85492355e-03,
          4.20409560e-05, 4.11568442e-03, -2.93698022e-03,
          -2.46352353e-03, -5.08887973e-03, -4.23249090e-03,
          -1.22392515e-03, -3.87931219e-03, -1.92519114e-03,
          3.78465001e-03, 1.97755653e-04, -4.79347678e-03,
          -1.67610857e-03, -2.18196725e-03, -7.29337847e-03,
          -3.84838716e-03, -4.39718505e-03, -2.10290053e-03,
          -2.47104047e-03, 3.80242732e-03, -3.32026673e-03,
          -8.52918092e-05, 7.25586247e-03, 4.74634953e-03,
          2.24905135e-03, -4.19159885e-03, -2.82506971e-03,
          -5.40818701e-06, 6.17190450e-03, -6.10083668e-03,
          -3.70967947e-03, -5.27993357e-03, -6.78194175e-03,
          -1.47451181e-03, -4.27566282e-03, -6.04463834e-03,
          5.49861509e-03, 8.35215859e-03, -2.71167583e-03,
          -2.51904107e-03, 2.16999673e-03, 2.86691170e-03,
          2.75163213e-03, -4.10354696e-03, -6.21009385e-03,
          5.98428492e-03, 2.02429108e-03, -1.01391936e-03,
          3.71245015e-03, 5.82842808e-03, 2.98122060e-03, 2.41644727e-03,
          -2.16736156e-03, -3.93257570e-03, -6.05367182e-04,
          4.61289950e-04, 4.66847466e-03, 9.57183447e-03, 4.00573900e-03,
          -7.18232803e-03, -2.12090369e-03, -3.65060009e-03,
          -3.78861860e-03, -7.52018997e-03, 8.11836403e-03,
          -2.86610331e-03, -1.93390960e-03, 1.86010322e-03,
          9.34731506e-04, 4.38923575e-03, -1.59547944e-03,
          -3.30590433e-03, 5.62137133e-03, 6.79093832e-03,
          1.45705480e-05, 2.96886009e-03, 2.09275124e-04,
          -2.71367794e-03, 1.77846744e-03, -1.99630600e-03,
          -2.38921237e-03, 4.96451138e-03, -2.55656108e-04,
          6.40619546e-03, 1.23832868e-02, 1.02675240e-02, 5.21509396e-03,
          3.13141616e-03, 8.30685080e-04, -1.55929895e-03,
          -5.05973818e-03, -5.17659541e-03, -4.10316919e-04,
          3.18354997e-03, 6.38924073e-03, -1.05836161e-03,
          4.02381783e-03, 1.01196778e-03, -4.01217910e-03,
          -7.77582591e-03, 4.13163798e-03, 9.49573703e-04,
          5.19962702e-03, 7.97359366e-03, 5.90051012e-03, 7.67009659e-03,
          1.04619376e-03, 1.61587622e-03, 2.38756626e-03,
          -6.21174870e-04, -2.42088293e-03, -4.25941660e-04,
          5.85541036e-03, 7.59351475e-04, 4.18696413e-03,
          -3.18361470e-03, -4.85522993e-04, -2.24564457e-03,
          -1.38229749e-03, -1.13611379e-04, 2.48157675e-03,
          4.03448287e-03, 4.15988034e-03, 8.30135029e-03, 2.77773896e-03,
          4.83208933e-05, -7.95539177e-04, -8.94125144e-04,
          1.13776117e-03, 1.92425563e-03, -2.62010586e-03,
          2.48579658e-03, 4.19889856e-03, 5.98121784e-04, 6.63482759e-04,
          -1.84679602e-03, -5.60148444e-04, 1.96134089e-04,
          3.05743446e-03, 4.64329123e-03, 1.04583136e-03, 6.31119916e-03,
          -1.09241321e-03, -1.66913739e-03, -2.44280160e-03,
          -1.86690025e-03, -1.72926520e-03, 1.40405714e-03,
          -2.06288160e-03, 9.21567495e-04, 1.58934307e-03,
          -1.34773285e-03, -7.63261633e-04, -3.93611845e-03,
          -3.15352180e-03, 2.10380997e-03, 4.20057960e-03,
          3.45116644e-03, 3.96767398e-03, 5.18665509e-03, 3.76365078e-03,
          4.37332410e-03, -1.97049533e-03, -6.79479027e-03,
          -1.29720906e-03, 1.53520762e-03, 3.81129468e-03,
          6.68208441e-03, 3.72419506e-03, 1.00137852e-03,
          -1.55242498e-03, -6.56444533e-03, -5.25291963e-03,
          2.02130247e-03, 5.26834186e-03, 4.48834524e-03, 3.45922494e-03,
          3.64311342e-03, 3.28537601e-04, 2.00174074e-03,
          -2.72627873e-03, -9.32747219e-03, -9.61044920e-04,
          7.52498920e-04, 2.79213389e-04, 5.52955410e-03, 2.12039915e-03,
          -2.23778863e-03, -4.71203402e-03, -1.01888496e-02,
          -7.55856838e-03, -8.32714490e-04, 2.58456147e-03,
          7.35234888e-03, 8.81872978e-03, 6.36418862e-03, 4.42510573e-05,
          -4.21747798e-03, -8.57916195e-03, -6.45704614e-03,
          2.90905155e-04, 4.80237929e-03, 8.03535152e-03, 6.70121005e-03,
          3.63254594e-03, -6.94032351e-04, -2.00430327e-03,
          -6.01552241e-03, -9.69935581e-03, -2.65806848e-05,
          3.23983282e-03, 3.82717792e-03, 8.35447293e-03, 6.16838038e-03,
          -2.83414382e-03, -5.92828402e-03, -1.22864796e-02,
          -5.44068124e-03, 3.03850649e-03, 6.06355490e-03,
          6.23388961e-03, 5.98519156e-03, 5.07568195e-03,
          -4.53571731e-04, -3.73142725e-03, -7.64808943e-03,
          -1.27184845e-03, -2.03980040e-03, 2.88708718e-03,
          6.62149768e-03, 8.60771444e-03, 2.78747268e-03,
          -1.02341839e-03, 9.02777945e-04, -1.64987356e-03,
          1.88408268e-03, -2.89501576e-03, 1.42697548e-03,
          3.62893660e-03, 8.12286604e-03, 2.90883938e-03,
          -2.92740250e-03, -5.75661194e-03, -2.12276168e-03,
          -4.78210300e-03, 4.33143168e-06, 2.08434137e-03,
          4.42599878e-03, 9.09018517e-03, 5.21918852e-03, 1.36533752e-03,
          -2.27311347e-03, -5.24600642e-03, -7.34143797e-03,
          -5.12318499e-03, -4.46163770e-03, -2.21097283e-03,
          4.42822091e-03, 6.53794361e-03, -7.16496957e-04,
          -4.96074744e-03, -5.34624979e-03, 1.75723003e-03,
          -2.45210133e-03, 5.93198114e-04, 1.63644284e-03,
          7.86937214e-03, 6.44716807e-03, 1.87882502e-03,
          -2.88366666e-03, 4.60776064e-04, 9.43742867e-04,
          -3.42739047e-03, -3.57329077e-03, -1.14834844e-03,
          5.78151736e-03, 1.45611528e-03, -1.65820925e-03,
          -6.16810890e-03, -5.46063471e-04, -7.05877785e-03,
          -5.92251448e-03, -2.24930164e-03, -3.04957124e-04,
          6.35218853e-03, 1.07298996e-02, 1.32080843e-03,
          -3.66023486e-03, -4.72577661e-03, -1.09019587e-02,
          -7.09996279e-03, -2.07960908e-03, -1.85958832e-03,
          1.80917198e-03, 5.00782859e-03, -2.00914871e-03,
          -7.22532626e-03, -1.18317520e-02, 2.52565113e-03,
          -2.23699282e-03, -1.00265280e-03, 1.53114100e-03,
          2.62582395e-03, 1.22811960e-03, 3.00631719e-03,
          -2.69113644e-03, 1.27115659e-03, 2.58538639e-03,
          5.11158025e-03, 2.82356236e-03, 6.57574565e-04, 7.65014254e-03,
          8.47435463e-03, 8.28485284e-03, -1.59229932e-03,
          -4.14100417e-04, -4.82354173e-03, -4.22694115e-03,
          2.14228174e-04, 8.46183568e-04, 1.33181666e-05, 1.80017122e-03,
          9.49826790e-04, -5.65408170e-03, -5.76585159e-03,
          -2.32125004e-03, 1.53613579e-03, 1.02586544e-03,
          -7.34735571e-04, 5.12721390e-03, 2.38669710e-03,
          5.05060377e-03, -6.83847349e-03, -8.24147929e-03,
          -3.19020078e-03, 4.27631987e-03, 2.50577857e-03,
          -1.43451802e-03, 3.82730621e-03, 5.75740216e-03,
          4.64039011e-04, -4.38838173e-03, -5.75370481e-03,
          -3.06031620e-03, 9.41512990e-04, 4.29173047e-03,
          8.10216181e-03, 1.08634336e-02, 9.14203748e-03, 3.44904582e-03,
          -3.40859336e-03, -6.26658788e-03, -6.73432089e-03,
          5.46204450e-04, -2.30373791e-03, -4.14733251e-04,
          6.13362272e-06, 8.22431175e-05, -4.35823062e-03,
          -1.15269879e-02, -9.89620853e-03, -9.54123680e-03,
          -2.06076991e-04, 2.64219474e-03, 8.92341044e-03,
          8.94485787e-03, 2.86997971e-03, -6.06853422e-03,
          -1.00794444e-02, -1.13182254e-02, 5.50301140e-03,
          2.73587927e-03, -1.37315528e-03, -1.07453112e-03,
          7.54267722e-03, 1.17326959e-03, 2.20360141e-03, 2.43846700e-03,
          9.33426782e-04, 8.68283678e-03, -6.03150018e-03,
          -4.87787044e-03, -4.39058058e-03, -1.26607472e-03,
          -1.58820977e-03, -2.84703216e-03, -2.84968596e-03,
          7.10854493e-03, -4.73366864e-03, -4.31325147e-03,
          -5.88110508e-03, -3.69215850e-03, 5.86496852e-03,
          7.27399369e-04, -3.08194081e-03, -4.87388903e-03,
          -5.96826803e-03, -3.53119941e-03, -9.33156163e-03,
          -7.61425728e-03, -5.04176738e-03, -3.77219846e-03,
          -3.73705081e-03, -4.84549813e-03, -7.81034399e-03,
          -4.80867922e-03, 7.04472838e-03, -7.67603517e-03,
          -5.31537551e-03, -3.07466788e-03, -6.43571792e-03,
          -4.14703536e-04, -1.04191958e-03, -4.80995188e-03,
          6.61640102e-03, 7.22379005e-03, -5.50502678e-03,
          -4.59734909e-03, -1.61714538e-03, 8.11720733e-03,
          7.70904915e-03, 4.11067100e-04, -5.75757632e-03,
          7.30805984e-03, -5.42213256e-03, -1.01740751e-02,
          -6.45229034e-03, -3.93151352e-03, -9.71122179e-03,
          -2.99089658e-03, -2.92585720e-03, -6.67549996e-03,
          -5.68852527e-03, -8.23786575e-03, -7.69462343e-03,
          -4.97769611e-03, -2.29171407e-03, 2.93037901e-03,
          3.42932879e-03, -4.07887483e-03, -7.25475466e-03,
          -3.23139085e-03, 6.10870868e-03, -4.70440276e-03,
          -2.61825696e-03, -4.46702288e-05, 7.22335186e-04,
          3.44260712e-03, -9.88248939e-05, -2.24600220e-03,
          6.11828454e-03, 4.85183159e-03, -3.83201148e-03,
          5.28457749e-04, 3.20296572e-03, 5.01685729e-03, 4.87431511e-03,
          3.00936634e-03, 2.41644890e-03, 7.29948143e-03,
          -7.71301286e-03, -3.19133652e-03, -8.72606528e-04,
          1.36816851e-03, 9.24830325e-04, 2.77793827e-03,
          -8.34149891e-04, -4.62918961e-03, -3.82420141e-03,
          -1.31031042e-02, -4.09342721e-03, -3.36842029e-04,
          3.88010242e-03, -3.29222903e-03, 3.54992691e-03,
          -1.35915834e-04, -2.26576766e-03, -6.67425990e-03,
          6.54362491e-04, -6.68783556e-04, 3.37427296e-03,
          5.23355836e-03, 7.07816193e-03, 8.12088046e-03, 5.92088618e-04,
          2.82336888e-03, 2.62205093e-03, -1.80667604e-03,
          -5.53551014e-04, 4.26690880e-04, 5.44414669e-03,
          2.54766317e-03, 3.87466257e-03, -1.75275828e-03,
          6.81187608e-04, -2.52045807e-03, -9.40883905e-03,
          6.61297818e-04, 5.72442170e-03, 6.75797509e-03, 6.89013768e-03,
          8.68525822e-03, 3.88230453e-03, 1.55519403e-03,
          -4.60447837e-03, -1.25350123e-02, -1.64425373e-03,
          6.04995221e-05, 5.39392419e-03, -3.47197242e-03,
          3.68415844e-03, 8.40597262e-04, -1.22435146e-03,
          -8.32677074e-03, -9.54128278e-04, 3.38517653e-04,
          8.16294341e-04, 3.22563178e-03, 1.94829341e-03, 7.33142579e-03,
          2.15330790e-03, 4.56323876e-04, -2.98085832e-03,
          -2.42064893e-03, -9.71779693e-04, -1.17611105e-03,
          -1.78132497e-03, -4.88588812e-05, 2.46484368e-03,
          2.29438744e-03, 6.71502843e-04, -3.63672548e-03,
          -3.69451451e-03, 9.64586332e-04, 1.17619813e-03,
          9.76481533e-04, -6.85120001e-04, 9.68613289e-03,
          3.75638227e-03, 6.06831854e-05, -2.80210306e-03,
          -2.75964499e-03, -7.99138565e-04, -7.40686082e-04,
          -2.15214342e-04, 1.66074242e-04, 4.96577565e-03,
          3.09342216e-03, 8.32369202e-04, -2.34195753e-03,
          -5.41278720e-03, 6.23961678e-05, 3.59803147e-04,
          1.66440534e-03, 3.05261929e-03, 3.01670935e-03, 8.27562530e-04,
          2.58548814e-03, -3.15880100e-03, -8.39806721e-03,
          -2.38428722e-04, -2.83713161e-04, 3.92969511e-03,
          5.35052642e-03, 4.01414419e-03, -1.65804906e-03,
          -1.48502307e-03, -1.16934394e-02, 1.74224167e-03,
          1.29330892e-03, 8.43234884e-04, 6.20002532e-03, 4.58172522e-03,
          8.78476910e-03, 1.94061757e-03, 3.46030365e-03, 1.43185107e-03,
          -2.27724854e-03, 2.41220766e-03, 1.30877874e-04,
          6.45147637e-03, 2.53917673e-03, 5.43283066e-03, 1.47400599e-03,
          -7.57661182e-04, -3.08056059e-03, -8.01493786e-03,
          2.38376949e-03, 3.02073406e-03, 8.70811846e-03, 1.02964882e-02,
          3.88383772e-03, 1.00230158e-03, -1.86463573e-03,
          -1.22023504e-02, -5.25585236e-03, 4.56497259e-03,
          5.03462087e-03, 4.69418569e-03, 5.56040648e-03, 2.71903933e-03,
          -5.32351492e-04, -2.98620667e-03, -1.05483998e-02,
          -2.13658740e-03, 3.02695809e-03, 3.88713856e-03,
          9.96331964e-03, 7.00539351e-03, 4.15983098e-03, 3.90667981e-03,
          3.30353883e-04, -4.71432507e-03, -5.93872834e-03,
          -1.02048958e-04, 2.41492735e-03, 2.75390199e-03,
          1.60506112e-03, -2.73295538e-03, -2.32469523e-03,
          1.93113533e-06, -6.31230278e-03, -4.21950500e-03,
          3.38660250e-03, 3.13317846e-03, 5.87394508e-03, 7.39689590e-03,
          5.02643688e-03, 1.32517715e-03, -1.13340700e-03,
          -7.57677760e-03, -1.01002818e-02, -1.20580650e-03,
          4.98611189e-04, 5.72156685e-04, 2.90881633e-03, 5.94205782e-03,
          2.24734284e-03, -4.25453734e-04, -8.59999470e-03,
          -1.36948656e-03, 3.18907620e-03, 4.10075393e-03,
          5.35586942e-03, 6.35078410e-03, 1.71497965e-03, 6.92358240e-04,
          3.65252234e-03, -1.74761657e-03, -4.32476541e-03,
          2.05519237e-03, 3.49114765e-03, 1.55797403e-03,
          -1.90348329e-03, -4.23505990e-05, -2.97567283e-04,
          2.06255214e-03, -5.86356875e-03, -8.68378486e-03,
          -2.38999003e-03, 9.86811123e-04, 1.68213691e-03,
          2.55531701e-03, 8.55624396e-03, 3.47793614e-03,
          -4.54781810e-04, -5.54940989e-03, -5.96206542e-03,
          -2.03741435e-03, 2.15549301e-03, 2.50784913e-03,
          -4.35900802e-05, 6.13576546e-03, -2.48053297e-03,
          -4.25163191e-03, -8.16718210e-03, -2.16323161e-03,
          2.29634275e-03, 5.01269847e-03, 2.87534948e-03,
          -4.37130546e-03, 1.70739449e-03, 9.20920691e-04,
          1.34656497e-04, -1.29320950e-03, 4.74795420e-03,
          2.88159889e-03, 3.82534019e-03, -8.91752949e-04,
          -8.06308817e-03, 7.56051915e-04, -1.85891439e-03,
          -3.54720140e-03, 1.70341693e-03, -1.72938313e-03,
          -2.38794554e-03, 1.09140109e-03, 6.92110800e-04,
          -1.08930806e-04, 7.61903182e-04, -2.45739287e-03,
          -5.71278576e-03, -6.85641216e-03, 5.00021793e-04,
          3.13125318e-04, 3.39288061e-04, -1.78337982e-03,
          3.04286322e-03, -2.39813147e-04, -3.26199050e-04,
          -5.03472984e-03, -7.51722557e-03, 9.34136286e-03,
          3.09257768e-03, 7.66465091e-04, -3.01727653e-03,
          -5.15468791e-03, 1.74591597e-03, -1.65566429e-03,
          -9.92844929e-04, 2.52371631e-03, 6.44866470e-03,
          2.97277048e-03, 2.18381314e-03, 2.22767427e-04, 6.72967290e-04,
          3.18892393e-03, 5.90173714e-03, 2.47854530e-03, 6.31252042e-05,
          -5.81652299e-03, -4.32375004e-04, -3.44725442e-03,
          2.26703496e-03, 1.69302197e-03, -8.43274582e-04,
          -3.09659680e-03, -9.22604464e-03, -1.15823587e-02,
          -1.13649201e-02, 1.64051653e-05, 1.98089797e-03,
          8.16993695e-03, 7.93796591e-03, -9.17972415e-04,
          -6.06438797e-03, -8.02798104e-03, -1.22593977e-02,
          -4.16267896e-03, -2.53774482e-03, -2.65698717e-03,
          3.22522572e-03, 5.04408777e-03, 9.87124149e-05, 3.40255280e-03,
          -2.04013009e-03, -7.85309542e-03, -1.05243269e-02,
          -2.22992920e-03, 6.80661004e-04, 6.97491691e-03,
          1.25174765e-02, 1.24638097e-03, -6.43635809e-04,
          -1.93854782e-03, -1.27906594e-02, 1.12042027e-02,
          -6.04044367e-03, -6.00940781e-03, -7.20117847e-03,
          -7.87925674e-04, 5.65376467e-06, -4.23823111e-03,
          -5.51671674e-03, 8.61502998e-03, 1.84763374e-03,
          -8.64847936e-03, -6.23828964e-03, -5.00923628e-03,
          -1.91183051e-03, -1.29621278e-03, -3.82429454e-03,
          -5.62245492e-03, 1.36514870e-03, -5.91063499e-03,
          -5.70290629e-03, -5.82223898e-03, -5.16464934e-03,
          -4.75056795e-03, -1.61824981e-03, -3.29820649e-03,
          -6.90678321e-03, -7.31749507e-03, -4.67195362e-03,
          -5.25949150e-03, -7.79497484e-03, -5.99938817e-03,
          -3.74312862e-03, -2.07596808e-03, -3.35089816e-03,
          -5.64487744e-03, -7.21759256e-03, 9.28150676e-03,
          -8.43957718e-03, -5.96561469e-03, -5.51709067e-03,
          -4.22022585e-03, -2.96160160e-03, -2.28394964e-03,
          -3.02720536e-03, 6.89482735e-03, 8.79915897e-03,
          -4.83333087e-03, -2.03485508e-03, -6.23630403e-05,
          8.69156048e-03, 1.00281497e-03, 2.44205730e-04,
          -2.61418102e-03, 8.02333560e-03, -2.08475441e-03,
          -5.65207470e-03, -6.59864722e-03, -5.96169988e-03,
          -7.05189537e-03, -4.39130049e-03, -2.95107998e-03,
          -2.17749481e-03, -2.77893012e-03, -4.97015333e-03,
          -6.99752942e-03, -5.36873750e-03, -4.30968450e-03,
          -3.78362439e-03, -3.70984519e-04, -6.79774908e-04,
          -3.38051002e-03, -5.82162431e-03, -8.56529688e-04,
          -2.23579211e-03, -5.97181381e-04, 4.08942724e-04,
          -7.51301995e-04, 3.98062076e-03, 1.76615478e-03,
          -1.00018445e-03, 2.70978111e-04, 2.29397602e-03,
          -4.83150448e-04, 2.58129416e-03, 1.79437792e-03,
          6.63133617e-03, 5.51695377e-03, 4.18862421e-03,
          -6.26047375e-04, 3.11558484e-03, -9.09329113e-03,
          -4.13934886e-03, -2.65902234e-03, -2.99699605e-03,
          -8.61142576e-03, 9.16871999e-04, 2.10855925e-03,
          -3.37691396e-03, -8.70620646e-03, -8.44439957e-03,
          -4.89129731e-03, -1.29579473e-03, 1.43913552e-03,
          -4.02165344e-03, -2.79765786e-03, 2.19088304e-03,
          -7.90632505e-04, -6.03223732e-03, -5.58877271e-03,
          5.38178720e-04, 4.04372951e-03, 3.87676922e-03, 5.58262877e-03,
          3.01238056e-03, 4.47472464e-03, 8.94735451e-04,
          -5.56553574e-03, -5.49423043e-03, -2.55307509e-03,
          -9.31492948e-04, 6.37409394e-04, 1.01514608e-02,
          4.82538762e-03, 2.17823824e-03, 8.82126798e-04,
          -5.77895856e-03, -9.87704284e-03, -1.64853607e-03,
          6.25317683e-04, 3.03088455e-03, -3.16093978e-03,
          1.49290470e-04, 5.43957576e-03, 1.30172796e-03,
          -9.12985113e-03, -7.66698644e-03, -1.06594409e-03,
          -1.25731761e-03, -1.35697646e-03, 3.83542152e-03,
          2.00737803e-03, 2.15841248e-03, 3.55129509e-04,
          -7.55627081e-03, -4.99036163e-03, -1.97762670e-03,
          1.28243188e-03, 8.45580013e-04, -2.36249762e-03,
          7.79274898e-03, 3.08603561e-03, 2.01112963e-03,
          -5.41865965e-03, -1.87863398e-03, -2.91871210e-03,
          7.13863410e-04, 3.77844018e-03, 2.34812684e-03, 8.46561976e-03,
          3.14000202e-03, 1.79514789e-03, -2.13322206e-03,
          -3.17368377e-03, 7.00449571e-04, 2.44198996e-03,
          4.30712134e-05, -5.81743056e-03, 5.74856251e-03,
          1.70069339e-03, 2.32979469e-03, -2.82455236e-03,
          -2.16635456e-03, -6.18955994e-04, -1.08880794e-03,
          7.96061475e-04, -2.08491413e-03, 6.11362327e-03,
          -2.16862257e-03, 3.57316970e-03, -9.31117742e-04,
          -2.46549002e-03, -1.58356049e-03, -2.33364501e-03,
          1.24383403e-03, 8.33849073e-04, 5.96422423e-03,
          -1.42160442e-03, -2.33935236e-04, -2.85439659e-03,
          -2.95245834e-03, -2.08666245e-03, -2.70526065e-03,
          -1.20387110e-03, -1.97480037e-03, 3.11930245e-03,
          -1.16381616e-05, -9.27054614e-04, -4.08943556e-03,
          -2.41632108e-03, -1.83790270e-03, -2.73520988e-03,
          1.71532691e-03, -8.97602644e-04, 4.78530722e-03,
          -1.04104367e-03, 2.21401453e-03, 2.20698115e-04,
          -2.59262300e-03, -6.97364740e-04, -2.39053788e-03,
          2.89362448e-04, -9.03373701e-04, 3.91930481e-03,
          2.24047876e-03, 1.89154071e-03, -6.53612369e-04,
          -2.34950450e-03, 8.90180818e-04, 3.10101779e-03,
          5.34446863e-03, 1.81821908e-03, 3.37886717e-03, 2.02331273e-03,
          1.36060372e-03, -3.70700494e-03, -1.17307832e-03,
          -1.49758707e-03, -5.50204772e-04, 4.32961533e-04,
          -3.82290944e-03, -3.57500929e-03, -6.37365738e-04,
          2.34061549e-03, -2.12307787e-03, 4.61638812e-03,
          2.12562154e-03, 1.19139405e-03, 4.03061649e-03, 1.24876190e-03,
          6.99732162e-04, 5.75946469e-04, 2.54667411e-03, 6.77552912e-03,
          9.01987217e-03, 7.17098708e-04, -2.52903136e-03,
          -2.59701512e-03, -1.08668571e-02, -4.49849432e-03,
          -2.49817106e-03, 5.71540906e-04, 5.98323718e-03,
          2.35128542e-03, -4.92951076e-04, 4.16907387e-05,
          2.34341784e-03, -1.23022182e-03, -1.88807887e-03,
          -1.61728810e-03, 3.50973336e-03, 1.02123641e-03,
          -9.63492959e-04, 8.78253719e-04, 3.34774284e-03,
          1.75161753e-03, -5.66976005e-03, -5.05986204e-03,
          -5.20509109e-03, -1.76738075e-03, -1.99850509e-03,
          1.13071892e-02, -4.26603336e-04, -1.28279824e-03,
          -5.37746528e-04, -9.70755331e-03, -2.19520903e-03,
          -2.00255169e-03, 4.90865018e-03, 1.00501571e-02,
          6.41700020e-03, -7.45393394e-04, 8.61882058e-04,
          -2.47984705e-03, -6.09059678e-03, -6.76169991e-03,
          -8.48490372e-03, -1.25599210e-03, 5.83244022e-03,
          7.08734515e-05, 2.33594072e-03, 5.95847005e-03, 2.58138054e-03,
          -6.64224196e-03, -9.54481482e-04, -2.27247085e-03,
          -1.97619549e-03, -5.99120976e-04, 2.09378428e-03,
          1.72811083e-03, 3.27579700e-03, -1.14832376e-03,
          -8.98062903e-03, -2.59882351e-03, -1.39671646e-03,
          -3.75113334e-03, 1.39440555e-04, 5.57956705e-03,
          1.17362035e-03, 2.23293644e-03, -1.13874313e-03,
          -4.89317998e-03, -3.04674031e-03, -3.05197434e-03,
          -3.21777584e-03, 4.13645757e-03, 6.79096021e-03,
          1.57056132e-03, 2.42196582e-03, -2.81924382e-03,
          -5.83160808e-03, -6.57439092e-03, -1.70276908e-03,
          -4.44779871e-04, 3.07695265e-03, 3.89869697e-03,
          1.01319072e-03, 9.40228871e-04, -3.30877886e-03,
          -1.03554362e-02, -1.49814424e-03, -2.75466288e-03,
          -2.95515591e-03, 5.26905234e-04, 3.02429614e-03,
          4.43920202e-04, 7.57117348e-04, -1.05868315e-03,
          -4.16787108e-04, 4.71811683e-04, 5.49646211e-04,
          8.03690054e-05, 2.59555480e-03, 7.28306454e-03, 2.05441797e-03,
          3.80024849e-03, -5.30810976e-05, -7.06216879e-03,
          -4.60271724e-03, -3.68748629e-03, -1.42943056e-03,
          4.36521927e-03, 5.68257459e-03, -7.73474821e-05,
          -1.96920964e-03, -2.65320670e-03, -3.95615678e-03,
          -6.56553404e-03, -4.73556155e-03, -2.85716192e-03,
          3.15552112e-03, -2.91032973e-03, -3.56812088e-04,
          -1.78784551e-03, 1.42337766e-03, 2.85013625e-03,
          -2.13705143e-03, 1.94735115e-03, -2.24002474e-03,
          -5.51087130e-03, -6.32307166e-03, -2.50454200e-03,
          2.18155357e-04, 4.58350172e-03, 9.39627644e-03, 2.71680928e-03,
          -2.61629844e-04, -3.19940574e-03, -9.34910960e-03,
          -3.59014422e-03, -2.73551955e-03, -7.96756882e-04,
          1.82356127e-03, 2.79932079e-04, -6.89180754e-03,
          -7.96257239e-03, -7.40462495e-03, -6.63133431e-03,
          -6.42498583e-03, -3.29642976e-03, 1.34984730e-03,
          4.88283904e-03, 8.02744366e-03, 2.46010115e-03,
          -5.72770927e-03, -6.58091204e-03, -9.53811780e-03,
          -2.30360567e-03, -1.08844822e-03, -2.03557312e-03,
          -2.34670448e-03, 4.20487428e-04, -1.01165462e-03,
          -1.07775570e-03, -6.56537060e-03, -2.96933507e-03,
          4.38162079e-03, -1.08361384e-03, -4.10936540e-03,
          -4.06486727e-03, 7.02521007e-04, -4.57831484e-04,
          -9.65911968e-05, -4.06629639e-03, -1.89490293e-05,
          -1.35739092e-02, -6.27802918e-03, -5.47085842e-03,
          -6.12067152e-03, -4.61408589e-03, -5.34816552e-03,
          -6.36123633e-03, -1.08462414e-02, -1.42690195e-02,
          -1.08813262e-02, -7.42806122e-03, -6.55286014e-03,
          -8.58785864e-03, -6.81203604e-03, -6.44881278e-03,
          -4.19008546e-03, -1.00098215e-02, -9.43220872e-03,
          4.73935110e-03, -1.56943919e-03, -4.04652860e-03,
          -2.97058187e-03, -6.61317445e-03, -2.04885309e-03,
          -3.10767023e-03, -3.33741074e-03, 5.49406803e-04,
          3.00978962e-03, -5.19896485e-03, -4.01127804e-03,
          -8.20635469e-04, -3.08326585e-03, 1.70637481e-03,
          -9.21119878e-04, -2.27278331e-03, 6.74714218e-04,
          -1.25752976e-02, -7.25973118e-03, -6.55252207e-03,
          -6.03660475e-03, -7.28838332e-03, -6.12085918e-03,
          -8.57761782e-03, -8.84947740e-03, -1.29928226e-02,
          -1.03455279e-02, -8.77775904e-03, -6.95310859e-03,
          -7.14039803e-03, -7.24767428e-03, -4.23796382e-03,
          -4.94632544e-03, -6.60474133e-03, -1.19549464e-02,
          -5.66208875e-03, -3.85350105e-03, -2.81190826e-03,
          -3.06061236e-03, -6.05061511e-03, -4.83643089e-04,
          3.61952046e-03, -2.71678925e-03, -8.18575453e-03,
          -6.72785332e-03, -3.40830372e-03, -1.13828841e-03,
          4.32437751e-03, 7.19355000e-03, -7.94822583e-04,
          1.99206267e-03, 4.08485625e-03, -2.99145561e-03,
          -4.84207226e-03, -4.45718039e-03, -3.15870345e-03,
          -5.82754798e-03, -1.17171761e-02, -4.45666863e-03,
          7.64148310e-04, -3.34573467e-03, -5.87641867e-03,
          -4.56615863e-03, -3.44611704e-03, -3.37496866e-03,
          -4.75432072e-03, -5.46039594e-03, 3.18667805e-03,
          1.21401355e-03, 3.56981269e-04, -5.79059264e-03,
          -7.98797421e-03, -2.45915330e-03, -2.04355014e-03,
          5.99513995e-04, -3.78769916e-03, 1.08191720e-03,
          3.51759326e-03, 9.14345364e-05, -9.74994153e-03,
          -4.22927784e-03, -1.16385391e-03, -1.37266587e-03,
          -1.93264568e-03, 1.01666637e-02, 4.41159448e-03,
          4.52862121e-03, 5.82133513e-03, -3.45353573e-03,
          -5.94444061e-03, -3.10737104e-03, -2.94761918e-03,
          -4.36261343e-03, -3.86369997e-03, 2.23931926e-03,
          -1.10119490e-05, -2.64864205e-03, -6.12234836e-03,
          -4.79873130e-03, -6.12026034e-03, -3.25360429e-03,
          -6.00127364e-03, 3.56449862e-03, -7.98057532e-04,
          -3.33646825e-03, -4.13076952e-03, -5.78634627e-03,
          -1.69027585e-03, -2.12686718e-04, 5.46141819e-04,
          -1.17223605e-03, -4.49010869e-03, 6.13119733e-03,
          7.57108573e-05, 3.45208915e-03, 8.60739150e-04, 2.06368649e-03,
          -5.76552819e-04, -5.93595265e-04, 3.68163572e-04,
          1.90029689e-03, 4.18151030e-03, -1.79737559e-04,
          7.75585230e-03, 2.84880609e-03, -4.50263824e-03,
          -3.91201489e-03, -1.29674911e-03, -3.12423473e-03,
          -6.80699805e-03, -4.92075225e-04, -1.49125699e-03,
          -1.77732680e-03, -3.45454062e-03, -1.77685614e-03,
          -1.06082938e-03, -2.33056187e-03, -3.69535148e-04,
          -2.95941741e-03, 2.46074167e-03, -1.26404385e-03,
          2.48985860e-04, -1.13506115e-03, -4.08221921e-03,
          -1.58475444e-03, -2.52864650e-03, 2.18577031e-03,
          9.69758665e-04, 5.67538291e-03, -7.12068635e-04,
          1.92810118e-03, -2.44219764e-03, -4.47208993e-03,
          3.57129902e-04, -2.29880447e-03, 1.76013075e-03,
          3.05913878e-03, 4.96881129e-03, 3.28399916e-03, 2.42150365e-03,
          -3.66498251e-03, -9.57794022e-03, -9.85235325e-04,
          -3.95919516e-04, 3.52656492e-03, 2.31900648e-03,
          5.87451598e-03, -4.07749409e-04, -2.43934756e-03,
          -1.18676536e-02, -5.68901561e-03, 7.64924276e-04,
          -7.71333638e-04, 3.35031445e-03, 3.28668649e-03,
          2.56807217e-03, 1.63611956e-03, 1.36958342e-03,
          -6.24566898e-03, 7.70945975e-04, -1.20980863e-03,
          -2.80766282e-03, 6.49945694e-04, 1.39478839e-03,
          -7.96232664e-04, 4.17866075e-04, 2.19637249e-03,
          2.39074323e-03, 7.71218212e-03, -2.32477789e-03,
          -3.57937231e-03, -3.34304292e-03, -7.13463500e-03,
          -4.36969055e-03, -4.34561307e-03, -1.78187725e-03,
          2.47605541e-03, 3.16537102e-03, -2.63701030e-03,
          -1.80985895e-03, 8.73782963e-04, -1.19037880e-03,
          -2.52494449e-03, -1.28531377e-04, 2.30304478e-03,
          4.76487167e-03, 4.89080558e-03, -4.79484769e-03,
          -2.33004126e-03, -3.60609265e-03, -3.68660176e-03,
          -5.55142201e-03, -5.67258149e-03, -3.43940151e-03,
          4.11288999e-03, 8.44946690e-03, -2.00685603e-03,
          -3.16917826e-03, -3.41586233e-03, -9.64288320e-03,
          -3.92021006e-03, -4.13048221e-03, 1.26107174e-04,
          2.75733648e-03, 8.61600973e-03, -1.72558427e-03,
          -1.47921185e-03, -5.21806255e-03, -7.50964554e-03,
          -3.62604135e-03, -6.03835285e-03, -1.19886349e-03,
          2.58387811e-03, 5.98215684e-03, -1.97035726e-03,
          -7.61867501e-04, -1.80226192e-03, -4.58273338e-03,
          -3.51157691e-03, -4.45057917e-03, -3.10532982e-03,
          4.27641533e-03, 1.04796439e-02, -2.27344382e-04,
          -1.39115355e-03, -6.95378287e-03, -1.01871947e-02,
          -6.65532192e-03, -4.18920442e-03, -2.68730032e-03,
          6.71885861e-03, 8.32471997e-03, 7.45723723e-04, 1.87160171e-04,
          -2.82564084e-03, -5.54380706e-03, -2.78941961e-03,
          -5.12086041e-03, -4.39559761e-03, 4.14952729e-03,
          7.56365526e-03, 1.85906549e-03, 9.06706206e-04,
          -6.96765957e-03, -7.19993096e-03, -1.02213873e-02,
          -6.54483726e-03, -3.99717363e-03, 5.35369897e-03,
          1.41421081e-02, 1.12964713e-03, 3.00990854e-04,
          -5.84868714e-03, -8.30765069e-03, -5.71232615e-03,
          -3.55989160e-03, -2.40632775e-03, 1.30842002e-02,
          1.06250597e-02, 3.71505623e-03, 1.50889927e-03,
          -9.80223436e-03, -8.58305674e-03, -7.91148189e-03,
          -2.90414528e-03, -7.52781198e-05, 1.03881164e-02,
          2.69483658e-03, 1.07461365e-03, 1.60824333e-03,
          -4.03198740e-03, -6.58847392e-03, -6.31141011e-03,
          -4.54539899e-03, -1.10233587e-03, 1.23820128e-03,
          8.68048694e-04, -7.00067787e-04, 1.80007133e-04,
          3.35487974e-04, -8.24872125e-03, -7.38119474e-03,
          -5.02686901e-03, -3.62408883e-03, 3.89716355e-04,
          9.67218075e-03, 3.02899117e-03, -1.42353319e-03,
          -9.86517780e-03, -7.63119990e-03, -5.11759520e-03,
          -4.11926815e-03, 9.76144569e-04, 8.14898964e-03,
          6.47510169e-03, -3.53011931e-03, 2.68685719e-04,
          -5.30181045e-04, -5.14493883e-03, -7.29228323e-03,
          -6.41529495e-03, 7.44882331e-04, 6.10325346e-03,
          -4.95483354e-03, -2.03747628e-03, 5.68678463e-03,
          7.72286067e-03, 8.89294315e-04, -5.70310280e-03,
          -7.83537235e-03, -7.37758912e-03, -5.52308420e-03,
          -1.11288121e-02, -1.02216424e-03, 4.71952464e-03,
          7.75516266e-03, 6.47079479e-03, -4.18064324e-03,
          -9.88856610e-03, -8.02067202e-03, -1.36660328e-02,
          -2.87560443e-03, -3.65871796e-03, 2.83247977e-03,
          4.34170431e-03, 6.71034737e-04, -4.55189869e-03,
          -6.38230890e-03, -4.63791285e-03, -3.89226619e-03,
          -5.29543543e-03, 3.32010631e-03, 6.37626462e-03,
          7.94261880e-03, 7.90557079e-03, -3.85581609e-03,
          -7.18942191e-03, -9.92009323e-03, -1.26615092e-02,
          -1.69881177e-03, -7.02633522e-03, -7.18247844e-03,
          -9.58961342e-03, -9.81500559e-03, -6.86391024e-03,
          -5.96742984e-03, -7.46782264e-03, -4.04209452e-04,
          3.60167748e-03, -7.96703715e-03, -7.76563538e-03,
          -1.14782350e-02, 3.90819245e-04, -7.45955575e-03,
          -6.29148306e-03, -8.81986786e-03, 5.84457954e-03,
          -8.41377024e-03, -8.87202378e-03, -9.79401544e-03,
          -1.08659379e-02, -1.44312866e-02, -7.68368738e-03,
          -8.63121171e-03, -1.08653940e-02, -9.17923357e-03,
          -6.12233579e-03, -9.22334753e-03, -1.03352619e-02,
          -1.47086112e-02, -1.61328092e-02, -8.70251935e-03,
          -7.30930548e-03, -1.02644432e-02, -6.08791830e-03,
          -7.87412282e-03, -7.32097030e-03, -4.44672210e-03,
          -5.72429132e-03, -7.85847940e-03, -4.98063490e-03,
          -5.74021367e-03, -6.40233513e-03, -7.28372019e-03,
          -4.67920024e-03, -9.33222473e-03, -5.68798557e-03,
          -9.45718866e-03, 4.35542502e-03, -3.20754596e-03,
          3.92801734e-03, -6.84173545e-04, -1.44223974e-03,
          -8.60249344e-03, -6.49632234e-03, -5.28734596e-03,
          -8.19704961e-03, -1.51927043e-02, -7.58705195e-03,
          -7.76990363e-03, -9.12322477e-03, -8.76994338e-03,
          -8.50465894e-03, -8.86852574e-03, -6.59674313e-03,
          -1.02749858e-02, 2.12850980e-03, -8.74234643e-03,
          -7.47766998e-03, -9.04024858e-03, -5.32195391e-03,
          -2.26362143e-03, -4.61739209e-03, -3.87952127e-03,
          -7.39821745e-03, -1.50614902e-02, -4.72733518e-03,
          3.69663583e-04, 8.14479972e-06, 6.62595965e-04, 9.10034403e-04,
          -6.86044199e-03, -4.87664575e-03, -2.80511705e-03,
          -4.61572502e-03, 8.69608391e-03, 8.22894089e-03,
          1.58465886e-03, 1.87885645e-03, -7.68145313e-03,
          -5.95542090e-03, -5.64702647e-03, -8.42630956e-03,
          -1.55523932e-02, -9.85799730e-03, -5.36526507e-03,
          -5.56584075e-03, -6.16502389e-03, -5.02526201e-03,
          -1.03385411e-02, -1.03769461e-02, -9.56005696e-03,
          -1.03107179e-02, -9.84287821e-04, 1.17180543e-03,
          -2.88949371e-03, -3.85926128e-03, 9.87384701e-04,
          -5.92585607e-03, -3.98583757e-03, -6.03711512e-03,
          -4.30062506e-03, 2.01613596e-03, 4.25032747e-04,
          -3.53343901e-03, 2.56444071e-03, -1.85277511e-03,
          -6.92731515e-03, -4.32785088e-03, -7.56008131e-03,
          3.24381748e-03, -1.52173429e-03, -2.85082101e-03,
          -6.98143383e-03, -1.09111646e-03, -4.73058317e-03,
          -7.87902530e-03, -7.93409441e-03, -9.99061670e-03,
          -1.40392622e-02, -2.69289804e-03, -2.33508553e-03,
          -3.45871202e-03, -2.08096183e-03, -1.15188758e-03,
          -5.74389007e-03, -7.09112361e-03, -8.69719870e-03,
          -6.59856340e-03, -4.50091716e-03, -2.81822309e-03,
          -2.68939999e-03, 1.07676000e-03, -1.00970222e-03,
          -5.36255259e-03, -4.21201764e-03, -4.88583883e-03,
          -3.59981111e-03, -4.14474076e-03, -3.81841976e-03,
          -4.07821219e-03, 1.12427049e-03, 2.25853830e-04,
          -3.42630385e-03, -3.22877755e-03, -4.46929317e-03,
          6.35871384e-03, -1.18149782e-03, -3.07714962e-03,
          -3.53405019e-03, 2.12855893e-03, 4.17898269e-03,
          -3.01344506e-03, -6.87171798e-03, -7.26442644e-03,
          -1.01303719e-02, -7.71851512e-03, -3.49484105e-03,
          -2.08706409e-03, 4.59074927e-03, 3.40037717e-04,
          -7.36926170e-03, -6.62655430e-03, -8.31307378e-03,
          -6.71785977e-03, -6.39405660e-03, -3.18256766e-03,
          -2.96356576e-03, 3.19498940e-03, -3.42854299e-03,
          -2.45482009e-03, -3.56769795e-03, -6.03171648e-04,
          -1.13599468e-03, -9.86849540e-04, -2.49907165e-03,
          -2.97133555e-03, -1.70724199e-03, 4.25310666e-03,
          -1.84812976e-04, -1.78233755e-03, -1.19548225e-04,
          -8.11653677e-04, -8.70410237e-04, 5.03510842e-03,
          5.65212360e-03, 2.23400234e-03, 1.89772516e-03,
          -5.17692417e-03, -4.23365226e-03, -1.81426480e-03,
          -6.47501461e-03, -6.42719259e-03, -2.88311346e-03,
          -4.09820769e-03, 8.37731059e-04, 2.47143023e-03,
          -4.19755187e-03, -4.64894949e-03, -3.07121314e-03,
          -8.39895196e-03, -1.12626534e-02, -8.38092342e-03,
          -9.07532498e-03, -1.24805467e-03, 3.22745368e-03,
          -1.89844181e-03, -2.02662381e-03, -1.54312782e-03,
          -2.52066809e-03, -6.52371580e-03, 7.75301713e-04,
          2.30307900e-03, 3.06253484e-03, 4.65721963e-03,
          -7.94095080e-03, -3.83695029e-03, -2.08246475e-03,
          -2.20891973e-03, -6.56212401e-03, -4.99609951e-03,
          -3.79142701e-03, 3.88914929e-03, 3.06764059e-03,
          -2.86603160e-03, -4.74180467e-03, -4.88914968e-03,
          -8.79432261e-03, -1.10690203e-02, -4.77734394e-03,
          -7.96520896e-03, -1.73555745e-03, 4.15209774e-03,
          -8.65054317e-03, -6.39726687e-03, -3.74507811e-03,
          -6.27470482e-03, -6.24675443e-03, -4.38935682e-03,
          -7.33592501e-03, 2.25724839e-03, 8.92852433e-03,
          -5.53158065e-03, -3.33573506e-03, -4.22974396e-03,
          -2.75352574e-03, -4.77032689e-03, -5.57612814e-03,
          -8.44149105e-03, 5.00792405e-03, 1.50356628e-02,
          -5.34692500e-03, -3.36668477e-03, -6.50819624e-03,
          -8.56544822e-03, -7.38703040e-03, -6.92445738e-03,
          -6.82062656e-03, 1.17001226e-02, 6.62259571e-03,
          -6.39903639e-03, -4.42510471e-03, -5.10617718e-03,
          -4.92097065e-03, -6.62528211e-03, -6.41125254e-03,
          -9.43471119e-03, 2.58347602e-03, 4.45929868e-03,
          -7.55034294e-03, -6.22181874e-03, -8.10372457e-03,
          -1.26091382e-02, -1.27452221e-02, -1.09560741e-02,
          -1.02418810e-02, 3.17826355e-03, 1.55272679e-02,
          -1.83823518e-03, -2.38597579e-03, -5.54076955e-03,
          -9.34089720e-03, -7.93088507e-03, -5.21646719e-03,
          -2.64923903e-03, 1.67230684e-02, 1.25124604e-02,
          -2.40633351e-04, -2.71962839e-03, -1.00576207e-02,
          -1.21361483e-02, -9.33607481e-03, -6.75770128e-03,
          -3.22511676e-03, 1.19644869e-02, 6.85219280e-03,
          -7.81943928e-03, -7.65227946e-03, -8.11868347e-03,
          -1.36123244e-02, -1.19054234e-02, -9.50152054e-03,
          -7.45377364e-03, 8.28406774e-03, 7.82009307e-03,
          -4.05270979e-03, -6.44673128e-03, -1.06716510e-02,
          -1.54531905e-02, -1.34408772e-02, -1.15206409e-02,
          -7.03976536e-03, 6.32234709e-03, 1.22317383e-02,
          6.04382483e-04, -8.10473925e-04, -8.94110464e-03,
          -7.85095897e-03, -5.82096726e-03, -6.43805414e-03,
          -4.00875369e-03, 1.09982817e-02, 6.88077416e-03,
          -3.06774862e-03, 1.30365090e-03, -1.41087128e-03,
          -2.88552488e-03, -7.07780896e-03, -1.03472127e-02,
          -5.44637721e-03, 5.88768721e-03, 1.00244423e-02,
          1.70408421e-05, -1.43937219e-03, -1.06274365e-02,
          -1.14172595e-02, -8.88965465e-03, -1.12142200e-02,
          -1.03882914e-02, 5.84976189e-03, 4.87375865e-03,
          -2.16177711e-03, -2.02438515e-03, -3.82075808e-03,
          -7.58732110e-03, -8.45491234e-03, -1.20958220e-02,
          -1.37172658e-02, -1.43991422e-03, 3.28600826e-03,
          -1.00437646e-04, 8.65086075e-03, 4.85017756e-03,
          4.37323563e-03, -2.36285664e-03, -7.33102206e-03,
          -5.32828271e-03, 3.24431621e-03, -2.01635738e-03,
          2.24349252e-03, 4.34666034e-03, 1.44280947e-03, 1.23492186e-03,
          -4.55218600e-03, -8.12260713e-03, -8.79721250e-03,
          -8.65746103e-03, -3.31076677e-03, -6.04921719e-03,
          5.02281637e-06, -1.08987745e-03, -2.48121913e-03,
          -7.86330551e-03, -1.13437977e-02, -1.13204662e-02,
          -9.29530896e-03, -1.20851239e-02, -8.23693722e-03,
          -7.88636040e-03, -7.92970229e-03, -8.24912172e-03,
          -6.77499175e-03, -1.13203777e-02, -9.71763674e-03,
          -1.55791491e-02, -7.92802684e-03, -1.02436915e-02,
          -8.55335407e-03, -7.95909483e-03, -1.57983582e-02,
          -4.69386531e-03, -8.01306218e-03, -1.10857701e-02,
          -8.79096705e-03, -7.25343777e-03, -9.77619924e-03,
          -7.74516491e-03, -1.19038094e-02, -1.04135489e-02,
          -7.39835249e-03, -6.55110367e-03, -8.85521248e-03,
          -8.43351800e-03, -7.47328950e-03, -8.22172780e-03,
          -6.97587105e-03, -7.76630361e-03, -1.65617596e-02,
          -5.79184759e-03, -7.17901625e-03, -8.02494865e-03,
          -1.01968758e-02, -7.90878944e-03, -9.21339169e-03,
          -6.79705199e-03, -8.93364940e-03, -1.74233951e-02,
          -8.46703909e-03, -6.81228889e-03, -8.50461610e-03,
          -8.34217668e-03, -3.61231482e-03, -6.04762416e-03,
          -4.18034289e-03, -8.15591682e-03, -1.34093808e-02,
          -7.64295226e-03, -4.72882716e-03, -5.98507328e-03,
          -6.11478928e-03, -1.54240429e-03, -7.16710044e-03,
          -4.60874848e-03, -5.19448286e-03, 7.75883533e-03,
          -6.01428468e-03, -4.71663335e-03, -4.63410886e-03,
          1.13893056e-03, -7.74754165e-03, -7.67757557e-03,
          -4.58161440e-03, -6.68072747e-03, -1.71373934e-02,
          -8.82499665e-03, -5.79172699e-03, -7.26892008e-03,
          -8.37225001e-03, -8.17750674e-03, -8.77030566e-03,
          -6.80440897e-03, -7.30912201e-03, -6.47341087e-03,
          -6.65510539e-03, -5.49999950e-03, -7.22782779e-03,
          -8.65225308e-03, -5.01963682e-03, -6.52083801e-03,
          -4.67886496e-03, -4.97944094e-03, -1.05975782e-02,
          -8.28091614e-03, -4.69090743e-03, -3.90764885e-03,
          -2.57921778e-03, 2.09806277e-03, -7.01003242e-03,
          -9.12133791e-03, -8.42919294e-03, 3.40239567e-05,
          -6.67989429e-04, 4.16350272e-03, 1.05624355e-03,
          2.84055853e-03, -7.84264598e-03, -7.24353222e-03,
          -6.00378355e-03, -6.80584181e-03, -1.48419561e-02,
          -7.51373032e-03, -4.54469398e-03, -5.38277254e-03,
          -8.81038047e-03, -6.16886280e-03, -8.62942450e-03,
          -9.09716450e-03, -1.20933084e-02, -1.44384941e-02,
          -7.35767232e-03, -5.63337514e-03, -6.43955590e-03,
          -6.43333001e-03, -2.73437402e-03, -4.98364074e-03,
          -8.26034416e-03, -9.34705697e-03, -1.33221727e-02,
          -4.86763613e-03, -5.58207626e-04, 3.79451230e-05,
          -1.51130476e-03, 4.62674396e-03, -3.89290648e-03,
          -6.03340147e-03, -1.12119103e-02, -4.39081062e-03,
          -1.50749390e-03, 2.05941638e-03, 5.53506194e-03,
          6.80150976e-03, -7.73807662e-03, -7.63928285e-03,
          -9.14213341e-03, -1.21833179e-02, -1.88075658e-02,
          -7.99895544e-03, -6.02340512e-03, -7.69256707e-03,
          -6.66992087e-03, -4.41756845e-03, -6.64550439e-03,
          -9.45538376e-03, -1.47917988e-02, -1.76936034e-02,
          -8.84967018e-03, -9.30986553e-03, -8.57981015e-03,
          -2.72211665e-03, 7.48266699e-03, -4.85003274e-03,
          -7.13713886e-03, -1.20930597e-02, -6.46755472e-03,
          -7.83608481e-03, -3.87969147e-03, 1.40855659e-03,
          1.12598771e-02, 5.33718336e-03, -8.24611727e-03,
          -7.84802437e-03, -1.11535676e-02, -8.73588212e-03,
          -6.98401639e-03, -7.86977180e-04, 4.37500625e-04,
          9.48057510e-03, -3.47566977e-03, -5.61361667e-03,
          -7.61436205e-03, -1.38572566e-02, -1.85278263e-02,
          -9.28504672e-03, -8.60801898e-03, -7.68848276e-03,
          -1.86328392e-03, -4.26205061e-03, -7.32817315e-03,
          -7.70616531e-03, -1.13377264e-02, -1.54108061e-02,
          -9.39053111e-03, -7.61014735e-03, -6.86887372e-03,
          -1.04048930e-03, 6.46656565e-03, -7.01268064e-03,
          -5.20955212e-03, -6.59984117e-03, -5.92633244e-03,
          -6.48911018e-03, -7.55599118e-04, -2.18218029e-03,
          7.76209403e-03, 9.97089408e-03, -3.97587661e-03,
          -7.73244863e-03, -5.59269730e-03, 4.74010187e-04,
          -1.44738900e-02, -5.53755974e-03, -9.02563985e-03,
          7.10763689e-03, -4.27769497e-03, -6.80879224e-03,
          -4.52586170e-03, -7.86447339e-03, -1.08924182e-02,
          -6.14415854e-03, -3.69777670e-03, -5.41710807e-03,
          -3.31896497e-03, -1.77982007e-03, -4.92746476e-03,
          -4.78391768e-03, -5.32300444e-03, -9.97744501e-03,
          -1.29514355e-02, -7.42311543e-03, -1.02934381e-02,
          -5.60980383e-03, 1.62044745e-02, 1.77647744e-04,
          -5.88840805e-03, -5.27167367e-03, -7.06147496e-03,
          -1.19124791e-02, -6.87831175e-03, -9.54633486e-03,
          1.07181463e-02, 1.77581795e-02, -1.84127898e-03,
          -5.05800126e-03, -5.03971521e-03, -4.22413554e-03,
          -5.69841452e-03, -3.63739743e-03, -8.17727018e-03,
          1.76289529e-02, -3.24507756e-03, -2.89820717e-03,
          -4.92615579e-03, -4.62477095e-03, -1.04124574e-02,
          -1.13683771e-02, -9.13952384e-03, -1.27617409e-02,
          -9.43605881e-03, -9.12592374e-03, -6.18666783e-03,
          -7.27503793e-03, -8.24920554e-03, -1.07671842e-02,
          -8.23748112e-03, -9.23977885e-03, -1.16218282e-02,
          -9.66298021e-03, 1.73652023e-02, -4.34515672e-03,
          -3.81097919e-03, -4.78821108e-03, -2.31977319e-03,
          -5.42971725e-03, -7.65272090e-03, -9.36979428e-03,
          1.67129319e-02, 1.08149629e-02, -7.79084861e-03,
          -4.08129208e-03, -6.82725245e-03, -6.04319340e-03,
          -8.61653965e-03, -1.15871960e-02, -1.19293397e-02,
          1.08336983e-02, -7.11458968e-03, -8.39373935e-03,
          -5.56938676e-03, -6.22183923e-03, -8.34627450e-03,
          -5.02707902e-03, -8.34900793e-03, -1.17999483e-02,
          -6.44902000e-03, -6.17737509e-03, -8.73525627e-03,
          -5.58364391e-03, -6.39993977e-03, -1.10892598e-02,
          -6.00869255e-03, -1.15305698e-02, -1.48152877e-02,
          -1.06301811e-02, 1.49958115e-02, -7.60878669e-03,
          -5.18323947e-03, -6.76363055e-03, -7.62963481e-03,
          -8.51671491e-03, -9.36267711e-03, -8.74095503e-03,
          1.55455321e-02, 1.49199218e-02, -4.64797765e-03,
          -6.78786961e-03, -1.07161477e-02, -9.21869650e-03,
          -1.21638356e-02, -1.28743760e-02, -8.24148394e-03,
          1.05226636e-02, -2.12751515e-03, -7.76460068e-03,
          -4.48755315e-03, -3.98601685e-03, -8.57853889e-03,
          -6.59808191e-03, -1.24697378e-02, -1.21725546e-02,
          -4.23129555e-03, -5.52684860e-03, -1.08758053e-02,
          -8.15019943e-03, -1.19109955e-02, -1.41781038e-02,
          -1.25790574e-02, -1.59177370e-02, -1.58846751e-02,
          -4.95448243e-03, 1.81612074e-02, 1.64577586e-03,
          -1.44341984e-03, -8.61496199e-03, -4.44002543e-03,
          -9.13832802e-03, -1.25367632e-02, -1.05677722e-02,
          1.22089637e-02, 1.97892375e-02, -6.26459857e-03,
          -6.37899677e-04, -5.36995986e-03, -1.44706538e-03,
          -7.27871992e-03, -9.70657822e-03, -1.21101802e-02,
          9.78893042e-03, -2.62667914e-03, -7.68983737e-03,
          -7.54890172e-03, -9.41670686e-03, -1.32468678e-02,
          -1.12039018e-02, -1.39579941e-02, -1.55976592e-02,
          -4.07144381e-03, -3.92790698e-03, -1.11282021e-02,
          -1.16721075e-02, -1.08990781e-02, -1.49488952e-02,
          -9.22638178e-03, -1.17258532e-02, -1.48580689e-02,
          -6.94049010e-03, 1.22567583e-02, 2.75181257e-03,
          7.29957456e-03, 1.46587170e-03, 8.36167857e-03,
          -4.51864628e-03, -4.98039369e-03, -8.12229142e-03,
          6.73419749e-03, -2.57480806e-05, -7.95518700e-03,
          -6.31770026e-03, -8.51829629e-03, -5.61349746e-03,
          -6.82362588e-03, -1.08172670e-02, -7.52837490e-03,
          -4.56775015e-04, -8.07261467e-03, -8.78746435e-03,
          -1.11337435e-02, -1.19488398e-02, -1.05376001e-02,
          -8.35052878e-03, -7.36840814e-03, -1.15073286e-02,
          -1.03493705e-02, -1.29739642e-02, -1.20962299e-02,
          -1.14946608e-02, -1.33280000e-02, -1.03793675e-02,
          -1.06433649e-02, -1.05426703e-02, -8.78615677e-03,
          -1.61980502e-02 ]
   decision_functions:
      -
         sv_count: 1
         rho: -5.4203715249908313e-01
         alpha: [ 1. ]
