%YAML:1.0
opencv_ml_svm:
   format: 3
   svmType: EPS_SVR
   kernel:
      type: LINEAR
   C: 1.0000000000000000e-02
   p: 1.0000000000000001e-01
   term_criteria: { epsilon:1.0000000000000000e-03, iterations:1000 }
   var_count: 4356
   sv_total: 1
   support_vectors:
      - [ 1.24439553e-04, -5.57643734e-03, -8.67751148e-03,
          -1.31623531e-02, -2.03085952e-02, -8.62180535e-03,
          -1.08802784e-02, -1.12804146e-02, 7.08871579e-04,
          5.70745999e-03, -7.47408532e-03, -9.55917314e-03,
          -1.50693757e-02, -2.36084666e-02, -1.25243859e-02,
          -1.04795815e-02, -9.58965253e-03, 5.34383021e-03,
          1.02361683e-02, -1.58365071e-03, -9.22885910e-03,
          -1.67202670e-02, -9.58244875e-03, -7.08172377e-03,
          -9.84654389e-03, -7.84804579e-03, 7.82923494e-03,
          1.68186110e-02, -2.07467703e-03, -5.63505432e-03,
          -1.34197017e-02, -6.65907655e-03, -7.64137879e-03,
          -9.16218944e-03, -7.43602170e-03, 1.75510477e-02,
          4.00497671e-03, -5.43843769e-03, -2.79842480e-03,
          -1.19165415e-02, -2.17901617e-02, -1.23506095e-02,
          -8.91694427e-03, -5.82706975e-03, 2.89677293e-03,
          2.80661299e-03, -5.54068945e-03, -5.01901237e-03,
          -1.10334102e-02, -1.82713978e-02, -1.26566719e-02,
          -9.66955069e-03, -8.39330722e-03, 4.00836719e-03,
          8.30888376e-03, -4.98926686e-03, -4.59117396e-03,
          -1.32804625e-02, -1.22177815e-02, -1.09620690e-02,
          -9.88257863e-03, -6.98083779e-03, 6.05117483e-03,
          2.27544066e-02, 7.71526201e-03, 5.60568692e-03,
          -9.89854103e-04, -8.02516099e-03, -1.26584815e-02,
          -8.56443960e-03, -8.17387551e-03, 1.61199439e-02,
          -9.92323738e-04, -6.24390272e-03, -5.35907550e-03,
          -1.09383781e-02, -2.19028108e-02, -1.31893652e-02,
          -1.02497311e-02, -9.40480828e-03, -1.02959096e-03,
          5.02062356e-03, -4.91140131e-03, -5.23238396e-03,
          -5.83078945e-03, -1.56864598e-02, -1.44613804e-02,
          -1.35672847e-02, -1.22911222e-02, 1.90850440e-03,
          1.37323719e-02, 2.29374180e-03, -1.64744002e-03,
          -8.08263477e-03, -1.68587901e-02, -1.16817011e-02,
          -9.92008112e-03, -1.04553849e-02, 9.22915246e-03,
          1.67777929e-02, 7.49202969e-04, -2.38701585e-04,
          -7.76971690e-03, -9.02272388e-03, -1.07377535e-02,
          -8.43101554e-03, -9.59108118e-03, 1.70182940e-02,
          7.50520220e-03, -2.76996032e-03, -3.59946815e-03,
          -6.37715403e-03, -1.61558948e-02, -1.16564753e-02,
          -1.51331052e-02, -9.98594239e-03, 3.97275714e-03,
          9.64230392e-03, -1.88263727e-03, -4.54800949e-03,
          -7.36780325e-03, -1.80714037e-02, -6.20328262e-03,
          -1.10025620e-02, -6.62223902e-03, 7.80926924e-03,
          1.51114417e-02, -4.37976001e-03, -3.27699864e-03,
          -9.12567787e-03, -1.36017520e-02, -9.47000459e-03,
          -1.28491530e-02, -8.82455241e-03, 1.55304438e-02,
          8.66374187e-03, -3.71746463e-03, -7.37096788e-03,
          -9.78477858e-03, -1.04437042e-02, -4.41816496e-03,
          -8.41879472e-03, -6.93092123e-03, 1.02656335e-02,
          7.98118394e-03, -3.31792445e-03, -8.56251549e-03,
          -7.59402337e-03, -1.58756040e-02, -7.98394345e-03,
          -1.11240242e-02, -7.97337294e-03, 7.68098654e-03,
          5.18310163e-03, -1.10148974e-02, -8.15710798e-03,
          -7.27029750e-03, -1.60100441e-02, -1.37017854e-02,
          -1.63519364e-02, -1.52021786e-02, 3.19703110e-03,
          1.18919807e-02, -4.78377845e-03, -9.19490308e-03,
          -8.63508414e-03, -1.17530515e-02, -5.26954047e-03,
          -4.94846515e-03, -5.29184705e-03, 1.26096699e-02,
          4.50576423e-03, -1.03810765e-02, -1.09585123e-02,
          -1.09476037e-02, -8.77086259e-03, -1.01420674e-02,
          -1.25627695e-02, -1.03718471e-02, 7.91943911e-03,
          1.89194805e-03, -9.41182394e-03, -4.85705072e-03,
          -5.70977945e-03, -1.03712920e-02, -7.30839139e-03,
          -1.06616365e-02, -8.78523290e-03, 2.80752755e-03,
          -6.31220522e-04, -7.33219786e-03, -6.80258311e-03,
          -7.19679287e-03, -1.45684220e-02, -4.87140333e-03,
          -4.56929766e-03, -2.20154179e-03, 3.90909147e-03,
          5.02775470e-03, -8.67539737e-03, -7.28486758e-03,
          -8.85552913e-03, -6.49891561e-03, -9.22820065e-03,
          -1.05334101e-02, -7.08154682e-03, 5.86379599e-03,
          7.28188455e-03, -8.67489912e-03, -7.93721341e-03,
          -5.84643381e-03, -2.30167015e-03, -2.36921967e-03,
          -8.64971837e-04, -3.69954109e-03, 6.23995345e-03,
          -1.96322775e-03, -4.53460729e-03, -4.26127389e-03,
          -7.30058597e-03, -1.01205716e-02, -3.04574170e-03,
          -2.98037659e-04, -4.54856956e-04, 7.22087803e-04,
          -4.17159824e-03, -1.04002291e-02, -5.20981802e-03,
          -1.14792790e-02, -1.54178292e-02, -1.07781654e-02,
          -7.59386225e-03, -1.10465828e-02, -1.93586654e-03,
          5.33923088e-03, -6.72671432e-03, -5.39405970e-03,
          -3.14719277e-03, 4.50694840e-03, 1.90678798e-03,
          6.98213466e-04, -1.46029331e-03, 5.92798786e-03,
          -3.86987667e-04, -1.10020014e-02, -8.14402383e-03,
          -1.26235317e-02, -1.66465994e-03, -9.12547670e-03,
          -6.40812563e-03, -7.62246083e-03, 5.75692765e-03,
          -1.68886897e-03, -9.86422040e-03, -5.27698733e-03,
          -9.35849454e-03, -5.30178240e-03, -7.76522001e-03,
          -6.04462298e-03, -6.46853913e-03, 2.02914537e-03,
          -2.31139106e-03, -1.10537428e-02, -7.79015245e-03,
          -1.09250974e-02, -1.55649111e-02, -5.63981710e-03,
          -2.35874392e-03, -7.30266981e-03, -2.09156633e-03,
          1.81920070e-03, -1.07860742e-02, -6.64779730e-03,
          -1.24139627e-02, 1.42963231e-02, -1.09423967e-02,
          -6.65176474e-03, -8.04797560e-03, 6.87315455e-03,
          -7.04992737e-04, -1.21115623e-02, -1.02320779e-02,
          -1.11207208e-02, -7.18277227e-03, -5.73355006e-03,
          -5.44112362e-03, -8.43430310e-03, 1.28459244e-03,
          -6.68455986e-03, -1.17302714e-02, -1.27400644e-02,
          -9.25350748e-03, -1.28114456e-02, -6.01895759e-03,
          -4.85193077e-03, -8.66785552e-03, -5.39142778e-03,
          -5.24075329e-03, -1.27429478e-02, -1.23276785e-02,
          -9.14742425e-03, -1.47782862e-02, -6.56122249e-03,
          -6.11637812e-03, -9.12731048e-03, -3.01494636e-03,
          1.64698029e-03, -1.36479056e-02, -1.53204482e-02,
          -9.59039573e-03, 8.09362518e-06, -4.38585412e-03,
          -5.79953659e-03, -8.68039113e-03, 3.41916503e-03,
          5.54121239e-03, -1.46131758e-02, -1.40632391e-02,
          -1.16160614e-02, -4.60049696e-03, -4.81552817e-03,
          -7.12780468e-03, -1.01591870e-02, 1.02064516e-02,
          -4.18263720e-03, -9.30830743e-03, -6.13871077e-03,
          -9.73656867e-03, -2.27339137e-02, -9.47873015e-03,
          -6.17921213e-03, -8.68189521e-03, -4.08485904e-03,
          -3.01517011e-03, -8.73200316e-03, -5.14080888e-03,
          -1.14769712e-02, -1.86655745e-02, -1.44297238e-02,
          -9.75600816e-03, -1.00467280e-02, -1.40561617e-03,
          1.11245289e-02, -8.85430537e-03, -6.48976536e-03,
          -9.22670588e-03, -1.38237467e-02, -5.51529648e-03,
          -4.97194147e-03, -7.83285405e-03, 1.42224310e-02,
          8.38371646e-03, -5.08666411e-03, -1.16481364e-03,
          -8.31529312e-03, -4.00425866e-03, -9.90224630e-03,
          -6.92193117e-03, -1.16510410e-02, 7.01261219e-03,
          1.59735573e-04, -6.43621013e-03, -3.89700197e-03,
          -6.31418079e-03, -1.85283031e-02, -1.16963172e-02,
          -7.66861485e-03, -9.92954057e-03, 4.39787284e-04,
          2.49052444e-03, -7.75788398e-03, -5.18453261e-03,
          -8.91554821e-03, -2.39627492e-02, -1.53052155e-02,
          -1.05154067e-02, -1.22288391e-02, -2.55810819e-03,
          7.80860242e-03, -6.11604098e-03, -3.28565598e-03,
          -5.65138645e-03, -9.65391472e-03, -6.55371184e-03,
          2.11442052e-03, -2.32108124e-03, 9.92933661e-03,
          2.11066240e-03, -8.04612599e-03, -5.89267444e-03,
          -1.00989100e-02, -1.29220076e-02, -1.61598958e-02,
          -5.24570327e-03, -4.45304113e-03, 5.61140431e-03,
          -3.70130781e-03, -3.74396751e-03, -7.12923612e-03,
          -1.63740590e-02, -1.54362936e-02, -9.44166910e-03,
          -7.77706970e-03, -5.20508923e-03, -7.15215644e-03,
          1.35756818e-05, -2.23653624e-03, -2.99166748e-03,
          -1.25026898e-02, -1.46448081e-02, -8.04113969e-03,
          -5.30568045e-03, -4.68075229e-03, -2.49854731e-03,
          -2.30132951e-03, 5.15130698e-04, 7.55513727e-04,
          -4.24830383e-03, -4.21798509e-03, -1.10969665e-02,
          -4.37816652e-03, -2.06029532e-03, -4.01009060e-03,
          -1.88471505e-03, 2.47283722e-03, 6.00609602e-03,
          -1.70766620e-03, 7.99739826e-03, -6.78925356e-03,
          -8.57173000e-04, 3.25491972e-04, -2.06713611e-03,
          3.89629113e-03, -6.13915268e-04, -2.02868506e-03,
          -1.08137578e-02, -1.82510670e-02, -8.63015000e-03,
          -6.25202339e-03, -3.58946645e-03, 3.67147732e-04,
          8.53114761e-03, 1.22759538e-03, 1.06134510e-03,
          -5.08555258e-03, -1.44968145e-02, -1.24565186e-02,
          -1.01287784e-02, -1.08277155e-02, 3.63022508e-03,
          7.38921296e-03, 3.01896501e-03, 3.51895695e-03,
          -2.40790844e-03, -1.09413788e-02, -5.38087264e-03,
          -9.61693353e-04, 1.71999435e-03, 9.29459371e-03,
          1.28813628e-02, 2.04652548e-03, 3.94710619e-03, 6.21113181e-03,
          2.81615462e-03, -6.23177318e-03, -5.28803049e-03,
          -2.22307653e-03, 1.18901441e-02, 1.05097070e-02,
          8.64826899e-04, -1.64010256e-04, -3.74838128e-03,
          -1.56256538e-02, -1.05720581e-02, -1.05062146e-02,
          -1.02144917e-02, 4.10459470e-03, 1.04051027e-02,
          -4.14554706e-05, 1.76089758e-04, -4.01399191e-03,
          -1.28743080e-02, -9.38843656e-03, -7.98929669e-03,
          -1.06367040e-02, 5.03786607e-03, 1.49818081e-02,
          -1.33144984e-03, 1.84157491e-03, -1.54174725e-03,
          -1.14557510e-02, -7.65557541e-03, -8.82458873e-03,
          -7.27309613e-03, 1.30462702e-02, 1.75723080e-02,
          9.19834303e-04, 2.10635550e-03, -2.25850171e-03,
          -6.35616947e-03, -5.83572127e-03, -9.24320798e-03,
          -8.80832598e-03, 1.24719292e-02, 5.24806092e-03,
          -1.00831804e-03, -3.83789011e-04, -5.91049949e-03,
          -9.66332573e-03, -4.68530692e-03, -6.13536732e-03,
          -6.86422409e-03, 2.40933755e-03, 9.12717893e-04,
          -3.54769663e-03, -4.44177631e-03, -8.67793988e-03,
          -9.45587549e-03, -4.05650499e-04, -3.08846263e-03,
          -3.59618594e-03, 6.27299212e-03, 1.62514132e-02,
          7.87520257e-04, -1.02558709e-03, -3.57274222e-03,
          -6.87703071e-03, -1.33401330e-03, -1.75778137e-03,
          -6.45939121e-03, 1.18314996e-02, 1.09051242e-02,
          -6.51439559e-03, -4.90552187e-03, -4.55926731e-03,
          -1.17677869e-02, 9.89264692e-04, -8.94461875e-04,
          -4.18636017e-03, 1.42972795e-02, 3.80327203e-03,
          -5.85559988e-03, -9.30992421e-03, -7.29743252e-03,
          -1.25171635e-02, -1.98410056e-03, 7.47766288e-04,
          -2.02395092e-03, 1.21841133e-02, 3.35125532e-03,
          -6.29316643e-03, -1.01989955e-02, -8.93111154e-03,
          -1.11153675e-02, -8.47121701e-03, -6.25587068e-03,
          -5.81005402e-03, 9.37852077e-03, 1.39336884e-02,
          -1.03419954e-02, -9.63210035e-03, -6.38865074e-03,
          -8.69367924e-03, -4.15974902e-03, -3.45573737e-03,
          -6.28031034e-04, 1.67977307e-02, 1.31063918e-02,
          -9.86215193e-03, -9.56761837e-03, -6.10087486e-03,
          -1.09514864e-02, -8.21499340e-03, -7.72836898e-03,
          -5.33129787e-03, 1.51802925e-02, 1.92033919e-03,
          -4.09091590e-03, -6.23235432e-03, -4.80977166e-03,
          -3.76651622e-03, -6.39123796e-03, -5.72857074e-03,
          -7.19646085e-03, 2.47619255e-03, 8.07987701e-04,
          -4.72162105e-03, -3.93511914e-03, -7.36197922e-04,
          -3.53363203e-03, -1.95610663e-03, -4.52018389e-03,
          -5.91418473e-03, 2.82386784e-03, 1.29589401e-02,
          -4.92601050e-03, -4.20080358e-03, -6.98289019e-04,
          1.10377185e-03, -4.77202673e-04, -2.88534793e-03,
          -7.11527932e-03, 1.29296677e-02, 6.49775518e-03,
          -3.41251586e-03, -2.46039010e-03, -1.32646970e-03,
          -4.99332976e-03, -4.23347438e-03, -4.25297022e-03,
          -7.69713661e-03, 8.50943103e-03, 1.87367506e-04,
          -6.68382226e-03, -4.18920023e-03, -1.18097023e-03,
          6.45444822e-03, 2.02509202e-03, -1.72589475e-03,
          -4.41601546e-03, 5.00496943e-03, -8.29096604e-03,
          -1.26569374e-02, -8.57118238e-03, -1.08249588e-02,
          1.09445909e-03, -8.65100697e-03, -7.14928890e-03,
          -4.16667713e-03, 1.96833844e-05, 1.16074914e-02,
          -3.98071716e-03, -2.62420531e-03, -2.75786198e-03,
          2.44102348e-03, -5.31350588e-03, -3.52128362e-03,
          -3.25950980e-03, 1.63340513e-02, 1.25543925e-03,
          -9.40025225e-03, -5.19323302e-03, -9.21645202e-03,
          -1.43862399e-03, -5.64212073e-03, -3.63476551e-03,
          -2.75382493e-03, 6.91708317e-03, -6.67280052e-03,
          -1.06859449e-02, -9.15333722e-03, -9.63298045e-03,
          3.44776711e-03, -8.10244307e-03, -5.01256343e-03,
          -7.29086285e-04, -8.49952747e-04, -5.49528608e-03,
          -1.12398230e-02, -9.98431817e-03, -9.15981736e-03,
          -1.54978049e-03, -6.44335849e-03, -7.69130327e-03,
          -6.68627350e-03, -1.37584470e-03, -6.45542226e-04,
          -8.89073405e-03, -7.63015589e-03, -6.15677843e-03,
          4.20035655e-03, -4.53514373e-03, 3.79336323e-03,
          3.02831037e-03, 6.70088967e-03, 3.65652214e-03,
          -1.01014962e-02, -8.36643483e-03, -7.12965615e-03,
          -3.78282508e-03, -3.02392058e-03, -1.51564123e-03,
          -8.75363010e-04, 1.15378499e-02, -3.99868703e-03,
          -1.03441486e-02, -9.68020502e-03, -6.77856058e-03,
          1.98308961e-04, -5.75215183e-03, -7.65023474e-03,
          -8.03816412e-03, 1.34499266e-03, -6.98297331e-03,
          -1.06819589e-02, -8.67329445e-03, -7.93001428e-03,
          -2.09266623e-03, -6.97103934e-03, -7.44373584e-03,
          -8.65430012e-03, -1.03129039e-03, 5.95819810e-03,
          -8.19182582e-03, -7.98201095e-03, -6.64534699e-03,
          -5.16907638e-03, -5.25390450e-03, -8.22610687e-03,
          -6.39904337e-03, 1.13831293e-02, 3.83440778e-03,
          -7.11668981e-03, -6.41584443e-03, -4.38084640e-03,
          -7.22032099e-04, -9.41855740e-03, -4.30433080e-03,
          -4.82879113e-03, 8.21652450e-03, -5.80838695e-03,
          -9.89627931e-03, -7.90577568e-03, -7.60974083e-03,
          -1.06277289e-02, -6.15774421e-03, -5.07105747e-03,
          -8.02330207e-03, 2.44899311e-05, -2.04151496e-03,
          -8.49916693e-03, -4.79815947e-03, -5.55888005e-03,
          -3.85100115e-03, -8.67283437e-03, -4.13417816e-03,
          -7.94605631e-03, 1.28177786e-03, 7.15622352e-03,
          -6.89007947e-03, -5.02558285e-03, -3.99108231e-03,
          -1.88666352e-04, -4.19209711e-03, 3.91024770e-03,
          -6.30680530e-04, 9.84954648e-03, 3.39455088e-03,
          -6.77941926e-03, -8.83754808e-04, 1.48223678e-03,
          -3.47069843e-04, -3.91217973e-03, -1.42828433e-03,
          -1.93149876e-03, 3.78957251e-03, -7.42223766e-03,
          -7.97246862e-03, -5.73595334e-03, -3.93775152e-03,
          -5.32884616e-03, -5.60117187e-03, -2.75326148e-03,
          -5.34054590e-03, -3.74492840e-03, -1.01284487e-02,
          -9.89953522e-03, -9.32264514e-03, -9.78803355e-03,
          -1.12344315e-02, -1.07902810e-02, -5.34439972e-03,
          -7.12801516e-03, -9.36597306e-03, 3.76588805e-03,
          -3.04028299e-03, -1.58255268e-03, -1.48972252e-03,
          1.03539666e-02, -5.06020267e-04, 2.87937059e-04,
          -1.78410264e-03, 3.27084190e-03, 3.42411222e-03,
          -1.12928159e-04, -4.75706253e-03, -1.13797486e-02,
          2.44223792e-03, 5.39215282e-04, 4.65617375e-03,
          -1.50827793e-04, -2.26048543e-03, -6.76775491e-03,
          -3.48173175e-03, -4.18542157e-04, -3.12249246e-03,
          -8.15107673e-03, -1.01157008e-02, -6.60201674e-03,
          -4.21337783e-03, -6.92853658e-03, -4.21132287e-03,
          -5.10680629e-03, -8.44643218e-04, 1.45798828e-03,
          5.65769756e-03, -5.53390849e-03, -3.71257868e-03,
          -4.22279304e-03, -4.31260234e-03, -9.15183220e-03,
          -5.96010638e-03, -3.75693571e-03, -3.77237354e-03,
          -2.18602200e-03, -8.56182072e-03, -7.35409884e-03,
          -5.90237603e-03, -7.10165827e-03, -6.75605005e-03,
          -7.50481430e-03, -5.39978687e-03, -7.43236626e-04,
          5.17955841e-03, -1.38622301e-03, -6.65977364e-03,
          -5.37672173e-03, -5.64309815e-03, -4.97592904e-04,
          -4.94693697e-04, -4.70726751e-04, -1.11828453e-03,
          -7.34143518e-03, -1.74178707e-03, -2.43290653e-03,
          -1.13260571e-03, 7.80255301e-04, -1.64254196e-03,
          -2.94569763e-03, -6.81362406e-04, 4.50941222e-03,
          -6.25418779e-03, -3.50074912e-03, -5.34258457e-03,
          -2.87378952e-03, -3.14572430e-03, -2.09178380e-03,
          -4.72462270e-03, -2.50322919e-04, -9.74766503e-04,
          -5.68948686e-03, -1.97028538e-04, -6.27395883e-03,
          -4.57639527e-03, -1.42373471e-03, -2.17126403e-03,
          -2.30477168e-03, 5.46824932e-03, 9.05758049e-03,
          6.17702201e-04, -1.27559283e-03, -6.40384108e-03,
          -6.14537112e-03, -3.42242722e-03, -5.66083472e-04,
          -2.96020950e-03, -5.40867331e-04, 1.94713054e-03,
          -5.17047988e-03, 1.23420777e-03, -4.51773033e-03,
          -5.00220852e-03, -2.23281397e-03, 5.88426553e-03,
          -8.62673100e-04, -1.68441003e-03, -5.79775253e-04,
          -3.17539042e-03, -2.62270449e-03, -7.95338955e-03,
          -3.35122971e-03, 4.43725893e-03, -1.74615369e-03,
          -7.72195752e-04, 1.56919542e-03, 4.40985197e-03,
          1.26741768e-03, 3.51273012e-03, -4.76153800e-03,
          -4.66404390e-03, -1.78473105e-03, 7.16335606e-03,
          9.31951159e-04, -1.96681521e-03, 3.89396143e-03,
          1.24586967e-03, 9.35071555e-04, -6.54762750e-03,
          -1.89392723e-03, 9.20627266e-03, 4.79472941e-03,
          -1.35076232e-03, -5.69387712e-03, -4.35325457e-03,
          -2.82747578e-03, 2.29440699e-03, -5.53254504e-03,
          -4.97686584e-03, 4.38236725e-03, 4.00054501e-03,
          -5.78629412e-03, -4.47529647e-03, -7.05727900e-04,
          -7.06044631e-03, 2.50597252e-03, -7.22884480e-03,
          -6.41876087e-03, 6.49575656e-03, 8.43229610e-03,
          -7.20750715e-04, -6.19153492e-03, -3.43584991e-03,
          -5.78179071e-03, 2.98601156e-03, -5.86320926e-03,
          1.16679748e-03, 1.26418993e-02, 7.14368513e-03,
          -3.51321814e-03, -8.02374817e-03, -4.17246856e-03,
          -7.80089200e-03, 5.87570248e-03, -4.32440778e-03,
          -2.17237556e-03, 1.20275356e-02, 3.18917702e-03,
          -7.94234965e-03, -5.05642407e-03, -3.54927918e-03,
          -2.86641438e-03, -2.44709780e-03, -6.26117922e-03,
          -1.67432649e-03, 9.34608560e-03, 3.16405459e-03,
          -5.46547724e-03, -1.20528578e-03, -5.81000349e-04,
          -7.28785899e-03, -6.35491963e-03, -2.88283615e-03,
          -4.46102087e-04, 8.08392465e-03, 6.36740820e-03,
          -6.83709048e-03, -6.74214587e-03, -2.91094603e-03,
          -6.18174905e-04, 2.21615913e-03, -9.49912821e-04,
          1.87222357e-03, 1.46164028e-02, 5.63337654e-03,
          -2.92394287e-03, -3.22109857e-03, -4.26408165e-04,
          -5.17286593e-03, -4.61184746e-03, -1.76828558e-04,
          6.58650976e-03, 1.31772067e-02, 2.34135916e-03,
          -3.13351024e-03, 3.99801444e-04, 1.48623367e-03,
          -2.71203532e-03, 2.63932219e-04, 2.39617933e-04,
          -7.61398813e-04, 4.71651973e-03, 1.51679048e-03,
          -3.30313225e-03, -1.47081737e-03, -2.12669279e-03,
          -1.04865022e-02, -3.06783058e-03, -1.12092716e-03,
          -1.97601388e-03, 1.70691463e-03, 4.89072548e-03,
          -5.29473531e-04, 8.86249356e-04, 3.49645782e-03,
          -1.32476166e-03, 1.81574770e-03, 5.92190353e-03,
          9.10625886e-03, 9.20438953e-03, 9.54012969e-04,
          -4.63376939e-03, -2.48191878e-03, -3.09992069e-03,
          -9.17834230e-03, -7.03754893e-04, 4.11713822e-03,
          4.89371503e-03, 4.21834877e-03, 6.74431212e-03,
          -2.95124762e-03, -1.02829607e-03, -1.65840948e-03,
          -4.08507790e-03, -5.18673519e-03, 1.74865636e-04,
          3.25206842e-04, 8.19885358e-03, 2.52832868e-03,
          -5.19483257e-03, -3.30003724e-03, -5.12019731e-03,
          -8.28869641e-03, -2.96381698e-03, 1.06560066e-03,
          2.73181242e-04, 4.04142635e-03, 6.93506701e-03,
          -3.68829118e-03, -4.40400653e-03, -4.36169328e-03,
          6.06928312e-04, 3.89939011e-03, 1.00877853e-02, 8.80631804e-03,
          7.91600533e-03, 2.21738053e-04, -7.44047947e-03,
          -8.13725870e-03, -8.40100460e-03, -8.90854374e-03,
          -3.52772907e-03, -1.71026652e-04, 6.05457055e-04,
          2.20374973e-03, -2.62244372e-03, -6.80995174e-03,
          -5.80341741e-03, -5.19475760e-03, -7.78260687e-03,
          -3.31930025e-03, 2.10432947e-04, -7.17256335e-04,
          3.78119852e-03, -2.06008810e-03, -7.50921620e-03,
          -4.30659158e-03, -3.96235799e-03, -8.68089404e-03,
          -3.94440518e-04, -1.10687490e-03, -5.47239650e-03,
          4.43975814e-03, 4.31870995e-03, -6.10018102e-03,
          -8.06968100e-03, -9.05557070e-03, 3.32972081e-03,
          -2.99369567e-03, 3.54789570e-03, 2.53972597e-03,
          4.77030734e-03, 1.64473173e-03, -4.45149094e-03,
          -5.68766892e-03, -5.61033282e-03, -8.32743756e-03,
          -2.22382066e-03, -1.53633463e-03, -6.00467529e-03,
          -8.76207312e-04, 1.70953711e-03, -7.43798492e-03,
          -5.11869276e-03, -2.36889976e-03, -1.04341134e-02,
          -6.89820852e-04, -4.18904470e-03, -6.60321442e-03,
          8.25075898e-03, 9.80330864e-04, -5.76373655e-03,
          -4.57292562e-03, -1.93379156e-03, -5.43245487e-03,
          -4.99660755e-03, -1.98388309e-03, -5.82309579e-03,
          5.46529982e-03, -3.64167476e-03, -5.95891010e-03,
          -3.93618736e-03, -1.28844485e-03, -3.38118547e-03,
          -2.11934536e-03, -4.48160339e-03, -7.31922826e-03,
          1.21419826e-05, 6.57439465e-04, -8.99704080e-03,
          -4.79600159e-03, -3.77169508e-03, -1.40833680e-03,
          -3.15208407e-03, -3.50719667e-03, -9.22339782e-03,
          1.29629567e-03, 8.40043183e-04, -3.50964093e-03,
          -2.45912559e-03, -4.56905412e-03, -7.79871643e-03,
          -1.98444328e-03, 1.10505184e-03, -2.92101176e-03,
          3.17634386e-03, -1.37187575e-03, -4.23457334e-03,
          -1.97215355e-04, -2.93709774e-04, 1.88078452e-03,
          -2.67242105e-03, -2.16892036e-03, -3.04994127e-03,
          -2.66970089e-03, 3.11041414e-03, -5.93991438e-03,
          -2.49230745e-03, -5.75408107e-03, -1.20018423e-02,
          -2.12526554e-03, 6.99979137e-06, -5.55463042e-03,
          2.00305926e-03, 7.79514492e-04, -7.62859127e-04,
          -1.19237578e-03, -5.29655081e-04, 7.90958386e-03,
          -1.42932462e-03, -3.33871430e-04, -2.28911894e-03,
          -2.17094296e-03, -4.82164323e-03, -2.06037099e-03,
          -5.97402570e-04, -8.06397584e-04, 1.09705504e-03,
          3.27776652e-04, 7.67772261e-04, -2.23363959e-03,
          -5.68998093e-03, -5.01679257e-03, -2.57040211e-03,
          -3.93105671e-03, -1.06919976e-02, 1.30043598e-03,
          5.15113864e-03, 3.99208022e-03, -1.16050954e-03,
          -6.87793083e-03, -2.31651939e-03, 1.83318392e-03,
          8.01145565e-04, 3.58613301e-03, 1.30099282e-02,
          -6.97704265e-04, 3.66981956e-03, 4.05564206e-03,
          -3.47080943e-03, -5.91632025e-03, -3.42470035e-03,
          -4.03778907e-03, -8.71381816e-03, 7.22536060e-04,
          4.10728389e-03, 9.39582195e-03, 4.35321406e-03,
          -1.33557152e-03, -7.92092364e-03, -6.21184241e-03,
          -2.17406941e-03, 2.69778818e-03, 1.86357554e-03,
          -7.06703262e-03, -6.35157991e-03, -5.62950131e-03,
          -7.90354609e-03, -8.82751495e-03, -6.43225620e-03,
          -3.69780767e-03, 1.23128574e-03, 3.34850955e-03,
          2.69566220e-03, -6.08937163e-03, -5.04522957e-03,
          -8.77204817e-03, -1.01312138e-02, -9.96833481e-03,
          -5.05290506e-03, 1.52742537e-03, 2.18595262e-03,
          -6.60822354e-03, -9.90501232e-03, -9.51798446e-03,
          -1.25196511e-02, -4.08898061e-03, -5.92701929e-03,
          -3.90645070e-03, -1.47197500e-03, 1.60910506e-02,
          2.52442411e-03, -5.28624514e-03, -7.63420016e-03,
          -6.86174259e-03, -4.34666499e-03, -4.32693865e-03,
          -1.71092665e-03, -5.40776644e-04, -1.25607080e-03,
          1.97972544e-03, -4.44157142e-03, -5.05498564e-03,
          -3.66245233e-03, -1.97714195e-03, -3.99254495e-03,
          6.30802766e-04, 5.85556356e-03, 5.94496913e-03, 7.67258811e-04,
          -5.32263983e-03, -7.42151216e-03, -4.76469658e-03,
          -1.18358259e-03, -2.22044066e-03, -5.65661211e-03,
          -2.09553121e-03, 1.55874016e-03, 3.30223422e-03,
          -1.46161974e-03, -5.77106047e-03, -3.17985960e-03,
          2.86120921e-03, -8.27086857e-04, -2.16936297e-03,
          -7.76756438e-04, 6.92377239e-03, 7.03646988e-03,
          -2.84078019e-03, -5.23353973e-03, -7.49229570e-04,
          -6.22450607e-03, -3.89191159e-03, 4.97603942e-05,
          3.01218242e-03, 3.66692315e-03, 2.85716355e-03,
          -4.00997652e-03, -5.00153285e-03, -4.92594298e-03,
          6.68770808e-04, -2.90362933e-03, -1.94843428e-03,
          3.39469174e-03, 2.65970267e-03, 8.11420556e-04,
          -4.41941014e-03, -3.79196578e-03, 2.20550830e-03,
          -6.85608014e-04, -3.12915933e-03, -1.28569792e-03,
          3.70720006e-03, 3.16234096e-03, 4.04302031e-03, 4.01937083e-04,
          -8.11923936e-04, -1.42071163e-03, 3.41571402e-03,
          -3.87687143e-03, -2.72619561e-03, 5.19919163e-03,
          3.88338231e-03, 2.16513546e-03, -1.37717719e-03,
          -1.61790161e-03, 4.61176271e-03, 4.24589682e-03,
          -8.61701148e-04, -3.71671910e-03, -6.24216627e-04,
          2.74358841e-04, 1.88806152e-04, -5.00532379e-03,
          -8.21569993e-04, 9.61300917e-03, 4.98586707e-03,
          -4.07547178e-03, -9.44319740e-03, -4.14987653e-03,
          -3.58949974e-03, 5.11220424e-03, -3.24078673e-03,
          -1.74870808e-03, 9.68336966e-03, 2.79716379e-03,
          -5.46332495e-03, -4.26970888e-03, 1.46708975e-03,
          3.35409096e-03, 1.28355308e-03, -3.57378623e-03,
          -2.18127112e-04, 6.49232324e-03, -2.31855595e-03,
          -8.22548848e-03, -7.69135449e-03, -6.02084212e-04,
          -3.98451276e-03, -5.10683050e-04, -2.36832211e-03,
          -2.09005247e-03, 2.52820575e-03, 4.19061258e-03,
          -7.45454198e-03, -7.37668807e-03, -1.48760490e-04,
          1.90881023e-03, 6.63393410e-03, -1.37333595e-03,
          -1.45854335e-03, 1.07529433e-02, 4.58897185e-03,
          -4.00854880e-03, -3.29571217e-03, 8.42708803e-04,
          -2.84685334e-03, -2.81797023e-03, -1.55986857e-03,
          5.51269995e-03, 1.15101812e-02, -4.38055908e-03,
          -5.08881640e-03, -5.33645926e-03, -3.66009830e-04,
          3.11694806e-03, 3.70498584e-03, -1.14948233e-03,
          -2.59850919e-03, 1.23984227e-03, -2.98109394e-03,
          6.71169779e-04, -2.86729005e-03, 1.05999142e-03,
          -2.75181467e-03, -3.58372205e-03, -1.14412967e-03,
          -2.92755081e-04, 1.52819313e-03, 2.64045480e-03,
          -2.25101621e-03, 1.27400461e-04, 2.98366603e-03,
          2.17536860e-03, 3.22173769e-03, 2.95595638e-03, 5.55123854e-03,
          8.19230825e-03, 2.21198006e-03, -4.08217590e-03,
          -3.36635765e-03, 5.36185107e-04, -4.31419117e-03,
          5.58575708e-03, 5.79545647e-03, 2.55195145e-03, 4.76181973e-03,
          -1.23391766e-03, -2.64923747e-05, -3.27167887e-04,
          3.67978215e-03, 1.09466224e-03, 7.12963694e-04,
          -2.94974336e-04, 1.55499333e-03, 1.56599889e-03,
          -5.23472903e-03, -1.00309274e-03, 2.58196285e-03,
          4.38613538e-03, 1.13837083e-03, 5.84317325e-03,
          -1.11808802e-03, 7.94016523e-04, -1.25587452e-03,
          6.03399612e-03, -1.35389064e-03, -3.23230098e-03,
          5.92859637e-04, 4.49581770e-03, 8.30339175e-03, 1.05821872e-02,
          7.19920360e-03, 7.94888474e-03, 7.82140996e-04,
          -8.87354463e-03, -8.45281594e-03, -6.52642595e-03,
          -3.08949477e-03, 9.42279643e-04, 2.71192216e-03,
          7.08330190e-04, 2.09505204e-03, 2.74392986e-03, 2.36615399e-03,
          3.27041652e-03, 3.75071564e-03, 1.39618968e-03, 3.55836260e-03,
          3.57719604e-03, 4.22440562e-03, 6.14816742e-03,
          -5.22216642e-03, -8.00988264e-03, -4.63729212e-03,
          -3.31250182e-03, -6.36257138e-03, -2.10736063e-03,
          -1.26497366e-03, -2.19304673e-03, -9.93306967e-05,
          1.21690135e-03, -8.03219527e-03, -9.25289560e-03,
          -7.25395605e-03, -6.33599842e-03, -1.36189407e-03,
          -7.62772281e-04, -3.51444306e-03, 1.84090494e-03,
          -1.89847744e-03, -4.35431115e-03, -4.54367558e-03,
          -6.48381247e-04, -2.26167100e-03, 4.87190991e-04,
          -5.06723067e-03, -8.32562335e-03, -4.22267430e-03,
          2.07779958e-04, -8.07153992e-03, -5.98651264e-03,
          -3.95546015e-03, -6.68954663e-03, -4.15687682e-03,
          -2.27339682e-03, -3.90338851e-03, 4.97168116e-03,
          1.06367411e-03, -5.41192200e-03, -2.48625898e-03,
          -1.69822888e-03, -8.40737717e-04, -1.14625657e-03,
          -3.44041648e-04, -4.91282204e-03, 7.41249998e-04,
          -4.58665611e-03, -4.28644754e-03, -2.63634278e-03,
          2.73789186e-03, -3.04850866e-03, 1.77049276e-03,
          -4.98322258e-03, -8.84495117e-03, -4.25873464e-03,
          -1.84019061e-03, -9.29434597e-03, -5.12087066e-03,
          -3.63369356e-03, -8.60860012e-03, -1.63066247e-03,
          -2.80625978e-03, -8.77141766e-03, -9.11316951e-04,
          7.55428290e-03, -5.22568543e-03, -3.46168596e-03,
          -1.77670663e-04, -3.70981987e-03, -6.32124895e-04,
          -3.24966339e-03, -4.73469868e-03, 6.51675975e-03,
          1.42704826e-02, -3.81014845e-03, -1.67717470e-03,
          -1.27139690e-04, -9.71396733e-03, -6.76208921e-03,
          -4.77414764e-03, -6.85150269e-03, 1.17304381e-02,
          -4.88161342e-04, -5.64392144e-03, -2.79811420e-03,
          -4.80278023e-03, -6.78128330e-03, -9.50057758e-04,
          -2.91232043e-03, -7.98077788e-03, -1.46178808e-03,
          -6.55803538e-04, 3.30327312e-04, -2.04290845e-03,
          2.69149983e-04, 1.72421546e-03, -5.88287693e-03,
          -1.10365730e-03, -3.21069034e-03, -3.16101103e-03,
          1.33029856e-02, -4.40986594e-03, -6.00505853e-04,
          2.55433214e-03, -1.39077492e-02, -4.40405821e-03,
          -8.38650297e-03, -7.13940337e-03, 9.23383888e-03,
          1.06902877e-02, -1.70618144e-03, 2.35677604e-03,
          3.15805478e-03, 7.03631842e-04, -1.04037318e-02,
          -5.89646539e-03, -7.30049843e-03, 7.91178737e-03,
          -1.99874910e-03, 1.81292836e-03, 1.14741328e-03,
          1.86746311e-03, 7.80302100e-03, -6.67690812e-03,
          -1.35226210e-03, -1.63417688e-04, -4.10644012e-03,
          -7.46463006e-03, -3.49391019e-03, -5.22064278e-03,
          -5.64693846e-03, 2.38457974e-03, 1.89677428e-03,
          2.46883207e-03, 1.06922735e-03, -6.00023707e-03,
          4.16318234e-03, -4.93927160e-04, -9.43362364e-04,
          -1.72070367e-03, 1.01198573e-02, -9.08454601e-03,
          -2.38299556e-03, -3.73696326e-03, 4.34006099e-03,
          2.34341039e-03, -3.91709292e-03, -8.71425308e-03,
          -6.08395599e-03, 1.50823325e-03, -4.03513573e-03,
          -6.67822256e-04, -4.49936342e-04, 2.33138329e-03,
          -1.08180372e-02, -1.01297861e-02, -8.74414761e-03,
          -1.24528620e-03, 5.74182603e-04, -1.25128147e-03,
          -1.00472067e-02, -1.01171341e-02, -1.04610957e-02,
          -4.84493701e-03, -7.14494428e-03, -3.71065433e-03,
          2.74164113e-03, 1.25692384e-02, 3.49029596e-03,
          -4.05200897e-03, -8.03629309e-03, -6.03229506e-03,
          -9.58083943e-03, -8.36838409e-03, -7.24851433e-03,
          -2.93517648e-03, -1.02536440e-04, 2.83317495e-04,
          -9.53962468e-03, -7.43198674e-03, -8.20055418e-03,
          -5.50343096e-03, -4.67770966e-03, 9.81095480e-04,
          4.55866102e-03, 1.34159522e-02, 4.41409182e-03,
          -6.50798855e-03, -6.19122293e-03, -3.14846262e-03,
          -1.51817885e-03, -2.05146614e-03, -5.43293869e-03,
          -3.71167116e-04, -4.70998493e-05, 4.65911999e-03,
          -9.56791482e-05, -5.47199743e-03, -1.93581753e-03,
          7.96016189e-04, -5.83341425e-05, -4.30601509e-03,
          -3.66210053e-03, 2.10418273e-03, 7.40994792e-03,
          -2.06394377e-03, -3.21441074e-03, 3.12031130e-03,
          -2.86672823e-03, -1.92969746e-03, -1.58604921e-03,
          1.57888781e-03, -6.10902440e-04, 3.30019137e-03,
          -3.39843892e-03, -5.47123514e-03, -3.63746774e-03,
          -5.49359526e-03, -2.41503073e-03, -4.37697629e-03,
          -4.68742102e-03, 1.02846033e-03, 7.38877151e-03,
          -3.53756663e-03, -6.76602498e-03, -8.24217685e-03,
          -4.37510258e-04, -1.98570942e-03, -3.10013955e-03,
          6.18807797e-04, 2.99311150e-03, 5.55458385e-03, 2.34485371e-03,
          1.70730837e-05, 2.35642493e-03, -1.66185360e-04,
          -3.56744044e-03, -3.32790264e-03, 3.46085639e-03,
          3.94487660e-03, 3.15964920e-03, 2.88379611e-03, 2.85602873e-03,
          2.88728136e-03, -8.32894538e-03, -1.40145153e-03,
          -3.44410818e-03, 8.08833065e-05, -1.13803406e-04,
          9.86628700e-03, 3.38866725e-03, -1.81703456e-03,
          -6.84107002e-03, -1.42113930e-02, -4.46538208e-03,
          -4.67011845e-03, 3.70980543e-03, 4.47238982e-03,
          9.14774835e-03, 7.20539130e-03, 1.92718254e-03,
          -7.36885285e-03, 7.16397539e-04, -4.12960676e-03,
          -4.24169609e-03, 1.83766417e-03, 3.22196656e-03,
          2.58891424e-03, 2.59310752e-03, 1.93325547e-03, 4.85251425e-03,
          9.92958667e-05, -5.26191620e-03, -3.21019720e-03,
          9.42951447e-05, -6.57471246e-04, 2.60411738e-03,
          -2.34065019e-03, 5.75085287e-04, 5.79521852e-03,
          -1.19318962e-02, -5.37465978e-03, -3.28961364e-03,
          7.81599898e-03, 6.92230696e-03, 7.20595801e-03, 2.20249570e-03,
          1.01787655e-03, -8.45028739e-03, -2.88429949e-03,
          -4.39129118e-03, 1.53322401e-03, 6.90850802e-03,
          3.17004556e-03, 7.01444596e-03, -1.52124930e-03,
          2.58646469e-04, 1.75986788e-03, -2.51727179e-03,
          -1.68480817e-03, 1.81352254e-03, 3.64291598e-03,
          4.26848466e-03, 2.28941208e-03, -3.68504785e-03,
          2.82955443e-04, 1.25359069e-03, -2.47419230e-03,
          2.84045353e-04, -2.49242410e-04, 4.64880187e-03,
          1.86486825e-04, -1.19959482e-03, -2.21070112e-03,
          1.73717446e-04, 1.28360302e-03, -1.71711668e-03,
          -4.34444053e-03, 2.30007851e-03, 7.10808253e-03,
          6.50232611e-03, 4.69906814e-03, -2.31002620e-03,
          8.77907209e-04, 6.70228270e-04, -3.84305418e-03,
          -6.01456873e-03, -3.24989948e-03, 2.98845512e-03,
          -5.17901644e-05, 2.68742209e-03, -1.44552439e-03,
          -1.38166768e-03, -3.93615104e-03, -3.82413855e-04,
          -1.06351729e-03, 2.89596093e-04, 5.54675050e-03,
          5.48854703e-03, 2.94422871e-03, -3.85343359e-04,
          -6.59597223e-04, 3.41355731e-03, -2.21982598e-03,
          -1.62751196e-04, 2.56551127e-03, 5.64022642e-03,
          8.20963411e-04, 2.77637225e-03, -7.39344396e-04,
          -1.63325190e-03, 1.99300377e-03, -4.26639756e-03,
          -4.52870037e-03, -1.84475514e-03, 5.91983553e-03,
          6.07798528e-03, 1.02734668e-02, 2.12450768e-03,
          -1.44202251e-03, -6.19996339e-04, -1.21996622e-03,
          1.07694825e-04, 1.22030929e-03, 4.89375135e-03, 9.61991900e-05,
          4.79286676e-03, -9.08574788e-04, -3.64258327e-03,
          -1.83423690e-03, 3.10595939e-03, 2.54168874e-03,
          3.33314925e-03, 1.87806017e-03, 3.78221332e-04, 2.08583358e-03,
          1.41212798e-03, 7.24337937e-04, 9.10380296e-03,
          -4.73858276e-03, -6.55595586e-03, -1.23666995e-03,
          -2.37141177e-03, -7.69758318e-03, -3.39304470e-03,
          -2.63466267e-03, -2.66725500e-03, 2.67360918e-03,
          7.33753620e-03, 4.57016518e-03, 5.05014975e-03, 1.27391831e-03,
          -6.46892659e-05, 5.86329959e-03, 3.36109125e-03,
          2.02619776e-04, 5.47198765e-03, 3.35745374e-03,
          -2.72927689e-03, -4.28528932e-04, -5.28526725e-03,
          -6.14905870e-03, -2.73669627e-03, -1.01644301e-03,
          -3.08746938e-03, 5.29637793e-04, -5.25569264e-03,
          -5.52650588e-03, -3.73226311e-03, -2.08271365e-03,
          -1.03208311e-02, -4.61734179e-03, -3.85104306e-03,
          -3.93321179e-03, 2.74672144e-04, 9.52569535e-04,
          -5.20907296e-03, -4.06731665e-03, -9.15394106e-04,
          -4.54430468e-03, -5.01040522e-05, -4.93313186e-04,
          -1.71550398e-03, 2.98427697e-03, 2.91333208e-03,
          -5.05841523e-03, -2.14084028e-03, -3.04809283e-03,
          -6.56250026e-03, -4.27974621e-03, -7.41354830e-04,
          -1.90471811e-03, -1.68931112e-03, 3.65431281e-03,
          -2.93293945e-03, -3.48789152e-03, 1.18797948e-03,
          -2.85950187e-03, -8.16439104e-04, -1.05261523e-03,
          -3.52492818e-04, 3.15964641e-03, 6.19290676e-03,
          -6.15963992e-03, -4.07891348e-03, -1.45179511e-03,
          -7.68007198e-03, -4.52147191e-03, -4.14629327e-03,
          -2.26216135e-03, 6.53388817e-03, 7.13582011e-03,
          -2.73550535e-03, -1.18186860e-03, 1.64100353e-03,
          -8.89865123e-03, -6.44307351e-03, -7.30728917e-03,
          -5.44458861e-03, 5.80619369e-03, 1.51489186e-03,
          -2.93192803e-03, -5.04029356e-03, 3.40134325e-03,
          -4.94234264e-03, -3.61928111e-03, -5.52117638e-03,
          -3.30228731e-03, 2.49631447e-03, 4.99241846e-03,
          1.89635099e-03, -6.26554072e-04, 1.76078314e-03,
          -8.44583288e-03, -2.63963430e-03, -5.58487279e-03,
          -2.51045427e-03, 7.95065891e-03, 7.38332141e-03,
          1.17194213e-05, 4.21000412e-03, 3.63637926e-03,
          -1.17993094e-02, -7.92182889e-03, -9.99278203e-03,
          -9.29882657e-03, 4.08943184e-03, 2.59102415e-03,
          -1.70669553e-03, 4.37103678e-03, 2.99616228e-03,
          -5.22411661e-03, -1.06451865e-02, -6.50311960e-03,
          -9.49687697e-03, 2.39047245e-03, 9.49869398e-03,
          2.74422928e-03, 3.95158911e-03, 1.43871014e-03,
          -1.54405292e-02, -4.70560510e-03, -8.23221728e-03,
          -5.26781054e-03, 6.35977602e-03, 5.42174792e-03,
          -2.44327961e-03, -8.77637416e-04, -1.88346126e-03,
          -9.00393911e-03, -5.90934185e-03, -7.28606293e-03,
          -5.82735892e-03, 9.32224444e-04, 2.81940238e-03,
          -1.68380048e-03, -3.01503867e-04, 1.54287845e-03,
          5.84014785e-03, -8.77480861e-03, -3.02022696e-03,
          -2.78443354e-03, 6.28841668e-03, -2.97679240e-03,
          -5.50231477e-03, -8.79090372e-03, -5.65308100e-03,
          -5.22304187e-03, -4.02471982e-03, -1.99726131e-03,
          -6.53679250e-04, 3.67729599e-03, 2.82405806e-03,
          -5.83727146e-03, -4.05327044e-03, -4.66011139e-03,
          -7.88136851e-03, -1.66978699e-03, -4.59583389e-04,
          -6.64485560e-04, 1.95552898e-03, -6.19670190e-03,
          -1.02119436e-02, -6.91173738e-03, -7.29193352e-03,
          -3.71850957e-03, 3.65041173e-03, -1.66457728e-03,
          -5.99781051e-04, -1.58987881e-03, -9.58152767e-03,
          -6.33673090e-03, -4.84271161e-03, -3.30169220e-03,
          4.33516363e-03, 2.82881758e-03, -6.10312494e-03,
          -5.98120783e-03, -8.64202436e-03, -7.57149840e-03,
          -4.99410322e-03, -3.35484766e-03, 1.84673350e-03,
          1.64972767e-02, 1.52604049e-03, -7.60588609e-03,
          -6.88134227e-03, -3.24116298e-03, -1.55288475e-02,
          -9.01034009e-03, -8.59013945e-03, -6.62324205e-03,
          2.67024967e-03, 4.55849105e-03, -3.06743127e-03,
          -6.58345688e-03, -1.52828526e-02, -1.40179479e-02,
          -1.08197555e-02, -1.08887311e-02, -1.65735697e-03,
          2.21702009e-02, 4.62984666e-03, -1.11578982e-02,
          -1.25036491e-02, -1.14799049e-02, -2.17699283e-03,
          -4.46780730e-04, 1.30135653e-04, 4.79454268e-03,
          7.12599186e-03, 7.88358506e-03, -4.65754187e-03,
          -5.81110874e-03, -2.37102993e-03, -4.00768127e-03,
          -9.59624420e-04, -2.37348047e-03, 4.98961948e-04,
          6.01838203e-03, 1.39204403e-02, -2.61466065e-03,
          -5.05329715e-03, -5.65801328e-03, -9.68505349e-03,
          -7.89001957e-03, -5.60417445e-03, 1.12636422e-03,
          6.56129047e-03, 9.65836365e-03, -4.74313740e-03,
          -7.08454987e-03, -1.14053711e-02, -7.70721911e-03,
          -3.46718612e-03, -6.44009968e-04, 3.29404697e-03,
          3.39818187e-03, 3.96338059e-03, -4.76585887e-03,
          -5.18304622e-03, -8.97151418e-03, -8.79887305e-03,
          -1.07909364e-04, -1.91557233e-03, 3.58113390e-03,
          2.53711059e-03, 1.37219671e-02, 5.04484354e-03,
          -2.21157190e-03, -6.11131731e-03, -7.12012546e-03,
          -2.12822948e-03, -3.19331395e-03, 4.52459417e-03,
          8.08602758e-03, 1.31897246e-02, 9.27650742e-03, 3.88234667e-03,
          -2.48800078e-03, -1.04404893e-02, -2.84627173e-03,
          1.42177462e-03, 5.26106916e-03, 2.30538053e-03, 3.95196211e-03,
          -9.95899667e-04, -2.75514973e-03, -1.04688704e-02,
          -6.03932235e-03, -1.05355561e-04, 1.23097084e-03,
          8.66970513e-03, 4.42186045e-03, 7.76865799e-03, 1.11185443e-02,
          5.18407486e-03, -9.34143260e-04, -5.55503415e-03,
          -4.64513153e-03, -2.98384833e-03, 5.55095961e-03,
          7.44072860e-03, 6.36160467e-03, 1.19356392e-03,
          -1.22861494e-03, -4.51444881e-03, -2.96573737e-03,
          -3.77414119e-03, 2.54210643e-03, 1.02629075e-02,
          1.59385800e-03, 2.24337820e-03, -3.93695338e-03,
          -2.58320966e-03, -1.71045278e-04, -4.55059344e-03,
          -2.20100791e-03, -2.80098664e-03, 7.73941725e-03,
          6.49135001e-03, 5.65073406e-03, 9.56532953e-04,
          -2.82295677e-03, -4.66649141e-03, -1.40356913e-03,
          -3.05265607e-03, -4.35040332e-03, 7.71875633e-03,
          -1.00212754e-03, 1.53514891e-04, -6.39740610e-03,
          -7.30748009e-03, -3.30175925e-03, -1.51044514e-04,
          -2.81398208e-03, -3.88865883e-04, 8.36210884e-03,
          4.27073333e-03, 3.23060621e-03, -3.66353150e-03,
          -1.41100469e-03, 1.43647904e-03, -6.19034923e-04,
          -4.31415206e-03, -5.15571889e-03, -2.59753526e-03,
          -6.11674623e-04, 3.97097226e-03, -3.45846592e-03,
          -1.62535894e-03, 5.13297331e-04, 4.45897924e-03,
          -6.73070826e-05, -5.81630459e-03, 5.29905921e-03,
          4.39078518e-04, -3.03973770e-03, -8.00823886e-03,
          -6.48041209e-03, 1.77296204e-03, 7.29970727e-03,
          1.20197434e-03, -3.25084804e-03, -7.58212351e-04,
          -2.98918365e-03, -4.81528137e-03, -8.65305867e-03,
          -4.80879704e-03, 2.86212540e-03, -1.75737590e-03,
          -3.29665723e-03, -3.16661294e-03, 7.22592697e-04,
          5.33360103e-03, 8.58279690e-03, -2.06034584e-03,
          -2.73758429e-03, -8.30291014e-04, 2.82123394e-04,
          -1.15216873e-03, 2.55216053e-03, 3.11177224e-03,
          -3.57419299e-03, 2.27620592e-03, -1.86676777e-03,
          -3.84137966e-03, -1.76639715e-03, 3.79574229e-03,
          1.64058479e-03, 1.53642963e-03, 4.89533879e-03, 3.41557874e-03,
          2.00432958e-03, -6.10895036e-03, -6.44791685e-03,
          4.91486921e-04, -5.28711942e-04, -4.07495711e-04,
          4.76103788e-03, 1.97354844e-03, -5.20329969e-03,
          -1.37012044e-03, -6.22503180e-03, -7.55404495e-03,
          -1.22485057e-04, 4.05252259e-03, 2.64090975e-03,
          2.74219830e-03, -2.20365496e-03, -3.33060371e-03,
          1.45758444e-04, -8.66518298e-04, -1.71977992e-03,
          4.37486824e-03, 2.65082531e-03, 4.21206176e-04,
          -2.61090975e-03, -8.00630357e-03, -7.13936985e-03,
          -5.01178345e-03, -1.60705019e-03, -6.52518182e-04,
          3.02011729e-04, 6.09119469e-03, 3.54503584e-03, 4.76923818e-03,
          -1.91396778e-03, -7.94263836e-03, -4.21306491e-03,
          -3.37138958e-03, -8.84823443e-04, 7.47171324e-03,
          7.09765544e-03, 2.70264409e-03, -8.25314200e-04,
          -6.01625303e-03, -9.29184724e-03, -7.89505057e-03,
          -2.70055234e-03, 5.70255332e-03, 1.07262973e-02,
          3.25159519e-03, -2.50084256e-03, -5.37719531e-03,
          -8.77133198e-03, -6.14873599e-03, -5.77446073e-03,
          1.24546257e-03, -7.83567957e-04, -1.40103546e-03,
          -1.52280729e-03, -3.74514144e-03, -6.50764816e-03,
          -1.96136837e-03, -5.08314138e-03, -3.21345776e-03,
          -1.32143067e-03, -2.94133672e-03, -1.68146609e-04,
          9.50213522e-03, 5.65801165e-04, -6.09911187e-03,
          -6.28514495e-03, -7.20584998e-03, -8.26445036e-03,
          2.84396484e-03, 7.43990066e-03, 8.11716449e-03,
          -8.38133914e-04, 1.07739528e-03, -3.23907170e-03,
          -3.16973939e-03, -1.85173634e-03, -9.23872169e-04,
          -2.70033628e-03, -3.78644699e-03, 1.13233901e-03,
          -9.83999227e-04, -3.90044414e-03, -4.92857257e-03,
          2.67023570e-03, -5.86917251e-03, -3.02972086e-03,
          -4.95226495e-03, -6.39449526e-03, 1.56003734e-04,
          4.15207073e-03, 8.73905432e-04, -9.57565149e-04,
          -4.02916223e-03, -1.19392639e-02, -4.52531455e-03,
          -7.17651751e-03, -4.97431727e-03, 4.69107693e-03,
          2.52007297e-03, 2.69337394e-03, 4.69082559e-04,
          -6.25065877e-04, -2.94604199e-03, -2.60378176e-04,
          -5.08827204e-03, -9.01966542e-03, 1.00841513e-03,
          5.61704300e-03, 3.07945535e-03, 3.42580862e-03,
          -2.19603232e-03, -1.16436658e-02, -2.54034577e-03,
          -4.31631319e-03, -7.24938186e-03, 3.50377942e-03,
          9.77959763e-03, 2.39066919e-03, 7.21717393e-03,
          -2.02324241e-03, -1.11754723e-02, -2.65882141e-03,
          -4.13867692e-03, -5.32101141e-03, 8.50715674e-03,
          4.22661984e-03, -6.97459886e-03, -3.06471228e-03,
          -5.15704043e-03, -8.67161248e-03, -7.28438515e-03,
          -4.66493424e-03, -7.80058000e-03, 4.49341629e-03,
          5.20648388e-03, -1.55750883e-03, -1.79185765e-04,
          -4.83313994e-03, -9.34764929e-03, -4.40053591e-05,
          7.09040847e-04, -3.06145241e-03, 1.03412867e-02,
          -3.07474547e-05, -1.21414196e-02, -9.49279964e-03,
          -5.93281537e-03, -1.03150150e-02, -5.77030983e-03,
          -1.03258749e-03, -4.82526142e-03, 4.23455331e-03,
          3.23984423e-03, -4.45490517e-03, -4.91631799e-04,
          -2.74816738e-03, 5.34100039e-03, -2.09486182e-03,
          3.25235375e-03, -1.95926079e-03, 4.74172086e-03,
          -5.93987992e-03, -7.96798151e-03, -5.45217237e-03,
          -2.38848571e-03, 5.41142281e-03, 2.72388570e-03,
          2.11666268e-03, -2.61640991e-03, -4.75141639e-03,
          -5.39242639e-04, -1.02526024e-02, -9.65658389e-03,
          -2.52653961e-03, -7.93430209e-03, -1.74499885e-03,
          1.56776968e-03, -2.93110660e-03, 1.60481269e-03,
          -4.18769103e-03, -6.12467621e-03, -2.28442531e-03,
          2.75597279e-03, 1.91899086e-03, -4.30897018e-03,
          -7.65530101e-04, -5.47003839e-03, -3.86311207e-03,
          -1.31121492e-02, -8.22554249e-03, -7.52047356e-03,
          -9.44442675e-03, 1.59726827e-03, 4.95234458e-03,
          -6.70882117e-04, -4.28803312e-03, -1.56996921e-02,
          -1.40216863e-02, -9.99282114e-03, -1.04465093e-02,
          -6.02208637e-03, 1.92043949e-02, 7.15576299e-03,
          -3.47062433e-03, -6.24993630e-03, -1.52661633e-02,
          -1.18354391e-02, -6.20284257e-03, -8.09401367e-03,
          -9.20441095e-03, -2.74723885e-03, 4.23698686e-03,
          -2.68911012e-03, -7.30613992e-03, -1.34037873e-02,
          -5.95932640e-03, -4.80221177e-04, -3.90441436e-03,
          -1.52486388e-03, 1.00503089e-02, 7.90560804e-03,
          1.59632810e-03, -2.38753483e-03, -1.19852759e-02,
          -1.30192982e-02, -9.48677119e-03, -7.89996423e-03,
          -2.29390105e-03, 5.52954152e-03, 9.26435459e-03,
          -3.72962037e-04, -4.65639308e-03, -1.20427944e-02,
          -8.91936012e-03, -5.51471766e-03, -2.68835039e-03,
          6.21684454e-03, 2.12569349e-03, -2.68143020e-03,
          -5.11630904e-03, -4.82252799e-03, -8.20014905e-03,
          -4.00291756e-03, 9.33418225e-04, 4.65738791e-04,
          4.00574971e-03, 1.71851716e-03, 9.09982622e-03, 5.19496389e-03,
          1.71094446e-03, -7.39104394e-03, -6.33866293e-03,
          2.54817982e-03, -9.71982372e-04, 9.19413753e-03,
          5.09837968e-03, 1.85389875e-03, -1.34169799e-03,
          -1.53769797e-03, -4.10792325e-03, -5.41672111e-03,
          -7.46360631e-04, 3.32555035e-03, 6.45787036e-03,
          2.79237749e-03, -7.64337776e-04, -2.43896991e-03,
          -2.74903839e-03, -7.31081935e-03, -1.45909295e-03,
          5.82403154e-04, 2.27139564e-03, 3.23020690e-03, 2.03917720e-04,
          3.34334839e-03, 3.43154580e-03, 5.42092137e-04,
          -2.26579257e-03, 4.90288134e-04, 5.39780920e-03,
          2.99246213e-03, 9.31623206e-03, 2.58450583e-03, 4.56284266e-03,
          -6.54516742e-04, -2.93275435e-03, -1.67590240e-03,
          9.71427711e-04, 3.60504352e-03, 3.34571395e-03, 7.97360577e-03,
          5.21184469e-04, 6.95058191e-03, 3.64078558e-03,
          -3.93016404e-03, -2.77650473e-03, 1.39052293e-03,
          7.03861879e-04, -3.65852553e-04, 3.80077655e-03,
          4.53415234e-03, 5.41245146e-03, 2.49830424e-03,
          -2.53976230e-03, -3.04577663e-03, 2.70658778e-03,
          -1.25851575e-03, -4.36194055e-03, 4.69212979e-03,
          7.05062645e-04, 5.55877620e-03, -1.74910121e-03,
          -4.69373260e-03, -2.48355907e-03, -7.80543778e-04,
          2.37854943e-03, 3.16067203e-03, 7.16954656e-03, 1.94708584e-03,
          5.34346234e-03, 2.12294329e-03, -5.14706550e-03,
          -5.23676910e-03, 1.04160164e-03, 1.80246308e-03,
          3.30936187e-03, 8.17159098e-03, -1.59864558e-03,
          6.99014449e-03, -2.57679653e-06, -3.05724773e-03,
          -2.44839606e-03, 7.51428260e-03, 2.10372987e-03,
          -6.12700311e-03, 1.15847343e-03, -3.25463410e-03,
          -6.30907365e-04, -7.54425349e-03, -5.78946248e-03,
          7.05940532e-04, 9.29896254e-03, 4.10959683e-03,
          -9.65508225e-04, 1.87195619e-04, -6.07770681e-03,
          -4.69133724e-03, -8.02015141e-03, -6.35848381e-03,
          2.64351279e-03, 5.97419357e-03, 5.98004181e-03, 9.73208167e-04,
          2.17360537e-03, -4.00186982e-03, 4.41145414e-04,
          -2.66198884e-03, -1.76630926e-03, 2.17857375e-03,
          9.49916616e-03, 5.78233320e-03, -1.03892002e-03,
          5.30474586e-04, -4.68891719e-03, 2.90583004e-03,
          -1.94584159e-03, -2.82272138e-03, 5.70611143e-03,
          4.99227922e-03, 1.49099214e-03, 2.28115800e-03, 5.59834298e-03,
          3.91880283e-03, 1.80897128e-03, -6.39675697e-03,
          -7.59324664e-03, 2.75869202e-03, 3.57928802e-03,
          3.59735772e-04, 1.20630080e-03, -9.70579975e-04,
          -4.03981609e-03, 1.32656295e-03, -4.27158596e-03,
          -6.68827957e-03, 2.21465947e-03, 9.75534786e-03,
          2.37051630e-03, -9.79293487e-04, 1.64012285e-03,
          2.76046037e-03, 4.33292054e-03, -1.71770435e-03,
          -3.58120655e-03, 7.09751761e-03, 7.34189060e-03,
          1.97593169e-03, -4.84270556e-03, -4.95046983e-03,
          -7.28313625e-03, 9.22831881e-04, -1.79866306e-03,
          -1.67097268e-03, 6.39125006e-03, 6.79975236e-03,
          1.52446714e-03, -2.78175401e-04, -5.44883963e-03,
          -6.75791921e-03, -7.47525308e-04, -2.70891748e-03,
          -2.10388587e-03, 4.81856335e-03, 5.14798332e-03,
          -2.26128544e-03, -4.64671338e-03, -7.40781100e-03,
          -1.02870725e-02, -8.13611504e-03, -1.66163151e-03,
          2.38059438e-03, 7.79735344e-03, 7.41230883e-03, 2.39406084e-03,
          -3.69906123e-03, -4.84047225e-03, -4.01640870e-03,
          3.16901435e-03, 1.52254303e-04, 1.91757572e-03, 9.19520017e-03,
          2.62933108e-03, -1.18387921e-03, -5.18569676e-03,
          -7.02572800e-03, -8.40276014e-03, -1.54728408e-03,
          -8.03160598e-04, 5.74617647e-03, 9.32911877e-03,
          3.09416931e-03, -3.48608266e-03, -6.65045297e-03,
          -5.67074120e-03, -7.97687005e-03, -8.41059443e-03,
          1.34503248e-03, 2.03915080e-03, 4.61501162e-03,
          -6.73875678e-04, -7.79700422e-05, -2.65668659e-03,
          -1.37962250e-03, 3.00635857e-05, 1.54450198e-03,
          5.74666075e-04, -2.35461420e-03, 8.26572068e-04,
          -1.37842703e-03, 9.75920411e-04, -5.28631359e-03,
          -4.09087399e-03, -8.51129740e-03, -5.19099366e-03,
          3.95531242e-04, 4.83550859e-04, 5.49935689e-03, 6.51608966e-03,
          3.95807717e-03, 1.39655371e-03, 2.57978379e-03,
          -1.17945054e-03, -1.86847080e-03, -1.22374028e-03,
          -6.12177537e-04, 1.68563821e-03, 1.11143989e-03,
          -3.33120464e-04, -1.72863412e-03, -2.89763603e-03,
          -1.89925439e-03, 3.87473009e-03, -2.50407192e-03,
          -6.13363879e-03, 8.47528456e-04, 6.12960663e-03,
          2.55638408e-03, -2.03706045e-03, -5.32268453e-03,
          -1.18708108e-02, -3.57396132e-03, -3.08603956e-03,
          -3.59006599e-03, 6.50139619e-03, 9.36753862e-03,
          3.10221803e-03, 8.12584942e-04, -7.29083607e-04,
          -1.40880747e-03, -1.92908128e-03, -2.22221669e-03,
          -1.05351536e-03, 3.75481322e-03, 6.92239078e-03,
          2.80887791e-04, -3.57193919e-03, -8.24372843e-03,
          -1.07010407e-02, -8.16203654e-03, -4.39329119e-03,
          1.94831649e-04, 4.92316950e-03, 4.94524231e-03,
          -9.38683923e-04, -2.59674969e-03, -5.08497981e-03,
          -7.53376354e-03, -2.53910199e-03, 2.87499093e-03,
          -1.80828292e-03, 8.78896378e-03, -2.37223739e-03,
          -1.15566207e-02, -9.40986443e-03, -6.36338955e-03,
          -1.14000291e-02, -6.24249084e-03, -4.11485787e-03,
          -7.62679754e-03, 3.63099552e-03, 9.39873047e-03,
          -6.13774918e-03, -4.48101806e-03, -5.07376110e-03,
          -7.87356403e-03, -1.86642992e-05, 1.71047566e-03,
          5.44468814e-04, 9.02560446e-03, 3.63064551e-04,
          -1.07929232e-02, -6.90115103e-03, -4.21494618e-03,
          -9.27702617e-03, -1.03483303e-03, 2.74363253e-03,
          -6.08630851e-03, 1.05566869e-03, -2.62127304e-03,
          -9.46837198e-03, -8.37548450e-03, -6.14581257e-03,
          -1.34052513e-02, -4.47859429e-03, -3.25563061e-03,
          -1.41826761e-03, 2.44866172e-03, -5.20753162e-03,
          -5.24760783e-03, 9.34507872e-04, -7.18314142e-04,
          -8.42028949e-03, -7.96841271e-03, -4.52796649e-03,
          -4.37717885e-03, -4.63185925e-03, 5.59901295e-04,
          -4.09760233e-03, -4.39862395e-03, -2.61581480e-03,
          9.91615001e-03, -2.63778237e-03, 1.62584730e-03,
          -9.36806726e-04, 1.78175245e-03, -8.42710305e-03,
          -2.43075029e-03, -3.15603265e-03, -2.37715489e-04,
          -6.05244283e-03, -5.49509889e-03, -4.46146959e-03,
          -3.99323180e-03, -7.53124803e-03, -1.07953940e-02,
          -3.05130263e-03, -3.00949230e-03, -5.87186171e-03,
          -5.88310743e-03, 1.95986684e-03, -2.29328260e-04,
          -7.40118232e-03, -1.05960667e-02, -8.77336506e-03,
          -7.70636660e-04, 1.95062917e-03, 2.71576666e-03,
          1.00547560e-02, 6.01881230e-03, 2.99316086e-03,
          -7.56702211e-04, -8.63457937e-03, -1.24140568e-02,
          -3.89557146e-03, -4.52232827e-03, -7.28816399e-03,
          -1.07526667e-02, -5.44969924e-03, -4.43134131e-03,
          -9.08523705e-03, -1.26433093e-02, -9.93972085e-03,
          -5.32586081e-03, -7.03000987e-04, 4.98575158e-03,
          1.46293780e-02, 6.82594348e-03, 2.12910865e-03,
          -5.75514650e-03, -1.07938880e-02, -9.15582478e-03,
          -8.75113066e-04, 1.01979566e-03, 3.83266597e-03,
          2.09985694e-04, 3.56623344e-03, 1.46518229e-03,
          -8.41855886e-04, -1.02118216e-02, -5.11269877e-03,
          -4.23166261e-04, -2.76136957e-03, 7.14513659e-03,
          5.27401734e-03, 3.53260804e-03, 2.01458635e-04,
          -2.33045314e-03, -6.41569356e-03, -7.37737678e-03,
          -3.14173731e-03, 1.61484594e-03, 7.14555150e-03,
          2.32975325e-03, 3.84236034e-03, 1.33966492e-03,
          -2.31447886e-03, -8.78096651e-03, -5.37298573e-03,
          -6.37372141e-04, 8.74086574e-04, 2.56721932e-03,
          5.50373318e-03, 6.21486874e-03, 3.20259458e-03, 1.05557148e-03,
          -3.68589838e-03, 3.94274510e-04, 6.72133872e-04,
          -9.73798858e-04, 6.03068760e-03, 1.45838084e-03,
          4.15784260e-03, -6.30486524e-04, -3.72666144e-03,
          -3.21208453e-03, -7.07669475e-04, -2.68790347e-04,
          -2.64956383e-04, 8.64587724e-03, 3.79712670e-03,
          4.84965649e-03, 1.23585924e-03, -4.79065021e-03,
          -4.08118684e-03, -2.42856564e-03, 2.84919702e-03,
          4.32198402e-03, 5.25356922e-03, 2.58831354e-03, 5.90756815e-03,
          1.35882501e-03, -8.42485460e-04, -1.69765740e-03,
          3.84820800e-04, 4.41084662e-03, 4.60973987e-03, 9.95753706e-03,
          3.08725866e-03, 3.48821632e-03, -1.07118096e-04,
          -2.22775759e-03, -3.73800693e-04, -1.32274756e-03,
          -2.14565516e-04, 1.94719480e-03, 7.62337679e-03,
          4.45269141e-03, 2.88164546e-03, -4.98840127e-05,
          -6.54162467e-03, -5.83887752e-03, 1.65642041e-03,
          2.85530766e-03, 1.17325771e-03, 3.30103794e-03,
          -1.96855678e-03, 4.00813995e-03, -1.89222896e-03,
          -2.92421132e-03, -1.49867823e-03, 2.41219671e-03,
          1.00419484e-03, 1.75040204e-03, 6.76138420e-03, 4.08199616e-03,
          -1.46061485e-03, -1.76016265e-03, -6.53509516e-03,
          3.42866959e-04, 2.64809327e-03, 9.55566065e-04,
          -3.90024111e-03, 1.18047069e-03, -3.39850388e-03,
          -1.45046471e-03, -5.85110858e-03, -5.94118703e-03,
          2.22249981e-03, 3.49578541e-03, 6.55620499e-03,
          -1.57934625e-03, -2.09241826e-03, -6.50698086e-03,
          -1.22370443e-03, -2.79651931e-03, -2.87251640e-03,
          3.27022304e-03, 7.00927060e-03, 8.45837686e-03,
          -2.60960450e-03, -1.48697291e-03, -3.90192633e-03,
          2.64349720e-03, 2.05363031e-03, -2.61185528e-03,
          4.64628357e-03, 3.04443203e-03, -4.04030405e-04,
          -5.25852386e-03, -2.52370257e-03, -7.80000072e-03,
          -3.63600627e-03, -4.35623713e-03, -4.58823238e-03,
          4.52943332e-03, 5.14432415e-03, 1.48710678e-03,
          -9.47250810e-04, -1.91907387e-03, -8.24814010e-03,
          -1.39749187e-04, -1.34719978e-03, -5.51410951e-03,
          4.10916004e-03, 1.27554527e-02, 5.81766246e-03,
          -3.44731309e-03, 4.74903973e-05, 2.04353841e-04,
          2.83791148e-03, 2.13122764e-03, -1.90443639e-03,
          7.77302170e-03, 9.89870727e-03, 1.79707457e-03,
          -6.99745584e-03, -7.28733651e-03, -7.81197101e-03,
          -1.70691893e-03, 5.08721045e-04, -8.06191296e-04,
          4.48560808e-03, 7.73738418e-03, 3.72294732e-03,
          -6.84855797e-04, -3.03050200e-03, -3.25145968e-03,
          1.05001742e-03, 4.29967232e-03, -1.25235572e-04,
          6.56121690e-03, 4.33453592e-03, 5.45752875e-04,
          -4.33900440e-03, -6.86601875e-03, -1.04841013e-02,
          2.76942068e-04, 2.22250400e-03, -2.42004986e-03,
          3.96394287e-04, 1.11835087e-02, 1.23248959e-03,
          -4.22359910e-03, -4.49783821e-03, -3.18621821e-03,
          2.55804765e-03, 9.91259469e-04, 2.26391922e-03, 1.00670625e-02,
          5.57606528e-03, -3.69130401e-04, -4.49481234e-03,
          -4.92011802e-03, -9.18801595e-03, 3.22009961e-04,
          -1.89286633e-03, 1.53269980e-03, 4.97923093e-03,
          2.20210222e-03, 1.18295648e-04, -2.28483090e-03,
          -1.70027837e-03, -4.60460177e-03, 1.88034505e-03,
          1.39103725e-03, -2.51653814e-03, 1.61237526e-03,
          -2.79824622e-03, -1.98363024e-03, -2.64315493e-03,
          -9.10167408e-04, -6.17481582e-03, -1.33081723e-03,
          -4.22286196e-03, -3.67323961e-03, -3.98511952e-03,
          3.74683505e-03, 3.96258896e-03, -3.15130875e-03,
          6.93923037e-04, -4.74465406e-03, -2.03278523e-05,
          -9.93254595e-04, -9.24043241e-04, 2.93698860e-03,
          9.78911482e-03, 8.89134221e-03, 3.79698467e-03, 3.00292228e-03,
          -1.07276905e-03, -4.61680489e-03, -3.08845518e-03,
          -3.81583627e-03, 3.10235936e-03, -1.22258218e-03,
          -1.04198256e-03, -2.19495944e-03, 5.19797264e-04,
          3.05263646e-04, -1.96965225e-03, -6.78354222e-03,
          -7.41367415e-03, -3.77311814e-03, 5.10324899e-04,
          -2.81535834e-03, -2.50419835e-03, 1.42714207e-03,
          -2.36343918e-03, -4.90410952e-03, -1.00878812e-02,
          -6.82832394e-03, -2.09529698e-03, 1.58937611e-02,
          1.06663583e-02, 6.73688157e-03, 4.14521759e-03, 2.94586015e-03,
          -4.54312563e-03, -3.31882876e-03, -2.43852613e-03,
          1.02307638e-02, 1.43200066e-02, 1.22191012e-03,
          -1.52984774e-03, -7.04228086e-03, -7.81550258e-03,
          -7.50217354e-03, -4.29259893e-03, -1.76567555e-04,
          1.13590136e-02, -1.59361982e-03, -3.75746400e-03,
          -1.39602716e-03, 1.69973448e-03, -6.35543664e-04,
          -7.75857223e-03, -8.22101161e-03, -6.28906908e-03,
          7.99837755e-04, -2.41635367e-03, -8.56444612e-03,
          -6.75636251e-03, -1.13646928e-02, -1.18930200e-02,
          -1.20697832e-02, -1.01298178e-02, -9.10284463e-03,
          7.90812250e-04, 1.20503157e-02, -2.34578131e-03,
          -1.74930901e-03, -3.29300552e-03, -2.26522796e-03,
          -1.03518832e-03, 3.77835450e-03, 1.09145697e-03,
          1.00503713e-02, 1.99393579e-03, -2.97679193e-03,
          3.78344371e-03, 1.71133055e-04, 5.77371335e-03, 6.10707840e-03,
          5.60868578e-03, -3.39618977e-03, -4.61570511e-04,
          -2.07983004e-03, -5.88468835e-03, -1.70819997e-03,
          -8.30591284e-03, -8.06155521e-03, -3.30284704e-03,
          -4.23256494e-03, -5.29773487e-03, -3.37304571e-03,
          -8.95216875e-03, -8.34414642e-03, -4.23820131e-03,
          -6.34451304e-03, 2.12912122e-03, 4.10619518e-03,
          -2.55180919e-03, -9.38374735e-03, -1.00899385e-02,
          -1.09633722e-03, -1.07430702e-03, 2.34198780e-03,
          -3.79182660e-04, 9.02643427e-03, 1.59912778e-03,
          4.00254084e-03, -3.96908214e-03, -4.01628250e-03,
          -9.56181157e-03, -3.32707120e-03, -2.31430633e-03,
          -1.51693833e-03, -1.85991300e-03, -2.53050064e-04,
          -6.68388268e-04, -5.90628292e-03, -7.73254270e-03,
          -9.71334241e-03, -6.97468501e-03, -5.62118459e-03,
          -3.17682000e-03, 8.14406201e-03, 3.33073107e-03,
          -1.97314681e-03, -9.86665767e-03, -1.40082575e-02,
          -1.20960716e-02, -7.15787848e-03, -4.84704925e-03,
          -6.09029224e-03, -6.31533191e-03, -6.11611083e-03,
          -6.65670400e-03, -1.49521399e-02, -1.76398009e-02,
          -7.11892871e-03, -3.75684421e-03, -5.69921220e-03,
          -6.74665254e-03, -1.37813240e-02, -6.39191642e-03,
          -7.49705592e-03, -7.45879533e-03, -7.15287682e-03,
          1.02332875e-03, -9.55618510e-04, -3.37865693e-03,
          6.50804210e-03, 2.18718462e-02, 1.03720324e-02, 8.16503353e-03,
          2.75376672e-03, -5.57341962e-04, -1.24480370e-02,
          -8.57143663e-03, -1.03601739e-02, -1.62742939e-02,
          -2.14053541e-02, -1.42817274e-02, -8.44741240e-03,
          -8.45510233e-03, -1.23623647e-02, -8.68982729e-03,
          -3.97902494e-03, -7.61855626e-03, -7.53231859e-03,
          1.17159896e-02, 5.62317716e-03, 6.03607739e-04,
          -1.56151853e-03, -7.18122441e-03, -4.44553141e-03,
          -4.27121250e-03, -2.43327580e-03, 4.81999340e-03,
          4.10953443e-03, 4.80155041e-03, 9.71392947e-05,
          -3.88575741e-03, -6.13347720e-03, -5.15649049e-03,
          -3.62064363e-03, -1.12559844e-03, -8.51303164e-04,
          6.80393633e-03, 7.04136537e-03, 2.23169383e-03, 2.06467183e-03,
          -6.17148180e-04, -1.09516224e-02, -3.48358927e-03,
          -6.00915169e-03, 7.24932412e-04, 5.04101190e-05,
          3.60733550e-03, -2.72591668e-03, -2.01977580e-03,
          -8.66048317e-03, -7.69098708e-03, -7.43518118e-03,
          -8.04003980e-03, -1.49683072e-03, 2.60081072e-03,
          3.49482545e-03, -9.84367332e-04, -2.67774006e-03,
          -4.22219513e-03, -4.90452675e-03, -2.64256145e-04,
          -9.39540972e-04, 1.82288830e-04, 2.26582028e-03,
          5.17731300e-03, 3.45180044e-04, 2.95539643e-03,
          -1.17680233e-03, -2.23643519e-03, -1.96706780e-04,
          1.05259672e-03, 6.31906837e-03, 3.02017690e-03, 4.99086501e-03,
          -1.55968103e-03, -5.19164096e-05, -1.12809776e-03,
          -4.03327541e-03, -6.81237923e-03, -3.06418026e-03,
          3.90770286e-03, 3.38558049e-04, 1.60465395e-04,
          -1.01282750e-03, -1.23231462e-03, 9.80125740e-04,
          -4.48366115e-03, -7.80115603e-03, -7.10543897e-03,
          3.80290160e-03, 1.23732665e-03, 5.50208194e-03,
          -7.54689274e-04, -6.65835920e-04, 5.13169507e-04,
          6.22125110e-03, 2.43265391e-03, 4.45850799e-03, 8.75941385e-03,
          6.67330623e-03, 1.83410395e-03, -2.34686537e-03,
          -3.86377657e-03, 8.32202099e-03, 8.13517720e-03,
          -7.29892781e-05, -4.33092145e-03, 2.64472258e-03,
          -1.54483877e-03, -4.51075472e-03, -7.25260377e-03,
          -5.79722272e-03, 8.97431280e-03, -2.03953823e-03,
          -5.09011513e-03, -2.92361621e-03, -1.98271638e-03,
          2.77507701e-03, 2.45846226e-03, -2.35157320e-03,
          -2.84921727e-03, -1.05451874e-03, 1.09384280e-04,
          -8.76252307e-04, -2.10409984e-03, 4.44296980e-04,
          -5.19132707e-03, -5.80330379e-03, -1.08553022e-02,
          -9.13457572e-03, -2.86415173e-03, 1.04440218e-02,
          2.96856440e-03, -5.56539325e-03, 2.51462683e-03,
          -4.95319534e-03, -5.11535536e-03, -6.83240825e-03,
          -6.14977209e-03, 7.60246255e-03, 1.07569024e-02,
          6.25151629e-03, 2.67084432e-03, 2.95671262e-03,
          -5.01915021e-03, 3.43473861e-03, -1.10709912e-03,
          -7.22123636e-03, 3.88188125e-03, 6.54900633e-03,
          2.04650150e-03, -4.11944417e-03, -2.94995960e-04,
          -8.83579440e-03, -9.92942788e-03, -1.42218573e-02,
          -1.01337293e-02, -1.07453822e-03, 4.50930325e-03,
          4.60765650e-03, 1.61830476e-03, 2.66830029e-05,
          -7.45742954e-03, -4.18856461e-03, -1.00385025e-02,
          -8.78249761e-03, -1.83551118e-03, 6.44995132e-03,
          3.05281463e-03, 1.58457947e-03, -1.53175497e-03,
          -4.06127144e-03, 2.32982985e-03, 3.85864824e-03,
          -2.74696923e-03, 1.89735834e-03, 3.53532936e-03,
          -2.96522886e-03, -3.95888463e-03, -4.93936474e-03,
          -8.49335920e-03, 4.05739760e-03, 3.34992073e-03,
          -4.34859283e-03, -1.46947266e-03, 1.91828143e-03,
          6.26382465e-03, 2.63111410e-03, -1.46599032e-03,
          -4.92008775e-03, 5.14102750e-04, -2.57192156e-03,
          -4.55027493e-03, -3.57056106e-03, -2.43719085e-03,
          -5.25222300e-03, -4.49750945e-03, 8.22437403e-04,
          -6.75478345e-03, 5.99089591e-03, 5.91704855e-04,
          -6.27393974e-03, -3.01119080e-03, 4.07224987e-04,
          -1.06561708e-03, -3.74309230e-03, -1.23810477e-03,
          -1.43481840e-04, 2.15614168e-03, 1.31920632e-03,
          -2.88725900e-03, -1.86756346e-03, -5.96953835e-03,
          -2.18028645e-03, -3.20697273e-03, 4.84179880e-04,
          -3.81465862e-03, -6.98163593e-03, -7.01583922e-03,
          -5.47059486e-03, -3.76068777e-03, -2.07195734e-03,
          -8.59922543e-03, -2.77364999e-03, 2.75081722e-03,
          9.51024820e-04, 4.14308906e-03, 5.02242299e-04,
          -2.60379165e-03, -1.16917491e-03, -6.44403929e-03,
          -7.34320888e-03, -2.16134661e-03, 3.95204952e-05,
          -4.80446545e-03, -1.21832546e-02, -1.04581602e-02,
          -4.48495895e-03, -5.67007763e-03, -1.70415430e-03,
          -2.85816309e-03, -6.65363972e-04, 5.72182517e-03,
          3.49604571e-03, -6.72730897e-03, -7.63097545e-03,
          -7.09824078e-03, -1.57584692e-03, 3.48239043e-03,
          -4.02654568e-03, -4.22301795e-03, -6.25721237e-04,
          7.09430722e-04, -7.59533420e-03, -1.03672566e-02,
          -7.71741057e-03, 1.78777950e-03, -6.17457181e-03,
          -4.64695273e-03, 2.32195342e-03, 4.24337620e-03,
          -4.18525073e-04, -1.07659046e-02, -9.37791169e-03,
          -5.58186416e-03, -8.79197847e-03, -4.80286637e-03,
          -6.98959455e-03, -4.33107791e-03, -4.38008457e-03,
          -5.67046413e-03, -1.30578587e-02, -1.05230873e-02,
          -6.65312447e-03, -5.20857889e-03, 6.70772698e-03,
          -1.13592844e-03, -2.88029946e-03, -1.94820040e-03,
          9.06254258e-03, -3.44437943e-03, -3.70902754e-03,
          -4.47660405e-03, 7.94073846e-03, 5.69344126e-03,
          -6.71362737e-04, -1.90728367e-03, -9.87240579e-03,
          -7.97226559e-03, -7.76021974e-03, -3.01117147e-03,
          -7.38512026e-03, 5.22185396e-03, -1.54125039e-03,
          -6.23964798e-03, -6.72461698e-03, -4.55980888e-03,
          6.07986609e-03, -5.51001914e-03, -4.11868049e-03,
          -5.28060691e-03, 7.89410842e-04, -5.28105814e-03,
          -6.13449141e-03, -6.35870965e-03, -1.16635477e-02,
          -9.29141976e-03, -9.15036350e-03, -3.91233852e-03,
          -1.21796215e-02, -4.76901280e-03, 6.44560391e-03,
          -7.09453423e-04, 2.20407033e-03, -5.56417787e-03,
          -2.29249010e-03, -2.32627313e-03, 1.08719291e-03,
          -5.91194304e-03, 4.51857038e-03, -8.72065895e-04,
          -1.68557477e-03, -1.22469920e-03, -5.19815786e-03,
          9.27295070e-03, 4.10921266e-03, 3.80230229e-03,
          -6.45790482e-03, 2.63007649e-04, -1.87074055e-03,
          -3.45595786e-03, 1.00101970e-04, -5.73550165e-03,
          -1.02087308e-03, -6.92403689e-03, -1.23062672e-03,
          -6.77018659e-03, -9.44365398e-04, -5.46427723e-03,
          -1.04181115e-02, -5.24480175e-03, -6.49692910e-03,
          -1.96742782e-04, -3.03784967e-03, 1.38934527e-03,
          -5.21801598e-03, -4.79206350e-03, -1.42208091e-03,
          -1.49447285e-03, -1.57721108e-03, -6.53297524e-04,
          1.36750825e-02, 2.30319472e-03, -3.05645699e-05,
          -7.30827544e-03, -1.93778615e-04, -2.54546059e-03,
          -3.77425551e-03, -1.60267064e-03, 5.31927741e-04,
          1.73501286e-03, -3.01521248e-03, -5.66705875e-03,
          -1.37674315e-02, -8.56666639e-03, -9.94042493e-03,
          -6.47445209e-03, -2.29616300e-03, -7.00240349e-03,
          6.81181729e-04, -1.03112776e-03, 2.24209172e-04,
          -4.09123674e-03, -8.05386156e-03, -1.27696004e-02,
          -6.34716265e-03, -2.94521288e-03, -5.83074009e-03,
          -7.07099098e-04, -2.52327230e-03, -2.55811587e-03,
          -1.23214154e-02, -1.31805213e-02, -8.84022936e-03,
          -6.53114542e-03, -8.53024703e-03, -1.23319002e-02,
          -8.91599897e-03, -1.32962950e-02, -5.94909023e-03,
          -4.18390660e-03, -7.58263236e-03, -3.96157568e-03,
          1.87649799e-03, -4.64666722e-04, -3.12394090e-03,
          2.08040308e-02, 3.03894491e-03, 3.07607028e-04, 2.12751096e-03,
          -3.03466432e-03, -1.05645601e-02, -9.54384170e-03,
          -1.09659033e-02, -1.40464455e-02, -1.22259185e-02,
          -1.26461620e-02, -8.65653343e-03, -5.67870401e-03,
          -8.58775899e-03, -1.14221154e-02, -8.79215449e-03,
          -9.73323174e-03, -6.58144569e-03, 1.69108026e-02,
          -5.58958575e-03, -3.38740088e-03, -5.48983598e-03,
          -7.75220757e-03, -6.53968100e-03, -1.36982405e-03,
          -2.94658262e-03, -1.70029560e-03, 2.53643841e-03,
          1.74825639e-03, -2.10345024e-03, -1.59745372e-03,
          -3.43436003e-03, 2.03919923e-03, -2.92468187e-03,
          -2.86786514e-03, 2.44212942e-03, 1.16132880e-02,
          7.98879564e-03, 1.45745196e-03, -9.38100624e-04,
          5.82737615e-03, -1.21431286e-02, -9.18669440e-03,
          -7.54161086e-03, -6.53905049e-03, -3.42889456e-03,
          -3.37686599e-03, -3.54995998e-03, -8.46612640e-03,
          -1.15831494e-02, -6.70869835e-03, -7.49538979e-03,
          -7.13967020e-03, -6.38145814e-03, -9.59869765e-04,
          5.16735949e-03, 2.87288381e-03, -1.94120687e-03,
          -6.25764998e-03, 2.69149803e-03, -6.04103459e-03,
          -2.08371645e-03, 3.06233065e-03, 3.14589124e-03,
          -5.75950107e-05, -7.23936944e-04, -2.62648333e-03,
          6.07253844e-03, 6.06739242e-03, -5.97892608e-03,
          -2.56895949e-03, -1.97063782e-03, -3.03133531e-03,
          -4.42941731e-04, 1.71094004e-03, 8.06952128e-04,
          1.20769637e-02, -7.28435814e-03, -8.24062712e-03,
          -6.24075951e-03, -5.95768075e-03, -6.42386964e-03,
          1.39912753e-03, 1.76868017e-03, -1.59963733e-03,
          -4.60655941e-03, -4.46766755e-03, -5.68359066e-03,
          -9.93081718e-04, -2.68236198e-03, -6.53428352e-03,
          -1.15340250e-03, 1.10702380e-03, 1.22230020e-04,
          -9.71428468e-04, 7.24118575e-03, -3.70688946e-03,
          -1.82271458e-03, -3.71626928e-03, -6.38797507e-03,
          -1.88368384e-03, -1.47464778e-03, -3.84251252e-05,
          1.22787664e-02, 6.71231281e-03, 4.81873343e-04,
          -3.65538464e-04, -2.10524863e-03, -9.05717071e-03,
          -1.00450516e-02, -1.12595307e-02, -7.25126546e-03,
          6.42262865e-03, 1.76490692e-03, -1.43867428e-03,
          4.75413748e-04, -1.23435457e-03, -1.18259303e-02,
          -6.57921983e-03, -3.48204607e-03, -4.87695943e-04,
          3.21406126e-03, 7.58282235e-03, -2.78613926e-03,
          -5.26918191e-03, -4.82009398e-03, -1.44503089e-02,
          -1.04219113e-02, -1.13479225e-02, -9.22636315e-03,
          5.97636029e-03, 1.43782115e-02, 2.57955864e-03,
          -8.51325633e-04, -3.24165868e-03, -8.65127519e-03,
          -8.10998864e-03, -9.16610472e-03, -6.52441662e-03,
          1.10454829e-02, 9.68640670e-03, 4.51640785e-03, 6.91770110e-04,
          -5.40890032e-03, -7.64638698e-03, -5.98006416e-03,
          -1.18625667e-02, -8.49498529e-03, 5.52652497e-03,
          1.27366902e-02, -4.16281726e-03, -3.52458819e-03,
          -7.08229700e-03, -1.48062240e-02, -8.46392009e-03,
          -1.00592328e-02, -9.59436875e-03, 1.45442057e-02,
          4.40248381e-03, -1.15581648e-02, -9.53453872e-03,
          -1.21286009e-02, -1.63945369e-02, -1.13932816e-02,
          -1.12935109e-02, -1.07722376e-02, 7.68494513e-03,
          9.14429873e-03, 7.81381410e-03, 2.59991572e-03,
          -2.82641989e-03, -1.99057278e-03, -2.29932391e-03,
          -4.24500648e-03, -5.62625937e-03, 5.63982362e-03,
          5.55387186e-03, 3.58639518e-03, 1.13880553e-03,
          -1.64107094e-03, -5.18610142e-03, 1.93599856e-03,
          1.49076199e-03, -3.07944976e-03, 5.88077400e-03,
          6.26090216e-03, -3.59748607e-03, -6.25548791e-03,
          -1.20396046e-02, -1.07392976e-02, -8.57633539e-03,
          -6.49344036e-03, -1.05890008e-02, 5.22775110e-03,
          4.07583592e-03, 3.76896793e-03, 4.01332800e-04,
          -1.05132973e-02, -1.50608839e-02, -1.84938801e-03,
          2.44612317e-03, -6.31401176e-03, 1.00093533e-03,
          2.39951463e-04, -4.20936197e-03, 1.72222010e-03,
          3.39638861e-03, 1.39717269e-03, 1.80088275e-03, 1.50177372e-03,
          -2.13347166e-03, 4.81604645e-03, 4.94112028e-04,
          -5.49881859e-03, -2.51984899e-03, -2.67911470e-03,
          -4.13644873e-03, -8.20801314e-03, -8.48594401e-03,
          -6.40955614e-03, 1.64085953e-03, -5.51902456e-03,
          3.98511346e-03, 6.38100086e-03, -8.18580331e-04,
          -6.90126326e-03, -4.12329653e-04, 5.78180945e-04,
          -4.47282055e-03, -3.40722525e-03, -2.52595963e-03,
          -5.08956052e-03, 3.66790191e-04, -4.62121842e-03,
          -9.67661664e-03, -7.42747821e-03, -6.68440014e-03,
          -8.54741782e-03, -3.79973906e-03, 5.88892680e-03,
          3.80524551e-03, 5.51230041e-03, 5.17328130e-03, 5.34488587e-03,
          -8.28969758e-03, -6.45573670e-03, -2.61976407e-03,
          3.71349463e-03, -4.78215952e-04, -2.23124400e-03,
          -2.61640805e-03, -6.57593878e-03, -1.83489319e-04,
          -1.07007679e-02, -9.22494940e-03, -5.47161000e-03,
          -1.27532601e-03, 4.06669360e-03, -1.11020519e-03,
          2.14597885e-03, -2.27750838e-03, -1.02389418e-03,
          -9.50763840e-03, -6.57176739e-03, -9.40359198e-03,
          -2.17822008e-03, -3.63688963e-03, -1.10956775e-02,
          -1.00178914e-02, -1.38860876e-02, -7.99014419e-03,
          -1.46245528e-02, -9.85570997e-03, -1.06127225e-02,
          -8.16472992e-03, 6.05701841e-03, -5.72428899e-03,
          -6.59819553e-03, -5.95154939e-03, 1.03309574e-02,
          -5.62229007e-03, -5.29597094e-03, -3.80419940e-03,
          5.59125561e-03, 7.90794846e-03, -5.88704227e-03,
          -5.18145971e-03, -1.06359255e-02, -3.51651735e-03,
          -6.03234116e-03, -3.19165760e-03, -8.50304775e-03,
          6.35656342e-03, 5.03406068e-03, -8.50939564e-03,
          -5.73479570e-03, -9.72240977e-03, 2.42761732e-03,
          -6.93397783e-03, -5.01539046e-03, -4.44068154e-03,
          1.16150570e-03, 1.53997890e-03, -8.91549792e-03,
          -8.90028756e-03, -1.57107934e-02, -1.07465498e-02,
          -1.13495830e-02, -5.30710025e-03, -1.05880136e-02,
          -3.15070851e-03, 5.39517915e-03, -2.47720280e-03,
          2.15655589e-03, -2.28309538e-03, -1.01547630e-03,
          -6.83297217e-03, -1.05556683e-03, -6.87418738e-03,
          4.10916982e-03, 4.06637648e-03, -7.95634184e-03,
          2.13094079e-03, -3.90324229e-03, 4.40862076e-03,
          -2.37381388e-03, 6.62792474e-03, -2.85997428e-03,
          4.88727214e-03, -1.19713997e-03, -4.83920332e-03,
          -4.71592974e-03, -1.29480734e-02, -8.17288551e-03,
          -1.09534850e-02, -4.19138465e-03, -8.59090220e-03,
          -5.24155749e-03, -5.53874532e-03, -7.97747169e-03,
          -2.36001355e-03, -7.86841661e-03, 4.38403059e-03,
          -4.85953176e-03, -2.13325140e-03, -6.39740424e-03,
          -5.64126344e-03, 2.50216224e-03, 2.27137050e-03,
          9.07542277e-03, -4.49954672e-03, 5.02608111e-03,
          -2.51229038e-03, 6.33725990e-03, -1.08139752e-03,
          2.07164371e-03, -9.06918012e-03, -4.24897065e-03,
          1.12124981e-04, -6.77878503e-03, 7.70819467e-03,
          -1.51249301e-03, 7.27532024e-05, -7.25397328e-03,
          -9.05380957e-03, -2.80409702e-03, -7.61310384e-03,
          -1.06593790e-02, -1.08130015e-02, -3.11961048e-03,
          -7.63250515e-03, -3.28171742e-03, -4.76233941e-03,
          -2.14370829e-03, -5.09128859e-03, -1.07134413e-02,
          -1.11132879e-02, -1.03233596e-02, 7.27423141e-03,
          -5.93706360e-03, -5.55813545e-03, -5.03002293e-03,
          -2.35442794e-03, -7.49467406e-03, -7.32983416e-03,
          -6.28861273e-03, -1.25182588e-02, -1.55213429e-03,
          -1.01480372e-02, -8.26207735e-03, -7.65855378e-03,
          -5.73602738e-03, -2.50241859e-03, -7.44898058e-03,
          -5.79269370e-03, -4.39532055e-03, 1.13129010e-02,
          1.14800199e-03, 1.34782470e-03, 4.67381615e-04, 5.05850790e-03,
          -1.88992138e-03, -4.33179643e-03, -3.58763011e-03,
          -9.60672647e-03, -3.59378452e-03, -1.32111404e-02,
          -9.41412989e-03, -7.80786155e-03, -1.61846308e-03,
          -3.14572011e-03, -7.09417881e-03, -1.17123770e-02,
          -1.49427531e-02, -4.39904816e-03, -1.33997910e-02,
          -6.77423691e-03, -7.04857847e-03, 1.02678780e-03,
          -2.98616849e-03, -5.71015943e-03, -4.47704876e-03,
          -4.74057440e-03, -8.75307596e-04, -2.36180169e-03,
          -8.97566904e-04, -4.18388285e-03, -2.14530458e-03,
          8.63689370e-03, -1.16557162e-03, 1.13286858e-03,
          -4.32401896e-03, 6.46450790e-03, 2.42098351e-03,
          3.93611100e-03, 2.38692970e-03, 5.82432561e-03,
          -6.72475575e-03, -6.71144621e-03, -1.03125600e-02,
          -1.24851353e-02, -1.49641493e-02, -1.25070317e-02,
          -9.41868406e-03, -8.58587213e-03, -4.88939136e-03,
          4.32047807e-03, -8.32310691e-03, -6.25748420e-03,
          -1.00284489e-02, -1.46419881e-02, -1.32417353e-02,
          -9.42195300e-03, -1.07075311e-02, 4.97480435e-03,
          5.81222819e-03, -8.43683071e-03, -4.40534949e-03,
          -6.57005515e-03, -5.95758902e-03, -2.71725701e-04,
          3.10313236e-03, 9.25878063e-04, 4.88861091e-03, 8.74602795e-03,
          -7.28795538e-03, -3.51046445e-03, -6.02853743e-06,
          -1.91921473e-03, 1.28371423e-04, 6.25183573e-04,
          1.48667395e-03, 1.10006724e-02, -1.03318295e-03,
          -7.90233351e-03, -5.81241911e-03, -8.33984744e-03,
          -1.25583457e-02, -8.99963174e-03, -1.01907952e-02,
          -1.12519944e-02, 1.95353245e-03, -3.96252424e-03,
          -1.09209949e-02, -9.54321213e-03, -7.06111686e-03,
          -5.91742760e-03, -4.61080670e-03, -6.81862794e-03,
          -8.25831294e-03, -1.64035545e-03, 8.60660896e-03,
          -5.89946285e-03, -2.25480110e-03, -8.23319075e-04,
          -5.28065488e-03, -5.50981844e-03, -3.47302132e-03,
          -2.39446666e-03, 5.81630273e-03, 1.35528725e-02,
          -3.87609890e-03, -1.92176795e-03, -5.36742760e-03,
          -8.86829942e-03, -4.82232077e-03, -8.05986766e-03,
          -9.02566221e-03, 1.17672971e-02, -4.33690497e-04,
          -9.78029147e-03, -8.25423654e-03, -6.58919849e-03,
          -7.25414371e-03, -4.18585911e-03, -3.62176076e-03,
          -5.54442732e-03, 9.35380172e-04, 5.58636663e-03,
          -6.92497846e-03, -6.51449617e-03, -1.02397362e-02,
          -1.06356340e-02, -3.87522206e-03, -1.24419772e-03,
          -4.22616256e-03, 7.66061852e-03, 1.47940498e-02,
          -3.97297181e-03, -4.58272727e-04, -6.03292277e-03,
          -9.12722573e-03, -5.28662140e-03, -6.09854702e-03,
          -8.88367463e-03, 1.39024826e-02, 7.77970022e-03,
          -5.96218882e-03, -1.02838650e-02, -1.37789743e-02,
          -1.10424571e-02, -1.01151504e-02, -5.20393252e-03,
          -8.38556886e-03, 8.25097319e-03, 7.09892204e-03,
          -2.37780740e-03, -2.19821068e-03, -7.50567298e-03,
          -7.63090421e-03, -8.74294993e-03, -4.48417896e-03,
          -6.32505957e-03, 5.90581819e-03, 9.95758642e-03,
          -4.34937375e-03, -7.21347937e-03, -1.20371766e-02,
          -6.98695472e-03, -1.21129593e-02, -9.67787113e-03,
          -9.94052086e-03, 5.93821332e-03, 8.19778349e-03,
          -3.73716932e-04, -4.70629102e-03, -1.21382233e-02,
          -1.21913580e-02, -6.76110620e-03, -6.42112363e-03,
          -7.91161507e-03, 8.41462053e-03, 1.05527202e-02,
          6.36609364e-03, 5.85533306e-03, -7.32929679e-03,
          -1.01405131e-02, -2.89234740e-04, 4.61391115e-04,
          -4.74386755e-03, 1.05695231e-02, 8.08125641e-03,
          4.72783227e-04, -5.08113671e-03, -1.21083986e-02,
          -1.32128792e-02, -8.85007717e-03, -5.84483659e-03,
          -8.62385053e-03, -3.07536987e-03, 5.65927895e-03,
          2.97408341e-03, 3.49830766e-03, -1.08997002e-02,
          -1.25162266e-02, -7.08410330e-03, -3.79424891e-03,
          -9.09048505e-03, -4.33257967e-03, -6.22908410e-04,
          1.19917830e-02, 9.91323963e-03, 8.66506016e-04,
          -6.57405611e-03, 5.60662185e-04, -7.41747790e-04,
          -4.97836620e-03, 1.66473445e-03, 3.66995670e-03,
          -1.20112894e-03, -1.33189210e-03, -4.80302703e-03,
          -4.08171816e-03, -6.50167093e-03, -6.43059285e-03,
          -7.54426187e-03, 3.21520749e-03, -4.94425371e-03,
          3.09677212e-03, 6.17089123e-03, -3.38684302e-03,
          -5.09671681e-03, -5.17272018e-03, -8.34323466e-03,
          -8.80465750e-03, -7.78901717e-03, -3.87389935e-03,
          -6.96167490e-03, -7.17988145e-03, -7.27981608e-03,
          -1.16279880e-02, -8.25657602e-03, -1.13786068e-02,
          -9.79388226e-03, -4.50846925e-03, 1.94100626e-02,
          6.77270116e-03, 1.74152188e-03, 1.27979706e-03, 5.26879914e-03,
          -4.79104975e-03, -6.85195345e-03, -7.52427801e-03,
          1.07915476e-02, 1.69721490e-03, -7.46171130e-03,
          -9.03458428e-03, -1.05486214e-02, -9.06662084e-03,
          -1.33761140e-02, -1.00212209e-02, -1.04899900e-02,
          -2.02524173e-03, -9.51225578e-04, -6.62663952e-03,
          -6.81821723e-03, -5.67771681e-03, -2.21731444e-03,
          -7.20012560e-03, -1.09980796e-02, -9.64026619e-03,
          -2.35038763e-03, -3.40276817e-03, -1.12712476e-02,
          -1.21981436e-02, -1.34919574e-02, -1.30885504e-02,
          -1.29138762e-02, -1.26234293e-02, -1.28497658e-02,
          -6.48472598e-03, 2.03880128e-02, -5.18995617e-03,
          -6.86101057e-03, -9.96937323e-03, 8.04990705e-04,
          -1.03714317e-02, -8.69855378e-03, -9.02627129e-03,
          1.74420625e-02, 1.33742429e-02, -5.87109057e-03,
          -5.69538400e-03, -1.21605853e-02, -6.09919289e-03,
          -1.15247443e-02, -8.56823381e-03, -9.42729600e-03,
          1.33872163e-02, 7.47909956e-03, -7.86616653e-03,
          -9.18105152e-03, -1.41070327e-02, -3.74540454e-03,
          -1.16901742e-02, -9.50777624e-03, -1.13068791e-02,
          3.41449422e-03, -3.87969683e-03, -8.36900435e-03,
          -1.29422871e-02, -1.59885120e-02, -1.47903552e-02,
          -1.33709954e-02, -1.28630837e-02, -1.03130750e-02,
          -3.73009522e-03, 1.09498352e-02, -3.15972557e-03,
          1.98313803e-03, -1.22393062e-02, -7.45915622e-03,
          -1.36300121e-02, -7.64562795e-03, -7.70229800e-03,
          1.09145902e-02, 7.42523000e-03, -7.22623756e-03,
          -3.48547380e-03, -1.02327131e-02, 5.06476779e-03,
          -8.52737296e-03, -2.61638709e-03, -3.67035856e-03,
          6.01248629e-03, -2.90349289e-03, -8.39922205e-03,
          -9.30989441e-03, -1.32308481e-02, -1.57883819e-02,
          -1.47841219e-02, -1.16568450e-02, -1.10728908e-02,
          -4.05150419e-03, -1.08745717e-03, -1.04123885e-02,
          -8.09162762e-03, -9.70770605e-03, -1.34190451e-03,
          -1.34936161e-02, -1.09095462e-02, -7.45701231e-03,
          -2.65762536e-03, 7.06593180e-03, -6.94004213e-03,
          -8.79827701e-03, -8.84940941e-03, -1.45430199e-03,
          -1.01469746e-02, -4.96936869e-03, -3.52504780e-03,
          6.13142457e-03, -6.49005873e-04, -1.03858532e-02,
          -8.10902100e-03, -9.78659373e-03, 1.36839354e-03,
          -9.62857809e-03, -1.05785094e-02, -4.97808494e-03,
          2.58459849e-03, -3.17429076e-03, -1.15247499e-02,
          -9.77810845e-03, -1.08766444e-02, -1.44954873e-02,
          -1.45462062e-02, -1.23121217e-02, -7.20943511e-03,
          -2.27609160e-03, 9.70541558e-04, -6.75370032e-03,
          -2.74853036e-03, -5.25276922e-03, -5.66125521e-03,
          -1.12311943e-02, -1.42331598e-02, -8.11033882e-03,
          1.44449135e-04 ]
   decision_functions:
      -
         sv_count: 1
         rho: -4.8056810843639503e-01
         alpha: [ 1. ]
